{"learner":{"attributes":{"scikit_learn":"{\"_estimator_type\": \"classifier\"}"},"feature_names":[],"feature_types":[],"gradient_booster":{"model":{"cats":{"enc":[],"feature_segments":[],"sorted_idx":[]},"gbtree_model_param":{"num_parallel_tree":"1","num_trees":"300"},"iteration_indptr":[0,1,2,3,4,5,6,7,8,9,10,11,12,13,14,15,16,17,18,19,20,21,22,23,24,25,26,27,28,29,30,31,32,33,34,35,36,37,38,39,40,41,42,43,44,45,46,47,48,49,50,51,52,53,54,55,56,57,58,59,60,61,62,63,64,65,66,67,68,69,70,71,72,73,74,75,76,77,78,79,80,81,82,83,84,85,86,87,88,89,90,91,92,93,94,95,96,97,98,99,100,101,102,103,104,105,106,107,108,109,110,111,112,113,114,115,116,117,118,119,120,121,122,123,124,125,126,127,128,129,130,131,132,133,134,135,136,137,138,139,140,141,142,143,144,145,146,147,148,149,150,151,152,153,154,155,156,157,158,159,160,161,162,163,164,165,166,167,168,169,170,171,172,173,174,175,176,177,178,179,180,181,182,183,184,185,186,187,188,189,190,191,192,193,194,195,196,197,198,199,200,201,202,203,204,205,206,207,208,209,210,211,212,213,214,215,216,217,218,219,220,221,222,223,224,225,226,227,228,229,230,231,232,233,234,235,236,237,238,239,240,241,242,243,244,245,246,247,248,249,250,251,252,253,254,255,256,257,258,259,260,261,262,263,264,265,266,267,268,269,270,271,272,273,274,275,276,277,278,279,280,281,282,283,284,285,286,287,288,289,290,291,292,293,294,295,296,297,298,299,300],"tree_info":[0,0,0,0,0,0,0,0,0,0,0,0,0,0,0,0,0,0,0,0,0,0,0,0,0,0,0,0,0,0,0,0,0,0,0,0,0,0,0,0,0,0,0,0,0,0,0,0,0,0,0,0,0,0,0,0,0,0,0,0,0,0,0,0,0,0,0,0,0,0,0,0,0,0,0,0,0,0,0,0,0,0,0,0,0,0,0,0,0,0,0,0,0,0,0,0,0,0,0,0,0,0,0,0,0,0,0,0,0,0,0,0,0,0,0,0,0,0,0,0,0,0,0,0,0,0,0,0,0,0,0,0,0,0,0,0,0,0,0,0,0,0,0,0,0,0,0,0,0,0,0,0,0,0,0,0,0,0,0,0,0,0,0,0,0,0,0,0,0,0,0,0,0,0,0,0,0,0,0,0,0,0,0,0,0,0,0,0,0,0,0,0,0,0,0,0,0,0,0,0,0,0,0,0,0,0,0,0,0,0,0,0,0,0,0,0,0,0,0,0,0,0,0,0,0,0,0,0,0,0,0,0,0,0,0,0,0,0,0,0,0,0,0,0,0,0,0,0,0,0,0,0,0,0,0,0,0,0,0,0,0,0,0,0,0,0,0,0,0,0,0,0,0,0,0,0,0,0,0,0,0,0,0,0,0,0,0,0,0,0,0,0,0,0,0,0,0,0,0,0],"trees":[{"base_weights":[-1.7715312E-8,-5.844497E-1,8.768994E-2,-1.4422498E0,1.3644751E0,3.756345E-1,-1.6581168E0,1.5526235E0,-6.666667E-2,6.955716E-1,-4.479638E-2,-1.7824899E0,7.149221E-2,1.6548159E0,-5E-2,3.3232623E-3,4.1579187E-2,-1.8252494E0,2.8089887E-2,8.706417E-2,7.608906E-1,-9.294076E-2,-1.2412178E-2,7.006548E-2,-1.9925049E-2],"categories":[],"categories_nodes":[],"categories_segments":[],"categories_sizes":[],"default_left":[0,0,0,0,0,0,0,0,0,0,0,0,0,0,0,0,0,0,0,0,0,0,0,0,0],"id":0,"left_children":[1,3,-1,5,7,9,11,13,-1,15,-1,17,-1,19,-1,-1,-1,21,-1,-1,23,-1,-1,-1,-1],"loss_changes":[1.6656366E2,2.0573013E2,0E0,3.4025238E1,2.1238762E1,4.6303577E0,3.1840393E1,1.0984192E1,0E0,6.662917E-1,0E0,8.419266E0,0E0,1.362175E0,0E0,0E0,0E0,3.3854828E0,0E0,0E0,4.1537294E0,0E0,0E0,0E0,0E0],"parents":[2147483647,0,0,1,1,3,3,4,4,5,5,6,6,7,7,9,9,11,11,13,13,17,17,20,20],"right_children":[2,4,-1,6,8,10,12,14,-1,16,-1,18,-1,20,-1,-1,-1,22,-1,-1,24,-1,-1,-1,-1],"split_conditions":[1E0,1E0,8.768994E-2,1E0,1E0,1E0,1E0,1E0,-6.666667E-2,1E0,-4.479638E-2,1E0,7.149221E-2,1E0,-5E-2,3.3232623E-3,4.1579187E-2,1E0,2.8089887E-2,8.706417E-2,1E0,-9.294076E-2,-1.2412178E-2,7.006548E-2,-1.9925049E-2],"split_indices":[617,612,0,579,392,459,613,164,0,0,0,132,0,2,0,0,0,331,0,0,331,0,0,0,0],"split_type":[0,0,0,0,0,0,0,0,0,0,0,0,0,0,0,0,0,0,0,0,0,0,0,0,0],"sum_hessian":[1.605E2,1.2088281E2,3.9617188E1,8.411875E1,3.676406E1,8.85E0,7.526875E1,3.476406E1,2E0,7.432812E0,1.4171875E0,7.276094E1,2.5078125E0,3.376406E1,1E0,1.5859375E0,5.8468747E0,7.1675E1,1.0859375E0,2.9921875E1,3.8421874E0,7.000625E1,1.66875E0,2.340625E0,1.5015625E0],"tree_param":{"num_deleted":"0","num_feature":"702","num_nodes":"25","size_leaf_vector":"1"}},{"base_weights":[6.3189305E-4,-5.561338E-1,1.6714525E0,-1.3728006E0,1.2989887E0,1.7455728E0,1.0507728E0,3.5698348E-1,-1.5785433E0,1.4799726E0,-6.449301E-2,8.849106E-2,2.5834603E-2,6.617115E-2,1.1525999E-2,6.663218E-1,-4.349619E-2,-1.6979576E0,6.9000706E-2,1.5771478E0,-3.7626892E-2,3.2213607E-3,3.981881E-2,-1.7391149E0,2.7361562E-2,8.293672E-2,7.336721E-1,-8.855072E-2,-1.2024409E-2,6.767004E-2,-1.9328218E-2],"categories":[],"categories_nodes":[],"categories_segments":[],"categories_sizes":[],"default_left":[0,0,0,0,0,0,0,0,0,0,0,0,0,0,0,0,0,0,0,0,0,0,0,0,0,0,0,0,0,0,0],"id":1,"left_children":[1,3,5,7,9,11,13,15,17,19,-1,-1,-1,-1,-1,21,-1,23,-1,25,-1,-1,-1,27,-1,-1,29,-1,-1,-1,-1],"loss_changes":[1.5089024E2,1.861042E2,3.0899048E-2,3.0800354E1,1.9573647E1,1.1966705E-1,1.2240119E0,4.3167844E0,2.9233948E1,8.932617E0,0E0,0E0,0E0,0E0,0E0,6.086061E-1,0E0,7.7536163E0,0E0,1.1597748E0,0E0,0E0,0E0,3.0411377E0,0E0,0E0,3.8827333E0,0E0,0E0,0E0,0E0],"parents":[2147483647,0,0,1,1,2,2,3,3,4,4,5,5,6,6,7,7,8,8,9,9,15,15,17,17,19,19,23,23,26,26],"right_children":[2,4,6,8,10,12,14,16,18,20,-1,-1,-1,-1,-1,22,-1,24,-1,26,-1,-1,-1,28,-1,-1,30,-1,-1,-1,-1],"split_conditions":[1E0,1E0,1E0,1E0,1E0,1E0,1E0,1E0,1E0,1E0,-6.449301E-2,8.849106E-2,2.5834603E-2,6.617115E-2,1.1525999E-2,1E0,-4.349619E-2,1E0,6.9000706E-2,1E0,-3.7626892E-2,3.2213607E-3,3.981881E-2,1E0,2.7361562E-2,8.293672E-2,1E0,-8.855072E-2,-1.2024409E-2,6.767004E-2,-1.9328218E-2],"split_indices":[617,612,136,579,392,5,29,459,613,298,0,0,0,0,0,0,0,132,0,2,0,0,0,331,0,0,331,0,0,0,0],"split_type":[0,0,0,0,0,0,0,0,0,0,0,0,0,0,0,0,0,0,0,0,0,0,0,0,0,0,0,0,0,0,0],"sum_hessian":[1.6020377E2,1.20662636E2,3.9541126E1,8.396107E1,3.6701565E1,3.3703915E1,5.8372087E0,8.846758E0,7.511431E1,3.4703785E1,1.9977794E0,3.2620064E1,1.0838525E0,3.9205832E0,1.9166256E0,7.4302816E0,1.4164767E0,7.2609695E1,2.5046108E0,3.353754E1,1.1662464E0,1.5859331E0,5.8443484E0,7.152398E1,1.0857233E0,2.9698372E1,3.839168E0,6.985529E1,1.6686857E0,2.3377547E0,1.5014135E0],"tree_param":{"num_deleted":"0","num_feature":"702","num_nodes":"31","size_leaf_vector":"1"}},{"base_weights":[1.9377262E-3,-5.308964E-1,1.6010115E0,-1.3112221E0,1.2406847E0,8.0958106E-2,2.443941E-2,3.3941418E-1,-1.5084552E0,1.4154006E0,-6.2479563E-2,6.3866866E-1,-4.2258006E-2,-1.6236156E0,6.671296E-2,1.5095344E0,-3.663267E-2,3.1225963E-3,3.815953E-2,-1.6634687E0,2.6657525E-2,1.5868379E0,7.0829093E-1,-8.4702395E-2,-1.1649301E-2,8.056906E-2,2.3764357E-2,6.54647E-2,-1.8751444E-2],"categories":[],"categories_nodes":[],"categories_segments":[],"categories_sizes":[],"default_left":[0,0,0,0,0,0,0,0,0,0,0,0,0,0,0,0,0,0,0,0,0,0,0,0,0,0,0,0,0],"id":2,"left_children":[1,3,5,7,9,-1,-1,11,13,15,-1,17,-1,19,-1,21,-1,-1,-1,23,-1,25,27,-1,-1,-1,-1,-1,-1],"loss_changes":[1.3750114E2,1.68964E2,2.280426E-2,2.8028183E1,1.8096714E1,0E0,0E0,4.027082E0,2.69422E1,8.291588E0,0E0,5.567105E-1,0E0,7.1775513E0,0E0,1.0049896E0,0E0,0E0,0E0,2.7592316E0,0E0,6.730652E-2,3.6360855E0,0E0,0E0,0E0,0E0,0E0,0E0],"parents":[2147483647,0,0,1,1,2,2,3,3,4,4,7,7,8,8,9,9,11,11,13,13,15,15,19,19,21,21,22,22],"right_children":[2,4,6,8,10,-1,-1,12,14,16,-1,18,-1,20,-1,22,-1,-1,-1,24,-1,26,28,-1,-1,-1,-1,-1,-1],"split_conditions":[1E0,1E0,1E0,1E0,1E0,8.0958106E-2,2.443941E-2,1E0,1E0,1E0,-6.2479563E-2,1E0,-4.2258006E-2,1E0,6.671296E-2,1E0,-3.663267E-2,3.1225963E-3,3.815953E-2,1E0,2.6657525E-2,1E0,1E0,-8.4702395E-2,-1.1649301E-2,8.056906E-2,2.3764357E-2,6.54647E-2,-1.8751444E-2],"split_indices":[617,612,149,579,392,0,0,459,613,298,0,0,0,132,0,2,0,0,0,331,0,266,331,0,0,0,0,0,0],"split_type":[0,0,0,0,0,0,0,0,0,0,0,0,0,0,0,0,0,0,0,0,0,0,0,0,0,0,0,0,0],"sum_hessian":[1.5938094E2,1.20047424E2,3.933351E1,8.351955E1,3.6527874E1,3.8253456E1,1.0800549E0,8.83755E0,7.4682E1,3.453645E1,1.991423E0,7.4231215E0,1.4144291E0,7.218652E1,2.4954782E0,3.337128E1,1.1651682E0,1.5859205E0,5.8372006E0,7.110142E1,1.0851032E0,2.9540737E1,3.830543E0,6.9432915E1,1.668501E0,2.8462608E1,1.0781292E0,2.3295588E0,1.5009842E0],"tree_param":{"num_deleted":"0","num_feature":"702","num_nodes":"29","size_leaf_vector":"1"}},{"base_weights":[2.7945498E-3,-5.0807446E-1,1.5362225E0,-1.2561505E0,1.1887355E0,1.6068106E0,9.534657E-1,3.228324E-1,-1.446173E0,1.3579344E0,-6.0608532E-2,1.6299514E0,2.3156686E-2,6.0993727E-2,8.928151E-3,6.124737E-1,-4.107707E-2,-1.5576524E0,6.4604014E-2,1.449486E0,-3.567799E-2,1.6555094E0,2.6751861E-2,3.0268645E-3,3.659186E-2,-1.5964413E0,2.5976563E-2,1.5232543E0,6.8455696E-1,8.4192365E-2,2.1617202E-2,-8.129877E-2,-1.1286389E-2,7.7320375E-2,2.3174442E-2,6.3426815E-2,-1.8193847E-2],"categories":[],"categories_nodes":[],"categories_segments":[],"categories_sizes":[],"default_left":[0,0,0,0,0,0,0,0,0,0,0,0,0,0,0,0,0,0,0,0,0,0,0,0,0,0,0,0,0,0,0,0,0,0,0,0,0],"id":3,"left_children":[1,3,5,7,9,11,13,15,17,19,-1,21,-1,-1,-1,23,-1,25,-1,27,-1,29,-1,-1,-1,31,-1,33,35,-1,-1,-1,-1,-1,-1,-1,-1],"loss_changes":[1.25422165E2,1.5393872E2,1.1377716E-1,2.5621536E1,1.6782555E1,1.5096283E-1,1.182261E0,3.7591157E0,2.4911285E1,7.725006E0,0E0,4.193878E-2,0E0,0E0,0E0,5.098834E-1,0E0,6.673523E0,0E0,8.823395E-1,0E0,3.7834167E-1,0E0,0E0,0E0,2.5254211E0,0E0,2.671051E-2,3.4108217E0,0E0,0E0,0E0,0E0,0E0,0E0,0E0,0E0],"parents":[2147483647,0,0,1,1,2,2,3,3,4,4,5,5,6,6,7,7,8,8,9,9,11,11,15,15,17,17,19,19,21,21,25,25,27,27,28,28],"right_children":[2,4,6,8,10,12,14,16,18,20,-1,22,-1,-1,-1,24,-1,26,-1,28,-1,30,-1,-1,-1,32,-1,34,36,-1,-1,-1,-1,-1,-1,-1,-1],"split_conditions":[1E0,1E0,1E0,1E0,1E0,1E0,1E0,1E0,1E0,1E0,-6.0608532E-2,1E0,2.3156686E-2,6.0993727E-2,8.928151E-3,1E0,-4.107707E-2,1E0,6.4604014E-2,1E0,-3.567799E-2,1E0,2.6751861E-2,3.0268645E-3,3.659186E-2,1E0,2.5976563E-2,1E0,1E0,8.4192365E-2,2.1617202E-2,-8.129877E-2,-1.1286389E-2,7.7320375E-2,2.3174442E-2,6.3426815E-2,-1.8193847E-2],"split_indices":[617,612,136,579,392,5,29,459,613,298,0,622,0,0,0,0,0,132,0,2,0,4,0,0,0,331,0,266,331,0,0,0,0,0,0,0,0],"split_type":[0,0,0,0,0,0,0,0,0,0,0,0,0,0,0,0,0,0,0,0,0,0,0,0,0,0,0,0,0,0,0,0,0,0,0,0,0],"sum_hessian":[1.5810736E2,1.1909796E2,3.90094E1,8.2837105E1,3.626086E1,3.322738E1,5.78202E0,8.823097E0,7.401401E1,3.427949E1,1.9813685E0,3.2151646E1,1.0757333E0,3.8754315E0,1.9065887E0,7.411931E0,1.4111661E0,7.153292E1,2.4810863E0,3.311616E1,1.1633304E0,3.0917948E1,1.2336992E0,1.5859004E0,5.8260307E0,7.044881E1,1.0841092E0,2.9299232E1,3.8169293E0,2.9849766E1,1.0681828E0,6.87806E1,1.6682067E0,2.8223423E1,1.075808E0,2.3166292E0,1.5003003E0],"tree_param":{"num_deleted":"0","num_feature":"702","num_nodes":"37","size_leaf_vector":"1"}},{"base_weights":[4.378352E-3,-4.8746645E-1,1.4807057E0,-1.2065139E0,1.141603E0,1.5486523E0,9.2061144E-1,3.0715507E-1,-1.3903852E0,1.3058889E0,-5.8864523E-2,1.5707893E0,2.2585137E-2,5.895085E-2,8.639787E-3,5.8761567E-1,-3.99491E-2,-1.498655E0,6.265268E-2,1.3952235E0,-3.4760393E-2,1.5951658E0,2.6064608E-2,2.934082E-3,3.510753E-2,-1.5365759E0,2.531758E-2,7.329958E-2,6.623047E-1,8.1116445E-2,2.1091063E-2,-7.82644E-2,-1.0935216E-2,6.1537046E-2,-1.765461E-2],"categories":[],"categories_nodes":[],"categories_segments":[],"categories_sizes":[],"default_left":[0,0,0,0,0,0,0,0,0,0,0,0,0,0,0,0,0,0,0,0,0,0,0,0,0,0,0,0,0,0,0,0,0,0,0],"id":4,"left_children":[1,3,5,7,9,11,13,15,17,19,-1,21,-1,-1,-1,23,-1,25,-1,27,-1,29,-1,-1,-1,31,-1,-1,33,-1,-1,-1,-1,-1,-1],"loss_changes":[1.1505826E2,1.4061227E2,8.1222534E-2,2.351413E1,1.5599758E1,1.1238861E-1,1.1005988E0,3.5109851E0,2.3099213E1,7.216938E0,0E0,6.919861E-3,0E0,0E0,0E0,4.6751404E-1,0E0,6.228424E0,0E0,7.813492E-1,0E0,3.2105255E-1,0E0,0E0,0E0,2.329193E0,0E0,0E0,3.2044334E0,0E0,0E0,0E0,0E0,0E0,0E0],"parents":[2147483647,0,0,1,1,2,2,3,3,4,4,5,5,6,6,7,7,8,8,9,9,11,11,15,15,17,17,19,19,21,21,25,25,28,28],"right_children":[2,4,6,8,10,12,14,16,18,20,-1,22,-1,-1,-1,24,-1,26,-1,28,-1,30,-1,-1,-1,32,-1,-1,34,-1,-1,-1,-1,-1,-1],"split_conditions":[1E0,1E0,1E0,1E0,1E0,1E0,1E0,1E0,1E0,1E0,-5.8864523E-2,1E0,2.2585137E-2,5.895085E-2,8.639787E-3,1E0,-3.99491E-2,1E0,6.265268E-2,1E0,-3.4760393E-2,1E0,2.6064608E-2,2.934082E-3,3.510753E-2,1E0,2.531758E-2,7.329958E-2,1E0,8.1116445E-2,2.1091063E-2,-7.82644E-2,-1.0935216E-2,6.1537046E-2,-1.765461E-2],"split_indices":[617,612,136,579,392,5,29,459,613,298,0,622,0,0,0,0,0,132,0,2,0,4,0,0,0,331,0,0,331,0,0,0,0,0,0],"split_type":[0,0,0,0,0,0,0,0,0,0,0,0,0,0,0,0,0,0,0,0,0,0,0,0,0,0,0,0,0,0,0,0,0,0,0],"sum_hessian":[1.5646135E2,1.17864204E2,3.8597153E1,8.195143E1,3.5912773E1,3.2847363E1,5.74979E0,8.804054E0,7.314738E1,3.3944748E1,1.968024E0,3.1774185E1,1.073179E0,3.8446639E0,1.9051263E0,7.397252E0,1.4068023E0,7.068532E1,2.462057E0,3.278395E1,1.1607977E0,3.0544792E1,1.2293931E0,1.5858736E0,5.8113785E0,6.960255E1,1.082772E0,2.8985052E1,3.798899E0,2.947968E1,1.065112E0,6.793473E1,1.667814E0,2.299514E0,1.499385E0],"tree_param":{"num_deleted":"0","num_feature":"702","num_nodes":"35","size_leaf_vector":"1"}},{"base_weights":[5.7151313E-3,-4.6893474E-1,1.4305458E0,-1.1614586E0,1.0979462E0,1.4964252E0,8.8970286E-1,2.9230976E-1,-1.3400532E0,1.2577966E0,-5.7234157E-2,7.588803E-2,2.2030639E-2,5.7047464E-2,8.36088E-3,5.639884E-1,-3.8870234E-2,-1.4455059E0,6.0840804E-2,1.3451983E0,-3.3877585E-2,2.8441472E-3,3.3699386E-2,-1.4827212E0,2.4679542E-2,1.4133159E0,6.413899E-1,-7.5539745E-2,-1.059536E-2,7.179385E-2,2.081258E-2,5.977878E-2,-1.7132958E-2],"categories":[],"categories_nodes":[],"categories_segments":[],"categories_sizes":[],"default_left":[0,0,0,0,0,0,0,0,0,0,0,0,0,0,0,0,0,0,0,0,0,0,0,0,0,0,0,0,0,0,0,0,0],"id":5,"left_children":[1,3,5,7,9,11,13,15,17,19,-1,-1,-1,-1,-1,21,-1,23,-1,25,-1,-1,-1,27,-1,29,31,-1,-1,-1,-1,-1,-1],"loss_changes":[1.0583002E2,1.286563E2,6.18515E-2,2.1654694E1,1.4522766E1,8.340454E-2,1.0276251E0,3.2809918E0,2.1472687E1,6.754551E0,0E0,0E0,0E0,0E0,0E0,4.2908454E-1,0E0,5.832123E0,0E0,6.94088E-1,0E0,0E0,0E0,2.1627502E0,0E0,6.8359375E-2,3.0147831E0,0E0,0E0,0E0,0E0,0E0,0E0],"parents":[2147483647,0,0,1,1,2,2,3,3,4,4,5,5,6,6,7,7,8,8,9,9,15,15,17,17,19,19,23,23,25,25,26,26],"right_children":[2,4,6,8,10,12,14,16,18,20,-1,-1,-1,-1,-1,22,-1,24,-1,26,-1,-1,-1,28,-1,30,32,-1,-1,-1,-1,-1,-1],"split_conditions":[1E0,1E0,1E0,1E0,1E0,1E0,1E0,1E0,1E0,1E0,-5.7234157E-2,7.588803E-2,2.2030639E-2,5.7047464E-2,8.36088E-3,1E0,-3.8870234E-2,1E0,6.0840804E-2,1E0,-3.3877585E-2,2.8441472E-3,3.3699386E-2,1E0,2.4679542E-2,1E0,1E0,-7.5539745E-2,-1.059536E-2,7.179385E-2,2.081258E-2,5.977878E-2,-1.7132958E-2],"split_indices":[617,612,136,579,392,5,29,459,613,298,0,0,0,0,0,0,0,132,0,2,0,0,0,331,0,266,331,0,0,0,0,0,0],"split_type":[0,0,0,0,0,0,0,0,0,0,0,0,0,0,0,0,0,0,0,0,0,0,0,0,0,0,0,0,0,0,0,0,0],"sum_hessian":[1.544929E2,1.1639083E2,3.810207E1,8.089564E1,3.5495193E1,3.2389862E1,5.712206E0,8.781016E0,7.2114624E1,3.3543423E1,1.9517704E0,3.1319445E1,1.0704201E0,3.808565E0,1.9036409E0,7.3795714E0,1.4014452E0,6.967566E1,2.4389653E0,3.238579E1,1.1576315E0,1.5858407E0,5.7937307E0,6.8594536E1,1.0811204E0,2.8608807E1,3.7769835E0,6.69272E1,1.6673323E0,2.7545422E1,1.0633852E0,2.2787228E0,1.4982607E0],"tree_param":{"num_deleted":"0","num_feature":"702","num_nodes":"33","size_leaf_vector":"1"}},{"base_weights":[6.8064844E-3,-4.5178735E-1,1.3838038E0,-1.1202953E0,1.0583934E0,1.4478974E0,8.6053765E-1,2.7823192E-1,-1.294342E0,1.2142646E0,-5.5705823E-2,1.4685564E0,2.149246E-2,1.0373966E0,8.332334E-5,5.414979E-1,-3.7836973E-2,-1.3973074E0,5.9152838E-2,1.3000054E0,-3.302748E-2,1.4926846E0,2.3487816E-2,6.344142E-2,8.560091E-3,2.7569782E-3,3.236113E-2,-1.4339533E0,2.4061488E-2,1.3659041E0,6.216861E-1,7.5982414E-2,1.8759714E-2,-7.3077075E-2,-1.026643E-2,6.9381826E-2,2.030955E-2,5.8137693E-2,-1.6628167E-2],"categories":[],"categories_nodes":[],"categories_segments":[],"categories_sizes":[],"default_left":[0,0,0,0,0,0,0,0,0,0,0,0,0,0,0,0,0,0,0,0,0,0,0,0,0,0,0,0,0,0,0,0,0,0,0,0,0,0,0],"id":6,"left_children":[1,3,5,7,9,11,13,15,17,19,-1,21,-1,23,-1,25,-1,27,-1,29,-1,31,-1,-1,-1,-1,-1,33,-1,35,37,-1,-1,-1,-1,-1,-1,-1,-1],"loss_changes":[9.7403206E1,1.1801361E2,4.639435E-2,2.0002953E1,1.3550999E1,5.9951782E-2,1.0114441E0,3.0676138E0,2.0005089E1,6.3384514E0,0E0,6.5086365E-2,0E0,8.912401E-1,0E0,3.9414978E-1,0E0,5.4766846E0,0E0,6.2304306E-1,0E0,3.5149384E-1,0E0,0E0,0E0,0E0,0E0,2.0201416E0,0E0,4.50325E-2,2.840041E0,0E0,0E0,0E0,0E0,0E0,0E0,0E0,0E0],"parents":[2147483647,0,0,1,1,2,2,3,3,4,4,5,5,6,6,7,7,8,8,9,9,11,11,13,13,15,15,17,17,19,19,21,21,27,27,29,29,30,30],"right_children":[2,4,6,8,10,12,14,16,18,20,-1,22,-1,24,-1,26,-1,28,-1,30,-1,32,-1,-1,-1,-1,-1,34,-1,36,38,-1,-1,-1,-1,-1,-1,-1,-1],"split_conditions":[1E0,1E0,1E0,1E0,1E0,1E0,1E0,1E0,1E0,1E0,-5.5705823E-2,1E0,2.149246E-2,1E0,8.332334E-5,1E0,-3.7836973E-2,1E0,5.9152838E-2,1E0,-3.302748E-2,1E0,2.3487816E-2,6.344142E-2,8.560091E-3,2.7569782E-3,3.236113E-2,1E0,2.4061488E-2,1E0,1E0,7.5982414E-2,1.8759714E-2,-7.3077075E-2,-1.026643E-2,6.9381826E-2,2.030955E-2,5.8137693E-2,-1.6628167E-2],"split_indices":[617,612,136,579,392,5,612,459,613,298,0,622,0,29,0,0,0,132,0,2,0,4,0,0,0,0,0,331,0,266,331,0,0,0,0,0,0,0,0],"split_type":[0,0,0,0,0,0,0,0,0,0,0,0,0,0,0,0,0,0,0,0,0,0,0,0,0,0,0,0,0,0,0,0,0,0,0,0,0,0,0],"sum_hessian":[1.5225526E2,1.147207E2,3.7534565E1,7.96988E1,3.50219E1,3.1864521E1,5.6700435E0,8.75452E0,7.0944275E1,3.3088943E1,1.9329594E0,3.0797043E1,1.0674775E0,4.5294733E0,1.14057E0,7.359326E0,1.395195E0,6.853194E1,2.412338E0,3.1935053E1,1.1538892E0,2.9587807E1,1.2092375E0,3.207623E0,1.3218502E0,1.5858022E0,5.773524E0,6.745276E1,1.0791812E0,2.8183384E1,3.75167E0,2.8539312E1,1.0484942E0,6.578599E1,1.6667708E0,2.7123295E1,1.0600884E0,2.254722E0,1.4969479E0],"tree_param":{"num_deleted":"0","num_feature":"702","num_nodes":"39","size_leaf_vector":"1"}},{"base_weights":[8.202725E-3,-4.360021E-1,1.3422524E0,-1.082461E0,1.0218635E0,6.792163E-2,1.9824836E-2,2.6486468E-1,-1.252573E0,1.1741222E0,-5.4269325E-2,5.200612E-1,-3.6846135E-2,-1.3533306E0,5.7575323E-2,1.2584172E0,-3.2208156E-2,2.67248E-3,3.1087259E-2,-1.3895222E0,2.3462495E-2,1.3223877E0,6.030826E-1,-7.083772E-2,-9.948011E-3,6.717151E-2,1.9820776E-2,5.6601375E-2,-1.613955E-2],"categories":[],"categories_nodes":[],"categories_segments":[],"categories_sizes":[],"default_left":[0,0,0,0,0,0,0,0,0,0,0,0,0,0,0,0,0,0,0,0,0,0,0,0,0,0,0,0,0],"id":7,"left_children":[1,3,5,7,9,-1,-1,11,13,15,-1,17,-1,19,-1,21,-1,-1,-1,23,-1,25,27,-1,-1,-1,-1,-1,-1],"loss_changes":[8.994997E1,1.0843965E2,4.158783E-2,1.8526848E1,1.2664864E1,0E0,0E0,2.8694806E0,1.867463E1,5.95895E0,0E0,3.6232877E-1,0E0,5.1558228E0,0E0,5.6243134E-1,0E0,0E0,0E0,1.8969116E0,0E0,2.6977539E-2,2.6786315E0,0E0,0E0,0E0,0E0,0E0,0E0],"parents":[2147483647,0,0,1,1,2,2,3,3,4,4,7,7,8,8,9,9,11,11,13,13,15,15,19,19,21,21,22,22],"right_children":[2,4,6,8,10,-1,-1,12,14,16,-1,18,-1,20,-1,22,-1,-1,-1,24,-1,26,28,-1,-1,-1,-1,-1,-1],"split_conditions":[1E0,1E0,1E0,1E0,1E0,6.792163E-2,1.9824836E-2,1E0,1E0,1E0,-5.4269325E-2,1E0,-3.6846135E-2,1E0,5.7575323E-2,1E0,-3.2208156E-2,2.67248E-3,3.1087259E-2,1E0,2.3462495E-2,1E0,1E0,-7.083772E-2,-9.948011E-3,6.717151E-2,1.9820776E-2,5.6601375E-2,-1.613955E-2],"split_indices":[617,612,149,579,392,0,0,459,613,298,0,0,0,132,0,2,0,0,0,331,0,266,331,0,0,0,0,0,0],"split_type":[0,0,0,0,0,0,0,0,0,0,0,0,0,0,0,0,0,0,0,0,0,0,0,0,0,0,0,0,0],"sum_hessian":[1.4980333E2,1.1288774E2,3.6915592E1,7.838647E1,3.4501278E1,3.586565E1,1.0499455E0,8.725054E0,6.966141E1,3.258936E1,1.9119166E0,7.3369083E0,1.3881459E0,6.7278755E1,2.3826578E0,3.1439734E1,1.1496252E0,1.5857588E0,5.751149E0,6.6201775E1,1.0769801E0,2.7716328E1,3.7234073E0,6.453564E1,1.6661378E0,2.6659662E1,1.0566657E0,2.2279415E0,1.4954658E0],"tree_param":{"num_deleted":"0","num_feature":"702","num_nodes":"29","size_leaf_vector":"1"}},{"base_weights":[8.734635E-3,-4.2139044E-1,1.300854E0,-1.0474917E0,9.8795396E-1,1.3654922E0,7.8964543E-1,2.521573E-1,-1.2141883E0,1.136914E0,-5.291576E-2,1.3865088E0,1.9334031E-2,9.641533E-1,-1.2608204E-3,5.4257506E-1,-2.9537175E-2,-1.3129768E0,5.609664E-2,1.2199458E0,-3.141785E-2,1.410646E0,2.1390738E-2,5.9949547E-2,6.426425E-3,-2.2772774E-3,3.406117E-2,-1.3488123E0,2.288174E-2,1.2822285E0,5.854817E-1,7.1894266E-2,1.6712198E-2,-6.878995E-2,-9.639754E-3,6.5134846E-2,1.934568E-2,5.515903E-2,-1.5666462E-2],"categories":[],"categories_nodes":[],"categories_segments":[],"categories_sizes":[],"default_left":[0,0,0,0,0,0,0,0,0,0,0,0,0,0,0,0,0,0,0,0,0,0,0,0,0,0,0,0,0,0,0,0,0,0,0,0,0,0,0],"id":8,"left_children":[1,3,5,7,9,11,13,15,17,19,-1,21,-1,23,-1,25,-1,27,-1,29,-1,31,-1,-1,-1,-1,-1,33,-1,35,37,-1,-1,-1,-1,-1,-1,-1,-1],"loss_changes":[8.289908E1,9.979494E1,1.526413E-1,1.7200539E1,1.1853985E1,1.15932465E-1,9.560933E-1,2.6933184E0,1.7463493E1,5.6112823E0,0E0,1.056366E-1,0E0,9.099541E-1,0E0,6.613803E-1,0E0,4.8644943E0,0E0,5.1017E-1,0E0,3.8308716E-1,0E0,0E0,0E0,0E0,0E0,1.7894974E0,0E0,1.3034821E-2,2.529191E0,0E0,0E0,0E0,0E0,0E0,0E0,0E0,0E0],"parents":[2147483647,0,0,1,1,2,2,3,3,4,4,5,5,6,6,7,7,8,8,9,9,11,11,13,13,15,15,17,17,19,19,21,21,27,27,29,29,30,30],"right_children":[2,4,6,8,10,12,14,16,18,20,-1,22,-1,24,-1,26,-1,28,-1,30,-1,32,-1,-1,-1,-1,-1,34,-1,36,38,-1,-1,-1,-1,-1,-1,-1,-1],"split_conditions":[1E0,1E0,1E0,1E0,1E0,1E0,1E0,1E0,1E0,1E0,-5.291576E-2,1E0,1.9334031E-2,1E0,-1.2608204E-3,1E0,-2.9537175E-2,1E0,5.609664E-2,1E0,-3.141785E-2,1E0,2.1390738E-2,5.9949547E-2,6.426425E-3,-2.2772774E-3,3.406117E-2,1E0,2.288174E-2,1E0,1E0,7.1894266E-2,1.6712198E-2,-6.878995E-2,-9.639754E-3,6.5134846E-2,1.934568E-2,5.515903E-2,-1.5666462E-2],"split_indices":[617,612,136,579,392,5,612,272,613,298,0,622,0,29,0,0,0,132,0,2,0,4,0,0,0,0,0,331,0,266,331,0,0,0,0,0,0,0,0],"split_type":[0,0,0,0,0,0,0,0,0,0,0,0,0,0,0,0,0,0,0,0,0,0,0,0,0,0,0,0,0,0,0,0,0,0,0,0,0,0,0],"sum_hessian":[1.4717368E2,1.10923096E2,3.625058E1,7.6981026E1,3.3942066E1,3.0697962E1,5.552618E0,8.693055E0,6.828797E1,3.2053127E1,1.8889403E0,2.9644918E1,1.0530429E0,4.422336E0,1.130282E0,6.7304187E0,1.9626364E0,6.593761E1,2.3503647E0,3.0908236E1,1.1448903E0,2.8457027E1,1.1878906E0,3.1127176E0,1.3096185E0,1.4120909E0,5.3183274E0,6.486307E1,1.0745411E0,2.721563E1,3.6926053E0,2.7427134E1,1.029894E0,6.3197624E1,1.6654412E0,2.6162498E1,1.053132E0,2.1987736E0,1.4938316E0],"tree_param":{"num_deleted":"0","num_feature":"702","num_nodes":"39","size_leaf_vector":"1"}},{"base_weights":[1.0048992E-2,-4.0773204E-1,1.265501E0,-1.0148883E0,9.56327E-1,1.3292302E0,7.664281E-1,2.406016E-1,-1.1787257E0,1.1022588E0,-5.1637262E-2,1.3499426E0,1.8872438E-2,9.3751884E-1,-1.2272341E-3,4.826142E-1,-3.526444E-2,-1.2757502E0,5.4706644E-2,1.1841826E0,-3.0654926E-2,1.3737116E0,2.086767E-2,5.8426112E-2,6.247536E-3,2.880222E-3,2.8729683E-2,-1.311314E0,2.2318421E-2,1.2449769E0,5.6879747E-1,7.003135E-2,1.632098E-2,-6.690754E-2,-9.341299E-3,6.324844E-2,1.8883763E-2,5.3801257E-2,-1.5208309E-2],"categories":[],"categories_nodes":[],"categories_segments":[],"categories_sizes":[],"default_left":[0,0,0,0,0,0,0,0,0,0,0,0,0,0,0,0,0,0,0,0,0,0,0,0,0,0,0,0,0,0,0,0,0,0,0,0,0,0,0],"id":9,"left_children":[1,3,5,7,9,11,13,15,17,19,-1,21,-1,23,-1,25,-1,27,-1,29,-1,31,-1,-1,-1,-1,-1,33,-1,35,37,-1,-1,-1,-1,-1,-1,-1,-1],"loss_changes":[7.678216E1,9.1953674E1,1.4371109E-1,1.6020363E1,1.1109661E1,1.0255051E-1,9.027107E-1,2.5521085E0,1.635682E1,5.2914696E0,0E0,9.167099E-2,0E0,8.6196995E-1,0E0,2.9085863E-1,0E0,4.5985565E0,0E0,4.646454E-1,0E0,3.5512543E-1,0E0,0E0,0E0,0E0,0E0,1.6951141E0,0E0,2.3422241E-3,2.3905377E0,0E0,0E0,0E0,0E0,0E0,0E0,0E0,0E0],"parents":[2147483647,0,0,1,1,2,2,3,3,4,4,5,5,6,6,7,7,8,8,9,9,11,11,13,13,15,15,17,17,19,19,21,21,27,27,29,29,30,30],"right_children":[2,4,6,8,10,12,14,16,18,20,-1,22,-1,24,-1,26,-1,28,-1,30,-1,32,-1,-1,-1,-1,-1,34,-1,36,38,-1,-1,-1,-1,-1,-1,-1,-1],"split_conditions":[1E0,1E0,1E0,1E0,1E0,1E0,1E0,1E0,1E0,1E0,-5.1637262E-2,1E0,1.8872438E-2,1E0,-1.2272341E-3,1E0,-3.526444E-2,1E0,5.4706644E-2,1E0,-3.0654926E-2,1E0,2.086767E-2,5.8426112E-2,6.247536E-3,2.880222E-3,2.8729683E-2,1E0,2.2318421E-2,1E0,1E0,7.003135E-2,1.632098E-2,-6.690754E-2,-9.341299E-3,6.324844E-2,1.8883763E-2,5.3801257E-2,-1.5208309E-2],"split_indices":[617,612,136,579,392,5,612,459,613,298,0,622,0,29,0,0,0,132,0,2,0,4,0,0,0,0,0,331,0,266,331,0,0,0,0,0,0,0,0],"split_type":[0,0,0,0,0,0,0,0,0,0,0,0,0,0,0,0,0,0,0,0,0,0,0,0,0,0,0,0,0,0,0,0,0,0,0,0,0,0,0],"sum_hessian":[1.4440627E2,1.0885684E2,3.5549427E1,7.550486E1,3.3351986E1,3.0048931E1,5.5004973E0,8.661678E0,6.684318E1,3.148768E1,1.8643048E0,2.8999521E1,1.0494103E0,4.36998E0,1.1305178E0,7.287021E0,1.3746569E0,6.452732E1,2.3158596E0,3.0347948E1,1.1397321E0,2.7817522E1,1.1819985E0,3.0615551E0,1.3084245E0,1.5857975E0,5.7012234E0,6.3455433E1,1.0718865E0,2.6688309E1,3.6596386E0,2.67916E1,1.0259235E0,6.1790745E1,1.6646878E0,2.5638807E1,1.0495018E0,2.1675763E0,1.4920622E0],"tree_param":{"num_deleted":"0","num_feature":"702","num_nodes":"39","size_leaf_vector":"1"}},{"base_weights":[1.1281609E-2,-3.9502254E-1,1.2327325E0,-9.8455215E-1,9.2669797E-1,1.295784E0,7.4437886E-1,2.2906357E-1,-1.145798E0,1.069835E0,-5.042691E-2,1.3162843E0,1.8423503E-2,9.123211E-1,-1.1945446E-3,4.6385136E-1,-3.4374032E-2,-1.2412354E0,5.3396482E-2,1.1507837E0,-2.9917872E-2,6.719822E-2,2.2006795E-2,5.6998458E-2,6.0736844E-3,2.7919419E-3,2.7621267E-2,-1.2766008E0,2.1771798E-2,6.0512763E-2,5.5295324E-1,-6.516854E-2,-9.052316E-3,5.2519776E-2,-1.4764507E-2],"categories":[],"categories_nodes":[],"categories_segments":[],"categories_sizes":[],"default_left":[0,0,0,0,0,0,0,0,0,0,0,0,0,0,0,0,0,0,0,0,0,0,0,0,0,0,0,0,0,0,0,0,0,0,0],"id":10,"left_children":[1,3,5,7,9,11,13,15,17,19,-1,21,-1,23,-1,25,-1,27,-1,29,-1,-1,-1,-1,-1,-1,-1,31,-1,-1,33,-1,-1,-1,-1],"loss_changes":[7.1219986E1,8.4837425E1,1.3835526E-1,1.4933342E1,1.0424473E1,9.238815E-2,8.534558E-1,2.3903327E0,1.5342178E1,4.9962273E0,0E0,1.19709015E-1,0E0,8.184047E-1,0E0,2.6766706E-1,0E0,4.354645E0,0E0,4.2461395E-1,0E0,0E0,0E0,0E0,0E0,0E0,0E0,1.6115494E0,0E0,0E0,2.2616353E0,0E0,0E0,0E0,0E0],"parents":[2147483647,0,0,1,1,2,2,3,3,4,4,5,5,6,6,7,7,8,8,9,9,11,11,13,13,15,15,17,17,19,19,27,27,30,30],"right_children":[2,4,6,8,10,12,14,16,18,20,-1,22,-1,24,-1,26,-1,28,-1,30,-1,-1,-1,-1,-1,-1,-1,32,-1,-1,34,-1,-1,-1,-1],"split_conditions":[1E0,1E0,1E0,1E0,1E0,1E0,1E0,1E0,1E0,1E0,-5.042691E-2,1E0,1.8423503E-2,1E0,-1.1945446E-3,1E0,-3.4374032E-2,1E0,5.3396482E-2,1E0,-2.9917872E-2,6.719822E-2,2.2006795E-2,5.6998458E-2,6.0736844E-3,2.7919419E-3,2.7621267E-2,1E0,2.1771798E-2,6.0512763E-2,1E0,-6.516854E-2,-9.052316E-3,5.2519776E-2,-1.4764507E-2],"split_indices":[617,612,136,579,392,5,612,459,613,298,0,637,0,29,0,0,0,132,0,2,0,0,0,0,0,0,0,331,0,0,331,0,0,0,0],"split_type":[0,0,0,0,0,0,0,0,0,0,0,0,0,0,0,0,0,0,0,0,0,0,0,0,0,0,0,0,0,0,0,0,0,0,0],"sum_hessian":[1.4152629E2,1.0670761E2,3.4818687E1,7.396981E1,3.27378E1,2.9372963E1,5.4457235E0,8.625965E0,6.534384E1,3.089954E1,1.83826E0,2.8327269E1,1.0456945E0,4.3149767E0,1.1307465E0,7.2600875E0,1.3658776E0,6.306434E1,2.2795048E0,2.9765345E1,1.1341953E0,2.6942144E1,1.3851234E0,3.0077374E0,1.3072394E0,1.5857613E0,5.6743264E0,6.19953E1,1.0690374E0,2.61405E1,3.6248467E0,6.0331417E1,1.6638845E0,2.1346738E0,1.4901729E0],"tree_param":{"num_deleted":"0","num_feature":"702","num_nodes":"35","size_leaf_vector":"1"}},{"base_weights":[1.2223277E-2,-3.8327315E-1,1.2015523E0,-9.5609814E-1,8.982362E-1,1.263989E0,7.2339267E-1,2.1806476E-1,-1.1150787E0,1.0387477E0,-4.9278587E-2,1.2843237E0,1.798677E-2,8.884202E-1,-1.1627204E-3,4.8772907E-1,-2.7876949E-2,-1.2090824E0,5.215841E-2,1.1188115E0,-2.9205311E-2,1.3086834E0,1.8953737E-2,5.565648E-2,5.904701E-3,-2.001368E-3,3.0665848E-2,-1.2443132E0,2.1241168E-2,1.2039362E0,6.560143E-1,6.682747E-2,1.4381311E-2,-6.355446E-2,-8.772467E-3,6.438671E-2,3.5510283E-2,5.1729966E-2,-1.58009E-2],"categories":[],"categories_nodes":[],"categories_segments":[],"categories_sizes":[],"default_left":[0,0,0,0,0,0,0,0,0,0,0,0,0,0,0,0,0,0,0,0,0,0,0,0,0,0,0,0,0,0,0,0,0,0,0,0,0,0,0],"id":11,"left_children":[1,3,5,7,9,11,13,15,17,19,-1,21,-1,23,-1,25,-1,27,-1,29,-1,31,-1,-1,-1,-1,-1,33,-1,35,37,-1,-1,-1,-1,-1,-1,-1,-1],"loss_changes":[6.6111176E1,7.8303375E1,1.3270187E-1,1.3943443E1,9.78664E0,8.3797455E-2,8.078723E-1,2.2774436E0,1.440905E1,4.719635E0,0E0,1.3549042E-1,0E0,7.7867556E-1,0E0,5.3148353E-1,0E0,4.1299744E0,0E0,3.9860535E-1,0E0,3.9754486E-1,0E0,0E0,0E0,0E0,0E0,1.5370331E0,0E0,9.008789E-2,2.8601866E0,0E0,0E0,0E0,0E0,0E0,0E0,0E0,0E0],"parents":[2147483647,0,0,1,1,2,2,3,3,4,4,5,5,6,6,7,7,8,8,9,9,11,11,13,13,15,15,17,17,19,19,21,21,27,27,29,29,30,30],"right_children":[2,4,6,8,10,12,14,16,18,20,-1,22,-1,24,-1,26,-1,28,-1,30,-1,32,-1,-1,-1,-1,-1,34,-1,36,38,-1,-1,-1,-1,-1,-1,-1,-1],"split_conditions":[1E0,1E0,1E0,1E0,1E0,1E0,1E0,1E0,1E0,1E0,-4.9278587E-2,1E0,1.798677E-2,1E0,-1.1627204E-3,1E0,-2.7876949E-2,1E0,5.215841E-2,1E0,-2.9205311E-2,1E0,1.8953737E-2,5.565648E-2,5.904701E-3,-2.001368E-3,3.0665848E-2,1E0,2.1241168E-2,1E0,1E0,6.682747E-2,1.4381311E-2,-6.355446E-2,-8.772467E-3,6.438671E-2,3.5510283E-2,5.1729966E-2,-1.58009E-2],"split_indices":[617,612,136,579,392,5,612,272,613,298,0,622,0,29,0,0,0,132,0,74,0,4,0,0,0,0,0,331,0,421,29,0,0,0,0,0,0,0,0],"split_type":[0,0,0,0,0,0,0,0,0,0,0,0,0,0,0,0,0,0,0,0,0,0,0,0,0,0,0,0,0,0,0,0,0,0,0,0,0,0,0],"sum_hessian":[1.3857076E2,1.0449875E2,3.4072006E1,7.239339E1,3.2105366E1,2.8683197E1,5.38881E0,8.588764E0,6.380462E1,3.029433E1,1.8110335E0,2.7641289E1,1.0419072E0,4.2578416E0,1.1309683E0,6.6483927E0,1.9403718E0,6.1562992E1,2.2416286E0,2.916601E1,1.1283212E0,2.6482986E1,1.1583035E0,2.9517772E0,1.3060645E0,1.4089327E0,5.23946E0,6.049698E1,1.0660136E0,2.3282162E1,5.883848E0,2.5478653E1,1.0043321E0,5.883394E1,1.6630374E0,1.8529148E1,4.7530127E0,4.1882505E0,1.6955974E0],"tree_param":{"num_deleted":"0","num_feature":"702","num_nodes":"39","size_leaf_vector":"1"}},{"base_weights":[1.3568078E-2,-3.7164333E-1,1.1729645E0,-9.291938E-1,8.7173504E-1,1.235077E0,7.033773E-1,2.0807344E-1,-1.0862902E0,1.0096813E0,-4.8186846E-2,1.2611082E0,2.0051828E-2,8.6569375E-1,-1.131751E-3,4.310568E-1,-3.294309E-2,-1.1789939E0,5.0985605E-2,1.0888848E0,-2.8515955E-2,6.417089E-2,1.7561799E-2,5.4391403E-2,5.74047E-3,2.9765351E-3,2.5554566E-2,-1.2141458E0,2.0725885E-2,1.1477703E0,5.129166E-1,-6.2049624E-2,-8.501456E-3,5.8429986E-2,1.617365E-2,5.0088722E-2,-1.47264E-2],"categories":[],"categories_nodes":[],"categories_segments":[],"categories_sizes":[],"default_left":[0,0,0,0,0,0,0,0,0,0,0,0,0,0,0,0,0,0,0,0,0,0,0,0,0,0,0,0,0,0,0,0,0,0,0,0,0],"id":12,"left_children":[1,3,5,7,9,11,13,15,17,19,-1,21,-1,23,-1,25,-1,27,-1,29,-1,-1,-1,-1,-1,-1,-1,31,-1,33,35,-1,-1,-1,-1,-1,-1],"loss_changes":[6.1436764E1,7.240967E1,1.3182831E-1,1.3052208E1,9.199675E0,1.23298645E-1,7.655711E-1,2.1306136E0,1.3548508E1,4.4638767E0,0E0,1.1008072E-1,0E0,7.4229074E-1,0E0,2.1347964E-1,0E0,3.9221878E0,0E0,4.1473007E-1,0E0,0E0,0E0,0E0,0E0,0E0,0E0,1.470108E0,0E0,6.8984985E-2,2.0919054E0,0E0,0E0,0E0,0E0,0E0,0E0],"parents":[2147483647,0,0,1,1,2,2,3,3,4,4,5,5,6,6,7,7,8,8,9,9,11,11,13,13,15,15,17,17,19,19,27,27,29,29,30,30],"right_children":[2,4,6,8,10,12,14,16,18,20,-1,22,-1,24,-1,26,-1,28,-1,30,-1,-1,-1,-1,-1,-1,-1,32,-1,34,36,-1,-1,-1,-1,-1,-1],"split_conditions":[1E0,1E0,1E0,1E0,1E0,1E0,1E0,1E0,1E0,1E0,-4.8186846E-2,1E0,2.0051828E-2,1E0,-1.131751E-3,1E0,-3.294309E-2,1E0,5.0985605E-2,1E0,-2.8515955E-2,6.417089E-2,1.7561799E-2,5.4391403E-2,5.74047E-3,2.9765351E-3,2.5554566E-2,1E0,2.0725885E-2,1E0,1E0,-6.2049624E-2,-8.501456E-3,5.8429986E-2,1.617365E-2,5.0088722E-2,-1.47264E-2],"split_indices":[617,612,136,579,392,637,612,459,613,298,0,5,0,29,0,0,0,132,0,2,0,0,0,0,0,0,0,331,0,266,331,0,0,0,0,0,0],"split_type":[0,0,0,0,0,0,0,0,0,0,0,0,0,0,0,0,0,0,0,0,0,0,0,0,0,0,0,0,0,0,0,0,0,0,0,0,0],"sum_hessian":[1.3558554E2,1.0228172E2,3.3303825E1,7.079073E1,3.1490992E1,2.7973608E1,5.330216E0,8.552463E0,6.2238266E1,2.9708158E1,1.7828327E0,2.6630402E1,1.3432058E0,4.1990323E0,1.1311836E0,7.2026563E0,1.3498057E0,6.003574E1,2.2025273E0,2.858601E1,1.1221485E0,2.5592342E1,1.03806E0,2.8941317E0,1.3049006E0,1.5856698E0,5.6169868E0,5.8972908E1,1.0628334E0,2.5033848E1,3.552162E0,5.7310753E1,1.6621522E0,2.4009453E1,1.0243943E0,2.06267E0,1.4894917E0],"tree_param":{"num_deleted":"0","num_feature":"702","num_nodes":"37","size_leaf_vector":"1"}},{"base_weights":[1.4572308E-2,-3.610066E-1,1.1454916E0,-9.0383935E-1,8.467145E-1,1.2072952E0,6.8425167E-1,1.9804208E-1,-1.0591961E0,9.823921E-1,-4.7146864E-2,1.2337373E0,1.8862486E-2,8.440342E-1,-1.1016034E-3,4.539644E-1,-2.6673445E-2,-1.1507163E0,4.9872037E-2,1.060908E0,-2.7848614E-2,1.259722E0,1.7005617E-2,5.3195525E-2,5.5808364E-3,-1.8525979E-3,2.8587652E-2,-1.1858377E0,2.0225324E-2,1.1456969E0,6.0913795E-1,6.451066E-2,1.7270556E-2,-6.0640633E-2,-8.238963E-3,6.1533332E-2,3.2921415E-2,4.9140073E-2,-1.5997263E-2],"categories":[],"categories_nodes":[],"categories_segments":[],"categories_sizes":[],"default_left":[0,0,0,0,0,0,0,0,0,0,0,0,0,0,0,0,0,0,0,0,0,0,0,0,0,0,0,0,0,0,0,0,0,0,0,0,0,0,0],"id":13,"left_children":[1,3,5,7,9,11,13,15,17,19,-1,21,-1,23,-1,25,-1,27,-1,29,-1,31,-1,-1,-1,-1,-1,33,-1,35,37,-1,-1,-1,-1,-1,-1,-1,-1],"loss_changes":[5.713389E1,6.6984436E1,1.2976837E-1,1.2221645E1,8.657032E0,1.5485E-1,7.262163E-1,2.023155E0,1.2752869E1,4.2269707E0,0E0,1.9730759E-1,0E0,7.088342E-1,0E0,4.600382E-1,0E0,3.7293167E0,0E0,4.1174316E-1,0E0,2.7407837E-1,0E0,0E0,0E0,0E0,0E0,1.4095993E0,0E0,1.5253639E-1,2.6449304E0,0E0,0E0,0E0,0E0,0E0,0E0,0E0,0E0],"parents":[2147483647,0,0,1,1,2,2,3,3,4,4,5,5,6,6,7,7,8,8,9,9,11,11,13,13,15,15,17,17,19,19,21,21,27,27,29,29,30,30],"right_children":[2,4,6,8,10,12,14,16,18,20,-1,22,-1,24,-1,26,-1,28,-1,30,-1,32,-1,-1,-1,-1,-1,34,-1,36,38,-1,-1,-1,-1,-1,-1,-1,-1],"split_conditions":[1E0,1E0,1E0,1E0,1E0,1E0,1E0,1E0,1E0,1E0,-4.7146864E-2,1E0,1.8862486E-2,1E0,-1.1016034E-3,1E0,-2.6673445E-2,1E0,4.9872037E-2,1E0,-2.7848614E-2,1E0,1.7005617E-2,5.3195525E-2,5.5808364E-3,-1.8525979E-3,2.8587652E-2,1E0,2.0225324E-2,1E0,1E0,6.451066E-2,1.7270556E-2,-6.0640633E-2,-8.238963E-3,6.1533332E-2,3.2921415E-2,4.9140073E-2,-1.5997263E-2],"split_indices":[617,612,136,579,392,391,612,272,613,298,0,4,0,29,0,0,0,132,0,74,0,515,0,0,0,0,0,331,0,421,29,0,0,0,0,0,0,0,0],"split_type":[0,0,0,0,0,0,0,0,0,0,0,0,0,0,0,0,0,0,0,0,0,0,0,0,0,0,0,0,0,0,0,0,0,0,0,0,0,0,0],"sum_hessian":[1.325384E2,1.0000686E2,3.2531548E1,6.916913E1,3.0837734E1,2.7261196E1,5.270352E0,8.5132675E0,6.0655857E1,2.908389E1,1.7538447E0,2.5948235E1,1.3129618E0,4.1389594E0,1.1313925E0,6.587883E0,1.9253844E0,5.8493393E1,2.1624653E0,2.7968178E1,1.1157131E0,2.4816936E1,1.1312978E0,2.8352106E0,1.303749E0,1.4072064E0,5.180677E0,5.743388E1,1.0595139E0,2.2255255E1,5.7129226E0,2.3618168E1,1.1987686E0,5.5772644E1,1.661234E0,1.7651539E1,4.6037154E0,4.0330653E0,1.6798574E0],"tree_param":{"num_deleted":"0","num_feature":"702","num_nodes":"39","size_leaf_vector":"1"}},{"base_weights":[1.588104E-2,-3.505409E-1,1.1198529E0,-8.796741E-1,8.228006E-1,1.1815072E0,6.659439E-1,1.8895051E-1,-1.0335917E0,9.562076E-1,-4.6154328E-2,1.2080201E0,1.8329702E-2,8.2334715E-1,-1.0722583E-3,4.0092632E-1,-3.159984E-2,-1.1240304E0,4.8812408E-2,1.0340182E0,-2.7202183E-2,1.2312477E0,1.6064653E-2,5.2062124E-2,5.4256613E-3,3.1424859E-3,2.365444E-2,-1.1591644E0,1.9738918E-2,1.0926806E0,4.765006E-1,6.289723E-2,2.0431882E-2,-5.9315946E-2,-7.98472E-3,5.568235E-2,1.5031586E-2,4.7904067E-2,-1.46632595E-2],"categories":[],"categories_nodes":[],"categories_segments":[],"categories_sizes":[],"default_left":[0,0,0,0,0,0,0,0,0,0,0,0,0,0,0,0,0,0,0,0,0,0,0,0,0,0,0,0,0,0,0,0,0,0,0,0,0,0,0],"id":14,"left_children":[1,3,5,7,9,11,13,15,17,19,-1,21,-1,23,-1,25,-1,27,-1,29,-1,31,-1,-1,-1,-1,-1,33,-1,35,37,-1,-1,-1,-1,-1,-1,-1,-1],"loss_changes":[5.3187374E1,6.2033325E1,1.3004684E-1,1.1469067E1,8.151558E0,1.524353E-1,6.895168E-1,1.9022044E0,1.2015526E1,4.004408E0,0E0,1.4503479E-1,0E0,6.7795277E-1,0E0,1.6890907E-1,0E0,3.5496902E0,0E0,4.0736008E-1,0E0,3.9936066E-2,0E0,0E0,0E0,0E0,0E0,1.354538E0,0E0,7.870865E-2,1.9397757E0,0E0,0E0,0E0,0E0,0E0,0E0,0E0,0E0],"parents":[2147483647,0,0,1,1,2,2,3,3,4,4,5,5,6,6,7,7,8,8,9,9,11,11,13,13,15,15,17,17,19,19,21,21,27,27,29,29,30,30],"right_children":[2,4,6,8,10,12,14,16,18,20,-1,22,-1,24,-1,26,-1,28,-1,30,-1,32,-1,-1,-1,-1,-1,34,-1,36,38,-1,-1,-1,-1,-1,-1,-1,-1],"split_conditions":[1E0,1E0,1E0,1E0,1E0,1E0,1E0,1E0,1E0,1E0,-4.6154328E-2,1E0,1.8329702E-2,1E0,-1.0722583E-3,1E0,-3.159984E-2,1E0,4.8812408E-2,1E0,-2.7202183E-2,1E0,1.6064653E-2,5.2062124E-2,5.4256613E-3,3.1424859E-3,2.365444E-2,1E0,1.9738918E-2,1E0,1E0,6.289723E-2,2.0431882E-2,-5.9315946E-2,-7.98472E-3,5.568235E-2,1.5031586E-2,4.7904067E-2,-1.46632595E-2],"split_indices":[617,612,136,579,392,637,612,459,613,298,0,5,0,29,0,0,0,132,0,2,0,4,0,0,0,0,0,331,0,266,331,0,0,0,0,0,0,0,0],"split_type":[0,0,0,0,0,0,0,0,0,0,0,0,0,0,0,0,0,0,0,0,0,0,0,0,0,0,0,0,0,0,0,0,0,0,0,0,0,0,0],"sum_hessian":[1.2951242E2,9.775034E1,3.1762077E1,6.75418E1,3.0208544E1,2.6552496E1,5.2095814E0,8.474838E0,5.9066963E1,2.8484304E1,1.7242385E0,2.5248652E1,1.3038436E0,4.0779862E0,1.1315951E0,7.1422706E0,1.3325675E0,5.6945282E1,2.1216817E0,2.7375257E1,1.1090481E0,2.422554E1,1.0231128E0,2.7753763E0,1.30261E0,1.5854567E0,5.5568137E0,5.588921E1,1.0560713E0,2.3900522E1,3.4747353E0,2.2951466E1,1.2740738E0,5.422892E1,1.6602879E0,2.2888603E1,1.0119182E0,1.9869932E0,1.4877422E0],"tree_param":{"num_deleted":"0","num_feature":"702","num_nodes":"39","size_leaf_vector":"1"}},{"base_weights":[1.6991116E-2,-3.4091887E-1,1.0958548E0,-8.5673153E-1,8.0005133E-1,1.1575313E0,6.483911E-1,1.797805E-1,-1.0093014E0,9.314386E-1,-4.5205392E-2,1.1844494E0,1.7337581E-2,8.0354965E-1,-1.0437005E-3,4.228481E-1,-2.5535652E-2,-1.0987475E0,4.780199E-2,1.0086892E0,-2.657565E-2,1.2106822E0,1.611985E-2,5.0985273E-2,5.274843E-3,-1.7199278E-3,2.6673922E-2,-1.1339316E0,1.9266099E-2,1.0935777E0,5.6605726E-1,6.2100273E-2,1.5767021E-2,-5.806559E-2,-7.7384557E-3,5.902205E-2,3.0516772E-2,4.6787474E-2,-1.6142068E-2],"categories":[],"categories_nodes":[],"categories_segments":[],"categories_sizes":[],"default_left":[0,0,0,0,0,0,0,0,0,0,0,0,0,0,0,0,0,0,0,0,0,0,0,0,0,0,0,0,0,0,0,0,0,0,0,0,0,0,0],"id":15,"left_children":[1,3,5,7,9,11,13,15,17,19,-1,21,-1,23,-1,25,-1,27,-1,29,-1,31,-1,-1,-1,-1,-1,33,-1,35,37,-1,-1,-1,-1,-1,-1,-1,-1],"loss_changes":[4.9586586E1,5.7457066E1,1.3221359E-1,1.0763321E1,7.6823215E0,1.750145E-1,6.5521884E-1,1.799411E0,1.1330742E1,3.7971973E0,0E0,1.8772507E-1,0E0,6.4934516E-1,0E0,3.9901292E-1,0E0,3.3818665E0,0E0,4.2378426E-1,0E0,2.938652E-1,0E0,0E0,0E0,0E0,0E0,1.3040924E0,0E0,2.1199608E-1,2.4509716E0,0E0,0E0,0E0,0E0,0E0,0E0,0E0,0E0],"parents":[2147483647,0,0,1,1,2,2,3,3,4,4,5,5,6,6,7,7,8,8,9,9,11,11,13,13,15,15,17,17,19,19,21,21,27,27,29,29,30,30],"right_children":[2,4,6,8,10,12,14,16,18,20,-1,22,-1,24,-1,26,-1,28,-1,30,-1,32,-1,-1,-1,-1,-1,34,-1,36,38,-1,-1,-1,-1,-1,-1,-1,-1],"split_conditions":[1E0,1E0,1E0,1E0,1E0,1E0,1E0,1E0,1E0,1E0,-4.5205392E-2,1E0,1.7337581E-2,1E0,-1.0437005E-3,1E0,-2.5535652E-2,1E0,4.780199E-2,1E0,-2.657565E-2,1E0,1.611985E-2,5.0985273E-2,5.274843E-3,-1.7199278E-3,2.6673922E-2,1E0,1.9266099E-2,1E0,1E0,6.2100273E-2,1.5767021E-2,-5.806559E-2,-7.7384557E-3,5.902205E-2,3.0516772E-2,4.6787474E-2,-1.6142068E-2],"split_indices":[617,612,136,579,392,391,612,272,613,298,0,4,0,29,0,0,0,132,0,74,0,515,0,0,0,0,0,331,0,421,29,0,0,0,0,0,0,0,0],"split_type":[0,0,0,0,0,0,0,0,0,0,0,0,0,0,0,0,0,0,0,0,0,0,0,0,0,0,0,0,0,0,0,0,0,0,0,0,0,0,0],"sum_hessian":[1.2644986E2,9.546396E1,3.0985899E1,6.591435E1,2.9549606E1,2.5837671E1,5.148228E0,8.434516E0,5.7479836E1,2.785544E1,1.6941663E0,2.4561348E1,1.2763228E0,4.0164366E0,1.1317918E0,6.5251474E0,1.9093685E0,5.539945E1,2.0803888E0,2.6753254E1,1.1021847E0,2.344353E1,1.1178186E0,2.7149515E0,1.301485E0,1.4054291E0,5.1197186E0,5.4346928E1,1.0525202E0,2.121415E1,5.5391045E0,2.2276989E1,1.1665411E0,5.268761E1,1.6593177E0,1.675896E1,4.4551897E0,3.8748505E0,1.6642538E0],"tree_param":{"num_deleted":"0","num_feature":"702","num_nodes":"39","size_leaf_vector":"1"}},{"base_weights":[1.8229738E-2,-3.313732E-1,1.0727913E0,-8.347108E-1,7.782058E-1,1.134519E0,6.315366E-1,1.7149024E-1,-9.861715E-1,9.0755063E-1,-4.4296604E-2,1.161779E0,1.6721165E-2,7.845676E-1,-1.0159026E-3,3.731678E-1,-3.033574E-2,-1.0747033E0,4.6836596E-2,9.8420894E-1,-2.596805E-2,1.186142E0,1.4670108E-2,4.995973E-2,5.12824E-3,1.662973E-1,2.6154438E-2,-1.1099706E0,1.8806374E-2,1.0686586E0,5.487511E-1,6.0657382E-2,1.9541495E-2,-6.351724E-3,2.8493106E-2,-5.688088E-2,-7.4998937E-3,5.7787694E-2,2.9585192E-2,4.5649644E-2,-1.5618707E-2],"categories":[],"categories_nodes":[],"categories_segments":[],"categories_sizes":[],"default_left":[0,0,0,0,0,0,0,0,0,0,0,0,0,0,0,0,0,0,0,0,0,0,0,0,0,0,0,0,0,0,0,0,0,0,0,0,0,0,0,0,0],"id":16,"left_children":[1,3,5,7,9,11,13,15,17,19,-1,21,-1,23,-1,25,-1,27,-1,29,-1,31,-1,-1,-1,33,-1,35,-1,37,39,-1,-1,-1,-1,-1,-1,-1,-1,-1,-1],"loss_changes":[4.623076E1,5.326817E1,1.3376999E-1,1.0120277E1,7.2440205E0,1.8138504E-1,6.2310123E-1,1.7008873E0,1.0693516E1,3.6018467E0,0E0,1.780281E-1,0E0,6.2275195E-1,0E0,1.6361773E-1,0E0,3.2246437E0,0E0,4.1236115E-1,0E0,3.8276672E-2,0E0,0E0,0E0,6.478757E-1,0E0,1.2576141E0,0E0,2.1727371E-1,2.3136663E0,0E0,0E0,0E0,0E0,0E0,0E0,0E0,0E0,0E0,0E0],"parents":[2147483647,0,0,1,1,2,2,3,3,4,4,5,5,6,6,7,7,8,8,9,9,11,11,13,13,15,15,17,17,19,19,21,21,25,25,27,27,29,29,30,30],"right_children":[2,4,6,8,10,12,14,16,18,20,-1,22,-1,24,-1,26,-1,28,-1,30,-1,32,-1,-1,-1,34,-1,36,-1,38,40,-1,-1,-1,-1,-1,-1,-1,-1,-1,-1],"split_conditions":[1E0,1E0,1E0,1E0,1E0,1E0,1E0,1E0,1E0,1E0,-4.4296604E-2,1E0,1.6721165E-2,1E0,-1.0159026E-3,1E0,-3.033574E-2,1E0,4.6836596E-2,1E0,-2.596805E-2,1E0,1.4670108E-2,4.995973E-2,5.12824E-3,1E0,2.6154438E-2,1E0,1.8806374E-2,1E0,1E0,6.0657382E-2,1.9541495E-2,-6.351724E-3,2.8493106E-2,-5.688088E-2,-7.4998937E-3,5.7787694E-2,2.9585192E-2,4.5649644E-2,-1.5618707E-2],"split_indices":[617,612,136,579,392,637,612,459,613,298,0,5,0,29,0,371,0,132,0,74,0,4,0,0,0,293,0,331,0,421,29,0,0,0,0,0,0,0,0,0,0],"split_type":[0,0,0,0,0,0,0,0,0,0,0,0,0,0,0,0,0,0,0,0,0,0,0,0,0,0,0,0,0,0,0,0,0,0,0,0,0,0,0,0,0],"sum_hessian":[1.2343185E2,9.321534E1,3.0216507E1,6.429635E1,2.8918987E1,2.5129932E1,5.086576E0,8.3948E0,5.590155E1,2.7255222E1,1.6637652E0,2.3864784E1,1.2651477E0,3.9545932E0,1.1319827E0,7.080351E0,1.3144491E0,5.3862774E1,2.038776E0,2.616007E1,1.0951512E0,2.2857569E1,1.0072153E0,2.6542192E0,1.3003742E0,3.8613906E0,3.2189603E0,5.28139E1,1.0488749E0,2.0692924E1,5.467147E0,2.1598785E1,1.2587833E0,2.6328895E0,1.228501E0,5.115557E1,1.6583278E0,1.629428E1,4.3986444E0,3.799703E0,1.667444E0],"tree_param":{"num_deleted":"0","num_feature":"702","num_nodes":"41","size_leaf_vector":"1"}},{"base_weights":[1.9619597E-2,-3.2198337E-1,1.0510607E0,-8.131931E-1,7.572688E-1,1.1129795E0,6.153303E-1,7.941539E-2,-9.823001E-1,8.846691E-1,-4.3424886E-2,1.1405946E0,1.5911674E-2,7.663356E-1,-9.888434E-4,3.9544576E-1,-2.2540146E-2,-1.0735927E0,4.5912474E-2,9.607811E-1,-2.537851E-2,1.1673138E0,1.52805E-2,4.8980854E-2,4.9857213E-3,-2.0255558E-3,2.5148097E-2,-1.1106179E0,1.8359242E-2,1.0202833E0,4.2268118E-1,1.1997464E0,1.4362886E-2,-5.7924975E-2,-1.9360421E-2,5.463278E-2,2.8683389E-2,4.4976797E-2,-1.4924079E-2,6.2058E-2,2.3819692E-2],"categories":[],"categories_nodes":[],"categories_segments":[],"categories_sizes":[],"default_left":[0,0,0,0,0,0,0,0,0,0,0,0,0,0,0,0,0,0,0,0,0,0,0,0,0,0,0,0,0,0,0,0,0,0,0,0,0,0,0,0,0],"id":17,"left_children":[1,3,5,7,9,11,13,15,17,19,-1,21,-1,23,-1,25,-1,27,-1,29,-1,31,-1,-1,-1,-1,-1,33,-1,35,37,39,-1,-1,-1,-1,-1,-1,-1,-1,-1],"loss_changes":[4.3126896E1,4.938433E1,1.3663101E-1,9.693424E0,6.8351994E0,1.9497871E-1,5.929687E-1,2.0334306E0,1.0290878E1,3.4184628E0,0E0,1.8276596E-1,0E0,5.9795356E-1,0E0,3.7048626E-1,0E0,3.1621475E0,0E0,4.1946602E-1,0E0,3.140564E-1,0E0,0E0,0E0,0E0,0E0,1.3036613E0,0E0,1.2361717E-1,1.7653859E0,6.605148E-2,0E0,0E0,0E0,0E0,0E0,0E0,0E0,0E0,0E0],"parents":[2147483647,0,0,1,1,2,2,3,3,4,4,5,5,6,6,7,7,8,8,9,9,11,11,13,13,15,15,17,17,19,19,21,21,27,27,29,29,30,30,31,31],"right_children":[2,4,6,8,10,12,14,16,18,20,-1,22,-1,24,-1,26,-1,28,-1,30,-1,32,-1,-1,-1,-1,-1,34,-1,36,38,40,-1,-1,-1,-1,-1,-1,-1,-1,-1],"split_conditions":[1E0,1E0,1E0,1E0,1E0,1E0,1E0,1E0,1E0,1E0,-4.3424886E-2,1E0,1.5911674E-2,1E0,-9.888434E-4,1E0,-2.2540146E-2,1E0,4.5912474E-2,1E0,-2.537851E-2,1E0,1.52805E-2,4.8980854E-2,4.9857213E-3,-2.0255558E-3,2.5148097E-2,1E0,1.8359242E-2,1E0,1E0,1E0,1.4362886E-2,-5.7924975E-2,-1.9360421E-2,5.463278E-2,2.8683389E-2,4.4976797E-2,-1.4924079E-2,6.2058E-2,2.3819692E-2],"split_indices":[617,612,136,508,392,391,612,342,613,298,0,4,0,29,0,0,0,132,0,2,0,515,0,0,0,0,0,29,0,421,331,81,0,0,0,0,0,0,0,0,0],"split_type":[0,0,0,0,0,0,0,0,0,0,0,0,0,0,0,0,0,0,0,0,0,0,0,0,0,0,0,0,0,0,0,0,0,0,0,0,0,0,0,0,0],"sum_hessian":[1.2043972E2,9.0991936E1,2.9447786E1,6.2700855E1,2.8291082E1,2.442291E1,5.0248756E0,1.0071294E1,5.262956E1,2.6657925E1,1.6331571E0,2.318223E1,1.2406809E0,3.8927076E0,1.1321679E0,6.469442E0,3.6018515E0,5.063255E1,1.9970104E0,2.556995E1,1.0879738E0,2.2077745E1,1.104486E0,2.5934293E0,1.2992783E0,1.4031508E0,5.0662913E0,4.9587402E1,1.0451478E0,2.221713E1,3.35282E0,2.0942688E1,1.1350576E0,4.594492E1,3.6424842E0,1.787417E1,4.342961E0,1.8693848E0,1.4834353E0,1.9131517E1,1.8111688E0],"tree_param":{"num_deleted":"0","num_feature":"702","num_nodes":"41","size_leaf_vector":"1"}},{"base_weights":[2.0895079E-2,-3.1324878E-1,1.0303898E0,-7.9261297E-1,7.3746E-1,1.0925423E0,5.99728E-1,4.4707846E-2,-9.6886754E-1,8.630851E-1,-4.2587455E-2,1.1207824E0,1.5179097E-2,7.487962E-1,-9.62509E-4,4.0516433E-1,-4.5648623E-1,-1.0610237E0,4.50263E-2,9.387458E-1,-2.4806213E-2,1.1484066E0,1.7903294E-2,4.804456E-2,4.847193E-3,6.529808E-3,2.1790316E-2,-3.765854E-2,1.2672134E-2,-1.0989777E0,1.7924251E-2,1.0239313E0,5.0949633E-1,5.892939E-2,1.4821521E-2,-5.6548215E-2,-6.0213828E-3,5.5618126E-2,2.7809856E-2,4.9578365E-2,-8.0284495E-3],"categories":[],"categories_nodes":[],"categories_segments":[],"categories_sizes":[],"default_left":[0,0,0,0,0,0,0,0,0,0,0,0,0,0,0,0,0,0,0,0,0,0,0,0,0,0,0,0,0,0,0,0,0,0,0,0,0,0,0,0,0],"id":18,"left_children":[1,3,5,7,9,11,13,15,17,19,-1,21,-1,23,-1,25,27,29,-1,31,-1,33,-1,-1,-1,-1,-1,-1,-1,35,-1,37,39,-1,-1,-1,-1,-1,-1,-1,-1],"loss_changes":[4.0299152E1,4.5817986E1,1.398964E-1,9.215981E0,6.4557886E0,2.1101761E-1,5.6465244E-1,2.3102102E0,9.808609E0,3.2477055E0,0E0,8.425522E-2,0E0,5.7475543E-1,0E0,5.1122904E-3,1.3264616E0,3.05727E0,0E0,4.2796326E-1,0E0,2.2252274E-1,0E0,0E0,0E0,0E0,0E0,0E0,0E0,1.3785133E0,0E0,2.3668289E-1,2.1913152E0,0E0,0E0,0E0,0E0,0E0,0E0,0E0,0E0],"parents":[2147483647,0,0,1,1,2,2,3,3,4,4,5,5,6,6,7,7,8,8,9,9,11,11,13,13,15,15,16,16,17,17,19,19,21,21,29,29,31,31,32,32],"right_children":[2,4,6,8,10,12,14,16,18,20,-1,22,-1,24,-1,26,28,30,-1,32,-1,34,-1,-1,-1,-1,-1,-1,-1,36,-1,38,40,-1,-1,-1,-1,-1,-1,-1,-1],"split_conditions":[1E0,1E0,1E0,1E0,1E0,1E0,1E0,1E0,1E0,1E0,-4.2587455E-2,1E0,1.5179097E-2,1E0,-9.62509E-4,1E0,1E0,1E0,4.50263E-2,1E0,-2.4806213E-2,1E0,1.7903294E-2,4.804456E-2,4.847193E-3,6.529808E-3,2.1790316E-2,-3.765854E-2,1.2672134E-2,1E0,1.7924251E-2,1E0,1E0,5.892939E-2,1.4821521E-2,-5.6548215E-2,-6.0213828E-3,5.5618126E-2,2.7809856E-2,4.9578365E-2,-8.0284495E-3],"split_indices":[617,612,136,456,392,637,612,342,613,298,0,515,0,29,0,0,489,132,0,74,0,4,0,0,0,0,0,0,0,331,0,421,331,0,0,0,0,0,0,0,0],"split_type":[0,0,0,0,0,0,0,0,0,0,0,0,0,0,0,0,0,0,0,0,0,0,0,0,0,0,0,0,0,0,0,0,0,0,0,0,0,0,0,0,0],"sum_hessian":[1.1751299E2,8.880735E1,2.8705635E1,6.1153137E1,2.7654215E1,2.3742289E1,4.9633474E0,1.0763944E1,5.0389194E1,2.6051764E1,1.6024514E0,2.2515776E1,1.2265129E0,3.8309996E0,1.1323477E0,6.3724837E0,4.3914595E0,4.8433952E1,1.955241E0,2.4971087E1,1.080677E0,2.1240793E1,1.2749829E0,2.5328019E0,1.2981977E0,1.1680596E0,5.2044244E0,3.0541832E0,1.3372762E0,4.73926E1,1.0413513E0,1.9680124E1,5.290962E0,2.0143843E1,1.0969505E0,4.5741653E1,1.6509483E0,1.5391894E1,4.2882295E0,2.7980964E0,2.492866E0],"tree_param":{"num_deleted":"0","num_feature":"702","num_nodes":"41","size_leaf_vector":"1"}},{"base_weights":[2.22111E-2,-3.0453372E-1,1.010293E0,-7.729195E-1,7.18357E-1,1.072714E0,5.846894E-1,7.782996E-2,-9.4097006E-1,8.421824E-1,-4.178181E-2,1.1312901E0,5.0844437E-1,7.3189735E-1,-9.368732E-4,3.6825234E-1,-4.153234E-1,-1.0306829E0,4.4175085E-2,9.1735667E-1,-2.4250377E-2,1.1637424E0,1.7476691E-2,4.0626157E-2,-2.6441931E-3,4.714716E-2,4.7125304E-3,-1.8533682E-3,2.3446355E-2,-2.7904747E-2,-1.0031241E-2,-1.0680305E0,1.750096E-2,9.770004E-1,3.930561E-1,6.043563E-2,2.3633974E-2,-5.588771E-2,-1.7286848E-2,5.2521694E-2,2.6963195E-2,4.3155342E-2,-1.4687766E-2],"categories":[],"categories_nodes":[],"categories_segments":[],"categories_sizes":[],"default_left":[0,0,0,0,0,0,0,0,0,0,0,0,0,0,0,0,0,0,0,0,0,0,0,0,0,0,0,0,0,0,0,0,0,0,0,0,0,0,0,0,0,0,0],"id":19,"left_children":[1,3,5,7,9,11,13,15,17,19,-1,21,23,25,-1,27,29,31,-1,33,-1,35,-1,-1,-1,-1,-1,-1,-1,-1,-1,37,-1,39,41,-1,-1,-1,-1,-1,-1,-1,-1],"loss_changes":[3.763E1,4.2545513E1,1.4215851E-1,8.736767E0,6.1003695E0,2.199707E-1,5.3799987E-1,1.7168076E0,9.20554E0,3.0862198E0,0E0,1.2545776E-1,7.391782E-1,5.5299306E-1,0E0,3.1942832E-1,2.6490927E-2,2.8884277E0,0E0,4.1028786E-1,0E0,4.1301727E-2,0E0,0E0,0E0,0E0,0E0,0E0,0E0,0E0,0E0,1.327671E0,0E0,1.4499092E-1,1.6312436E0,0E0,0E0,0E0,0E0,0E0,0E0,0E0,0E0],"parents":[2147483647,0,0,1,1,2,2,3,3,4,4,5,5,6,6,7,7,8,8,9,9,11,11,12,12,13,13,15,15,16,16,17,17,19,19,21,21,31,31,33,33,34,34],"right_children":[2,4,6,8,10,12,14,16,18,20,-1,22,24,26,-1,28,30,32,-1,34,-1,36,-1,-1,-1,-1,-1,-1,-1,-1,-1,38,-1,40,42,-1,-1,-1,-1,-1,-1,-1,-1],"split_conditions":[1E0,1E0,1E0,1E0,1E0,1E0,1E0,1E0,1E0,1E0,-4.178181E-2,1E0,1E0,1E0,-9.368732E-4,1E0,1E2,1E0,4.4175085E-2,1E0,-2.4250377E-2,1E0,1.7476691E-2,4.0626157E-2,-2.6441931E-3,4.714716E-2,4.7125304E-3,-1.8533682E-3,2.3446355E-2,-2.7904747E-2,-1.0031241E-2,1E0,1.750096E-2,1E0,1E0,6.043563E-2,2.3633974E-2,-5.588771E-2,-1.7286848E-2,5.2521694E-2,2.6963195E-2,4.3155342E-2,-1.4687766E-2],"split_indices":[617,612,136,508,392,241,612,342,613,298,0,515,153,29,0,0,701,132,0,2,0,81,0,0,0,0,0,0,0,0,0,29,0,421,331,0,0,0,0,0,0,0,0],"split_type":[0,0,0,0,0,0,0,0,0,0,0,0,0,0,0,0,0,0,0,0,0,0,0,0,0,0,0,0,0,0,0,0,0,0,0,0,0,0,0,0,0,0,0],"sum_hessian":[1.1460247E2,8.664273E1,2.7959743E1,5.959728E1,2.7045452E1,2.3057562E1,4.9021816E0,9.9191E0,4.9678177E1,2.5473707E1,1.5717448E0,1.9978722E1,3.0788393E0,3.7696595E0,1.1325223E0,6.40211E0,3.5169892E0,4.776458E1,1.913599E0,2.4400425E1,1.073283E0,1.8713268E1,1.265453E0,1.7067629E0,1.3720764E0,2.4725263E0,1.2971332E0,1.3994977E0,5.0026126E0,1.1516944E0,2.365295E0,4.672708E1,1.0374962E0,2.1132933E1,3.2674923E0,1.6866627E1,1.8466415E0,4.3205265E1,3.521817E0,1.689841E1,4.234522E0,1.7874693E0,1.480023E0],"tree_param":{"num_deleted":"0","num_feature":"702","num_nodes":"43","size_leaf_vector":"1"}},{"base_weights":[2.340958E-2,-2.9655606E-1,9.912744E-1,-7.5388736E-1,6.998942E-1,1.012641E0,1.3686736E-2,4.436666E-2,-9.29325E-1,8.2207793E-1,-4.100571E-2,1.0833795E0,5.701794E-1,1.8897662E-2,-4.239444E-1,-1.0200472E0,4.3356147E-2,8.96853E-1,-2.37103E-2,1.1115658E0,1.7061071E-2,7.1559364E-1,-9.1192435E-4,-3.6143925E-2,1.3597898E-2,-1.0584128E0,1.7088963E-2,9.826453E-1,4.745485E-1,1.1435413E0,1.3424932E-2,4.6285436E-2,4.5816205E-3,-5.4617908E-2,-4.6558785E-3,5.3644914E-2,2.6142165E-2,4.7771826E-2,-8.582647E-3,5.9337366E-2,2.3075907E-2],"categories":[],"categories_nodes":[],"categories_segments":[],"categories_sizes":[],"default_left":[0,0,0,0,0,0,0,0,0,0,0,0,0,0,0,0,0,0,0,0,0,0,0,0,0,0,0,0,0,0,0,0,0,0,0,0,0,0,0,0,0],"id":20,"left_children":[1,3,5,7,9,11,-1,13,15,17,-1,19,21,-1,23,25,-1,27,-1,29,-1,31,-1,-1,-1,33,-1,35,37,39,-1,-1,-1,-1,-1,-1,-1,-1,-1,-1,-1],"loss_changes":[3.522138E1,3.9505405E1,1.5594864E-1,8.318794E0,5.767646E0,2.2937012E-1,0E0,1.9730656E0,8.789379E0,2.934248E0,0E0,8.558464E-2,5.128797E-1,0E0,1.2988607E0,2.7980576E0,0E0,4.3287086E-1,0E0,2.58173E-1,0E0,5.325227E-1,0E0,0E0,0E0,1.3923721E0,0E0,2.563076E-1,2.0672174E0,3.8518906E-2,0E0,0E0,0E0,0E0,0E0,0E0,0E0,0E0,0E0,0E0,0E0],"parents":[2147483647,0,0,1,1,2,2,3,3,4,4,5,5,7,7,8,8,9,9,11,11,12,12,14,14,15,15,17,17,19,19,21,21,25,25,27,27,28,28,29,29],"right_children":[2,4,6,8,10,12,-1,14,16,18,-1,20,22,-1,24,26,-1,28,-1,30,-1,32,-1,-1,-1,34,-1,36,38,40,-1,-1,-1,-1,-1,-1,-1,-1,-1,-1,-1],"split_conditions":[1E0,1E0,1E0,1E0,1E0,1E0,1.3686736E-2,1E0,1E0,1E0,-4.100571E-2,1E0,1E0,1.8897662E-2,1E0,1E0,4.3356147E-2,1E0,-2.37103E-2,1E0,1.7061071E-2,1E0,-9.1192435E-4,-3.6143925E-2,1.3597898E-2,1E0,1.7088963E-2,1E0,1E0,1E0,1.3424932E-2,4.6285436E-2,4.5816205E-3,-5.4617908E-2,-4.6558785E-3,5.3644914E-2,2.6142165E-2,4.7771826E-2,-8.582647E-3,5.9337366E-2,2.3075907E-2],"split_indices":[617,612,637,456,392,136,0,342,613,298,0,515,612,0,489,132,0,74,0,4,0,29,0,0,0,331,0,421,331,81,0,0,0,0,0,0,0,0,0,0,0],"split_type":[0,0,0,0,0,0,0,0,0,0,0,0,0,0,0,0,0,0,0,0,0,0,0,0,0,0,0,0,0,0,0,0,0,0,0,0,0,0,0,0,0],"sum_hessian":[1.11784225E2,8.453234E1,2.725188E1,5.8106968E1,2.6425375E1,2.6064476E1,1.187403E0,1.0604198E1,4.750277E1,2.4884253E1,1.5411233E0,2.122293E1,4.841546E0,6.3055696E0,4.2986283E0,4.563057E1,1.8721975E0,2.381844E1,1.0658123E0,1.9966864E1,1.2560675E0,3.7088542E0,1.1326916E0,2.979836E0,1.3187925E0,4.4596977E1,1.0335929E0,1.8693869E1,5.1245713E0,1.889386E1,1.0730041E0,2.4127696E0,1.2960848E0,4.2954807E1,1.6421692E0,1.45119705E1,4.181898E0,2.663737E0,2.460834E0,1.7072296E1,1.8215626E0],"tree_param":{"num_deleted":"0","num_feature":"702","num_nodes":"41","size_leaf_vector":"1"}},{"base_weights":[2.483884E-2,-2.884561E-1,9.730148E-1,-7.355331E-1,6.8205464E-1,9.944456E-1,1.3365242E-2,4.2027295E-2,-9.1043824E-1,8.025645E-1,-4.0257093E-2,1.0657732E0,5.561656E-1,3.6299387E-1,-4.1052163E-1,-1.0069461E0,3.846473E-2,8.7689894E-1,-2.3185302E-2,1.0943114E0,1.6656077E-2,6.998436E-1,-8.8763464E-4,5.8971574E-3,1.9524856E-2,-3.5239153E-2,1.3174973E-2,-1.0459777E0,1.6687846E-2,9.621466E-1,4.6219718E-1,1.1267968E0,1.3113059E-2,4.5456443E-2,4.4543655E-3,-5.502947E-2,-1.53320255E-2,5.2663047E-2,2.5345644E-2,4.117584E-2,-1.6155934E-2,5.8527607E-2,2.2531502E-2],"categories":[],"categories_nodes":[],"categories_segments":[],"categories_sizes":[],"default_left":[0,0,0,0,0,0,0,0,0,0,0,0,0,0,0,0,0,0,0,0,0,0,0,0,0,0,0,0,0,0,0,0,0,0,0,0,0,0,0,0,0,0,0],"id":21,"left_children":[1,3,5,7,9,11,-1,13,15,17,-1,19,21,23,25,27,-1,29,-1,31,-1,33,-1,-1,-1,-1,-1,35,-1,37,39,41,-1,-1,-1,-1,-1,-1,-1,-1,-1,-1,-1],"loss_changes":[3.2953125E1,3.670656E1,1.5076447E-1,7.8728085E0,5.4555387E0,2.314663E-1,0E0,1.8244431E0,8.405479E0,2.790308E0,0E0,8.6740494E-2,4.8916996E-1,3.0021071E-3,1.2280729E0,2.7012367E0,0E0,4.131508E-1,0E0,2.541771E-1,0E0,5.1321864E-1,0E0,0E0,0E0,0E0,0E0,1.4357872E0,0E0,2.6262283E-1,1.9862145E0,4.2612076E-2,0E0,0E0,0E0,0E0,0E0,0E0,0E0,0E0,0E0,0E0,0E0],"parents":[2147483647,0,0,1,1,2,2,3,3,4,4,5,5,7,7,8,8,9,9,11,11,12,12,13,13,14,14,15,15,17,17,19,19,21,21,27,27,29,29,30,30,31,31],"right_children":[2,4,6,8,10,12,-1,14,16,18,-1,20,22,24,26,28,-1,30,-1,32,-1,34,-1,-1,-1,-1,-1,36,-1,38,40,42,-1,-1,-1,-1,-1,-1,-1,-1,-1,-1,-1],"split_conditions":[1E0,1E0,1E0,1E0,1E0,1E0,1.3365242E-2,1E0,1E0,1E0,-4.0257093E-2,1E0,1E0,1E0,1E0,1E0,3.846473E-2,1E0,-2.3185302E-2,1E0,1.6656077E-2,1E0,-8.8763464E-4,5.8971574E-3,1.9524856E-2,-3.5239153E-2,1.3174973E-2,1E0,1.6687846E-2,1E0,1E0,1E0,1.3113059E-2,4.5456443E-2,4.4543655E-3,-5.502947E-2,-1.53320255E-2,5.2663047E-2,2.5345644E-2,4.117584E-2,-1.6155934E-2,5.8527607E-2,2.2531502E-2],"split_indices":[617,612,637,456,392,136,0,342,347,298,0,515,612,0,489,132,0,74,0,4,0,29,0,0,0,0,0,29,0,421,29,81,0,0,0,0,0,0,0,0,0,0,0],"split_type":[0,0,0,0,0,0,0,0,0,0,0,0,0,0,0,0,0,0,0,0,0,0,0,0,0,0,0,0,0,0,0,0,0,0,0,0,0,0,0,0,0,0,0],"sum_hessian":[1.0898652E2,8.244195E1,2.6544575E1,5.660727E1,2.5834677E1,2.5365149E1,1.179425E0,1.0534533E1,4.607274E1,2.4324015E1,1.5106622E0,2.0583567E1,4.7815814E0,6.2790546E0,4.2554774E0,4.3948254E1,2.1244848E0,2.3265732E1,1.0582838E0,1.9336737E1,1.24683E0,3.6487253E0,1.1328561E0,1.1672574E0,5.1117973E0,2.9304667E0,1.3250108E0,4.2918602E1,1.0296507E0,1.820363E1,5.0621E0,1.8269217E1,1.0675206E0,2.3536723E0,1.2950529E0,3.9511448E1,3.4071567E0,1.4073225E1,4.1304064E0,3.4336514E0,1.6284482E0,1.6472132E1,1.7970843E0],"tree_param":{"num_deleted":"0","num_feature":"702","num_nodes":"43","size_leaf_vector":"1"}},{"base_weights":[2.6024051E-2,-2.8071105E-1,9.554005E-1,-7.172047E-1,6.6441476E-1,1.0189701E0,5.4261935E-1,7.597356E-2,-8.84222E-1,7.833116E-1,-3.9534148E-2,1.0819952E0,4.4244125E-1,6.846108E-1,-8.639969E-4,3.3104238E-1,-3.6551636E-1,-9.7853804E-1,3.7941482E-2,8.572247E-1,-2.267476E-2,1.1159306E0,1.626137E-2,3.812505E-2,-5.1928153E-3,4.465761E-2,4.330655E-3,-1.8884666E-3,2.1210404E-2,-2.5926117E-2,-7.7632465E-3,-1.0168915E0,1.6297266E-2,9.1791624E-1,3.4854367E-1,5.8131207E-2,2.2000335E-2,-5.3555883E-2,-1.2993413E-2,4.9680002E-2,2.4572598E-2,4.070022E-2,-1.4726686E-2],"categories":[],"categories_nodes":[],"categories_segments":[],"categories_sizes":[],"default_left":[0,0,0,0,0,0,0,0,0,0,0,0,0,0,0,0,0,0,0,0,0,0,0,0,0,0,0,0,0,0,0,0,0,0,0,0,0,0,0,0,0,0,0],"id":22,"left_children":[1,3,5,7,9,11,13,15,17,19,-1,21,23,25,-1,27,29,31,-1,33,-1,35,-1,-1,-1,-1,-1,-1,-1,-1,-1,37,-1,39,41,-1,-1,-1,-1,-1,-1,-1,-1],"loss_changes":[3.0854042E1,3.4074127E1,1.5166664E-1,7.5111866E0,5.1605196E0,3.2534218E-1,4.667666E-1,1.3253652E0,7.9480133E0,2.652954E0,0E0,1.3158798E-1,7.5628304E-1,4.949727E-1,0E0,2.669708E-1,6.076765E-2,2.5533333E0,0E0,4.1228485E-1,0E0,5.7121277E-2,0E0,0E0,0E0,0E0,0E0,0E0,0E0,0E0,0E0,1.5025787E0,0E0,1.75848E-1,1.4790506E0,0E0,0E0,0E0,0E0,0E0,0E0,0E0,0E0],"parents":[2147483647,0,0,1,1,2,2,3,3,4,4,5,5,6,6,7,7,8,8,9,9,11,11,12,12,13,13,15,15,16,16,17,17,19,19,21,21,31,31,33,33,34,34],"right_children":[2,4,6,8,10,12,14,16,18,20,-1,22,24,26,-1,28,30,32,-1,34,-1,36,-1,-1,-1,-1,-1,-1,-1,-1,-1,38,-1,40,42,-1,-1,-1,-1,-1,-1,-1,-1],"split_conditions":[1E0,1E0,1E0,1E0,1E0,1E0,1E0,1E0,1E0,1E0,-3.9534148E-2,1E0,1E0,1E0,-8.639969E-4,1E0,1E2,1E0,3.7941482E-2,1E0,-2.267476E-2,1E0,1.626137E-2,3.812505E-2,-5.1928153E-3,4.465761E-2,4.330655E-3,-1.8884666E-3,2.1210404E-2,-2.5926117E-2,-7.7632465E-3,1E0,1.6297266E-2,1E0,1E0,5.8131207E-2,2.2000335E-2,-5.3555883E-2,-1.2993413E-2,4.9680002E-2,2.4572598E-2,4.070022E-2,-1.4726686E-2],"split_indices":[617,612,136,508,392,241,612,342,294,298,0,515,153,29,0,0,701,132,0,2,0,81,0,0,0,0,0,0,0,0,0,29,0,421,331,0,0,0,0,0,0,0,0],"split_type":[0,0,0,0,0,0,0,0,0,0,0,0,0,0,0,0,0,0,0,0,0,0,0,0,0,0,0,0,0,0,0,0,0,0,0,0,0,0,0,0,0,0,0],"sum_hessian":[1.06291534E2,8.044057E1,2.5850967E1,5.5192028E1,2.524854E1,2.1128555E1,4.722411E0,9.69497E0,4.5497055E1,2.3768112E1,1.4804282E0,1.8256088E1,2.8724666E0,3.5893955E0,1.1330159E0,6.303387E0,3.3915834E0,4.3409653E1,2.087404E0,2.2717398E1,1.0507147E0,1.7018345E1,1.2377436E0,1.561732E0,1.3107345E0,2.2953575E0,1.2940379E0,1.3910983E0,4.9122887E0,1.1144009E0,2.2771826E0,4.2383972E1,1.0256786E0,1.9577118E1,3.1402807E0,1.5245141E1,1.7732041E0,3.916374E1,3.220235E0,1.5497034E1,4.080084E0,1.6675265E0,1.4727542E0],"tree_param":{"num_deleted":"0","num_feature":"702","num_nodes":"43","size_leaf_vector":"1"}},{"base_weights":[2.7115012E-2,-2.733821E-1,9.382507E-1,-6.995344E-1,6.475501E-1,9.605369E-1,1.1988105E-2,4.182209E-2,-8.7367946E-1,7.649505E-1,-3.8835183E-2,1.0332094E0,5.2951473E-1,1.6934626E-2,-3.8068292E-1,-9.698274E-1,3.7378825E-2,8.38504E-1,-2.2178097E-2,1.0625544E0,1.5876645E-2,6.698622E-1,-8.4098615E-4,-3.3859726E-2,1.4012009E-2,-1.0093433E0,1.5916849E-2,9.248255E-1,4.287358E-1,1.0971086E0,1.1829805E-2,4.388659E-2,4.210388E-3,-5.237561E-2,-2.3014215E-3,5.1232494E-2,2.413871E-2,4.546212E-2,-9.301917E-3,5.7112873E-2,2.1481989E-2],"categories":[],"categories_nodes":[],"categories_segments":[],"categories_sizes":[],"default_left":[0,0,0,0,0,0,0,0,0,0,0,0,0,0,0,0,0,0,0,0,0,0,0,0,0,0,0,0,0,0,0,0,0,0,0,0,0,0,0,0,0],"id":23,"left_children":[1,3,5,7,9,11,-1,13,15,17,-1,19,21,-1,23,25,-1,27,-1,29,-1,31,-1,-1,-1,33,-1,35,37,39,-1,-1,-1,-1,-1,-1,-1,-1,-1,-1,-1],"loss_changes":[2.8912634E1,3.1645521E1,1.7728615E-1,7.1136303E0,4.885189E0,2.3726845E-1,0E0,1.556512E0,7.651657E0,2.5241823E0,0E0,9.0545654E-2,4.4557405E-1,0E0,1.202503E0,2.4787407E0,0E0,4.2303467E-1,0E0,2.8692055E-1,0E0,4.7768712E-1,0E0,0E0,0E0,1.4725876E0,0E0,3.116932E-1,1.9107862E0,5.4819107E-2,0E0,0E0,0E0,0E0,0E0,0E0,0E0,0E0,0E0,0E0,0E0],"parents":[2147483647,0,0,1,1,2,2,3,3,4,4,5,5,7,7,8,8,9,9,11,11,12,12,14,14,15,15,17,17,19,19,21,21,25,25,27,27,28,28,29,29],"right_children":[2,4,6,8,10,12,-1,14,16,18,-1,20,22,-1,24,26,-1,28,-1,30,-1,32,-1,-1,-1,34,-1,36,38,40,-1,-1,-1,-1,-1,-1,-1,-1,-1,-1,-1],"split_conditions":[1E0,1E0,1E0,1E0,1E0,1E0,1.1988105E-2,1E0,1E0,1E0,-3.8835183E-2,1E0,1E0,1.6934626E-2,1E0,1E0,3.7378825E-2,1E0,-2.2178097E-2,1E0,1.5876645E-2,1E0,-8.4098615E-4,-3.3859726E-2,1.4012009E-2,1E0,1.5916849E-2,1E0,1E0,1E0,1.1829805E-2,4.388659E-2,4.210388E-3,-5.237561E-2,-2.3014215E-3,5.1232494E-2,2.413871E-2,4.546212E-2,-9.301917E-3,5.7112873E-2,2.1481989E-2],"split_indices":[617,612,637,456,392,136,0,342,347,298,0,515,612,0,489,132,0,74,0,4,0,29,0,0,0,331,0,365,331,81,0,0,0,0,0,0,0,0,0,0,0],"split_type":[0,0,0,0,0,0,0,0,0,0,0,0,0,0,0,0,0,0,0,0,0,0,0,0,0,0,0,0,0,0,0,0,0,0,0,0,0,0,0,0,0],"sum_hessian":[1.0366324E2,7.848007E1,2.5183167E1,5.3817135E1,2.4662941E1,2.4040943E1,1.1422232E0,1.03815365E1,4.3435596E1,2.3212463E1,1.4504791E0,1.9376804E1,4.664139E0,6.2138114E0,4.1677246E0,4.138319E1,2.052408E0,2.2169342E1,1.0431206E0,1.8147995E1,1.2288108E0,3.5309682E0,1.1331708E0,2.8600116E0,1.3077133E0,4.0361504E1,1.0216845E0,1.727356E1,4.8957834E0,1.710415E1,1.0438426E0,2.2379282E0,1.29304E0,3.8739162E1,1.6223438E0,1.3016271E1,4.257288E0,2.4791203E0,2.4166632E0,1.5354234E1,1.7499179E0],"tree_param":{"num_deleted":"0","num_feature":"702","num_nodes":"41","size_leaf_vector":"1"}},{"base_weights":[2.844526E-2,-2.6585817E-1,9.2169017E-1,-6.82396E-1,6.3114345E-1,9.440936E-1,1.1708055E-2,7.244635E-2,-8.485524E-1,7.469798E-1,-3.8158696E-2,1.0174851E0,5.1682824E-1,3.0747294E-1,-3.3791757E-1,-9.425762E-1,3.688672E-2,8.2010514E-1,-2.1694742E-2,1.0472887E0,1.5501595E-2,6.555685E-1,-8.1858964E-4,-2.0075042E-3,1.983337E-2,-2.4736088E-2,-6.5944395E-3,-9.814215E-1,1.5546272E-2,9.0581393E-1,4.1789943E-1,1.0824888E0,1.1557005E-2,4.31413E-2,4.0934714E-3,-5.1905394E-2,-1.1236373E-2,5.0095677E-2,2.2703458E-2,4.4685863E-2,-8.960694E-3,5.6421746E-2,2.0976054E-2],"categories":[],"categories_nodes":[],"categories_segments":[],"categories_sizes":[],"default_left":[0,0,0,0,0,0,0,0,0,0,0,0,0,0,0,0,0,0,0,0,0,0,0,0,0,0,0,0,0,0,0,0,0,0,0,0,0,0,0,0,0,0,0],"id":24,"left_children":[1,3,5,7,9,11,-1,13,15,17,-1,19,21,23,25,27,-1,29,-1,31,-1,33,-1,-1,-1,-1,-1,35,-1,37,39,41,-1,-1,-1,-1,-1,-1,-1,-1,-1,-1,-1],"loss_changes":[2.7078207E1,2.9406872E1,1.7201233E-1,6.764017E0,4.6260033E0,2.3877716E-1,0E0,1.1226053E0,7.2396584E0,2.4016237E0,0E0,9.231377E-2,4.2550707E-1,2.4039608E-1,7.440591E-2,2.3434868E0,0E0,4.02462E-1,0E0,2.8293037E-1,0E0,4.6127915E-1,0E0,0E0,0E0,0E0,0E0,1.5186691E0,0E0,3.186512E-1,1.8183573E0,6.0237885E-2,0E0,0E0,0E0,0E0,0E0,0E0,0E0,0E0,0E0,0E0,0E0],"parents":[2147483647,0,0,1,1,2,2,3,3,4,4,5,5,7,7,8,8,9,9,11,11,12,12,13,13,14,14,15,15,17,17,19,19,21,21,27,27,29,29,30,30,31,31],"right_children":[2,4,6,8,10,12,-1,14,16,18,-1,20,22,24,26,28,-1,30,-1,32,-1,34,-1,-1,-1,-1,-1,36,-1,38,40,42,-1,-1,-1,-1,-1,-1,-1,-1,-1,-1,-1],"split_conditions":[1E0,1E0,1E0,1E0,1E0,1E0,1.1708055E-2,1E0,1E0,1E0,-3.8158696E-2,1E0,1E0,1E0,1E2,1E0,3.688672E-2,1E0,-2.1694742E-2,1E0,1.5501595E-2,1E0,-8.1858964E-4,-2.0075042E-3,1.983337E-2,-2.4736088E-2,-6.5944395E-3,1E0,1.5546272E-2,1E0,1E0,1E0,1.1557005E-2,4.31413E-2,4.0934714E-3,-5.1905394E-2,-1.1236373E-2,5.0095677E-2,2.2703458E-2,4.4685863E-2,-8.960694E-3,5.6421746E-2,2.0976054E-2],"split_indices":[617,612,637,508,392,136,0,342,294,298,0,515,612,0,701,132,0,74,0,4,0,29,0,0,0,0,0,29,0,421,331,81,0,0,0,0,0,0,0,0,0,0,0],"split_type":[0,0,0,0,0,0,0,0,0,0,0,0,0,0,0,0,0,0,0,0,0,0,0,0,0,0,0,0,0,0,0,0,0,0,0,0,0,0,0,0,0,0,0],"sum_hessian":[1.0107187E2,7.65521E1,2.451977E1,5.2439964E1,2.4112133E1,2.3384604E1,1.1351653E0,9.562389E0,4.287758E1,2.2691267E1,1.4208649E0,1.8777752E1,4.606852E0,6.239556E0,3.3228328E0,4.08614E1,2.0161767E0,2.1655752E1,1.0355159E0,1.7557718E1,1.2200333E0,3.4735308E0,1.1333214E0,1.3863407E0,4.853215E0,1.0911528E0,2.2316802E0,3.9843723E1,1.017676E0,1.681946E1,4.8362923E0,1.6518927E1,1.0387914E0,2.1814713E0,1.2920593E0,3.672094E1,3.1227834E0,1.2864847E1,3.954612E0,2.4150763E0,2.421216E0,1.4791708E1,1.7272187E0],"tree_param":{"num_deleted":"0","num_feature":"702","num_nodes":"43","size_leaf_vector":"1"}},{"base_weights":[2.9553257E-2,-2.5866637E-1,9.056053E-1,-6.655633E-1,6.1528033E-1,9.281383E-1,1.1434765E-2,4.1060753E-2,-8.3915186E-1,7.433412E-1,-3.1760123E-2,1.0022819E0,5.0453883E-1,1.5753783E-2,-3.5250887E-1,-9.35139E-1,3.6360573E-2,8.1815386E-1,-2.1224197E-2,1.0325748E0,1.5135922E-2,6.4170337E-1,-7.9679507E-4,-3.25561E-2,1.4774737E-2,-9.752238E-1,1.5185209E-2,8.8372517E-1,3.0851382E-1,1.0684614E0,1.1290805E-2,4.241987E-2,3.9798124E-3,-5.0783087E-2,-1.2093913E-3,4.6985716E-2,1.991467E-2,3.8411204E-2,-1.4596249E-2,5.5764087E-2,2.0482192E-2],"categories":[],"categories_nodes":[],"categories_segments":[],"categories_sizes":[],"default_left":[0,0,0,0,0,0,0,0,0,0,0,0,0,0,0,0,0,0,0,0,0,0,0,0,0,0,0,0,0,0,0,0,0,0,0,0,0,0,0,0,0],"id":25,"left_children":[1,3,5,7,9,11,-1,13,15,17,-1,19,21,-1,23,25,-1,27,-1,29,-1,31,-1,-1,-1,33,-1,35,37,39,-1,-1,-1,-1,-1,-1,-1,-1,-1,-1,-1],"loss_changes":[2.537693E1,2.733033E1,1.6711807E-1,6.429409E0,4.4066324E0,2.4005699E-1,0E0,1.3226904E0,6.9797173E0,2.3347073E0,0E0,9.417534E-2,4.0648878E-1,0E0,1.1760604E0,2.2784576E0,0E0,4.5318317E-1,0E0,2.7934837E-1,0E0,4.4567442E-1,0E0,0E0,0E0,1.471611E0,0E0,1.3416386E-1,1.3317671E0,6.592941E-2,0E0,0E0,0E0,0E0,0E0,0E0,0E0,0E0,0E0,0E0,0E0],"parents":[2147483647,0,0,1,1,2,2,3,3,4,4,5,5,7,7,8,8,9,9,11,11,12,12,14,14,15,15,17,17,19,19,21,21,25,25,27,27,28,28,29,29],"right_children":[2,4,6,8,10,12,-1,14,16,18,-1,20,22,-1,24,26,-1,28,-1,30,-1,32,-1,-1,-1,34,-1,36,38,40,-1,-1,-1,-1,-1,-1,-1,-1,-1,-1,-1],"split_conditions":[1E0,1E0,1E0,1E0,1E0,1E0,1.1434765E-2,1E0,1E0,1E0,-3.1760123E-2,1E0,1E0,1.5753783E-2,1E0,1E0,3.6360573E-2,1E0,-2.1224197E-2,1E0,1.5135922E-2,1E0,-7.9679507E-4,-3.25561E-2,1.4774737E-2,1E0,1.5185209E-2,1E0,1E0,1E0,1.1290805E-2,4.241987E-2,3.9798124E-3,-5.0783087E-2,-1.2093913E-3,4.6985716E-2,1.991467E-2,3.8411204E-2,-1.4596249E-2,5.5764087E-2,2.0482192E-2],"split_indices":[617,612,637,456,319,136,0,342,347,298,0,515,612,0,489,132,0,2,0,4,0,29,0,0,0,331,0,606,331,81,0,0,0,0,0,0,0,0,0,0,0],"split_type":[0,0,0,0,0,0,0,0,0,0,0,0,0,0,0,0,0,0,0,0,0,0,0,0,0,0,0,0,0,0,0,0,0,0,0,0,0,0,0,0,0],"sum_hessian":[9.857678E1,7.4704025E1,2.387276E1,5.1134827E1,2.3569197E1,2.2744501E1,1.1282594E0,1.0234968E1,4.0899857E1,2.17476E1,1.8215967E0,1.8193878E1,4.550623E0,6.1515307E0,4.083438E0,3.8917946E1,1.9819138E0,2.0719687E1,1.0279139E0,1.6982466E1,1.2114124E0,3.4171557E0,1.1334676E0,2.7920108E0,1.2914271E0,3.7904285E1,1.0136597E0,1.7707397E1,3.0122879E0,1.5948643E1,1.0338225E0,2.1260598E0,1.2910959E0,3.629315E1,1.6111338E0,1.5037192E1,2.6702056E0,1.54781E0,1.4644778E0,1.4243542E1,1.705101E0],"tree_param":{"num_deleted":"0","num_feature":"702","num_nodes":"41","size_leaf_vector":"1"}},{"base_weights":[3.0752681E-2,-2.5158447E-1,8.899502E-1,-6.491778E-1,5.990661E-1,9.12623E-1,1.1168028E-2,6.225678E-2,-8.163752E-1,7.131553E-1,-3.7136678E-2,9.8754483E-1,4.9262694E-1,3.026093E-1,-3.3441007E-1,-9.051683E-1,3.9945193E-2,7.8549343E-1,-2.0765966E-2,1.0183554E0,1.47793535E-2,6.2824255E-1,-7.755693E-4,4.9676974E-3,1.6284103E-2,-2.562505E-2,4.4440595E-3,-9.4435173E-1,1.48333525E-2,8.719463E-1,3.891562E-1,1.0549666E0,1.10310195E-2,4.17206E-2,3.8693089E-3,-4.919431E-2,-1.1722386E-3,4.8583042E-2,2.1076838E-2,4.3235745E-2,-9.356719E-3,5.5136707E-2,2.0000037E-2],"categories":[],"categories_nodes":[],"categories_segments":[],"categories_sizes":[],"default_left":[0,0,0,0,0,0,0,0,0,0,0,0,0,0,0,0,0,0,0,0,0,0,0,0,0,0,0,0,0,0,0,0,0,0,0,0,0,0,0,0,0,0,0],"id":26,"left_children":[1,3,5,7,9,11,-1,13,15,17,-1,19,21,23,25,27,-1,29,-1,31,-1,33,-1,-1,-1,-1,-1,35,-1,37,39,41,-1,-1,-1,-1,-1,-1,-1,-1,-1,-1,-1],"loss_changes":[2.378506E1,2.5377209E1,1.6254616E-1,6.0970287E0,4.2119217E0,2.4106026E-1,0E0,1.1119592E0,6.6363106E0,2.177537E0,0E0,9.608078E-2,3.8844872E-1,1.0633469E-3,3.829072E-1,2.1425896E0,0E0,4.0279293E-1,0E0,2.7610207E-1,0E0,4.3080783E-1,0E0,0E0,0E0,0E0,0E0,1.380043E0,0E0,3.527546E-1,1.7196896E0,7.180405E-2,0E0,0E0,0E0,0E0,0E0,0E0,0E0,0E0,0E0,0E0,0E0],"parents":[2147483647,0,0,1,1,2,2,3,3,4,4,5,5,7,7,8,8,9,9,11,11,12,12,13,13,14,14,15,15,17,17,19,19,21,21,27,27,29,29,30,30,31,31],"right_children":[2,4,6,8,10,12,-1,14,16,18,-1,20,22,24,26,28,-1,30,-1,32,-1,34,-1,-1,-1,-1,-1,36,-1,38,40,42,-1,-1,-1,-1,-1,-1,-1,-1,-1,-1,-1],"split_conditions":[1E0,1E0,1E0,1E0,1E0,1E0,1.1168028E-2,1E0,1E0,1E0,-3.7136678E-2,1E0,1E0,1E0,1E0,1E0,3.9945193E-2,1E0,-2.0765966E-2,1E0,1.47793535E-2,1E0,-7.755693E-4,4.9676974E-3,1.6284103E-2,-2.562505E-2,4.4440595E-3,1E0,1.48333525E-2,1E0,1E0,1E0,1.10310195E-2,4.17206E-2,3.8693089E-3,-4.919431E-2,-1.1722386E-3,4.8583042E-2,2.1076838E-2,4.3235745E-2,-9.356719E-3,5.5136707E-2,2.0000037E-2],"split_indices":[617,612,637,459,392,136,0,342,613,298,0,515,612,0,340,132,0,74,0,4,0,29,0,0,0,0,0,331,0,421,331,81,0,0,0,0,0,0,0,0,0,0,0],"split_type":[0,0,0,0,0,0,0,0,0,0,0,0,0,0,0,0,0,0,0,0,0,0,0,0,0,0,0,0,0,0,0,0,0,0,0,0,0,0,0,0,0,0,0],"sum_hessian":[9.612604E1,7.288335E1,2.324269E1,4.982979E1,2.3053555E1,2.2121187E1,1.121503E0,9.601689E0,4.02281E1,2.1678782E1,1.3747743E0,1.7625677E1,4.49551E0,6.1265473E0,3.4751418E0,3.854867E1,1.6794294E0,2.0658455E1,1.0203261E0,1.6422728E1,1.202949E0,3.3619006E0,1.1336095E0,1.1654898E0,4.9610577E0,2.2976859E0,1.1774558E0,3.753903E1,1.0096421E0,1.5974035E1,4.6844196E0,1.5393791E1,1.0289364E0,2.0717506E0,1.2901498E0,3.592824E1,1.6107851E0,1.2131092E1,3.842943E0,2.2923083E0,2.3921113E0,1.3710236E1,1.683556E0],"tree_param":{"num_deleted":"0","num_feature":"702","num_nodes":"43","size_leaf_vector":"1"}},{"base_weights":[3.2119617E-2,-2.4451527E-1,8.746841E-1,-6.331291E-1,5.8398414E-1,9.197951E-1,3.7227547E-1,7.142209E-2,-7.9894054E-1,7.102164E-1,-3.0851161E-2,5.499798E-2,6.234744E-1,3.7330188E-2,-1.0448063E-2,3.326636E-2,-7.453185E-2,-8.927117E-1,3.5784315E-2,8.957343E-1,1.3563414E-1,7.1976024E-1,-4.1253013E-3,-3.3212494E-2,1.8401863E-1,-9.323748E-1,1.4490413E-2,9.686306E-1,3.679949E-1,3.6310595E-2,-5.597606E-1,3.872063E-2,7.2205155E-3,-1.7405517E-2,1.7454019E-2,-4.9676083E-2,-8.34021E-3,5.1242985E-2,1.1625137E-2,3.2706864E-2,-2.5121607E-3,-4.8225418E-2,2.9303867E-5],"categories":[],"categories_nodes":[],"categories_segments":[],"categories_sizes":[],"default_left":[0,0,0,0,0,0,0,0,0,0,0,0,0,0,0,0,0,0,0,0,0,0,0,0,0,0,0,0,0,0,0,0,0,0,0,0,0,0,0,0,0,0,0],"id":27,"left_children":[1,3,5,7,9,11,13,15,17,19,-1,-1,21,-1,-1,-1,23,25,-1,27,29,31,-1,-1,33,35,-1,37,39,-1,41,-1,-1,-1,-1,-1,-1,-1,-1,-1,-1,-1,-1],"loss_changes":[2.2290848E1,2.3579445E1,1.9313431E-1,5.8456573E0,4.0065804E0,4.3548584E-1,9.451147E-1,9.474216E-1,6.347391E0,2.1983805E0,0E0,0E0,7.561374E-1,0E0,0E0,0E0,1.5270588E0,2.0663033E0,0E0,2.6958084E-1,3.071946E0,1.750226E-1,0E0,0E0,7.5290734E-1,1.5798454E0,0E0,3.2818222E-1,4.6222243E-1,0E0,8.0464363E-1,0E0,0E0,0E0,0E0,0E0,0E0,0E0,0E0,0E0,0E0,0E0,0E0],"parents":[2147483647,0,0,1,1,2,2,3,3,4,4,5,5,6,6,7,7,8,8,9,9,12,12,16,16,17,17,19,19,20,20,21,21,24,24,25,25,27,27,28,28,30,30],"right_children":[2,4,6,8,10,12,14,16,18,20,-1,-1,22,-1,-1,-1,24,26,-1,28,30,32,-1,-1,34,36,-1,38,40,-1,42,-1,-1,-1,-1,-1,-1,-1,-1,-1,-1,-1,-1],"split_conditions":[1E0,1E0,1E0,1E0,1E0,1E0,1E0,9.3E1,1E0,1E0,-3.0851161E-2,5.499798E-2,1E0,3.7330188E-2,-1.0448063E-2,3.326636E-2,9.6E1,1E0,3.5784315E-2,1E0,1E0,1E2,-4.1253013E-3,-3.3212494E-2,1E0,1E0,1.4490413E-2,1E0,1E0,3.6310595E-2,1E0,3.872063E-2,7.2205155E-3,-1.7405517E-2,1.7454019E-2,-4.9676083E-2,-8.34021E-3,5.1242985E-2,1.1625137E-2,3.2706864E-2,-2.5121607E-3,-4.8225418E-2,2.9303867E-5],"split_indices":[617,612,567,508,319,418,241,700,294,74,0,0,626,0,0,0,698,132,0,606,604,700,0,0,0,29,0,600,421,0,660,0,0,0,0,0,0,0,0,0,0,0,0],"split_type":[0,0,0,0,0,0,0,0,0,0,0,0,0,0,0,0,0,0,0,0,0,0,0,0,0,0,0,0,0,0,0,0,0,0,0,0,0,0,0,0,0,0,0],"sum_hessian":[9.371733E1,7.108738E1,2.2629957E1,4.8550304E1,2.2537071E1,2.0003119E1,2.6268387E0,9.35769E0,3.9192616E1,2.0763378E1,1.7736927E0,1.0753111E1,9.250009E0,1.4247572E0,1.2020814E0,1.1440268E0,8.213663E0,3.7294315E1,1.8983E0,1.5273142E1,5.490237E0,8.122672E0,1.1273364E0,2.0252397E0,6.1884236E0,3.6288685E1,1.0056288E0,1.26854725E1,2.5876687E0,2.9449034E0,2.545334E0,7.102063E0,1.0206087E0,1.2025738E0,4.98585E0,3.332892E1,2.959766E0,1.1420861E1,1.2646115E0,1.2015702E0,1.3860984E0,1.0590752E0,1.4862587E0],"tree_param":{"num_deleted":"0","num_feature":"702","num_nodes":"43","size_leaf_vector":"1"}},{"base_weights":[3.3032287E-2,-2.3752269E-1,8.5766596E-1,-6.173853E-1,5.688494E-1,9.263019E-1,4.5964545E-1,4.4343404E-2,-7.90836E-1,6.8128216E-1,-3.6187317E-2,1.0002075E0,3.194534E-1,3.258125E-2,3.1269554E-3,2.805028E-1,-3.0377397E-1,-8.8671637E-1,3.5297256E-2,8.570291E-1,1.2855203E-1,1.0386285E0,1.3797685E-2,3.396448E-2,-1.0421435E-2,4.6239425E-3,1.5096727E-2,-3.0358825E-2,1.622791E-2,-9.277223E-1,1.4156112E-2,9.687228E-1,4.0154412E-1,3.55052E-2,-5.4720545E-1,5.4578234E-2,1.8617798E-2,-4.95495E-2,-1.0133599E-2,5.1595956E-2,1.1350214E-2,4.0203292E-2,-4.368508E-3,-4.725368E-2,2.8428276E-5],"categories":[],"categories_nodes":[],"categories_segments":[],"categories_sizes":[],"default_left":[0,0,0,0,0,0,0,0,0,0,0,0,0,0,0,0,0,0,0,0,0,0,0,0,0,0,0,0,0,0,0,0,0,0,0,0,0,0,0,0,0,0,0,0,0],"id":28,"left_children":[1,3,5,7,9,11,13,15,17,19,-1,21,23,-1,-1,25,27,29,-1,31,33,35,-1,-1,-1,-1,-1,-1,-1,37,-1,39,41,-1,43,-1,-1,-1,-1,-1,-1,-1,-1,-1,-1],"loss_changes":[2.0829496E1,2.1913084E1,2.040596E-1,5.5822964E0,3.8446555E0,5.1822853E-1,3.690877E-1,9.882329E-1,6.1291103E0,2.0008383E0,0E0,1.636734E-1,8.0587065E-1,0E0,0E0,5.4466724E-4,1.1349622E0,2.012661E0,0E0,4.4089794E-1,2.911261E0,1.2277222E-1,0E0,0E0,0E0,0E0,0E0,0E0,0E0,1.4266739E0,0E0,3.4660816E-1,1.0385634E0,0E0,7.707262E-1,0E0,0E0,0E0,0E0,0E0,0E0,0E0,0E0,0E0,0E0],"parents":[2147483647,0,0,1,1,2,2,3,3,4,4,5,5,6,6,7,7,8,8,9,9,11,11,12,12,15,15,16,16,17,17,19,19,20,20,21,21,29,29,31,31,32,32,34,34],"right_children":[2,4,6,8,10,12,14,16,18,20,-1,22,24,-1,-1,26,28,30,-1,32,34,36,-1,-1,-1,-1,-1,-1,-1,38,-1,40,42,-1,44,-1,-1,-1,-1,-1,-1,-1,-1,-1,-1],"split_conditions":[1E0,1E0,1E0,1E0,1E0,1E0,1E0,1E0,1E0,1E0,-3.6187317E-2,1E0,1E0,3.258125E-2,3.1269554E-3,1E0,1E0,1E0,3.5297256E-2,1E0,1E0,1E0,1.3797685E-2,3.396448E-2,-1.0421435E-2,4.6239425E-3,1.5096727E-2,-3.0358825E-2,1.622791E-2,1E0,1.4156112E-2,1E0,1E0,3.55052E-2,1E0,5.4578234E-2,1.8617798E-2,-4.95495E-2,-1.0133599E-2,5.1595956E-2,1.1350214E-2,4.0203292E-2,-4.368508E-3,-4.725368E-2,2.8428276E-5],"split_indices":[617,612,136,456,392,241,29,342,347,74,0,515,153,0,0,0,489,132,0,365,604,81,0,0,0,0,0,0,0,29,0,600,626,0,660,0,0,0,0,0,0,0,0,0,0],"split_type":[0,0,0,0,0,0,0,0,0,0,0,0,0,0,0,0,0,0,0,0,0,0,0,0,0,0,0,0,0,0,0,0,0,0,0,0,0,0,0,0,0,0,0,0,0],"sum_hessian":[9.144722E1,6.939222E1,2.2055004E1,4.7330376E1,2.2061842E1,1.767909E1,4.3759127E0,9.984192E0,3.7346184E1,2.0731506E1,1.3303361E0,1.5181943E1,2.4971485E0,2.5177717E0,1.8581408E0,6.0643954E0,3.919797E0,3.5480938E1,1.8652439E0,1.531226E1,5.4192476E0,1.400493E1,1.1770128E0,1.3143724E0,1.1827761E0,1.1643562E0,4.900039E0,2.6660917E0,1.2537053E0,3.4479313E1,1.0016253E0,1.1391939E1,3.9203198E0,2.8853283E0,2.5339193E0,1.2382787E1,1.6221433E0,3.1374767E1,3.1045446E0,1.0136988E1,1.2549517E0,1.7965943E0,2.1237257E0,1.0476645E0,1.4862548E0],"tree_param":{"num_deleted":"0","num_feature":"702","num_nodes":"45","size_leaf_vector":"1"}},{"base_weights":[3.4257784E-2,-2.30636E-1,8.4237427E-1,-6.0170555E-1,5.546524E-1,8.8873065E-1,3.4381732E-1,4.282128E-2,-7.7462435E-1,6.656374E-1,-3.5589896E-2,5.3844877E-2,5.907372E-1,3.5828453E-2,-1.0573375E-2,2.7023453E-1,-2.9372254E-1,-8.7038267E-1,3.4725204E-2,8.406661E-1,1.217425E-1,6.875778E-1,-4.4876947E-3,1.81481E-1,1.9967651E-2,-2.961031E-2,1.5723703E-2,-9.6028984E-1,-3.1998694E-1,5.627713E-1,5.379456E-2,3.4719538E-2,-5.3507245E-1,3.8957395E-2,1.4033916E-2,-2.4802068E-3,1.48467915E-2,-5.1107414E-2,-1.943089E-2,1.2922701E-2,-2.8701494E-2,-7.214717E-3,4.4539027E-2,-4.6318278E-2,2.7581145E-5],"categories":[],"categories_nodes":[],"categories_segments":[],"categories_sizes":[],"default_left":[0,0,0,0,0,0,0,0,0,0,0,0,0,0,0,0,0,0,0,0,0,0,0,0,0,0,0,0,0,0,0,0,0,0,0,0,0,0,0,0,0,0,0,0,0],"id":29,"left_children":[1,3,5,7,9,11,13,15,17,19,-1,-1,21,-1,-1,23,25,27,-1,29,31,33,-1,35,-1,-1,-1,37,39,41,-1,-1,43,-1,-1,-1,-1,-1,-1,-1,-1,-1,-1,-1,-1],"loss_changes":[1.9509777E1,2.036476E1,2.1422386E-1,5.289448E0,3.6474543E0,4.8227215E-1,8.851311E-1,9.154461E-1,5.843197E0,1.9231291E0,0E0,0E0,7.164366E-1,0E0,0E0,8.199692E-3,1.0729097E0,1.4446354E0,0E0,4.3564987E-1,2.7596843E0,1.09678745E-1,0E0,1.749426E-1,0E0,0E0,0E0,6.612663E-1,1.0992434E0,2.3081944E0,0E0,0E0,7.386992E-1,0E0,0E0,0E0,0E0,0E0,0E0,0E0,0E0,0E0,0E0,0E0,0E0],"parents":[2147483647,0,0,1,1,2,2,3,3,4,4,5,5,6,6,7,7,8,8,9,9,12,12,15,15,16,16,17,17,19,19,20,20,21,21,23,23,27,27,28,28,29,29,32,32],"right_children":[2,4,6,8,10,12,14,16,18,20,-1,-1,22,-1,-1,24,26,28,-1,30,32,34,-1,36,-1,-1,-1,38,40,42,-1,-1,44,-1,-1,-1,-1,-1,-1,-1,-1,-1,-1,-1,-1],"split_conditions":[1E0,1E0,1E0,1E0,1E0,1E0,1E0,1E0,1E0,1E0,-3.5589896E-2,5.3844877E-2,1E0,3.5828453E-2,-1.0573375E-2,1E0,1E0,1E0,3.4725204E-2,1E0,1E0,1E2,-4.4876947E-3,1E0,1.9967651E-2,-2.961031E-2,1.5723703E-2,1E0,1E0,1E0,5.379456E-2,3.4719538E-2,1E0,3.8957395E-2,1.4033916E-2,-2.4802068E-3,1.48467915E-2,-5.1107414E-2,-1.943089E-2,1.2922701E-2,-2.8701494E-2,-7.214717E-3,4.4539027E-2,-4.6318278E-2,2.7581145E-5],"split_indices":[617,612,567,456,392,418,241,342,294,74,0,0,626,0,0,428,489,181,0,383,604,699,0,371,0,0,0,422,489,639,0,0,660,0,0,0,0,0,0,0,0,0,0,0,0],"split_type":[0,0,0,0,0,0,0,0,0,0,0,0,0,0,0,0,0,0,0,0,0,0,0,0,0,0,0,0,0,0,0,0,0,0,0,0,0,0,0,0,0,0,0,0,0],"sum_hessian":[8.92319E1,6.774143E1,2.1490473E1,4.61623E1,2.1579132E1,1.8946226E1,2.5442464E0,9.924119E0,3.6238182E1,2.0276606E1,1.3025274E0,1.001099E1,8.935235E0,1.3485429E0,1.1957035E0,6.0398397E0,3.8842795E0,3.4403316E1,1.8348683E0,1.4927275E1,5.3493304E0,7.81296E0,1.1222754E0,5.0050235E0,1.0348161E0,2.6231914E0,1.261088E0,2.893247E1,5.4708447E0,8.398165E0,6.5291104E0,2.827205E0,2.5221255E0,5.6309175E0,2.1820424E0,1.8575197E0,3.1475039E0,2.5396423E1,3.5360477E0,1.6641983E0,3.8066463E0,2.8388188E0,5.5593457E0,1.0358742E0,1.4862511E0],"tree_param":{"num_deleted":"0","num_feature":"702","num_nodes":"45","size_leaf_vector":"1"}},{"base_weights":[3.486315E-2,-2.2412689E-1,8.263596E-1,-5.8600056E-1,5.404296E-1,8.981214E-1,4.2898345E-1,7.2874516E-2,-7.510281E-1,6.635924E-1,-2.9401824E-2,9.7377276E-1,3.032903E-1,3.1179989E-2,2.2158648E-3,3.199613E-2,-6.940765E-2,-8.3867556E-1,3.7923943E-2,8.474094E-1,1.1519154E-1,1.0141056E0,1.2868503E-2,3.3182163E-2,-1.0622204E-2,-3.1242196E-2,1.692308E-1,-8.797539E-1,1.4278037E-2,9.2350936E-1,3.2704657E-1,3.395262E-2,-5.2333957E-1,5.3501137E-2,1.7261887E-2,-1.612106E-2,1.6068345E-2,-4.623806E-2,1.7475821E-3,4.9083073E-2,1.0464277E-2,3.1352077E-2,-4.2245635E-3,-4.541674E-2,2.6756043E-5],"categories":[],"categories_nodes":[],"categories_segments":[],"categories_sizes":[],"default_left":[0,0,0,0,0,0,0,0,0,0,0,0,0,0,0,0,0,0,0,0,0,0,0,0,0,0,0,0,0,0,0,0,0,0,0,0,0,0,0,0,0,0,0,0,0],"id":30,"left_children":[1,3,5,7,9,11,13,15,17,19,-1,21,23,-1,-1,-1,25,27,-1,29,31,33,-1,-1,-1,-1,35,37,-1,39,41,-1,43,-1,-1,-1,-1,-1,-1,-1,-1,-1,-1,-1,-1],"loss_changes":[1.8258692E1,1.8913883E1,2.4067211E-1,5.06763E0,3.4637666E0,5.001888E-1,3.6704326E-1,8.6300135E-1,5.525696E0,1.9596205E0,0E0,1.791048E-1,7.816038E-1,0E0,0E0,0E0,1.3003995E0,1.8862343E0,0E0,2.970085E-1,2.6166477E0,1.5717602E-1,0E0,0E0,0E0,0E0,6.3402665E-1,1.4485512E0,0E0,3.199129E-1,4.8241377E-1,0E0,7.084192E-1,0E0,0E0,0E0,0E0,0E0,0E0,0E0,0E0,0E0,0E0,0E0,0E0],"parents":[2147483647,0,0,1,1,2,2,3,3,4,4,5,5,6,6,7,7,8,8,9,9,11,11,12,12,16,16,17,17,19,19,20,20,21,21,26,26,27,27,29,29,30,30,32,32],"right_children":[2,4,6,8,10,12,14,16,18,20,-1,22,24,-1,-1,-1,26,28,-1,30,32,34,-1,-1,-1,-1,36,38,-1,40,42,-1,44,-1,-1,-1,-1,-1,-1,-1,-1,-1,-1,-1,-1],"split_conditions":[1E0,1E0,1E0,1E0,1E0,1E0,1E0,9.3E1,1E0,1E0,-2.9401824E-2,1E0,1E0,3.1179989E-2,2.2158648E-3,3.199613E-2,9.6E1,1E0,3.7923943E-2,1E0,1E0,1E0,1.2868503E-2,3.3182163E-2,-1.0622204E-2,-3.1242196E-2,1E0,1E0,1.4278037E-2,1E0,1E0,3.395262E-2,1E0,5.3501137E-2,1.7261887E-2,-1.612106E-2,1.6068345E-2,-4.623806E-2,1.7475821E-3,4.9083073E-2,1.0464277E-2,3.1352077E-2,-4.2245635E-3,-4.541674E-2,2.6756043E-5],"split_indices":[617,612,136,508,319,241,29,700,613,74,0,515,153,0,0,0,698,132,0,606,604,81,0,0,0,0,0,331,0,600,421,0,660,0,0,0,0,0,0,0,0,0,0,0,0],"split_type":[0,0,0,0,0,0,0,0,0,0,0,0,0,0,0,0,0,0,0,0,0,0,0,0,0,0,0,0,0,0,0,0,0,0,0,0,0,0,0,0,0,0,0,0,0],"sum_hessian":[8.716776E1,6.621726E1,2.0950495E1,4.5103016E1,2.111425E1,1.6678423E1,4.2720714E0,9.145977E0,3.595704E1,1.940798E1,1.7062694E0,1.42314005E1,2.4470232E0,2.424357E0,1.8477142E0,1.1329969E0,8.01298E0,3.440383E1,1.5532061E0,1.4127413E1,5.280567E0,1.3079485E1,1.1519152E0,1.2716827E0,1.1753404E0,1.9217333E0,6.091247E0,3.3400867E1,1.0029647E0,1.1649066E1,2.478347E0,2.7705483E0,2.5100188E0,1.1516921E1,1.5625641E0,1.1749417E0,4.9163055E0,3.1824001E1,1.5768658E0,1.0425756E1,1.223309E0,1.1305591E0,1.347788E0,1.0237716E0,1.4862472E0],"tree_param":{"num_deleted":"0","num_feature":"702","num_nodes":"45","size_leaf_vector":"1"}},{"base_weights":[3.617144E-2,-2.1749195E-1,8.116587E-1,-5.7135975E-1,5.263197E-1,8.374481E-1,7.314292E-3,6.733651E-2,-7.376116E-1,6.356871E-1,-3.4720976E-2,9.21406E-1,4.174573E-1,-8.34738E-2,3.0447815E-2,-8.3113045E-1,3.3965703E-2,8.0916387E-1,1.0888673E-1,9.5592326E-1,1.1619644E-2,5.5415237E-1,-2.203612E-3,-2.9137675E-2,1.07017E-1,-8.7428206E-1,1.6936958E-3,9.20696E-1,3.5171306E-1,3.3203583E-2,-5.1198626E-1,9.994428E-1,8.78704E-3,3.8763132E-2,1.6739648E-3,1.0272358E-2,-8.460866E-3,-4.8349988E-2,-1.4159597E-2,4.944636E-2,7.688576E-3,3.8079724E-2,-6.412573E-3,-4.4546835E-2,2.5957002E-5,5.2709725E-2,1.685513E-2],"categories":[],"categories_nodes":[],"categories_segments":[],"categories_sizes":[],"default_left":[0,0,0,0,0,0,0,0,0,0,0,0,0,0,0,0,0,0,0,0,0,0,0,0,0,0,0,0,0,0,0,0,0,0,0,0,0,0,0,0,0,0,0,0,0,0,0],"id":31,"left_children":[1,3,5,7,9,11,-1,13,15,17,-1,19,21,23,-1,25,-1,27,29,31,-1,33,-1,-1,35,37,-1,39,41,-1,43,45,-1,-1,-1,-1,-1,-1,-1,-1,-1,-1,-1,-1,-1,-1,-1],"loss_changes":[1.710217E1,1.7573544E1,2.4503517E-1,4.822382E0,3.3353887E0,3.3497047E-1,0E0,8.8395935E-1,5.301506E0,1.7776508E0,0E0,1.6265106E-1,3.5427356E-1,9.047986E-1,0E0,1.2981205E0,0E0,4.5183468E-1,2.4816217E0,3.3659744E-1,0E0,4.4690728E-1,0E0,0E0,2.320629E-1,1.5021858E0,0E0,4.5518017E-1,1.0022742E0,0E0,6.797575E-1,1.5508938E-1,0E0,0E0,0E0,0E0,0E0,0E0,0E0,0E0,0E0,0E0,0E0,0E0,0E0,0E0,0E0],"parents":[2147483647,0,0,1,1,2,2,3,3,4,4,5,5,7,7,8,8,9,9,11,11,12,12,13,13,15,15,17,17,18,18,19,19,21,21,24,24,25,25,27,27,28,28,30,30,31,31],"right_children":[2,4,6,8,10,12,-1,14,16,18,-1,20,22,24,-1,26,-1,28,30,32,-1,34,-1,-1,36,38,-1,40,42,-1,44,46,-1,-1,-1,-1,-1,-1,-1,-1,-1,-1,-1,-1,-1,-1,-1],"split_conditions":[1E0,1E0,1E0,1E0,1E0,1E0,7.314292E-3,1E0,1E0,1E0,-3.4720976E-2,1E0,1E0,1E2,3.0447815E-2,1E0,3.3965703E-2,1E0,1E0,1E0,1.1619644E-2,1E0,-2.203612E-3,-2.9137675E-2,1E0,1E0,1.6936958E-3,1E0,1E0,3.3203583E-2,1E0,1E0,8.78704E-3,3.8763132E-2,1.6739648E-3,1.0272358E-2,-8.460866E-3,-4.8349988E-2,-1.4159597E-2,4.944636E-2,7.688576E-3,3.8079724E-2,-6.412573E-3,-4.4546835E-2,2.5957002E-5,5.2709725E-2,1.685513E-2],"split_indices":[617,612,637,459,392,136,0,483,347,74,0,4,612,701,0,331,0,421,604,515,0,29,0,0,342,181,0,368,365,0,660,81,0,0,0,0,0,0,0,0,0,0,0,0,0,0,0],"split_type":[0,0,0,0,0,0,0,0,0,0,0,0,0,0,0,0,0,0,0,0,0,0,0,0,0,0,0,0,0,0,0,0,0,0,0,0,0,0,0,0,0,0,0,0,0,0,0],"sum_hessian":[8.5042435E1,6.46235E1,2.0418932E1,4.3947407E1,2.0676094E1,1.9408072E1,1.0108602E0,9.199665E0,3.474774E1,1.9415865E1,1.2602291E0,1.5179715E1,4.2283573E0,7.8576403E0,1.3420247E0,3.2984173E1,1.7635696E0,1.4202836E1,5.2130275E0,1.408664E1,1.0930749E0,3.107343E0,1.1210142E0,1.6013234E0,6.256317E0,3.1406693E1,1.5774808E0,1.06046295E1,3.5982068E0,2.7153673E0,2.4976602E0,1.3076196E1,1.0104442E0,1.8378956E0,1.2694473E0,4.8016205E0,1.4546963E0,2.6598518E1,4.808173E0,9.472423E0,1.1322073E0,1.6243055E0,1.9739013E0,1.0114164E0,1.4862438E0,1.1531349E1,1.5448468E0],"tree_param":{"num_deleted":"0","num_feature":"702","num_nodes":"47","size_leaf_vector":"1"}},{"base_weights":[3.7005953E-2,-2.1120174E-1,7.976769E-1,-5.561782E-1,5.13088E-1,8.4681296E-1,2.9649505E-1,4.8655443E-2,-7.291067E-1,6.21104E-1,-3.4163542E-2,5.2357174E-2,5.4610264E-1,3.3873532E-2,-1.1810477E-2,2.4481252E-1,-2.4987082E-1,-8.243041E-1,3.347172E-2,7.938858E-1,1.02816336E-1,6.439017E-1,-5.0135287E-3,1.5932581E-1,1.8736815E-2,-2.7655035E-2,1.709795E-2,-8.6890686E-1,1.4399071E-2,5.154676E-1,5.1922765E-2,6.494326E-1,-5.009939E-1,3.6944162E-2,1.2104652E-2,-3.1271637E-3,1.37204975E-2,-4.7029573E-2,-4.624381E-3,-9.213044E-3,4.279321E-2,9.976893E-3,3.7305675E-2,-3.8139198E-3,-3.6756944E-2],"categories":[],"categories_nodes":[],"categories_segments":[],"categories_sizes":[],"default_left":[0,0,0,0,0,0,0,0,0,0,0,0,0,0,0,0,0,0,0,0,0,0,0,0,0,0,0,0,0,0,0,0,0,0,0,0,0,0,0,0,0,0,0,0,0],"id":32,"left_children":[1,3,5,7,9,11,13,15,17,19,-1,-1,21,-1,-1,23,25,27,-1,29,31,33,-1,35,-1,-1,-1,37,-1,39,-1,41,43,-1,-1,-1,-1,-1,-1,-1,-1,-1,-1,-1,-1],"loss_changes":[1.6039968E1,1.6319656E1,2.6338577E-1,4.632162E0,3.1670747E0,5.418234E-1,8.5086733E-1,6.8826723E-1,5.1103573E0,1.708518E0,0E0,0E0,6.639335E-1,0E0,0E0,1.7682731E-2,1.040017E0,1.8628521E0,0E0,4.7544384E-1,2.3541172E0,1.4056468E-1,0E0,1.6888674E-1,0E0,0E0,0E0,1.6662769E0,0E0,2.283988E0,0E0,1.039052E-2,2.9050082E-1,0E0,0E0,0E0,0E0,0E0,0E0,0E0,0E0,0E0,0E0,0E0,0E0],"parents":[2147483647,0,0,1,1,2,2,3,3,4,4,5,5,6,6,7,7,8,8,9,9,12,12,15,15,16,16,17,17,19,19,20,20,21,21,23,23,27,27,29,29,31,31,32,32],"right_children":[2,4,6,8,10,12,14,16,18,20,-1,-1,22,-1,-1,24,26,28,-1,30,32,34,-1,36,-1,-1,-1,38,-1,40,-1,42,44,-1,-1,-1,-1,-1,-1,-1,-1,-1,-1,-1,-1],"split_conditions":[1E0,1E0,1E0,1E0,1E0,1E0,1E0,1E0,1E0,1E0,-3.4163542E-2,5.2357174E-2,1E0,3.3873532E-2,-1.1810477E-2,1E0,1E0,1E0,3.347172E-2,1E0,1E0,1E2,-5.0135287E-3,1E0,1.8736815E-2,-2.7655035E-2,1.709795E-2,1E0,1.4399071E-2,1E0,5.1922765E-2,1E0,1E2,3.6944162E-2,1.2104652E-2,-3.1271637E-3,1.37204975E-2,-4.7029573E-2,-4.624381E-3,-9.213044E-3,4.279321E-2,9.976893E-3,3.7305675E-2,-3.8139198E-3,-3.6756944E-2],"split_indices":[617,612,567,456,392,418,241,342,294,74,0,0,626,0,0,428,489,132,0,383,604,699,0,371,0,0,0,29,0,639,0,136,698,0,0,0,0,0,0,0,0,0,0,0,0],"split_type":[0,0,0,0,0,0,0,0,0,0,0,0,0,0,0,0,0,0,0,0,0,0,0,0,0,0,0,0,0,0,0,0,0,0,0,0,0,0,0,0,0,0,0,0,0],"sum_hessian":[8.306319E1,6.3172337E1,1.989085E1,4.2948322E1,2.0224018E1,1.7486803E1,2.4040453E0,9.7089615E0,3.323936E1,1.8990276E1,1.2337422E0,9.005313E0,8.48149E0,1.2431922E0,1.1608533E0,5.9676433E0,3.741318E0,3.1505413E1,1.7339464E0,1.384351E1,5.146766E0,7.370175E0,1.1113154E0,4.942138E0,1.025505E0,2.5170975E0,1.2242204E0,3.0501125E1,1.0042881E0,7.927025E0,5.9164844E0,2.661663E0,2.485103E0,5.2825627E0,2.0876124E0,1.8438839E0,3.0982544E0,2.772949E1,2.7716336E0,2.744351E0,5.182674E0,1.0127614E0,1.6489016E0,1.3543046E0,1.1307983E0],"tree_param":{"num_deleted":"0","num_feature":"702","num_nodes":"45","size_leaf_vector":"1"}},{"base_weights":[3.828943E-2,-2.0428404E-1,7.8240716E-1,-5.4109067E-1,5.003839E-1,8.577379E-1,3.906697E-1,7.474028E-2,-7.0574623E-1,6.2088937E-1,-2.8289607E-2,9.3797743E-1,2.6444823E-1,2.9256934E-2,1.3729756E-3,3.0970275E-2,-6.460727E-2,-7.984748E-1,3.3162158E-2,8.0230033E-1,9.9750854E-2,9.8108315E-1,1.17956875E-2,3.1743746E-2,-1.187422E-2,-2.965773E-2,1.5929995E-1,-8.4201884E-1,1.4067096E-2,8.809668E-1,2.931719E-1,6.3811404E-1,-4.8877588E-1,5.208044E-2,1.5586401E-2,-1.5036459E-2,1.5039272E-2,-4.45354E-2,2.483788E-3,4.707597E-2,9.277673E-3,2.9948015E-2,-5.1671173E-3,9.751153E-3,3.6726914E-2,-3.7037756E-3,-3.592771E-2],"categories":[],"categories_nodes":[],"categories_segments":[],"categories_sizes":[],"default_left":[0,0,0,0,0,0,0,0,0,0,0,0,0,0,0,0,0,0,0,0,0,0,0,0,0,0,0,0,0,0,0,0,0,0,0,0,0,0,0,0,0,0,0,0,0,0,0],"id":33,"left_children":[1,3,5,7,9,11,13,15,17,19,-1,21,23,-1,-1,-1,25,27,-1,29,31,33,-1,-1,-1,-1,35,37,-1,39,41,43,45,-1,-1,-1,-1,-1,-1,-1,-1,-1,-1,-1,-1,-1,-1],"loss_changes":[1.4985812E1,1.5160531E1,2.669115E-1,4.40571E0,3.0247436E0,5.2665234E-1,3.4604222E-1,7.96012E-1,4.8416214E0,1.7324972E0,0E0,1.9047737E-1,7.701644E-1,0E0,0E0,0E0,1.1403135E0,1.7540684E0,0E0,3.0562687E-1,2.2422638E0,1.946373E-1,0E0,0E0,0E0,0E0,5.457871E-1,1.4017086E0,0E0,3.178234E-1,4.7209293E-1,1.122427E-2,2.7808642E-1,0E0,0E0,0E0,0E0,0E0,0E0,0E0,0E0,0E0,0E0,0E0,0E0,0E0,0E0],"parents":[2147483647,0,0,1,1,2,2,3,3,4,4,5,5,6,6,7,7,8,8,9,9,11,11,12,12,16,16,17,17,19,19,20,20,21,21,26,26,27,27,29,29,30,30,31,31,32,32],"right_children":[2,4,6,8,10,12,14,16,18,20,-1,22,24,-1,-1,-1,26,28,-1,30,32,34,-1,-1,-1,-1,36,38,-1,40,42,44,46,-1,-1,-1,-1,-1,-1,-1,-1,-1,-1,-1,-1,-1,-1],"split_conditions":[1E0,1E0,1E0,1E0,1E0,1E0,1E0,9.3E1,1E0,1E0,-2.8289607E-2,1E0,1E0,2.9256934E-2,1.3729756E-3,3.0970275E-2,9.6E1,1E0,3.3162158E-2,1E0,1E0,1E0,1.17956875E-2,3.1743746E-2,-1.187422E-2,-2.965773E-2,1E0,1E0,1.4067096E-2,1E0,1E0,1E0,1E2,5.208044E-2,1.5586401E-2,-1.5036459E-2,1.5039272E-2,-4.45354E-2,2.483788E-3,4.707597E-2,9.277673E-3,2.9948015E-2,-5.1671173E-3,9.751153E-3,3.6726914E-2,-3.7037756E-3,-3.592771E-2],"split_indices":[617,612,136,508,319,241,29,700,347,74,0,515,153,0,0,0,698,132,0,606,604,81,0,0,0,0,0,331,0,600,421,136,698,0,0,0,0,0,0,0,0,0,0,0,0,0,0],"split_type":[0,0,0,0,0,0,0,0,0,0,0,0,0,0,0,0,0,0,0,0,0,0,0,0,0,0,0,0,0,0,0,0,0,0,0,0,0,0,0,0,0,0,0,0,0,0,0],"sum_hessian":[8.113693E1,6.1736904E1,1.9400024E1,4.1928623E1,1.9808283E1,1.5273393E1,4.1266313E0,8.960688E0,3.2967937E1,1.8172022E1,1.6362604E0,1.2942064E1,2.3313282E0,2.2896786E0,1.8369527E0,1.1236513E0,7.837036E0,3.1266817E1,1.7011185E0,1.3079476E1,5.0925455E0,1.1818968E1,1.1230962E0,1.1889908E0,1.1423373E0,1.8413359E0,5.9957004E0,3.0266527E1,1.0002903E0,1.0696409E1,2.3830671E0,2.6156166E0,2.4769292E0,1.03288555E1,1.4901129E0,1.1455426E0,4.8501577E0,2.8700502E1,1.566025E0,9.514079E0,1.1823294E0,1.0571998E0,1.3258674E0,1.0076749E0,1.6079415E0,1.3545806E0,1.1223484E0],"tree_param":{"num_deleted":"0","num_feature":"702","num_nodes":"47","size_leaf_vector":"1"}},{"base_weights":[3.9665136E-2,-1.9769049E-1,7.68388E-1,-5.26991E-1,4.877667E-1,8.1876063E-1,2.719272E-1,5.0097693E-2,-6.993449E-1,5.941867E-1,-3.336113E-2,5.1381346E-2,5.174624E-1,-1.267567E-2,3.2551937E-2,-8.229047E-2,2.1722576E-2,-7.8898495E-1,3.620089E-2,7.64053E-1,9.6831344E-2,6.155793E-1,-5.279743E-3,-2.8098693E-2,1.0124606E-1,-9.0656954E-1,-2.0104265E-1,4.874768E-1,5.0703406E-2,6.2705535E-1,-4.7691467E-1,4.2381972E-2,3.597867E-1,9.128375E-3,-6.8095475E-3,-4.8231553E-2,-1.7337948E-2,1.4795034E-2,-2.1304924E-2,-9.841612E-3,4.1643225E-2,9.530655E-3,3.6162056E-2,-3.5968262E-3,-3.512266E-2,2.6255393E-2,-6.2854285E-3],"categories":[],"categories_nodes":[],"categories_segments":[],"categories_sizes":[],"default_left":[0,0,0,0,0,0,0,0,0,0,0,0,0,0,0,0,0,0,0,0,0,0,0,0,0,0,0,0,0,0,0,0,0,0,0,0,0,0,0,0,0,0,0,0,0,0,0],"id":34,"left_children":[1,3,5,7,9,11,13,15,17,19,-1,-1,21,-1,-1,23,-1,25,-1,27,29,31,-1,-1,33,35,37,39,-1,41,43,-1,45,-1,-1,-1,-1,-1,-1,-1,-1,-1,-1,-1,-1,-1,-1],"loss_changes":[1.4030144E1,1.4097982E1,2.75465E-1,4.2026253E0,2.9061031E0,5.749397E-1,8.287948E-1,5.7355934E-1,4.696418E0,1.5501604E0,0E0,0E0,6.2828493E-1,0E0,0E0,8.2303727E-1,0E0,1.9535618E0,0E0,4.8652744E-1,2.1363196E0,1.762538E-1,0E0,0E0,1.627545E-1,4.9306107E-1,8.45648E-1,2.2108448E0,0E0,1.2038708E-2,2.6628834E-1,0E0,5.149822E-1,0E0,0E0,0E0,0E0,0E0,0E0,0E0,0E0,0E0,0E0,0E0,0E0,0E0,0E0],"parents":[2147483647,0,0,1,1,2,2,3,3,4,4,5,5,6,6,7,7,8,8,9,9,12,12,15,15,17,17,19,19,20,20,21,21,24,24,25,25,26,26,27,27,29,29,30,30,32,32],"right_children":[2,4,6,8,10,12,14,16,18,20,-1,-1,22,-1,-1,24,-1,26,-1,28,30,32,-1,-1,34,36,38,40,-1,42,44,-1,46,-1,-1,-1,-1,-1,-1,-1,-1,-1,-1,-1,-1,-1,-1],"split_conditions":[1E0,1E0,1E0,1E0,1E0,1E0,1E0,1E0,1E0,1E0,-3.336113E-2,5.1381346E-2,1E0,-1.267567E-2,3.2551937E-2,1E2,2.1722576E-2,1E0,3.620089E-2,1E0,1E0,1E0,-5.279743E-3,-2.8098693E-2,1E0,1E0,1E0,1E0,5.0703406E-2,1E0,1E2,4.2381972E-2,1E2,9.128375E-3,-6.8095475E-3,-4.8231553E-2,-1.7337948E-2,1.4795034E-2,-2.1304924E-2,-9.841612E-3,4.1643225E-2,9.530655E-3,3.6162056E-2,-3.5968262E-3,-3.512266E-2,2.6255393E-2,-6.2854285E-3],"split_indices":[617,612,567,456,392,418,127,483,613,74,0,0,626,0,0,701,0,181,0,383,604,604,0,0,342,422,489,639,0,136,698,0,699,0,0,0,0,0,0,0,0,0,0,0,0,0,0],"split_type":[0,0,0,0,0,0,0,0,0,0,0,0,0,0,0,0,0,0,0,0,0,0,0,0,0,0,0,0,0,0,0,0,0,0,0,0,0,0,0,0,0,0,0,0,0,0,0],"sum_hessian":[7.92366E1,6.0318657E1,1.8917946E1,4.0900723E1,1.9417934E1,1.658589E1,2.3320568E0,9.569318E0,3.1331406E1,1.8224306E1,1.193628E0,8.371752E0,8.214137E0,1.1162516E0,1.2158052E0,7.7022333E0,1.8670849E0,2.9894413E1,1.4369924E0,1.3184912E1,5.0393944E0,7.10696E0,1.1071777E0,1.5608757E0,6.141358E0,2.4460531E1,5.4338813E0,7.660435E0,5.524476E0,2.5707428E0,2.4686515E0,2.5131783E0,4.5937815E0,4.746714E0,1.3946438E0,2.1506786E1,2.9537451E0,1.595683E0,3.8381984E0,2.713785E0,4.9466505E0,1.0027028E0,1.56804E0,1.3548429E0,1.1138086E0,3.3659976E0,1.2277837E0],"tree_param":{"num_deleted":"0","num_feature":"702","num_nodes":"47","size_leaf_vector":"1"}},{"base_weights":[4.0360056E-2,-1.9171892E-1,7.5432044E-1,-5.129173E-1,4.756448E-1,8.3262557E-1,3.637728E-1,6.969229E-2,-6.780608E-1,5.806436E-1,-3.283864E-2,9.154856E-1,2.4366066E-1,3.4082152E-2,1.1075749E-1,-8.145787E-2,3.0513236E-2,-7.7073884E-1,3.240149E-2,7.488248E-1,9.405068E-2,9.602789E-1,1.1200187E-2,3.1074226E-2,-1.2173535E-2,1.7970452E-2,-8.879328E-3,-2.7362216E-2,9.68124E-2,-8.160971E-1,1.4081973E-2,4.7366303E-1,5.0089963E-2,3.0812288E-2,-4.65396E-1,5.119753E-2,1.4598441E-2,-9.4787516E-5,1.5981898E-2,-4.4547763E-2,-2.2851145E-3,-9.435783E-3,4.0880155E-2,-3.4929817E-3,-3.434066E-2],"categories":[],"categories_nodes":[],"categories_segments":[],"categories_sizes":[],"default_left":[0,0,0,0,0,0,0,0,0,0,0,0,0,0,0,0,0,0,0,0,0,0,0,0,0,0,0,0,0,0,0,0,0,0,0,0,0,0,0,0,0,0,0,0,0],"id":35,"left_children":[1,3,5,7,9,11,13,15,17,19,-1,21,23,-1,25,27,-1,29,-1,31,33,35,-1,-1,-1,-1,-1,-1,37,39,-1,41,-1,-1,43,-1,-1,-1,-1,-1,-1,-1,-1,-1,-1],"loss_changes":[1.3151413E1,1.311364E1,2.9222488E-1,3.9932337E0,2.7625303E0,5.3012085E-1,3.287168E-1,8.638877E-1,4.438134E0,1.4728136E0,0E0,1.9274044E-1,7.524586E-1,0E0,3.5007337E-1,7.7284974E-1,0E0,1.6814938E0,0E0,4.9099207E-1,2.035939E0,2.1431255E-1,0E0,0E0,0E0,0E0,0E0,0E0,1.5719596E-1,1.6554317E0,0E0,2.1000323E0,0E0,0E0,2.5506723E-1,0E0,0E0,0E0,0E0,0E0,0E0,0E0,0E0,0E0,0E0],"parents":[2147483647,0,0,1,1,2,2,3,3,4,4,5,5,6,6,7,7,8,8,9,9,11,11,12,12,14,14,15,15,17,17,19,19,20,20,21,21,28,28,29,29,31,31,34,34],"right_children":[2,4,6,8,10,12,14,16,18,20,-1,22,24,-1,26,28,-1,30,-1,32,34,36,-1,-1,-1,-1,-1,-1,38,40,-1,42,-1,-1,44,-1,-1,-1,-1,-1,-1,-1,-1,-1,-1],"split_conditions":[1E0,1E0,1E0,1E0,1E0,1E0,1E0,1E0,1E0,1E0,-3.283864E-2,1E0,1E0,3.4082152E-2,1E0,1E2,3.0513236E-2,1E0,3.240149E-2,1E0,1E0,1E0,1.1200187E-2,3.1074226E-2,-1.2173535E-2,1.7970452E-2,-8.879328E-3,-2.7362216E-2,1E0,1E0,1.4081973E-2,1E0,5.0089963E-2,3.0812288E-2,1E2,5.119753E-2,1.4598441E-2,-9.4787516E-5,1.5981898E-2,-4.4547763E-2,-2.2851145E-3,-9.435783E-3,4.0880155E-2,-3.4929817E-3,-3.434066E-2],"split_indices":[617,612,136,459,392,241,660,483,294,74,0,515,567,0,29,701,0,132,0,383,604,81,0,0,0,0,0,0,440,29,0,639,0,0,698,0,0,0,0,0,0,0,0,0,0],"split_type":[0,0,0,0,0,0,0,0,0,0,0,0,0,0,0,0,0,0,0,0,0,0,0,0,0,0,0,0,0,0,0,0,0,0,0,0,0,0,0,0,0,0,0,0,0],"sum_hessian":[7.749833E1,5.9038746E1,1.8459583E1,4.0012424E1,1.9026323E1,1.4433674E1,4.025908E0,8.964517E0,3.1047907E1,1.7857786E1,1.1685374E0,1.2167465E1,2.2662091E0,1.0334625E0,2.9924457E0,7.669382E0,1.2951342E0,2.9411201E1,1.6367061E0,1.2870456E1,4.9873314E0,1.1062147E1,1.1053177E0,1.1209695E0,1.1452397E0,1.4744794E0,1.5179663E0,1.5499394E0,6.119443E0,2.841118E1,1.0000196E0,7.540734E0,5.3297215E0,2.5270352E0,2.460296E0,9.614043E0,1.4481039E0,4.9279375E0,1.1915052E0,2.575237E1,2.6588116E0,2.7315252E0,4.8092084E0,1.3550917E0,1.1052043E0],"tree_param":{"num_deleted":"0","num_feature":"702","num_nodes":"45","size_leaf_vector":"1"}},{"base_weights":[4.179029E-2,-1.852246E-1,7.41199E-1,-4.9799365E-1,4.6325228E-1,8.197663E-1,3.5649613E-1,5.2081354E-2,-6.702209E-1,5.810503E-1,-2.7215501E-2,9.0346277E-1,2.3859304E-1,4.9301645E-1,-3.2019652E-3,-7.888752E-2,2.1596614E-2,-7.648784E-1,3.1993397E-2,7.5888044E-1,8.9121975E-2,9.491771E-1,1.09401E-2,3.0553896E-2,-1.2258659E-2,3.6151815E-2,2.87469E-4,-2.6647363E-2,9.431321E-2,-8.153582E-1,4.0518097E-3,1.2032723E-2,8.368042E-1,-4.0997073E-1,3.3588927E-2,5.071587E-2,1.4253454E-2,-9.085113E-5,1.5603525E-2,-4.60647E-2,-1.09232E-2,4.4923197E-2,8.012782E-3,1.7625373E-2,-4.9340736E-2],"categories":[],"categories_nodes":[],"categories_segments":[],"categories_sizes":[],"default_left":[0,0,0,0,0,0,0,0,0,0,0,0,0,0,0,0,0,0,0,0,0,0,0,0,0,0,0,0,0,0,0,0,0,0,0,0,0,0,0,0,0,0,0,0,0],"id":36,"left_children":[1,3,5,7,9,11,13,15,17,19,-1,21,23,25,-1,27,-1,29,-1,31,33,35,-1,-1,-1,-1,-1,-1,37,39,-1,-1,41,43,-1,-1,-1,-1,-1,-1,-1,-1,-1,-1,-1],"loss_changes":[1.2329074E1,1.2150646E1,2.8251266E-1,3.836687E0,2.6473913E0,5.1511574E-1,3.1831366E-1,5.5625814E-1,4.288212E0,1.5129838E0,0E0,1.9205284E-1,7.354223E-1,4.3132496E-1,0E0,7.3059577E-1,0E0,1.30546E0,0E0,3.291564E-1,1.9999888E0,2.1580982E-1,0E0,0E0,0E0,0E0,0E0,0E0,1.494385E-1,1.536375E0,0E0,0E0,3.1559658E-1,2.02595E0,0E0,0E0,0E0,0E0,0E0,0E0,0E0,0E0,0E0,0E0,0E0],"parents":[2147483647,0,0,1,1,2,2,3,3,4,4,5,5,6,6,7,7,8,8,9,9,11,11,12,12,13,13,15,15,17,17,19,19,20,20,21,21,28,28,29,29,32,32,33,33],"right_children":[2,4,6,8,10,12,14,16,18,20,-1,22,24,26,-1,28,-1,30,-1,32,34,36,-1,-1,-1,-1,-1,-1,38,40,-1,-1,42,44,-1,-1,-1,-1,-1,-1,-1,-1,-1,-1,-1],"split_conditions":[1E0,1E0,1E0,1E0,1E0,1E0,1E0,1E0,1E0,1E0,-2.7215501E-2,1E0,1E0,1E0,-3.2019652E-3,1E2,2.1596614E-2,1E0,3.1993397E-2,1E0,1E0,1E0,1.09401E-2,3.0553896E-2,-1.2258659E-2,3.6151815E-2,2.87469E-4,-2.6647363E-2,1E0,1E0,4.0518097E-3,1.2032723E-2,1E0,1E0,3.3588927E-2,5.071587E-2,1.4253454E-2,-9.085113E-5,1.5603525E-2,-4.60647E-2,-1.09232E-2,4.4923197E-2,8.012782E-3,1.7625373E-2,-4.9340736E-2],"split_indices":[617,612,136,456,319,241,612,483,347,74,0,515,153,29,0,701,0,331,0,489,376,81,0,0,0,0,0,0,440,181,0,0,600,153,0,0,0,0,0,0,0,0,0,0,0],"split_type":[0,0,0,0,0,0,0,0,0,0,0,0,0,0,0,0,0,0,0,0,0,0,0,0,0,0,0,0,0,0,0,0,0,0,0,0,0,0,0,0,0,0,0,0,0],"sum_hessian":[7.578597E1,5.7770065E1,1.8015903E1,3.912946E1,1.8640604E1,1.4021425E1,3.9944792E0,9.4964485E0,2.9633013E1,1.7068384E1,1.5722201E0,1.1771609E1,2.2498155E0,2.8854184E0,1.1090605E0,7.650835E0,1.8456134E0,2.802434E1,1.6086718E0,1.2137912E1,4.930472E0,1.0672658E1,1.0989517E0,1.1224196E0,1.1273957E0,1.6314255E0,1.253993E0,1.5390477E0,6.1117873E0,2.6480257E1,1.5440829E0,2.1209612E0,1.0016951E1,2.815308E0,2.1151636E0,9.239087E0,1.4335711E0,4.927964E0,1.1838231E0,2.2027393E1,4.4528637E0,8.87966E0,1.1372913E0,1.3800489E0,1.4352593E0],"tree_param":{"num_deleted":"0","num_feature":"702","num_nodes":"45","size_leaf_vector":"1"}},{"base_weights":[4.2641457E-2,-1.7932945E-1,7.2825944E-1,-4.837381E-1,4.5111695E-1,7.806286E-1,2.3796378E-1,7.607762E-2,-6.475626E-1,5.5467725E-1,-3.2094296E-2,5.0059527E-2,4.7988456E-1,-1.35213975E-2,3.114751E-2,3.0536486E-2,-6.3178405E-2,-7.3412484E-1,3.498798E-2,7.199028E-1,8.601014E-2,5.7775545E-1,-5.455508E-3,-2.8287074E-2,1.4845982E-1,-8.511777E-1,-1.7336206E-1,4.443478E-1,4.903627E-2,-4.014524E-1,3.2824125E-2,4.0821835E-2,3.246268E-1,-1.4063643E-2,1.3993676E-2,-4.564893E-2,-1.2190814E-2,1.5152091E-2,-1.987504E-2,-1.0047374E-2,3.9657004E-2,1.7212648E-2,-4.8306495E-2,2.453524E-2,-6.973579E-3],"categories":[],"categories_nodes":[],"categories_segments":[],"categories_sizes":[],"default_left":[0,0,0,0,0,0,0,0,0,0,0,0,0,0,0,0,0,0,0,0,0,0,0,0,0,0,0,0,0,0,0,0,0,0,0,0,0,0,0,0,0,0,0,0,0],"id":37,"left_children":[1,3,5,7,9,11,13,15,17,19,-1,-1,21,-1,-1,-1,23,25,-1,27,29,31,-1,-1,33,35,37,39,-1,41,-1,-1,43,-1,-1,-1,-1,-1,-1,-1,-1,-1,-1,-1,-1],"loss_changes":[1.1566447E1,1.1266241E1,2.91193E-1,3.6539888E0,2.53642E0,6.0371304E-1,8.008702E-1,7.677165E-1,4.0722294E0,1.3421488E0,0E0,0E0,5.7238173E-1,0E0,0E0,0E0,1.0067527E0,1.7663345E0,0E0,5.179572E-1,1.8936287E0,2.0232725E-1,0E0,0E0,4.682126E-1,6.73254E-1,7.922255E-1,2.0232782E0,0E0,1.9248857E0,0E0,0E0,4.857518E-1,0E0,0E0,0E0,0E0,0E0,0E0,0E0,0E0,0E0,0E0,0E0,0E0],