{"learner":{"attributes":{"scikit_learn":"{\"_estimator_type\": \"regressor\"}"},"feature_names":[],"feature_types":[],"gradient_booster":{"model":{"cats":{"enc":[],"feature_segments":[],"sorted_idx":[]},"gbtree_model_param":{"num_parallel_tree":"1","num_trees":"300"},"iteration_indptr":[0,1,2,3,4,5,6,7,8,9,10,11,12,13,14,15,16,17,18,19,20,21,22,23,24,25,26,27,28,29,30,31,32,33,34,35,36,37,38,39,40,41,42,43,44,45,46,47,48,49,50,51,52,53,54,55,56,57,58,59,60,61,62,63,64,65,66,67,68,69,70,71,72,73,74,75,76,77,78,79,80,81,82,83,84,85,86,87,88,89,90,91,92,93,94,95,96,97,98,99,100,101,102,103,104,105,106,107,108,109,110,111,112,113,114,115,116,117,118,119,120,121,122,123,124,125,126,127,128,129,130,131,132,133,134,135,136,137,138,139,140,141,142,143,144,145,146,147,148,149,150,151,152,153,154,155,156,157,158,159,160,161,162,163,164,165,166,167,168,169,170,171,172,173,174,175,176,177,178,179,180,181,182,183,184,185,186,187,188,189,190,191,192,193,194,195,196,197,198,199,200,201,202,203,204,205,206,207,208,209,210,211,212,213,214,215,216,217,218,219,220,221,222,223,224,225,226,227,228,229,230,231,232,233,234,235,236,237,238,239,240,241,242,243,244,245,246,247,248,249,250,251,252,253,254,255,256,257,258,259,260,261,262,263,264,265,266,267,268,269,270,271,272,273,274,275,276,277,278,279,280,281,282,283,284,285,286,287,288,289,290,291,292,293,294,295,296,297,298,299,300],"tree_info":[0,0,0,0,0,0,0,0,0,0,0,0,0,0,0,0,0,0,0,0,0,0,0,0,0,0,0,0,0,0,0,0,0,0,0,0,0,0,0,0,0,0,0,0,0,0,0,0,0,0,0,0,0,0,0,0,0,0,0,0,0,0,0,0,0,0,0,0,0,0,0,0,0,0,0,0,0,0,0,0,0,0,0,0,0,0,0,0,0,0,0,0,0,0,0,0,0,0,0,0,0,0,0,0,0,0,0,0,0,0,0,0,0,0,0,0,0,0,0,0,0,0,0,0,0,0,0,0,0,0,0,0,0,0,0,0,0,0,0,0,0,0,0,0,0,0,0,0,0,0,0,0,0,0,0,0,0,0,0,0,0,0,0,0,0,0,0,0,0,0,0,0,0,0,0,0,0,0,0,0,0,0,0,0,0,0,0,0,0,0,0,0,0,0,0,0,0,0,0,0,0,0,0,0,0,0,0,0,0,0,0,0,0,0,0,0,0,0,0,0,0,0,0,0,0,0,0,0,0,0,0,0,0,0,0,0,0,0,0,0,0,0,0,0,0,0,0,0,0,0,0,0,0,0,0,0,0,0,0,0,0,0,0,0,0,0,0,0,0,0,0,0,0,0,0,0,0,0,0,0,0,0,0,0,0,0,0,0,0,0,0,0,0,0,0,0,0,0,0,0],"trees":[{"base_weights":[2.3806375E-2,-6.133518E-1,3.2457886E0,-6.19564E-1,8.0399565E-2,3.2654486E0,9.121703E-1,-6.308334E-1,6.588611E-1,3.2754338E0,3.4206387E-2,-1.5793614E-2,8.420639E-2,-6.381194E-1,2.2925233E-2,1.6913456E0,-2.5269782E-2,1.5261916E0,3.295335E0,-3.1593528E-2,-5.8428507E-2,1.261059E-1,-4.0793616E-2,-1.5793614E-2,1.1227518E-1,1.6549222E-1,6.510727E-2],"categories":[],"categories_nodes":[],"categories_segments":[],"categories_sizes":[],"default_left":[1,0,0,0,0,0,0,0,0,0,0,0,0,0,0,0,0,0,0,0,0,0,0,0,0,0,0],"id":0,"left_children":[1,3,5,7,-1,9,11,13,15,17,-1,-1,-1,19,-1,21,-1,23,25,-1,-1,-1,-1,-1,-1,-1,-1],"loss_changes":[2.3997925E3,1.4464478E1,5.8760986E0,1.4448151E1,0E0,2.682129E0,3.375959E0,7.9596252E0,1.1673492E1,1.5849609E0,0E0,0E0,0E0,2.443695E0,0E0,1.2472365E1,0E0,6.009367E0,1.0981445E0,0E0,0E0,0E0,0E0,0E0,0E0,0E0,0E0],"parents":[2147483647,0,0,1,1,2,2,3,3,5,5,6,6,7,7,8,8,9,9,13,13,15,15,17,17,18,18],"right_children":[2,4,6,8,-1,10,12,14,16,18,-1,-1,-1,20,-1,22,-1,24,26,-1,-1,-1,-1,-1,-1,-1,-1],"split_conditions":[1E0,1E0,1E0,1E0,8.0399565E-2,1E0,1E0,1E0,2.00001E0,1E0,3.4206387E-2,-1.5793614E-2,8.420639E-2,1E0,2.2925233E-2,1E0,-2.5269782E-2,1E0,1E0,-3.1593528E-2,-5.8428507E-2,1.261059E-1,-4.0793616E-2,-1.5793614E-2,1.1227518E-1,1.6549222E-1,6.510727E-2],"split_indices":[702,16,81,314,0,515,2,702,703,371,0,0,0,294,0,32,0,229,127,0,0,0,0,0,0,0,0],"split_type":[0,0,0,0,0,0,0,0,0,0,0,0,0,0,0,0,0,0,0,0,0,0,0,0,0,0,0],"sum_hessian":[1.167E3,9.75E2,1.92E2,9.73E2,2E0,1.9E2,2E0,9.65E2,8E0,1.89E2,1E0,1E0,1E0,9.59E2,6E0,4E0,4E0,3E0,1.86E2,9.5E2,9E0,3E0,1E0,1E0,2E0,1.84E2,2E0],"tree_param":{"num_deleted":"0","num_feature":"705","num_nodes":"27","size_leaf_vector":"1"}},{"base_weights":[-2.205371E-2,-5.905601E-1,3.0279007E0,-5.966764E-1,7.9093955E-2,3.065925E0,5.3813208E-2,-6.00546E-1,7.872601E-2,3.0857177E0,8.8936603E-1,-6.107979E-1,-2.5538914E-2,3.0965393E0,3.0069081E-2,-1.5398773E-2,8.2101226E-2,-3.0700207E-2,3.0352065E-2,-1.0613943E-2,7.872601E-2,1.5533637E-1,3.3351224E-2],"categories":[],"categories_nodes":[],"categories_segments":[],"categories_sizes":[],"default_left":[0,0,0,0,0,0,0,0,0,0,0,0,0,0,0,0,0,0,0,0,0,0,0],"id":1,"left_children":[1,3,5,7,-1,9,-1,11,-1,13,15,17,19,21,-1,-1,-1,-1,-1,-1,-1,-1,-1],"loss_changes":[1.9975282E3,1.3845978E1,1.0132202E1,9.08667E0,0E0,4.8808594E0,0E0,5.690674E0,0E0,2.8425293E0,3.209271E0,4.0861206E0,5.7125463E0,2.2346191E0,0E0,0E0,0E0,0E0,0E0,0E0,0E0,0E0,0E0],"parents":[2147483647,0,0,1,1,2,2,3,3,5,5,7,7,9,9,10,10,11,11,12,12,13,13],"right_children":[2,4,6,8,-1,10,-1,12,-1,14,16,18,20,22,-1,-1,-1,-1,-1,-1,-1,-1,-1],"split_conditions":[1E0,1E0,2.00001E0,1E0,7.9093955E-2,1E0,5.3813208E-2,1E0,7.872601E-2,1E0,1E0,1E0,1E0,1E0,3.0069081E-2,-1.5398773E-2,8.2101226E-2,-3.0700207E-2,3.0352065E-2,-1.0613943E-2,7.872601E-2,1.5533637E-1,3.3351224E-2],"split_indices":[702,16,702,511,0,81,0,404,0,16,2,286,359,515,0,0,0,0,0,0,0,0,0],"split_type":[0,0,0,0,0,0,0,0,0,0,0,0,0,0,0,0,0,0,0,0,0,0,0],"sum_hessian":[1.15E3,9.7E2,1.8E2,9.68E2,2E0,1.76E2,4E0,9.67E2,1E0,1.74E2,2E0,9.5E2,1.7E1,1.73E2,1E0,1E0,1E0,9.48E2,2E0,1.6E1,1E0,1.72E2,1E0],"tree_param":{"num_deleted":"0","num_feature":"705","num_nodes":"23","size_leaf_vector":"1"}},{"base_weights":[-1.2846412E-2,-5.538809E-1,2.973614E0,-5.614531E-1,7.142186E-2,2.992733E0,8.671318E-1,-5.6518567E-1,7.6757856E-2,1.5002756E-1,4.0809736E-2,-1.5013804E-2,8.0048695E-2,-5.715354E-1,1.9636443E-2,-5.8996517E-2,-2.7839128E-2],"categories":[],"categories_nodes":[],"categories_segments":[],"categories_sizes":[],"default_left":[1,0,0,0,0,0,0,0,0,0,0,0,0,0,0,0,0],"id":2,"left_children":[1,3,5,7,-1,9,11,13,-1,-1,-1,-1,-1,15,-1,-1,-1],"loss_changes":[1.864639E3,1.5467407E1,4.533325E0,8.489868E0,0E0,5.2893066E-1,3.050813E0,6.142761E0,0E0,0E0,0E0,0E0,0E0,8.0224E0,0E0,0E0,0E0],"parents":[2147483647,0,0,1,1,2,2,3,3,5,5,6,6,7,7,13,13],"right_children":[2,4,6,8,-1,10,12,14,-1,-1,-1,-1,-1,16,-1,-1,-1],"split_conditions":[1E0,1E0,1E0,1E0,7.142186E-2,1E0,1E0,1E0,7.6757856E-2,1.5002756E-1,4.0809736E-2,-1.5013804E-2,8.0048695E-2,1E0,1.9636443E-2,-5.8996517E-2,-2.7839128E-2],"split_indices":[702,16,81,449,0,3,2,702,0,0,0,0,0,632,0,0,0],"split_type":[0,0,0,0,0,0,0,0,0,0,0,0,0,0,0,0,0],"sum_hessian":[1.152E3,9.76E2,1.76E2,9.73E2,3E0,1.74E2,2E0,9.72E2,1E0,1.73E2,1E0,1E0,1E0,9.66E2,6E0,2.1E1,9.45E2],"tree_param":{"num_deleted":"0","num_feature":"705","num_nodes":"17","size_leaf_vector":"1"}},{"base_weights":[-1.3661331E-2,-5.310044E-1,2.7727554E0,-5.345646E-1,7.483891E-2,2.7892892E0,8.454536E-1,-5.506134E-1,-1.683125E-1,2.7983422E0,2.8766757E-2,-1.4638458E-2,7.804748E-2,-5.536972E-1,6.05366E-1,-4.6059406E-1,1.7108561E0,2.8119242E0,5.2758228E-2,-2.7791321E-2,3.645971E-2,8.5239045E-2,-3.9836597E-2,-2.9681915E-2,-6.1430815E-3,1.088678E-1,4.6663355E-2,1.409697E-1,3.705905E-2],"categories":[],"categories_nodes":[],"categories_segments":[],"categories_sizes":[],"default_left":[1,0,0,0,0,0,0,0,0,0,0,0,0,0,0,0,0,0,0,0,0,0,0,0,0,0,0,0,0],"id":3,"left_children":[1,3,5,7,-1,9,11,13,15,17,-1,-1,-1,19,21,23,25,27,-1,-1,-1,-1,-1,-1,-1,-1,-1,-1,-1],"loss_changes":[1.6938325E3,7.954376E0,3.505127E0,5.7264404E0,0E0,2.0378418E0,2.9001794E0,3.7146912E0,2.4405602E1,1.3182373E0,0E0,0E0,0E0,2.9893188E0,5.982716E0,1.6345339E0,1.4441681E-1,6.7907715E-1,0E0,0E0,0E0,0E0,0E0,0E0,0E0,0E0,0E0,0E0,0E0],"parents":[2147483647,0,0,1,1,2,2,3,3,5,5,6,6,7,7,8,8,9,9,13,13,14,14,15,15,16,16,17,17],"right_children":[2,4,6,8,-1,10,12,14,16,18,-1,-1,-1,20,22,24,26,28,-1,-1,-1,-1,-1,-1,-1,-1,-1,-1,-1],"split_conditions":[1E0,1E0,1E0,1E0,7.483891E-2,1E0,1E0,1E0,1E0,1E0,2.8766757E-2,-1.4638458E-2,7.804748E-2,1E0,1E0,1E0,1E0,1E0,5.2758228E-2,-2.7791321E-2,3.645971E-2,8.5239045E-2,-3.9836597E-2,-2.9681915E-2,-6.1430815E-3,1.088678E-1,4.6663355E-2,1.409697E-1,3.705905E-2],"split_indices":[702,449,81,331,0,515,2,608,329,127,0,0,0,12,32,249,418,608,0,0,0,0,0,0,0,0,0,0,0],"split_type":[0,0,0,0,0,0,0,0,0,0,0,0,0,0,0,0,0,0,0,0,0,0,0,0,0,0,0,0,0],"sum_hessian":[1.173E3,9.9E2,1.83E2,9.89E2,1E0,1.81E2,2E0,9.47E2,4.2E1,1.8E2,1E0,1E0,1E0,9.45E2,2E0,3.7E1,5E0,1.78E2,2E0,9.44E2,1E0,1E0,1E0,2.6E1,1.1E1,2E0,3E0,1.77E2,1E0],"tree_param":{"num_deleted":"0","num_feature":"705","num_nodes":"29","size_leaf_vector":"1"}},{"base_weights":[2.070442E-2,-5.009232E-1,2.6613364E0,-5.1176965E-1,1.6991372E0,2.6763349E0,8.243173E-1,-5.1553154E-1,7.814862E-2,1.0523888E-1,3.6355894E-2,2.6858304E0,2.2042423E-2,-1.4272496E-2,7.609629E-2,-5.175372E-1,3.5548218E-2,2.694149E0,2.8047586E-2,-2.5577942E-2,-5.189544E-2,1.3504137E-1,3.613257E-2],"categories":[],"categories_nodes":[],"categories_segments":[],"categories_sizes":[],"default_left":[1,0,0,0,0,0,0,0,0,0,0,0,0,0,0,0,0,0,0,0,0,0,0],"id":4,"left_children":[1,3,5,7,9,11,13,15,-1,-1,-1,17,-1,-1,-1,19,-1,21,-1,-1,-1,-1,-1],"loss_changes":[1.6032802E3,2.40643E1,3.0839844E0,8.360916E0,4.4102955E-1,2.848999E0,2.756983E0,2.746704E0,0E0,0E0,0E0,1.8295898E0,0E0,0E0,0E0,2.4742126E0,0E0,5.235596E-1,0E0,0E0,0E0,0E0,0E0],"parents":[2147483647,0,0,1,1,2,2,3,3,4,4,5,5,6,6,7,7,11,11,15,15,17,17],"right_children":[2,4,6,8,10,12,14,16,-1,-1,-1,18,-1,-1,-1,20,-1,22,-1,-1,-1,-1,-1],"split_conditions":[1E0,1E0,1E0,1E0,1E0,1E0,1E0,1E0,7.814862E-2,1.0523888E-1,3.6355894E-2,1E0,2.2042423E-2,-1.4272496E-2,7.609629E-2,1E0,3.5548218E-2,1E0,2.8047586E-2,-2.5577942E-2,-5.189544E-2,1.3504137E-1,3.613257E-2],"split_indices":[702,16,81,511,47,16,2,14,0,0,0,515,0,0,0,294,0,608,0,0,0,0,0],"split_type":[0,0,0,0,0,0,0,0,0,0,0,0,0,0,0,0,0,0,0,0,0,0,0],"sum_hessian":[1.162E3,9.71E2,1.91E2,9.67E2,4E0,1.89E2,2E0,9.66E2,1E0,2E0,2E0,1.88E2,1E0,1E0,1E0,9.65E2,1E0,1.87E2,1E0,9.56E2,9E0,1.86E2,1E0],"tree_param":{"num_deleted":"0","num_feature":"705","num_nodes":"23","size_leaf_vector":"1"}},{"base_weights":[-2.1426196E-4,-4.7670215E-1,2.5176492E0,-4.8520464E-1,4.16965E-1,2.5339153E0,-1.3915683E-2,-4.9131805E-1,3.0218739E-2,1.7654679E0,-7.762816E-1,2.5415752E0,2.7346397E-2,-5.0668335E-1,-9.30425E-2,1.1677491E-1,-1.2866311E-2,-5.2899856E-2,-1.8546231E-2,2.5539045E0,4.6498243E-2,-4.2036116E-2,-2.4537222E-2,-1.9977901E-2,8.0415E-2,1.2802991E-1,3.2889213E-2],"categories":[],"categories_nodes":[],"categories_segments":[],"categories_sizes":[],"default_left":[1,0,0,0,0,0,0,0,0,0,0,0,0,0,0,0,0,0,0,0,0,0,0,0,0,0,0],"id":5,"left_children":[1,3,5,7,9,11,-1,13,-1,15,17,19,-1,21,23,-1,-1,-1,-1,25,-1,-1,-1,-1,-1,-1,-1],"loss_changes":[1.4324799E3,7.8311005E0,9.346313E0,6.9246826E0,1.7461468E1,1.4865723E0,0E0,6.0112915E0,0E0,6.366252E0,2.9273462E-1,1.3604736E0,0E0,4.6614075E0,2.0459146E1,0E0,0E0,0E0,0E0,6.763916E-1,0E0,0E0,0E0,0E0,0E0,0E0,0E0],"parents":[2147483647,0,0,1,1,2,2,3,3,4,4,5,5,7,7,9,9,10,10,11,11,13,13,14,14,19,19],"right_children":[2,4,6,8,10,12,-1,14,-1,16,18,20,-1,22,24,-1,-1,-1,-1,26,-1,-1,-1,-1,-1,-1,-1],"split_conditions":[1E0,1E0,1E0,1E0,1E0,1E0,-1.3915683E-2,1E0,3.0218739E-2,1E0,1E0,1E0,2.7346397E-2,1E0,1E0,1.1677491E-1,-1.2866311E-2,-5.2899856E-2,-1.8546231E-2,1E0,4.6498243E-2,-4.2036116E-2,-2.4537222E-2,-1.9977901E-2,8.0415E-2,1.2802991E-1,3.2889213E-2],"split_indices":[702,314,81,702,153,515,0,331,0,47,340,127,0,263,329,0,0,0,0,3,0,0,0,0,0,0,0],"split_type":[0,0,0,0,0,0,0,0,0,0,0,0,0,0,0,0,0,0,0,0,0,0,0,0,0,0,0],"sum_hessian":[1.192E3,1.003E3,1.89E2,9.94E2,9E0,1.88E2,1E0,9.89E2,5E0,4E0,5E0,1.87E2,1E0,9.52E2,3.7E1,3E0,1E0,2E0,3E0,1.85E2,2E0,4.1E1,9.11E2,3.2E1,5E0,1.84E2,1E0],"tree_param":{"num_deleted":"0","num_feature":"705","num_nodes":"27","size_leaf_vector":"1"}},{"base_weights":[3.1419545E-3,-4.4118413E-1,2.3956497E0,-4.4753176E-1,6.097616E-2,1.4362357E0,2.4258192E0,-4.509934E-1,7.327553E-2,-3.3133898E-2,9.153744E-2,1.2168157E-1,2.6662737E-2,-4.5435598E-1,7.068801E-2,-2.3001408E-2,1.9787047E-2],"categories":[],"categories_nodes":[],"categories_segments":[],"categories_sizes":[],"default_left":[1,0,0,0,0,0,0,0,0,0,0,0,0,0,0,0,0],"id":6,"left_children":[1,3,5,7,-1,9,11,13,-1,-1,-1,-1,-1,15,-1,-1,-1],"loss_changes":[1.2352622E3,1.0876511E1,1.7839355E0,7.1308746E0,0E0,7.8375874E0,1.2896729E0,6.7622375E0,0E0,0E0,0E0,0E0,0E0,4.8834076E0,0E0,0E0,0E0],"parents":[2147483647,0,0,1,1,2,2,3,3,5,5,6,6,7,7,13,13],"right_children":[2,4,6,8,-1,10,12,14,-1,-1,-1,-1,-1,16,-1,-1,-1],"split_conditions":[1E0,1E0,1E0,1E0,6.097616E-2,1E0,1E0,1E0,7.327553E-2,-3.3133898E-2,9.153744E-2,1.2168157E-1,2.6662737E-2,1E0,7.068801E-2,-2.3001408E-2,1.9787047E-2],"split_indices":[702,16,533,511,0,371,515,449,0,0,0,0,0,702,0,0,0],"split_type":[0,0,0,0,0,0,0,0,0,0,0,0,0,0,0,0,0],"sum_hessian":[1.16E3,9.79E2,1.81E2,9.76E2,3E0,7E0,1.74E2,9.75E2,1E0,1E0,6E0,1.73E2,1E0,9.74E2,1E0,9.68E2,6E0],"tree_param":{"num_deleted":"0","num_feature":"705","num_nodes":"17","size_leaf_vector":"1"}},{"base_weights":[8.576556E-3,-4.2557913E-1,2.2666001E0,-4.358138E-1,7.3046297E-1,3.7755728E-1,2.2847848E0,-4.4124863E-1,1.893903E-2,1.10883825E-1,-1.9137824E-2,-3.230555E-2,6.0622346E-2,2.2968998E0,3.8805272E-2,-4.5641038E-1,-1.4726438E-1,2.3084304E0,4.1394647E-2,-3.6464453E-2,-2.21434E-2,5.9720337E-2,-1.3036502E-2,1.1573718E-1,2.8986469E-2],"categories":[],"categories_nodes":[],"categories_segments":[],"categories_sizes":[],"default_left":[1,0,0,0,0,0,0,0,0,0,0,0,0,0,0,0,0,0,0,0,0,0,0,0,0],"id":7,"left_children":[1,3,5,7,9,11,13,15,-1,-1,-1,-1,-1,17,-1,19,21,23,-1,-1,-1,-1,-1,-1,-1],"loss_changes":[1.1489354E3,1.1948914E1,5.629883E0,4.4836426E0,1.5749184E1,3.3473253E0,1.6351929E0,4.2519226E0,0E0,0E0,0E0,0E0,0E0,1.2225342E0,0E0,3.0805206E0,7.770863E0,6.552124E-1,0E0,0E0,0E0,0E0,0E0,0E0,0E0],"parents":[2147483647,0,0,1,1,2,2,3,3,4,4,5,5,6,6,7,7,13,13,15,15,16,16,17,17],"right_children":[2,4,6,8,10,12,14,16,-1,-1,-1,-1,-1,18,-1,20,22,24,-1,-1,-1,-1,-1,-1,-1],"split_conditions":[1E0,1E0,1E0,1E0,2.00001E0,1E0,1E0,1E0,1.893903E-2,1.10883825E-1,-1.9137824E-2,-3.230555E-2,6.0622346E-2,1E0,3.8805272E-2,1E0,1E0,1E0,4.1394647E-2,-3.6464453E-2,-2.21434E-2,5.9720337E-2,-1.3036502E-2,1.1573718E-1,2.8986469E-2],"split_indices":[702,314,371,702,704,229,560,329,0,0,0,0,0,127,0,264,136,608,0,0,0,0,0,0,0],"split_type":[0,0,0,0,0,0,0,0,0,0,0,0,0,0,0,0,0,0,0,0,0,0,0,0,0],"sum_hessian":[1.17E3,9.82E2,1.88E2,9.74E2,8E0,2E0,1.86E2,9.68E2,6E0,3E0,5E0,1E0,1E0,1.84E2,2E0,9.2E2,4.8E1,1.82E2,2E0,4.1E1,8.79E2,3E0,4.5E1,1.81E2,1E0],"tree_param":{"num_deleted":"0","num_feature":"705","num_nodes":"25","size_leaf_vector":"1"}},{"base_weights":[1.4120802E-2,-4.0728745E-1,2.1584008E0,-4.1657543E-1,1.4816101E0,2.1737857E0,-1.9503262E-2,-4.1983E-1,6.867155E-2,9.50272E-2,2.844031E-2,2.180363E0,2.310274E-2,-4.2298734E-1,6.614872E-2,2.186369E0,2.6131514E-2,-2.141236E-2,1.8127358E-2,1.0958467E-1,2.9634321E-2],"categories":[],"categories_nodes":[],"categories_segments":[],"categories_sizes":[],"default_left":[1,0,0,0,0,0,0,0,0,0,0,0,0,0,0,0,0,0,0,0,0],"id":8,"left_children":[1,3,5,7,9,11,-1,13,-1,-1,-1,15,-1,17,-1,19,-1,-1,-1,-1,-1],"loss_changes":[1.0563041E3,1.775772E1,8.375916E0,6.2450256E0,8.309803E-1,1.1428833E0,0E0,5.908142E0,0E0,0E0,0E0,7.489624E-1,0E0,4.1672363E0,0E0,3.0480957E-1,0E0,0E0,0E0,0E0,0E0],"parents":[2147483647,0,0,1,1,2,2,3,3,4,4,5,5,7,7,11,11,13,13,15,15],"right_children":[2,4,6,8,10,12,-1,14,-1,-1,-1,16,-1,18,-1,20,-1,-1,-1,-1,-1],"split_conditions":[1E0,1E0,1E0,1E0,1E0,1E0,-1.9503262E-2,1E0,6.867155E-2,9.50272E-2,2.844031E-2,1E0,2.310274E-2,1E0,6.614872E-2,1E0,2.6131514E-2,-2.141236E-2,1.8127358E-2,1.0958467E-1,2.9634321E-2],"split_indices":[702,16,81,511,47,515,0,449,0,0,0,3,0,702,0,548,0,0,0,0,0],"split_type":[0,0,0,0,0,0,0,0,0,0,0,0,0,0,0,0,0,0,0,0,0],"sum_hessian":[1.167E3,9.76E2,1.91E2,9.72E2,4E0,1.9E2,1E0,9.71E2,1E0,2E0,2E0,1.89E2,1E0,9.7E2,1E0,1.88E2,1E0,9.64E2,6E0,1.87E2,1E0],"tree_param":{"num_deleted":"0","num_feature":"705","num_nodes":"21","size_leaf_vector":"1"}},{"base_weights":[3.1224491E-2,-3.8385674E-1,2.0313835E0,-3.8962626E-1,5.4551195E-2,9.5854473E-1,2.0771573E0,-3.9283863E-1,6.6954754E-2,4.0305525E-1,8.455076E-2,2.0886E0,6.6770947E-1,-3.959341E-1,2.210479E-2,-3.423753E-2,3.4924068E-2,2.0949507E0,2.252517E-2,-1.9015681E-2,6.909389E-2,-1.9894725E-2,3.6709197E-2,1.0526867E-1,3.769451E-2],"categories":[],"categories_nodes":[],"categories_segments":[],"categories_sizes":[],"default_left":[0,0,0,0,0,0,0,0,0,0,0,0,0,0,0,0,0,0,0,0,0,0,0,0,0],"id":9,"left_children":[1,3,5,7,-1,9,11,13,-1,15,-1,17,19,21,-1,-1,-1,23,-1,-1,-1,-1,-1,-1,-1],"loss_changes":[9.613541E2,8.585571E0,7.781494E0,5.8349915E0,0E0,3.3872232E0,1.6695557E0,2.6432648E0,0E0,2.727849E0,0E0,1.012085E0,2.7709417E0,2.4012299E0,0E0,0E0,0E0,1.0266113E0,0E0,0E0,0E0,0E0,0E0,0E0,0E0],"parents":[2147483647,0,0,1,1,2,2,3,3,5,5,6,6,7,7,9,9,11,11,12,12,13,13,17,17],"right_children":[2,4,6,8,-1,10,12,14,-1,16,-1,18,20,22,-1,-1,-1,24,-1,-1,-1,-1,-1,-1,-1],"split_conditions":[1E0,1E0,1E0,1E0,5.4551195E-2,1E0,1E0,1E0,6.6954754E-2,2.00001E0,8.455076E-2,1E0,1E0,1E0,2.210479E-2,-3.423753E-2,3.4924068E-2,1E0,2.252517E-2,-1.9015681E-2,6.909389E-2,-1.9894725E-2,3.6709197E-2,1.0526867E-1,3.769451E-2],"split_indices":[702,16,371,511,0,252,81,192,0,702,0,515,166,14,0,0,0,127,0,0,0,0,0,0,0],"split_type":[0,0,0,0,0,0,0,0,0,0,0,0,0,0,0,0,0,0,0,0,0,0,0,0,0],"sum_hessian":[1.156E3,9.58E2,1.98E2,9.55E2,3E0,9E0,1.89E2,9.54E2,1E0,6E0,3E0,1.87E2,2E0,9.51E2,3E0,1E0,5E0,1.86E2,1E0,1E0,1E0,9.5E2,1E0,1.84E2,2E0],"tree_param":{"num_deleted":"0","num_feature":"705","num_nodes":"25","size_leaf_vector":"1"}},{"base_weights":[-5.4230685E-3,-3.730612E-1,1.9321586E0,-3.817483E-1,1.3885821E0,1.9411412E0,6.9838106E-3,-3.8483384E-1,6.5280885E-2,9.004126E-2,2.5673924E-2,7.5125206E-1,1.9567126E0,-3.8791385E-1,6.499237E-2,-3.3381592E-2,7.2337866E-2,1.9676644E0,6.510167E-1,-1.9652737E-2,2.5135562E-2,9.868917E-2,2.1962041E-2,-1.854029E-2,6.736654E-2],"categories":[],"categories_nodes":[],"categories_segments":[],"categories_sizes":[],"default_left":[1,0,0,0,0,0,0,0,0,0,0,0,0,0,0,0,0,0,0,0,0,0,0,0,0],"id":10,"left_children":[1,3,5,7,9,11,-1,13,-1,-1,-1,15,17,19,-1,-1,-1,21,23,-1,-1,-1,-1,-1,-1],"loss_changes":[8.2631006E2,1.5451065E1,2.7075806E0,5.557907E0,8.7909126E-1,1.939148E0,0E0,5.537384E0,0E0,0E0,0E0,4.913266E0,1.307312E0,4.6342773E0,0E0,0E0,0E0,8.071289E-1,2.6341264E0,0E0,0E0,0E0,0E0,0E0,0E0],"parents":[2147483647,0,0,1,1,2,2,3,3,4,4,5,5,7,7,11,11,12,12,13,13,17,17,18,18],"right_children":[2,4,6,8,10,12,-1,14,-1,-1,-1,16,18,20,-1,-1,-1,22,24,-1,-1,-1,-1,-1,-1],"split_conditions":[1E0,1E0,1E0,1E0,1E0,1E0,6.9838106E-3,1E0,6.5280885E-2,9.004126E-2,2.5673924E-2,1E0,1E0,1E0,6.499237E-2,-3.3381592E-2,7.2337866E-2,1E0,1E0,-1.9652737E-2,2.5135562E-2,9.868917E-2,2.1962041E-2,-1.854029E-2,6.736654E-2],"split_indices":[702,16,16,511,47,371,0,449,0,0,0,229,81,702,0,0,0,515,2,0,0,0,0,0,0],"split_type":[0,0,0,0,0,0,0,0,0,0,0,0,0,0,0,0,0,0,0,0,0,0,0,0,0],"sum_hessian":[1.158E3,9.74E2,1.84E2,9.7E2,4E0,1.83E2,1E0,9.69E2,1E0,2E0,2E0,3E0,1.8E2,9.68E2,1E0,1E0,2E0,1.78E2,2E0,9.63E2,5E0,1.77E2,1E0,1E0,1E0],"tree_param":{"num_deleted":"0","num_feature":"705","num_nodes":"25","size_leaf_vector":"1"}},{"base_weights":[-1.27264215E-2,-3.5738418E-1,1.8431929E0,-3.6158842E-1,5.6616187E-2,1.8573712E0,-1.8076783E-2,-3.645644E-1,6.3648865E-2,1.8690062E0,2.720168E-2,-3.6753497E-1,6.336756E-2,1.8790417E0,3.2695435E-2,-1.8518664E-2,3.382433E-2,9.445756E-2,3.314839E-2],"categories":[],"categories_nodes":[],"categories_segments":[],"categories_sizes":[],"default_left":[1,0,0,0,0,0,0,0,0,0,0,0,0,0,0,0,0,0,0],"id":11,"left_children":[1,3,5,7,-1,9,-1,11,-1,13,-1,15,-1,17,-1,-1,-1,-1,-1],"loss_changes":[7.4330054E2,6.547249E0,6.3606567E0,5.221512E0,0E0,1.7490234E0,0E0,5.201996E0,0E0,9.539795E-1,0E0,3.1427155E0,0E0,9.23645E-1,0E0,0E0,0E0,0E0,0E0],"parents":[2147483647,0,0,1,1,2,2,3,3,5,5,7,7,9,9,11,11,13,13],"right_children":[2,4,6,8,-1,10,-1,12,-1,14,-1,16,-1,18,-1,-1,-1,-1,-1],"split_conditions":[1E0,1E0,1E0,1E0,5.6616187E-2,1E0,-1.8076783E-2,1E0,6.3648865E-2,1E0,2.720168E-2,1E0,6.336756E-2,1E0,3.2695435E-2,-1.8518664E-2,3.382433E-2,9.445756E-2,3.314839E-2],"split_indices":[702,16,81,511,0,286,0,449,0,147,0,12,0,127,0,0,0,0,0],"split_type":[0,0,0,0,0,0,0,0,0,0,0,0,0,0,0,0,0,0,0],"sum_hessian":[1.16E3,9.79E2,1.81E2,9.77E2,2E0,1.8E2,1E0,9.76E2,1E0,1.78E2,2E0,9.75E2,1E0,1.76E2,2E0,9.73E2,2E0,1.74E2,2E0],"tree_param":{"num_deleted":"0","num_feature":"705","num_nodes":"19","size_leaf_vector":"1"}},{"base_weights":[-1.5456383E-2,-3.2440254E-1,1.7543765E0,-3.3228767E-1,1.2970031E0,1.763542E0,4.447779E-3,-3.351311E-1,6.178337E-2,8.515268E-2,2.293092E-2,6.525855E-1,1.7794017E0,-3.3988017E-1,2.485986E-2,-3.490849E-2,6.677803E-2,1.7854573E0,1.9051552E-2,-1.7187199E-2,2.4154155E-2,8.976399E-2,3.2339625E-2],"categories":[],"categories_nodes":[],"categories_segments":[],"categories_sizes":[],"default_left":[1,0,0,0,0,0,0,0,0,0,0,0,0,0,0,0,0,0,0,0,0,0,0],"id":12,"left_children":[1,3,5,7,9,11,-1,13,-1,-1,-1,15,17,19,-1,-1,-1,21,-1,-1,-1,-1,-1],"loss_changes":[6.3647784E2,1.3100914E1,2.4838257E0,4.8145294E0,9.210806E-1,1.8693848E0,0E0,4.066437E0,0E0,0E0,0E0,4.622576E0,7.506714E-1,3.285408E0,0E0,0E0,0E0,7.178955E-1,0E0,0E0,0E0,0E0,0E0],"parents":[2147483647,0,0,1,1,2,2,3,3,4,4,5,5,7,7,11,11,12,12,13,13,17,17],"right_children":[2,4,6,8,10,12,-1,14,-1,-1,-1,16,18,20,-1,-1,-1,22,-1,-1,-1,-1,-1],"split_conditions":[1E0,1E0,1E0,1E0,1E0,1E0,4.447779E-3,1E0,6.178337E-2,8.515268E-2,2.293092E-2,1E0,1E0,1E0,2.485986E-2,-3.490849E-2,6.677803E-2,1E0,1.9051552E-2,-1.7187199E-2,2.4154155E-2,8.976399E-2,3.2339625E-2],"split_indices":[702,16,16,449,47,371,0,702,0,0,0,229,515,192,0,0,0,81,0,0,0,0,0],"split_type":[0,0,0,0,0,0,0,0,0,0,0,0,0,0,0,0,0,0,0,0,0,0,0],"sum_hessian":[1.162E3,9.9E2,1.72E2,9.86E2,4E0,1.71E2,1E0,9.85E2,1E0,2E0,2E0,3E0,1.68E2,9.8E2,5E0,1E0,2E0,1.67E2,1E0,9.76E2,4E0,1.65E2,2E0],"tree_param":{"num_deleted":"0","num_feature":"705","num_nodes":"23","size_leaf_vector":"1"}},{"base_weights":[6.2383777E-3,-3.0581105E-1,1.6760907E0,-3.1241822E-1,1.400963E0,1.6842571E0,4.336584E-3,-3.202515E-1,4.849173E-1,8.231425E-2,1.6624916E-2,1.6896454E0,1.7455136E-2,-3.2394737E-1,2.3187986E-2,-1.1152858E-1,9.5690034E-2,1.6979526E0,6.2523276E-1,-1.6402656E-2,1.4504719E-2,-2.3584144E-2,6.0238786E-2,8.544308E-2,3.9400592E-2,-1.8433353E-2,6.532581E-2],"categories":[],"categories_nodes":[],"categories_segments":[],"categories_sizes":[],"default_left":[1,0,0,0,0,0,0,0,0,0,0,0,0,0,0,0,0,0,0,0,0,0,0,0,0,0,0],"id":13,"left_children":[1,3,5,7,9,11,-1,13,15,-1,-1,17,-1,19,-1,21,-1,23,25,-1,-1,-1,-1,-1,-1,-1,-1],"loss_changes":[6.122563E2,1.1601883E1,2.255127E0,6.3198395E0,5.010848E-1,7.338867E-1,0E0,2.984108E0,8.73596E0,0E0,0E0,5.564575E-1,0E0,2.550705E0,0E0,4.360853E0,0E0,4.5013428E-1,2.513052E0,0E0,0E0,0E0,0E0,0E0,0E0,0E0,0E0],"parents":[2147483647,0,0,1,1,2,2,3,3,4,4,5,5,7,7,8,8,11,11,13,13,15,15,17,17,18,18],"right_children":[2,4,6,8,10,12,-1,14,16,-1,-1,18,-1,20,-1,22,-1,24,26,-1,-1,-1,-1,-1,-1,-1,-1],"split_conditions":[1E0,1E0,1E0,1E0,1E0,1E0,4.336584E-3,1E0,1E0,8.231425E-2,1.6624916E-2,1E0,1.7455136E-2,1E0,2.3187986E-2,1E0,9.5690034E-2,1E0,1E0,-1.6402656E-2,1.4504719E-2,-2.3584144E-2,6.0238786E-2,8.544308E-2,3.9400592E-2,-1.8433353E-2,6.532581E-2],"split_indices":[702,16,16,314,47,3,0,192,660,0,0,81,0,702,0,74,0,560,2,0,0,0,0,0,0,0,0],"split_type":[0,0,0,0,0,0,0,0,0,0,0,0,0,0,0,0,0,0,0,0,0,0,0,0,0,0,0],"sum_hessian":[1.173E3,9.89E2,1.84E2,9.86E2,3E0,1.83E2,1E0,9.77E2,9E0,2E0,1E0,1.82E2,1E0,9.73E2,4E0,7E0,2E0,1.8E2,2E0,9.67E2,6E0,6E0,1E0,1.77E2,3E0,1E0,1E0],"tree_param":{"num_deleted":"0","num_feature":"705","num_nodes":"27","size_leaf_vector":"1"}},{"base_weights":[1.4809677E-2,-3.038523E-1,1.5595171E0,-3.0949965E-1,7.9570435E-2,5.238257E-1,1.5949172E0,-3.131296E-1,7.8655474E-2,3.342123E-1,4.627799E-2,1.6071596E0,-1.797252E-2,-3.159865E-1,6.009507E-2,-3.6171854E-2,3.1553004E-2,1.6148087E0,4.2281686E-3,-3.565774E-2,-1.5334422E-2,8.11033E-2,6.44238E-3],"categories":[],"categories_nodes":[],"categories_segments":[],"categories_sizes":[],"default_left":[0,0,0,0,0,0,0,0,0,0,0,0,0,0,0,0,0,0,0,0,0,0,0],"id":14,"left_children":[1,3,5,7,-1,9,11,13,-1,15,-1,17,-1,19,-1,-1,-1,21,-1,-1,-1,-1,-1],"loss_changes":[5.6704156E2,1.0714111E1,6.3872375E0,7.0051956E0,0E0,3.000598E-1,5.1236877E0,4.500351E0,0E0,2.654258E0,0E0,2.0646667E0,0E0,3.2932281E0,0E0,0E0,0E0,1.8184204E0,0E0,0E0,0E0,0E0,0E0],"parents":[2147483647,0,0,1,1,2,2,3,3,5,5,6,6,7,7,9,9,11,11,13,13,17,17],"right_children":[2,4,6,8,-1,10,12,14,-1,16,-1,18,-1,20,-1,-1,-1,22,-1,-1,-1,-1,-1],"split_conditions":[1E0,1E0,1E0,1E0,7.9570435E-2,1E0,1E0,1E0,7.8655474E-2,2.00001E0,4.627799E-2,1E0,-1.797252E-2,1E0,6.009507E-2,-3.6171854E-2,3.1553004E-2,1E0,4.2281686E-3,-3.565774E-2,-1.5334422E-2,8.11033E-2,6.44238E-3],"split_indices":[702,16,371,608,0,229,81,511,0,702,0,16,0,375,0,0,0,66,0,0,0,0,0],"split_type":[0,0,0,0,0,0,0,0,0,0,0,0,0,0,0,0,0,0,0,0,0,0,0],"sum_hessian":[1.15E3,9.54E2,1.96E2,9.52E2,2E0,7E0,1.89E2,9.51E2,1E0,6E0,1E0,1.88E2,1E0,9.5E2,1E0,1E0,5E0,1.87E2,1E0,2E1,9.3E2,1.86E2,1E0],"tree_param":{"num_deleted":"0","num_feature":"705","num_nodes":"23","size_leaf_vector":"1"}},{"base_weights":[1.3366623E-2,-2.7152067E-1,1.5108577E0,-2.7764153E-1,1.2959718E0,1.5180941E0,4.122466E-3,-2.803191E-1,5.8592696E-2,7.6918095E-2,1.4220032E-2,1.5269321E0,2.3499763E-2,-2.6788646E-1,-5.9854376E-1,9.451887E-1,1.5480046E0,-1.3571178E-2,7.668909E-2,-1.6612234E-2,-4.096624E-2,2.5768116E-2,6.768156E-2,7.765584E-2,1.6334785E-2],"categories":[],"categories_nodes":[],"categories_segments":[],"categories_sizes":[],"default_left":[0,0,0,0,0,0,0,0,0,0,0,0,0,0,0,0,0,0,0,0,0,0,0,0,0],"id":15,"left_children":[1,3,5,7,9,11,-1,13,-1,-1,-1,15,-1,17,19,21,23,-1,-1,-1,-1,-1,-1,-1,-1],"loss_changes":[4.991245E2,9.791122E0,1.8077698E0,4.1320114E0,5.432687E-1,1.00531E0,0E0,3.7129364E0,0E0,0E0,0E0,7.9241943E-1,0E0,6.4320526E0,1.8443604E0,8.824234E-1,5.914917E-1,0E0,0E0,0E0,0E0,0E0,0E0,0E0,0E0],"parents":[2147483647,0,0,1,1,2,2,3,3,4,4,5,5,7,7,11,11,13,13,14,14,15,15,16,16],"right_children":[2,4,6,8,10,12,-1,14,-1,-1,-1,16,-1,18,20,22,24,-1,-1,-1,-1,-1,-1,-1,-1],"split_conditions":[1E0,1E0,1E0,1E0,1E0,1E0,4.122466E-3,1E0,5.8592696E-2,7.6918095E-2,1.4220032E-2,1E0,2.3499763E-2,1E0,1E0,1E0,1E0,-1.3571178E-2,7.668909E-2,-1.6612234E-2,-4.096624E-2,2.5768116E-2,6.768156E-2,7.765584E-2,1.6334785E-2],"split_indices":[702,16,16,511,47,127,0,47,0,0,0,371,0,286,153,229,206,0,0,0,0,0,0,0,0],"split_type":[0,0,0,0,0,0,0,0,0,0,0,0,0,0,0,0,0,0,0,0,0,0,0,0,0],"sum_hessian":[1.168E3,9.82E2,1.86E2,9.79E2,3E0,1.85E2,1E0,9.78E2,1E0,2E0,1E0,1.83E2,2E0,9.43E2,3.5E1,8E0,1.75E2,9.42E2,1E0,1.7E1,1.8E1,5E0,3E0,1.74E2,1E0],"tree_param":{"num_deleted":"0","num_feature":"705","num_nodes":"25","size_leaf_vector":"1"}},{"base_weights":[-7.128399E-3,-2.6203912E-1,1.421869E0,-2.6881352E-1,1.1140823E0,1.4291167E0,4.0194034E-3,-2.7152562E-1,5.9455454E-2,1.8486043E-2,7.435416E-2,1.4379683E0,2.2262776E-2,-2.7505213E-1,2.341669E-2,1.446868E0,2.2716438E-2,-1.4312047E-2,-1.3332664E-3,4.8224565E-2,7.37087E-2],"categories":[],"categories_nodes":[],"categories_segments":[],"categories_sizes":[],"default_left":[1,0,0,0,0,0,0,0,0,0,0,0,0,0,0,0,0,0,0,0,0],"id":16,"left_children":[1,3,5,7,9,11,-1,13,-1,-1,-1,15,-1,17,-1,19,-1,-1,-1,-1,-1],"loss_changes":[4.2110074E2,9.444725E0,1.5865784E0,4.1859894E0,8.3843136E-1,8.750305E-1,0E0,2.6753159E0,0E0,0E0,0E0,8.4835815E-1,0E0,2.693695E0,0E0,8.173828E-1,0E0,0E0,0E0,0E0,0E0],"parents":[2147483647,0,0,1,1,2,2,3,3,4,4,5,5,7,7,11,11,13,13,15,15],"right_children":[2,4,6,8,10,12,-1,14,-1,-1,-1,16,-1,18,-1,20,-1,-1,-1,-1,-1],"split_conditions":[1E0,1E0,1E0,1E0,1E0,1E0,4.0194034E-3,1E0,5.9455454E-2,1.8486043E-2,7.435416E-2,1E0,2.2262776E-2,1E0,2.341669E-2,1E0,2.2716438E-2,-1.4312047E-2,-1.3332664E-3,4.8224565E-2,7.37087E-2],"split_indices":[702,16,16,449,74,125,0,192,0,0,0,127,0,13,0,263,0,0,0,0,0],"split_type":[0,0,0,0,0,0,0,0,0,0,0,0,0,0,0,0,0,0,0,0,0],"sum_hessian":[1.154E3,9.8E2,1.74E2,9.76E2,4E0,1.73E2,1E0,9.75E2,1E0,2E0,2E0,1.71E2,2E0,9.71E2,4E0,1.69E2,2E0,9.29E2,4.2E1,1.1E1,1.58E2],"tree_param":{"num_deleted":"0","num_feature":"705","num_nodes":"21","size_leaf_vector":"1"}},{"base_weights":[7.881376E-3,-2.5294122E-1,1.3778588E0,-2.5869837E-1,1.212159E0,5.958541E-2,1.391864E0,-2.6205283E-1,7.5129665E-2,7.1875684E-2,1.3402382E-2,-3.7117373E-2,4.158628E-2,1.4026282E0,2.7488294E-1,-2.6470798E-1,5.7969064E-2,1.4080288E0,1.0627493E-2,3.7050426E-3,1.6911179E-2,-1.3025667E-2,-4.4831265E-2,7.066804E-2,1.1207062E-2],"categories":[],"categories_nodes":[],"categories_segments":[],"categories_sizes":[],"default_left":[1,0,0,0,0,0,0,0,0,0,0,0,0,0,0,0,0,0,0,0,0,0,0,0,0],"id":17,"left_children":[1,3,5,7,9,11,13,15,-1,-1,-1,-1,-1,17,19,21,-1,23,-1,-1,-1,-1,-1,-1,-1],"loss_changes":[4.1555563E2,8.554382E0,3.3511047E0,6.1483154E0,4.6571732E-1,2.475043E0,1.8267517E0,3.9791336E0,0E0,0E0,0E0,0E0,0E0,8.704834E-1,1.3090342E-2,2.342865E0,0E0,8.257446E-1,0E0,0E0,0E0,0E0,0E0,0E0,0E0],"parents":[2147483647,0,0,1,1,2,2,3,3,4,4,5,5,6,6,7,7,13,13,14,14,15,15,17,17],"right_children":[2,4,6,8,10,12,14,16,-1,-1,-1,-1,-1,18,20,22,-1,24,-1,-1,-1,-1,-1,-1,-1],"split_conditions":[1E0,1E0,1E0,1E0,1E0,1E0,1E0,1E0,7.5129665E-2,7.1875684E-2,1.3402382E-2,-3.7117373E-2,4.158628E-2,1E0,1E0,1E0,5.7969064E-2,1E0,1.0627493E-2,3.7050426E-3,1.6911179E-2,-1.3025667E-2,-4.4831265E-2,7.066804E-2,1.1207062E-2],"split_indices":[702,16,371,286,47,229,560,449,0,0,0,0,0,515,12,184,0,3,0,0,0,0,0,0,0],"split_type":[0,0,0,0,0,0,0,0,0,0,0,0,0,0,0,0,0,0,0,0,0,0,0,0,0],"sum_hessian":[1.161E3,9.76E2,1.85E2,9.73E2,3E0,2E0,1.83E2,9.72E2,1E0,2E0,1E0,1E0,1E0,1.81E2,2E0,9.71E2,1E0,1.8E2,1E0,1E0,1E0,9.66E2,5E0,1.79E2,1E0],"tree_param":{"num_deleted":"0","num_feature":"705","num_nodes":"25","size_leaf_vector":"1"}},{"base_weights":[-2.3492128E-3,-2.3896813E-1,1.3056406E0,-2.4519421E-1,1.0428351E0,1.3124537E0,2.1522164E-3,-2.5217992E-1,4.653205E-1,6.947983E-2,1.7423099E-2,4.49038E-1,1.3246198E0,-2.4650002E-1,-7.796161E-1,-7.3663086E-2,8.737516E-2,-3.618944E-2,5.4062158E-2,1.3298206E0,1.0361806E-2,-1.2535119E-2,9.595536E-2,-6.536542E-3,-4.6274807E-2,-2.0357845E-2,5.6519836E-2,6.6849105E-2,2.367809E-2],"categories":[],"categories_nodes":[],"categories_segments":[],"categories_sizes":[],"default_left":[1,0,0,0,0,0,0,0,0,0,0,0,0,0,0,0,0,0,0,0,0,0,0,0,0,0,0,0,0],"id":18,"left_children":[1,3,5,7,9,11,-1,13,15,-1,-1,17,19,21,23,25,-1,-1,-1,27,-1,-1,-1,-1,-1,-1,-1,-1,-1],"loss_changes":[3.636593E2,8.196411E0,1.4918823E0,5.0361137E0,7.1968794E-1,1.285492E0,0E0,2.7496834E0,7.039481E0,0E0,0E0,3.7484608E0,7.471924E-1,9.336113E0,8.2560253E-1,3.6726205E0,0E0,0E0,0E0,4.4000244E-1,0E0,0E0,0E0,0E0,0E0,0E0,0E0,0E0,0E0],"parents":[2147483647,0,0,1,1,2,2,3,3,4,4,5,5,7,7,8,8,11,11,12,12,13,13,14,14,15,15,19,19],"right_children":[2,4,6,8,10,12,-1,14,16,-1,-1,18,20,22,24,26,-1,-1,-1,28,-1,-1,-1,-1,-1,-1,-1,-1,-1],"split_conditions":[1E0,1E0,1E0,1E0,1E0,1E0,2.1522164E-3,1E0,1E0,6.947983E-2,1.7423099E-2,1E0,1E0,1E0,1E0,1E0,8.737516E-2,-3.618944E-2,5.4062158E-2,1E0,1.0361806E-2,-1.2535119E-2,9.595536E-2,-6.536542E-3,-4.6274807E-2,-2.0357845E-2,5.6519836E-2,6.6849105E-2,2.367809E-2],"split_indices":[702,16,16,314,47,371,0,294,660,0,0,229,515,391,65,74,0,0,0,81,0,0,0,0,0,0,0,0,0],"split_type":[0,0,0,0,0,0,0,0,0,0,0,0,0,0,0,0,0,0,0,0,0,0,0,0,0,0,0,0,0],"sum_hessian":[1.173E3,9.94E2,1.79E2,9.9E2,4E0,1.78E2,1E0,9.81E2,9E0,2E0,2E0,3E0,1.75E2,9.72E2,9E0,7E0,2E0,1E0,2E0,1.74E2,1E0,9.71E2,1E0,2E0,7E0,6E0,1E0,1.72E2,2E0],"tree_param":{"num_deleted":"0","num_feature":"705","num_nodes":"29","size_leaf_vector":"1"}},{"base_weights":[3.4492228E-3,-2.2670913E-1,1.2215562E0,-2.3465425E-1,6.6979504E-1,6.09606E-1,1.2418548E0,-2.376474E-1,8.2631785E-1,9.090041E-2,-1.0365647E-2,8.9831954E-1,-3.5284705E-2,1.2482877E0,2.0984113E-3,-2.3374069E-1,-5.6866694E-2,4.9342096E-2,1.2631744E-2,4.826567E-2,1.2408912E-2,1.2538952E0,6.113404E-3,-1.1775751E-2,3.7671916E-2,6.293347E-2,1.0102761E-2],"categories":[],"categories_nodes":[],"categories_segments":[],"categories_sizes":[],"default_left":[1,0,0,0,0,0,0,0,0,0,0,0,0,0,0,0,0,0,0,0,0,0,0,0,0,0,0],"id":19,"left_children":[1,3,5,7,9,11,13,15,17,-1,-1,19,-1,21,-1,23,-1,-1,-1,-1,-1,25,-1,-1,-1,-1,-1],"loss_changes":[3.316595E2,7.244385E0,1.5782471E0,3.3307457E0,9.440859E0,3.6718976E0,1.344696E0,3.1962585E0,2.695918E-2,0E0,0E0,6.531811E-2,0E0,9.8324585E-1,0E0,1.8974953E0,0E0,0E0,0E0,0E0,0E0,6.4456177E-1,0E0,0E0,0E0,0E0,0E0],"parents":[2147483647,0,0,1,1,2,2,3,3,4,4,5,5,6,6,7,7,8,8,11,11,13,13,15,15,21,21],"right_children":[2,4,6,8,10,12,14,16,18,-1,-1,20,-1,22,-1,24,-1,-1,-1,-1,-1,26,-1,-1,-1,-1,-1],"split_conditions":[1E0,1E0,1E0,1E0,2.00001E0,2.00001E0,1E0,1E0,1E0,9.090041E-2,-1.0365647E-2,1E0,-3.5284705E-2,1E0,2.0984113E-3,1E0,-5.6866694E-2,4.9342096E-2,1.2631744E-2,4.826567E-2,1.2408912E-2,1E0,6.113404E-3,-1.1775751E-2,3.7671916E-2,6.293347E-2,1.0102761E-2],"split_indices":[702,314,533,16,703,703,16,359,294,0,0,2,0,608,0,14,0,0,0,0,0,515,0,0,0,0,0],"split_type":[0,0,0,0,0,0,0,0,0,0,0,0,0,0,0,0,0,0,0,0,0,0,0,0,0,0,0],"sum_hessian":[1.181E3,9.94E2,1.87E2,9.86E2,8E0,7E0,1.8E2,9.84E2,2E0,3E0,5E0,6E0,1E0,1.79E2,1E0,9.81E2,3E0,1E0,1E0,5E0,1E0,1.78E2,1E0,9.8E2,1E0,1.77E2,1E0],"tree_param":{"num_deleted":"0","num_feature":"705","num_nodes":"27","size_leaf_vector":"1"}},{"base_weights":[1.5903423E-2,-2.119935E-1,1.1587437E0,-2.1779269E-1,9.8328435E-1,1.1696949E0,-2.523931E-2,-2.2402915E-1,5.788558E-1,6.5519094E-2,1.6421266E-2,4.8795912E-1,1.1958313E0,-2.2026224E-1,-5.473419E-2,-4.7369707E-1,8.749165E-2,1.9741337E-1,5.016231E-2,1.2017255E0,2.0459504E-3,-2.4888072E-2,-1.05956495E-2,-9.918894E-3,-3.9374348E-2,-3.4402587E-2,2.2983309E-2,6.04703E-2,1.6119616E-2],"categories":[],"categories_nodes":[],"categories_segments":[],"categories_sizes":[],"default_left":[0,0,0,0,0,0,0,0,1,0,0,0,0,0,0,0,0,0,0,0,0,0,0,0,0,0,0,0,0],"id":20,"left_children":[1,3,5,7,9,11,-1,13,15,-1,-1,17,19,21,-1,23,-1,25,-1,27,-1,-1,-1,-1,-1,-1,-1,-1,-1],"loss_changes":[3.117436E2,7.1319313E0,4.2157288E0,5.0681458E0,6.406512E-1,2.9444885E0,0E0,2.995926E0,1.0689013E1,0E0,0E0,1.1493757E0,1.2442017E0,2.1743622E0,0E0,2.7574182E-1,0E0,1.9417839E0,0E0,8.8653564E-1,0E0,0E0,0E0,0E0,0E0,0E0,0E0,0E0,0E0],"parents":[2147483647,0,0,1,1,2,2,3,3,4,4,5,5,7,7,8,8,11,11,12,12,13,13,15,15,17,17,19,19],"right_children":[2,4,6,8,10,12,-1,14,16,-1,-1,18,20,22,-1,24,-1,26,-1,28,-1,-1,-1,-1,-1,-1,-1,-1,-1],"split_conditions":[1E0,1E0,1E0,1E0,1E0,1E0,-2.523931E-2,1E0,1E0,6.5519094E-2,1.6421266E-2,1E0,1E0,1E0,-5.473419E-2,1E0,8.749165E-2,2.00001E0,5.016231E-2,1E0,2.0459504E-3,-2.4888072E-2,-1.05956495E-2,-9.918894E-3,-3.9374348E-2,-3.4402587E-2,2.2983309E-2,6.04703E-2,1.6119616E-2],"split_indices":[702,16,81,314,47,371,0,359,704,0,0,229,16,632,0,181,0,702,0,127,0,0,0,0,0,0,0,0,0],"split_type":[0,0,0,0,0,0,0,0,0,0,0,0,0,0,0,0,0,0,0,0,0,0,0,0,0,0,0,0,0],"sum_hessian":[1.195E3,9.97E2,1.98E2,9.93E2,4E0,1.97E2,1E0,9.86E2,7E0,2E0,2E0,8E0,1.89E2,9.83E2,3E0,4E0,3E0,6E0,2E0,1.88E2,1E0,2.7E1,9.56E2,3E0,1E0,1E0,5E0,1.86E2,2E0],"tree_param":{"num_deleted":"0","num_feature":"705","num_nodes":"29","size_leaf_vector":"1"}},{"base_weights":[-9.071351E-3,-2.098596E-1,1.1363858E0,-6.172815E-1,-1.9796842E-1,1.1424235E0,1.9948005E-3,-5.616048E-3,-8.505617E-1,-2.0146447E-1,7.02814E-1,1.1557858E0,4.5694718E-1,-1.045009E0,-4.8553566E-3,-2.0377502E-1,5.116714E-2,1.587389E-2,4.6470564E-2,1.1611327E0,6.170565E-3,2.5674326E-2,5.769748E-3,-8.036182E-2,-1.7607778E-2,-1.0303445E-2,5.064704E-2,5.8301486E-2,8.338434E-3],"categories":[],"categories_nodes":[],"categories_segments":[],"categories_sizes":[],"default_left":[1,0,0,0,0,0,0,0,0,0,0,0,0,1,0,0,0,0,0,0,0,0,0,0,0,0,0,0,0],"id":21,"left_children":[1,3,5,7,9,11,-1,-1,13,15,17,19,21,23,-1,25,-1,-1,-1,27,-1,-1,-1,-1,-1,-1,-1,-1,-1],"loss_changes":[2.714018E2,4.7418976E0,1.1195831E0,3.2027874E0,3.2183495E0,1.0748138E0,0E0,0E0,2.6821613E0,2.9649086E0,5.4197073E-2,8.0059814E-1,3.730178E-2,5.2771225E0,0E0,2.924385E0,0E0,0E0,0E0,6.333313E-1,0E0,0E0,0E0,0E0,0E0,0E0,0E0,0E0,0E0],"parents":[2147483647,0,0,1,1,2,2,3,3,4,4,5,5,8,8,9,9,10,10,11,11,12,12,13,13,15,15,19,19],"right_children":[2,4,6,8,10,12,-1,-1,14,16,18,20,22,24,-1,26,-1,-1,-1,28,-1,-1,-1,-1,-1,-1,-1,-1,-1],"split_conditions":[1E0,1E0,1E0,1E0,1E0,1E0,1.9948005E-3,-5.616048E-3,1E0,1E0,1E0,1E0,1E0,1E0,-4.8553566E-3,1E0,5.116714E-2,1.587389E-2,4.6470564E-2,1E0,6.170565E-3,2.5674326E-2,5.769748E-3,-8.036182E-2,-1.7607778E-2,-1.0303445E-2,5.064704E-2,5.8301486E-2,8.338434E-3],"split_indices":[702,632,16,0,16,125,0,0,702,511,74,3,13,703,0,449,0,0,0,515,0,0,0,0,0,0,0,0,0],"split_type":[0,0,0,0,0,0,0,0,0,0,0,0,0,0,0,0,0,0,0,0,0,0,0,0,0,0,0,0,0],"sum_hessian":[1.178E3,1.003E3,1.75E2,2.7E1,9.76E2,1.74E2,1E0,9E0,1.8E1,9.73E2,3E0,1.7E2,4E0,1.4E1,4E0,9.72E2,1E0,2E0,1E0,1.69E2,1E0,3E0,1E0,7E0,7E0,9.71E2,1E0,1.68E2,1E0],"tree_param":{"num_deleted":"0","num_feature":"705","num_nodes":"29","size_leaf_vector":"1"}},{"base_weights":[-4.9156984E-3,-9.635914E-2,1.005776E0,-1.7161772E-1,1.0985563E0,1.1465807E-1,1.0745757E0,-1.7852601E-1,8.328904E-1,5.5483487E-2,1.02381585E-2,3.9035308E-1,-4.7495133E-1,1.0995212E0,5.462437E-1,-1.8329853E-1,5.236521E-2,4.6710104E-2,5.6255045E-3,2.500838E-2,3.7368085E-2,-4.9682357E-3,-3.0653113E-2,5.5392154E-2,1.0220206E-2,4.4841703E-2,-3.0167688E-2,-9.417387E-3,4.245306E-2,-3.0653113E-2,2.2102635E-2],"categories":[],"categories_nodes":[],"categories_segments":[],"categories_sizes":[],"default_left":[0,0,0,0,0,0,0,0,0,0,0,0,0,0,0,0,0,0,0,0,0,0,0,0,0,0,0,0,0,0,0],"id":22,"left_children":[1,3,5,7,9,11,13,15,17,-1,-1,19,21,23,25,27,-1,-1,-1,29,-1,-1,-1,-1,-1,-1,-1,-1,-1,-1,-1],"loss_changes":[1.0693575E2,9.5601746E1,5.762413E0,7.081192E0,3.9855957E-1,1.4858177E0,5.723648E-1,6.001318E0,4.0577364E-1,0E0,0E0,7.638969E-1,9.470111E-2,3.992691E-1,2.959334E0,5.3203697E0,0E0,0E0,0E0,1.3354206E0,0E0,0E0,0E0,0E0,0E0,0E0,0E0,0E0,0E0,0E0,0E0],"parents":[2147483647,0,0,1,1,2,2,3,3,4,4,5,5,6,6,7,7,8,8,11,11,12,12,13,13,14,14,15,15,19,19],"right_children":[2,4,6,8,10,12,14,16,18,-1,-1,20,22,24,26,28,-1,-1,-1,30,-1,-1,-1,-1,-1,-1,-1,-1,-1,-1,-1],"split_conditions":[1E0,1E0,1E0,1E0,1E0,1E0,1E2,1E0,1E0,5.5483487E-2,1.02381585E-2,1E0,1E0,1E0,1E0,1E0,5.236521E-2,4.6710104E-2,5.6255045E-3,1E0,3.7368085E-2,-4.9682357E-3,-3.0653113E-2,5.5392154E-2,1.0220206E-2,4.4841703E-2,-3.0167688E-2,-9.417387E-3,4.245306E-2,-3.0653113E-2,2.2102635E-2],"split_indices":[4,2,704,22,5,29,701,229,12,0,0,181,2,2,74,16,0,0,0,353,0,0,0,0,0,0,0,0,0,0,0],"split_type":[0,0,0,0,0,0,0,0,0,0,0,0,0,0,0,0,0,0,0,0,0,0,0,0,0,0,0,0,0,0,0],"sum_hessian":[1.155E3,1.06E3,9.5E1,9.98E2,6.2E1,7E0,8.8E1,9.92E2,6E0,6.1E1,1E0,5E0,2E0,8.3E1,5E0,9.89E2,3E0,5E0,1E0,3E0,2E0,1E0,1E0,8.2E1,1E0,4E0,1E0,9.85E2,4E0,1E0,2E0],"tree_param":{"num_deleted":"0","num_feature":"705","num_nodes":"31","size_leaf_vector":"1"}},{"base_weights":[-7.6370575E-3,-1.9419764E-1,1.0010281E0,-1.9965765E-1,4.3586677E-1,1.0057161E0,3.2267093E-3,-2.0297821E-1,2.5186142E-2,1.2953148E0,-5.107546E-1,1.0201974E0,5.559819E-1,-1.9478089E-1,-3.9463958E-1,8.341998E-2,-4.925608E-3,-8.089541E-3,-4.766524E-2,1.0272173E0,1.3297935E-2,6.617553E-1,-4.6108067E-3,-9.470543E-3,-3.204247E-2,-8.573731E-3,-3.1613532E-2,5.191457E-2,2.1930497E-2,3.830786E-2,8.836031E-4],"categories":[],"categories_nodes":[],"categories_segments":[],"categories_sizes":[],"default_left":[1,0,0,0,0,0,0,0,0,0,0,0,0,0,0,0,0,0,0,0,0,0,0,0,0,0,0,0,0,0,0],"id":23,"left_children":[1,3,5,7,9,11,-1,13,-1,15,17,19,21,23,25,-1,-1,-1,-1,27,-1,29,-1,-1,-1,-1,-1,-1,-1,-1,-1],"loss_changes":[2.2544247E2,3.565014E0,7.56073E-1,2.4448738E0,7.983734E0,6.441498E-1,0E0,1.4926758E0,0E0,2.7644348E0,6.17934E-1,6.745453E-1,6.095216E-1,2.1782036E0,2.0128183E0,0E0,0E0,0E0,0E0,6.98349E-1,0E0,4.57165E-1,0E0,0E0,0E0,0E0,0E0,0E0,0E0,0E0,0E0],"parents":[2147483647,0,0,1,1,2,2,3,3,4,4,5,5,7,7,9,9,10,10,11,11,12,12,13,13,14,14,19,19,21,21],"right_children":[2,4,6,8,10,12,-1,14,-1,16,18,20,22,24,26,-1,-1,-1,-1,28,-1,30,-1,-1,-1,-1,-1,-1,-1,-1,-1],"split_conditions":[1E0,1E0,1E0,1E0,1E0,1E0,3.2267093E-3,1E0,2.5186142E-2,1E0,1E0,1E0,1E0,1E0,1E0,8.341998E-2,-4.925608E-3,-8.089541E-3,-4.766524E-2,1E0,1.3297935E-2,1E0,-4.6108067E-3,-9.470543E-3,-3.204247E-2,-8.573731E-3,-3.1613532E-2,5.191457E-2,2.1930497E-2,3.830786E-2,8.836031E-4],"split_indices":[702,314,608,192,47,347,0,47,0,153,32,127,66,391,153,0,0,0,0,125,0,47,0,0,0,0,0,0,0,0,0],"split_type":[0,0,0,0,0,0,0,0,0,0,0,0,0,0,0,0,0,0,0,0,0,0,0,0,0,0,0,0,0,0,0],"sum_hessian":[1.196E3,1.01E3,1.86E2,1.002E3,8E0,1.85E2,1E0,9.98E2,4E0,4E0,4E0,1.78E2,7E0,9.59E2,3.9E1,3E0,1E0,3E0,1E0,1.76E2,2E0,6E0,1E0,9.49E2,1E1,2.1E1,1.8E1,1.72E2,4E0,5E0,1E0],"tree_param":{"num_deleted":"0","num_feature":"705","num_nodes":"31","size_leaf_vector":"1"}},{"base_weights":[2.5639248E-3,-1.852329E-1,9.6294165E-1,-1.8855654E-1,6.7868966E-1,9.677775E-1,8.615136E-4,-1.9068246E-1,4.75308E-2,4.6545792E-2,1.421545E-2,9.718105E-1,4.9366057E-3,-1.879338E-1,-5.129653E-2,9.758824E-1,4.9538733E-3,-8.93117E-3,-2.0713931E-2,4.8950177E-2,9.649754E-3],"categories":[],"categories_nodes":[],"categories_segments":[],"categories_sizes":[],"default_left":[1,0,0,0,0,0,0,0,0,0,0,0,0,0,0,0,0,0,0,0,0],"id":24,"left_children":[1,3,5,7,9,11,-1,13,-1,-1,-1,15,-1,17,-1,19,-1,-1,-1,-1,-1],"loss_changes":[2.1281793E2,2.9620056E0,8.659973E-1,2.5643196E0,1.3322473E-1,5.7699585E-1,0E0,2.0639725E0,0E0,0E0,0E0,5.8206177E-1,0E0,1.9933243E0,0E0,2.753296E-1,0E0,0E0,0E0,0E0,0E0],"parents":[2147483647,0,0,1,1,2,2,3,3,4,4,5,5,7,7,11,11,13,13,15,15],"right_children":[2,4,6,8,10,12,-1,14,-1,-1,-1,16,-1,18,-1,20,-1,-1,-1,-1,-1],"split_conditions":[1E0,1E0,1E0,1E0,1E0,1E0,8.615136E-4,1E0,4.75308E-2,4.6545792E-2,1.421545E-2,1E0,4.9366057E-3,1E0,-5.129653E-2,1E0,4.9538733E-3,-8.93117E-3,-2.0713931E-2,4.8950177E-2,9.649754E-3],"split_indices":[702,16,16,449,47,14,0,417,0,0,0,3,0,47,0,5,0,0,0,0,0],"split_type":[0,0,0,0,0,0,0,0,0,0,0,0,0,0,0,0,0,0,0,0,0],"sum_hessian":[1.178E3,9.86E2,1.92E2,9.83E2,3E0,1.91E2,1E0,9.82E2,1E0,1E0,2E0,1.9E2,1E0,9.8E2,2E0,1.89E2,1E0,9.43E2,3.7E1,1.88E2,1E0],"tree_param":{"num_deleted":"0","num_feature":"705","num_nodes":"21","size_leaf_vector":"1"}},{"base_weights":[1.3125273E-2,-1.6524397E-1,9.1931885E-1,-1.6732922E-1,4.8261177E-2,9.322495E-1,4.95685E-1,-1.785602E-1,5.543338E-2,9.3834376E-1,1.18780015E-2,5.9917885E-1,-5.7192924E-3,-1.8513344E-1,1.9579141E-1,-6.369799E-2,1.1165291E0,9.423073E-1,4.8300265E-3,6.934421E-1,8.399755E-4,-9.05742E-3,-4.4745002E-2,2.736341E-2,-8.8720005E-3,6.005649E-2,-7.523022E-3,6.4629965E-2,1.0306201E-2,4.7496714E-2,1.7699165E-2,3.913295E-2,6.1839554E-3],"categories":[],"categories_nodes":[],"categories_segments":[],"categories_sizes":[],"default_left":[1,0,0,0,0,0,0,0,0,0,0,0,0,0,0,0,0,0,0,0,0,0,0,0,0,0,0,0,0,0,0,0,0],"id":25,"left_children":[1,3,5,7,-1,9,11,13,15,17,-1,19,-1,21,23,25,27,29,-1,31,-1,-1,-1,-1,-1,-1,-1,-1,-1,-1,-1,-1,-1],"loss_changes":[1.9460129E2,2.53298E0,6.225128E-1,2.5242462E0,0E0,5.857086E-1,5.7364607E-1,2.391142E0,6.2652006E0,5.395355E-1,0E0,3.726294E-1,0E0,2.4994469E0,2.3272045E0,5.1190023E0,5.350404E-1,5.073242E-1,0E0,2.0819616E-1,0E0,0E0,0E0,0E0,0E0,0E0,0E0,0E0,0E0,0E0,0E0,0E0,0E0],"parents":[2147483647,0,0,1,1,2,2,3,3,5,5,6,6,7,7,8,8,9,9,11,11,13,13,14,14,15,15,16,16,17,17,19,19],"right_children":[2,4,6,8,-1,10,12,14,16,18,-1,20,-1,22,24,26,28,30,-1,32,-1,-1,-1,-1,-1,-1,-1,-1,-1,-1,-1,-1,-1],"split_conditions":[1E0,1E0,1E0,1E0,4.8261177E-2,1E0,1E0,1E0,1E0,1E0,1.18780015E-2,1E0,-5.7192924E-3,1E0,1E0,1E0,1E0,1E0,4.8300265E-3,1E0,8.399755E-4,-9.05742E-3,-4.4745002E-2,2.736341E-2,-8.8720005E-3,6.005649E-2,-7.523022E-3,6.4629965E-2,1.0306201E-2,4.7496714E-2,1.7699165E-2,3.913295E-2,6.1839554E-3],"split_indices":[702,511,347,329,0,127,66,404,331,3,0,47,0,184,604,151,47,560,0,515,0,0,0,0,0,0,0,0,0,0,0,0,0],"split_type":[0,0,0,0,0,0,0,0,0,0,0,0,0,0,0,0,0,0,0,0,0,0,0,0,0,0,0,0,0,0,0,0,0],"sum_hessian":[1.202E3,1.005E3,1.97E2,1.004E3,1E0,1.9E2,7E0,9.56E2,4.8E1,1.88E2,2E0,6E0,1E0,9.4E2,1.6E1,4.4E1,4E0,1.87E2,1E0,5E0,1E0,9.36E2,4E0,8E0,8E0,2E0,4.2E1,3E0,1E0,1.84E2,3E0,4E0,1E0],"tree_param":{"num_deleted":"0","num_feature":"705","num_nodes":"33","size_leaf_vector":"1"}},{"base_weights":[1.0087448E-3,-1.6854796E-1,8.684198E-1,-1.75561E-1,8.23329E-1,8.728591E-1,7.3486567E-4,-1.8007551E-1,9.551978E-1,7.9088785E-2,-7.0475E-3,8.7732774E-1,8.189768E-4,-5.2166516E-1,-1.700403E-1,5.6980826E-2,1.0048545E-2,8.830575E-1,1.1482068E-2,-9.675598E-3,-8.189747E-2,-8.362069E-3,-4.928473E-2,4.434063E-2,4.7092736E-3],"categories":[],"categories_nodes":[],"categories_segments":[],"categories_sizes":[],"default_left":[1,0,0,0,0,0,0,0,0,0,0,0,0,0,0,0,0,0,0,0,0,0,0,0,0],"id":26,"left_children":[1,3,5,7,9,11,-1,13,15,-1,-1,17,-1,19,21,-1,-1,23,-1,-1,-1,-1,-1,-1,-1],"loss_changes":[1.7090088E2,6.905842E0,7.072449E-1,5.1032677E0,5.3424306E0,7.089844E-1,0E0,3.212387E0,3.2734442E-1,0E0,0E0,4.948883E-1,0E0,9.573469E0,1.974287E0,0E0,0E0,4.6746826E-1,0E0,0E0,0E0,0E0,0E0,0E0,0E0],"parents":[2147483647,0,0,1,1,2,2,3,3,4,4,5,5,7,7,8,8,11,11,13,13,14,14,17,17],"right_children":[2,4,6,8,10,12,-1,14,16,-1,-1,18,-1,20,22,-1,-1,24,-1,-1,-1,-1,-1,-1,-1],"split_conditions":[1E0,1E0,1E0,1E0,1E0,1E0,7.3486567E-4,1E0,1E0,7.9088785E-2,-7.0475E-3,1E0,8.189768E-4,2.00001E0,1E0,5.6980826E-2,1.0048545E-2,1E0,1.1482068E-2,-9.675598E-3,-8.189747E-2,-8.362069E-3,-4.928473E-2,4.434063E-2,4.7092736E-3],"split_indices":[702,314,608,16,47,16,0,632,47,0,0,127,0,703,417,0,0,3,0,0,0,0,0,0,0],"split_type":[0,0,0,0,0,0,0,0,0,0,0,0,0,0,0,0,0,0,0,0,0,0,0,0,0],"sum_hessian":[1.16E3,9.71E2,1.89E2,9.65E2,6E0,1.88E2,1E0,9.62E2,3E0,3E0,3E0,1.87E2,1E0,2.6E1,9.36E2,2E0,1E0,1.85E2,2E0,2.1E1,5E0,9.34E2,2E0,1.84E2,1E0],"tree_param":{"num_deleted":"0","num_feature":"705","num_nodes":"25","size_leaf_vector":"1"}},{"base_weights":[9.711384E-3,-5.3121626E-2,7.732674E-1,-1.1594272E-1,8.290319E-2,2.1785466E-1,8.3157057E-1,-1.2257552E-1,3.6734603E-2,-1.678244E-2,3.7988523E-1,4.3315998E-1,-4.2891106E-1,3.8510075E-1,4.3087553E-2,6.927682E-2,-1.411346E-1,5.2626485E-1,-6.122573E-2,2.4173437E-1,7.382152E-1,-2.344054E-3,2.542173E-2,-2.9029613E-2,-3.138716E-3,-2.8517967E-2,6.39404E-1,9.830719E-3,-7.6257423E-3,-7.444259E-3,1.9884652E-2,3.5366584E-2,-1.8741764E-2,-5.4328046E-3,2.3771351E-2,-7.560064E-3,1.7143799E-2,4.1358724E-2,-8.011227E-3,3.5234444E-2,7.824493E-3],"categories":[],"categories_nodes":[],"categories_segments":[],"categories_sizes":[],"default_left":[0,0,0,0,0,0,0,0,0,0,0,0,0,0,0,0,0,0,1,0,0,0,0,0,0,0,0,0,0,0,0,0,0,0,0,0,0,0,0,0,0],"id":27,"left_children":[1,3,5,7,9,11,13,15,-1,17,19,21,23,25,-1,27,29,31,33,35,37,-1,-1,-1,-1,-1,39,-1,-1,-1,-1,-1,-1,-1,-1,-1,-1,-1,-1,-1,-1],"loss_changes":[5.7421E1,9.460634E0,2.7656288E0,4.3611164E0,1.036807E1,1.5783081E0,7.7305603E-1,2.6873512E0,0E0,6.379676E0,4.177865E0,3.129151E-1,1.3016188E-1,2.065526E0,0E0,1.9222281E0,2.9241009E0,3.5283194E0,6.262344E0,2.6350827E0,2.050723E0,0E0,0E0,0E0,0E0,0E0,7.888508E-2,0E0,0E0,0E0,0E0,0E0,0E0,0E0,0E0,0E0,0E0,0E0,0E0,0E0,0E0],"parents":[2147483647,0,0,1,1,2,2,3,3,4,4,5,5,6,6,7,7,9,9,10,10,11,11,12,12,13,13,15,15,16,16,17,17,18,18,19,19,20,20,26,26],"right_children":[2,4,6,8,10,12,14,16,-1,18,20,22,24,26,-1,28,30,32,34,36,38,-1,-1,-1,-1,-1,40,-1,-1,-1,-1,-1,-1,-1,-1,-1,-1,-1,-1,-1,-1],"split_conditions":[1E0,1E0,1E0,1E0,1E0,1E0,1E0,1E0,3.6734603E-2,1E0,1E0,1E0,1E0,1E0,4.3087553E-2,2.00001E0,1E0,1E2,1E0,1E0,1E0,-2.344054E-3,2.542173E-2,-2.9029613E-2,-3.138716E-3,-2.8517967E-2,1E0,9.830719E-3,-7.6257423E-3,-7.444259E-3,1.9884652E-2,3.5366584E-2,-1.8741764E-2,-5.4328046E-3,2.3771351E-2,-7.560064E-3,1.7143799E-2,4.1358724E-2,-8.011227E-3,3.5234444E-2,7.824493E-3],"split_indices":[4,181,704,211,249,29,376,255,0,543,660,543,47,249,0,704,391,699,704,29,502,0,0,0,0,0,127,0,0,0,0,0,0,0,0,0,0,0,0,0,0],"split_type":[0,0,0,0,0,0,0,0,0,0,0,0,0,0,0,0,0,0,0,0,0,0,0,0,0,0,0,0,0,0,0,0,0,0,0,0,0,0,0,0,0],"sum_hessian":[1.195E3,1.105E3,9E1,7.56E2,3.49E2,9E0,8.1E1,7.51E2,5E0,2.62E2,8.7E1,7E0,2E0,6E0,7.5E1,6.6E1,6.85E2,1.9E1,2.43E2,6.4E1,2.3E1,1E0,6E0,1E0,1E0,1E0,5E0,4.2E1,2.4E1,6.76E2,9E0,1.6E1,3E0,2.24E2,1.9E1,1.3E1,5.1E1,2.1E1,2E0,4E0,1E0],"tree_param":{"num_deleted":"0","num_feature":"705","num_nodes":"41","size_leaf_vector":"1"}},{"base_weights":[1.1803025E-3,-1.4939117E-1,7.85434E-1,-1.5412432E-1,7.987178E-1,3.266581E-1,8.0679536E-1,-1.4291011E-1,-4.4110113E-1,5.4289084E-2,1.2270729E-2,1.2294576E-1,3.8050245E-2,8.113074E-1,2.0421743E-4,-1.456007E-1,3.707499E-2,-3.1117013E-1,-5.194472E-2,-3.939153E-2,1.8280195E-2,8.158517E-1,2.8790237E-4,-2.1353351E-2,-6.884971E-3,-1.0172005E-2,-2.7595287E-2,2.7074173E-2,4.1811E-2],"categories":[],"categories_nodes":[],"categories_segments":[],"categories_sizes":[],"default_left":[0,0,0,0,0,0,0,0,0,0,0,0,0,0,0,0,0,1,0,0,0,0,0,0,0,0,0,0,0],"id":28,"left_children":[1,3,5,7,9,11,13,15,17,-1,-1,19,-1,21,-1,23,-1,25,-1,-1,-1,27,-1,-1,-1,-1,-1,-1,-1],"loss_changes":[1.3709737E2,4.493965E0,1.5690765E0,3.0586376E0,5.2770066E-1,7.912557E-1,6.413727E-1,2.3328724E0,2.4729147E0,0E0,0E0,2.0560925E0,0E0,6.432266E-1,0E0,2.0161324E0,0E0,6.916883E-1,0E0,0E0,0E0,5.3076935E-1,0E0,0E0,0E0,0E0,0E0,0E0,0E0],"parents":[2147483647,0,0,1,1,2,2,3,3,4,4,5,5,6,6,7,7,8,8,11,11,13,13,15,15,17,17,21,21],"right_children":[2,4,6,8,10,12,14,16,18,-1,-1,20,-1,22,-1,24,-1,26,-1,-1,-1,28,-1,-1,-1,-1,-1,-1,-1],"split_conditions":[1E0,1E0,1E0,1E0,1E0,1E0,1E0,1E0,1E0,5.4289084E-2,1.2270729E-2,2.00001E0,3.8050245E-2,1E0,2.0421743E-4,1E0,3.707499E-2,1E0,-5.194472E-2,-3.939153E-2,1.8280195E-2,1E0,2.8790237E-4,-2.1353351E-2,-6.884971E-3,-1.0172005E-2,-2.7595287E-2,2.7074173E-2,4.1811E-2],"split_indices":[702,16,371,47,47,229,16,12,32,0,0,702,0,608,0,632,0,703,0,0,0,703,0,0,0,0,0,0,0],"split_type":[0,0,0,0,0,0,0,0,0,0,0,0,0,0,0,0,0,0,0,0,0,0,0,0,0,0,0,0,0],"sum_hessian":[1.159E3,9.73E2,1.86E2,9.69E2,4E0,9E0,1.77E2,9.34E2,3.5E1,2E0,2E0,7E0,2E0,1.76E2,1E0,9.32E2,2E0,3E1,5E0,1E0,6E0,1.75E2,1E0,2.4E1,9.08E2,2.2E1,8E0,1.4E1,1.61E2],"tree_param":{"num_deleted":"0","num_feature":"705","num_nodes":"29","size_leaf_vector":"1"}},{"base_weights":[-3.3742911E-3,-1.4811324E-1,7.376765E-1,-1.5214278E-1,8.7615454E-1,7.4805987E-1,-3.1138731E-2,-4.5921335E-1,-1.4329262E-1,5.2479453E-2,8.896279E-3,2.2408149E-1,7.6974154E-1,-1.6625652E-1,-1.714972E0,-1.4532137E-1,4.4752445E-2,-1.4427082E-1,1.7496755E-2,7.7392715E-1,1.991123E-4,4.4380384E-3,-2.8640619E-2,-1.0832379E-1,2.2760592E-3,-6.7784633E-3,-1.8519731E-2,-3.840674E-2,2.758643E-2,3.8907047E-2,2.807021E-4],"categories":[],"categories_nodes":[],"categories_segments":[],"categories_sizes":[],"default_left":[0,0,0,0,0,0,0,0,0,0,0,0,0,0,0,0,0,0,0,0,0,0,0,0,0,0,0,0,0,0,0],"id":29,"left_children":[1,3,5,7,9,11,-1,13,15,-1,-1,17,19,21,23,25,-1,27,-1,29,-1,-1,-1,-1,-1,-1,-1,-1,-1,-1,-1],"loss_changes":[1.2603121E2,4.1904736E0,3.1780777E0,2.5974674E0,2.9763913E-1,1.9974136E0,0E0,9.647717E0,2.1396961E0,0E0,0E0,4.6771172E-1,5.8345795E-1,2.4354553E0,4.0729666E0,2.0415611E0,0E0,1.7264291E0,0E0,5.8486176E-1,0E0,0E0,0E0,0E0,0E0,0E0,0E0,0E0,0E0,0E0,0E0],"parents":[2147483647,0,0,1,1,2,2,3,3,4,4,5,5,7,7,8,8,11,11,12,12,13,13,14,14,15,15,17,17,19,19],"right_children":[2,4,6,8,10,12,-1,14,16,-1,-1,18,20,22,24,26,-1,28,-1,30,-1,-1,-1,-1,-1,-1,-1,-1,-1,-1,-1],"split_conditions":[1E0,1E0,1E0,1E0,1E0,1E0,-3.1138731E-2,2.00001E0,1E0,5.2479453E-2,8.896279E-3,2.00001E0,1E0,1E0,1E0,1E0,4.4752445E-2,1E0,1.7496755E-2,1E0,1.991123E-4,4.4380384E-3,-2.8640619E-2,-1.0832379E-1,2.2760592E-3,-6.7784633E-3,-1.8519731E-2,-3.840674E-2,2.758643E-2,3.8907047E-2,2.807021E-4],"split_indices":[702,16,81,632,47,371,0,703,511,0,0,702,16,371,233,47,0,229,0,608,0,0,0,0,0,0,0,0,0,0,0],"split_type":[0,0,0,0,0,0,0,0,0,0,0,0,0,0,0,0,0,0,0,0,0,0,0,0,0,0,0,0,0,0,0],"sum_hessian":[1.173E3,9.82E2,1.91E2,9.79E2,3E0,1.9E2,1E0,2.6E1,9.53E2,2E0,1E0,8E0,1.82E2,2.2E1,4E0,9.52E2,1E0,2E0,6E0,1.81E2,1E0,1.4E1,8E0,3E0,1E0,9.14E2,3.8E1,1E0,1E0,1.8E2,1E0],"tree_param":{"num_deleted":"0","num_feature":"705","num_nodes":"31","size_leaf_vector":"1"}},{"base_weights":[-4.5001036E-3,-1.3747923E-1,7.1606886E-1,-3.952452E-1,-1.2934859E-1,7.19922E-1,2.7368666E-4,-7.585045E-1,-2.9986763E-2,-1.19795576E-1,-3.538347E-1,7.2840995E-1,2.7206904E-1,-1.024904E0,-1.0362327E-3,1.3814439E-1,-1.666147E-2,-1.2366014E-1,8.0576664E-1,-1.0161545E-1,-5.883622E-1,7.3406804E-1,7.5890147E-3,-7.786199E-2,2.656552E-2,-2.2519298E-2,-8.1212424E-2,-2.630351E-3,1.5293586E-2,-5.9993817E-3,-3.8843688E-2,5.804145E-2,-6.485503E-3,-7.5728307E-3,1.1565165E-2,-1.5328336E-2,-4.49358E-2,3.7062604E-2,1.1902216E-2,-8.148253E-3,2.308604E-3],"categories":[],"categories_nodes":[],"categories_segments":[],"categories_sizes":[],"default_left":[1,0,0,1,0,0,0,0,0,0,0,0,0,0,0,0,0,0,0,0,0,0,0,0,0,0,0,0,0,0,0,0,0,0,0,0,0,0,0,0,0],"id":30,"left_children":[1,3,5,7,9,11,-1,13,15,17,19,21,23,25,-1,27,-1,29,31,33,35,37,-1,39,-1,-1,-1,-1,-1,-1,-1,-1,-1,-1,-1,-1,-1,-1,-1,-1,-1],"loss_changes":[1.13166794E2,2.038391E0,4.9985504E-1,3.9577599E0,2.0335064E0,4.9747467E-1,0E0,2.9269228E0,8.6178625E-1,3.426156E0,2.2471547E0,4.725876E-1,4.949519E-1,3.056138E0,0E0,3.6802757E-1,0E0,2.1305962E0,1.4791815E0,3.6689353E-1,1.473609E0,4.542923E-1,0E0,3.9191477E-2,0E0,0E0,0E0,0E0,0E0,0E0,0E0,0E0,0E0,0E0,0E0,0E0,0E0,0E0,0E0,0E0,0E0],"parents":[2147483647,0,0,1,1,2,2,3,3,4,4,5,5,7,7,8,8,9,9,10,10,11,11,12,12,13,13,15,15,17,17,18,18,19,19,20,20,21,21,23,23],"right_children":[2,4,6,8,10,12,-1,14,16,18,20,22,24,26,-1,28,-1,30,32,34,36,38,-1,40,-1,-1,-1,-1,-1,-1,-1,-1,-1,-1,-1,-1,-1,-1,-1,-1,-1],"split_conditions":[1E0,1E0,1E0,1E0,1E0,1E0,2.7368666E-4,1E0,1E0,1E0,1E0,1E0,1E0,1E0,-1.0362327E-3,9.3E1,-1.666147E-2,1E0,1E0,1E0,1E0,1E0,7.5890147E-3,1E0,2.656552E-2,-2.2519298E-2,-8.1212424E-2,-2.630351E-3,1.5293586E-2,-5.9993817E-3,-3.8843688E-2,5.804145E-2,-6.485503E-3,-7.5728307E-3,1.1565165E-2,-1.5328336E-2,-4.49358E-2,3.7062604E-2,1.1902216E-2,-8.148253E-3,2.308604E-3],"split_indices":[702,632,608,704,47,347,0,702,371,314,153,127,2,704,0,700,0,359,153,16,29,560,0,29,0,0,0,0,0,0,0,0,0,0,0,0,0,0,0,0,0],"split_type":[0,0,0,0,0,0,0,0,0,0,0,0,0,0,0,0,0,0,0,0,0,0,0,0,0,0,0,0,0,0,0,0,0,0,0,0,0,0,0,0,0],"sum_hessian":[1.179E3,9.96E2,1.83E2,2.9E1,9.67E2,1.82E2,1E0,1.4E1,1.5E1,9.29E2,3.8E1,1.78E2,4E0,1E1,4E0,1E1,5E0,9.26E2,3E0,1.9E1,1.9E1,1.76E2,2E0,2E0,2E0,6E0,4E0,5E0,5E0,9.22E2,4E0,2E0,1E0,1.7E1,2E0,1.1E1,8E0,1.73E2,3E0,1E0,1E0],"tree_param":{"num_deleted":"0","num_feature":"705","num_nodes":"41","size_leaf_vector":"1"}},{"base_weights":[7.0859157E-3,-1.3057403E-1,7.0448E-1,-4.5495564E-1,-1.2241348E-1,7.145105E-1,-3.128683E-2,-1.7329063E-1,-1.2710689E0,-1.2491423E-1,3.6265086E-2,7.258028E-1,3.598286E-1,1.2440772E-1,-5.9817684E-1,-7.7963926E-2,4.2494684E-3,-1.2677981E-1,4.1977502E-2,7.293027E-1,1.7828465E-3,4.566301E-1,-7.9445485E-3,-1.9591541E-3,1.055505E-2,-3.9949045E-2,1.4117944E-4,-6.1717075E-3,-3.728994E-2,3.6601152E-2,5.582863E-3,2.6504142E-2,3.9784313E-4],"categories":[],"categories_nodes":[],"categories_segments":[],"categories_sizes":[],"default_left":[0,0,0,0,0,0,0,0,0,0,0,0,0,0,0,0,0,0,0,0,0,0,0,0,0,0,0,0,0,0,0,0,0],"id":31,"left_children":[1,3,5,7,9,11,-1,13,15,17,-1,19,21,23,25,-1,-1,27,-1,29,-1,31,-1,-1,-1,-1,-1,-1,-1,-1,-1,-1,-1],"loss_changes":[1.1414382E2,2.5729103E0,3.062271E0,5.29663E0,2.1469307E0,5.1984406E-1,0E0,2.4776883E0,2.4774952E0,1.8481455E0,0E0,4.281006E-1,4.742571E-1,1.7845829E-1,9.6772265E-1,0E0,0E0,1.9106293E0,0E0,2.3246002E-1,0E0,2.2647607E-1,0E0,0E0,0E0,0E0,0E0,0E0,0E0,0E0,0E0,0E0,0E0],"parents":[2147483647,0,0,1,1,2,2,3,3,4,4,5,5,7,7,8,8,9,9,11,11,12,12,13,13,14,14,17,17,19,19,21,21],"right_children":[2,4,6,8,10,12,-1,14,16,18,-1,20,22,24,26,-1,-1,28,-1,30,-1,32,-1,-1,-1,-1,-1,-1,-1,-1,-1,-1,-1],"split_conditions":[1E0,1E0,1E0,2.00001E0,1E0,1E0,-3.128683E-2,1E0,1E0,1E0,3.6265086E-2,1E0,1E0,9.3E1,1E0,-7.7963926E-2,4.2494684E-3,1E0,4.1977502E-2,1E0,1.7828465E-3,1E0,-7.9445485E-3,-1.9591541E-3,1.055505E-2,-3.9949045E-2,1.4117944E-4,-6.1717075E-3,-3.728994E-2,3.6601152E-2,5.582863E-3,2.6504142E-2,3.9784313E-4],"split_indices":[702,632,81,704,12,347,0,371,233,449,0,225,66,700,440,0,0,359,0,5,0,47,0,0,0,0,0,0,0,0,0,0,0],"split_type":[0,0,0,0,0,0,0,0,0,0,0,0,0,0,0,0,0,0,0,0,0,0,0,0,0,0,0,0,0,0,0,0,0],"sum_hessian":[1.187E3,9.92E2,1.95E2,2.3E1,9.69E2,1.94E2,1E0,1.8E1,5E0,9.67E2,2E0,1.87E2,7E0,1.1E1,7E0,4E0,1E0,9.66E2,1E0,1.86E2,1E0,6E0,1E0,4E0,7E0,5E0,2E0,9.62E2,4E0,1.85E2,1E0,5E0,1E0],"tree_param":{"num_deleted":"0","num_feature":"705","num_nodes":"33","size_leaf_vector":"1"}},{"base_weights":[1.5199947E-3,-1.2321427E-1,6.375915E-1,-1.13221504E-1,-3.2699335E-1,2.564063E-1,6.5503246E-1,-1.1818059E-1,6.7017466E-1,-9.775328E-2,-5.8432704E-1,6.995612E-2,3.3406902E-2,6.6594404E-1,2.8710848E-1,-1.1476075E-1,-7.244794E-1,7.2601385E-2,-5.9568757E-1,-1.3595456E-1,1.1385381E-2,-2.7625266E-1,-9.6439815E-1,-3.928817E-2,1.5222684E-2,6.699295E-1,-7.877648E-4,3.8659945E-1,-7.7459337E-3,-6.250811E-3,4.382858E-3,-6.723462E-3,-4.191823E-2,-6.1690733E-3,-3.8507495E-2,-4.2911987E-3,-1.3184361E-2,-6.852613E-3,-3.4728494E-2,-5.3981077E-2,-1.0652674E-3,3.3696435E-2,-6.4818264E-4,2.3040807E-2,3.878981E-4],"categories":[],"categories_nodes":[],"categories_segments":[],"categories_sizes":[],"default_left":[0,0,0,0,0,0,0,0,0,0,0,0,0,0,0,0,0,0,0,0,0,0,0,0,0,0,0,0,0,0,0,0,0,0,0,0,0,0,0,0,0,0,0,0,0],"id":32,"left_children":[1,3,5,7,9,11,13,15,17,19,21,23,-1,25,27,29,31,-1,33,35,-1,37,39,-1,-1,41,-1,43,-1,-1,-1,-1,-1,-1,-1,-1,-1,-1,-1,-1,-1,-1,-1,-1,-1],"loss_changes":[9.243022E1,1.9463491E0,1.1018524E0,3.6921864E0,2.597484E0,7.209342E-1,5.3946686E-1,1.834796E0,6.8032646E0,3.4178346E-1,2.1924753E0,1.8445415E0,0E0,4.8872375E-1,3.6773545E-1,1.9228525E0,2.2323298E-1,0E0,1.5217662E-1,1.246455E-1,0E0,6.617967E-1,9.549961E-1,0E0,0E0,4.8666382E-1,0E0,1.6512322E-1,0E0,0E0,0E0,0E0,0E0,0E0,0E0,0E0,0E0,0E0,0E0,0E0,0E0,0E0,0E0,0E0,0E0],"parents":[2147483647,0,0,1,1,2,2,3,3,4,4,5,5,6,6,7,7,8,8,9,9,10,10,11,11,13,13,14,14,15,15,16,16,18,18,19,19,21,21,22,22,25,25,27,27],"right_children":[2,4,6,8,10,12,14,16,18,20,22,24,-1,26,28,30,32,-1,34,36,-1,38,40,-1,-1,42,-1,44,-1,-1,-1,-1,-1,-1,-1,-1,-1,-1,-1,-1,-1,-1,-1,-1,-1],"split_conditions":[1E0,1E0,1E0,1E0,1E0,1E0,1E0,1E0,1E0,1E0,1E0,2.00001E0,3.3406902E-2,1E0,1E0,1E0,1E0,7.2601385E-2,1E0,1E0,1.1385381E-2,1E0,1E0,-3.928817E-2,1.5222684E-2,1E0,-7.877648E-4,1E0,-7.7459337E-3,-6.250811E-3,4.382858E-3,-6.723462E-3,-4.191823E-2,-6.1690733E-3,-3.8507495E-2,-4.2911987E-3,-1.3184361E-2,-6.852613E-3,-3.4728494E-2,-5.3981077E-2,-1.0652674E-3,3.3696435E-2,-6.4818264E-4,2.3040807E-2,3.878981E-4],"split_indices":[702,47,371,314,153,229,347,4,153,16,29,702,0,238,66,13,74,0,181,233,0,181,4,0,0,608,0,16,0,0,0,0,0,0,0,0,0,0,0,0,0,0,0,0,0],"split_type":[0,0,0,0,0,0,0,0,0,0,0,0,0,0,0,0,0,0,0,0,0,0,0,0,0,0,0,0,0,0,0,0,0,0,0,0,0,0,0,0,0,0,0,0,0],"sum_hessian":[1.163E3,9.73E2,1.9E2,9.29E2,4.4E1,9E0,1.81E2,9.24E2,5E0,2.4E1,2E1,7E0,2E0,1.75E2,6E0,9.2E2,4E0,3E0,2E0,2.2E1,2E0,1.2E1,8E0,1E0,6E0,1.74E2,1E0,5E0,1E0,8.76E2,4.4E1,1E0,3E0,1E0,1E0,1.7E1,5E0,1E1,2E0,7E0,1E0,1.73E2,1E0,4E0,1E0],"tree_param":{"num_deleted":"0","num_feature":"705","num_nodes":"45","size_leaf_vector":"1"}},{"base_weights":[1.0854026E-2,-4.1432135E-2,5.8855873E-1,-4.7098212E-2,4.9173895E-2,6.0469735E-1,-1.24064244E-1,-8.719277E-2,4.132096E-2,6.114999E-1,-1.0386356E-3,1.7305238E-2,-2.6610056E-2,-9.258054E-2,3.627407E-2,-3.8220342E-2,2.7032724E-1,6.164462E-1,3.6637664E-3,-4.9438304E-3,2.4714762E-2,2.0105774E-2,-3.9042707E-3,7.491199E-3,2.59447E-2,1.9147072E-2,3.1400766E-2],"categories":[],"categories_nodes":[],"categories_segments":[],"categories_sizes":[],"default_left":[0,0,0,0,0,0,0,0,0,0,0,0,0,0,0,0,0,0,0,0,0,0,0,0,0,0,0],"id":33,"left_children":[1,3,5,7,-1,9,11,13,15,17,-1,-1,-1,19,-1,21,23,25,-1,-1,-1,-1,-1,-1,-1,-1,-1],"loss_changes":[3.566742E1,6.335536E0,1.202095E0,3.8252501E0,0E0,4.2116165E-1,7.598772E-1,3.316018E0,6.148942E0,2.0774078E-1,0E0,0E0,0E0,2.7757907E0,0E0,4.437458E0,2.5281768E0,1.3442993E-2,0E0,0E0,0E0,0E0,0E0,0E0,0E0,0E0,0E0],"parents":[2147483647,0,0,1,1,2,2,3,3,5,5,6,6,7,7,8,8,9,9,13,13,15,15,16,16,17,17],"right_children":[2,4,6,8,-1,10,12,14,16,18,-1,-1,-1,20,-1,22,24,26,-1,-1,-1,-1,-1,-1,-1,-1,-1],"split_conditions":[1E0,1E0,1E0,1E0,4.9173895E-2,1E0,1E0,1E0,1E0,1E0,-1.0386356E-3,1.7305238E-2,-2.6610056E-2,1E0,3.627407E-2,1E0,1E0,1E0,3.6637664E-3,-4.9438304E-3,2.4714762E-2,2.0105774E-2,-3.9042707E-3,7.491199E-3,2.59447E-2,1.9147072E-2,3.1400766E-2],"split_indices":[4,511,166,181,0,47,29,229,249,132,0,0,0,22,0,543,660,704,0,0,0,0,0,0,0,0,0],"split_type":[0,0,0,0,0,0,0,0,0,0,0,0,0,0,0,0,0,0,0,0,0,0,0,0,0,0,0],"sum_hessian":[1.179E3,1.082E3,9.7E1,1.077E3,5E0,9.5E1,2E0,7.41E2,3.36E2,9.4E1,1E0,1E0,1E0,7.37E2,4E0,2.5E2,8.6E1,9.3E1,1E0,7.3E2,7E0,2E1,2.3E2,5.9E1,2.7E1,6E0,8.7E1],"tree_param":{"num_deleted":"0","num_feature":"705","num_nodes":"27","size_leaf_vector":"1"}},{"base_weights":[-1.8514831E-3,-5.100914E-2,5.324464E-1,-9.462093E-2,6.517427E-1,4.2579062E-2,5.7504374E-1,-9.8831795E-2,6.2927556E-1,3.2985244E-2,3.952265E-3,2.4566387E-1,-2.2273926E-2,6.0091275E-1,2.3153879E-1,-1.02589376E-1,4.5369482E-1,5.147434E-2,1.7179823E-1,1.466795E-2,-1.0126698E-3,3.0321557E-2,3.572172E-3,2.0915423E-2,-2.6896218E-2,-5.2923346E-3,1.8800048E-2,2.692751E-2,-1.3859392E-3,4.75806E-4,1.1136011E-2],"categories":[],"categories_nodes":[],"categories_segments":[],"categories_sizes":[],"default_left":[0,0,0,0,0,0,0,0,0,0,0,0,0,0,0,0,0,0,0,0,0,0,0,0,0,0,0,0,0,0,0],"id":34,"left_children":[1,3,5,7,9,11,13,15,17,-1,-1,19,-1,21,23,25,27,-1,29,-1,-1,-1,-1,-1,-1,-1,-1,-1,-1,-1,-1],"loss_changes":[3.086207E1,3.3039204E1,2.0413551E0,3.1530952E0,2.351284E-1,1.0014917E0,6.6950417E-1,2.1413937E0,9.216614E-1,0E0,0E0,9.472218E-2,0E0,2.0210648E-1,1.3747172E0,1.6033955E0,3.0088174E-1,0E0,3.0935489E-2,0E0,0E0,0E0,0E0,0E0,0E0,0E0,0E0,0E0,0E0,0E0,0E0],"parents":[2147483647,0,0,1,1,2,2,3,3,4,4,5,5,6,6,7,7,8,8,11,11,13,13,14,14,15,15,16,16,18,18],"right_children":[2,4,6,8,10,12,14,16,18,-1,-1,20,-1,22,24,26,28,-1,30,-1,-1,-1,-1,-1,-1,-1,-1,-1,-1,-1,-1],"split_conditions":[1E0,1E0,1E0,1E0,1E0,1E0,1E2,1E0,1E0,3.2985244E-2,3.952265E-3,1E0,-2.2273926E-2,1E0,1E0,1E0,1E0,5.147434E-2,1E0,1.466795E-2,-1.0126698E-3,3.0321557E-2,3.572172E-3,2.0915423E-2,-2.6896218E-2,-5.2923346E-3,1.8800048E-2,2.692751E-2,-1.3859392E-3,4.75806E-4,1.1136011E-2],"split_indices":[4,2,704,16,5,703,701,22,47,0,0,29,0,2,74,12,12,0,294,0,0,0,0,0,0,0,0,0,0,0,0],"split_type":[0,0,0,0,0,0,0,0,0,0,0,0,0,0,0,0,0,0,0,0,0,0,0,0,0,0,0,0,0,0,0],"sum_hessian":[1.173E3,1.075E3,9.8E1,1.013E3,6.2E1,8E0,9E1,1.008E3,5E0,6.1E1,1E0,6E0,2E0,8.3E1,7E0,1.002E3,6E0,2E0,3E0,5E0,1E0,8.2E1,1E0,6E0,1E0,9.96E2,6E0,5E0,1E0,1E0,2E0],"tree_param":{"num_deleted":"0","num_feature":"705","num_nodes":"31","size_leaf_vector":"1"}},{"base_weights":[-1.9106576E-3,-1.0695451E-1,5.5980754E-1,-1.1053725E-1,8.27114E-1,3.3454487E-1,5.7311434E-1,-1.1356522E-1,2.6130727E-2,8.073607E-3,4.975853E-2,6.097092E-2,2.8016334E-2,5.794093E-1,1.5442997E-1,-1.1524236E-1,3.9424825E-2,-2.80958E-1,1.9382855E-2,5.828972E-1,-6.8694353E-4,-9.5770754E-2,2.2625804E-2,-5.567122E-3,-2.4666047E-2,-3.023096E-2,1.725064E-2,2.9398447E-2,4.890883E-3,-1.0145825E-2,2.9630184E-3],"categories":[],"categories_nodes":[],"categories_segments":[],"categories_sizes":[],"default_left":[0,0,0,0,0,1,0,0,0,0,0,0,0,0,0,0,0,0,0,0,0,0,0,0,0,0,0,0,0,0,0],"id":35,"left_children":[1,3,5,7,9,11,13,15,-1,-1,-1,17,-1,19,21,23,-1,25,-1,27,-1,29,-1,-1,-1,-1,-1,-1,-1,-1,-1],"loss_changes":[7.116095E1,3.4915E0,3.7779236E-1,2.001439E0,2.867694E-1,7.688209E-1,3.7966537E-1,1.6173677E0,0E0,0E0,0E0,8.908395E-1,0E0,3.7005234E-1,3.4166327E-1,1.4313478E0,0E0,1.019011E0,0E0,3.705597E-1,0E0,6.1857685E-2,0E0,0E0,0E0,0E0,0E0,0E0,0E0,0E0,0E0],"parents":[2147483647,0,0,1,1,2,2,3,3,4,4,5,5,6,6,7,7,11,11,13,13,14,14,15,15,17,17,19,19,21,21],"right_children":[2,4,6,8,10,12,14,16,-1,-1,-1,18,-1,20,22,24,-1,26,-1,28,-1,30,-1,-1,-1,-1,-1,-1,-1,-1,-1],"split_conditions":[1E0,1E0,1E0,1E0,1E0,1E0,1E0,1E0,2.6130727E-2,8.073607E-3,4.975853E-2,2.00001E0,2.8016334E-2,1E0,1E0,1E0,3.9424825E-2,1E0,1.9382855E-2,1E0,-6.8694353E-4,1E0,2.2625804E-2,-5.567122E-3,-2.4666047E-2,-3.023096E-2,1.725064E-2,2.9398447E-2,4.890883E-3,-1.0145825E-2,2.9630184E-3],"split_indices":[702,16,263,192,74,703,560,511,0,0,0,702,0,608,2,294,0,229,0,127,0,12,0,0,0,0,0,0,0,0,0],"split_type":[0,0,0,0,0,0,0,0,0,0,0,0,0,0,0,0,0,0,0,0,0,0,0,0,0,0,0,0,0,0,0],"sum_hessian":[1.204E3,1.015E3,1.89E2,1.012E3,3E0,1.2E1,1.77E2,1.008E3,4E0,1E0,2E0,6E0,6E0,1.74E2,3E0,1.007E3,1E0,3E0,3E0,1.73E2,1E0,2E0,1E0,9.98E2,9E0,2E0,1E0,1.71E2,2E0,1E0,1E0],"tree_param":{"num_deleted":"0","num_feature":"705","num_nodes":"31","size_leaf_vector":"1"}},{"base_weights":[2.1853927E-3,-1.01776235E-1,5.3401965E-1,-1.05394594E-1,8.0021644E-1,2.3100288E-1,5.4781055E-1,-1.0143966E-1,-7.2325426E-1,4.8099916E-2,7.871768E-3,6.1648577E-2,3.028067E-2,3.416264E-1,5.671002E-1,-9.26873E-2,-3.534558E-1,-6.689428E-2,-6.786581E-2,-3.7294287E-2,1.4178286E-2,2.7831731E-2,-1.8116237E-1,5.707437E-1,-6.6977146E-4,-4.7691483E-3,6.0491867E-2,-2.6280468E-2,-3.070766E-3,-5.032413E-3,8.5919205E-4,1.860707E-3,-3.1826124E-2,2.8716687E-2,-2.7105212E-4],"categories":[],"categories_nodes":[],"categories_segments":[],"categories_sizes":[],"default_left":[0,0,0,0,0,0,0,0,0,0,0,0,0,0,0,0,0,0,0,0,0,0,0,0,0,0,0,0,0,0,0,0,0,0,0],"id":36,"left_children":[1,3,5,7,9,11,13,15,17,-1,-1,19,-1,21,23,25,27,29,-1,-1,-1,-1,31,33,-1,-1,-1,-1,-1,-1,-1,-1,-1,-1,-1],"loss_changes":[6.4246445E1,3.256691E0,6.674423E-1,2.2944736E0,2.6450896E-1,5.970838E-1,5.261383E-1,2.0935698E0,2.406241E0,0E0,0E0,1.6451533E0,0E0,2.1241112E0,3.5451126E-1,3.3913221E0,1.5765455E0,1.3081411E-2,0E0,0E0,0E0,0E0,6.203273E-1,3.40271E-1,0E0,0E0,0E0,0E0,0E0,0E0,0E0,0E0,0E0,0E0,0E0],"parents":[2147483647,0,0,1,1,2,2,3,3,4,4,5,5,6,6,7,7,8,8,11,11,13,13,14,14,15,15,16,16,17,17,22,22,23,23],"right_children":[2,4,6,8,10,12,14,16,18,-1,-1,20,-1,22,24,26,28,30,-1,-1,-1,-1,32,34,-1,-1,-1,-1,-1,-1,-1,-1,-1,-1,-1],"split_conditions":[1E0,1E0,1E0,1E0,1E0,1E0,1E0,1E0,1E0,4.8099916E-2,7.871768E-3,2.00001E0,3.028067E-2,1E0,1E0,1E0,2.00001E0,1E0,-6.786581E-2,-3.7294287E-2,1.4178286E-2,2.7831731E-2,1E0,1E0,-6.6977146E-4,-4.7691483E-3,6.0491867E-2,-2.6280468E-2,-3.070766E-3,-5.032413E-3,8.5919205E-4,1.860707E-3,-3.1826124E-2,2.8716687E-2,-2.7105212E-4],"split_indices":[702,16,371,184,47,229,703,47,249,0,0,702,0,604,608,286,704,32,0,0,0,0,81,16,0,0,0,0,0,0,0,0,0,0,0],"split_type":[0,0,0,0,0,0,0,0,0,0,0,0,0,0,0,0,0,0,0,0,0,0,0,0,0,0,0,0,0,0,0,0,0,0,0],"sum_hessian":[1.16E3,9.71E2,1.89E2,9.68E2,3E0,9E0,1.8E2,9.63E2,5E0,2E0,1E0,7E0,2E0,1.7E1,1.63E2,9.32E2,3.1E1,3E0,2E0,1E0,6E0,1.2E1,5E0,1.62E2,1E0,9.31E2,1E0,1.9E1,1.2E1,2E0,1E0,4E0,1E0,1.61E2,1E0],"tree_param":{"num_deleted":"0","num_feature":"705","num_nodes":"35","size_leaf_vector":"1"}},{"base_weights":[-2.5111951E-3,-4.2043924E-2,4.5026904E-1,-7.928306E-2,5.650893E-1,4.6575257E-1,-2.5129547E-2,-8.680818E-2,2.3850778E-1,2.861298E-2,3.013265E-3,4.8738608E-1,1.7226905E-1,-9.0245076E-2,6.172446E-1,4.1817176E-1,-3.701795E-1,4.9314228E-1,-1.9116323E-4,-1.7222373E-1,1.5790196E-2,-4.658095E-3,3.2930233E-2,4.649658E-2,4.9404665E-3,2.5632469E-2,-3.214071E-3,-2.9506652E-2,-5.633475E-3,2.4885017E-2,2.6426732E-3,-2.5965406E-2,1.3048626E-2],"categories":[],"categories_nodes":[],"categories_segments":[],"categories_sizes":[],"default_left":[0,0,0,0,0,0,0,0,0,0,0,0,0,0,0,0,0,0,0,0,0,0,0,0,0,0,0,0,0,0,0,0,0],"id":37,"left_children":[1,3,5,7,9,11,-1,13,15,-1,-1,17,19,21,23,25,27,29,-1,31,-1,-1,-1,-1,-1,-1,-1,-1,-1,-1,-1,-1,-1],"loss_changes":[2.1176304E1,2.4643518E1,1.6356792E0,2.4742966E0,1.9355583E-1,5.128517E-1,0E0,2.482716E0,2.7794194E0,0E0,0E0,2.4787712E-1,4.499628E-1,2.243432E0,7.186543E-1,8.98993E-1,2.7335137E-1,1.462841E-1,0E0,5.86592E-1,0E0,0E0,0E0,0E0,0E0,0E0,0E0,0E0,0E0,0E0,0E0,0E0,0E0],"parents":[2147483647,0,0,1,1,2,2,3,3,4,4,5,5,7,7,8,8,11,11,12,12,13,13,14,14,15,15,16,16,17,17,19,19],"right_children":[2,4,6,8,10,12,-1,14,16,-1,-1,18,20,22,24,26,28,30,-1,32,-1,-1,-1,-1,-1,-1,-1,-1,-1,-1,-1,-1,-1],"split_conditions":[1E0,1E0,1E0,1E0,1E0,1E0,-2.5129547E-2,1E0,1E0,2.861298E-2,3.013265E-3,1E0,1E0,1E0,1E0,1E0,1E0,1E0,-1.9116323E-4,1E0,1.5790196E-2,-4.658095E-3,3.2930233E-2,4.649658E-2,4.9404665E-3,2.5632469E-2,-3.214071E-3,-2.9506652E-2,-5.633475E-3,2.4885017E-2,2.6426732E-3,-2.5965406E-2,1.3048626E-2],"split_indices":[4,2,166,404,5,32,0,16,347,0,0,47,91,229,47,241,263,2,0,13,0,0,0,0,0,0,0,0,0,0,0,0,0],"split_type":[0,0,0,0,0,0,0,0,0,0,0,0,0,0,0,0,0,0,0,0,0,0,0,0,0,0,0,0,0,0,0,0,0],"sum_hessian":[1.181E3,1.087E3,9.4E1,1.025E3,6.2E1,9.3E1,1E0,1.002E3,2.3E1,6.1E1,1E0,8.6E1,7E0,9.98E2,4E0,1.8E1,5E0,8.5E1,1E0,2E0,5E0,9.95E2,3E0,2E0,2E0,1.5E1,3E0,2E0,3E0,8.4E1,1E0,1E0,1E0],"tree_param":{"num_deleted":"0","num_feature":"705","num_nodes":"33","size_leaf_vector":"1"}},{"base_weights":[8.819099E-3,-2.402785E-2,5.100688E-1,-6.742107E-2,4.460905E-1,5.310564E-1,-2.450131E-2,-7.0980996E-2,6.601837E-1,4.683768E-1,4.4876203E-2,5.432525E-1,3.676359E-3,-7.441511E-2,3.1467564E-2,4.4946697E-2,1.0068616E-2,1.430125E-1,2.4736455E-2,1.2819081E-2,-2.5316272E-2,2.6059506E-2,4.2744797E-2,-3.8201807E-3,4.7752596E-2,-8.984238E-3,1.0739068E-2],"categories":[],"categories_nodes":[],"categories_segments":[],"categories_sizes":[],"default_left":[0,0,0,0,0,0,0,0,0,0,0,0,0,0,0,0,0,0,0,0,0,0,0,0,0,0,0],"id":38,"left_children":[1,3,5,7,9,11,-1,13,15,17,19,21,-1,23,-1,-1,-1,25,-1,-1,-1,-1,-1,-1,-1,-1,-1],"loss_changes":[1.927575E1,2.244962E1,1.7714825E0,2.6552095E0,8.105469E-1,3.5624313E-1,0E0,2.4590693E0,3.666861E-1,6.837673E-1,8.2930535E-1,2.8852463E-2,0E0,2.1180134E0,0E0,0E0,0E0,2.2386985E-1,0E0,0E0,0E0,0E0,0E0,0E0,0E0,0E0,0E0],"parents":[2147483647,0,0,1,1,2,2,3,3,4,4,5,5,7,7,8,8,9,9,10,10,11,11,13,13,17,17],"right_children":[2,4,6,8,10,12,-1,14,16,18,20,22,-1,24,-1,-1,-1,26,-1,-1,-1,-1,-1,-1,-1,-1,-1],"split_conditions":[1E0,1E0,1E0,1E0,1E2,1E0,-2.450131E-2,1E0,1E0,1E0,1E0,1E0,3.676359E-3,1E0,3.1467564E-2,4.4946697E-2,1.0068616E-2,1E0,2.4736455E-2,1.2819081E-2,-2.5316272E-2,2.6059506E-2,4.2744797E-2,-3.8201807E-3,4.7752596E-2,-8.984238E-3,1.0739068E-2],"split_indices":[2,4,350,16,701,127,0,229,47,704,74,483,0,463,0,0,0,543,0,0,0,0,0,0,0,0,0],"split_type":[0,0,0,0,0,0,0,0,0,0,0,0,0,0,0,0,0,0,0,0,0,0,0,0,0,0,0],"sum_hessian":[1.169E3,1.098E3,7.1E1,1.006E3,9.2E1,7E1,1E0,1.002E3,4E0,8.7E1,5E0,6.8E1,2E0,9.98E2,4E0,2E0,2E0,7E0,8E1,4E0,1E0,6.6E1,2E0,9.97E2,1E0,1E0,6E0],"tree_param":{"num_deleted":"0","num_feature":"705","num_nodes":"27","size_leaf_vector":"1"}},{"base_weights":[-2.2735773E-3,-9.207489E-2,4.8596963E-1,-9.467778E-2,5.9191525E-2,4.5371115E-2,4.934341E-1,-9.708884E-2,3.473785E-2,-3.6149975E-2,2.7124723E-2,4.9949706E-1,1.1543119E-1,-3.497155E-1,-9.039305E-2,5.0423056E-1,3.553812E-3,2.9255018E-1,-1.0398144E-2,-2.1365064E-3,-4.2830504E-2,-4.6089455E-3,3.8770385E-2,2.5372079E-2,-6.3950423E-4,2.3829758E-3,1.9558286E-2],"categories":[],"categories_nodes":[],"categories_segments":[],"categories_sizes":[],"default_left":[1,0,0,0,0,0,0,0,0,0,0,0,0,0,0,0,0,0,0,0,0,0,0,0,0,0,0],"id":39,"left_children":[1,3,5,7,-1,9,11,13,-1,-1,-1,15,17,19,21,23,-1,25,-1,-1,-1,-1,-1,-1,-1,-1,-1],"loss_changes":[4.910717E1,3.2537937E0,5.4986954E-1,1.8661404E0,0E0,1.920123E0,3.3424377E-1,1.5635061E0,0E0,0E0,0E0,3.0485535E-1,2.8995648E-1,3.698018E0,1.4939823E0,2.820778E-1,0E0,5.380732E-2,0E0,0E0,0E0,0E0,0E0,0E0,0E0,0E0,0E0],"parents":[2147483647,0,0,1,1,2,2,3,3,5,5,6,6,7,7,11,11,12,12,13,13,14,14,15,15,17,17],"right_children":[2,4,6,8,-1,10,12,14,-1,-1,-1,16,18,20,22,24,-1,26,-1,-1,-1,-1,-1,-1,-1,-1,-1],"split_conditions":[1E0,1E0,1E0,1E0,5.9191525E-2,1E0,1E0,1E0,3.473785E-2,-3.6149975E-2,2.7124723E-2,1E0,1E0,2.00001E0,1E0,1E0,3.553812E-3,1E0,-1.0398144E-2,-2.1365064E-3,-4.2830504E-2,-4.6089455E-3,3.8770385E-2,2.5372079E-2,-6.3950423E-4,2.3829758E-3,1.9558286E-2],"split_indices":[702,286,371,125,0,229,560,375,0,0,0,127,637,703,511,16,0,2,0,0,0,0,0,0,0,0,0],"split_type":[0,0,0,0,0,0,0,0,0,0,0,0,0,0,0,0,0,0,0,0,0,0,0,0,0,0,0],"sum_hessian":[1.118E3,9.45E2,1.73E2,9.44E2,1E0,3E0,1.7E2,9.42E2,2E0,1E0,2E0,1.67E2,3E0,2.3E1,9.19E2,1.65E2,2E0,2E0,1E0,1.5E1,8E0,9.18E2,1E0,1.64E2,1E0,1E0,1E0],"tree_param":{"num_deleted":"0","num_feature":"705","num_nodes":"27","size_leaf_vector":"1"}},{"base_weights":[4.7476543E-3,-2.8306857E-2,4.0097705E-1,-3.2295976E-2,8.25441E-1,4.223105E-1,9.074101E-2,-6.3316755E-2,3.771813E-2,5.305899E-2,1.5727758E-2,2.1381315E-2,-3.396372E-4,1.3482605E-2,-2.4568139E-2,-6.763791E-2,2.9141396E-2,-6.657004E-3,3.4742412E-1,-3.5119925E-3,4.592448E-2,-8.300538E-4,4.701244E-2,7.626807E-3,4.3253493E-2],"categories":[],"categories_nodes":[],"categories_segments":[],"categories_sizes":[],"default_left":[0,0,0,0,0,0,0,0,1,0,0,0,0,0,0,0,0,0,0,0,0,0,0,0,0],"id":40,"left_children":[1,3,5,7,9,11,13,15,17,-1,-1,-1,-1,-1,-1,19,-1,21,23,-1,-1,-1,-1,-1,-1],"loss_changes":[1.5138581E1,3.6605415E0,5.5071545E-1,2.31111E0,2.6837826E-1,1.9223118E-1,8.615108E-1,2.0971923E0,4.4963536E0,0E0,0E0,0E0,0E0,0E0,0E0,1.9452755E0,0E0,2.7180295E0,4.0042467E0,0E0,0E0,0E0,0E0,0E0,0E0],"parents":[2147483647,0,0,1,1,2,2,3,3,4,4,5,5,6,6,7,7,8,8,15,15,17,17,18,18],"right_children":[2,4,6,8,10,12,14,16,18,-1,-1,-1,-1,-1,-1,20,-1,22,24,-1,-1,-1,-1,-1,-1],"split_conditions":[1E0,1E0,1E0,1E0,1E0,1E0,1E0,1E0,1E0,5.305899E-2,1.5727758E-2,2.1381315E-2,-3.396372E-4,1.3482605E-2,-2.4568139E-2,1E0,2.9141396E-2,1E0,1E0,-3.5119925E-3,4.592448E-2,-8.300538E-4,4.701244E-2,7.626807E-3,4.3253493E-2],"split_indices":[4,511,32,181,73,56,618,229,703,0,0,0,0,0,0,463,0,340,331,0,0,0,0,0,0],"split_type":[0,0,0,0,0,0,0,0,0,0,0,0,0,0,0,0,0,0,0,0,0,0,0,0,0],"sum_hessian":[1.154E3,1.066E3,8.8E1,1.062E3,4E0,8.2E1,6E0,7.36E2,3.26E2,2E0,2E0,8.1E1,1E0,5E0,1E0,7.32E2,4E0,2.86E2,4E1,7.31E2,1E0,2.84E2,2E0,3E1,1E1],"tree_param":{"num_deleted":"0","num_feature":"705","num_nodes":"25","size_leaf_vector":"1"}},{"base_weights":[6.074296E-3,-2.3080371E-2,4.7717586E-1,-5.965043E-2,3.9773756E-1,4.89492E-1,2.358103E-3,-6.817952E-2,2.9430446E-1,1.5769123E-1,2.0988554E-2,2.3420565E-2,3.8802493E-2,1.2460514E-1,-7.9446875E-2,7.2586976E-2,5.0997305E-1,-9.928465E-3,2.2704495E-1,3.038818E-3,6.053559E-2,-4.0974286E-3,3.6253143E-2,-5.9440057E-3,2.0135518E-2,3.564502E-2,9.4114505E-3,4.469034E-3,2.1334594E-2],"categories":[],"categories_nodes":[],"categories_segments":[],"categories_sizes":[],"default_left":[0,0,0,0,0,0,0,0,1,0,0,0,0,0,0,0,0,0,0,0,0,0,0,0,0,0,0,0,0],"id":41,"left_children":[1,3,5,7,9,11,-1,13,15,17,-1,-1,-1,19,21,23,25,-1,27,-1,-1,-1,-1,-1,-1,-1,-1,-1,-1],"loss_changes":[1.60258E1,1.6936605E1,3.3705044E-1,3.0752041E0,3.9924335E-1,3.518486E-2,0E0,2.1581788E0,1.1106021E0,2.674561E-1,0E0,0E0,0E0,3.7392855E0,1.9412351E0,8.6957514E-1,6.492994E-1,0E0,1.8173602E-1,0E0,0E0,0E0,0E0,0E0,0E0,0E0,0E0,0E0,0E0],"parents":[2147483647,0,0,1,1,2,2,3,3,4,4,5,5,7,7,8,8,9,9,13,13,14,14,15,15,16,16,18,18],"right_children":[2,4,6,8,10,12,-1,14,16,18,-1,-1,-1,20,22,24,26,-1,28,-1,-1,-1,-1,-1,-1,-1,-1,-1,-1],"split_conditions":[1E0,1E0,1E0,1E0,1E0,1E0,2.358103E-3,1E0,1E0,1E0,2.0988554E-2,2.3420565E-2,3.8802493E-2,1E0,1E0,1E0,1E0,-9.928465E-3,1E0,3.038818E-3,6.053559E-2,-4.0974286E-3,3.6253143E-2,-5.9440057E-3,2.0135518E-2,3.564502E-2,9.4114505E-3,4.469034E-3,2.1334594E-2],"split_indices":[2,4,127,404,704,340,0,271,704,543,0,0,0,13,608,22,29,0,703,0,0,0,0,0,0,0,0,0,0],"split_type":[0,0,0,0,0,0,0,0,0,0,0,0,0,0,0,0,0,0,0,0,0,0,0,0,0,0,0,0,0],"sum_hessian":[1.165E3,1.098E3,6.7E1,1.011E3,8.7E1,6.5E1,2E0,9.88E2,2.3E1,8E0,7.9E1,6.3E1,2E0,5.4E1,9.34E2,1.2E1,1.1E1,1E0,7E0,5.2E1,2E0,9.32E2,2E0,8E0,4E0,6E0,5E0,5E0,2E0],"tree_param":{"num_deleted":"0","num_feature":"705","num_nodes":"29","size_leaf_vector":"1"}},{"base_weights":[-7.119842E-3,-7.923618E-2,4.0677002E-1,-8.1911065E-2,4.22969E-2,3.9301208E-1,3.6553837E-2,-7.942972E-2,-4.4334132E-2,-3.523439E-2,4.0361434E-1,-7.029237E-2,-2.7300104E-1,4.1340202E-1,-3.1262577E-2,-3.8477574E-3,2.1100527E-2,-9.217541E-3,-3.6395475E-2,2.1022534E-2,4.9058367E-3],"categories":[],"categories_nodes":[],"categories_segments":[],"categories_sizes":[],"default_left":[1,0,0,0,0,0,0,0,0,0,0,0,0,0,0,0,0,0,0,0,0],"id":42,"left_children":[1,3,5,7,-1,9,-1,11,-1,-1,13,15,17,19,-1,-1,-1,-1,-1,-1,-1],"loss_changes":[3.5402374E1,2.5687757E0,4.979515E-1,1.9424562E0,0E0,2.2745419E0,0E0,1.7601533E0,0E0,0E0,1.9704151E0,3.1879396E0,1.680558E0,3.3432007E-1,0E0,0E0,0E0,0E0,0E0,0E0,0E0],"parents":[2147483647,0,0,1,1,2,2,3,3,5,5,7,7,10,10,11,11,12,12,13,13],"right_children":[2,4,6,8,-1,10,-1,12,-1,-1,14,16,18,20,-1,-1,-1,-1,-1,-1,-1],"split_conditions":[1E0,1E0,1E0,1E0,4.22969E-2,1E0,3.6553837E-2,1E0,-4.4334132E-2,-3.523439E-2,1E0,1E0,1E0,1E0,-3.1262577E-2,-3.8477574E-3,2.1100527E-2,-9.217541E-3,-3.6395475E-2,2.1022534E-2,4.9058367E-3],"split_indices":[702,16,693,417,0,371,0,47,0,0,81,391,32,125,0,0,0,0,0,0,0],"split_type":[0,0,0,0,0,0,0,0,0,0,0,0,0,0,0,0,0,0,0,0,0],"sum_hessian":[1.184E3,1.009E3,1.75E2,1.007E3,2E0,1.7E2,5E0,1.005E3,2E0,1E0,1.69E2,9.61E2,4.4E1,1.68E2,1E0,9.49E2,1.2E1,3.8E1,6E0,1.64E2,4E0],"tree_param":{"num_deleted":"0","num_feature":"705","num_nodes":"21","size_leaf_vector":"1"}},{"base_weights":[-6.993496E-3,-8.7722294E-2,4.1453263E-1,-9.099598E-2,5.767024E-1,4.0301356E-1,3.503076E-2,-8.786792E-2,-5.8831006E-1,4.088701E-2,7.1715275E-3,-3.4353532E-2,4.12672E-1,-8.041771E-2,-2.934515E-1,-7.042726E-1,-2.1243359E-4,4.2158955E-1,-3.048101E-2,-4.330784E-3,1.7007409E-2,-8.475281E-3,-4.218073E-2,-8.970466E-3,-3.953181E-2,3.2646816E-2,2.0293543E-2],"categories":[],"categories_nodes":[],"categories_segments":[],"categories_sizes":[],"default_left":[1,0,0,0,0,0,0,0,0,0,0,0,0,0,0,0,0,0,0,0,0,0,0,0,0,0,0],"id":43,"left_children":[1,3,5,7,9,11,-1,13,15,-1,-1,-1,17,19,21,23,-1,25,-1,-1,-1,-1,-1,-1,-1,-1,-1],"loss_changes":[4.0224964E1,2.2101946E0,3.4376907E-1,1.4852667E0,4.048853E-1,2.2313137E0,0E0,1.4820065E0,4.0338326E-1,0E0,0E0,0E0,1.9344177E0,2.5057864E0,2.1754775E0,8.479762E-2,0E0,4.0046692E-1,0E0,0E0,0E0,0E0,0E0,0E0,0E0,0E0,0E0],"parents":[2147483647,0,0,1,1,2,2,3,3,4,4,5,5,7,7,8,8,12,12,13,13,14,14,15,15,17,17],"right_children":[2,4,6,8,10,12,-1,14,16,-1,-1,-1,18,20,22,24,-1,26,-1,-1,-1,-1,-1,-1,-1,-1,-1],"split_conditions":[1E0,1E0,1E0,1E0,1E0,1E0,3.503076E-2,1E0,1E0,4.088701E-2,7.1715275E-3,-3.4353532E-2,1E0,1E0,1E0,1E0,-2.1243359E-4,1E0,-3.048101E-2,-4.330784E-3,1.7007409E-2,-8.475281E-3,-4.218073E-2,-8.970466E-3,-3.953181E-2,3.2646816E-2,2.0293543E-2],"split_indices":[702,16,693,4,47,371,0,47,47,0,0,0,81,637,32,74,0,300,0,0,0,0,0,0,0,0,0],"split_type":[0,0,0,0,0,0,0,0,0,0,0,0,0,0,0,0,0,0,0,0,0,0,0,0,0,0,0],"sum_hessian":[1.18E3,9.91E2,1.89E2,9.87E2,4E0,1.84E2,5E0,9.82E2,5E0,2E0,2E0,1E0,1.83E2,9.49E2,3.3E1,4E0,1E0,1.82E2,1E0,9.36E2,1.3E1,2.8E1,5E0,1E0,3E0,9E0,1.73E2],"tree_param":{"num_deleted":"0","num_feature":"705","num_nodes":"27","size_leaf_vector":"1"}},{"base_weights":[7.798117E-3,-6.359837E-2,3.7581107E-1,-6.59577E-2,5.5210855E-2,3.8422272E-1,-2.9718986E-2,-6.913938E-2,5.5747896E-1,5.5249524E-1,3.6513534E-1,-7.1410544E-2,3.392054E-2,3.9524104E-2,6.932477E-3,2.9998899E-1,3.4962535E-2,3.7311265E-1,1.2607612E-1,-3.4105994E-3,-2.8350685E-2,-1.0829989E-2,2.5414262E-2,1.8820342E-2,-4.095942E-3,-7.4092153E-4,1.5943749E-2],"categories":[],"categories_nodes":[],"categories_segments":[],"categories_sizes":[],"default_left":[0,0,0,0,0,0,0,0,0,0,0,0,0,0,0,0,0,0,0,0,0,0,0,0,0,0,0],"id":44,"left_children":[1,3,5,7,-1,9,-1,11,13,15,17,19,-1,-1,-1,21,-1,23,25,-1,-1,-1,-1,-1,-1,-1,-1],"loss_changes":[3.0239958E1,2.7289011E0,1.754467E0,1.9487243E0,0E0,3.9567375E-1,0E0,1.67665E0,3.7834287E-1,4.2019606E-1,2.7715874E-1,1.478375E0,0E0,0E0,0E0,9.7092235E-1,0E0,2.7666473E-1,1.9487539E-1,0E0,0E0,0E0,0E0,0E0,0E0,0E0,0E0],"parents":[2147483647,0,0,1,1,2,2,3,3,5,5,7,7,8,8,9,9,10,10,11,11,15,15,17,17,18,18],"right_children":[2,4,6,8,-1,10,-1,12,14,16,18,20,-1,-1,-1,22,-1,24,26,-1,-1,-1,-1,-1,-1,-1,-1],"split_conditions":[1E0,1E0,1E0,1E0,5.5210855E-2,1E0,-2.9718986E-2,1E0,1E0,1E0,1E0,1E0,3.392054E-2,3.9524104E-2,6.932477E-3,2.00001E0,3.4962535E-2,1E0,1E0,-3.4105994E-3,-2.8350685E-2,-1.0829989E-2,2.5414262E-2,1.8820342E-2,-4.095942E-3,-7.4092153E-4,1.5943749E-2],"split_indices":[702,608,81,16,0,300,0,12,47,371,347,4,0,0,0,702,0,608,2,0,0,0,0,0,0,0,0],"split_type":[0,0,0,0,0,0,0,0,0,0,0,0,0,0,0,0,0,0,0,0,0,0,0,0,0,0,0],"sum_hessian":[1.149E3,9.63E2,1.86E2,9.62E2,1E0,1.85E2,1E0,9.58E2,4E0,1.6E1,1.69E2,9.56E2,2E0,2E0,2E0,7E0,9E0,1.63E2,6E0,9.51E2,5E0,2E0,5E0,1.62E2,1E0,4E0,2E0],"tree_param":{"num_deleted":"0","num_feature":"705","num_nodes":"27","size_leaf_vector":"1"}},{"base_weights":[-4.414019E-3,-7.442726E-2,3.610263E-1,-4.593875E-1,-6.299068E-2,3.6548984E-1,-1.1729831E-2,-1.0917499E-1,-6.60636E-2,-5.9785992E-2,-6.5607893E-1,3.531786E-1,3.379819E-2,1.4543904E-1,-4.6482027E-1,-6.9417186E-2,1.3438056E-1,-8.037438E-3,-3.6986213E-2,-3.3223942E-2,3.625238E-1,-3.8087857E-4,1.3885932E-2,-3.6201384E-2,2.0097955E-3,-3.622718E-3,2.4466706E-2,4.878523E-2,2.411222E-4,1.7752765E-2,4.2484593E-2],"categories":[],"categories_nodes":[],"categories_segments":[],"categories_sizes":[],"default_left":[1,0,0,0,0,0,0,0,0,0,0,0,0,0,0,0,0,0,0,0,0,0,0,0,0,0,0,0,0,0,0],"id":45,"left_children":[1,3,5,7,9,11,-1,13,-1,15,17,19,-1,21,23,25,27,-1,-1,-1,29,-1,-1,-1,-1,-1,-1,-1,-1,-1,-1],"loss_changes":[2.9757408E1,4.2680283E0,5.828972E-1,8.307346E0,1.7645056E0,4.7221565E-1,0E0,1.9692006E0,0E0,1.7765312E0,8.825064E-2,1.9622383E0,0E0,2.6531705E-1,1.2072384E0,1.5644708E0,4.9003105E0,0E0,0E0,0E0,3.532257E-1,0E0,0E0,0E0,0E0,0E0,0E0,0E0,0E0,0E0,0E0],"parents":[2147483647,0,0,1,1,2,2,3,3,4,4,5,5,7,7,9,9,10,10,11,11,13,13,14,14,15,15,16,16,20,20],"right_children":[2,4,6,8,10,12,-1,14,-1,16,18,20,-1,22,24,26,28,-1,-1,-1,30,-1,-1,-1,-1,-1,-1,-1,-1,-1,-1],"split_conditions":[1E0,1E0,1E0,2.00001E0,1E0,1E0,-1.1729831E-2,1E0,-6.60636E-2,1E0,1E0,1E0,3.379819E-2,1E0,1E0,1E0,1E0,-8.037438E-3,-3.6986213E-2,-3.3223942E-2,1E0,-3.8087857E-4,1.3885932E-2,-3.6201384E-2,2.0097955E-3,-3.622718E-3,2.4466706E-2,4.878523E-2,2.411222E-4,1.7752765E-2,4.2484593E-2],"split_indices":[702,632,560,703,4,693,0,371,0,329,74,371,0,0,440,192,704,0,0,0,463,0,0,0,0,0,0,0,0,0,0],"split_type":[0,0,0,0,0,0,0,0,0,0,0,0,0,0,0,0,0,0,0,0,0,0,0,0,0,0,0,0,0,0,0],"sum_hessian":[1.161E3,9.75E2,1.86E2,2.7E1,9.48E2,1.85E2,1E0,2E1,7E0,9.44E2,4E0,1.8E2,5E0,1.2E1,8E0,9E2,4.4E1,1E0,3E0,1E0,1.79E2,6E0,6E0,5E0,3E0,8.96E2,4E0,5E0,3.9E1,1.78E2,1E0],"tree_param":{"num_deleted":"0","num_feature":"705","num_nodes":"31","size_leaf_vector":"1"}},{"base_weights":[7.807435E-3,-5.884635E-2,3.472523E-1,-3.8132513E-1,-5.10671E-2,5.038209E-1,3.2726023E-1,-2.1879248E-1,-5.493286E-2,-5.409509E-2,5.3870344E-1,5.9532136E-1,3.258402E-1,1.1788487E-2,3.3272588E-1,-8.80141E-3,-6.0751855E-1,-5.8757275E-2,2.4260728E-1,3.81986E-2,6.6933553E-3,3.5283174E-2,1.8368436E-2,-8.009893E-2,2.7107982E-2,-1.1229714E-1,9.601134E-3,3.3695963E-1,-1.668485E-2,3.7970507E-4,-6.981643E-4,-4.3557994E-2,1.7194918E-3,1.4100074E-2,-3.135591E-3,-6.2266965E-3,6.416895E-2,-3.2393344E-2,1.6255634E-2,-8.277423E-3,-1.4486314E-4,1.6984705E-2,-3.060609E-3,1.4279187E-3,-2.6792826E-3],"categories":[],"categories_nodes":[],"categories_segments":[],"categories_sizes":[],"default_left":[0,0,0,0,0,0,0,0,0,0,0,0,0,0,0,0,0,0,0,0,0,0,0,0,0,0,0,0,0,0,0,0,0,0,0,0,0,0,0,0,0,0,0,0,0],"id":46,"left_children":[1,3,5,7,9,11,13,15,-1,17,19,21,23,25,27,29,31,33,35,-1,-1,-1,-1,37,-1,39,-1,41,43,-1,-1,-1,-1,-1,-1,-1,-1,-1,-1,-1,-1,-1,-1,-1,-1],"loss_changes":[2.6605146E1,2.4465227E0,4.392376E-1,2.4411898E0,1.7453132E0,1.3172626E-1,2.960968E-1,1.627233E0,0E0,1.3380554E0,3.5371375E-1,4.2594433E-2,8.337389E-1,1.1102149E-1,2.5858688E-1,1.2908811E-3,1.2145941E0,1.2884197E0,5.8914776E0,0E0,0E0,0E0,0E0,1.1308942E0,0E0,1.699742E-2,0E0,2.0479774E-1,6.5388517E-3,0E0,0E0,0E0,0E0,0E0,0E0,0E0,0E0,0E0,0E0,0E0,0E0,0E0,0E0,0E0,0E0],"parents":[2147483647,0,0,1,1,2,2,3,3,4,4,5,5,6,6,7,7,9,9,10,10,11,11,12,12,13,13,14,14,15,15,16,16,17,17,18,18,23,23,25,25,27,27,28,28],"right_children":[2,4,6,8,10,12,14,16,-1,18,20,22,24,26,28,30,32,34,36,-1,-1,-1,-1,38,-1,40,-1,42,44,-1,-1,-1,-1,-1,-1,-1,-1,-1,-1,-1,-1,-1,-1,-1,-1],"split_conditions":[1E0,1E0,1E0,2.00001E0,1E0,2.00001E0,1E0,1E0,-5.493286E-2,1E0,1E0,1E0,2.00001E0,1E0,1E0,1E0,1E0,1E0,1E0,3.81986E-2,6.6933553E-3,3.5283174E-2,1.8368436E-2,1E0,2.7107982E-2,1E0,9.601134E-3,1E0,1E0,3.7970507E-4,-6.981643E-4,-4.3557994E-2,1.7194918E-3,1.4100074E-2,-3.135591E-3,-6.2266965E-3,6.416895E-2,-3.2393344E-2,1.6255634E-2,-8.277423E-3,-1.4486314E-4,1.6984705E-2,-3.060609E-3,1.4279187E-3,-2.6792826E-3],"split_indices":[702,632,300,703,16,704,268,371,0,637,47,440,702,140,147,703,440,271,484,0,0,0,0,272,0,2,0,16,29,0,0,0,0,0,0,0,0,0,0,0,0,0,0,0,0],"split_type":[0,0,0,0,0,0,0,0,0,0,0,0,0,0,0,0,0,0,0,0,0,0,0,0,0,0,0,0,0,0,0,0,0,0,0,0,0,0,0,0,0,0,0,0,0],"sum_hessian":[1.174E3,9.82E2,1.92E2,2.2E1,9.6E2,1.9E1,1.73E2,1.9E1,3E0,9.56E2,4E0,1.1E1,8E0,3E0,1.7E2,1.3E1,6E0,9.42E2,1.4E1,2E0,2E0,6E0,5E0,3E0,5E0,2E0,1E0,1.68E2,2E0,3E0,1E1,4E0,2E0,1E1,9.32E2,1.1E1,3E0,1E0,2E0,1E0,1E0,1.67E2,1E0,1E0,1E0],"tree_param":{"num_deleted":"0","num_feature":"705","num_nodes":"45","size_leaf_vector":"1"}},{"base_weights":[5.427067E-3,-1.750415E-2,3.4374413E-1,-4.287222E-2,2.797418E-1,3.6564732E-1,-2.9651383E-1,-3.9133526E-2,-5.7138056E-1,6.760134E-2,2.9768333E-1,3.4620145E-1,3.487508E-2,-2.2097299E-2,-1.4123917E-4,-4.51962E-2,2.2062702E-1,-2.8307093E-2,-6.430214E-2,-1.20520955E-2,1.4612779E-1,1.5444149E-2,7.0151925E-2,1.7582826E-2,-7.549584E-4,-2.3450255E-3,4.0540405E-2,2.4633078E-2,-9.114203E-3,-3.5560713E-3,3.5737555E-3,3.4922732E-3,1.5095544E-2,1.522567E-2,-2.168235E-2],"categories":[],"categories_nodes":[],"categories_segments":[],"categories_sizes":[],"default_left":[0,0,0,0,0,0,0,0,0,0,0,0,0,0,0,0,0,0,0,0,0,0,0,0,0,0,0,0,0,0,0,0,0,0,0],"id":47,"left_children":[1,3,5,7,9,11,13,15,17,19,21,23,-1,-1,-1,25,27,29,-1,-1,31,-1,33,-1,-1,-1,-1,-1,-1,-1,-1,-1,-1,-1,-1],"loss_changes":[9.044112E0,8.246281E0,1.1461725E0,1.9674013E0,3.0720282E-1,2.2315311E-1,1.2688705E-1,1.58639E0,2.6803946E0,2.2911617E-1,1.7964506E-1,1.432743E-1,0E0,0E0,0E0,1.4662849E0,2.6107364E0,2.6443955E-2,0E0,0E0,6.209737E-2,0E0,7.2240657E-1,0E0,0E0,0E0,0E0,0E0,0E0,0E0,0E0,0E0,0E0,0E0,0E0],"parents":[2147483647,0,0,1,1,2,2,3,3,4,4,5,5,6,6,7,7,8,8,9,9,10,10,11,11,15,15,16,16,17,17,20,20,22,22],"right_children":[2,4,6,8,10,12,14,16,18,20,22,24,-1,-1,-1,26,28,30,-1,-1,32,-1,34,-1,-1,-1,-1,-1,-1,-1,-1,-1,-1,-1,-1],"split_conditions":[1E0,1E0,1E0,1E0,1E0,1E0,1E0,1E0,1E0,1E0,1E2,1E0,3.487508E-2,-2.2097299E-2,-1.4123917E-4,1E0,1E0,1E0,-6.430214E-2,-1.20520955E-2,1E0,1.5444149E-2,1E0,1.7582826E-2,-7.549584E-4,-2.3450255E-3,4.0540405E-2,2.4633078E-2,-9.114203E-3,-3.5560713E-3,3.5737555E-3,3.4922732E-3,1.5095544E-2,1.522567E-2,-2.168235E-2],"split_indices":[2,4,4,184,704,483,127,404,249,543,701,5,0,0,0,463,29,32,0,0,12,0,74,0,0,0,0,0,0,0,0,0,0,0,0],"split_type":[0,0,0,0,0,0,0,0,0,0,0,0,0,0,0,0,0,0,0,0,0,0,0,0,0,0,0,0,0,0,0,0,0,0,0],"sum_hessian":[1.164E3,1.091E3,7.3E1,1.006E3,8.5E1,7.1E1,2E0,1E3,6E0,7E0,7.8E1,6.9E1,2E0,1E0,1E0,9.78E2,2.2E1,4E0,2E0,1E0,6E0,7.4E1,4E0,6.8E1,1E0,9.77E2,1E0,1.3E1,9E0,3E0,1E0,5E0,1E0,3E0,1E0],"tree_param":{"num_deleted":"0","num_feature":"705","num_nodes":"35","size_leaf_vector":"1"}},{"base_weights":[3.0091037E-3,-5.9456006E-2,3.4970865E-1,-6.1828338E-2,3.700348E-2,3.1702545E-1,1.0752763E-1,-3.1650347E-1,-5.4873727E-2,3.0679888E-1,3.4003418E-2,-9.236856E-2,-1.048225E0,-5.7054624E-2,3.3028904E-2,-3.1524885E-2,3.1591398E-1,6.748156E-3,-2.3932647E-2,-6.630394E-2,8.526089E-3,-2.4435443E-3,-1.1512542E-2,1.6236445E-2,-2.9785825E-2],"categories":[],"categories_nodes":[],"categories_segments":[],"categories_sizes":[],"default_left":[0,0,0,0,0,0,0,0,0,0,0,0,0,0,0,0,0,0,0,0,0,0,0,0,0],"id":48,"left_children":[1,3,5,7,-1,9,-1,11,13,15,-1,17,19,21,-1,-1,23,-1,-1,-1,-1,-1,-1,-1,-1],"loss_changes":[2.525076E1,1.9197373E0,9.794821E0,1.7290022E0,0E0,4.4478798E-1,0E0,4.16729E0,1.537164E0,1.6772156E0,0E0,1.9087087E0,2.2579255E0,1.3480275E0,0E0,0E0,1.5756264E0,0E0,0E0,0E0,0E0,0E0,0E0,0E0,0E0],"parents":[2147483647,0,0,1,1,2,2,3,3,5,5,7,7,8,8,9,9,11,11,12,12,13,13,16,16],"right_children":[2,4,6,8,-1,10,-1,12,14,16,-1,18,20,22,-1,-1,24,-1,-1,-1,-1,-1,-1,-1,-1],"split_conditions":[1E0,1E0,2.00001E0,1E0,3.700348E-2,1E0,1.0752763E-1,2.00001E0,1E0,1E0,3.4003418E-2,1E0,1E0,1E0,3.3028904E-2,-3.1524885E-2,1E0,6.748156E-3,-2.3932647E-2,-6.630394E-2,8.526089E-3,-2.4435443E-3,-1.1512542E-2,1.6236445E-2,-2.9785825E-2],"split_indices":[702,16,702,632,0,693,0,704,125,371,0,371,233,47,0,0,81,0,0,0,0,0,0,0,0],"split_type":[0,0,0,0,0,0,0,0,0,0,0,0,0,0,0,0,0,0,0,0,0,0,0,0,0],"sum_hessian":[1.164E3,9.87E2,1.77E2,9.85E2,2E0,1.75E2,2E0,2.5E1,9.6E2,1.72E2,3E0,2E1,5E0,9.58E2,2E0,1E0,1.71E2,1.3E1,7E0,4E0,1E0,9.16E2,4.2E1,1.7E2,1E0],"tree_param":{"num_deleted":"0","num_feature":"705","num_nodes":"25","size_leaf_vector":"1"}},{"base_weights":[1.1038248E-3,-5.4768037E-2,3.0383828E-1,-5.233259E-2,-4.2213388E-2,3.118464E-1,-2.9041177E-2,-5.503131E-2,4.9301988E-1,3.0496183E-1,3.912098E-2,-5.758419E-2,2.2995662E-2,3.5770025E-2,5.3149625E-3,3.077979E-1,-5.209261E-3,-2.6367854E-3,-1.7426526E-2,1.5580684E-2,-1.1237463E-3],"categories":[],"categories_nodes":[],"categories_segments":[],"categories_sizes":[],"default_left":[0,0,0,0,0,0,0,0,0,0,0,0,0,0,0,0,0,0,0,0,0],"id":49,"left_children":[1,3,5,7,-1,9,-1,11,13,15,-1,17,-1,-1,-1,19,-1,-1,-1,-1,-1],"loss_changes":[1.997556E1,1.8728318E0,1.4846706E0,1.4915252E0,0E0,3.5425758E-1,0E0,1.3292434E0,3.5394943E-1,2.4325562E-1,0E0,1.37393E0,0E0,0E0,0E0,2.3510551E-1,0E0,0E0,0E0,0E0,0E0],"parents":[2147483647,0,0,1,1,2,2,3,3,5,5,7,7,8,8,9,9,11,11,15,15],"right_children":[2,4,6,8,-1,10,-1,12,14,16,-1,18,-1,-1,-1,20,-1,-1,-1,-1,-1],"split_conditions":[1E0,1E0,1E0,1E0,-4.2213388E-2,1E0,-2.9041177E-2,1E0,1E0,1E0,3.912098E-2,1E0,2.2995662E-2,3.5770025E-2,5.3149625E-3,1E0,-5.209261E-3,-2.6367854E-3,-1.7426526E-2,1.5580684E-2,-1.1237463E-3],"split_indices":[702,417,81,16,0,463,0,192,47,608,0,32,0,0,0,127,0,0,0,0,0],"split_type":[0,0,0,0,0,0,0,0,0,0,0,0,0,0,0,0,0,0,0,0,0],"sum_hessian":[1.179E3,9.96E2,1.83E2,9.94E2,2E0,1.82E2,1E0,9.9E2,4E0,1.81E2,1E0,9.86E2,4E0,2E0,2E0,1.8E2,1E0,9.71E2,1.5E1,1.78E2,2E0],"tree_param":{"num_deleted":"0","num_feature":"705","num_nodes":"21","size_leaf_vector":"1"}},{"base_weights":[-1.3706018E-3,-1.9552536E-2,2.974306E-1,-4.8259582E-2,2.0909582E-1,3.200798E-1,-2.924452E-1,-4.9868964E-2,3.8142957E-2,1.4518654E-1,3.4302387E-1,2.9871765E-1,3.3099584E-2,-2.141786E-2,-5.155325E-4,-4.255691E-2,-2.2027272E-1,-1.8653057E-3,2.3854378E-1,6.2513834E-1,2.500544E-1,1.5212717E-2,-1.1139036E-3,-2.243095E-3,3.4577694E-2,-2.2188725E-3,-2.2781914E-2,4.2791534E-2,-2.6895178E-3,3.3323348E-3,1.2975815E-2,4.2250942E-2,1.401151E-2,1.39088975E-2,-4.6620725E-4],"categories":[],"categories_nodes":[],"categories_segments":[],"categories_sizes":[],"default_left":[0,0,0,0,0,0,0,0,0,0,0,0,0,0,0,0,0,0,0,0,0,0,0,0,0,0,0,0,0,0,0,0,0,0,0],"id":50,"left_children":[1,3,5,7,9,11,13,15,-1,17,19,21,-1,-1,-1,23,25,27,29,31,33,-1,-1,-1,-1,-1,-1,-1,-1,-1,-1,-1,-1,-1,-1],"loss_changes":[6.3458743E0,7.236855E0,9.887395E-1,1.3160312E0,1.002985E0,2.7701044E-1,1.10619724E-1,1.2092154E0,0E0,1.1673551E0,8.6657476E-1,1.1874437E-1,0E0,0E0,0E0,1.6199232E0,1.6357673E0,1.5602562E0,1.7016983E-1,4.4574738E-1,2.2872782E-1,0E0,0E0,0E0,0E0,0E0,0E0,0E0,0E0,0E0,0E0,0E0,0E0,0E0,0E0],"parents":[2147483647,0,0,1,1,2,2,3,3,4,4,5,5,6,6,7,7,9,9,10,10,11,11,15,15,16,16,17,17,18,18,19,19,20,20],"right_children":[2,4,6,8,10,12,14,16,-1,18,20,22,-1,-1,-1,24,26,28,30,32,34,-1,-1,-1,-1,-1,-1,-1,-1,-1,-1,-1,-1,-1,-1],"split_conditions":[1E0,1E0,1E0,1E0,1E0,1E0,1E0,1E0,3.8142957E-2,1E0,1E0,1E0,3.3099584E-2,-2.141786E-2,-5.155325E-4,1E0,1E0,1E0,1E0,1E0,1E0,1.5212717E-2,-1.1139036E-3,-2.243095E-3,3.4577694E-2,-2.2188725E-3,-2.2781914E-2,4.2791534E-2,-2.6895178E-3,3.3323348E-3,1.2975815E-2,4.2250942E-2,1.401151E-2,1.39088975E-2,-4.6620725E-4],"split_indices":[2,13,4,463,181,340,127,47,0,4,37,5,0,0,0,16,153,151,617,4,618,0,0,0,0,0,0,0,0,0,0,0,0,0,0],"split_type":[0,0,0,0,0,0,0,0,0,0,0,0,0,0,0,0,0,0,0,0,0,0,0,0,0,0,0,0,0,0,0,0,0,0,0],"sum_hessian":[1.166E3,1.1E3,6.6E1,9.78E2,1.22E2,6.4E1,2E0,9.77E2,1E0,8.4E1,3.8E1,6.2E1,2E0,1E0,1E0,9.38E2,3.9E1,3.3E1,5.1E1,8E0,3E1,6.1E1,1E0,9.36E2,2E0,2.3E1,1.6E1,1E0,3.2E1,6E0,4.5E1,4E0,4E0,2.7E1,3E0],"tree_param":{"num_deleted":"0","num_feature":"705","num_nodes":"35","size_leaf_vector":"1"}},{"base_weights":[7.861701E-3,-4.484836E-2,2.7823436E-1,-2.6806974E-1,-3.7555467E-2,2.8560922E-1,-2.8259072E-2,-5.300584E-1,4.6722032E-2,-3.407091E-2,-5.0459725E-1,2.5867408E-2,2.65778E-1,5.260577E-3,-7.5354636E-1,1.8742174E-1,-1.9556448E-1,-4.231061E-2,1.3636643E-1,3.6539327E-2,-6.1914623E-2,-8.751214E-3,2.6925725E-1,3.245408E-4,-2.2265438E-5,-5.2890062E-2,-5.8014668E-3,-4.1002204E-4,1.9234201E-2,4.8152497E-3,-1.3659969E-2,-1.7105148E-3,-1.1321931E-2,5.5628996E-2,3.1695038E-3,5.7118046E-3,-2.6668606E-3,1.3586804E-2,-4.175484E-3],"categories":[],"categories_nodes":[],"categories_segments":[],"categories_sizes":[],"default_left":[1,0,0,1,0,0,0,0,0,0,0,0,0,0,0,0,0,0,0,0,0,0,0,0,0,0,0,0,0,0,0,0,0,0,0,0,0,0,0],"id":51,"left_children":[1,3,5,7,9,11,-1,13,15,17,19,-1,21,23,25,27,29,31,33,35,-1,-1,37,-1,-1,-1,-1,-1,-1,-1,-1,-1,-1,-1,-1,-1,-1,-1,-1],"loss_changes":[1.6772078E1,1.5934432E0,1.3556747E0,2.5813935E0,1.5370088E0,7.402706E-1,0E0,2.037799E0,5.4799765E-1,1.3385009E0,2.824452E0,0E0,3.201189E-1,4.500804E-5,2.2048764E0,3.8904327E-1,1.6226597E-1,1.3435482E0,3.0640554E0,4.100861E-2,0E0,0E0,1.7747116E-1,0E0,0E0,0E0,0E0,0E0,0E0,0E0,0E0,0E0,0E0,0E0,0E0,0E0,0E0,0E0,0E0],"parents":[2147483647,0,0,1,1,2,2,3,3,4,4,5,5,7,7,8,8,9,9,10,10,12,12,13,13,14,14,15,15,16,16,17,17,18,18,19,19,22,22],"right_children":[2,4,6,8,10,12,-1,14,16,18,20,-1,22,24,26,28,30,32,34,36,-1,-1,38,-1,-1,-1,-1,-1,-1,-1,-1,-1,-1,-1,-1,-1,-1,-1,-1],"split_conditions":[1E0,1E0,1E0,1E0,1E0,1E0,-2.8259072E-2,1E0,1E0,1E0,1E0,2.5867408E-2,1E0,1E0,1E0,9.5E1,1E0,1E0,1E0,1E0,-6.1914623E-2,-8.751214E-3,1E0,3.245408E-4,-2.2265438E-5,-5.2890062E-2,-5.8014668E-3,-4.1002204E-4,1.9234201E-2,4.8152497E-3,-1.3659969E-2,-1.7105148E-3,-1.1321931E-2,5.5628996E-2,3.1695038E-3,5.7118046E-3,-2.6668606E-3,1.3586804E-2,-4.175484E-3],"split_indices":[702,632,81,704,184,300,0,0,371,329,249,0,263,337,702,701,0,47,151,153,0,0,515,0,0,0,0,0,0,0,0,0,0,0,0,0,0,0,0],"split_type":[0,0,0,0,0,0,0,0,0,0,0,0,0,0,0,0,0,0,0,0,0,0,0,0,0,0,0,0,0,0,0,0,0,0,0,0,0,0,0],"sum_hessian":[1.175E3,9.84E2,1.91E2,3E1,9.54E2,1.9E2,1E0,1.6E1,1.4E1,9.48E2,6E0,1.3E1,1.77E2,5E0,1.1E1,9E0,5E0,9.05E2,4.3E1,4E0,2E0,1E0,1.76E2,4E0,1E0,7E0,4E0,5E0,4E0,1E0,4E0,8.68E2,3.7E1,2E0,4.1E1,2E0,2E0,1.75E2,1E0],"tree_param":{"num_deleted":"0","num_feature":"705","num_nodes":"39","size_leaf_vector":"1"}},{"base_weights":[4.7734464E-3,-5.094806E-2,2.799969E-1,-3.944464E-1,-4.2307533E-2,2.6295552E-1,4.443059E-2,-1.9594227E-1,-9.573018E-1,-3.9093297E-2,-6.4840764E-1,2.567764E-1,3.6542695E-2,-1.1380171E-1,-4.1861806E-2,-6.1340984E-2,9.757185E-3,-4.6709385E-2,1.5683758E-1,-4.2606253E-2,4.161551E-3,2.4562329E-1,4.3743077E-1,1.1136335E-3,-1.0120965E-2,-1.9278497E-3,-1.2302568E-2,-3.6951527E-3,1.7256262E-2,1.2647395E-2,-2.7552595E-2,1.0411507E-2,3.1249268E-2],"categories":[],"categories_nodes":[],"categories_segments":[],"categories_sizes":[],"default_left":[0,0,0,0,0,0,0,0,0,0,0,0,0,0,0,0,0,0,0,0,0,0,0,0,0,0,0,0,0,0,0,0,0],"id":52,"left_children":[1,3,5,7,9,11,-1,13,15,17,19,21,-1,23,-1,-1,-1,25,27,-1,-1,29,31,-1,-1,-1,-1,-1,-1,-1,-1,-1,-1],"loss_changes":[1.8125923E1,2.9008632E0,1.8302917E0,2.493923E0,1.8448737E0,3.761196E-1,0E0,9.0556943E-1,2.103034E0,1.4338948E0,8.161609E-1,2.8343868E-1,0E0,2.2156289E-1,0E0,0E0,0E0,1.4872429E0,1.5895478E0,0E0,0E0,1.2189236E0,2.9973555E-1,0E0,0E0,0E0,0E0,0E0,0E0,0E0,0E0,0E0,0E0],"parents":[2147483647,0,0,1,1,2,2,3,3,4,4,5,5,7,7,8,8,9,9,10,10,11,11,13,13,17,17,18,18,21,21,22,22],"right_children":[2,4,6,8,10,12,-1,14,16,18,20,22,-1,24,-1,-1,-1,26,28,-1,-1,30,32,-1,-1,-1,-1,-1,-1,-1,-1,-1,-1],"split_conditions":[1E0,1E0,2.00001E0,2.00001E0,1E0,1E0,4.443059E-2,1E0,1E0,1E0,1E0,1E0,3.6542695E-2,1E0,-4.1861806E-2,-6.1340984E-2,9.757185E-3,1E0,1E0,-4.2606253E-2,4.161551E-3,1E0,1E0,1.1136335E-3,-1.0120965E-2,-1.9278497E-3,-1.2302568E-2,-3.6951527E-3,1.7256262E-2,1.2647395E-2,-2.7552595E-2,1.0411507E-2,3.1249268E-2],"split_indices":[702,632,702,704,359,463,0,42,233,331,166,428,0,0,0,0,0,47,181,0,0,81,340,0,0,0,0,0,0,0,0,0,0],"split_type":[0,0,0,0,0,0,0,0,0,0,0,0,0,0,0,0,0,0,0,0,0,0,0,0,0,0,0,0,0,0,0,0,0],"sum_hessian":[1.18E3,9.82E2,1.98E2,2.3E1,9.59E2,1.94E2,4E0,1.8E1,5E0,9.55E2,4E0,1.93E2,1E0,1.7E1,1E0,4E0,1E0,9.2E2,3.5E1,3E0,1E0,1.84E2,9E0,7E0,1E1,8.85E2,3.5E1,1.6E1,1.9E1,1.83E2,1E0,5E0,4E0],"tree_param":{"num_deleted":"0","num_feature":"705","num_nodes":"33","size_leaf_vector":"1"}},{"base_weights":[1.6711664E-3,-5.051076E-2,2.7819854E-1,-5.2757025E-2,5.4332208E-2,2.6097155E-1,4.265337E-2,-4.9482282E-2,-8.476098E-1,2.5004393E-1,2.9999299E-2,-3.2058117E-1,-4.3543752E-2,-5.978654E-2,4.9188323E-3,-3.2033075E-2,2.586471E-1,-2.3836011E-2,2.9899892E-3,-1.9520503E-3,-1.993171E-2,2.9185295E-2,1.2096356E-2],"categories":[],"categories_nodes":[],"categories_segments":[],"categories_sizes":[],"default_left":[0,0,0,0,0,0,0,0,0,0,0,0,0,0,0,0,0,0,0,0,0,0,0],"id":53,"left_children":[1,3,5,7,-1,9,-1,11,13,15,-1,17,19,-1,-1,-1,21,-1,-1,-1,-1,-1,-1],"loss_changes":[1.6997847E1,2.5886867E0,1.6292868E0,2.5349653E0,0E0,5.279217E-1,0E0,1.5750403E0,1.4349029E0,1.537365E0,0E0,1.2757463E0,1.5305572E0,0E0,0E0,0E0,8.262119E-1,0E0,0E0,0E0,0E0,0E0,0E0],"parents":[2147483647,0,0,1,1,2,2,3,3,5,5,7,7,8,8,9,9,11,11,12,12,16,16],"right_children":[2,4,6,8,-1,10,-1,12,14,16,-1,18,20,-1,-1,-1,22,-1,-1,-1,-1,-1,-1],"split_conditions":[1E0,1E0,2.00001E0,1E0,5.4332208E-2,1E0,4.265337E-2,1E0,1E0,1E0,2.9999299E-2,1E0,1E0,-5.978654E-2,4.9188323E-3,-3.2033075E-2,1E0,-2.3836011E-2,2.9899892E-3,-1.9520503E-3,-1.993171E-2,2.9185295E-2,1.2096356E-2],"split_indices":[702,608,702,184,0,693,0,632,32,371,0,693,294,0,0,0,381,0,0,0,0,0,0],"split_type":[0,0,0,0,0,0,0,0,0,0,0,0,0,0,0,0,0,0,0,0,0,0,0],"sum_hessian":[1.176E3,9.9E2,1.86E2,9.89E2,1E0,1.82E2,4E0,9.86E2,3E0,1.78E2,4E0,2E1,9.66E2,2E0,1E0,1E0,1.77E2,1.4E1,6E0,9.55E2,1.1E1,7E0,1.7E2],"tree_param":{"num_deleted":"0","num_feature":"705","num_nodes":"23","size_leaf_vector":"1"}},{"base_weights":[1.22063095E-2,-3.4932055E-2,2.423608E-1,-3.2604536E-1,-2.7493862E-2,4.4083002E-1,2.2249082E-1,-8.037932E-2,-1.2435005E0,-3.3454034E-2,2.4953887E-1,4.9107164E-1,1.110179E-2,2.1608989E-1,3.4526445E-2,1.4307067E-1,-5.1579654E-1,-8.243804E-2,9.438506E-3,-3.98478E-2,1.3026874E-1,-3.9392656E-1,7.1134305E-1,2.5549728E-2,6.299919E-3,-9.151029E-3,2.1932395E-1,1.2607721E-2,-1.0175755E-4,-4.9956188E-2,4.823991E-3,-2.095831E-3,2.1469597E-2,-3.2570467E-3,4.6060663E-2,-3.2557722E-2,4.5198444E-3,8.864221E-2,-2.050655E-3,1.1174734E-2,-1.0030598E-3],"categories":[],"categories_nodes":[],"categories_segments":[],"categories_sizes":[],"default_left":[0,0,0,0,0,0,0,0,0,0,0,0,0,0,0,0,0,0,0,0,1,0,0,0,0,0,0,0,0,0,0,0,0,0,0,0,0,0,0,0,0],"id":54,"left_children":[1,3,5,7,9,11,13,15,17,19,21,23,-1,25,-1,27,29,-1,-1,31,33,35,37,-1,-1,-1,39,-1,-1,-1,-1,-1,-1,-1,-1,-1,-1,-1,-1,-1,-1],"loss_changes":[1.2636826E1,2.0849352E0,6.827488E-1,5.30935E0,1.5670462E0,7.783842E-2,3.960333E-1,2.019675E0,3.2134476E0,9.7348535E-1,6.223317E0,3.0168772E-2,0E0,2.7376556E-1,0E0,2.2211477E-1,2.1679041E0,0E0,0E0,8.8295627E-1,5.469547E0,1.1800959E0,9.656233E0,0E0,0E0,0E0,1.8419647E-1,0E0,0E0,0E0,0E0,0E0,0E0,0E0,0E0,0E0,0E0,0E0,0E0,0E0,0E0],"parents":[2147483647,0,0,1,1,2,2,3,3,4,4,5,5,6,6,7,7,8,8,9,9,10,10,11,11,13,13,15,15,16,16,19,19,20,20,21,21,22,22,26,26],"right_children":[2,4,6,8,10,12,14,16,18,20,22,24,-1,26,-1,28,30,-1,-1,32,34,36,38,-1,-1,-1,40,-1,-1,-1,-1,-1,-1,-1,-1,-1,-1,-1,-1,-1,-1],"split_conditions":[1E0,1E0,1E0,2.00001E0,1E0,1E0,1E0,1E0,1E0,1E0,1E0,1E0,1.110179E-2,1E0,3.4526445E-2,1E0,1E0,-8.243804E-2,9.438506E-3,1E0,1E0,1E0,2.00001E0,2.5549728E-2,6.299919E-3,-9.151029E-3,1E0,1.2607721E-2,-1.0175755E-4,-4.9956188E-2,4.823991E-3,-2.095831E-3,2.1469597E-2,-3.2570467E-3,4.6060663E-2,-3.2557722E-2,4.5198444E-3,8.864221E-2,-2.050655E-3,1.1174734E-2,-1.0030598E-3],"split_indices":[702,632,300,703,391,440,343,371,257,331,483,258,0,263,0,693,440,0,0,192,703,603,704,0,0,0,560,0,0,0,0,0,0,0,0,0,0,0,0,0,0],"split_type":[0,0,0,0,0,0,0,0,0,0,0,0,0,0,0,0,0,0,0,0,0,0,0,0,0,0,0,0,0,0,0,0,0,0,0,0,0,0,0,0,0],"sum_hessian":[1.163E3,9.66E2,1.97E2,2.3E1,9.43E2,1.6E1,1.81E2,1.9E1,4E0,9.24E2,1.9E1,1.2E1,4E0,1.8E2,1E0,1.3E1,6E0,3E0,1E0,8.9E2,3.4E1,8E0,1.1E1,1.1E1,1E0,1E0,1.79E2,7E0,6E0,3E0,3E0,8.87E2,3E0,2.8E1,6E0,5E0,3E0,4E0,7E0,1.76E2,3E0],