{"learner":{"attributes":{"scikit_learn":"{\"_estimator_type\": \"classifier\"}"},"feature_names":[],"feature_types":[],"gradient_booster":{"model":{"cats":{"enc":[],"feature_segments":[],"sorted_idx":[]},"gbtree_model_param":{"num_parallel_tree":"1","num_trees":"300"},"iteration_indptr":[0,1,2,3,4,5,6,7,8,9,10,11,12,13,14,15,16,17,18,19,20,21,22,23,24,25,26,27,28,29,30,31,32,33,34,35,36,37,38,39,40,41,42,43,44,45,46,47,48,49,50,51,52,53,54,55,56,57,58,59,60,61,62,63,64,65,66,67,68,69,70,71,72,73,74,75,76,77,78,79,80,81,82,83,84,85,86,87,88,89,90,91,92,93,94,95,96,97,98,99,100,101,102,103,104,105,106,107,108,109,110,111,112,113,114,115,116,117,118,119,120,121,122,123,124,125,126,127,128,129,130,131,132,133,134,135,136,137,138,139,140,141,142,143,144,145,146,147,148,149,150,151,152,153,154,155,156,157,158,159,160,161,162,163,164,165,166,167,168,169,170,171,172,173,174,175,176,177,178,179,180,181,182,183,184,185,186,187,188,189,190,191,192,193,194,195,196,197,198,199,200,201,202,203,204,205,206,207,208,209,210,211,212,213,214,215,216,217,218,219,220,221,222,223,224,225,226,227,228,229,230,231,232,233,234,235,236,237,238,239,240,241,242,243,244,245,246,247,248,249,250,251,252,253,254,255,256,257,258,259,260,261,262,263,264,265,266,267,268,269,270,271,272,273,274,275,276,277,278,279,280,281,282,283,284,285,286,287,288,289,290,291,292,293,294,295,296,297,298,299,300],"tree_info":[0,0,0,0,0,0,0,0,0,0,0,0,0,0,0,0,0,0,0,0,0,0,0,0,0,0,0,0,0,0,0,0,0,0,0,0,0,0,0,0,0,0,0,0,0,0,0,0,0,0,0,0,0,0,0,0,0,0,0,0,0,0,0,0,0,0,0,0,0,0,0,0,0,0,0,0,0,0,0,0,0,0,0,0,0,0,0,0,0,0,0,0,0,0,0,0,0,0,0,0,0,0,0,0,0,0,0,0,0,0,0,0,0,0,0,0,0,0,0,0,0,0,0,0,0,0,0,0,0,0,0,0,0,0,0,0,0,0,0,0,0,0,0,0,0,0,0,0,0,0,0,0,0,0,0,0,0,0,0,0,0,0,0,0,0,0,0,0,0,0,0,0,0,0,0,0,0,0,0,0,0,0,0,0,0,0,0,0,0,0,0,0,0,0,0,0,0,0,0,0,0,0,0,0,0,0,0,0,0,0,0,0,0,0,0,0,0,0,0,0,0,0,0,0,0,0,0,0,0,0,0,0,0,0,0,0,0,0,0,0,0,0,0,0,0,0,0,0,0,0,0,0,0,0,0,0,0,0,0,0,0,0,0,0,0,0,0,0,0,0,0,0,0,0,0,0,0,0,0,0,0,0,0,0,0,0,0,0,0,0,0,0,0,0,0,0,0,0,0,0],"trees":[{"base_weights":[3.5736463E-8,-7.369296E-1,1.9101654E0,-9.1305834E-1,9.752712E-2,2.6451616E-2,9.562837E-2,-1.010434E0,9.675353E-2,6.598988E-2,-1.313849E0,-1.0384471E-1,8.636037E-2,-1.4631524E0,3.6671242E-1,7.881126E-3,-3.83781E-2,-7.625129E-2,8.8E-2,2.100254E-3,8.270763E-2],"categories":[],"categories_nodes":[],"categories_segments":[],"categories_sizes":[],"default_left":[0,0,0,0,0,0,0,0,0,0,0,0,0,0,0,0,0,0,0,0,0],"id":0,"left_children":[1,3,5,7,-1,-1,-1,9,-1,11,13,15,-1,17,19,-1,-1,-1,-1,-1,-1],"loss_changes":[1.9137106E3,4.66141E2,2.4377441E-1,2.5748602E2,0E0,0E0,0E0,2.912749E2,0E0,5.575941E1,1.7506348E2,3.1301155E1,0E0,1.3012048E2,2.398989E1,0E0,0E0,0E0,0E0,0E0,0E0],"parents":[2147483647,0,0,1,1,2,2,3,3,7,7,9,9,10,10,11,11,13,13,14,14],"right_children":[2,4,6,8,-1,-1,-1,10,-1,12,14,16,-1,18,20,-1,-1,-1,-1,-1,-1],"split_conditions":[1E0,1E0,1E0,1E0,9.752712E-2,2.6451616E-2,9.562837E-2,1E0,9.675353E-2,1E0,1E0,1E0,8.636037E-2,1E0,1E0,7.881126E-3,-3.83781E-2,-7.625129E-2,8.8E-2,2.100254E-3,8.270763E-2],"split_indices":[181,74,375,47,0,0,0,268,0,312,617,632,0,146,81,0,0,0,0,0,0],"split_type":[0,0,0,0,0,0,0,0,0,0,0,0,0,0,0,0,0,0,0,0,0],"sum_hessian":[1.3575E3,9.800263E2,3.774737E2,9.203684E2,5.9657898E1,1.0394738E0,3.7643423E2,8.905658E2,2.9802633E1,1.96E2,6.945658E2,1.7867105E2,1.7328947E1,6.380132E2,5.655263E1,1.287237E2,4.994737E1,6.265132E2,1.15E1,4.5986843E1,1.056579E1],"tree_param":{"num_deleted":"0","num_feature":"702","num_nodes":"21","size_leaf_vector":"1"}},{"base_weights":[3.551752E-4,-7.006115E-1,1.8191833E0,-8.681662E-1,9.2952006E-2,2.4703914E-2,9.107619E-2,-9.60846E-1,9.2285186E-2,6.299428E-2,-1.2497565E0,-9.8834775E-2,8.2425594E-2,-1.4210747E0,1.4323027E-1,7.490219E-3,-3.6510263E-2,-7.402097E-2,8.39931E-2,-4.813083E-3,9.298892E-2],"categories":[],"categories_nodes":[],"categories_segments":[],"categories_sizes":[],"default_left":[0,0,0,0,0,0,0,0,0,0,0,0,0,0,0,0,0,0,0,0,0],"id":1,"left_children":[1,3,5,7,-1,-1,-1,9,-1,11,13,15,-1,17,19,-1,-1,-1,-1,-1,-1],"loss_changes":[1.7306342E3,4.218374E2,2.709961E-1,2.3324713E2,0E0,0E0,0E0,2.635056E2,0E0,5.0696236E1,1.6596936E2,2.8311563E1,0E0,1.1633032E2,3.1825779E1,0E0,0E0,0E0,0E0,0E0,0E0],"parents":[2147483647,0,0,1,1,2,2,3,3,7,7,9,9,10,10,11,11,13,13,14,14],"right_children":[2,4,6,8,-1,-1,-1,10,-1,12,14,16,-1,18,20,-1,-1,-1,-1,-1,-1],"split_conditions":[1E0,1E0,1E0,1E0,9.2952006E-2,2.4703914E-2,9.107619E-2,1E0,9.2285186E-2,1E0,1E0,1E0,8.2425594E-2,1E0,1E0,7.490219E-3,-3.6510263E-2,-7.402097E-2,8.39931E-2,-4.813083E-3,9.298892E-2],"split_indices":[181,74,493,47,0,0,0,268,0,312,603,632,0,146,170,0,0,0,0,0,0],"split_type":[0,0,0,0,0,0,0,0,0,0,0,0,0,0,0,0,0,0,0,0,0],"sum_hessian":[1.3554265E3,9.7881226E2,3.7661423E2,9.19296E2,5.9516262E1,1.0379329E0,3.755763E2,8.89563E2,2.9732992E1,1.9594734E2,6.9361566E2,1.7865067E2,1.7296677E1,6.176349E2,7.598078E1,1.2872168E2,4.9928986E1,6.0654956E2,1.1085317E1,6.750626E1,8.474518E0],"tree_param":{"num_deleted":"0","num_feature":"702","num_nodes":"21","size_leaf_vector":"1"}},{"base_weights":[7.0775155E-4,-6.674921E-1,1.7398533E0,-8.271161E-1,8.897738E-2,2.4087481E-2,8.710261E-2,-9.15434E-1,8.839513E-2,6.0173668E-2,-1.1915177E0,-9.408905E-2,7.892936E-2,-1.2989457E0,8.801322E-1,7.1189143E-3,-3.4756623E-2,-6.7699365E-2,8.1257425E-2,5.589482E-2,-2.4695119E-2],"categories":[],"categories_nodes":[],"categories_segments":[],"categories_sizes":[],"default_left":[0,0,0,0,0,0,0,0,0,0,0,0,0,0,0,0,0,0,0,0,0],"id":2,"left_children":[1,3,5,7,-1,-1,-1,9,-1,11,13,15,-1,17,19,-1,-1,-1,-1,-1,-1],"loss_changes":[1.5709135E3,3.8293E2,1.9885254E-1,2.1188806E2,0E0,0E0,0E0,2.3923297E2,0E0,4.6245808E1,1.5517725E2,2.562408E1,0E0,1.0816846E2,1.1894215E1,0E0,0E0,0E0,0E0,0E0,0E0],"parents":[2147483647,0,0,1,1,2,2,3,3,7,7,9,9,10,10,11,11,13,13,14,14],"right_children":[2,4,6,8,-1,-1,-1,10,-1,12,14,16,-1,18,20,-1,-1,-1,-1,-1,-1],"split_conditions":[1E0,1E0,1E0,1E0,8.897738E-2,2.4087481E-2,8.710261E-2,1E0,8.839513E-2,1E0,1E0,1E0,7.892936E-2,1E0,1E2,7.1189143E-3,-3.4756623E-2,-6.7699365E-2,8.1257425E-2,5.589482E-2,-2.4695119E-2],"split_indices":[181,74,493,47,0,0,0,268,0,312,129,632,0,146,700,0,0,0,0,0,0],"split_type":[0,0,0,0,0,0,0,0,0,0,0,0,0,0,0,0,0,0,0,0,0],"sum_hessian":[1.349793E3,9.7558E2,3.7421298E2,9.1646E2,5.9120018E1,1.0368873E0,3.731761E2,8.8692206E2,2.9537956E1,1.957996E2,6.9112244E2,1.7859349E2,1.7206112E1,6.574049E2,3.371755E1,1.2871608E2,4.9877407E1,6.4578595E2,1.161897E1,2.8902628E1,4.8149214E0],"tree_param":{"num_deleted":"0","num_feature":"702","num_nodes":"21","size_leaf_vector":"1"}},{"base_weights":[1.0214993E-3,-6.3717973E-1,1.6700565E0,-7.8944916E-1,8.5493915E-2,2.2580948E-2,8.3611615E-2,-8.7370795E-1,8.4979646E-2,5.7512507E-2,-1.138401E0,-8.958968E-2,7.579809E-2,-1.2774683E0,4.130002E-1,6.7661786E-3,-3.310619E-2,-6.6529855E-2,9.435745E-2,5.817979E-3,7.9124324E-2],"categories":[],"categories_nodes":[],"categories_segments":[],"categories_sizes":[],"default_left":[0,0,0,0,0,0,0,0,0,0,0,0,0,0,0,0,0,0,0,0,0],"id":3,"left_children":[1,3,5,7,-1,-1,-1,9,-1,11,13,15,-1,17,19,-1,-1,-1,-1,-1,-1],"loss_changes":[1.4306208E3,3.4857565E2,2.2973633E-1,1.9297632E2,0E0,0E0,0E0,2.1791827E2,0E0,4.2308315E1,1.490185E2,2.3204544E1,0E0,1.0875073E2,1.9720415E1,0E0,0E0,0E0,0E0,0E0,0E0],"parents":[2147483647,0,0,1,1,2,2,3,3,7,7,9,9,10,10,11,11,13,13,14,14],"right_children":[2,4,6,8,-1,-1,-1,10,-1,12,14,16,-1,18,20,-1,-1,-1,-1,-1,-1],"split_conditions":[1E0,1E0,1E0,1E0,8.5493915E-2,2.2580948E-2,8.3611615E-2,1E0,8.4979646E-2,1E0,1E0,1E0,7.579809E-2,1E0,1E0,6.7661786E-3,-3.310619E-2,-6.6529855E-2,9.435745E-2,5.817979E-3,7.9124324E-2],"split_indices":[181,74,375,47,0,0,0,268,0,312,617,632,0,170,81,0,0,0,0,0,0],"split_type":[0,0,0,0,0,0,0,0,0,0,0,0,0,0,0,0,0,0,0,0,0],"sum_hessian":[1.3410797E3,9.705729E2,3.705069E2,9.1206476E2,5.850813E1,1.032213E0,3.6947467E2,8.828283E2,2.9236437E1,1.9557077E2,6.872575E2,1.7850496E2,1.7065805E1,6.30882E2,5.6375534E1,1.2870741E2,4.979755E1,6.2103534E2,9.846632E0,4.5846138E1,1.0529395E1],"tree_param":{"num_deleted":"0","num_feature":"702","num_nodes":"21","size_leaf_vector":"1"}},{"base_weights":[1.3782687E-3,-6.090587E-1,1.6081408E0,-7.544383E-1,8.241721E-2,2.2016734E-2,8.051133E-2,-8.348816E-1,8.195839E-2,5.4997206E-2,-1.0892364E0,-8.532062E-2,7.297339E-2,-1.2473907E0,1.8049267E-1,6.4310445E-3,-3.154953E-2,-6.5124765E-2,7.974018E-2,-2.045715E-3,8.755519E-2],"categories":[],"categories_nodes":[],"categories_segments":[],"categories_sizes":[],"default_left":[0,0,0,0,0,0,0,0,0,0,0,0,0,0,0,0,0,0,0,0,0],"id":4,"left_children":[1,3,5,7,-1,-1,-1,9,-1,11,13,15,-1,17,19,-1,-1,-1,-1,-1,-1],"loss_changes":[1.3063942E3,3.18012E2,1.8426514E-1,1.7610956E2,0E0,0E0,0E0,1.9894183E2,0E0,3.880454E1,1.3745966E2,2.1023397E1,0E0,9.727356E1,2.6697462E1,0E0,0E0,0E0,0E0,0E0,0E0],"parents":[2147483647,0,0,1,1,2,2,3,3,7,7,9,9,10,10,11,11,13,13,14,14],"right_children":[2,4,6,8,-1,-1,-1,10,-1,12,14,16,-1,18,20,-1,-1,-1,-1,-1,-1],"split_conditions":[1E0,1E0,1E0,1E0,8.241721E-2,2.2016734E-2,8.051133E-2,1E0,8.195839E-2,1E0,1E0,1E0,7.297339E-2,1E0,1E0,6.4310445E-3,-3.154953E-2,-6.5124765E-2,7.974018E-2,-2.045715E-3,8.755519E-2],"split_indices":[181,74,493,47,0,0,0,268,0,312,603,632,0,146,170,0,0,0,0,0,0],"split_type":[0,0,0,0,0,0,0,0,0,0,0,0,0,0,0,0,0,0,0,0,0],"sum_hessian":[1.3299325E3,9.6422687E2,3.657056E2,9.0651215E2,5.7714733E1,1.0302217E0,3.6467535E2,8.776671E2,2.8845066E1,1.9527324E2,6.8239386E2,1.7838992E2,1.6883326E1,6.068266E2,7.5567245E1,1.2869614E2,4.969378E1,5.9581665E2,1.100998E1,6.70844E1,8.482848E0],"tree_param":{"num_deleted":"0","num_feature":"702","num_nodes":"21","size_leaf_vector":"1"}},{"base_weights":[1.717314E-3,-5.831085E-1,1.5528225E0,-7.220783E-1,7.9681106E-2,2.0633588E-2,7.774582E-2,-7.9896426E-1,7.92681E-2,5.2616186E-2,-1.0440887E0,-8.126717E-2,1.4081684E0,-1.1779314E0,4.2771897E-1,6.112619E-3,-3.0078525E-2,2.2599379E-2,7.2488345E-2,-6.138728E-2,8.727916E-2,7.319949E-3,7.6761656E-2],"categories":[],"categories_nodes":[],"categories_segments":[],"categories_sizes":[],"default_left":[0,0,0,0,0,0,0,0,0,0,0,0,0,0,0,0,0,0,0,0,0,0,0],"id":5,"left_children":[1,3,5,7,-1,-1,-1,9,-1,11,13,15,17,19,21,-1,-1,-1,-1,-1,-1,-1,-1],"loss_changes":[1.1959814E3,2.907765E2,2.2021484E-1,1.6105438E2,0E0,0E0,0E0,1.8214001E2,0E0,3.567079E1,1.3394019E2,1.9054945E1,4.737091E-2,9.260657E1,1.7596092E1,0E0,0E0,0E0,0E0,0E0,0E0,0E0,0E0],"parents":[2147483647,0,0,1,1,2,2,3,3,7,7,9,9,10,10,11,11,12,12,13,13,14,14],"right_children":[2,4,6,8,-1,-1,-1,10,-1,12,14,16,18,20,22,-1,-1,-1,-1,-1,-1,-1,-1],"split_conditions":[1E0,1E0,1E0,1E0,7.9681106E-2,2.0633588E-2,7.774582E-2,1E0,7.92681E-2,1E0,1E0,1E0,1E0,1E0,1E0,6.112619E-3,-3.0078525E-2,2.2599379E-2,7.2488345E-2,-6.138728E-2,8.727916E-2,7.319949E-3,7.6761656E-2],"split_indices":[181,74,375,47,0,0,0,268,0,312,617,632,433,170,81,0,0,0,0,0,0,0,0],"split_type":[0,0,0,0,0,0,0,0,0,0,0,0,0,0,0,0,0,0,0,0,0,0,0],"sum_hessian":[1.3164309E3,9.564404E2,3.5999045E2,8.9967065E2,5.6769764E1,1.0230345E0,3.589674E2,8.712922E2,2.8378479E1,1.94918E2,6.763742E2,1.7825262E2,1.6665365E1,6.201765E2,5.6197697E1,1.2868271E2,4.956992E1,1.1894794E0,1.5475886E1,6.103566E2,9.819911E0,4.5717236E1,1.0480461E1],"tree_param":{"num_deleted":"0","num_feature":"702","num_nodes":"23","size_leaf_vector":"1"}},{"base_weights":[2.0804156E-3,-5.5880994E-1,1.5030673E0,-7.167484E-1,1.2421185E0,2.0138131E-2,7.525521E-2,-7.912874E-1,7.680294E-2,1.3560191E0,6.8741456E-2,4.1928634E-2,-1.0343746E0,1.106123E0,7.621269E-2,-4.9167592E-2,6.3719675E-2,-7.669248E-2,1.3409466E0,-1.1011775E0,8.4653206E-2,5.977683E-1,6.888838E-2,1.1595236E-3,-5.6725007E-2,7.470496E-2,3.4228083E-2,-5.7828855E-2,8.116675E-2,8.369673E-3,5.754553E-2],"categories":[],"categories_nodes":[],"categories_segments":[],"categories_sizes":[],"default_left":[0,0,0,0,0,0,0,0,0,0,0,0,0,0,0,0,0,0,0,0,0,0,0,0,0,0,0,0,0,0,0],"id":6,"left_children":[1,3,5,7,9,-1,-1,11,-1,13,15,17,19,21,-1,-1,-1,23,25,27,-1,29,-1,-1,-1,-1,-1,-1,-1,-1,-1],"loss_changes":[1.0971936E3,2.7074384E2,1.8835449E-1,1.4779013E2,1.0178955E1,0E0,0E0,1.7130994E2,0E0,1.2571259E0,1.12157755E1,2.967871E1,1.21140076E2,3.5694046E0,0E0,0E0,0E0,1.8708916E1,5.971451E-1,9.841589E1,0E0,2.8652892E0,0E0,0E0,0E0,0E0,0E0,0E0,0E0,0E0,0E0],"parents":[2147483647,0,0,1,1,2,2,3,3,4,4,7,7,9,9,10,10,11,11,12,12,13,13,17,17,18,18,19,19,21,21],"right_children":[2,4,6,8,10,-1,-1,12,-1,14,16,18,20,22,-1,-1,-1,24,26,28,-1,30,-1,-1,-1,-1,-1,-1,-1,-1,-1],"split_conditions":[1E0,1E0,1E0,1E0,1E2,2.0138131E-2,7.525521E-2,1E0,7.680294E-2,1E0,1E2,1E0,1E0,1E0,7.621269E-2,-4.9167592E-2,6.3719675E-2,1E0,1E0,1E0,8.4653206E-2,1E2,6.888838E-2,1.1595236E-3,-5.6725007E-2,7.470496E-2,3.4228083E-2,-5.7828855E-2,8.116675E-2,8.369673E-3,5.754553E-2],"split_indices":[181,514,375,47,700,0,0,510,0,74,699,312,136,37,0,0,0,373,421,146,0,699,0,0,0,0,0,0,0,0,0],"split_type":[0,0,0,0,0,0,0,0,0,0,0,0,0,0,0,0,0,0,0,0,0,0,0,0,0,0,0,0,0,0,0],"sum_hessian":[1.3012544E3,9.477325E2,3.5352197E2,8.718727E2,7.58598E1,1.0204618E0,3.525015E2,8.445768E2,2.7295908E1,6.900571E1,6.8540998E0,1.9093776E2,6.5363904E2,3.0812132E1,3.8193573E1,3.758599E0,3.0955007E0,1.7582324E2,1.5114513E1,6.3859424E2,1.504476E1,1.1845346E1,1.8966787E1,1.615473E2,1.4275944E1,1.1220263E1,3.8942509E0,6.26432E2,1.2162239E1,7.394582E0,4.4507647E0],"tree_param":{"num_deleted":"0","num_feature":"702","num_nodes":"31","size_leaf_vector":"1"}},{"base_weights":[2.5380666E-3,-5.356708E-1,1.4580505E0,-6.6408104E-1,7.555108E-2,1.8874083E-2,7.300579E-2,-7.3446906E-1,7.47092E-2,4.8546646E-2,-9.637366E-1,-7.395121E-2,1.3226553E0,-1.091984E0,4.2326212E-1,5.766578E-3,-2.8001977E-2,2.073001E-2,6.81574E-2,-5.7224613E-2,7.721639E-2,1.1062979E-2,9.089529E-2],"categories":[],"categories_nodes":[],"categories_segments":[],"categories_sizes":[],"default_left":[0,0,0,0,0,0,0,0,0,0,0,0,0,0,0,0,0,0,0,0,0,0,0],"id":7,"left_children":[1,3,5,7,-1,-1,-1,9,-1,11,13,15,17,19,21,-1,-1,-1,-1,-1,-1,-1,-1],"loss_changes":[1.00822986E3,2.4794717E2,2.2418213E-1,1.3551727E2,0E0,0E0,0E0,1.5399503E2,0E0,3.0559988E1,1.1846344E2,1.6534395E1,6.6244125E-2,8.586395E1,1.5618636E1,0E0,0E0,0E0,0E0,0E0,0E0,0E0,0E0],"parents":[2147483647,0,0,1,1,2,2,3,3,7,7,9,9,10,10,11,11,12,12,13,13,14,14],"right_children":[2,4,6,8,-1,-1,-1,10,-1,12,14,16,18,20,22,-1,-1,-1,-1,-1,-1,-1,-1],"split_conditions":[1E0,1E0,1E0,1E0,7.555108E-2,1.8874083E-2,7.300579E-2,1E0,7.47092E-2,1E0,1E0,1E0,1E0,1E0,1E0,5.766578E-3,-2.8001977E-2,2.073001E-2,6.81574E-2,-5.7224613E-2,7.721639E-2,1.1062979E-2,9.089529E-2],"split_indices":[181,74,493,47,0,0,0,268,0,312,617,632,433,146,91,0,0,0,0,0,0,0,0],"split_type":[0,0,0,0,0,0,0,0,0,0,0,0,0,0,0,0,0,0,0,0,0,0,0],"sum_hessian":[1.2850453E3,9.3860626E2,3.464391E2,8.8382996E2,5.477627E1,1.0114477E0,3.4542764E2,8.565546E2,2.7275335E1,1.9417581E2,6.6237885E2,1.7800378E2,1.6172028E1,6.065111E2,5.5867737E1,1.2866454E2,4.9339233E1,1.1701465E0,1.5001882E1,5.9522174E2,1.1289327E1,4.9811592E1,6.0561457E0],"tree_param":{"num_deleted":"0","num_feature":"702","num_nodes":"23","size_leaf_vector":"1"}},{"base_weights":[2.8884637E-3,-5.143037E-1,1.4170902E0,-6.61957E-1,1.1786215E0,1.8427728E-2,7.095615E-2,-7.303331E-1,7.267019E-2,1.2864481E0,7.96369E-2,3.8500402E-2,-9.591456E-1,1.0629648E0,7.202111E-2,-4.6367332E-2,6.1456818E-2,-6.987119E-2,1.2611665E0,-1.0224108E0,8.144538E-2,5.8873886E-1,6.579115E-2,1.1730985E-3,-5.333664E-2,7.072019E-2,3.1080673E-2,-5.3550202E-2,8.895682E-2,8.755606E-3,5.5852544E-2],"categories":[],"categories_nodes":[],"categories_segments":[],"categories_sizes":[],"default_left":[0,0,0,0,0,0,0,0,0,0,0,0,0,0,0,0,0,0,0,0,0,0,0,0,0,0,0,0,0,0,0],"id":8,"left_children":[1,3,5,7,9,-1,-1,11,-1,13,15,17,19,21,-1,-1,-1,23,25,27,-1,29,-1,-1,-1,-1,-1,-1,-1,-1,-1],"loss_changes":[9.283011E2,2.3308014E2,2.0135498E-1,1.247887E2,8.774521E0,0E0,0E0,1.459256E2,0E0,8.140259E-1,1.0121303E1,2.5417572E1,1.0631317E2,3.0165787E0,0E0,0E0,0E0,1.645088E1,6.5127754E-1,8.692212E1,0E0,2.6026292E0,0E0,0E0,0E0,0E0,0E0,0E0,0E0,0E0,0E0],"parents":[2147483647,0,0,1,1,2,2,3,3,4,4,7,7,9,9,10,10,11,11,12,12,13,13,17,17,18,18,19,19,21,21],"right_children":[2,4,6,8,10,-1,-1,12,-1,14,16,18,20,22,-1,-1,-1,24,26,28,-1,30,-1,-1,-1,-1,-1,-1,-1,-1,-1],"split_conditions":[1E0,1E0,1E0,1E0,1E2,1.8427728E-2,7.095615E-2,1E0,7.267019E-2,1E0,1E2,1E0,1E0,1E0,7.202111E-2,-4.6367332E-2,6.1456818E-2,1E0,1E0,1E0,8.144538E-2,1E2,6.579115E-2,1.1730985E-3,-5.333664E-2,7.072019E-2,3.1080673E-2,-5.3550202E-2,8.895682E-2,8.755606E-3,5.5852544E-2],"split_indices":[181,514,493,47,700,0,0,510,0,74,699,312,136,37,0,0,0,643,421,170,0,699,0,0,0,0,0,0,0,0,0],"split_type":[0,0,0,0,0,0,0,0,0,0,0,0,0,0,0,0,0,0,0,0,0,0,0,0,0,0,0,0,0,0,0],"sum_hessian":[1.2671906E3,9.2832587E2,3.3886462E2,8.544146E2,7.391125E1,1.008448E0,3.378562E2,8.282959E2,2.6118755E1,6.715206E1,6.759186E0,1.9016241E2,6.381335E2,3.0616995E1,3.6535065E1,3.705957E0,3.0532289E0,1.7554568E2,1.4616722E1,6.2349695E2,1.4636493E1,1.1805178E1,1.8811817E1,1.6140984E2,1.4135853E1,1.0814106E1,3.8026168E0,6.134739E2,1.0023079E1,7.3680387E0,4.437139E0],"tree_param":{"num_deleted":"0","num_feature":"702","num_nodes":"31","size_leaf_vector":"1"}},{"base_weights":[3.3359444E-3,-4.9368256E-1,1.379632E0,-6.356061E-1,1.1390729E0,1.799345E-2,6.908214E-2,-7.0107543E-1,7.088628E-2,1.2441591E0,7.79554E-2,3.693848E-2,-9.231132E-1,1.0180693E0,7.022568E-2,-4.476702E-2,5.9349764E-2,-6.6732846E-2,1.226191E0,-9.841165E-1,7.8678206E-2,5.6428105E-1,6.307822E-2,1.1349003E-3,-5.1443733E-2,6.8887435E-2,3.0060261E-2,-5.185589E-2,7.762165E-2,8.367734E-3,5.3582024E-2],"categories":[],"categories_nodes":[],"categories_segments":[],"categories_sizes":[],"default_left":[0,0,0,0,0,0,0,0,0,0,0,0,0,0,0,0,0,0,0,0,0,0,0,0,0,0,0,0,0,0,0],"id":9,"left_children":[1,3,5,7,9,-1,-1,11,-1,13,15,17,19,21,-1,-1,-1,23,25,27,-1,29,-1,-1,-1,-1,-1,-1,-1,-1,-1],"loss_changes":[8.5573016E2,2.1370045E2,1.8328857E-1,1.1475235E2,8.138916E0,0E0,0E0,1.3452759E2,0E0,1.0041046E0,9.398321E0,2.3603556E1,9.7648254E1,2.76791E0,0E0,0E0,0E0,1.5204509E1,6.2558365E-1,8.449689E1,0E0,2.3997154E0,0E0,0E0,0E0,0E0,0E0,0E0,0E0,0E0,0E0],"parents":[2147483647,0,0,1,1,2,2,3,3,4,4,7,7,9,9,10,10,11,11,12,12,13,13,17,17,18,18,19,19,21,21],"right_children":[2,4,6,8,10,-1,-1,12,-1,14,16,18,20,22,-1,-1,-1,24,26,28,-1,30,-1,-1,-1,-1,-1,-1,-1,-1,-1],"split_conditions":[1E0,1E0,1E0,1E0,1E2,1.799345E-2,6.908214E-2,1E0,7.088628E-2,1E0,1E2,1E0,1E0,1E0,7.022568E-2,-4.476702E-2,5.9349764E-2,1E0,1E0,1E0,7.8678206E-2,1E2,6.307822E-2,1.1349003E-3,-5.1443733E-2,6.8887435E-2,3.0060261E-2,-5.185589E-2,7.762165E-2,8.367734E-3,5.3582024E-2],"split_indices":[181,514,493,47,700,0,0,510,0,74,699,312,136,37,0,0,0,373,421,146,0,699,0,0,0,0,0,0,0,0,0],"split_type":[0,0,0,0,0,0,0,0,0,0,0,0,0,0,0,0,0,0,0,0,0,0,0,0,0,0,0,0,0,0,0],"sum_hessian":[1.2489902E3,9.1808545E2,3.3090472E2,8.4522675E2,7.28587E1,1.0053613E0,3.2989935E2,8.197481E2,2.5478636E1,6.6136475E1,6.7222285E0,1.897816E2,6.2996655E2,3.049263E1,3.5643845E1,3.6828446E0,3.039384E0,1.7543242E2,1.43491745E1,6.155326E2,1.4433962E1,1.1806652E1,1.8685978E1,1.6140616E2,1.4026256E1,1.0579276E1,3.769898E0,6.035133E2,1.2019297E1,7.370381E0,4.436271E0],"tree_param":{"num_deleted":"0","num_feature":"702","num_nodes":"31","size_leaf_vector":"1"}},{"base_weights":[3.762203E-3,-4.7431603E-1,1.34521E0,-5.8957744E-1,7.10289E-2,1.7570829E-2,6.7360386E-2,-1.5043484E-1,-8.725737E-1,-2.2768395E-1,6.7722216E-2,-1.033422E0,3.1185818E-1,-2.7840212E-1,9.2716746E-2,-1.0734178E0,9.542918E-2,6.3047074E-2,8.418279E-2,5.3982215E-4,-3.3080023E-2,-5.5607E-2,6.290008E-2,-1.6968345E-2,3.8575865E-2],"categories":[],"categories_nodes":[],"categories_segments":[],"categories_sizes":[],"default_left":[0,0,0,0,0,0,0,0,0,0,0,0,0,0,0,0,0,0,0,0,0,0,0,0,0],"id":10,"left_children":[1,3,5,7,-1,-1,-1,9,11,13,-1,15,17,19,-1,21,-1,23,-1,-1,-1,-1,-1,-1,-1],"loss_changes":[7.899722E2,1.9918481E2,1.6912842E-1,1.0634607E2,0E0,0E0,0E0,3.948132E1,9.9544464E1,3.4452026E1,0E0,5.603174E1,2.1410294E1,3.487124E1,0E0,4.23183E1,0E0,1.5771102E1,0E0,0E0,0E0,0E0,0E0,0E0,0E0],"parents":[2147483647,0,0,1,1,2,2,3,3,7,7,8,8,9,9,11,11,12,12,13,13,15,15,17,17],"right_children":[2,4,6,8,-1,-1,-1,10,12,14,-1,16,18,20,-1,22,-1,24,-1,-1,-1,-1,-1,-1,-1],"split_conditions":[1E0,1E0,1E0,1E0,7.10289E-2,1.7570829E-2,6.7360386E-2,1E0,1E0,1E0,6.7722216E-2,1E0,1E0,1E0,9.2716746E-2,1E0,9.542918E-2,1E0,8.418279E-2,5.3982215E-4,-3.3080023E-2,-5.5607E-2,6.290008E-2,-1.6968345E-2,3.8575865E-2],"split_indices":[181,74,493,418,0,0,0,47,603,91,0,81,170,268,0,47,0,604,0,0,0,0,0,0,0],"split_type":[0,0,0,0,0,0,0,0,0,0,0,0,0,0,0,0,0,0,0,0,0,0,0,0,0],"sum_hessian":[1.2298019E3,9.071495E2,3.2265237E2,8.5578326E2,5.1366188E1,1.0021987E0,3.2165018E2,3.3596985E2,5.198135E2,3.2037302E2,1.5596825E1,4.5777426E2,6.2039204E1,3.1359998E2,6.7730436E0,4.5226102E2,5.5132294E0,5.3399734E1,8.639469E0,1.7927414E2,1.3432582E2,4.4538666E2,6.8743625E0,3.4388126E1,1.901161E1],"tree_param":{"num_deleted":"0","num_feature":"702","num_nodes":"25","size_leaf_vector":"1"}},{"base_weights":[4.1446374E-3,-4.555974E-1,1.3134325E0,-5.659849E-1,6.9407925E-2,1.9346232E-2,6.577797E-2,-1.4321786E-1,-8.411632E-1,-2.1695128E-1,6.625437E-2,-9.979403E-1,2.9910946E-1,-2.6562864E-1,8.8526174E-2,-1.0371349E0,9.037038E-2,6.050028E-2,8.094915E-2,3.6882553E-3,-2.8372232E-2,-5.367885E-2,6.814372E-2,-1.6183546E-2,3.6908634E-2],"categories":[],"categories_nodes":[],"categories_segments":[],"categories_sizes":[],"default_left":[0,0,0,0,0,0,0,0,0,0,0,0,0,0,0,0,0,0,0,0,0,0,0,0,0],"id":11,"left_children":[1,3,5,7,-1,-1,-1,9,11,13,-1,15,17,19,-1,21,-1,23,-1,-1,-1,-1,-1,-1,-1],"loss_changes":[7.300324E2,1.8347757E2,1.1206055E-1,9.848987E1,0E0,0E0,0E0,3.6598957E1,9.204813E1,3.1450188E1,0E0,5.1510895E1,1.9681389E1,3.214853E1,0E0,4.0457214E1,0E0,1.435674E1,0E0,0E0,0E0,0E0,0E0,0E0,0E0],"parents":[2147483647,0,0,1,1,2,2,3,3,7,7,8,8,9,9,11,11,12,12,13,13,15,15,17,17],"right_children":[2,4,6,8,-1,-1,-1,10,12,14,-1,16,18,20,-1,22,-1,24,-1,-1,-1,-1,-1,-1,-1],"split_conditions":[1E0,1E0,1E0,1E0,6.9407925E-2,1.9346232E-2,6.577797E-2,1E0,1E0,1E0,6.625437E-2,1E0,1E0,1E0,8.8526174E-2,1E0,9.037038E-2,1E0,8.094915E-2,3.6882553E-3,-2.8372232E-2,-5.367885E-2,6.814372E-2,-1.6183546E-2,3.6908634E-2],"split_indices":[181,74,219,418,0,0,0,47,603,91,0,81,170,442,0,312,0,604,0,0,0,0,0,0,0],"split_type":[0,0,0,0,0,0,0,0,0,0,0,0,0,0,0,0,0,0,0,0,0,0,0,0,0],"sum_hessian":[1.2108158E3,8.966271E2,3.1418872E2,8.466314E2,4.999564E1,1.1385539E0,3.1305017E2,3.344001E2,5.122313E2,3.1922205E2,1.5178032E1,4.504266E2,6.1804718E1,3.124362E2,6.785858E0,4.4484186E2,5.5847507E0,5.3227913E1,8.576804E0,1.4741869E2,1.6501752E2,4.3873273E2,6.1091285E0,3.430363E1,1.8924284E1],"tree_param":{"num_deleted":"0","num_feature":"702","num_nodes":"25","size_leaf_vector":"1"}},{"base_weights":[4.528537E-3,-4.3775743E-1,1.2839608E0,-5.6601655E-1,1.0586563E0,1.8882902E-2,6.4304285E-2,-6.254583E-1,6.744411E-2,1.1560153E0,1.0181315E-1,4.0275127E-2,-8.337317E-1,9.4946235E-1,6.5585606E-2,-4.2368658E-2,5.880026E-2,-5.8121484E-2,1.1895847E0,-8.906253E-1,7.5518236E-2,5.524146E-1,5.8189362E-2,1.2354322E-3,-4.814167E-2,6.704923E-2,2.8784687E-2,-4.7201376E-2,7.7568494E-2,9.005541E-3,5.1131915E-2],"categories":[],"categories_nodes":[],"categories_segments":[],"categories_sizes":[],"default_left":[0,0,0,0,0,0,0,0,0,0,0,0,0,0,0,0,0,0,0,0,0,0,0,0,0,0,0,0,0,0,0],"id":12,"left_children":[1,3,5,7,9,-1,-1,11,-1,13,15,17,19,21,-1,-1,-1,23,25,27,-1,29,-1,-1,-1,-1,-1,-1,-1,-1,-1],"loss_changes":[6.753596E2,1.7082045E2,1.0470581E-1,9.389935E1,6.437233E0,0E0,0E0,1.1007028E2,0E0,8.0537415E-1,8.740376E0,2.156351E1,8.1968506E1,1.9976196E0,0E0,0E0,0E0,1.3215148E1,6.254635E-1,7.851489E1,0E0,2.053387E0,0E0,0E0,0E0,0E0,0E0,0E0,0E0,0E0,0E0],"parents":[2147483647,0,0,1,1,2,2,3,3,4,4,7,7,9,9,10,10,11,11,12,12,13,13,17,17,18,18,19,19,21,21],"right_children":[2,4,6,8,10,-1,-1,12,-1,14,16,18,20,22,-1,-1,-1,24,26,28,-1,30,-1,-1,-1,-1,-1,-1,-1,-1,-1],"split_conditions":[1E0,1E0,1E0,1E0,1E2,1.8882902E-2,6.4304285E-2,1E0,6.744411E-2,1E0,1E2,1E0,1E0,1E0,6.5585606E-2,-4.2368658E-2,5.880026E-2,1E0,1E0,1E0,7.5518236E-2,1E2,5.8189362E-2,1.2354322E-3,-4.814167E-2,6.704923E-2,2.8784687E-2,-4.7201376E-2,7.7568494E-2,9.005541E-3,5.1131915E-2],"split_indices":[181,514,219,47,700,0,0,510,0,74,699,312,136,37,0,0,0,373,421,146,0,699,0,0,0,0,0,0,0,0,0],"split_type":[0,0,0,0,0,0,0,0,0,0,0,0,0,0,0,0,0,0,0,0,0,0,0,0,0,0,0,0,0,0,0],"sum_hessian":[1.1914854E3,8.858979E2,3.0558752E2,8.165337E2,6.936418E1,1.1328487E0,3.0445468E2,7.9260333E2,2.3930391E1,6.276924E1,6.5949364E0,1.8906737E2,6.0353595E2,3.0029356E1,3.2739887E1,3.6132874E0,2.981649E0,1.750317E2,1.4035676E1,5.8983997E2,1.3695953E1,1.178132E1,1.8248035E1,1.61242E2,1.3789686E1,1.0308869E1,3.726807E0,5.778175E2,1.202247E1,7.3471675E0,4.4341526E0],"tree_param":{"num_deleted":"0","num_feature":"702","num_nodes":"31","size_leaf_vector":"1"}},{"base_weights":[4.937372E-3,-4.2106488E-1,1.2565197E0,-5.236487E-1,6.708504E-2,1.8432146E-2,6.2932484E-2,-5.7984775E-1,6.621724E-2,4.6544787E-2,-7.7654845E-1,-5.5694006E-2,1.1848657E0,-8.973368E-1,4.5989978E-1,5.15568E-3,-2.350966E-2,1.6570684E-2,6.1331034E-2,-4.730334E-2,8.426972E-2,1.3821708E-2,8.517377E-2],"categories":[],"categories_nodes":[],"categories_segments":[],"categories_sizes":[],"default_left":[0,0,0,0,0,0,0,0,0,0,0,0,0,0,0,0,0,0,0,0,0,0,0],"id":13,"left_children":[1,3,5,7,-1,-1,-1,9,-1,11,13,15,17,19,21,-1,-1,-1,-1,-1,-1,-1,-1],"loss_changes":[6.254963E2,1.5897523E2,9.939575E-2,8.67433E1,0E0,0E0,0E0,9.911075E1,0E0,2.2539675E1,9.181317E1,1.1775041E1,1.6220474E-1,7.180597E1,1.2106305E1,0E0,0E0,0E0,0E0,0E0,0E0,0E0,0E0],"parents":[2147483647,0,0,1,1,2,2,3,3,7,7,9,9,10,10,11,11,12,12,13,13,14,14],"right_children":[2,4,6,8,-1,-1,-1,10,-1,12,14,16,18,20,22,-1,-1,-1,-1,-1,-1,-1,-1],"split_conditions":[1E0,1E0,1E0,1E0,6.708504E-2,1.8432146E-2,6.2932484E-2,1E0,6.621724E-2,1E0,1E0,1E0,1E0,1E0,1E0,5.15568E-3,-2.350966E-2,1.6570684E-2,6.1331034E-2,-4.730334E-2,8.426972E-2,1.3821708E-2,8.517377E-2],"split_indices":[181,74,219,47,0,0,0,268,0,312,617,632,433,170,91,0,0,0,0,0,0,0,0],"split_type":[0,0,0,0,0,0,0,0,0,0,0,0,0,0,0,0,0,0,0,0,0,0,0],"sum_hessian":[1.1711572E3,8.742511E2,2.969061E2,8.268365E2,4.7414635E1,1.1271253E0,2.9577896E2,8.0309973E2,2.373672E1,1.9210513E2,6.109946E2,1.7714578E2,1.49593525E1,5.568685E2,5.4126087E1,1.2861905E2,4.852674E1,1.1145967E0,1.3844756E1,5.471782E2,9.690272E0,4.8232586E1,5.8935E0],"tree_param":{"num_deleted":"0","num_feature":"702","num_nodes":"23","size_leaf_vector":"1"}},{"base_weights":[5.2541364E-3,-4.052772E-1,1.2308667E0,-5.259368E-1,1.0163468E0,1.7775232E-2,6.1651E-2,-1.3458152E-1,-7.921069E-1,1.1101264E0,1.0911855E-1,-1.9965251E-1,6.232155E-2,-8.568708E-1,7.271112E-2,9.1745764E-1,6.306394E-2,-4.0278208E-2,5.6983966E-2,-2.3975332E-1,7.4532494E-2,-9.145255E-1,8.162999E-2,5.4675364E-1,5.590683E-2,2.8102363E-3,-2.5660738E-2,-4.752523E-2,9.6886344E-2,9.418416E-3,4.9817126E-2],"categories":[],"categories_nodes":[],"categories_segments":[],"categories_sizes":[],"default_left":[0,0,0,0,0,0,0,0,0,0,0,0,0,0,0,0,0,0,0,0,0,0,0,0,0,0,0,0,0,0,0],"id":14,"left_children":[1,3,5,7,9,-1,-1,11,13,15,17,19,-1,21,-1,23,-1,-1,-1,25,-1,27,-1,29,-1,-1,-1,-1,-1,-1,-1],"loss_changes":[5.7992255E2,1.4863405E2,1.06781006E-1,8.286275E1,5.654724E0,0E0,0E0,2.9331808E1,7.018494E1,6.31485E-1,7.958713E0,2.13654E1,0E0,6.769174E1,0E0,1.6702423E0,0E0,0E0,0E0,2.4601076E1,0E0,4.8167145E1,0E0,1.863224E0,0E0,0E0,0E0,0E0,0E0,0E0,0E0],"parents":[2147483647,0,0,1,1,2,2,3,3,4,4,7,7,8,8,9,9,10,10,11,11,13,13,15,15,19,19,21,21,23,23],"right_children":[2,4,6,8,10,-1,-1,12,14,16,18,20,-1,22,-1,24,-1,-1,-1,26,-1,28,-1,30,-1,-1,-1,-1,-1,-1,-1],"split_conditions":[1E0,1E0,1E0,1E0,1E2,1.7775232E-2,6.1651E-2,1E0,1E0,1E0,1E2,1E0,6.232155E-2,1E0,7.271112E-2,1E0,6.306394E-2,-4.0278208E-2,5.6983966E-2,1E0,7.4532494E-2,1E0,8.162999E-2,1E2,5.590683E-2,2.8102363E-3,-2.5660738E-2,-4.752523E-2,9.6886344E-2,9.418416E-3,4.9817126E-2],"split_indices":[181,514,492,418,700,0,0,47,136,74,699,146,0,170,0,37,0,0,0,442,0,81,0,699,0,0,0,0,0,0,0],"split_type":[0,0,0,0,0,0,0,0,0,0,0,0,0,0,0,0,0,0,0,0,0,0,0,0,0,0,0,0,0,0,0],"sum_hessian":[1.1505872E3,8.6239014E2,2.88197E2,7.955024E2,6.688779E1,1.1147642E0,2.870822E2,3.2263354E2,4.728688E2,6.0418705E1,6.469084E0,3.089326E2,1.37009535E1,4.602188E2,1.2649998E1,2.9669624E1,3.0749079E1,3.5428886E0,2.9261954E0,3.0261157E2,6.3210144E0,4.5041995E2,9.798839E0,1.1728564E1,1.7941061E1,1.4570955E2,1.5690204E2,4.4546747E2,4.952493E0,7.3158135E0,4.4127502E0],"tree_param":{"num_deleted":"0","num_feature":"702","num_nodes":"31","size_leaf_vector":"1"}},{"base_weights":[5.7248143E-3,-3.894009E-1,1.2067908E0,-4.8488638E-1,6.511772E-2,1.6914584E-2,6.0450584E-2,-5.7812953E-1,5.606874E-1,5.0597027E-2,-7.96399E-1,2.282684E-1,8.831831E-1,-4.782874E-2,1.161079E0,-8.438439E-1,7.428133E-2,-7.5945385E-2,8.893289E-2,9.761562E-1,-2.0141358E-2,1.462161E-3,-4.3030668E-2,1.6690802E-2,6.0076136E-2,-4.4493046E-2,7.830275E-2,-1.40656335E-2,5.2966792E-2,5.5451043E-2,6.1852033E-3],"categories":[],"categories_nodes":[],"categories_segments":[],"categories_sizes":[],"default_left":[0,0,0,0,0,0,0,0,0,0,0,0,0,0,0,0,0,0,0,0,0,0,0,0,0,0,0,0,0,0,0],"id":15,"left_children":[1,3,5,7,-1,-1,-1,9,11,13,15,17,19,21,23,25,-1,27,-1,29,-1,-1,-1,-1,-1,-1,-1,-1,-1,-1,-1],"loss_changes":[5.377678E2,1.3836984E2,1.3208008E-1,7.908275E1,0E0,0E0,0E0,1.01892456E2,6.9436836E0,2.1063171E1,6.0909424E1,1.6251043E1,4.396492E0,1.1145129E1,1.2379646E-1,6.132248E1,0E0,7.1814055E0,0E0,3.4324398E0,0E0,0E0,0E0,0E0,0E0,0E0,0E0,0E0,0E0,0E0,0E0],"parents":[2147483647,0,0,1,1,2,2,3,3,7,7,8,8,9,9,10,10,11,11,12,12,13,13,14,14,15,15,17,17,19,19],"right_children":[2,4,6,8,-1,-1,-1,10,12,14,16,18,20,22,24,26,-1,28,-1,30,-1,-1,-1,-1,-1,-1,-1,-1,-1,-1,-1],"split_conditions":[1E0,1E0,1E0,1E0,6.511772E-2,1.6914584E-2,6.0450584E-2,1E0,1E0,1E0,1E0,1E0,1E0,1E0,1E0,1E0,7.428133E-2,1E0,8.893289E-2,1E0,-2.0141358E-2,1.462161E-3,-4.3030668E-2,1.6690802E-2,6.0076136E-2,-4.4493046E-2,7.830275E-2,-1.40656335E-2,5.2966792E-2,5.5451043E-2,6.1852033E-3],"split_indices":[181,74,219,604,0,0,0,268,617,312,146,331,314,373,433,170,0,47,0,347,0,0,0,0,0,0,0,0,0,0,0],"split_type":[0,0,0,0,0,0,0,0,0,0,0,0,0,0,0,0,0,0,0,0,0,0,0,0,0,0,0,0,0,0,0],"sum_hessian":[1.1311735E3,8.5166815E2,2.7950534E2,8.0684204E2,4.482613E1,1.1039879E0,2.7840134E2,7.4119055E2,6.56515E1,1.9120155E2,5.49989E2,3.3169342E1,3.2482155E1,1.765135E2,1.4688058E1,5.394046E2,1.0584362E1,2.8523535E1,4.6458063E0,3.051686E1,1.9652964E0,1.621059E2,1.4407602E1,1.1159289E0,1.3572129E1,5.299166E2,9.488016E0,2.4791138E1,3.7323966E0,2.614143E1,4.375428E0],"tree_param":{"num_deleted":"0","num_feature":"702","num_nodes":"31","size_leaf_vector":"1"}},{"base_weights":[6.0704453E-3,-3.7459666E-1,1.1841083E0,-4.8743314E-1,9.730747E-1,1.6308658E-2,5.9318136E-2,-5.417939E-1,6.474011E-2,1.0644896E0,1.077506E-1,4.0113132E-2,-7.3423946E-1,1.0217976E-2,1.0811086E0,-3.855607E-2,5.473562E-2,-4.6804324E-2,1.1089624E0,-7.86462E-1,7.195368E-2,9.050096E-1,6.0853668E-2,1.3411416E-3,-4.362425E-2,6.327657E-2,2.5261823E-2,-4.1909542E-2,7.368119E-2,3.3866387E-2,6.469183E-2],"categories":[],"categories_nodes":[],"categories_segments":[],"categories_sizes":[],"default_left":[0,0,0,0,0,0,0,0,0,0,0,0,0,0,0,0,0,0,0,0,0,0,0,0,0,0,0,0,0,0,0],"id":16,"left_children":[1,3,5,7,9,-1,-1,11,-1,13,15,17,19,-1,21,-1,-1,23,25,27,-1,29,-1,-1,-1,-1,-1,-1,-1,-1,-1],"loss_changes":[4.9921362E2,1.2841742E2,1.388855E-1,7.598273E1,5.0536156E0,0E0,0E0,8.45486E1,0E0,6.2216187E-1,7.224315E0,1.7565525E1,6.550836E1,0E0,2.7837372E-1,0E0,0E0,1.0680342E1,7.04525E-1,6.6068695E1,0E0,1.6917839E0,0E0,0E0,0E0,0E0,0E0,0E0,0E0,0E0,0E0],"parents":[2147483647,0,0,1,1,2,2,3,3,4,4,7,7,9,9,10,10,11,11,12,12,14,14,17,17,18,18,19,19,21,21],"right_children":[2,4,6,8,10,-1,-1,12,-1,14,16,18,20,-1,22,-1,-1,24,26,28,-1,30,-1,-1,-1,-1,-1,-1,-1,-1,-1],"split_conditions":[1E0,1E0,1E0,1E0,1E2,1.6308658E-2,5.9318136E-2,1E0,6.474011E-2,1E0,1E2,1E0,1E0,1.0217976E-2,1E0,-3.855607E-2,5.473562E-2,1E0,1E0,1E0,7.195368E-2,1E2,6.0853668E-2,1.3411416E-3,-4.362425E-2,6.327657E-2,2.5261823E-2,-4.1909542E-2,7.368119E-2,3.3866387E-2,6.469183E-2],"split_indices":[181,514,492,47,700,0,0,510,0,219,699,312,136,0,74,0,0,643,421,146,0,699,0,0,0,0,0,0,0,0,0],"split_type":[0,0,0,0,0,0,0,0,0,0,0,0,0,0,0,0,0,0,0,0,0,0,0,0,0,0,0,0,0,0,0],"sum_hessian":[1.111233E3,8.4036304E2,2.7087003E2,7.76027E2,6.433609E1,1.0917723E0,2.6977826E2,7.5373303E2,2.229395E1,5.7980705E1,6.355387E0,1.8751784E2,5.6621515E2,1.351074E0,5.662963E1,3.477461E0,2.8779259E0,1.7430019E2,1.3217657E1,5.53552E2,1.2663164E1,2.8009066E1,2.8620564E1,1.6091838E2,1.3381813E1,9.625263E0,3.592394E0,5.417809E2,1.1771144E1,1.9394423E1,8.614644E0],"tree_param":{"num_deleted":"0","num_feature":"702","num_nodes":"31","size_leaf_vector":"1"}},{"base_weights":[6.443145E-3,-3.6052936E-1,1.1626611E0,-4.4954804E-1,6.344528E-2,1.5500753E-2,5.8249623E-2,-5.388435E-1,5.4720205E-1,4.6573434E-2,-7.4788964E-1,4.0264544E-1,6.260778E-2,-4.381346E-2,1.1082871E0,-7.920735E-1,7.710456E-2,-5.396613E-2,8.5398775E-1,1.3441694E-3,-4.0190585E-2,6.2180918E-2,3.1680454E-2,-4.218114E-2,6.2667124E-2,-9.482376E-3,4.742867E-2,4.795831E-2,-1.8555883E-2],"categories":[],"categories_nodes":[],"categories_segments":[],"categories_sizes":[],"default_left":[0,0,0,0,0,0,0,0,0,0,0,0,0,0,0,0,0,0,0,0,0,0,0,0,0,0,0,0,0],"id":17,"left_children":[1,3,5,7,-1,-1,-1,9,11,13,15,17,-1,19,21,23,-1,25,27,-1,-1,-1,-1,-1,-1,-1,-1,-1,-1],"loss_changes":[4.63752E2,1.2091409E2,1.6229248E-1,7.038022E1,0E0,0E0,0E0,8.8538284E1,6.1440697E0,1.8400291E1,5.5146088E1,1.1507009E1,0E0,9.542072E0,1.7825127E-1,5.6258118E1,0E0,4.068206E0,3.967331E0,0E0,0E0,0E0,0E0,0E0,0E0,0E0,0E0,0E0,0E0],"parents":[2147483647,0,0,1,1,2,2,3,3,7,7,8,8,9,9,10,10,11,11,13,13,14,14,15,15,17,17,18,18],"right_children":[2,4,6,8,-1,-1,-1,10,12,14,16,18,-1,20,22,24,-1,26,28,-1,-1,-1,-1,-1,-1,-1,-1,-1,-1],"split_conditions":[1E0,1E0,1E0,1E0,6.344528E-2,1.5500753E-2,5.8249623E-2,1E0,1E0,1E0,1E0,1E2,6.260778E-2,1E0,1E0,1E0,7.710456E-2,1E0,1E0,1.3441694E-3,-4.0190585E-2,6.2180918E-2,3.1680454E-2,-4.218114E-2,6.2667124E-2,-9.482376E-3,4.742867E-2,4.795831E-2,-1.8555883E-2],"split_indices":[181,74,219,604,0,0,0,268,81,312,170,699,0,373,421,47,0,47,607,0,0,0,0,0,0,0,0,0,0],"split_type":[0,0,0,0,0,0,0,0,0,0,0,0,0,0,0,0,0,0,0,0,0,0,0,0,0,0,0,0,0],"sum_hessian":[1.0909929E3,8.286694E2,2.6232355E2,7.8642957E2,4.2239822E1,1.0806156E0,2.6124292E2,7.2219037E2,6.423918E1,1.9023363E2,5.319567E2,5.461175E1,9.627432E0,1.7619255E2,1.4041072E1,5.22529E2,9.427778E0,2.7585068E1,2.7026682E1,1.6208011E2,1.4112451E1,9.665505E0,4.375567E0,5.1025687E2,1.2272124E1,2.5010973E1,2.5740948E0,2.5089739E1,1.9369435E0],"tree_param":{"num_deleted":"0","num_feature":"702","num_nodes":"29","size_leaf_vector":"1"}},{"base_weights":[6.753771E-3,-3.4703034E-1,1.1423079E0,-4.729513E-1,7.5332797E-1,1.4940209E-2,5.7234105E-2,4.9321942E-2,-6.5345216E-1,6.0021466E-1,1.3560601E0,-3.7433527E-2,1.0835123E0,-7.8297234E-1,4.4028893E-1,3.3210146E-1,5.8743756E-2,7.6762155E-2,-3.015454E-2,3.1166406E-2,-7.769725E-1,6.0995307E-2,6.1387867E-1,-8.382025E-1,6.1125E-2,5.4936075E-1,-5.5040956E-2,9.791615E-2,5.9748422E-2,-1.8999586E-3,7.256916E-2,-4.898696E-2,4.3015312E-2,-4.0242397E-3,5.178408E-2,-4.4548187E-2,6.994905E-2,1.1974939E-2,7.770197E-2,-1.9345768E-3,7.9638295E-2],"categories":[],"categories_nodes":[],"categories_segments":[],"categories_sizes":[],"default_left":[0,0,0,0,0,0,0,0,0,0,0,0,0,0,0,0,0,0,0,0,0,0,0,0,0,0,0,0,0,0,0,0,0,0,0,0,0,0,0,0,0],"id":18,"left_children":[1,3,5,7,9,-1,-1,11,13,15,17,19,21,23,25,27,-1,-1,-1,29,31,-1,33,35,-1,37,-1,39,-1,-1,-1,-1,-1,-1,-1,-1,-1,-1,-1,-1,-1],"loss_changes":[4.3108508E2,1.1371927E2,1.6842651E-1,6.9298904E1,6.9749374E0,0E0,0E0,1.7055975E1,7.770833E1,1.0255747E1,6.648924E0,8.949835E0,1.934452E-1,5.514914E1,1.0431947E1,9.685146E0,0E0,0E0,0E0,1.5964747E1,5.8137274E0,0E0,1.642633E0,5.7449432E1,0E0,1.6832836E1,0E0,8.075311E0,0E0,0E0,0E0,0E0,0E0,0E0,0E0,0E0,0E0,0E0,0E0,0E0,0E0],"parents":[2147483647,0,0,1,1,2,2,3,3,4,4,7,7,8,8,9,9,10,10,11,11,12,12,13,13,14,14,15,15,19,19,20,20,22,22,23,23,25,25,27,27],"right_children":[2,4,6,8,10,-1,-1,12,14,16,18,20,22,24,26,28,-1,-1,-1,30,32,-1,34,36,-1,38,-1,40,-1,-1,-1,-1,-1,-1,-1,-1,-1,-1,-1,-1,-1],"split_conditions":[1E0,1E0,1E0,1E0,1E0,1.4940209E-2,5.7234105E-2,1E0,1E0,1E0,1E0,1E0,1E0,1E0,1E0,1E0,5.8743756E-2,7.6762155E-2,-3.015454E-2,1E0,1E0,6.0995307E-2,1E0,1E0,6.1125E-2,1E2,-5.5040956E-2,1E0,5.9748422E-2,-1.8999586E-3,7.256916E-2,-4.898696E-2,4.3015312E-2,-4.0242397E-3,5.178408E-2,-4.4548187E-2,6.994905E-2,1.1974939E-2,7.770197E-2,-1.9345768E-3,7.9638295E-2],"split_indices":[181,617,492,510,404,0,0,312,603,74,286,643,421,47,292,81,0,0,0,528,319,0,418,146,0,699,0,91,0,0,0,0,0,0,0,0,0,0,0,0,0],"split_type":[0,0,0,0,0,0,0,0,0,0,0,0,0,0,0,0,0,0,0,0,0,0,0,0,0,0,0,0,0,0,0,0,0,0,0,0,0,0,0,0,0],"sum_hessian":[1.0710555E3,8.171616E2,2.538939E2,7.337627E2,8.339892E1,1.06867E0,2.5282523E2,1.8864665E2,5.45116E2,6.809614E1,1.5302785E1,1.7493558E2,1.3711075E1,4.8765265E2,5.746341E1,4.750851E1,2.0587624E1,1.4218721E1,1.0840632E0,1.609625E2,1.397309E1,9.387215E0,4.3238597E0,4.751492E2,1.2503434E1,5.4266247E1,3.197161E0,3.824276E1,9.265751E0,1.5441559E2,6.5469055E0,1.2790652E1,1.1824374E0,1.9397957E0,2.3840637E0,4.6478946E2,1.0359742E1,4.2421146E1,1.1845102E1,3.593311E1,2.3096507E0],"tree_param":{"num_deleted":"0","num_feature":"702","num_nodes":"41","size_leaf_vector":"1"}},{"base_weights":[7.207999E-3,-3.3393705E-1,1.1229262E0,-4.1753706E-1,6.1934616E-2,1.4179798E-2,5.6269266E-2,-7.4536376E-2,-6.5754515E-1,-1.372141E-1,1.3215356E0,-7.986513E-1,2.955357E-1,-1.7822619E-1,5.6937605E-2,7.811295E-2,-2.6855016E-2,-8.3891666E-1,8.693134E-2,8.977746E-2,7.074635E-2,4.189463E-3,-1.9004023E-2,-4.3706175E-2,5.7772633E-2,-3.7761626E-3,6.2874906E-2],"categories":[],"categories_nodes":[],"categories_segments":[],"categories_sizes":[],"default_left":[0,0,0,0,0,0,0,0,0,0,0,0,0,0,0,0,0,0,0,0,0,0,0,0,0,0,0],"id":19,"left_children":[1,3,5,7,-1,-1,-1,9,11,13,15,17,19,21,-1,-1,-1,23,-1,25,-1,-1,-1,-1,-1,-1,-1],"loss_changes":[4.0084482E2,1.0655477E2,1.8984985E-1,6.305803E1,0E0,0E0,0E0,2.7893986E1,6.0871857E1,1.6111538E1,6.9695606E0,4.160907E1,1.3433138E1,1.5655364E1,0E0,0E0,0E0,2.8220795E1,0E0,9.900749E0,0E0,0E0,0E0,0E0,0E0,0E0,0E0],"parents":[2147483647,0,0,1,1,2,2,3,3,7,7,8,8,9,9,10,10,11,11,12,12,13,13,17,17,19,19],"right_children":[2,4,6,8,-1,-1,-1,10,12,14,16,18,20,22,-1,-1,-1,24,-1,26,-1,-1,-1,-1,-1,-1,-1],"split_conditions":[1E0,1E0,1E0,1E0,6.1934616E-2,1.4179798E-2,5.6269266E-2,1E0,1E0,1E0,1E0,1E0,1E0,1E0,5.6937605E-2,7.811295E-2,-2.6855016E-2,1E0,8.693134E-2,1E0,7.074635E-2,4.189463E-3,-1.9004023E-2,-4.3706175E-2,5.7772633E-2,-3.7761626E-3,6.2874906E-2],"split_indices":[181,74,219,418,0,0,0,404,603,47,286,81,170,632,0,0,0,47,0,136,0,0,0,0,0,0,0],"split_type":[0,0,0,0,0,0,0,0,0,0,0,0,0,0,0,0,0,0,0,0,0,0,0,0,0,0,0],"sum_hessian":[1.0511465E3,8.055423E2,2.4560413E2,7.655791E2,3.9963215E1,1.0572987E0,2.4454683E2,3.1570663E2,4.498725E2,3.030047E2,1.2701913E1,3.9199817E2,5.787432E1,2.9440234E2,8.602359E0,1.13866205E1,1.3152921E0,3.8653342E2,5.4647408E0,4.9800552E1,8.073769E0,1.2836458E2,1.6603778E2,3.8038025E2,6.1531863E0,4.4444397E1,5.356155E0],"tree_param":{"num_deleted":"0","num_feature":"702","num_nodes":"27","size_leaf_vector":"1"}},{"base_weights":[7.534416E-3,-3.211026E-1,1.1044052E0,-4.2229718E-1,9.0939236E-1,1.3660133E-2,5.5345774E-2,-8.8577345E-2,-6.6408706E-1,9.9714184E-1,1.1452665E-1,-1.3905452E-1,1.2214856E0,-7.223563E-1,6.819239E-2,1.04303425E-2,1.0128846E0,-3.6369372E-2,5.289199E-2,-1.7945325E-1,5.61334E-2,7.465642E-2,-2.6215484E-2,-7.763928E-1,7.401957E-2,9.027518E-1,6.1534055E-2,3.9821807E-3,-1.9195762E-2,-4.0627733E-2,9.089213E-2,3.1629417E-2,5.6210827E-2],"categories":[],"categories_nodes":[],"categories_segments":[],"categories_sizes":[],"default_left":[0,0,0,0,0,0,0,0,0,0,0,0,0,0,0,0,0,0,0,0,0,0,0,0,0,0,0,0,0,0,0,0,0],"id":20,"left_children":[1,3,5,7,9,-1,-1,11,13,15,17,19,21,23,-1,-1,25,-1,-1,27,-1,-1,-1,29,-1,31,-1,-1,-1,-1,-1,-1,-1],"loss_changes":[3.7287933E2,9.9496704E1,1.9519043E-1,5.9341934E1,4.126671E0,0E0,0E0,2.0698576E1,5.14093E1,4.6683884E-1,6.4675026E0,1.5483791E1,6.29331E0,5.06006E1,0E0,0E0,1.6744995E-1,0E0,0E0,1.5466478E1,0E0,0E0,0E0,3.9580383E1,0E0,1.6313324E0,0E0,0E0,0E0,0E0,0E0,0E0,0E0],"parents":[2147483647,0,0,1,1,2,2,3,3,4,4,7,7,8,8,9,9,10,10,11,11,12,12,13,13,16,16,19,19,23,23,25,25],"right_children":[2,4,6,8,10,-1,-1,12,14,16,18,20,22,24,-1,-1,26,-1,-1,28,-1,-1,-1,30,-1,32,-1,-1,-1,-1,-1,-1,-1],"split_conditions":[1E0,1E0,1E0,1E0,1E2,1.3660133E-2,5.5345774E-2,1E0,1E0,1E0,1E2,1E0,1E0,1E0,6.819239E-2,1.04303425E-2,1E2,-3.6369372E-2,5.289199E-2,1E0,5.61334E-2,7.465642E-2,-2.6215484E-2,1E0,7.401957E-2,1E0,6.1534055E-2,3.9821807E-3,-1.9195762E-2,-4.0627733E-2,9.089213E-2,3.1629417E-2,5.6210827E-2],"split_indices":[181,514,492,418,700,0,0,404,136,219,699,47,286,170,0,0,699,0,0,632,0,0,0,81,0,74,0,0,0,0,0,0,0],"split_type":[0,0,0,0,0,0,0,0,0,0,0,0,0,0,0,0,0,0,0,0,0,0,0,0,0,0,0,0,0,0,0,0,0],"sum_hessian":[1.032435E3,7.9496136E2,2.3747368E2,7.351594E2,5.9801918E1,1.0457144E0,2.3642796E2,3.0943787E2,4.257216E2,5.3627247E1,6.1746736E0,2.9881815E2,1.061971E1,4.1445667E2,1.1264913E1,1.3286372E0,5.2298607E1,3.3836453E0,2.791028E0,2.903784E2,8.439769E0,9.315035E0,1.3046755E0,4.0516495E2,9.291721E0,3.815152E1,1.4147087E1,1.283465E2,1.6203189E2,4.0027222E2,4.892737E0,1.8923384E1,1.9228138E1],"tree_param":{"num_deleted":"0","num_feature":"702","num_nodes":"33","size_leaf_vector":"1"}},{"base_weights":[7.927568E-3,-3.084974E-1,1.0866486E0,-3.862852E-1,6.0585957E-2,1.2942935E-2,1.0892514E0,-4.6876112E-1,5.2602977E-1,5.4625966E-2,2.205822E-2,5.259185E-2,-6.668362E-1,4.1717383E-1,1.3669254E0,-3.3805154E-2,1.085458E0,-7.1380734E-1,7.054622E-2,-2.6697379E-2,8.0734795E-1,8.1700176E-2,2.5608417E-4,-3.1901381E-3,6.8231896E-2,5.6691784E-2,1.5960557E-2,-3.7552048E-2,9.064445E-2,-9.612262E-3,4.7629256E-2,4.3845776E-2,-2.8262679E-2],"categories":[],"categories_nodes":[],"categories_segments":[],"categories_sizes":[],"default_left":[0,0,0,0,0,0,0,0,0,0,0,0,0,0,0,0,0,0,0,0,0,0,0,0,0,0,0,0,0,0,0,0,0],"id":21,"left_children":[1,3,5,7,-1,-1,9,11,13,-1,-1,15,17,19,21,23,25,27,-1,29,31,-1,-1,-1,-1,-1,-1,-1,-1,-1,-1,-1,-1],"loss_changes":[3.469263E2,9.340202E1,2.1469116E-1,5.6558136E1,0E0,0E0,4.058838E-3,7.0965805E1,5.1524544E0,0E0,0E0,1.699496E1,4.9592712E1,9.857179E0,2.438037E0,7.484433E0,1.8296051E-1,4.7223495E1,0E0,4.6471786E0,3.3847942E0,0E0,0E0,0E0,0E0,0E0,0E0,0E0,0E0,0E0,0E0,0E0,0E0],"parents":[2147483647,0,0,1,1,2,2,3,3,6,6,7,7,8,8,11,11,12,12,13,13,14,14,15,15,16,16,17,17,19,19,20,20],"right_children":[2,4,6,8,-1,-1,10,12,14,-1,-1,16,18,20,22,24,26,28,-1,30,32,-1,-1,-1,-1,-1,-1,-1,-1,-1,-1,-1,-1],"split_conditions":[1E0,1E0,1E0,1E0,6.0585957E-2,1.2942935E-2,1E0,1E0,1E0,5.4625966E-2,2.205822E-2,1E0,1E0,1E0,1E0,1E0,1E0,1E0,7.054622E-2,1E0,1E0,8.1700176E-2,2.5608417E-4,-3.1901381E-3,6.8231896E-2,5.6691784E-2,1.5960557E-2,-3.7552048E-2,9.064445E-2,-9.612262E-3,4.7629256E-2,4.3845776E-2,-2.8262679E-2],"split_indices":[181,74,219,604,0,0,447,268,331,0,0,312,146,617,617,681,659,91,0,47,286,0,0,0,0,0,0,0,0,0,0,0,0],"split_type":[0,0,0,0,0,0,0,0,0,0,0,0,0,0,0,0,0,0,0,0,0,0,0,0,0,0,0,0,0,0,0,0,0],"sum_hessian":[1.0144007E3,7.8488245E2,2.2951825E2,7.4738544E2,3.7496983E1,1.0342634E0,2.28484E2,6.8586725E2,6.151821E1,2.2665533E2,1.8286511E0,1.8903726E2,4.9683E2,5.579192E1,5.7262926E0,1.7533789E2,1.3699362E1,4.864886E2,1.0341407E1,2.6535776E1,2.9256144E1,4.620278E0,1.1060147E0,1.7259009E2,2.7478063E0,1.2434569E1,1.2647924E0,4.801163E2,6.372273E0,2.338605E1,3.1497278E0,2.8188591E1,1.0675529E0],"tree_param":{"num_deleted":"0","num_feature":"702","num_nodes":"33","size_leaf_vector":"1"}},{"base_weights":[8.342475E-3,-2.964801E-1,1.0695996E0,-4.0922955E-1,6.972176E-1,1.24581875E-2,1.0722613E0,-5.603002E-2,-6.351413E-1,6.030267E-1,7.8531355E-2,5.3778082E-2,2.1542428E-2,-1.686072E-1,9.6225125E-1,-6.9399947E-1,5.9502542E-2,3.8565466E-1,5.6291144E-2,7.99786E-2,-4.3781313E-1,1.0596261E0,2.2795495E-1,-7.437871E-1,7.277369E-2,2.708624E-1,7.804693E-2,-1.5883091E-3,8.390141E-2,-2.494769E-2,6.1740883E-2,5.6928236E-2,1.1028519E-2,-3.2530278E-2,4.4861328E-2,-3.987952E-2,5.944348E-2,3.4088516E-3,5.4673642E-2],"categories":[],"categories_nodes":[],"categories_segments":[],"categories_sizes":[],"default_left":[0,0,0,0,0,0,0,0,0,0,0,0,0,0,0,0,0,0,0,0,0,0,0,0,0,0,0,0,0,0,0,0,0,0,0,0,0,0,0],"id":22,"left_children":[1,3,5,7,9,-1,11,13,15,17,-1,-1,-1,19,21,23,-1,25,-1,27,29,31,33,35,-1,37,-1,-1,-1,-1,-1,-1,-1,-1,-1,-1,-1,-1,-1],"loss_changes":[3.22958E2,8.718211E1,2.192688E-1,5.559455E1,5.5852814E0,0E0,6.011963E-3,3.146582E1,4.6495346E1,7.8955307E0,0E0,0E0,0E0,1.6546898E1,1.7128448E0,4.5223938E1,0E0,6.7671666E0,0E0,2.3112057E1,1.2745897E1,1.3291397E0,3.2146552E0,4.2936066E1,0E0,8.222162E0,0E0,0E0,0E0,0E0,0E0,0E0,0E0,0E0,0E0,0E0,0E0,0E0,0E0],"parents":[2147483647,0,0,1,1,2,2,3,3,4,4,6,6,7,7,8,8,9,9,13,13,14,14,15,15,17,17,19,19,20,20,21,21,22,22,23,23,25,25],"right_children":[2,4,6,8,10,-1,12,14,16,18,-1,-1,-1,20,22,24,-1,26,-1,28,30,32,34,36,-1,38,-1,-1,-1,-1,-1,-1,-1,-1,-1,-1,-1,-1,-1],"split_conditions":[1E0,1E0,1E0,1E0,1E0,1.24581875E-2,1E0,1E0,1E0,1E0,7.8531355E-2,5.3778082E-2,2.1542428E-2,1E0,1E0,1E0,5.9502542E-2,1E0,5.6291144E-2,1E0,1E0,1E0,1E0,1E0,7.277369E-2,1E0,7.804693E-2,-1.5883091E-3,8.390141E-2,-2.494769E-2,6.1740883E-2,5.6928236E-2,1.1028519E-2,-3.2530278E-2,4.4861328E-2,-3.987952E-2,5.944348E-2,3.4088516E-3,5.4673642E-2],"split_indices":[181,617,492,153,91,0,447,612,74,74,0,0,0,632,444,170,0,73,0,371,146,256,312,47,0,81,0,0,0,0,0,0,0,0,0,0,0,0,0],"split_type":[0,0,0,0,0,0,0,0,0,0,0,0,0,0,0,0,0,0,0,0,0,0,0,0,0,0,0,0,0,0,0,0,0,0,0,0,0,0,0],"sum_hessian":[9.963594E2,7.7459485E2,2.2176453E2,6.961901E2,7.840473E1,1.023056E0,2.2074147E2,2.7207114E2,4.24119E2,7.229831E1,6.106423E0,2.1893806E2,1.8034018E0,2.4573776E2,2.6333385E1,4.1146982E2,1.2649169E1,5.229316E1,2.0005156E1,1.2812737E2,1.17610405E2,2.2859007E1,3.474378E0,4.0279398E2,8.675839E0,4.876104E1,3.5321198E0,1.2066957E2,7.457786E0,1.1413988E2,3.4705262E0,2.0567091E1,2.2919161E0,1.5143559E0,1.9600222E0,3.924557E2,1.0338273E1,3.9990532E1,8.770505E0],"tree_param":{"num_deleted":"0","num_feature":"702","num_nodes":"39","size_leaf_vector":"1"}},{"base_weights":[8.910264E-3,-2.8498322E-1,1.0531511E0,-3.5683775E-1,5.9031785E-2,1.178069E-2,1.0559123E0,-4.0169397E-1,6.05668E-2,1.0653198E0,3.4051444E-2,4.9416114E-2,-5.646902E-1,5.3442657E-2,2.1038659E-2,-3.0838206E-2,1.0452168E0,-6.719776E-1,4.170134E-1,1.4580016E-3,-3.5183735E-2,5.92784E-2,2.8917944E-2,-3.614599E-2,6.9217555E-2,1.27745485E-2,7.547524E-2],"categories":[],"categories_nodes":[],"categories_segments":[],"categories_sizes":[],"default_left":[0,0,0,0,0,0,0,0,0,0,0,0,0,0,0,0,0,0,0,0,0,0,0,0,0,0,0],"id":23,"left_children":[1,3,5,7,-1,-1,9,11,-1,13,-1,15,17,-1,-1,19,21,23,25,-1,-1,-1,-1,-1,-1,-1,-1],"loss_changes":[3.007197E2,8.095191E1,2.3701477E-1,5.1816833E1,0E0,0E0,2.9891968E-2,5.224681E1,0E0,2.2109985E-2,0E0,1.5169796E1,5.5234665E1,0E0,0E0,7.135948E0,2.418499E-1,5.031282E1,8.794094E0,0E0,0E0,0E0,0E0,0E0,0E0,0E0,0E0],"parents":[2147483647,0,0,1,1,2,2,3,3,6,6,7,7,9,9,11,11,12,12,15,15,16,16,17,17,18,18],"right_children":[2,4,6,8,-1,-1,10,12,-1,14,-1,16,18,-1,-1,20,22,24,26,-1,-1,-1,-1,-1,-1,-1,-1],"split_conditions":[1E0,1E0,1E0,1E0,5.9031785E-2,1.178069E-2,1E0,1E0,6.05668E-2,1E0,3.4051444E-2,1E0,1E0,5.3442657E-2,2.1038659E-2,1E0,1E0,1E0,1E0,1.4580016E-3,-3.5183735E-2,5.92784E-2,2.8917944E-2,-3.614599E-2,6.9217555E-2,1.27745485E-2,7.547524E-2],"split_indices":[181,74,219,47,0,0,358,268,0,447,0,312,617,0,0,373,421,146,91,0,0,0,0,0,0,0,0],"split_type":[0,0,0,0,0,0,0,0,0,0,0,0,0,0,0,0,0,0,0,0,0,0,0,0,0,0,0],"sum_hessian":[9.778984E2,7.636907E2,2.1420772E2,7.287204E2,3.4970264E1,1.0116332E0,2.1319609E2,7.0917883E2,1.954159E1,2.0618039E2,7.015703E0,1.8841533E2,5.207635E2,2.0440155E2,1.7788296E0,1.752597E2,1.3155631E1,4.6974228E2,5.1021206E1,1.6178928E2,1.3470427E1,8.9311905E0,4.2244406E0,4.5901926E2,1.0723001E1,4.5524387E1,5.4968195E0],"tree_param":{"num_deleted":"0","num_feature":"702","num_nodes":"27","size_leaf_vector":"1"}},{"base_weights":[9.1830855E-3,-2.7432856E-1,1.0372818E0,-3.639082E-1,8.488457E-1,1.1323529E-2,1.0401093E0,-4.079679E-1,5.9655726E-2,9.3264383E-1,1.2083702E-1,1.0434889E0,2.0546569E-2,4.212601E-2,-5.7563114E-1,9.19839E-3,9.486604E-1,-3.402893E-2,5.0295122E-2,1.0530956E0,3.3739947E-2,-2.8410861E-2,9.966431E-1,-6.246646E-1,6.824407E-2,8.3706367E-1,5.832847E-2,5.3014606E-2,5.878206E-1,1.4405157E-3,-3.571712E-2,1.3585383E-2,5.554923E-2,-3.360362E-2,6.880812E-2,2.9517401E-2,5.305007E-2,4.4881947E-2,-1.1459381E-2],"categories":[],"categories_nodes":[],"categories_segments":[],"categories_sizes":[],"default_left":[0,0,0,0,0,0,0,0,0,0,0,0,0,0,0,0,0,0,0,0,0,0,0,0,0,0,0,0,0,0,0,0,0,0,0,0,0,0,0],"id":24,"left_children":[1,3,5,7,9,-1,11,13,-1,15,17,19,-1,21,23,-1,25,-1,-1,27,-1,29,31,33,-1,35,-1,-1,37,-1,-1,-1,-1,-1,-1,-1,-1,-1,-1],"loss_changes":[2.8031924E2,7.615765E1,2.4101257E-1,4.843116E1,3.3026352E0,0E0,1.1108398E-2,5.136944E1,0E0,4.2570877E-1,5.598473E0,1.5914917E-2,0E0,1.2524136E1,4.802771E1,0E0,2.0942307E-1,0E0,0E0,4.0130615E-2,0E0,6.842016E0,7.5904846E-1,4.6859665E1,0E0,1.3510551E0,0E0,0E0,1.5376623E0,0E0,0E0,0E0,0E0,0E0,0E0,0E0,0E0,0E0,0E0],"parents":[2147483647,0,0,1,1,2,2,3,3,4,4,6,6,7,7,9,9,10,10,11,11,13,13,14,14,16,16,19,19,21,21,22,22,23,23,25,25,28,28],"right_children":[2,4,6,8,10,-1,12,14,-1,16,18,20,-1,22,24,-1,26,-1,-1,28,-1,30,32,34,-1,36,-1,-1,38,-1,-1,-1,-1,-1,-1,-1,-1,-1,-1],"split_conditions":[1E0,1E0,1E0,1E0,1E2,1.1323529E-2,1E0,1E0,5.9655726E-2,1E0,1E2,1E0,2.0546569E-2,1E0,1E0,9.19839E-3,1E2,-3.402893E-2,5.0295122E-2,1E0,3.3739947E-2,1E0,1E0,1E0,6.824407E-2,1E0,5.832847E-2,5.3014606E-2,1E0,1.4405157E-3,-3.571712E-2,1.3585383E-2,5.554923E-2,-3.360362E-2,6.880812E-2,2.9517401E-2,5.305007E-2,4.4881947E-2,-1.1459381E-2],"split_indices":[181,514,492,47,700,0,447,510,0,219,699,358,0,312,146,0,699,0,0,127,0,373,408,136,0,74,0,0,418,0,0,0,0,0,0,0,0,0,0],"split_type":[0,0,0,0,0,0,0,0,0,0,0,0,0,0,0,0,0,0,0,0,0,0,0,0,0,0,0,0,0,0,0,0,0,0,0,0,0,0,0],"sum_hessian":[9.597406E2,7.528622E2,2.0687843E2,6.9787836E2,5.498383E1,1.0007478E0,2.0587769E2,6.7939136E2,1.848702E1,4.9056095E1,5.9277344E0,2.0412276E2,1.7549232E0,1.8459438E2,4.9479697E2,1.2890052E0,4.776709E1,3.2321262E0,2.6956081E0,1.9712991E2,6.9928436E0,1.727954E2,1.1798992E1,4.832638E2,1.1533168E1,3.4791054E1,1.2976038E1,1.9286794E2,4.2619815E0,1.6037474E2,1.2420643E1,2.0674503E0,9.731542E0,4.7272705E2,1.0536742E1,1.8283766E1,1.6507288E1,3.018604E0,1.2433773E0],"tree_param":{"num_deleted":"0","num_feature":"702","num_nodes":"39","size_leaf_vector":"1"}},{"base_weights":[9.564982E-3,-2.638412E-1,1.0219365E0,-3.3106467E-1,5.8021404E-2,1.0253196E0,2.006585E-2,-4.084737E-1,5.1895046E-1,1.0349398E0,3.2925412E-2,-5.4881625E-2,-6.505103E-1,4.4113335E-1,8.39473E-2,5.2106775E-2,5.740248E-1,-1.1592795E-1,1.0431753E0,-7.025564E-1,7.265112E-2,3.0446434E-1,5.425858E-2,-1.2023176E-2,4.4402134E-2,-7.319516E-3,7.116019E-2,5.98724E-2,2.6796361E-2,-3.7242364E-2,5.64675E-2,-3.5419648E-3,3.4193177E-2],"categories":[],"categories_nodes":[],"categories_segments":[],"categories_sizes":[],"default_left":[0,0,0,0,0,0,0,0,0,0,0,0,0,0,0,0,0,0,0,0,0,0,0,0,0,0,0,0,0,0,0,0,0],"id":25,"left_children":[1,3,5,7,-1,9,-1,11,13,15,-1,17,19,21,-1,-1,23,25,27,29,-1,31,-1,-1,-1,-1,-1,-1,-1,-1,-1,-1,-1],"loss_changes":[2.6135638E2,7.1569115E1,1.0101318E-2,4.6979042E1,0E0,2.0874023E-2,0E0,5.5763275E1,4.6542015E0,3.9276123E-2,0E0,1.7953718E1,4.3385498E1,4.718807E0,0E0,0E0,1.5386288E0,1.2066721E1,4.6251488E-1,3.0148514E1,0E0,6.984561E0,0E0,0E0,0E0,0E0,0E0,0E0,0E0,0E0,0E0,0E0,0E0],"parents":[2147483647,0,0,1,1,2,2,3,3,5,5,7,7,8,8,9,9,11,11,12,12,13,13,16,16,17,17,18,18,19,19,21,21],"right_children":[2,4,6,8,-1,10,-1,12,14,16,-1,18,20,22,-1,-1,24,26,28,30,-1,32,-1,-1,-1,-1,-1,-1,-1,-1,-1,-1,-1],"split_conditions":[1E0,1E0,1E0,1E0,5.8021404E-2,1E0,2.006585E-2,1E0,1E0,1E0,3.2925412E-2,1E0,1E0,1E0,8.39473E-2,5.2106775E-2,1E2,1E0,1E0,1E0,7.265112E-2,1E2,5.425858E-2,-1.2023176E-2,4.4402134E-2,-7.319516E-3,7.116019E-2,5.98724E-2,2.6796361E-2,-3.7242364E-2,5.64675E-2,-3.5419648E-3,3.4193177E-2],"split_indices":[181,74,447,604,0,358,0,153,66,127,0,312,170,81,0,0,701,91,421,47,0,699,0,0,0,0,0,0,0,0,0,0,0],"split_type":[0,0,0,0,0,0,0,0,0,0,0,0,0,0,0,0,0,0,0,0,0,0,0,0,0,0,0,0,0,0,0,0,0],"sum_hessian":[9.422711E2,7.424899E2,1.997812E2,7.0975793E2,3.2732E1,1.9804953E2,1.7316709E0,6.5099286E2,5.8765064E1,1.9121323E2,6.8363075E0,2.650326E2,3.859603E2,5.636422E1,2.400846E0,1.8703233E2,4.1808996E0,2.5192148E2,1.3111115E1,3.7729126E2,8.66901E0,4.7712143E1,8.652078E0,1.2285548E0,2.952345E0,2.4791956E2,4.001918E0,9.010129E0,4.100986E0,3.693578E2,7.9334903E0,2.439438E1,2.331776E1],"tree_param":{"num_deleted":"0","num_feature":"702","num_nodes":"33","size_leaf_vector":"1"}},{"base_weights":[1.002253E-2,-2.533719E-1,1.0069263E0,-3.546804E-1,6.418326E-1,1.0165066E0,3.212571E-2,-4.1455757E-2,-5.6611836E-1,5.43609E-1,1.4790844E0,1.020148E0,1.9596195E-2,-1.4153536E-1,9.0281934E-1,-6.8569297E-1,2.8649142E-1,3.640469E-1,5.2788347E-2,8.131026E-2,1.4483123E-2,5.137263E-2,5.604934E-1,8.133673E-2,-3.9224163E-1,7.268651E-1,7.641657E-2,-7.4164504E-1,7.058821E-2,1.4130023E-1,6.2048912E-2,2.7733497E-2,6.5152055E-1,4.3752644E-2,-1.1639381E-2,-1.2766565E-3,8.086882E-2,-2.2389393E-2,5.708894E-2,1.9551411E-2,5.3773254E-2,-3.9140623E-2,6.0811628E-2,-2.3336211E-4,4.512525E-2,-9.234403E-3,6.293578E-2,3.757069E-2,-2.7862286E-2],"categories":[],"categories_nodes":[],"categories_segments":[],"categories_sizes":[],"default_left":[0,0,0,0,0,0,0,0,0,0,0,0,0,0,0,0,0,0,0,0,0,0,0,0,0,0,0,0,0,0,0,0,0,0,0,0,0,0,0,0,0,0,0,0,0,0,0,0,0],"id":26,"left_children":[1,3,5,7,9,11,-1,13,15,17,19,21,-1,23,25,27,29,31,-1,-1,-1,-1,33,35,37,39,-1,41,-1,43,-1,45,47,-1,-1,-1,-1,-1,-1,-1,-1,-1,-1,-1,-1,-1,-1,-1,-1],"loss_changes":[2.4361632E2,6.678754E1,2.381897E-2,4.3683105E1,5.3611355E0,2.6000977E-2,0E0,2.5363363E1,4.035572E1,5.9315033E0,8.046875E-1,4.6951294E-2,0E0,1.3571097E1,1.7204742E0,4.1623795E1,6.6366363E0,5.045687E0,0E0,0E0,0E0,0E0,1.4768445E0,2.1234568E1,1.0242666E1,2.153246E0,0E0,2.8148956E1,0E0,4.8701153E0,0E0,6.817229E0,3.823061E0,0E0,0E0,0E0,0E0,0E0,0E0,0E0,0E0,0E0,0E0,0E0,0E0,0E0,0E0,0E0,0E0],"parents":[2147483647,0,0,1,1,2,2,3,3,4,4,5,5,7,7,8,8,9,9,10,10,11,11,13,13,14,14,15,15,16,16,17,17,22,22,23,23,24,24,25,25,27,27,29,29,31,31,32,32],"right_children":[2,4,6,8,10,12,-1,14,16,18,20,22,-1,24,26,28,30,32,-1,-1,-1,-1,34,36,38,40,-1,42,-1,44,-1,46,48,-1,-1,-1,-1,-1,-1,-1,-1,-1,-1,-1,-1,-1,-1,-1,-1],"split_conditions":[1E0,1E0,1E0,1E0,1E0,1E0,3.212571E-2,1E0,1E0,1E0,1E0,1E0,1.9596195E-2,1E0,1E0,1E0,1E0,1E0,5.2788347E-2,8.131026E-2,1.4483123E-2,5.137263E-2,1E0,1E0,1E0,1E0,7.641657E-2,1E0,7.058821E-2,1E0,6.2048912E-2,1E0,1E0,4.3752644E-2,-1.1639381E-2,-1.2766565E-3,8.086882E-2,-2.2389393E-2,5.708894E-2,1.9551411E-2,5.3773254E-2,-3.9140623E-2,6.0811628E-2,-2.3336211E-4,4.512525E-2,-9.234403E-3,6.293578E-2,3.757069E-2,-2.7862286E-2],"split_indices":[181,617,358,153,166,447,0,612,660,74,603,127,0,632,331,170,136,604,0,0,0,0,418,371,146,312,0,146,0,129,0,91,314,0,0,0,0,0,0,0,0,0,0,0,0,0,0,0,0],"split_type":[0,0,0,0,0,0,0,0,0,0,0,0,0,0,0,0,0,0,0,0,0,0,0,0,0,0,0,0,0,0,0,0,0,0,0,0,0,0,0,0,0,0,0,0,0,0,0,0,0],"sum_hessian":[9.2581177E2,7.329129E2,1.928989E2,6.589452E2,7.39677E1,1.8621396E2,6.6849337E0,2.660356E2,3.9290958E2,6.767731E1,6.290395E0,1.845049E2,1.7090592E0,2.413103E2,2.4725313E1,3.4475504E2,4.815453E1,5.13758E1,1.6301502E1,5.271175E0,1.0192195E0,1.8040282E2,4.1020813E0,1.281042E2,1.1320611E2,2.0984486E1,3.7408276E0,3.3642688E2,8.328162E0,4.2793118E1,5.3614116E0,2.4181965E1,2.7193838E1,2.8635273E0,1.2385541E0,1.2069054E2,7.4136596E0,1.09933556E2,3.2725518E0,1.1768536E1,9.215951E0,3.3008646E2,6.340406E0,3.6741493E1,6.051625E0,2.1348055E1,2.8339107E0,2.5467546E1,1.7262912E0],"tree_param":{"num_deleted":"0","num_feature":"702","num_nodes":"49","size_leaf_vector":"1"}},{"base_weights":[1.0666761E-2,-2.4305429E-1,9.922813E-1,-3.060651E-1,5.704562E-2,1.0020378E0,3.13403E-2,-3.4690034E-1,5.8571815E-2,1.0057362E0,1.9137338E-2,-3.2434884E-2,-5.430098E-1,1.0131533E0,5.473608E-1,-7.165936E-2,7.78469E-2,-5.9744984E-1,1.4173672E0,5.086383E-2,2.0500459E-2,-1.2165232E-2,4.3304827E-2,2.3476423E-3,-2.5658205E-2,-3.2270253E-2,6.9434665E-2,9.1616735E-2,4.339647E-2],"categories":[],"categories_nodes":[],"categories_segments":[],"categories_sizes":[],"default_left":[0,0,0,0,0,0,0,0,0,0,0,0,0,0,0,0,0,0,0,0,0,0,0,0,0,0,0,0,0],"id":27,"left_children":[1,3,5,7,-1,9,-1,11,-1,13,-1,15,17,19,21,23,-1,25,27,-1,-1,-1,-1,-1,-1,-1,-1,-1,-1],"loss_changes":[2.270423E2,6.3521458E1,3.9520264E-2,4.225741E1,0E0,2.8945923E-2,0E0,4.1656937E1,0E0,5.4000854E-2,0E0,1.6359467E1,4.5259193E1,1.8066406E-2,1.4772185E0,1.3393754E1,0E0,3.952858E1,1.0409355E0,0E0,0E0,0E0,0E0,0E0,0E0,0E0,0E0,0E0,0E0],"parents":[2147483647,0,0,1,1,2,2,3,3,5,5,7,7,9,9,11,11,12,12,13,13,14,14,15,15,17,17,18,18],"right_children":[2,4,6,8,-1,10,-1,12,-1,14,-1,16,18,20,22,24,-1,26,28,-1,-1,-1,-1,-1,-1,-1,-1,-1,-1],"split_conditions":[1E0,1E0,1E0,1E0,5.704562E-2,1E0,3.13403E-2,1E0,5.8571815E-2,1E0,1.9137338E-2,1E0,1E0,1E0,1E2,1E0,7.78469E-2,1E0,1E0,5.086383E-2,2.0500459E-2,-1.2165232E-2,4.3304827E-2,2.3476423E-3,-2.5658205E-2,-3.2270253E-2,6.9434665E-2,9.1616735E-2,4.339647E-2],"split_indices":[181,74,358,47,0,447,0,376,0,127,0,404,81,247,701,153,0,170,129,0,0,0,0,0,0,0,0,0,0],"split_type":[0,0,0,0,0,0,0,0,0,0,0,0,0,0,0,0,0,0,0,0,0,0,0,0,0,0,0,0,0],"sum_hessian":[9.09642E2,7.2341187E2,1.8623018E2,6.926547E2,3.0757133E1,1.7969153E2,6.538652E0,6.747706E2,1.788412E1,1.7800444E2,1.6870764E0,2.596239E2,4.151467E2,1.7397894E2,4.0255013E0,2.5430283E2,5.3210807E0,4.0460596E2,1.0540736E1,1.721157E2,1.8632451E0,1.2245367E0,2.8009646E0,2.0115524E2,5.314759E1,3.9572626E2,8.879724E0,4.6749883E0,5.8657484E0],"tree_param":{"num_deleted":"0","num_feature":"702","num_nodes":"29","size_leaf_vector":"1"}},{"base_weights":[1.0990414E-2,-2.3343618E-1,9.779847E-1,-3.1376326E-1,7.994054E-1,9.879276E-1,3.0568708E-2,-3.9289296E-2,-5.313478E-1,8.7993526E-1,1.2541766E-1,9.9168617E-1,1.8688992E-2,-8.198016E-2,1.104279E0,-5.8368623E-1,6.574102E-2,7.9407655E-3,8.96719E-1,-3.1400036E-2,4.7215797E-2,9.99223E-1,5.3447324E-1,-1.10863775E-1,6.2377702E-2,6.838067E-2,-2.4044607E-2,-6.352797E-1,6.770865E-2,7.824843E-1,5.5843603E-2,5.0170388E-2,2.0028384E-2,4.2682562E-2,-1.177799E-2,-7.2498405E-3,5.2491218E-2,-3.3624873E-2,8.788046E-2,2.7829502E-2,5.0460637E-2],"categories":[],"categories_nodes":[],"categories_segments":[],"categories_sizes":[],"default_left":[0,0,0,0,0,0,0,0,0,0,0,0,0,0,0,0,0,0,0,0,0,0,0,0,0,0,0,0,0,0,0,0,0,0,0,0,0,0,0,0,0],"id":28,"left_children":[1,3,5,7,9,11,-1,13,15,17,19,21,-1,23,25,27,-1,-1,29,-1,-1,31,33,35,-1,-1,-1,37,-1,39,-1,-1,-1,-1,-1,-1,-1,-1,-1,-1,-1],"loss_changes":[2.1178801E2,5.9594658E1,5.5023193E-2,3.965728E1,2.7064362E0,3.189087E-2,0E0,1.4485941E1,3.656926E1,4.1665268E-1,4.7299886E0,6.1157227E-2,0E0,1.1089982E1,5.1161375E0,3.695331E1,0E0,0E0,2.5592422E-1,0E0,0E0,2.0874023E-2,1.4179686E0,1.1246843E1,0E0,0E0,0E0,3.255867E1,0E0,1.124258E0,0E0,0E0,0E0,0E0,0E0,0E0,0E0,0E0,0E0,0E0,0E0],"parents":[2147483647,0,0,1,1,2,2,3,3,4,4,5,5,7,7,8,8,9,9,10,10,11,11,13,13,14,14,15,15,18,18,21,21,22,22,23,23,27,27,29,29],"right_children":[2,4,6,8,10,12,-1,14,16,18,20,22,-1,24,26,28,-1,-1,30,-1,-1,32,34,36,-1,-1,-1,38,-1,40,-1,-1,-1,-1,-1,-1,-1,-1,-1,-1,-1],"split_conditions":[1E0,1E0,1E0,1E0,1E2,1E0,3.0568708E-2,1E0,1E0,1E0,1E2,1E0,1.8688992E-2,1E0,1E0,1E0,6.574102E-2,7.9407655E-3,1E2,-3.1400036E-2,4.7215797E-2,1E0,1E0,1E0,6.2377702E-2,6.838067E-2,-2.4044607E-2,1E0,6.770865E-2,1E0,5.5843603E-2,5.0170388E-2,2.0028384E-2,4.2682562E-2,-1.177799E-2,-7.2498405E-3,5.2491218E-2,-3.3624873E-2,8.788046E-2,2.7829502E-2,5.0460637E-2],"split_indices":[181,514,358,418,700,447,0,404,136,219,699,127,0,146,286,170,0,0,699,0,0,247,418,47,0,0,0,81,0,74,0,0,0,0,0,0,0,0,0,0,0],"split_type":[0,0,0,0,0,0,0,0,0,0,0,0,0,0,0,0,0,0,0,0,0,0,0,0,0,0,0,0,0,0,0,0,0,0,0,0,0,0,0,0,0],"sum_hessian":[8.9407745E2,7.142863E2,1.7979114E2,6.6338885E2,5.0897453E1,1.7339375E2,6.3973827E0,2.9386758E2,3.6952127E2,4.5192204E1,5.705249E0,1.7172804E2,1.6657078E0,2.8418683E2,9.680746E0,3.599992E2,9.522054E0,1.2658725E0,4.392633E1,3.0928352E0,2.612414E0,1.6777689E2,3.9511538E0,2.7904138E2,5.1454506E0,8.419341E0,1.2614052E0,3.513179E2,8.681303E0,3.1918495E1,1.2007835E1,1.6594083E2,1.836071E0,2.7165542E0,1.2345996E0,2.7191995E2,7.1214294E0,3.4664532E2,4.672576E0,1.7719282E1,1.4199213E1],"tree_param":{"num_deleted":"0","num_feature":"702","num_nodes":"41","size_leaf_vector":"1"}},{"base_weights":[1.146938E-2,-2.2374734E-1,9.639653E-1,-2.8245842E-1,5.6152266E-2,9.741035E-1,2.9810509E-2,-3.211265E-1,5.775076E-2,9.77925E-1,1.8250916E-2,-3.5527122E-1,6.739862E-2,9.85584E-1,5.219605E-1,5.9036892E-2,-5.208452E-1,4.94917E-2,1.9566463E-2,-1.2268194E-2,4.226292E-2,-5.158809E-4,4.8852324E-2,-2.8224513E-2,8.245467E-2],"categories":[],"categories_nodes":[],"categories_segments":[],"categories_sizes":[],"default_left":[0,0,0,0,0,0,0,0,0,0,0,0,0,0,0,0,0,0,0,0,0,0,0,0,0],"id":29,"left_children":[1,3,5,7,-1,9,-1,11,-1,13,-1,15,-1,17,19,21,23,-1,-1,-1,-1,-1,-1,-1,-1],"loss_changes":[1.9748729E2,5.621631E1,7.008362E-2,3.806878E1,0E0,3.477478E-2,0E0,3.816284E1,0E0,6.7596436E-2,0E0,4.453501E1,0E0,2.3742676E-2,1.4177585E0,1.1861248E1,4.483934E1,0E0,0E0,0E0,0E0,0E0,0E0,0E0,0E0],"parents":[2147483647,0,0,1,1,2,2,3,3,5,5,7,7,9,9,11,11,13,13,14,14,15,15,16,16],"right_children":[2,4,6,8,-1,10,-1,12,-1,14,-1,16,-1,18,20,22,24,-1,-1,-1,-1,-1,-1,-1,-1],"split_conditions":[1E0,1E0,1E0,1E0,5.6152266E-2,1E0,2.9810509E-2,1E0,5.775076E-2,1E0,1.8250916E-2,1E0,6.739862E-2,1E0,1E2,1E0,1E0,4.94917E-2,1.9566463E-2,-1.2268194E-2,4.226292E-2,-5.158809E-4,4.8852324E-2,-2.8224513E-2,8.245467E-2],"split_indices":[181,74,358,47,0,447,0,146,0,127,0,510,0,247,701,312,91,0,0,0,0,0,0,0,0],"split_type":[0,0,0,0,0,0,0,0,0,0,0,0,0,0,0,0,0,0,0,0,0,0,0,0,0],"sum_hessian":[8.7950793E2,7.059422E2,1.7356575E2,6.7721063E2,2.8731546E1,1.6730472E2,6.2610245E0,6.602272E2,1.6983515E1,1.6565979E2,1.6449407E0,6.47763E2,1.2464128E1,1.6178075E2,3.8790326E0,1.8513977E2,4.6262323E2,1.5997102E2,1.8097281E0,1.2213365E0,2.6576962E0,1.7305449E2,1.2085296E1,4.54227E2,8.396243E0],"tree_param":{"num_deleted":"0","num_feature":"702","num_nodes":"25","size_leaf_vector":"1"}},{"base_weights":[1.1728246E-2,-2.1488643E-1,9.50181E-1,-3.1832817E-1,5.264636E-1,9.605225E-1,2.9065356E-2,-3.343333E-2,-5.628158E-1,5.869594E-1,-4.8130717E-2,9.6440935E-1,1.7822845E-2,-7.153762E-2,8.141667E-2,-6.016729E-1,1.556702E0,4.350602E-1,1.095639E0,9.7219604E-1,5.096779E-1,-1.0523257E-1,5.1421877E-2,-6.993126E-1,2.0685653E-1,9.3662925E-2,3.742942E-2,1.8698901E-1,9.925489E-1,1.1346458E0,1.4604307E-2,4.8825715E-2,1.91145E-2,4.1664384E-2,-1.18787065E-2,-6.6748085E-3,5.8585722E-2,3.3638593E-2,-3.7657E-2,3.741006E-3,5.5330314E-2,-1.8754004E-3,6.233732E-2,6.214978E-2,-3.502341E-4,2.0940958E-2,5.9258908E-2],"categories":[],"categories_nodes":[],"categories_segments":[],"categories_sizes":[],"default_left":[0,0,0,0,0,0,0,0,0,0,0,0,0,0,0,0,0,0,0,0,0,0,0,0,0,0,0,0,0,0,0,0,0,0,0,0,0,0,0,0,0,0,0,0,0,0,0],"id":30,"left_children":[1,3,5,7,9,11,-1,13,15,17,-1,19,-1,21,-1,23,25,27,29,31,33,35,-1,37,39,-1,-1,41,43,45,-1,-1,-1,-1,-1,-1,-1,-1,-1,-1,-1,-1,-1,-1,-1,-1,-1],"loss_changes":[1.84292E2,5.3699493E1,8.4609985E-2,4.269321E1,8.298809E0,3.7582397E-2,0E0,1.8116278E1,2.8110306E1,5.945961E0,0E0,7.388306E-2,0E0,1.0443442E1,0E0,2.5779999E1,1.8853664E-1,8.895864E0,2.4704361E-1,2.658081E-2,1.3608918E0,9.954078E0,0E0,2.1922241E1,4.1655912E0,0E0,0E0,1.11517105E1,5.012844E0,1.2774277E-1,0E0,0E0,0E0,0E0,0E0,0E0,0E0,0E0,0E0,0E0,0E0,0E0,0E0,0E0,0E0,0E0,0E0],"parents":[2147483647,0,0,1,1,2,2,3,3,4,4,5,5,7,7,8,8,9,9,11,11,13,13,15,15,16,16,17,17,18,18,19,19,20,20,21,21,23,23,24,24,27,27,28,28,29,29],"right_children":[2,4,6,8,10,12,-1,14,16,18,-1,20,-1,22,-1,24,26,28,30,32,34,36,-1,38,40,-1,-1,42,44,46,-1,-1,-1,-1,-1,-1,-1,-1,-1,-1,-1,-1,-1,-1,-1,-1,-1],"split_conditions":[1E0,1E0,1E0,1E0,1E0,1E0,2.9065356E-2,1E0,1E0,1E0,-4.8130717E-2,1E0,1.7822845E-2,1E0,8.141667E-2,1E0,1E0,1E2,1E0,1E0,1E0,1E0,5.1421877E-2,1E0,1E0,9.3662925E-2,3.742942E-2,1E0,1E2,1E0,1.4604307E-2,4.8825715E-2,1.91145E-2,4.1664384E-2,-1.18787065E-2,-6.6748085E-3,5.8585722E-2,3.3638593E-2,-3.7657E-2,3.741006E-3,5.5330314E-2,-1.8754004E-3,6.233732E-2,6.214978E-2,-3.502341E-4,2.0940958E-2,5.9258908E-2],"split_indices":[181,603,358,418,682,447,0,166,81,136,0,127,0,47,0,660,617,699,404,247,418,146,0,510,136,0,0,170,698,543,0,0,0,0,0,0,0,0,0,0,0,0,0,0,0,0,0],"split_type":[0,0,0,0,0,0,0,0,0,0,0,0,0,0,0,0,0,0,0,0,0,0,0,0,0,0,0,0,0,0,0,0,0,0,0,0,0,0,0,0,0,0,0,0,0,0,0],"sum_hessian":[8.646146E2,6.970614E2,1.675532E2,6.122095E2,8.485193E1,1.6142374E2,6.129474E0,2.8326505E2,3.2894443E2,8.212146E1,2.7304704E0,1.5979898E2,1.6247606E0,2.778509E2,5.414167E0,3.2372568E2,5.218733E0,6.46664E1,1.7455063E1,1.5598988E2,3.809086E0,2.7047006E2,7.380832E0,2.8896475E2,3.476092E1,2.8027637E0,2.415969E0,4.5676632E1,1.8989765E1,1.625401E1,1.2010537E0,1.542057E2,1.7841936E0,2.5776544E0,1.2314318E0,2.6548926E2,4.9808106E0,1.0474191E1,2.7849057E2,3.1257154E1,3.5037668E0,3.848801E1,7.1886206E0,1.4990273E1,3.9994922E0,1.6842036E0,1.4569805E1],"tree_param":{"num_deleted":"0","num_feature":"702","num_nodes":"47","size_leaf_vector":"1"}},{"base_weights":[1.2201622E-2,-2.0574848E-1,9.366E-1,-2.9575568E-1,5.9919333E-1,9.471516E-1,2.8332993E-2,-3.6711675E-1,4.9099222E-1,5.057483E-1,6.778778E-2,9.5110595E-1,1.7404556E-2,4.0345047E-2,-5.242003E-1,1.6068302E-1,8.8504106E-1,6.270908E-1,-8.694093E-2,9.590213E-1,4.9775034E-1,-6.257974E-3,1.3261284E0,-5.729132E-1,6.355259E-2,7.350209E-3,5.8939546E-2,1.0338022E0,-4.3806974E-2,6.6908705E-1,-3.1539697E-2,-2.9745412E-1,4.142796E-2,4.8170533E-2,1.8672274E-2,-1.2335465E-2,4.126974E-2,-1.2319866E-3,5.4921795E-2,7.8497194E-2,8.549946E-3,-3.0774731E-2,6.56272E-2,5.2537408E-2,-8.915289E-3,4.3039087E-2,7.9374164E-2,-4.4517998E-2,2.79956E-2,2.6366794E-2,4.98217E-2,3.607452E-3,-2.4695924E-2],"categories":[],"categories_nodes":[],"categories_segments":[],"categories_sizes":[],"default_left":[0,0,0,0,0,0,0,0,0,0,0,0,0,0,0,0,0,0,0,0,0,0,0,0,0,0,0,0,0,0,0,0,0,0,0,0,0,0,0,0,0,0,0,0,0,0,0,0,0,0,0,0,0],"id":31,"left_children":[1,3,5,7,9,11,-1,13,15,17,-1,19,-1,21,23,25,27,29,31,33,35,37,39,41,-1,43,-1,45,47,49,-1,51,-1,-1,-1,-1,-1,-1,-1,-1,-1,-1,-1,-1,-1,-1,-1,-1,-1,-1,-1,-1,-1],"loss_changes":[1.7186568E2,5.0192657E1,9.857178E-2,3.507767E1,4.2461205E0,4.0237427E-2,0E0,3.653379E1,6.6414757E0,4.6346836E0,0E0,7.937622E-2,0E0,9.575225E0,3.674115E1,4.608169E0,3.298584E0,3.2210445E0,2.5015242E0,2.9373169E-2,1.3601277E0,3.1759272E0,1.3056383E0,3.3051514E1,0E0,5.361347E0,0E0,5.815697E-1,2.6499693E0,1.8762112E0,0E0,7.7987313E-1,0E0,0E0,0E0,0E0,0E0,0E0,0E0,0E0,0E0,0E0,0E0,0E0,0E0,0E0,0E0,0E0,0E0,0E0,0E0,0E0,0E0],"parents":[2147483647,0,0,1,1,2,2,3,3,4,4,5,5,7,7,8,8,9,9,11,11,13,13,14,14,15,15,16,16,17,17,18,18,19,19,20,20,21,21,22,22,23,23,25,25,27,27,28,28,29,29,31,31],"right_children":[2,4,6,8,10,12,-1,14,16,18,-1,20,-1,22,24,26,28,30,32,34,36,38,40,42,-1,44,-1,46,48,50,-1,52,-1,-1,-1,-1,-1,-1,-1,-1,-1,-1,-1,-1,-1,-1,-1,-1,-1,-1,-1,-1,-1],"split_conditions":[1E0,1E0,1E0,1E0,1E0,1E0,2.8332993E-2,1E0,1E2,1E2,6.778778E-2,1E0,1.7404556E-2,1E0,1E0,1E0,1E0,1E0,1E0,1E0,1E2,1E0,1E0,1E0,6.355259E-2,1E0,5.8939546E-2,1E0,1E0,1E0,-3.1539697E-2,1E0,4.142796E-2,4.8170533E-2,1.8672274E-2,-1.2335465E-2,4.126974E-2,-1.2319866E-3,5.4921795E-2,7.8497194E-2,8.549946E-3,-3.0774731E-2,6.56272E-2,5.2537408E-2,-8.915289E-3,4.3039087E-2,7.9374164E-2,-4.4517998E-2,2.79956E-2,2.6366794E-2,4.98217E-2,3.607452E-3,-2.4695924E-2],"split_indices":[181,617,358,612,166,447,0,264,699,698,0,127,0,528,146,136,421,286,404,247,701,440,418,170,0,593,0,347,312,74,0,376,0,0,0,0,0,0,0,0,0,0,0,0,0,0,0,0,0,0,0,0,0],"split_type":[0,0,0,0,0,0,0,0,0,0,0,0,0,0,0,0,0,0,0,0,0,0,0,0,0,0,0,0,0,0,0,0,0,0,0,0,0,0,0,0,0,0,0,0,0,0,0,0,0,0,0,0,0],"sum_hessian":[8.5109033E2,6.8933887E2,1.617515E2,6.205793E2,6.875954E1,1.5574887E2,6.002626E0,5.6946045E2,5.1118874E1,6.2685555E1,6.073982E0,1.5414372E2,1.6051536E0,1.5865794E2,4.108025E2,2.8574356E1,2.2544518E1,5.1984592E1,1.0700962E1,1.5040239E2,3.7413263E0,1.5406886E2,4.58907E0,4.00613E2,1.0189487E1,2.5709568E1,2.864787E0,1.9334911E1,3.2096066E0,5.075805E1,1.226543E0,9.249249E0,1.4517125E0,1.4864296E2,1.7594435E0,1.218874E0,2.5224524E0,1.5250887E2,1.560004E0,3.492743E0,1.0963268E0,3.92424E2,8.1889925E0,3.1797168E0,2.2529852E1,1.6677877E1,2.6570342E0,1.1384482E0,2.0711584E0,3.724205E1,1.3516E1,3.429738E0,5.8195114E0],"tree_param":{"num_deleted":"0","num_feature":"702","num_nodes":"53","size_leaf_vector":"1"}},{"base_weights":[1.2727532E-2,-1.9698796E-1,9.231871E-1,-2.5113055E-1,5.5146098E-2,9.3395466E-1,5.5226356E-1,-2.736181E-1,1.0424516E-1,9.379782E-1,1.6995821E-2,9.172942E-3,5.99189E-1,-3.1127125E-1,5.6952752E-2,9.4602615E-1,4.8604128E-1,6.910065E-1,4.787888E-3,6.061001E-2,-4.6384966E-1,4.7524452E-2,1.8239615E-2,4.069207E-2,-1.1944818E-2,1.2887487E-2,3.9965685E-2,-1.6546184E-4,4.7089245E-2,-2.5234202E-2,7.880799E-2],"categories":[],"categories_nodes":[],"categories_segments":[],"categories_sizes":[],"default_left":[0,0,0,0,0,0,0,0,0,0,0,0,0,0,0,0,0,0,0,0,0,0,0,0,0,0,0,0,0,0,0],"id":32,"left_children":[1,3,5,7,-1,9,11,13,-1,15,-1,-1,17,19,-1,21,23,25,-1,27,29,-1,-1,-1,-1,-1,-1,-1,-1,-1,-1],"loss_changes":[1.6028401E2,4.830095E1,1.118927E-1,3.502483E1,0E0,4.2755127E-2,9.147406E-3,3.495612E1,0E0,8.46405E-2,0E0,0E0,1.9557095E-1,3.6024952E1,0E0,3.20282E-2,1.3055232E0,1.1151552E-2,0E0,1.0448342E1,3.8277977E1,0E0,0E0,0E0,0E0,0E0,0E0,0E0,0E0,0E0,0E0],"parents":[2147483647,0,0,1,1,2,2,3,3,5,5,6,6,7,7,9,9,12,12,13,13,15,15,16,16,17,17,19,19,20,20],"right_children":[2,4,6,8,-1,10,12,14,-1,16,-1,-1,18,20,-1,22,24,26,-1,28,30,-1,-1,-1,-1,-1,-1,-1,-1,-1,-1],"split_conditions":[1E0,1E0,1E0,1E0,5.5146098E-2,1E0,1E0,1E0,1.0424516E-1,1E0,1.6995821E-2,9.172942E-3,1E0,1E0,5.6952752E-2,1E0,1E0,1E0,4.787888E-3,1E0,1E0,4.7524452E-2,1.8239615E-2,4.069207E-2,-1.1944818E-2,1.2887487E-2,3.9965685E-2,-1.6546184E-4,4.7089245E-2,-2.5234202E-2,7.880799E-2],"split_indices":[181,74,358,73,0,447,543,47,0,127,0,0,660,510,0,247,418,376,0,312,91,0,0,0,0,0,0,0,0,0,0],"split_type":[0,0,0,0,0,0,0,0,0,0,0,0,0,0,0,0,0,0,0,0,0,0,0,0,0,0,0,0,0,0,0],"sum_hessian":[8.3750574E2,6.813476E2,1.5615814E2,6.5487805E2,2.6469545E1,1.5027779E2,5.880362E0,6.495085E2,5.369544E0,1.4869168E2,1.5861061E0,1.2179118E0,4.66245E0,6.3340546E2,1.6103016E1,1.4501602E2,3.6756635E0,3.6281428E0,1.0343071E0,1.8444882E2,4.4895663E2,1.4328056E2,1.7354565E0,2.4466903E0,1.2289732E0,1.4015167E0,2.2266262E0,1.7290292E2,1.1545903E1,4.408842E2,8.072463E0],"tree_param":{"num_deleted":"0","num_feature":"702","num_nodes":"31","size_leaf_vector":"1"}},{"base_weights":[1.3020161E-2,-1.8881333E-1,9.1000164E-1,-2.8541324E-1,5.070549E-1,9.209055E-1,5.4158074E-1,-2.2351721E-2,-5.191797E-1,6.3712364E-1,-1.7539042E-1,9.249996E-1,1.6596429E-2,8.954849E-3,5.8805937E-1,-5.7339527E-2,7.59333E-2,-5.5861235E-1,1.5269556E0,5.580377E-1,7.814911E-2,-5.3788275E-1,6.5382116E-2,9.331796E-1,4.74671E-1,6.795264E-1,4.6746912E-3,-8.825932E-2,5.0282188E-2,-6.551104E-1,2.1986818E-1,9.1677494E-2,3.6441445E-2,3.8188767E-1,5.2830722E-2,-7.8515E-1,-2.9231275E-2,4.6885904E-2,1.781632E-2,-1.237022E-2,4.0319808E-2,1.2582212E-2,3.9389852E-2,-5.7362127E-3,5.664776E-2,3.1798624E-2,-3.537136E-2,4.763424E-3,5.442027E-2,1.1145476E-2,6.026798E-2,8.466832E-3,-5.0385565E-2,2.0520967E-2,-2.700992E-2],"categories":[],"categories_nodes":[],"categories_segments":[],"categories_sizes":[],"default_left":[0,0,0,0,0,0,0,0,0,0,0,0,0,0,0,0,0,0,0,0,0,0,0,0,0,0,0,0,0,0,0,0,0,0,0,0,0,0,0,0,0,0,0,0,0,0,0,0,0,0,0,0,0,0,0],"id":33,"left_children":[1,3,5,7,9,11,13,15,17,19,21,23,-1,-1,25,27,-1,29,31,33,-1,35,-1,37,39,41,-1,43,-1,45,47,-1,-1,49,-1,51,53,-1,-1,-1,-1,-1,-1,-1,-1,-1,-1,-1,-1,-1,-1,-1,-1,-1,-1],"loss_changes":[1.4961777E2,4.5497456E1,1.11061096E-1,3.645986E1,7.443924E0,4.5036316E-2,9.097576E-3,1.5189186E1,2.618637E1,4.2237167E0,8.233498E0,8.911133E-2,0E0,0E0,1.8895555E-1,9.12216E0,0E0,2.3339874E1,1.8187904E-1,5.364216E0,0E0,1.4818647E0,0E0,3.4568787E-2,1.304251E0,1.2581348E-2,0E0,8.791437E0,0E0,1.9023087E1,3.662613E0,0E0,0E0,6.289342E0,0E0,1.8726835E0,1.3342438E0,0E0,0E0,0E0,0E0,0E0,0E0,0E0,0E0,0E0,0E0,0E0,0E0,0E0,0E0,0E0,0E0,0E0,0E0],"parents":[2147483647,0,0,1,1,2,2,3,3,4,4,5,5,6,6,7,7,8,8,9,9,10,10,11,11,14,14,15,15,17,17,18,18,19,19,21,21,23,23,24,24,25,25,27,27,29,29,30,30,33,33,35,35,36,36],"right_children":[2,4,6,8,10,12,14,16,18,20,22,24,-1,-1,26,28,-1,30,32,34,-1,36,-1,38,40,42,-1,44,-1,46,48,-1,-1,50,-1,52,54,-1,-1,-1,-1,-1,-1,-1,-1,-1,-1,-1,-1,-1,-1,-1,-1,-1,-1],"split_conditions":[1E0,1E0,1E0,1E0,1E0,1E0,1E0,1E0,1E0,1E0,1E0,1E0,1.6596429E-2,8.954849E-3,1E0,1E0,7.59333E-2,1E0,1E0,1E0,7.814911E-2,1E0,6.5382116E-2,1E0,1E2,1E0,4.6746912E-3,1E0,5.0282188E-2,1E0,1E0,9.1677494E-2,3.6441445E-2,1E0,5.2830722E-2,1E0,1E0,4.6885904E-2,1.781632E-2,-1.237022E-2,4.0319808E-2,1.2582212E-2,3.9389852E-2,-5.7362127E-3,5.664776E-2,3.1798624E-2,-3.537136E-2,4.763424E-3,5.442027E-2,1.1145476E-2,6.026798E-2,8.466832E-3,-5.0385565E-2,2.0520967E-2,-2.700992E-2],"split_indices":[181,603,358,418,347,447,543,166,81,184,331,127,0,0,660,47,0,660,617,136,0,604,0,247,701,376,0,146,0,510,136,0,0,170,0,376,660,0,0,0,0,0,0,0,0,0,0,0,0,0,0,0,0,0,0],"split_type":[0,0,0,0,0,0,0,0,0,0,0,0,0,0,0,0,0,0,0,0,0,0,0,0,0,0,0,0,0,0,0,0,0,0,0,0,0,0,0,0,0,0,0,0,0,0,0,0,0,0,0,0,0,0,0],"sum_hessian":[8.244816E2,6.73683E2,1.5079868E2,5.920806E2,8.160234E1,1.4500742E2,5.791256E0,2.7910004E2,3.129806E2,6.859507E1,1.3007269E1,1.4343982E2,1.5676036E0,1.2097567E0,4.581499E0,2.7384537E2,5.254689E0,3.0777618E2,5.2044034E0,6.467345E1,3.92162E0,1.0964552E1,2.0427167E0,1.398277E2,3.612126E0,3.5508106E0,1.0306886E0,2.66996E2,6.849343E0,2.7397372E2,3.380246E1,2.8227491E0,2.3816545E0,4.9094154E1,1.5579294E1,7.0121784E0,3.952374E0,1.3811548E2,1.7122097E0,1.2170744E0,2.3950517E0,1.3883419E0,2.1624687E0,2.622195E2,4.7764997E0,1.0235058E1,2.6373868E2,3.0532043E1,3.2704158E0,4.221491E1,6.8792458E0,1.3711116E0,5.6410666E0,2.2302139E0,1.72216E0],"tree_param":{"num_deleted":"0","num_feature":"702","num_nodes":"55","size_leaf_vector":"1"}},{"base_weights":[1.354983E-2,-1.8050416E-1,8.969333E-1,-2.3132664E-1,5.4401305E-2,9.0797246E-1,5.3111947E-1,-3.005112E-1,5.1537216E-1,9.121381E-1,1.6206143E-2,8.741909E-3,5.771579E-1,-1.6614983E-2,-5.177507E-1,4.34183E-1,8.233046E-2,9.204526E-1,4.6350977E-1,6.682667E-1,4.5641786E-3,-6.746431E-2,9.586714E-1,-5.63386E-1,6.401925E-2,3.6287495E-1,7.299103E-2,4.6253406E-2,1.7402204E-2,3.976063E-2,-1.1979363E-2,1.2283995E-2,3.8825866E-2,4.999126E-3,-1.2682684E-2,5.6752246E-2,2.1186477E-2,-2.9504303E-2,1.0423749E-1,1.1196029E-2,4.9023364E-2],"categories":[],"categories_nodes":[],"categories_segments":[],"categories_sizes":[],"default_left":[0,0,0,0,0,0,0,0,0,0,0,0,0,0,0,0,0,0,0,0,0,0,0,0,0,0,0,0,0,0,0,0,0,0,0,0,0,0,0,0,0],"id":34,"left_children":[1,3,5,7,-1,9,11,13,15,17,-1,-1,19,21,23,25,-1,27,29,31,-1,33,35,37,-1,39,-1,-1,-1,-1,-1,-1,-1,-1,-1,-1,-1,-1,-1,-1,-1],"loss_changes":[1.395718E2,4.3292206E1,1.0992432E-1,3.3357555E1,0E0,4.712677E-2,9.067893E-3,3.6307583E1,4.32444E0,9.328461E-2,0E0,0E0,1.8260181E-1,1.2775003E1,2.8092087E1,3.3137655E0,0E0,3.6888123E-2,1.2518088E0,1.3973951E-2,0E0,7.6489773E0,7.235365E-1,2.4279411E1,0E0,4.1114006E0,0E0,0E0,0E0,0E0,0E0,0E0,0E0,0E0,0E0,0E0,0E0,0E0,0E0,0E0,0E0],"parents":[2147483647,0,0,1,1,2,2,3,3,5,5,6,6,7,7,8,8,9,9,12,12,13,13,14,14,15,15,17,17,18,18,19,19,21,21,22,22,23,23,25,25],"right_children":[2,4,6,8,-1,10,12,14,16,18,-1,-1,20,22,24,26,-1,28,30,32,-1,34,36,38,-1,40,-1,-1,-1,-1,-1,-1,-1,-1,-1,-1,-1,-1,-1,-1,-1],"split_conditions":[1E0,1E0,1E0,1E0,5.4401305E-2,1E0,1E0,1E0,1E0,1E0,1.6206143E-2,8.741909E-3,1E0,1E0,1E0,1E0,8.233046E-2,1E0,1E0,1E0,4.5641786E-3,1E0,1E0,1E0,6.401925E-2,1E0,7.299103E-2,4.6253406E-2,1.7402204E-2,3.976063E-2,-1.1979363E-2,1.2283995E-2,3.8825866E-2,4.999126E-3,-1.2682684E-2,5.6752246E-2,2.1186477E-2,-2.9504303E-2,1.0423749E-1,1.1196029E-2,4.9023364E-2],"split_indices":[181,74,358,604,0,447,543,153,66,127,0,0,660,312,170,184,0,247,418,376,0,632,421,73,0,81,0,0,0,0,0,0,0,0,0,0,0,0,0,0,0],"split_type":[0,0,0,0,0,0,0,0,0,0,0,0,0,0,0,0,0,0,0,0,0,0,0,0,0,0,0,0,0,0,0,0,0,0,0,0,0,0,0,0,0],"sum_hessian":[8.122456E2,6.666069E2,1.4563873E2,6.4171484E2,2.4892067E1,1.399339E2,5.7048306E0,5.878461E2,5.3868717E1,1.3838426E2,1.5496316E0,1.2018259E0,4.5030046E0,2.5529459E2,3.3255154E2,5.155259E1,2.316128E0,1.3483366E2,3.5505924E0,3.475842E0,1.0271628E0,2.4352837E2,1.1766216E1,3.249902E2,7.5613217E0,4.9467163E1,2.0854294E0,1.33144E2,1.6896802E0,2.32344E0,1.2271525E0,1.3755481E0,2.1002939E0,1.2846141E2,1.1506697E2,8.005083E0,3.761133E0,3.225156E2,2.4746172E0,4.1493874E1,7.9732895E0],"tree_param":{"num_deleted":"0","num_feature":"702","num_nodes":"41","size_leaf_vector":"1"}},{"base_weights":[1.3979799E-2,-1.7274253E-1,8.839627E-1,-2.1934457E-1,1.163881E0,8.951352E-1,5.2087325E-1,-2.9069224E-1,5.302713E-1,1.2011266E0,1.1671543E-2,9.073163E-1,5.5476314E-1,8.533982E-3,5.664775E-1,-1.7987093E-2,-5.013877E-1,4.5484138E-1,7.93523E-2,1.4911544E0,4.8012882E-2,4.5830943E-2,4.253203E-1,7.5352913E-1,-6.873809E-3,6.5721875E-1,4.4563026E-3,-6.367784E-2,9.090969E-1,-5.454106E-1,6.268592E-2,3.2612833E-1,5.3477723E-2,8.145081E-2,2.5305225E-2,3.9013248E-2,-1.55239925E-2,4.4098146E-2,5.3502335E-3,1.1992684E-2,3.8273096E-2,-4.37249E-3,6.110869E-2,5.4108348E-2,2.0527042E-2,-2.934944E-2,6.0514893E-2,1.1650475E-2,6.987722E-2],"categories":[],"categories_nodes":[],"categories_segments":[],"categories_sizes":[],"default_left":[0,0,0,0,0,0,0,0,0,0,0,0,0,0,0,0,0,0,0,0,0,0,0,0,0,0,0,0,0,0,0,0,0,0,0,0,0,0,0,0,0,0,0,0,0,0,0,0,0],"id":35,"left_children":[1,3,5,7,9,11,13,15,17,19,-1,21,23,-1,25,27,29,31,-1,33,-1,-1,35,37,-1,39,-1,41,43,45,-1,47,-1,-1,-1,-1,-1,-1,-1,-1,-1,-1,-1,-1,-1,-1,-1,-1,-1],"loss_changes":[1.3024603E2,4.137685E1,1.084671E-1,3.4317677E1,4.9590683E-1,6.0760498E-2,9.053826E-3,3.3540653E1,3.7315016E0,5.5879593E-2,0E0,1.9203186E-1,1.1044981E0,0E0,1.7649484E-1,1.0882229E1,2.6132065E1,3.887948E0,0E0,2.420845E-1,0E0,0E0,1.3712897E0,3.8772154E-1,0E0,1.5323758E-2,0E0,7.579624E0,5.9700775E-1,2.421634E1,0E0,4.2353234E0,0E0,0E0,0E0,0E0,0E0,0E0,0E0,0E0,0E0,0E0,0E0,0E0,0E0,0E0,0E0,0E0,0E0],"parents":[2147483647,0,0,1,1,2,2,3,3,4,4,5,5,6,6,7,7,8,8,9,9,11,11,12,12,14,14,15,15,16,16,17,17,19,19,22,22,23,23,25,25,27,27,28,28,29,29,31,31],"right_children":[2,4,6,8,10,12,14,16,18,20,-1,22,24,-1,26,28,30,32,-1,34,-1,-1,36,38,-1,40,-1,42,44,46,-1,48,-1,-1,-1,-1,-1,-1,-1,-1,-1,-1,-1,-1,-1,-1,-1,-1,-1],"split_conditions":[1E0,1E0,1E0,1E0,1E0,1E0,1E0,1E0,1E0,1E0,1.1671543E-2,1E0,1E0,8.533982E-3,1E0,1E0,1E0,1E0,7.93523E-2,1E0,4.8012882E-2,4.5830943E-2,1E0,1E2,-6.873809E-3,1E0,4.4563026E-3,1E0,1E0,1E0,6.268592E-2,1E0,5.3477723E-2,8.145081E-2,2.5305225E-2,3.9013248E-2,-1.55239925E-2,4.4098146E-2,5.3502335E-3,1.1992684E-2,3.8273096E-2,-4.37249E-3,6.110869E-2,5.4108348E-2,2.0527042E-2,-2.934944E-2,6.0514893E-2,1.1650475E-2,6.987722E-2],"split_indices":[181,136,358,604,404,4,543,153,66,74,0,127,567,0,660,312,170,81,0,29,0,0,418,700,0,376,0,91,421,146,0,184,0,0,0,0,0,0,0,0,0,0,0,0,0,0,0,0,0],"split_type":[0,0,0,0,0,0,0,0,0,0,0,0,0,0,0,0,0,0,0,0,0,0,0,0,0,0,0,0,0,0,0,0,0,0,0,0,0,0,0,0,0,0,0,0,0,0,0,0,0],"sum_hessian":[7.9984424E2,6.591697E2,1.4067456E2,6.377694E2,2.140025E1,1.3505353E2,5.621036E0,5.829017E2,5.486778E1,2.0296862E1,1.1033883E0,1.2877916E2,6.2743645E0,1.1941122E0,4.426924E0,2.5453717E2,3.283645E2,5.2547478E1,2.3203018E0,6.8536844E0,1.3443177E1,1.25456154E2,3.3230095E0,4.8058887E0,1.4684762E0,3.4031966E0,1.0237274E0,2.4346925E2,1.1067914E1,3.2100214E2,7.3623686E0,4.471522E1,7.832257E0,5.438767E0,1.4149173E0,2.200887E0,1.1221226E0,3.7056012E0,1.1002872E0,1.3631245E0,2.040072E0,2.3996494E2,3.50432E0,7.346893E0,3.7210212E0,3.1422638E2,6.775758E0,4.2259815E1,2.455405E0],"tree_param":{"num_deleted":"0","num_feature":"702","num_nodes":"49","size_leaf_vector":"1"}},{"base_weights":[1.4558623E-2,-1.6496235E-1,8.710553E-1,-2.1283343E-1,5.375827E-2,8.8235694E-1,5.1083565E-1,-2.4819599E-1,5.6459673E-2,8.8675594E-1,1.4962337E-2,8.3309775E-3,5.560106E-1,-2.7073404E-1,9.742787E-2,8.953253E-1,4.4276577E-1,6.4637417E-1,4.350969E-3,-3.0110818E-1,6.359368E-2,9.0016854E-1,1.6204894E-2,-1.2874399E-2,3.91244E-2,1.1708104E-2,3.773095E-2,3.0311209E-3,-2.3055056E-2,4.2010643E-2,5.1247317E-2],"categories":[],"categories_nodes":[],"categories_segments":[],"categories_sizes":[],"default_left":[0,0,0,0,0,0,0,0,0,0,0,0,0,0,0,0,0,0,0,0,0,0,0,0,0,0,0,0,0,0,0],"id":36,"left_children":[1,3,5,7,-1,9,11,13,-1,15,-1,-1,17,19,-1,21,23,25,-1,27,-1,29,-1,-1,-1,-1,-1,-1,-1,-1,-1],"loss_changes":[1.2149038E2,3.9012115E1,1.0662842E-1,3.0170992E1,0E0,7.1624756E-2,9.051442E-3,3.0951347E1,0E0,9.7724915E-2,0E0,0E0,1.706202E-1,2.8923939E1,0E0,5.807495E-2,1.2571627E0,1.6626716E-2,0E0,3.4646976E1,0E0,7.257843E-2,0E0,0E0,0E0,0E0,0E0,0E0,0E0,0E0,0E0],"parents":[2147483647,0,0,1,1,2,2,3,3,5,5,6,6,7,7,9,9,12,12,13,13,15,15,16,16,17,17,19,19,21,21],"right_children":[2,4,6,8,-1,10,12,14,-1,16,-1,-1,18,20,-1,22,24,26,-1,28,-1,30,-1,-1,-1,-1,-1,-1,-1,-1,-1],"split_conditions":[1E0,1E0,1E0,1E0,5.375827E-2,1E0,1E0,1E0,5.6459673E-2,1E0,1.4962337E-2,8.3309775E-3,1E0,1E0,9.742787E-2,1E0,1E2,1E0,4.350969E-3,1E0,6.359368E-2,1E2,1.6204894E-2,-1.2874399E-2,3.91244E-2,1.1708104E-2,3.773095E-2,3.0311209E-3,-2.3055056E-2,4.2010643E-2,5.1247317E-2],"split_indices":[181,74,358,47,0,447,543,73,0,127,0,0,660,146,0,247,701,376,0,510,0,699,0,0,0,0,0,0,0,0,0],"split_type":[0,0,0,0,0,0,0,0,0,0,0,0,0,0,0,0,0,0,0,0,0,0,0,0,0,0,0,0,0,0,0],"sum_hessian":[7.881999E2,6.522882E2,1.3591165E2,6.288422E2,2.3446024E1,1.3037184E2,5.5398135E0,6.134917E2,1.5350514E1,1.2887883E2,1.493008E0,1.1866102E0,4.3532033E0,6.081292E2,5.36247E0,1.25441185E2,3.437654E0,3.3328242E0,1.0203793E0,5.9717554E2,1.0953653E1,1.23815544E2,1.6256347E0,1.2020295E0,2.2356248E0,1.3510587E0,1.9817655E0,1.833217E2,4.1385385E2,8.885461E1,3.496094E1],"tree_param":{"num_deleted":"0","num_feature":"702","num_nodes":"31","size_leaf_vector":"1"}},{"base_weights":[1.4749888E-2,-1.5799083E-1,8.58312E-1,-2.0209059E-1,1.1470388E0,8.6974055E-1,5.010018E-1,-2.7107492E-1,5.187499E-1,5.926606E-2,1.1150562E-2,8.825044E-1,5.2275974E-1,8.132771E-3,5.4575187E-1,-1.489285E-2,-4.7414818E-1,4.4423658E-1,7.742909E-2,8.921363E-1,4.0448514E-1,7.2758436E-1,-7.768502E-3,6.357267E-1,4.24813E-3,-5.8616374E-2,8.907283E-1,-5.178363E-1,6.1888643E-2,3.1615937E-1,5.283762E-2,8.3031064E-1,5.087329E-2,3.8149968E-2,-1.542147E-2,4.30821E-2,4.171702E-3,1.1430131E-2,3.7198957E-2,-4.093272E-3,6.025349E-2,5.333944E-2,1.979206E-2,-2.7202243E-2,9.621576E-2,1.1266953E-2,6.886516E-2,4.2580966E-2,1.9637404E-2],"categories":[],"categories_nodes":[],"categories_segments":[],"categories_sizes":[],"default_left":[0,0,0,0,0,0,0,0,0,0,0,0,0,0,0,0,0,0,0,0,0,0,0,0,0,0,0,0,0,0,0,0,0,0,0,0,0,0,0,0,0,0,0,0,0,0,0,0,0],"id":37,"left_children":[1,3,5,7,9,11,13,15,17,-1,-1,19,21,-1,23,25,27,29,-1,31,33,35,-1,37,-1,39,41,43,-1,45,-1,47,-1,-1,-1,-1,-1,-1,-1,-1,-1,-1,-1,-1,-1,-1,-1,-1,-1],"loss_changes":[1.1347962E2,3.7437122E1,1.04766846E-1,3.1278923E1,4.8846626E-1,1.0069275E-1,9.058356E-3,2.9758495E1,3.5352669E0,0E0,0E0,1.960144E-1,1.0791717E0,0E0,1.649673E-1,1.01109E1,2.4508614E1,3.8020773E0,0E0,6.741333E-2,1.3134979E0,4.0461397E-1,0E0,1.7878294E-2,0E0,7.2456813E0,6.024885E-1,2.1009506E1,0E0,4.029629E0,0E0,4.5128632E-1,0E0,0E0,0E0,0E0,0E0,0E0,0E0,0E0,0E0,0E0,0E0,0E0,0E0,0E0,0E0,0E0,0E0],"parents":[2147483647,0,0,1,1,2,2,3,3,4,4,5,5,6,6,7,7,8,8,11,11,12,12,14,14,15,15,16,16,17,17,19,19,20,20,21,21,23,23,25,25,26,26,27,27,29,29,31,31],"right_children":[2,4,6,8,10,12,14,16,18,-1,-1,20,22,-1,24,26,28,30,-1,32,34,36,-1,38,-1,40,42,44,-1,46,-1,48,-1,-1,-1,-1,-1,-1,-1,-1,-1,-1,-1,-1,-1,-1,-1,-1,-1],"split_conditions":[1E0,1E0,1E0,1E0,1E0,1E0,1E0,1E0,1E0,5.926606E-2,1.1150562E-2,1E0,1E0,8.132771E-3,1E0,1E0,1E0,1E0,7.742909E-2,1E2,1E0,1E2,-7.768502E-3,1E0,4.24813E-3,1E0,1E0,1E0,6.1888643E-2,1E0,5.283762E-2,1E0,5.087329E-2,3.8149968E-2,-1.542147E-2,4.30821E-2,4.171702E-3,1.1430131E-2,3.7198957E-2,-4.093272E-3,6.025349E-2,5.333944E-2,1.979206E-2,-2.7202243E-2,9.621576E-2,1.1266953E-2,6.886516E-2,4.2580966E-2,1.9637404E-2],"split_indices":[181,136,358,604,404,4,543,153,66,0,0,127,567,0,660,312,170,81,0,699,418,700,0,376,0,91,421,73,0,184,0,582,0,0,0,0,0,0,0,0,0,0,0,0,0,0,0,0,0],"split_type":[0,0,0,0,0,0,0,0,0,0,0,0,0,0,0,0,0,0,0,0,0,0,0,0,0,0,0,0,0,0,0,0,0,0,0,0,0,0,0,0,0,0,0,0,0,0,0,0,0],"sum_hessian":[7.7683374E2,6.454701E2,1.3136365E2,6.251888E2,2.0281328E1,1.25902534E2,5.46111E0,5.7115344E2,5.4035362E1,1.9202974E1,1.0783534E0,1.1994686E2,5.955671E0,1.1793135E0,4.2817965E0,2.530269E2,3.1812653E2,5.172423E1,2.3111293E0,1.16728516E2,3.2183442E0,4.5180845E0,1.437586E0,3.2646801E0,1.0171163E0,2.4226556E2,1.0761342E1,3.1089014E2,7.2363796E0,4.4033073E1,7.69116E0,8.327407E1,3.345445E1,2.094698E0,1.1236464E0,3.4603019E0,1.0577828E0,1.339341E0,1.9253391E0,2.3880724E2,3.4583163E0,7.085125E0,3.6762168E0,3.0835815E2,2.5319927E0,4.16783E1,2.354773E0,7.850472E1,4.7693486E0],"tree_param":{"num_deleted":"0","num_feature":"702","num_nodes":"49","size_leaf_vector":"1"}},{"base_weights":[1.5315421E-2,-1.5075944E-1,8.456602E-1,-1.9559434E-1,5.3113855E-2,8.572103E-1,4.9136606E-1,-2.2974727E-1,5.5964883E-2,8.701569E-1,5.109637E-1,7.939245E-3,5.356952E-1,-2.6067048E-1,6.272226E-2,8.799464E-1,3.9459127E-1,7.160037E-1,-7.512053E-3,6.2526923E-1,4.147734E-3,-2.8700742E-1,7.693807E-2,8.168921E-1,5.0432492E-2,3.7623078E-2,-1.4929349E-2,4.2565603E-2,4.071688E-3,1.1158595E-2,3.6676634E-2,2.9658237E-3,-2.2256393E-2,4.1925803E-2,1.9082045E-2],"categories":[],"categories_nodes":[],"categories_segments":[],"categories_sizes":[],"default_left":[0,0,0,0,0,0,0,0,0,0,0,0,0,0,0,0,0,0,0,0,0,0,0,0,0,0,0,0,0,0,0,0,0,0,0],"id":38,"left_children":[1,3,5,7,-1,9,11,13,-1,15,17,-1,19,21,-1,23,25,27,-1,29,-1,31,-1,33,-1,-1,-1,-1,-1,-1,-1,-1,-1,-1,-1],"loss_changes":[1.0592365E2,3.5024666E1,1.0267639E-1,2.8019053E1,0E0,1.0512543E-1,9.071827E-3,2.8019814E1,0E0,1.9652557E-1,1.0352738E0,0E0,1.5952373E-1,2.849247E1,0E0,9.814453E-2,1.2587979E0,3.9403534E-1,0E0,1.9076347E-2,0E0,3.20177E1,0E0,4.4726944E-1,0E0,0E0,0E0,0E0,0E0,0E0,0E0,0E0,0E0,0E0,0E0],"parents":[2147483647,0,0,1,1,2,2,3,3,5,5,6,6,7,7,9,9,10,10,12,12,13,13,15,15,16,16,17,17,19,19,21,21,23,23],"right_children":[2,4,6,8,-1,10,12,14,-1,16,18,-1,20,22,-1,24,26,28,-1,30,-1,32,-1,34,-1,-1,-1,-1,-1,-1,-1,-1,-1,-1,-1],"split_conditions":[1E0,1E0,1E0,1E0,5.3113855E-2,1E0,1E0,1E0,5.5964883E-2,1E0,1E0,7.939245E-3,1E0,1E0,6.272226E-2,1E2,1E0,1E2,-7.512053E-3,1E0,4.147734E-3,1E0,7.693807E-2,1E0,5.0432492E-2,3.7623078E-2,-1.4929349E-2,4.2565603E-2,4.071688E-3,1.1158595E-2,3.6676634E-2,2.9658237E-3,-2.2256393E-2,4.1925803E-2,1.9082045E-2],"split_indices":[181,74,358,47,0,4,543,146,0,127,567,0,660,91,0,699,418,700,0,376,0,510,0,582,0,0,0,0,0,0,0,0,0,0,0],"split_type":[0,0,0,0,0,0,0,0,0,0,0,0,0,0,0,0,0,0,0,0,0,0,0,0,0,0,0,0,0,0,0,0,0,0,0],"sum_hessian":[7.661981E2,6.391767E2,1.2702145E2,6.1720306E2,2.1973614E1,1.2163658E2,5.384862E0,6.0238214E2,1.4820968E1,1.1579379E2,5.842789E0,1.1722158E0,4.2126465E0,5.9089514E2,1.1486955E1,1.12625084E2,3.1687093E0,4.396541E0,1.4462479E0,3.1987097E0,1.0139365E0,5.831998E2,7.695365E0,8.052256E1,3.210252E1,2.0333953E0,1.135314E0,3.342309E0,1.0542325E0,1.3279599E0,1.87075E0,1.8300256E2,4.0019724E2,7.582876E1,4.693802E0],"tree_param":{"num_deleted":"0","num_feature":"702","num_nodes":"35","size_leaf_vector":"1"}},{"base_weights":[1.5492153E-2,-1.4438161E-1,8.330512E-1,-2.3000166E-1,4.8576012E-1,8.375253E-1,1.2897325E-2,-2.7627777E-3,-4.4550294E-1,5.405439E-1,-4.3497372E-2,8.4953386E-1,4.819241E-1,-3.5640333E-2,7.3150866E-2,-4.8616448E-1,1.522022E0,4.4210017E-1,1.2335134E0,8.584656E-1,4.1383016E-1,7.7502877E-3,5.258357E-1,-6.29512E-2,4.8699994E-2,-5.8209974E-1,2.5999004E-1,9.266441E-2,3.338594E-2,5.549096E-1,-3.2155436E-1,1.5066081E0,-1.4714019E-2,8.6372364E-1,1.4179045E-2,-1.3385377E-2,3.8066074E-2,6.149966E-1,4.049719E-3,-4.3076607E-3,5.3188484E-2,2.9696016E-2,-3.165148E-2,7.26019E-3,5.1941395E-2,2.3720905E-2,7.463496E-2,3.1710973E-3,-3.2250803E-2,8.35745E-2,2.28787E-2,4.000197E-2,4.9952257E-2,1.0893379E-2,3.616358E-2],"categories":[],"categories_nodes":[],"categories_segments":[],"categories_sizes":[],"default_left":[0,0,0,0,0,0,0,0,0,0,0,0,0,0,0,0,0,0,0,0,0,0,0,0,0,0,0,0,0,0,0,0,0,0,0,0,0,0,0,0,0,0,0,0,0,0,0,0,0,0,0,0,0,0,0],"id":39,"left_children":[1,3,5,7,9,11,-1,13,15,17,-1,19,21,23,-1,25,27,29,31,33,35,-1,37,39,-1,41,43,-1,-1,45,47,49,-1,51,-1,-1,-1,53,-1,-1,-1,-1,-1,-1,-1,-1,-1,-1,-1,-1,-1,-1,-1,-1,-1],"loss_changes":[9.897346E1,3.4288013E1,1.02638245E-1,2.7341486E1,6.1218796E0,1.1348724E-1,0E0,1.3197834E1,2.3666428E1,4.4862003E0,0E0,1.006012E-1,9.090185E-3,7.444942E0,0E0,2.030378E1,4.7314835E-1,5.8762474E0,4.0381985E0,9.9220276E-2,1.2183372E0,0E0,1.5427971E-1,6.9320245E0,0E0,1.5335381E1,2.7782834E0,0E0,0E0,3.6694775E0,1.1798171E0,5.2770805E-1,0E0,1.6881561E-1,0E0,0E0,0E0,2.0217896E-2,0E0,0E0,0E0,0E0,0E0,0E0,0E0,0E0,0E0,0E0,0E0,0E0,0E0,0E0,0E0,0E0,0E0],"parents":[2147483647,0,0,1,1,2,2,3,3,4,4,5,5,7,7,8,8,9,9,11,11,12,12,13,13,15,15,16,16,17,17,18,18,19,19,20,20,22,22,23,23,25,25,26,26,29,29,30,30,31,31,33,33,37,37],"right_children":[2,4,6,8,10,12,-1,14,16,18,-1,20,22,24,-1,26,28,30,32,34,36,-1,38,40,-1,42,44,-1,-1,46,48,50,-1,52,-1,-1,-1,54,-1,-1,-1,-1,-1,-1,-1,-1,-1,-1,-1,-1,-1,-1,-1,-1,-1],"split_conditions":[1E0,1E0,1E0,1E0,1E0,1E0,1.2897325E-2,1E0,1E0,1E0,-4.3497372E-2,1E0,1E0,1E0,7.3150866E-2,1E0,1E0,1E0,1E0,1E0,1E2,7.7502877E-3,1E0,1E0,4.8699994E-2,1E0,1E0,9.266441E-2,3.338594E-2,1E0,1E0,1E0,-1.4714019E-2,1E2,1.4179045E-2,-1.3385377E-2,3.8066074E-2,1E0,4.049719E-3,-4.3076607E-3,5.3188484E-2,2.9696016E-2,-3.165148E-2,7.26019E-3,5.1941395E-2,2.3720905E-2,7.463496E-2,3.1710973E-3,-3.2250803E-2,8.35745E-2,2.28787E-2,4.000197E-2,4.9952257E-2,1.0893379E-2,3.616358E-2],"split_indices":[181,603,447,418,682,358,0,166,81,331,0,127,543,47,0,660,617,347,241,247,701,0,660,146,0,510,233,0,0,184,660,129,0,699,0,0,0,376,0,0,0,0,0,0,0,0,0,0,0,0,0,0,0,0,0],"split_type":[0,0,0,0,0,0,0,0,0,0,0,0,0,0,0,0,0,0,0,0,0,0,0,0,0,0,0,0,0,0,0,0,0,0,0,0,0,0,0,0,0,0,0,0,0,0,0,0,0,0,0,0,0,0,0],"sum_hessian":[7.5530035E2,6.3244836E2,1.2285195E2,5.573534E2,7.509497E1,1.2145081E2,1.4011394E0,2.7178162E2,2.8557178E2,7.2756195E1,2.3387766E0,1.161398E2,5.311011E0,2.6677356E2,5.0080657E0,2.8052722E2,5.044565E0,6.51403E1,7.615898E0,1.12856E2,3.2838004E0,1.1653115E0,4.1456995E0,2.6066034E2,6.1132374E0,2.487629E2,3.1764309E1,2.7924156E0,2.2521493E0,5.6994278E1,8.146019E0,6.4727535E0,1.1431448E0,1.1133527E2,1.5207323E0,1.1864347E0,2.0973656E0,3.1348617E0,1.0108374E0,2.5630588E2,4.354447E0,9.883411E0,2.3887949E2,2.8718214E1,3.0460951E0,5.3875942E1,3.1183379E0,4.0864053E0,4.0596137E0,5.080815E0,1.3919384E0,8.040681E1,3.0928463E1,1.3169062E0,1.8179556E0],"tree_param":{"num_deleted":"0","num_feature":"702","num_nodes":"55","size_leaf_vector":"1"}},{"base_weights":[1.5841138E-2,-1.3774167E-1,8.203909E-1,-1.7880212E-1,1.1256862E0,8.2492745E-1,1.2591842E-2,-2.4445553E-1,5.04654E-1,1.1662393E0,9.7467E-3,8.370564E-1,4.7267157E-1,6.2250156E-2,-3.9472145E-1,4.3034437E-1,7.54781E-2,5.104238E-1,1.2166512E0,8.46115E-1,4.039849E-1,3.252618E-2,2.917722E-1,1.0321855E-2,8.588733E-1,-4.3919355E-1,1.2065588E0,3.050807E-1,5.1571783E-2,3.499255E-2,3.1254527E-3,7.670956E-2,4.4268213E-2,8.5145575E-1,1.3844994E-2,-1.2956477E-2,3.75434E-2,1.1675018E-3,2.2075577E-2,3.241365E-3,-3.1090492E-2,5.199002E-2,1.8636277E-2,-2.372E-2,7.5460084E-2,2.2092855E-2,6.413997E-2,1.0865088E-2,6.707703E-2,3.932413E-2,4.9529344E-2],"categories":[],"categories_nodes":[],"categories_segments":[],"categories_sizes":[],"default_left":[0,0,0,0,0,0,0,0,0,0,0,0,0,0,0,0,0,0,0,0,0,0,0,0,0,0,0,0,0,0,0,0,0,0,0,0,0,0,0,0,0,0,0,0,0,0,0,0,0,0,0],"id":40,"left_children":[1,3,5,7,9,11,-1,13,15,17,-1,19,21,23,25,27,-1,29,31,33,35,-1,37,39,41,43,45,47,-1,-1,-1,-1,-1,49,-1,-1,-1,-1,-1,-1,-1,-1,-1,-1,-1,-1,-1,-1,-1,-1,-1],"loss_changes":[9.23713E1,3.2770256E1,1.0132599E-1,2.7446104E1,5.237198E-1,1.1036682E-1,0E0,2.5659374E1,3.3598413E0,2.74086E-3,0E0,1.02256775E-1,1.0940671E-2,7.5930367E0,2.7124546E1,3.5550709E0,0E0,2.166912E-1,4.0871048E-1,9.853363E-2,1.1682539E0,0E0,1.8690124E-1,6.0193014E0,6.0052204E-1,2.5691582E1,3.7098885E-2,3.7071395E0,0E0,0E0,0E0,0E0,0E0,2.0137787E-1,0E0,0E0,0E0,0E0,0E0,0E0,0E0,0E0,0E0,0E0,0E0,0E0,0E0,0E0,0E0,0E0,0E0],"parents":[2147483647,0,0,1,1,2,2,3,3,4,4,5,5,7,7,8,8,9,9,11,11,12,12,13,13,14,14,15,15,17,17,18,18,19,19,20,20,22,22,23,23,24,24,25,25,26,26,27,27,33,33],"right_children":[2,4,6,8,10,12,-1,14,16,18,-1,20,22,24,26,28,-1,30,32,34,36,-1,38,40,42,44,46,48,-1,-1,-1,-1,-1,50,-1,-1,-1,-1,-1,-1,-1,-1,-1,-1,-1,-1,-1,-1,-1,-1,-1],"split_conditions":[1E0,1E0,1E0,1E0,1E0,1E0,1.2591842E-2,1E0,1E0,1E0,9.7467E-3,1E0,1E0,1E0,1E0,1E0,7.54781E-2,1E0,1E0,1E0,1E2,3.252618E-2,1E0,1E0,1E0,1E0,1E0,1E0,5.1571783E-2,3.499255E-2,3.1254527E-3,7.670956E-2,4.4268213E-2,1E2,1.3844994E-2,-1.2956477E-2,3.75434E-2,1.1675018E-3,2.2075577E-2,3.241365E-3,-3.1090492E-2,5.199002E-2,1.8636277E-2,-2.372E-2,7.5460084E-2,2.2092855E-2,6.413997E-2,1.0865088E-2,6.707703E-2,3.932413E-2,4.9529344E-2],"split_indices":[181,136,447,604,404,358,0,510,66,543,0,127,29,312,146,81,0,129,74,247,701,0,617,643,421,91,543,184,0,0,0,0,0,699,0,0,0,0,0,0,0,0,0,0,0,0,0,0,0,0,0],"split_type":[0,0,0,0,0,0,0,0,0,0,0,0,0,0,0,0,0,0,0,0,0,0,0,0,0,0,0,0,0,0,0,0,0,0,0,0,0,0,0,0,0,0,0,0,0,0,0,0,0,0,0],"sum_hessian":[7.456378E2,6.2681256E2,1.1882525E2,6.079143E2,1.8898277E1,1.1743727E2,1.3879715E0,5.552215E2,5.2692764E1,1.7866808E1,1.0314687E0,1.12197784E2,5.239494E0,1.8276602E2,3.724555E2,5.03945E1,2.2982633E0,2.069496E0,1.5797313E1,1.08964806E2,3.2329717E0,1.3329481E0,3.9065456E0,1.7253236E2,1.0233656E1,3.63097E2,9.358512E0,4.2951267E1,7.4432325E0,1.0591199E0,1.010376E0,6.21204E0,9.585273E0,1.074607E2,1.5041101E0,1.1972475E0,2.0357242E0,1.8128237E0,2.093722E0,1.596629E2,1.286946E1,6.6280665E0,3.60559E0,3.5739557E2,5.701425E0,1.4645417E0,7.89397E0,4.0712902E1,2.2383633E0,7.7787415E1,2.9673285E1],"tree_param":{"num_deleted":"0","num_feature":"702","num_nodes":"51","size_leaf_vector":"1"}},{"base_weights":[1.635167E-2,-1.3130319E-1,8.0772334E-1,-1.7339595E-1,5.2494615E-2,8.202217E-1,4.6978942E-1,-1.9439507E-1,9.23392E-2,8.296231E-1,3.659509E-1,3.425631E-2,-9.37104E-3,-2.2781639E-1,5.538248E-2,8.4386665E-1,4.5350307E-1,3.651836E-2,-1.5146642E-2,-2.560062E-1,1.2765582E0,7.7678645E-1,4.918739E-2,1.1281217E-2,2.7281523E-2,-1.1343406E-4,-2.2242319E-2,8.162583E-2,3.856867E-2,4.0651735E-2,2.1944543E-2],"categories":[],"categories_nodes":[],"categories_segments":[],"categories_sizes":[],"default_left":[0,0,0,0,0,0,0,0,0,0,0,0,0,0,0,0,0,0,0,0,0,0,0,0,0,0,0,0,0,0,0],"id":41,"left_children":[1,3,5,7,-1,9,11,13,-1,15,17,-1,-1,19,-1,21,23,-1,-1,25,27,29,-1,-1,-1,-1,-1,-1,-1,-1,-1],"loss_changes":[8.617635E1,3.1089138E1,1.0445404E-1,2.5858631E1,0E0,1.6825867E-1,1.0449699E0,2.6179861E1,0E0,1.9298553E-1,1.2034417E0,0E0,0E0,2.4997007E1,0E0,1.9644928E-1,4.590273E-3,0E0,0E0,2.740044E1,6.949463E-1,5.488663E-1,0E0,0E0,0E0,0E0,0E0,0E0,0E0,0E0,0E0],"parents":[2147483647,0,0,1,1,2,2,3,3,5,5,6,6,7,7,9,9,10,10,13,13,15,15,16,16,19,19,20,20,21,21],"right_children":[2,4,6,8,-1,10,12,14,-1,16,18,-1,-1,20,-1,22,24,-1,-1,26,28,30,-1,-1,-1,-1,-1,-1,-1,-1,-1],"split_conditions":[1E0,1E0,1E0,1E0,5.2494615E-2,1E0,1E0,1E0,9.23392E-2,1E0,1E0,3.425631E-2,-9.37104E-3,1E0,5.538248E-2,1E2,1E0,3.651836E-2,-1.5146642E-2,1E0,1E0,1E0,4.918739E-2,1.1281217E-2,2.7281523E-2,-1.1343406E-4,-2.2242319E-2,8.162583E-2,3.856867E-2,4.0651735E-2,2.1944543E-2],"split_indices":[181,74,4,73,0,127,567,47,0,358,418,0,0,81,0,699,331,0,0,376,129,347,0,0,0,0,0,0,0,0,0],"split_type":[0,0,0,0,0,0,0,0,0,0,0,0,0,0,0,0,0,0,0,0,0,0,0,0,0,0,0,0,0,0,0],"sum_hessian":[7.355887E2,6.2062585E2,1.14962875E2,6.0009424E2,2.0531586E1,1.0948638E2,5.476491E0,5.948151E2,5.279139E0,1.06456924E2,3.0294597E0,4.0929484E0,1.3835427E0,5.807337E2,1.4081434E1,1.01374306E2,5.0826187E0,1.9015509E0,1.1279087E0,5.708663E2,9.8673935E0,7.294609E1,2.8428211E1,2.4562035E0,2.6264153E0,2.4401045E2,3.2685583E2,4.47954E0,5.3878536E0,6.46089E1,8.337189E0],"tree_param":{"num_deleted":"0","num_feature":"702","num_nodes":"31","size_leaf_vector":"1"}},{"base_weights":[1.651565E-2,-1.2538518E-1,7.950475E-1,-1.6423693E-1,1.1067147E0,7.347107E-1,9.124914E-1,-1.9123946E-1,6.667611E-2,1.1483122E0,9.221236E-3,7.511875E-1,7.2949886E-4,9.348966E-1,8.438147E-3,-4.0066046E-1,2.0854868E-2,2.43665E-2,1.1997353E0,7.681297E-1,9.738978E-2,9.585054E-1,9.106199E-3,-4.4924676E-1,6.269789E-2,-1.3166598E-2,6.714802E-2,7.4712045E-2,4.3166764E-2,3.911292E-2,3.229072E-1,2.8406996E-2,-2.188522E-2,4.9189344E-2,1.955456E-2,2.165834E-2,-2.644116E-2,-2.1150569E-3,7.180342E-2,-1.8332228E-2,3.571404E-2],"categories":[],"categories_nodes":[],"categories_segments":[],"categories_sizes":[],"default_left":[0,0,0,0,0,0,0,0,0,0,0,0,0,0,0,0,0,0,0,0,0,0,0,0,0,0,0,0,0,0,0,0,0,0,0,0,0,0,0,0,0],"id":42,"left_children":[1,3,5,7,9,11,13,15,-1,17,-1,19,-1,21,-1,23,25,-1,27,29,31,33,-1,35,-1,37,-1,-1,-1,-1,39,-1,-1,-1,-1,-1,-1,-1,-1,-1,-1],"loss_changes":[8.045101E1,2.9672249E1,1.251297E-1,2.4444227E1,5.1568604E-1,9.299278E-1,4.0826797E-1,2.6142624E1,0E0,2.551651E-2,0E0,7.836838E-1,0E0,4.075737E-1,0E0,2.436795E1,1.3209265E1,0E0,2.923565E-1,2.2170639E-1,1.0302756E0,6.748009E-2,0E0,2.0480091E1,0E0,1.2174874E1,0E0,0E0,0E0,0E0,1.3473548E0,0E0,0E0,0E0,0E0,0E0,0E0,0E0,0E0,0E0,0E0],"parents":[2147483647,0,0,1,1,2,2,3,3,4,4,5,5,6,6,7,7,9,9,11,11,13,13,15,15,16,16,18,18,19,19,20,20,21,21,23,23,25,25,30,30],"right_children":[2,4,6,8,10,12,14,16,-1,18,-1,20,-1,22,-1,24,26,-1,28,30,32,34,-1,36,-1,38,-1,-1,-1,-1,40,-1,-1,-1,-1,-1,-1,-1,-1,-1,-1],"split_conditions":[1E0,1E0,1E0,1E0,1E0,1E0,1E0,1E2,6.667611E-2,1E0,9.221236E-3,1E0,7.2949886E-4,1E0,8.438147E-3,1E0,1E0,2.43665E-2,1E0,1E0,1E0,1E0,9.106199E-3,1E0,6.269789E-2,1E0,6.714802E-2,7.4712045E-2,4.3166764E-2,3.911292E-2,1E0,2.8406996E-2,-2.188522E-2,4.9189344E-2,1.955456E-2,2.165834E-2,-2.644116E-2,-2.1150569E-3,7.180342E-2,-1.8332228E-2,3.571404E-2],"split_indices":[181,136,660,81,404,127,247,699,0,543,0,4,0,358,0,170,91,0,74,74,604,582,0,510,0,331,0,0,0,0,489,0,0,0,0,0,0,0,0,0,0],"split_type":[0,0,0,0,0,0,0,0,0,0,0,0,0,0,0,0,0,0,0,0,0,0,0,0,0,0,0,0,0,0,0,0,0,0,0,0,0,0,0,0,0],"sum_hessian":[7.263304E2,6.150634E2,1.1126695E2,5.9710175E2,1.7961678E1,7.8297455E1,3.2969494E1,5.8738434E2,9.717416E0,1.6952034E1,1.0096431E0,7.650386E1,1.7935998E0,3.1755793E1,1.2136998E0,2.9510748E2,2.9227686E2,1.979881E0,1.4972153E1,7.440099E1,2.102865E0,3.052515E1,1.230643E0,2.8739682E2,7.710648E0,2.8590964E2,6.3672123E0,6.1479735E0,8.82418E0,7.1378845E1,3.0221505E0,1.085839E0,1.0170258E0,2.852059E1,2.00456E0,2.3406084E1,2.6399075E2,2.8122684E2,4.6828017E0,1.1171161E0,1.9050344E0],"tree_param":{"num_deleted":"0","num_feature":"702","num_nodes":"41","size_leaf_vector":"1"}},{"base_weights":[1.6736502E-2,-1.1947969E-1,7.8215975E-1,-1.593241E-1,5.197559E-2,7.20835E-1,9.0229195E-1,-1.7984276E-1,8.972868E-2,7.375059E-1,7.063265E-4,9.252546E-1,8.23677E-3,-2.1218279E-1,5.4926254E-2,7.5463885E-1,9.501881E-2,9.495104E-1,8.889294E-3,-2.3356956E-1,8.213171E-2,3.844459E-2,3.144401E-1,2.8018093E-2,-2.1135474E-2,4.877293E-2,1.9116528E-2,-1.3095249E-2,6.0308017E-2,-1.7702488E-2,3.5242915E-2],"categories":[],"categories_nodes":[],"categories_segments":[],"categories_sizes":[],"default_left":[0,0,0,0,0,0,0,0,0,0,0,0,0,0,0,0,0,0,0,0,0,0,0,0,0,0,0,0,0,0,0],"id":43,"left_children":[1,3,5,7,-1,9,11,13,-1,15,-1,17,-1,19,-1,21,23,25,-1,27,-1,-1,29,-1,-1,-1,-1,-1,-1,-1,-1],"loss_changes":[7.501991E1,2.8377907E1,1.5039825E-1,2.4036436E1,0E0,8.9601135E-1,4.0247154E-1,2.4470242E1,0E0,7.55455E-1,0E0,4.033451E-1,0E0,2.309893E1,0E0,2.165451E-1,9.8272383E-1,7.350731E-2,0E0,2.3445835E1,0E0,0E0,1.2890594E0,0E0,0E0,0E0,0E0,0E0,0E0,0E0,0E0],"parents":[2147483647,0,0,1,1,2,2,3,3,5,5,6,