{"learner":{"attributes":{"scikit_learn":"{\"_estimator_type\": \"regressor\"}"},"feature_names":[],"feature_types":[],"gradient_booster":{"model":{"cats":{"enc":[],"feature_segments":[],"sorted_idx":[]},"gbtree_model_param":{"num_parallel_tree":"1","num_trees":"300"},"iteration_indptr":[0,1,2,3,4,5,6,7,8,9,10,11,12,13,14,15,16,17,18,19,20,21,22,23,24,25,26,27,28,29,30,31,32,33,34,35,36,37,38,39,40,41,42,43,44,45,46,47,48,49,50,51,52,53,54,55,56,57,58,59,60,61,62,63,64,65,66,67,68,69,70,71,72,73,74,75,76,77,78,79,80,81,82,83,84,85,86,87,88,89,90,91,92,93,94,95,96,97,98,99,100,101,102,103,104,105,106,107,108,109,110,111,112,113,114,115,116,117,118,119,120,121,122,123,124,125,126,127,128,129,130,131,132,133,134,135,136,137,138,139,140,141,142,143,144,145,146,147,148,149,150,151,152,153,154,155,156,157,158,159,160,161,162,163,164,165,166,167,168,169,170,171,172,173,174,175,176,177,178,179,180,181,182,183,184,185,186,187,188,189,190,191,192,193,194,195,196,197,198,199,200,201,202,203,204,205,206,207,208,209,210,211,212,213,214,215,216,217,218,219,220,221,222,223,224,225,226,227,228,229,230,231,232,233,234,235,236,237,238,239,240,241,242,243,244,245,246,247,248,249,250,251,252,253,254,255,256,257,258,259,260,261,262,263,264,265,266,267,268,269,270,271,272,273,274,275,276,277,278,279,280,281,282,283,284,285,286,287,288,289,290,291,292,293,294,295,296,297,298,299,300],"tree_info":[0,0,0,0,0,0,0,0,0,0,0,0,0,0,0,0,0,0,0,0,0,0,0,0,0,0,0,0,0,0,0,0,0,0,0,0,0,0,0,0,0,0,0,0,0,0,0,0,0,0,0,0,0,0,0,0,0,0,0,0,0,0,0,0,0,0,0,0,0,0,0,0,0,0,0,0,0,0,0,0,0,0,0,0,0,0,0,0,0,0,0,0,0,0,0,0,0,0,0,0,0,0,0,0,0,0,0,0,0,0,0,0,0,0,0,0,0,0,0,0,0,0,0,0,0,0,0,0,0,0,0,0,0,0,0,0,0,0,0,0,0,0,0,0,0,0,0,0,0,0,0,0,0,0,0,0,0,0,0,0,0,0,0,0,0,0,0,0,0,0,0,0,0,0,0,0,0,0,0,0,0,0,0,0,0,0,0,0,0,0,0,0,0,0,0,0,0,0,0,0,0,0,0,0,0,0,0,0,0,0,0,0,0,0,0,0,0,0,0,0,0,0,0,0,0,0,0,0,0,0,0,0,0,0,0,0,0,0,0,0,0,0,0,0,0,0,0,0,0,0,0,0,0,0,0,0,0,0,0,0,0,0,0,0,0,0,0,0,0,0,0,0,0,0,0,0,0,0,0,0,0,0,0,0,0,0,0,0,0,0,0,0,0,0,0,0,0,0,0,0],"trees":[{"base_weights":[-3.3277555E-3,-1.7981646E0,2.2125406E0,-2.8957498E0,-1.1716197E0,2.2491484E0,1.0212726E-2,-3.151136E0,-7.5792056E-1,-1.5603117E0,-3.5794935E-1,1.1276653E-1,3.1808484E-2,-3.2054768E0,6.8084835E-3,-7.728728E-2,-1.0638388E-1,-1.6837178E0,9.057658E-2,-6.130258E-1,5.451054E-1,-1.6735391E-1,-9.067914E-2,1.0212726E-2,-2.4255356E-2,-9.1697775E-2,-3.3351116E-2,9.077978E-3,8.9357374E-4,-5.9575826E-2,-1.6117074E-2,1.2103971E-2,8.1808485E-2],"categories":[],"categories_nodes":[],"categories_segments":[],"categories_sizes":[],"default_left":[0,0,0,0,0,0,0,0,0,0,0,0,0,0,0,0,0,0,0,0,0,0,0,0,0,0,0,0,0,0,0,0,0],"id":0,"left_children":[1,3,5,7,9,11,-1,13,15,17,19,-1,-1,21,-1,-1,23,25,27,29,31,-1,-1,-1,-1,-1,-1,-1,-1,-1,-1,-1,-1],"loss_changes":[1.4397196E3,1.3414453E2,1.1450623E1,3.692163E1,4.023996E1,1.5075684E-1,0E0,1.1869202E1,4.4552298E0,1.7876999E1,1.0239127E1,0E0,0E0,6.3467407E0,0E0,0E0,8.0496114E-1,1.1149109E1,4.3059755E-2,5.3333025E0,2.9101255E0,0E0,0E0,0E0,0E0,0E0,0E0,0E0,0E0,0E0,0E0,0E0,0E0],"parents":[2147483647,0,0,1,1,2,2,3,3,4,4,5,5,7,7,8,8,9,9,10,10,13,13,16,16,17,17,18,18,19,19,20,20],"right_children":[2,4,6,8,10,12,-1,14,16,18,20,-1,-1,22,-1,-1,24,26,28,30,32,-1,-1,-1,-1,-1,-1,-1,-1,-1,-1,-1,-1],"split_conditions":[2.00001E0,1E0,2.00001E0,1E0,1E0,1E0,1.0212726E-2,1E0,1E0,1E0,1E0,1.1276653E-1,3.1808484E-2,1E0,6.8084835E-3,-7.728728E-2,1E2,1E0,1E0,1E0,1E0,-1.6735391E-1,-9.067914E-2,1.0212726E-2,-2.4255356E-2,-9.1697775E-2,-3.3351116E-2,9.077978E-3,8.9357374E-4,-5.9575826E-2,-1.6117074E-2,1.2103971E-2,8.1808485E-2],"split_indices":[703,703,702,32,612,29,0,273,660,440,342,0,0,29,0,0,701,81,702,604,60,0,0,0,0,0,0,0,0,0,0,0,0],"split_type":[0,0,0,0,0,0,0,0,0,0,0,0,0,0,0,0,0,0,0,0,0,0,0,0,0,0,0,0,0,0,0,0,0],"sum_hessian":[3.6E2,1.99E2,1.61E2,7.1E1,1.28E2,1.58E2,3E0,6.3E1,8E0,8.6E1,4.2E1,1.57E2,1E0,6.2E1,1E0,3E0,5E0,8E1,6E0,3.3E1,9E0,5.5E1,7E0,3E0,2E0,6.9E1,1.1E1,2E0,4E0,1E1,2.3E1,8E0,1E0],"tree_param":{"num_deleted":"0","num_feature":"705","num_nodes":"33","size_leaf_vector":"1"}},{"base_weights":[-6.5251745E-2,-1.6726742E0,2.0577884E0,-3.6490486E0,-5.6046075E-1,2.1296148E0,1.1233991E-2,-1.865605E-1,-2.304147E-2,-5.888774E-1,7.976327E-2,1.0710883E-1,4.0001728E-2,-5.431781E-1,-8.20502E-2,-3.0172724E-2,4.489078E-3],"categories":[],"categories_nodes":[],"categories_segments":[],"categories_sizes":[],"default_left":[0,0,0,0,0,0,0,0,0,0,0,0,0,0,0,0,0],"id":1,"left_children":[1,3,5,7,9,11,-1,-1,-1,13,-1,-1,-1,15,-1,-1,-1],"loss_changes":[1.2353987E3,4.5077386E2,2.0061401E1,1.7664612E1,9.086784E0,7.915039E-1,0E0,0E0,0E0,5.4553947E0,0E0,0E0,0E0,4.937702E0,0E0,0E0,0E0],"parents":[2147483647,0,0,1,1,2,2,3,3,4,4,5,5,9,9,13,13],"right_children":[2,4,6,8,10,12,-1,-1,-1,14,-1,-1,-1,16,-1,-1,-1],"split_conditions":[2.00001E0,1E0,2.00001E0,1E0,1E0,1E0,1.1233991E-2,-1.865605E-1,-2.304147E-2,1E0,7.976327E-2,1.0710883E-1,4.0001728E-2,1E0,-8.20502E-2,-3.0172724E-2,4.489078E-3],"split_indices":[703,704,702,340,60,120,0,0,0,340,0,0,0,391,0,0,0],"split_type":[0,0,0,0,0,0,0,0,0,0,0,0,0,0,0,0,0],"sum_hessian":[3.6E2,2.05E2,1.55E2,7.3E1,1.32E2,1.49E2,6E0,7.1E1,2E0,1.31E2,1E0,1.47E2,2E0,1.27E2,4E0,1.16E2,1.1E1],"tree_param":{"num_deleted":"0","num_feature":"705","num_nodes":"17","size_leaf_vector":"1"}},{"base_weights":[-8.697991E-2,-1.5883262E0,1.9680661E0,-3.373438E0,-5.5632E-1,2.0144763E0,1.0035706E-2,-1.7335108E-1,-4.1108858E-2,-5.84101E-1,7.776918E-2,1.01910524E-1,4.6401996E-2,-6.74092E-1,6.431408E-2,-2.5352767E-2,-4.729369E-2,-1.5935322E-2,1.0334122E-2],"categories":[],"categories_nodes":[],"categories_segments":[],"categories_sizes":[],"default_left":[0,0,0,0,0,0,0,0,0,0,0,0,0,0,0,0,0,0,0],"id":2,"left_children":[1,3,5,7,9,11,-1,-1,-1,13,-1,-1,-1,15,17,-1,-1,-1,-1],"loss_changes":[1.1107614E3,3.813105E2,1.2063171E1,1.5295044E1,8.710968E0,1.9247437E0,0E0,0E0,0E0,7.7457542E0,0E0,0E0,0E0,4.786499E0,9.9288094E-1,0E0,0E0,0E0,0E0],"parents":[2147483647,0,0,1,1,2,2,3,3,4,4,5,5,9,9,13,13,14,14],"right_children":[2,4,6,8,10,12,-1,-1,-1,14,-1,-1,-1,16,18,-1,-1,-1,-1],"split_conditions":[2.00001E0,1E0,2.00001E0,1E0,1E0,1E0,1.0035706E-2,-1.7335108E-1,-4.1108858E-2,1E0,7.776918E-2,1.01910524E-1,4.6401996E-2,1E2,1E0,-2.5352767E-2,-4.729369E-2,-1.5935322E-2,1.0334122E-2],"split_indices":[703,704,702,340,133,65,0,0,0,47,0,0,0,701,618,0,0,0,0],"split_type":[0,0,0,0,0,0,0,0,0,0,0,0,0,0,0,0,0,0,0],"sum_hessian":[3.58E2,2.07E2,1.51E2,7.5E1,1.32E2,1.47E2,4E0,7.2E1,3E0,1.31E2,1E0,1.43E2,4E0,1.15E2,1.6E1,7.3E1,4.2E1,4E0,1.2E1],"tree_param":{"num_deleted":"0","num_feature":"705","num_nodes":"19","size_leaf_vector":"1"}},{"base_weights":[-1.7627425E-2,-3.3688426E0,8.006212E-1,-1.7031986E-1,-1.662305E-2,-4.2320237E-1,1.8954461E0,-4.7051245E-1,4.83598E-2,9.6921116E-2,9.634285E-3,-4.2685965E-1,-7.7315256E-2,-1.7553708E-2,-5.0234307E-2],"categories":[],"categories_nodes":[],"categories_segments":[],"categories_sizes":[],"default_left":[0,0,0,0,0,0,0,0,0,0,0,0,0,0,0],"id":3,"left_children":[1,3,5,-1,-1,7,9,11,-1,-1,-1,13,-1,-1,-1],"loss_changes":[1.0200263E3,7.1917114E0,4.0142407E2,0E0,0E0,9.7958145E0,1.1188721E1,5.820612E0,0E0,0E0,0E0,5.515255E0,0E0,0E0,0E0],"parents":[2147483647,0,0,1,1,2,2,5,5,6,6,7,7,11,11],"right_children":[2,4,6,-1,-1,8,10,12,-1,-1,-1,14,-1,-1,-1],"split_conditions":[1E0,1E0,2.00001E0,-1.7031986E-1,-1.662305E-2,2.00001E0,2.00001E0,1E0,4.83598E-2,9.6921116E-2,9.634285E-3,1E0,-7.7315256E-2,-1.7553708E-2,-5.0234307E-2],"split_indices":[704,340,704,0,0,703,702,340,0,0,0,166,0,0,0],"split_type":[0,0,0,0,0,0,0,0,0,0,0,0,0,0,0],"sum_hessian":[3.7E2,7.2E1,2.98E2,7.1E1,1E0,1.41E2,1.57E2,1.37E2,4E0,1.53E2,4E0,1.33E2,4E0,1.19E2,1.4E1],"tree_param":{"num_deleted":"0","num_feature":"705","num_nodes":"15","size_leaf_vector":"1"}},{"base_weights":[-5.3053675E-3,-1.4407008E0,1.7889706E0,-3.1696653E0,-4.766344E-1,1.8269644E0,9.248905E-3,-1.611354E-1,-4.112022E-2,-5.019137E-1,7.340193E-2,9.230032E-2,4.261152E-2,-4.6058086E-1,-7.422265E-2,-2.6240556E-2,8.140115E-3],"categories":[],"categories_nodes":[],"categories_segments":[],"categories_sizes":[],"default_left":[0,0,0,0,0,0,0,0,0,0,0,0,0,0,0,0,0],"id":4,"left_children":[1,3,5,7,9,11,-1,-1,-1,13,-1,-1,-1,15,-1,-1,-1],"loss_changes":[9.735391E2,3.4852496E2,9.900269E0,6.6875E0,7.422598E0,1.4707642E0,0E0,0E0,0E0,4.7987976E0,0E0,0E0,0E0,5.3306866E0,0E0,0E0,0E0],"parents":[2147483647,0,0,1,1,2,2,3,3,4,4,5,5,9,9,13,13],"right_children":[2,4,6,8,10,12,-1,-1,-1,14,-1,-1,-1,16,-1,-1,-1],"split_conditions":[2.00001E0,1E0,2.00001E0,1E0,1E0,1E0,9.248905E-3,-1.611354E-1,-4.112022E-2,1E0,7.340193E-2,9.230032E-2,4.261152E-2,1E0,-7.422265E-2,-2.6240556E-2,8.140115E-3],"split_indices":[703,704,702,340,60,65,0,0,0,340,0,0,0,342,0,0,0],"split_type":[0,0,0,0,0,0,0,0,0,0,0,0,0,0,0,0,0],"sum_hessian":[3.76E2,2.09E2,1.67E2,7.4E1,1.35E2,1.63E2,4E0,7.2E1,2E0,1.34E2,1E0,1.59E2,4E0,1.3E2,4E0,1.18E2,1.2E1],"tree_param":{"num_deleted":"0","num_feature":"705","num_nodes":"17","size_leaf_vector":"1"}},{"base_weights":[4.849604E-2,-1.3106229E0,1.683898E0,-2.9744048E0,-4.2016038E-1,1.7367386E0,9.513168E-3,-3.060362E0,-3.74019E-2,-4.4447768E-1,7.156688E-2,8.771849E-2,4.090706E-2,-1.546819E-1,-1.2970761E0,-4.9513125E-1,1.15982495E-1,1.3596475E-3,-9.864035E-2,-2.8035162E-2,-2.4715522E-3,1.3476339E-2,-3.9325118E-2],"categories":[],"categories_nodes":[],"categories_segments":[],"categories_sizes":[],"default_left":[0,0,0,0,0,0,0,0,0,0,0,0,0,0,0,0,0,0,0,0,0,0,0],"id":5,"left_children":[1,3,5,7,9,11,-1,13,-1,15,-1,-1,-1,-1,17,19,21,-1,-1,-1,-1,-1,-1],"loss_changes":[8.423898E2,3.054281E2,1.3244568E1,1.1489563E1,6.759384E0,1.2532043E0,0E0,3.5888672E-2,0E0,3.8899841E0,0E0,0E0,0E0,0E0,2.738196E0,3.5962372E0,1.8748403E0,0E0,0E0,0E0,0E0,0E0,0E0],"parents":[2147483647,0,0,1,1,2,2,3,3,4,4,5,5,7,7,9,9,14,14,15,15,16,16],"right_children":[2,4,6,8,10,12,-1,14,-1,16,-1,-1,-1,-1,18,20,22,-1,-1,-1,-1,-1,-1],"split_conditions":[2.00001E0,1E0,2.00001E0,1E0,1E0,1E0,9.513168E-3,1E0,-3.74019E-2,1E0,7.156688E-2,8.771849E-2,4.090706E-2,-1.546819E-1,1E0,1E0,1E0,1.3596475E-3,-9.864035E-2,-2.8035162E-2,-2.4715522E-3,1.3476339E-2,-3.9325118E-2],"split_indices":[703,704,702,340,60,120,0,617,0,294,0,0,0,0,4,47,125,0,0,0,0,0,0],"split_type":[0,0,0,0,0,0,0,0,0,0,0,0,0,0,0,0,0,0,0,0,0,0,0],"sum_hessian":[3.77E2,2.06E2,1.71E2,7.1E1,1.35E2,1.65E2,6E0,6.8E1,3E0,1.34E2,1E0,1.61E2,4E0,6.6E1,2E0,1.23E2,1.1E1,1E0,1E0,1.07E2,1.6E1,1E1,1E0],"tree_param":{"num_deleted":"0","num_feature":"705","num_nodes":"23","size_leaf_vector":"1"}},{"base_weights":[5.126938E-2,-1.2352697E0,1.6042173E0,-2.7438087E0,-4.427817E-1,1.6479833E0,8.852522E-3,-1.4217561E-1,-9.188408E-1,-4.6765777E-1,6.9777705E-2,8.302678E-2,3.732235E-2,-1.2353021E-2,-1.0250208E0,-4.2684346E-1,-7.013234E-2,-5.8838435E-2,-1.4244432E-2,-1.9710785E-2,-6.617184E-2],"categories":[],"categories_nodes":[],"categories_segments":[],"categories_sizes":[],"default_left":[0,0,0,0,0,0,0,0,0,0,0,0,0,0,0,0,0,0,0,0,0],"id":6,"left_children":[1,3,5,7,9,11,-1,-1,13,15,-1,-1,-1,-1,17,19,-1,-1,-1,-1,-1],"loss_changes":[7.232337E2,2.354939E2,9.951904E0,9.760284E0,6.6433487E0,5.5978394E-1,0E0,0E0,1.0340643E-1,4.3622074E0,0E0,0E0,0E0,0E0,1.14005566E-1,3.1642647E0,0E0,0E0,0E0,0E0,0E0],"parents":[2147483647,0,0,1,1,2,2,3,3,4,4,5,5,8,8,9,9,14,14,15,15],"right_children":[2,4,6,8,10,12,-1,-1,14,16,-1,-1,-1,-1,18,20,-1,-1,-1,-1,-1],"split_conditions":[2.00001E0,1E0,2.00001E0,1E0,1E0,1E0,8.852522E-3,-1.4217561E-1,1E0,1E0,6.9777705E-2,8.302678E-2,3.732235E-2,-1.2353021E-2,1E0,1E0,-7.013234E-2,-5.8838435E-2,-1.4244432E-2,-1.9710785E-2,-6.617184E-2],"split_indices":[703,704,702,637,112,65,0,0,181,340,0,0,0,0,560,127,0,0,0,0,0],"split_type":[0,0,0,0,0,0,0,0,0,0,0,0,0,0,0,0,0,0,0,0,0],"sum_hessian":[3.6E2,1.97E2,1.63E2,6.7E1,1.3E2,1.58E2,5E0,6.3E1,4E0,1.29E2,1E0,1.55E2,3E0,1E0,3E0,1.25E2,4E0,2E0,1E0,1.22E2,3E0],"tree_param":{"num_deleted":"0","num_feature":"705","num_nodes":"21","size_leaf_vector":"1"}},{"base_weights":[-1.7834386E-2,-1.206049E0,1.5590909E0,-2.6453457E0,-4.4148278E-1,7.9703555E-2,8.144322E-3,-1.3371854E-1,-1.3888317E-2,-3.6146575E-1,-9.592936E-1,-6.751086E-2,-3.251929E-1,-1.0681286E0,-5.9075516E-2,1.9841662E-2,-1.9753724E-2,-2.1528227E-2,-6.593942E-2,-1.2222421E-2,7.7917576E-3],"categories":[],"categories_nodes":[],"categories_segments":[],"categories_sizes":[],"default_left":[0,0,0,0,0,0,0,0,0,0,0,0,0,0,0,0,0,0,0,0,0],"id":7,"left_children":[1,3,5,7,9,-1,-1,-1,-1,11,13,-1,15,17,19,-1,-1,-1,-1,-1,-1],"loss_changes":[6.932851E2,2.310245E2,7.505829E0,4.2736206E0,5.412527E0,0E0,0E0,0E0,0E0,3.93643E0,1.7004547E0,0E0,6.161084E0,1.9891605E0,1.576095E-1,0E0,0E0,0E0,0E0,0E0,0E0],"parents":[2147483647,0,0,1,1,2,2,3,3,4,4,9,9,10,10,12,12,13,13,14,14],"right_children":[2,4,6,8,10,-1,-1,-1,-1,12,14,-1,16,18,20,-1,-1,-1,-1,-1,-1],"split_conditions":[2.00001E0,1E0,2.00001E0,1E0,1E0,7.9703555E-2,8.144322E-3,-1.3371854E-1,-1.3888317E-2,1E0,1E0,-6.751086E-2,1E0,1E2,1E0,1.9841662E-2,-1.9753724E-2,-2.1528227E-2,-6.593942E-2,-1.2222421E-2,7.7917576E-3],"split_indices":[704,704,702,560,404,0,0,0,0,371,347,0,398,699,47,0,0,0,0,0,0],"split_type":[0,0,0,0,0,0,0,0,0,0,0,0,0,0,0,0,0,0,0,0,0],"sum_hessian":[3.68E2,2.1E2,1.58E2,7.2E1,1.38E2,1.54E2,4E0,7.1E1,1E0,1.21E2,1.7E1,3E0,1.18E2,1.5E1,2E0,1E1,1.08E2,5E0,1E1,1E0,1E0],"tree_param":{"num_deleted":"0","num_feature":"705","num_nodes":"21","size_leaf_vector":"1"}},{"base_weights":[-6.7242566E-3,-1.1579596E0,1.4604398E0,-2.5369256E0,-3.8328993E-1,7.542385E-2,8.377015E-3,-2.6077254E0,-6.2829643E-1,-4.1392142E-1,3.6168583E-2,-2.648328E0,-7.9108745E-1,-8.701235E-3,-3.6085606E-2,-3.1475568E-1,-8.0610657E-1,-1.3323836E-1,-3.7850488E-2,-6.755457E-2,8.223009E-3,-1.380989E-2,-6.1928596E-2,-4.8305657E-2,1.5772909E-2],"categories":[],"categories_nodes":[],"categories_segments":[],"categories_sizes":[],"default_left":[0,0,0,0,0,0,0,0,0,0,0,0,0,0,0,0,0,0,0,0,0,0,0,0,0],"id":8,"left_children":[1,3,5,7,9,-1,-1,11,13,15,-1,17,19,-1,-1,21,23,-1,-1,-1,-1,-1,-1,-1,-1],"loss_changes":[6.300181E2,2.222904E2,9.932861E0,8.496429E0,4.875742E0,0E0,0E0,3.2156982E0,4.4148564E-2,4.8799286E0,0E0,1.5914917E-1,1.827532E0,0E0,0E0,3.4692907E0,4.9706707E0,0E0,0E0,0E0,0E0,0E0,0E0,0E0,0E0],"parents":[2147483647,0,0,1,1,2,2,3,3,4,4,7,7,8,8,9,9,11,11,12,12,15,15,16,16],"right_children":[2,4,6,8,10,-1,-1,12,14,16,-1,18,20,-1,-1,22,24,-1,-1,-1,-1,-1,-1,-1,-1],"split_conditions":[2.00001E0,1E0,2.00001E0,1E0,2.00001E0,7.542385E-2,8.377015E-3,1E0,1E0,1E2,3.6168583E-2,1E0,1E0,-8.701235E-3,-3.6085606E-2,1E0,1E0,-1.3323836E-1,-3.7850488E-2,-6.755457E-2,8.223009E-3,-1.380989E-2,-6.1928596E-2,-4.8305657E-2,1.5772909E-2],"split_indices":[704,704,702,483,703,0,0,617,489,698,0,125,29,0,0,483,440,0,0,0,0,0,0,0,0],"split_type":[0,0,0,0,0,0,0,0,0,0,0,0,0,0,0,0,0,0,0,0,0,0,0,0,0],"sum_hessian":[3.71E2,2.08E2,1.63E2,7.4E1,1.34E2,1.57E2,6E0,7.1E1,3E0,1.31E2,3E0,6.9E1,2E0,1E0,2E0,1.06E2,2.5E1,6.8E1,1E0,1E0,1E0,1.03E2,3E0,2.2E1,3E0],"tree_param":{"num_deleted":"0","num_feature":"705","num_nodes":"25","size_leaf_vector":"1"}},{"base_weights":[1.5308838E-2,-1.1151954E0,1.3917739E0,-2.3590684E0,-3.6029312E-1,1.4282796E0,7.7952743E-3,-2.4210005E0,-6.080783E-1,-3.8297912E-1,6.4155094E-2,7.186468E-2,3.5307206E-2,-1.2180399E-1,-3.262812E-2,-8.483702E-3,-3.488275E-2,-7.8371316E-2,-3.5198447E-1,1.7692331E-2,-2.1435669E-2],"categories":[],"categories_nodes":[],"categories_segments":[],"categories_sizes":[],"default_left":[0,0,0,0,0,0,0,0,0,0,0,0,0,0,0,0,0,0,0,0,0],"id":9,"left_children":[1,3,5,7,9,11,-1,13,15,17,-1,-1,-1,-1,-1,-1,-1,-1,19,-1,-1],"loss_changes":[5.866455E2,1.9352362E2,7.4470825E0,6.986328E0,5.338072E0,5.911255E-2,0E0,4.1030884E-1,3.8709402E-2,4.184078E0,0E0,0E0,0E0,0E0,0E0,0E0,0E0,0E0,7.0297174E0,0E0,0E0],"parents":[2147483647,0,0,1,1,2,2,3,3,4,4,5,5,7,7,8,8,9,9,18,18],"right_children":[2,4,6,8,10,12,-1,14,16,18,-1,-1,-1,-1,-1,-1,-1,-1,20,-1,-1],"split_conditions":[2.00001E0,1E0,2.00001E0,1E0,1E0,1E0,7.7952743E-3,1E0,1E0,1E0,6.4155094E-2,7.186468E-2,3.5307206E-2,-1.2180399E-1,-3.262812E-2,-8.483702E-3,-3.488275E-2,-7.8371316E-2,1E0,1.7692331E-2,-2.1435669E-2],"split_indices":[703,704,702,340,133,65,0,132,181,371,0,0,0,0,0,0,0,0,383,0,0],"split_type":[0,0,0,0,0,0,0,0,0,0,0,0,0,0,0,0,0,0,0,0,0],"sum_hessian":[3.75E2,2.06E2,1.69E2,7.7E1,1.29E2,1.64E2,5E0,7.4E1,3E0,1.28E2,1E0,1.61E2,3E0,7.3E1,1E0,1E0,2E0,2E0,1.26E2,1.2E1,1.14E2],"tree_param":{"num_deleted":"0","num_feature":"705","num_nodes":"21","size_leaf_vector":"1"}},{"base_weights":[9.426635E-3,-1.0407976E0,1.3114039E0,-2.2726557E0,-3.6376747E-1,6.727519E-2,7.4704685E-3,-2.3496966E0,-7.2414446E-1,-3.9010078E-1,9.5126516E-1,-2.366359E0,-2.958302E-2,-8.271605E-3,-8.224645E-1,-4.4397232E-1,7.406117E-2,6.2551215E-2,8.793676E-3,-1.1905128E-1,-3.385913E-2,-4.6986368E-2,-1.1766905E-2,-2.4282647E-2,1.0534159E-2,8.237462E-3,-1.7180372E-2],"categories":[],"categories_nodes":[],"categories_segments":[],"categories_sizes":[],"default_left":[0,0,0,0,0,0,0,0,0,0,0,0,0,0,0,0,0,0,0,0,0,0,0,0,0,0,0],"id":10,"left_children":[1,3,5,7,9,-1,-1,11,13,15,17,19,-1,-1,21,23,25,-1,-1,-1,-1,-1,-1,-1,-1,-1,-1],"loss_changes":[5.2369946E2,1.7598236E2,6.574646E0,7.24588E0,5.149914E0,0E0,0E0,6.7974854E-1,1.386013E-1,3.4335785E0,4.7727013E-1,1.2182617E-1,0E0,0E0,5.4238796E-2,3.4312649E0,6.247723E-1,0E0,0E0,0E0,0E0,0E0,0E0,0E0,0E0,0E0,0E0],"parents":[2147483647,0,0,1,1,2,2,3,3,4,4,7,7,8,8,9,9,10,10,11,11,14,14,15,15,16,16],"right_children":[2,4,6,8,10,-1,-1,12,14,16,18,20,-1,-1,22,24,26,-1,-1,-1,-1,-1,-1,-1,-1,-1,-1],"split_conditions":[2.00001E0,1E0,2.00001E0,1E0,1E0,6.727519E-2,7.4704685E-3,1E0,1E0,1E0,1E0,1E0,-2.958302E-2,-8.271605E-3,1E0,1E0,1E0,6.2551215E-2,8.793676E-3,-1.1905128E-1,-3.385913E-2,-4.6986368E-2,-1.1766905E-2,-2.4282647E-2,1.0534159E-2,8.237462E-3,-1.7180372E-2],"split_indices":[703,704,702,637,231,0,0,247,181,47,2,12,0,0,703,440,702,0,0,0,0,0,0,0,0,0,0],"split_type":[0,0,0,0,0,0,0,0,0,0,0,0,0,0,0,0,0,0,0,0,0,0,0,0,0,0,0],"sum_hessian":[3.81E2,2.11E2,1.7E2,7.4E1,1.37E2,1.65E2,5E0,7E1,4E0,1.35E2,2E0,6.9E1,1E0,1E0,3E0,1.21E2,1.4E1,1E0,1E0,6.8E1,1E0,2E0,1E0,1.14E2,7E0,1.2E1,2E0],"tree_param":{"num_deleted":"0","num_feature":"705","num_nodes":"27","size_leaf_vector":"1"}},{"base_weights":[-4.29258E-2,-9.8260814E-1,1.2716496E0,-2.1495488E0,-3.3084536E-1,6.511002E-2,6.8728253E-3,-2.222284E0,-7.0134217E-1,-3.588789E-1,3.3498246E-2,-1.1283728E-1,-5.4474164E-2,-8.064813E-3,-7.9602957E-1,-4.174481E-1,2.0486046E-1,-4.542015E-2,-1.1472732E-2,-1.3572123E-3,-2.4111632E-2,1.7074471E-2,-3.5867166E-2],"categories":[],"categories_nodes":[],"categories_segments":[],"categories_sizes":[],"default_left":[0,0,0,0,0,0,0,0,0,0,0,0,0,0,0,0,0,0,0,0,0,0,0],"id":11,"left_children":[1,3,5,7,9,-1,-1,11,13,15,-1,-1,-1,-1,17,19,21,-1,-1,-1,-1,-1,-1],"loss_changes":[4.3853986E2,1.5672646E2,4.9492645E0,6.2362976E0,3.999978E0,0E0,0E0,2.739563E-1,1.2728119E-1,4.410843E0,0E0,0E0,0E0,0E0,4.6234608E-2,2.995901E0,1.8829615E0,0E0,0E0,0E0,0E0,0E0,0E0],"parents":[2147483647,0,0,1,1,2,2,3,3,4,4,7,7,8,8,9,9,14,14,15,15,16,16],"right_children":[2,4,6,8,10,-1,-1,12,14,16,-1,-1,-1,-1,18,20,22,-1,-1,-1,-1,-1,-1],"split_conditions":[2.00001E0,1E0,2.00001E0,1E0,2.00001E0,6.511002E-2,6.8728253E-3,1E0,1E0,1E0,3.3498246E-2,-1.1283728E-1,-5.4474164E-2,-8.064813E-3,1E0,1E0,1E0,-4.542015E-2,-1.1472732E-2,-1.3572123E-3,-2.4111632E-2,1.7074471E-2,-3.5867166E-2],"split_indices":[704,704,702,637,703,0,0,567,181,649,0,0,0,0,560,383,125,0,0,0,0,0,0],"split_type":[0,0,0,0,0,0,0,0,0,0,0,0,0,0,0,0,0,0,0,0,0,0,0],"sum_hessian":[3.53E2,2.06E2,1.47E2,7.3E1,1.33E2,1.43E2,4E0,6.9E1,4E0,1.3E2,3E0,6.6E1,3E0,1E0,3E0,1.18E2,1.2E1,2E0,1E0,1.7E1,1.01E2,1.1E1,1E0],"tree_param":{"num_deleted":"0","num_feature":"705","num_nodes":"23","size_leaf_vector":"1"}},{"base_weights":[3.3869456E-2,-9.185797E-1,1.1857309E0,-2.0623825E0,-3.2275158E-1,1.2172365E0,6.872833E-3,-2.0974588E0,-5.9154826E-1,-3.430308E-1,5.935968E-2,6.1412692E-2,3.128211E-2,-2.1134717E0,-2.6015205E-2,-7.863194E-3,-3.6502928E-2,-4.1087142E-1,1.1322151E-1,-1.0746657E-1,-5.1015824E-2,-1.6180046E-2,-4.340165E-2,-6.8086865E-3,1.888736E-2],"categories":[],"categories_nodes":[],"categories_segments":[],"categories_sizes":[],"default_left":[0,0,0,0,0,0,0,0,0,0,0,0,0,0,0,0,0,0,0,0,0,0,0,0,0],"id":12,"left_children":[1,3,5,7,9,11,-1,13,15,17,-1,-1,-1,19,-1,-1,-1,21,23,-1,-1,-1,-1,-1,-1],"loss_changes":[4.048181E2,1.3699936E2,5.3481293E0,2.3190613E0,4.510398E0,2.874298E-1,0E0,5.924072E-1,6.564677E-2,4.1631937E0,0E0,0E0,0E0,3.9422607E-1,0E0,0E0,0E0,4.347124E0,1.2389251E0,0E0,0E0,0E0,0E0,0E0,0E0],"parents":[2147483647,0,0,1,1,2,2,3,3,4,4,5,5,7,7,8,8,9,9,13,13,17,17,18,18],"right_children":[2,4,6,8,10,12,-1,14,16,18,-1,-1,-1,20,-1,-1,-1,22,24,-1,-1,-1,-1,-1,-1],"split_conditions":[2.00001E0,1E0,2.00001E0,1E0,1E0,1E0,6.872833E-3,1E0,1E0,1E0,5.935968E-2,6.1412692E-2,3.128211E-2,1E0,-2.6015205E-2,-7.863194E-3,-3.6502928E-2,1E0,1E0,-1.0746657E-1,-5.1015824E-2,-1.6180046E-2,-4.340165E-2,-6.8086865E-3,1.888736E-2],"split_indices":[703,704,702,340,60,121,0,132,233,47,0,0,0,2,0,0,0,404,660,0,0,0,0,0,0],"split_type":[0,0,0,0,0,0,0,0,0,0,0,0,0,0,0,0,0,0,0,0,0,0,0,0,0],"sum_hessian":[3.67E2,2.01E2,1.66E2,6.8E1,1.33E2,1.61E2,5E0,6.6E1,2E0,1.32E2,1E0,1.57E2,4E0,6.5E1,1E0,1E0,1E0,1.15E2,1.7E1,6.2E1,3E0,9.8E1,1.7E1,9E0,8E0],"tree_param":{"num_deleted":"0","num_feature":"705","num_nodes":"25","size_leaf_vector":"1"}},{"base_weights":[1.7154098E-2,-9.167672E-1,1.1228575E0,-1.4764143E0,-5.640117E-1,5.766943E-2,6.586472E-3,-1.7364873E0,-5.708271E-1,-7.701937E-1,-1.6276437E-1,-1.9786067E0,-2.2533838E-1,-5.2170888E-2,-9.8053503E-1,-1.2701596E0,-3.6421588E-1,-2.2319832E-1,5.7875693E-2,1.6532278E-2,-1.01680234E-1,-2.8491834E-2,8.211379E-3,-1.3228214E-2,1.3973096E-2,-5.6841936E-2,1.0654938E-2,-2.3019103E-2,-8.940443E-2,-1.1707876E-2,-4.292159E-2,5.220057E-3,-2.8619891E-2],"categories":[],"categories_nodes":[],"categories_segments":[],"categories_sizes":[],"default_left":[0,0,0,0,0,0,0,0,0,0,0,0,0,0,0,0,0,0,0,0,0,0,0,0,0,0,0,0,0,0,0,0,0],"id":13,"left_children":[1,3,5,7,9,-1,-1,11,13,15,17,19,21,23,25,27,29,31,-1,-1,-1,-1,-1,-1,-1,-1,-1,-1,-1,-1,-1,-1,-1],"loss_changes":[3.6761658E2,3.726906E1,4.780472E0,1.6437164E1,9.802242E0,0E0,0E0,2.0409225E1,3.7738004E0,1.5572414E1,3.6095195E0,6.8955994E0,1.3014262E0,7.0786524E-1,2.107952E0,1.3856049E1,2.6914535E0,4.7500587E0,0E0,0E0,0E0,0E0,0E0,0E0,0E0,0E0,0E0,0E0,0E0,0E0,0E0,0E0,0E0],"parents":[2147483647,0,0,1,1,2,2,3,3,4,4,7,7,8,8,9,9,10,10,11,11,12,12,13,13,14,14,15,15,16,16,17,17],"right_children":[2,4,6,8,10,-1,-1,12,14,16,18,20,22,24,26,28,30,32,-1,-1,-1,-1,-1,-1,-1,-1,-1,-1,-1,-1,-1,-1,-1],"split_conditions":[2.00001E0,1E0,2.00001E0,1E0,1E0,5.766943E-2,6.586472E-3,1E0,1E2,1E0,1E0,1E0,1E0,1E0,1E0,1E0,1E2,1E0,5.7875693E-2,1.6532278E-2,-1.01680234E-1,-2.8491834E-2,8.211379E-3,-1.3228214E-2,1.3973096E-2,-5.6841936E-2,1.0654938E-2,-2.3019103E-2,-8.940443E-2,-1.1707876E-2,-4.292159E-2,5.220057E-3,-2.8619891E-2],"split_indices":[703,703,702,617,612,0,0,612,699,617,60,0,660,129,184,419,701,74,0,0,0,0,0,0,0,0,0,0,0,0,0,0,0],"split_type":[0,0,0,0,0,0,0,0,0,0,0,0,0,0,0,0,0,0,0,0,0,0,0,0,0,0,0,0,0,0,0,0,0],"sum_hessian":[3.54E2,1.92E2,1.62E2,7.3E1,1.19E2,1.57E2,5E0,5.6E1,1.7E1,7.8E1,4.1E1,4.8E1,8E0,8E0,9E0,3.4E1,4.4E1,4E1,1E0,1E0,4.7E1,4E0,4E0,5E0,3E0,8E0,1E0,1.4E1,2E1,3.6E1,8E0,2.1E1,1.9E1],"tree_param":{"num_deleted":"0","num_feature":"705","num_nodes":"33","size_leaf_vector":"1"}},{"base_weights":[-1.7800346E-2,-8.7093914E-1,1.0936422E0,-1.9369224E0,-3.1095585E-1,5.595529E-2,6.059551E-3,-1.9606054E0,-8.754224E-3,-2.505528E-1,-8.8907343E-1,-1.996695E0,-4.4650912E-2,-3.059707E-1,1.6320191E-2,-5.8553256E-2,-1.3003612E-2,-2.2415077E-2,-1.00707844E-1,5.185992E-3,-1.9362746E-2],"categories":[],"categories_nodes":[],"categories_segments":[],"categories_sizes":[],"default_left":[0,0,0,0,0,0,0,0,0,0,0,0,0,0,0,0,0,0,0,0,0],"id":14,"left_children":[1,3,5,7,9,-1,-1,11,-1,13,15,17,-1,19,-1,-1,-1,-1,-1,-1,-1],"loss_changes":[3.3187943E2,1.1759042E2,3.6282349E0,2.4940338E0,4.3517704E0,0E0,0E0,7.9837036E-1,0E0,3.936718E0,1.8239155E0,8.274536E-1,0E0,3.7033167E0,0E0,0E0,0E0,0E0,0E0,0E0,0E0],"parents":[2147483647,0,0,1,1,2,2,3,3,4,4,7,7,9,9,10,10,11,11,13,13],"right_children":[2,4,6,8,10,-1,-1,12,-1,14,16,18,-1,20,-1,-1,-1,-1,-1,-1,-1],"split_conditions":[2.00001E0,1E0,2.00001E0,1E0,1E0,5.595529E-2,6.059551E-3,1E0,-8.754224E-3,1E0,1E0,1E0,-4.4650912E-2,1E0,1.6320191E-2,-5.8553256E-2,-1.3003612E-2,-2.2415077E-2,-1.00707844E-1,5.185992E-3,-1.9362746E-2],"split_indices":[704,704,702,560,166,0,0,2,0,433,74,120,0,469,0,0,0,0,0,0,0],"split_type":[0,0,0,0,0,0,0,0,0,0,0,0,0,0,0,0,0,0,0,0,0],"sum_hessian":[3.48E2,1.97E2,1.51E2,6.7E1,1.3E2,1.47E2,4E0,6.6E1,1E0,1.19E2,1.1E1,6.3E1,3E0,1.09E2,1E1,7E0,4E0,1E0,6.2E1,1.8E1,9.1E1],"tree_param":{"num_deleted":"0","num_feature":"705","num_nodes":"21","size_leaf_vector":"1"}},{"base_weights":[2.0539872E-2,-7.642448E-1,1.0196723E0,-1.7930989E0,-2.4048434E-1,1.0476929E0,6.0595474E-3,-1.8261714E0,-4.5678034E-1,-2.0405932E-1,-5.8064666E-2,5.2729763E-2,2.6087677E-2,-1.8415346E0,-2.0305121E-2,-2.6069104E-3,-3.1651616E-2,-2.8069603E-1,3.3538508E-1,-9.378936E-2,-4.2083647E-2,-1.6661618E-2,6.481167E-3,2.1675713E-2,-3.086704E-2],"categories":[],"categories_nodes":[],"categories_segments":[],"categories_sizes":[],"default_left":[0,0,0,0,0,0,0,0,0,0,0,0,0,0,0,0,0,0,0,0,0,0,0,0,0],"id":15,"left_children":[1,3,5,7,9,11,-1,13,15,17,-1,-1,-1,19,-1,-1,-1,21,23,-1,-1,-1,-1,-1,-1],"loss_changes":[2.8697717E2,1.1003778E2,3.9263763E0,2.2153168E0,4.358074E0,1.6082764E-2,0E0,7.138672E-1,1.8095171E-1,5.5925274E0,0E0,0E0,0E0,6.815338E-1,0E0,0E0,0E0,2.5653238E0,1.8569595E0,0E0,0E0,0E0,0E0,0E0,0E0],"parents":[2147483647,0,0,1,1,2,2,3,3,4,4,5,5,7,7,8,8,9,9,13,13,17,17,18,18],"right_children":[2,4,6,8,10,12,-1,14,16,18,-1,-1,-1,20,-1,-1,-1,22,24,-1,-1,-1,-1,-1,-1],"split_conditions":[2.00001E0,1E0,2.00001E0,1E0,1E0,1E0,6.0595474E-3,1E0,1E0,1E0,-5.8064666E-2,5.2729763E-2,2.6087677E-2,1E0,-2.0305121E-2,-2.6069104E-3,-3.1651616E-2,1E0,1E0,-9.378936E-2,-4.2083647E-2,-1.6661618E-2,6.481167E-3,2.1675713E-2,-3.086704E-2],"split_indices":[703,704,702,340,340,65,0,571,181,342,0,0,0,567,0,0,0,47,125,0,0,0,0,0,0],"split_type":[0,0,0,0,0,0,0,0,0,0,0,0,0,0,0,0,0,0,0,0,0,0,0,0,0],"sum_hessian":[3.64E2,2.04E2,1.6E2,6.8E1,1.36E2,1.55E2,5E0,6.6E1,2E0,1.32E2,4E0,1.52E2,3E0,6.5E1,1E0,1E0,1E0,1.16E2,1.6E1,6.2E1,3E0,1.03E2,1.3E1,1.5E1,1E0],"tree_param":{"num_deleted":"0","num_feature":"705","num_nodes":"25","size_leaf_vector":"1"}},{"base_weights":[-1.0554525E-2,-7.6388365E-1,9.8883146E-1,-1.7070646E0,-2.6809293E-1,5.0937105E-2,5.807062E-3,-1.7390345E0,-4.453608E-1,-2.3207824E-1,-5.5742085E-2,-1.7700253E0,-2.5427625E-2,-2.5417388E-3,-3.0860323E-2,-2.8635037E-1,1.8500735E-1,-8.930724E-2,-1.9265193E-2,-4.7858145E-2,-1.261639E-2,1.4210447E-2,-3.0095363E-2],"categories":[],"categories_nodes":[],"categories_segments":[],"categories_sizes":[],"default_left":[0,0,0,0,0,0,0,0,0,0,0,0,0,0,0,0,0,0,0,0,0,0,0],"id":16,"left_children":[1,3,5,7,9,-1,-1,11,13,15,-1,17,-1,-1,-1,19,21,-1,-1,-1,-1,-1,-1],"loss_changes":[2.5748285E2,9.072833E1,3.7187805E0,1.9280548E0,3.6751757E0,0E0,0E0,1.5785065E0,1.7201722E-1,2.8824916E0,0E0,7.1803284E-1,0E0,0E0,0E0,2.2918062E0,1.3420148E0,0E0,0E0,0E0,0E0,0E0,0E0],"parents":[2147483647,0,0,1,1,2,2,3,3,4,4,7,7,8,8,9,9,11,11,15,15,16,16],"right_children":[2,4,6,8,10,-1,-1,12,14,16,-1,18,-1,-1,-1,20,22,-1,-1,-1,-1,-1,-1],"split_conditions":[2.00001E0,1E0,2.00001E0,1E0,1E0,5.0937105E-2,5.807062E-3,1E0,1E0,1E0,-5.5742085E-2,1E0,-2.5427625E-2,-2.5417388E-3,-3.0860323E-2,1E0,1E0,-8.930724E-2,-1.9265193E-2,-4.7858145E-2,-1.261639E-2,1.4210447E-2,-3.0095363E-2],"split_indices":[704,704,702,340,340,0,0,32,181,342,0,317,0,0,0,371,125,0,0,0,0,0,0],"split_type":[0,0,0,0,0,0,0,0,0,0,0,0,0,0,0,0,0,0,0,0,0,0,0],"sum_hessian":[3.4E2,1.94E2,1.46E2,6.6E1,1.28E2,1.41E2,5E0,6.4E1,2E0,1.24E2,4E0,6.2E1,2E0,1E0,1E0,1.1E2,1.4E1,6.1E1,1E0,4E0,1.06E2,1.3E1,1E0],"tree_param":{"num_deleted":"0","num_feature":"705","num_nodes":"23","size_leaf_vector":"1"}},{"base_weights":[1.0649541E-2,-6.833038E-1,9.3891394E-1,-1.5203836E0,-2.5660208E-1,4.8041414E-2,5.3425026E-3,-1.5662231E0,-3.9539582E-1,-1.8953125E-1,-7.805333E-1,-1.5799826E0,-1.7140407E-2,-6.3005127E-3,-3.0088812E-2,-1.5986209E-1,-5.0869443E-2,-1.0330791E0,-1.1476739E-2,-6.1019566E-2,-8.47081E-2,-3.8238827E-2,-6.316401E-3,-5.5193376E-2,-9.899581E-3],"categories":[],"categories_nodes":[],"categories_segments":[],"categories_sizes":[],"default_left":[0,0,0,0,0,0,0,0,0,0,0,0,0,0,0,0,0,0,0,0,0,0,0,0,0],"id":17,"left_children":[1,3,5,7,9,-1,-1,11,13,15,17,19,-1,-1,-1,21,-1,23,-1,-1,-1,-1,-1,-1,-1],"loss_changes":[2.2739017E2,7.17609E1,2.6506958E0,2.8874207E0,4.596032E0,0E0,0E0,5.52536E-1,1.4655358E-1,2.8093414E0,1.8501577E0,5.6018066E-1,0E0,0E0,0E0,2.2970455E0,0E0,3.725891E-1,0E0,0E0,0E0,0E0,0E0,0E0,0E0],"parents":[2147483647,0,0,1,1,2,2,3,3,4,4,7,7,8,8,9,9,10,10,11,11,15,15,17,17],"right_children":[2,4,6,8,10,-1,-1,12,14,16,18,20,-1,-1,-1,22,-1,24,-1,-1,-1,-1,-1,-1,-1],"split_conditions":[2.00001E0,1E0,2.00001E0,1E0,1E0,4.8041414E-2,5.3425026E-3,1E0,1E0,1E0,1E0,1E0,-1.7140407E-2,-6.3005127E-3,-3.0088812E-2,1E0,-5.0869443E-2,1E0,-1.1476739E-2,-6.1019566E-2,-8.47081E-2,-3.8238827E-2,-6.316401E-3,-5.5193376E-2,-9.899581E-3],"split_indices":[704,704,702,340,166,0,0,612,233,340,74,418,0,0,0,371,0,2,0,0,0,0,0,0,0],"split_type":[0,0,0,0,0,0,0,0,0,0,0,0,0,0,0,0,0,0,0,0,0,0,0,0,0],"sum_hessian":[3.51E2,2.01E2,1.5E2,6.7E1,1.34E2,1.46E2,4E0,6.4E1,3E0,1.2E2,1.4E1,6.3E1,1E0,2E0,1E0,1.17E2,3E0,9E0,5E0,1.8E1,4.5E1,5E0,1.12E2,8E0,1E0],"tree_param":{"num_deleted":"0","num_feature":"705","num_nodes":"25","size_leaf_vector":"1"}},{"base_weights":[-1.5685173E-2,-7.0486486E-1,8.777927E-1,-9.983286E-1,-2.701225E-1,4.4358116E-2,4.2740027E-3,-4.490945E-1,-1.3584968E0,-1.2418329E-1,-5.7986625E-2,-5.1491445E-1,7.756632E-1,-1.6552979E0,-3.2666567E-1,-7.712202E-2,-4.7012012E-2,-3.4373544E-2,-1.7209206E-3,6.161177E-3,5.2013565E-2,-8.539451E-2,-6.090498E-3,-2.8635731E-2,-8.49088E-4,-1.7216312E-3,-5.237503E-2],"categories":[],"categories_nodes":[],"categories_segments":[],"categories_sizes":[],"default_left":[0,0,0,0,0,0,0,0,0,0,0,0,0,0,0,0,0,0,0,0,0,0,0,0,0,0,0],"id":18,"left_children":[1,3,5,7,9,-1,-1,11,13,15,-1,17,19,21,23,25,-1,-1,-1,-1,-1,-1,-1,-1,-1,-1,-1],"loss_changes":[2.2906819E2,2.6522362E1,1.1268005E0,2.411699E1,1.1021274E1,0E0,0E0,4.5106897E0,2.2427917E1,2.8078372E0,0E0,4.0390587E0,3.897364E-1,4.4696503E0,1.3618274E0,2.946523E0,0E0,0E0,0E0,0E0,0E0,0E0,0E0,0E0,0E0,0E0,0E0],"parents":[2147483647,0,0,1,1,2,2,3,3,4,4,7,7,8,8,9,9,11,11,12,12,13,13,14,14,15,15],"right_children":[2,4,6,8,10,-1,-1,12,14,16,-1,18,20,22,24,26,-1,-1,-1,-1,-1,-1,-1,-1,-1,-1,-1],"split_conditions":[2.00001E0,1E0,2.00001E0,1E0,1E2,4.4358116E-2,4.2740027E-3,1E0,1E0,1E0,-5.7986625E-2,1E0,1E0,1E0,1E0,1E0,-4.7012012E-2,-3.4373544E-2,-1.7209206E-3,6.161177E-3,5.2013565E-2,-8.539451E-2,-6.090498E-3,-2.8635731E-2,-8.49088E-4,-1.7216312E-3,-5.237503E-2],"split_indices":[703,617,702,153,698,0,0,428,618,340,0,233,13,340,702,127,0,0,0,0,0,0,0,0,0,0,0],"split_type":[0,0,0,0,0,0,0,0,0,0,0,0,0,0,0,0,0,0,0,0,0,0,0,0,0,0,0],"sum_hessian":[3.7E2,2.09E2,1.61E2,1.24E2,8.5E1,1.59E2,2E0,5E1,7.4E1,7.4E1,1.1E1,4.8E1,2E0,5.7E1,1.7E1,7.1E1,3E0,3.5E1,1.3E1,1E0,1E0,5.5E1,2E0,9E0,8E0,6.9E1,2E0],"tree_param":{"num_deleted":"0","num_feature":"705","num_nodes":"27","size_leaf_vector":"1"}},{"base_weights":[1.0768344E-2,-1.5320901E0,3.7002724E-1,-1.5731647E0,-5.8874805E-3,-1.910456E-1,8.405539E-1,-1.6092868E0,-3.0547593E-2,-2.326216E-1,1.4749855E-2,4.343281E-2,5.31198E-3,-1.6258315E0,-1.45877665E-2,-2.6308823E-1,2.7255107E-2,-8.231309E-2,-3.376415E-2,-1.4362867E-2,2.5481516E-2],"categories":[],"categories_nodes":[],"categories_segments":[],"categories_sizes":[],"default_left":[0,0,0,0,0,0,0,0,0,0,0,0,0,0,0,0,0,0,0,0,0],"id":19,"left_children":[1,3,5,7,-1,9,11,13,-1,15,-1,-1,-1,17,-1,19,-1,-1,-1,-1,-1],"loss_changes":[1.9955545E2,3.7651215E0,7.7248505E1,1.3107605E0,0E0,2.7764559E0,3.1888123E0,8.9894104E-1,0E0,3.0815434E0,0E0,0E0,0E0,9.236145E-2,0E0,2.3875055E0,0E0,0E0,0E0,0E0,0E0],"parents":[2147483647,0,0,1,1,2,2,3,3,5,5,6,6,7,7,9,9,13,13,15,15],"right_children":[2,4,6,8,-1,10,12,14,-1,16,-1,-1,-1,18,-1,20,-1,-1,-1,-1,-1],"split_conditions":[1E0,1E0,2.00001E0,1E0,-5.8874805E-3,1E0,2.00001E0,1E0,-3.0547593E-2,2.00001E0,1.4749855E-2,4.343281E-2,5.31198E-3,1E0,-1.45877665E-2,1E0,2.7255107E-2,-8.231309E-2,-3.376415E-2,-1.4362867E-2,2.5481516E-2],"split_indices":[704,340,704,567,0,294,702,132,0,703,0,0,0,12,0,149,0,0,0,0,0],"split_type":[0,0,0,0,0,0,0,0,0,0,0,0,0,0,0,0,0,0,0,0,0],"sum_hessian":[3.58E2,6.7E1,2.91E2,6.5E1,2E0,1.33E2,1.58E2,6.2E1,3E0,1.23E2,1E1,1.52E2,6E0,6.1E1,1E0,1.19E2,4E0,5.9E1,2E0,1.16E2,3E0],"tree_param":{"num_deleted":"0","num_feature":"705","num_nodes":"21","size_leaf_vector":"1"}},{"base_weights":[5.451059E-3,-5.857545E-1,8.074978E-1,-1.3359325E0,-1.6836846E-1,4.1275363E-2,4.7453693E-3,-1.3708059E0,-3.6550945E-1,1.6227964E-1,-2.225247E-1,-1.3947487E0,-1.7361224E-2,-5.6912303E-3,-2.80141E-2,-3.461485E-2,4.9329165E-1,-1.3769928E-1,-7.599822E-1,-7.127007E-2,-2.6248304E-2,3.0935893E-2,1.5310198E-2,-8.060793E-3,2.4525953E-2,-4.2410787E-2,1.4087987E-2],"categories":[],"categories_nodes":[],"categories_segments":[],"categories_sizes":[],"default_left":[0,0,0,0,0,0,0,0,0,0,0,0,0,0,0,0,0,0,0,0,0,0,0,0,0,0,0],"id":20,"left_children":[1,3,5,7,9,-1,-1,11,13,15,17,19,-1,-1,-1,-1,21,23,25,-1,-1,-1,-1,-1,-1,-1,-1],"loss_changes":[1.7544339E2,6.6468315E1,1.9364929E0,2.0709534E0,2.50723E0,0E0,0E0,1.3047333E0,1.3231128E-1,5.999007E0,5.320569E0,1.1446533E0,0E0,0E0,0E0,0E0,1.6253138E-1,1.6155277E0,1.7096567E0,0E0,0E0,0E0,0E0,0E0,0E0,0E0,0E0],"parents":[2147483647,0,0,1,1,2,2,3,3,4,4,7,7,8,8,9,9,10,10,11,11,16,16,17,17,18,18],"right_children":[2,4,6,8,10,-1,-1,12,14,16,18,20,-1,-1,-1,-1,22,24,26,-1,-1,-1,-1,-1,-1,-1,-1],"split_conditions":[2.00001E0,1E0,2.00001E0,1E0,1E0,4.1275363E-2,4.7453693E-3,1E0,1E0,1E0,1E2,1E0,-1.7361224E-2,-5.6912303E-3,-2.80141E-2,-3.461485E-2,1E0,1E0,1E0,-7.127007E-2,-2.6248304E-2,3.0935893E-2,1.5310198E-2,-8.060793E-3,2.4525953E-2,-4.2410787E-2,1.4087987E-2],"split_indices":[704,704,702,340,383,0,0,2,233,371,698,184,0,0,0,0,440,149,157,0,0,0,0,0,0,0,0],"split_type":[0,0,0,0,0,0,0,0,0,0,0,0,0,0,0,0,0,0,0,0,0,0,0,0,0,0,0],"sum_hessian":[3.68E2,2.12E2,1.56E2,7.5E1,1.37E2,1.52E2,4E0,7.2E1,3E0,1.9E1,1.18E2,7E1,2E0,2E0,1E0,5E0,1.4E1,1.03E2,1.5E1,6.7E1,3E0,7E0,7E0,1E2,3E0,1.4E1,1E0],"tree_param":{"num_deleted":"0","num_feature":"705","num_nodes":"27","size_leaf_vector":"1"}},{"base_weights":[-4.3102052E-2,-6.1527663E-1,7.3474485E-1,-9.844314E-1,-3.6532798E-1,3.797896E-2,4.880946E-3,5.4430723E-2,-1.0640213E0,-4.986393E-1,-8.048487E-2,1.7324185E-2,-5.199206E-2,-1.2372607E0,-4.081954E-1,-8.8578504E-1,-2.3356871E-1,-2.264547E-1,3.5147145E-1,3.1827986E-3,-4.392643E-3,-7.0076935E-2,-1.7409796E-2,1.5057286E-3,-3.8092744E-2,-2.1341838E-2,-7.718596E-2,-5.495708E-3,-5.152269E-2,-3.5049185E-2,1.0551594E-3,9.611825E-3,4.8595525E-2],"categories":[],"categories_nodes":[],"categories_segments":[],"categories_sizes":[],"default_left":[0,0,0,0,0,0,0,0,0,0,0,0,0,0,0,0,0,0,0,0,0,0,0,0,0,0,0,0,0,0,0,0,0],"id":21,"left_children":[1,3,5,7,9,-1,-1,11,13,15,17,-1,19,21,23,25,27,29,31,-1,-1,-1,-1,-1,-1,-1,-1,-1,-1,-1,-1,-1,-1],"loss_changes":[1.6379066E2,1.9201538E1,2.3941574E0,7.0859604E0,4.820387E0,0E0,0E0,2.3558202E-1,8.470535E0,8.72113E0,2.7278013E0,0E0,3.0475749E-2,8.567322E0,2.8131676E0,9.909605E0,5.1092777E0,3.7739415E0,8.999146E-1,0E0,0E0,0E0,0E0,0E0,0E0,0E0,0E0,0E0,0E0,0E0,0E0,0E0,0E0],"parents":[2147483647,0,0,1,1,2,2,3,3,4,4,7,7,8,8,9,9,10,10,12,12,13,13,14,14,15,15,16,16,17,17,18,18],"right_children":[2,4,6,8,10,-1,-1,12,14,16,18,-1,20,22,24,26,28,30,32,-1,-1,-1,-1,-1,-1,-1,-1,-1,-1,-1,-1,-1,-1],"split_conditions":[2.00001E0,1E0,2.00001E0,1E0,1E0,3.797896E-2,4.880946E-3,1E0,1E0,1E0,1E0,1.7324185E-2,1E0,1E0,1E2,1E0,1E2,1E0,1E0,3.1827986E-3,-4.392643E-3,-7.0076935E-2,-1.7409796E-2,1.5057286E-3,-3.8092744E-2,-2.1341838E-2,-7.718596E-2,-5.495708E-3,-5.152269E-2,-3.5049185E-2,1.0551594E-3,9.611825E-3,4.8595525E-2],"split_indices":[703,703,702,383,612,0,0,0,617,617,342,0,371,612,699,74,698,604,60,0,0,0,0,0,0,0,0,0,0,0,0,0,0],"split_type":[0,0,0,0,0,0,0,0,0,0,0,0,0,0,0,0,0,0,0,0,0,0,0,0,0,0,0,0,0,0,0,0,0],"sum_hessian":[3.66E2,2.11E2,1.55E2,8.4E1,1.27E2,1.49E2,6E0,6E0,7.8E1,8.6E1,4.1E1,1E0,5E0,6.1E1,1.7E1,3.4E1,5.2E1,3.1E1,1E1,1E0,4E0,5.1E1,1E1,8E0,9E0,2.1E1,1.3E1,4.6E1,6E0,1E1,2.1E1,9E0,1E0],"tree_param":{"num_deleted":"0","num_feature":"705","num_nodes":"33","size_leaf_vector":"1"}},{"base_weights":[1.6748587E-2,-1.2957854E0,3.596869E-1,-1.3318163E0,-3.2328242E-1,-1.3397668E-1,3.6537576E-2,-1.3457897E0,-8.492732E-3,-7.9557575E-2,-2.6361424E-2,-7.169654E-2,-5.498866E-1,-1.3599069E0,-8.9394925E-3,-1.2703538E-4,-5.839783E-3,-6.4975375E-1,-3.7657697E-2,-6.3990504E-1,2.0009745E-2,-3.341673E-2,-6.958471E-2,3.1032264E-3,-4.0226515E-2,2.6521403E-2,-5.527708E-3,-1.2845631E-2,-3.7790965E-2],"categories":[],"categories_nodes":[],"categories_segments":[],"categories_sizes":[],"default_left":[0,0,0,0,0,0,0,0,0,0,0,0,0,0,0,0,0,0,0,0,0,0,0,0,0,0,0,0,0],"id":22,"left_children":[1,3,5,7,9,11,-1,13,-1,15,-1,17,19,21,-1,-1,-1,23,25,27,-1,-1,-1,-1,-1,-1,-1,-1,-1],"loss_changes":[1.6295874E2,2.1974716E0,5.2670883E1,9.404373E-1,1.568819E-1,3.1725385E0,0E0,9.2658997E-1,0E0,8.307138E-3,0E0,2.1202595E0,1.6244841E0,6.087036E-1,0E0,0E0,0E0,7.1096945E-1,4.3654313E0,4.71735E-1,0E0,0E0,0E0,0E0,0E0,0E0,0E0,0E0,0E0],"parents":[2147483647,0,0,1,1,2,2,3,3,4,4,5,5,7,7,9,9,11,11,12,12,13,13,17,17,18,18,19,19],"right_children":[2,4,6,8,10,12,-1,14,-1,16,-1,18,20,22,-1,-1,-1,24,26,28,-1,-1,-1,-1,-1,-1,-1,-1,-1],"split_conditions":[1E0,1E0,2.00001E0,1E0,1E0,1E0,3.6537576E-2,1E0,-8.492732E-3,1E0,-2.6361424E-2,1E0,1E0,1E0,-8.9394925E-3,-1.2703538E-4,-5.839783E-3,1E0,1E0,1E0,2.0009745E-2,-3.341673E-2,-6.958471E-2,3.1032264E-3,-4.0226515E-2,2.6521403E-2,-5.527708E-3,-1.2845631E-2,-3.7790965E-2],"split_indices":[704,483,704,247,233,404,0,317,0,181,0,371,22,419,0,0,0,703,383,617,0,0,0,0,0,0,0,0,0],"split_type":[0,0,0,0,0,0,0,0,0,0,0,0,0,0,0,0,0,0,0,0,0,0,0,0,0,0,0,0,0],"sum_hessian":[3.6E2,7.4E1,2.86E2,7.1E1,3E0,1.23E2,1.63E2,7E1,1E0,2E0,1E0,1.08E2,1.5E1,6.9E1,1E0,1E0,1E0,5E0,1.03E2,1.4E1,1E0,4E0,6.5E1,1E0,4E0,1.1E1,9.2E1,4E0,1E1],"tree_param":{"num_deleted":"0","num_feature":"705","num_nodes":"29","size_leaf_vector":"1"}},{"base_weights":[6.3289576E-3,-4.9613184E-1,6.846115E-1,-1.174513E0,-1.4878494E-1,3.501537E-2,2.8988074E-3,-1.265733E0,-7.995688E-1,-2.041227E-1,2.0451537E-1,-1.2821096E0,-8.716005E-3,-9.3452805E-1,3.3994492E-2,8.7780714E-2,-2.9722676E-1,1.426878E-2,3.588745E-1,-4.2719025E-2,-6.838397E-2,-1.2422463E-2,-5.0739646E-2,-3.1172667E-2,1.2426774E-2,-6.68358E-3,-3.4190845E-2,6.2164003E-3,-9.095103E-3,2.1691003E-3,2.1208186E-2],"categories":[],"categories_nodes":[],"categories_segments":[],"categories_sizes":[],"default_left":[0,0,0,0,0,0,0,0,0,0,0,0,0,0,0,0,0,0,0,0,0,0,0,0,0,0,0,0,0,0,0],"id":23,"left_children":[1,3,5,7,9,-1,-1,11,13,15,17,19,-1,21,-1,23,25,27,29,-1,-1,-1,-1,-1,-1,-1,-1,-1,-1,-1,-1],"loss_changes":[1.2814355E2,5.0722107E1,1.533104E0,1.4847336E0,2.8570685E0,0E0,0E0,7.9530334E-1,4.029709E0,3.423264E0,5.822052E-1,8.8111115E-1,0E0,6.289644E-1,0E0,3.6993122E0,5.91533E0,2.3851961E-1,2.0817971E-1,0E0,0E0,0E0,0E0,0E0,0E0,0E0,0E0,0E0,0E0,0E0,0E0],"parents":[2147483647,0,0,1,1,2,2,3,3,4,4,7,7,8,8,9,9,10,10,11,11,13,13,15,15,16,16,17,17,18,18],"right_children":[2,4,6,8,10,-1,-1,12,14,16,18,20,-1,22,-1,24,26,28,30,-1,-1,-1,-1,-1,-1,-1,-1,-1,-1,-1,-1],"split_conditions":[2.00001E0,1E0,2.00001E0,1E0,1E0,3.501537E-2,2.8988074E-3,1E0,1E0,1E0,1E0,1E0,-8.716005E-3,1E0,3.3994492E-2,1E0,1E2,1E2,1E0,-4.2719025E-2,-6.838397E-2,-1.2422463E-2,-5.0739646E-2,-3.1172667E-2,1.2426774E-2,-6.68358E-3,-3.4190845E-2,6.2164003E-3,-9.095103E-3,2.1691003E-3,2.1208186E-2],"split_indices":[703,704,702,702,47,0,0,317,81,543,660,418,0,153,0,371,701,700,618,0,0,0,0,0,0,0,0,0,0,0,0],"split_type":[0,0,0,0,0,0,0,0,0,0,0,0,0,0,0,0,0,0,0,0,0,0,0,0,0,0,0,0,0,0,0],"sum_hessian":[3.74E2,2.15E2,1.59E2,7.2E1,1.43E2,1.55E2,4E0,5.6E1,1.6E1,1.24E2,1.9E1,5.5E1,1E0,1.5E1,1E0,3E1,9.4E1,9E0,1E1,1.1E1,4.4E1,2E0,1.3E1,5E0,2.5E1,6.7E1,2.7E1,6E0,3E0,2E0,8E0],"tree_param":{"num_deleted":"0","num_feature":"705","num_nodes":"31","size_leaf_vector":"1"}},{"base_weights":[-2.1216542E-2,-5.5646986E-1,6.4479035E-1,-1.16127E0,-2.0929609E-1,3.330474E-2,2.9816355E-3,-1.1940491E0,-2.7273446E-1,-1.7950958E-1,-4.7094308E-2,-1.2218344E0,-4.092937E-1,-3.786071E-2,-2.4433894E-2,-2.4367154E-1,3.6952314E-1,-6.551593E-2,-4.3444738E-2,-7.107246E-3,-3.0268503E-2,1.5857399E-3,-4.4252933E-3,-2.1066267E-2,-6.737334E-3,2.3767661E-2,-2.515669E-2],"categories":[],"categories_nodes":[],"categories_segments":[],"categories_sizes":[],"default_left":[0,0,0,0,0,0,0,0,0,0,0,0,0,0,0,0,0,0,0,0,0,0,0,0,0,0,0],"id":24,"left_children":[1,3,5,7,9,-1,-1,11,13,15,-1,17,19,21,-1,23,25,-1,-1,-1,-1,-1,-1,-1,-1,-1,-1],"loss_changes":[1.3439618E2,4.364084E1,2.0546417E0,1.8878784E0,2.7549763E0,0E0,0E0,1.0916443E0,1.8437606E-1,4.6695538E0,0E0,1.0475388E0,1.2347597E-1,1.3377933E-2,0E0,2.2072845E0,1.5321126E0,0E0,0E0,0E0,0E0,0E0,0E0,0E0,0E0,0E0,0E0],"parents":[2147483647,0,0,1,1,2,2,3,3,4,4,7,7,8,8,9,9,11,11,12,12,13,13,15,15,16,16],"right_children":[2,4,6,8,10,-1,-1,12,14,16,-1,18,20,22,-1,24,26,-1,-1,-1,-1,-1,-1,-1,-1,-1,-1],"split_conditions":[2.00001E0,1E0,2.00001E0,1E0,1E0,3.330474E-2,2.9816355E-3,1E0,1E0,1E0,-4.7094308E-2,1E0,1E0,1E0,-2.4433894E-2,1E0,1E0,-6.551593E-2,-4.3444738E-2,-7.107246E-3,-3.0268503E-2,1.5857399E-3,-4.4252933E-3,-2.1066267E-2,-6.737334E-3,2.3767661E-2,-2.515669E-2],"split_indices":[703,704,702,340,340,0,0,567,233,342,0,702,4,181,0,418,125,0,0,0,0,0,0,0,0,0,0],"split_type":[0,0,0,0,0,0,0,0,0,0,0,0,0,0,0,0,0,0,0,0,0,0,0,0,0,0,0],"sum_hessian":[3.75E2,2.08E2,1.67E2,7.5E1,1.33E2,1.61E2,6E0,7.2E1,3E0,1.29E2,4E0,6.9E1,3E0,2E0,1E0,1.16E2,1.3E1,5.3E1,1.6E1,2E0,1E0,1E0,1E0,4.3E1,7.3E1,1.2E1,1E0],"tree_param":{"num_deleted":"0","num_feature":"705","num_nodes":"27","size_leaf_vector":"1"}},{"base_weights":[-2.1569299E-2,-4.9365386E-1,6.1485255E-1,-1.0803728E0,-1.6974598E-1,3.1621255E-2,2.7745764E-3,-1.1097978E0,-2.6591605E-1,1.1232299E-1,-2.5025925E-1,-1.1863091E0,-7.834772E-1,-3.691411E-2,-2.3823047E-2,-5.799209E-1,2.6199487E-1,-1.5852477E-1,-7.7929157E-1,-6.457624E-2,-3.816899E-2,-4.5901068E-2,3.4230746E-2,1.5460969E-3,-4.314655E-3,4.3316185E-3,-3.6527902E-2,3.1312045E-2,-3.5575677E-3,-1.1508058E-2,1.1944002E-2,-4.2918134E-2,-7.526461E-3],"categories":[],"categories_nodes":[],"categories_segments":[],"categories_sizes":[],"default_left":[0,0,0,0,0,0,0,0,0,0,0,0,0,0,0,0,0,0,0,0,0,0,0,0,0,0,0,0,0,0,0,0,0],"id":25,"left_children":[1,3,5,7,9,-1,-1,11,13,15,17,19,21,23,-1,25,27,29,31,-1,-1,-1,-1,-1,-1,-1,-1,-1,-1,-1,-1,-1,-1],"loss_changes":[1.1357127E2,4.1055916E1,1.547432E0,1.5502243E0,3.2302618E0,0E0,0E0,9.1812897E-1,1.7527261E-1,3.4674382E0,5.2148194E0,1.5950012E0,3.9863863E0,1.2717377E-2,0E0,6.6573596E-1,3.320932E0,2.7595022E0,6.662617E-1,0E0,0E0,0E0,0E0,0E0,0E0,0E0,0E0,0E0,0E0,0E0,0E0,0E0,0E0],"parents":[2147483647,0,0,1,1,2,2,3,3,4,4,7,7,8,8,9,9,10,10,11,11,12,12,13,13,15,15,16,16,17,17,18,18],"right_children":[2,4,6,8,10,-1,-1,12,14,16,18,20,22,24,-1,26,28,30,32,-1,-1,-1,-1,-1,-1,-1,-1,-1,-1,-1,-1,-1,-1],"split_conditions":[2.00001E0,1E0,2.00001E0,1E0,1E0,3.1621255E-2,2.7745764E-3,1E0,1E0,1E0,1E2,1E2,1E0,1E0,-2.3823047E-2,1E0,1E0,1E0,1E0,-6.457624E-2,-3.816899E-2,-4.5901068E-2,3.4230746E-2,1.5460969E-3,-4.314655E-3,4.3316185E-3,-3.6527902E-2,3.1312045E-2,-3.5575677E-3,-1.1508058E-2,1.1944002E-2,-4.2918134E-2,-7.526461E-3],"split_indices":[703,704,702,340,543,0,0,353,233,371,698,700,81,181,0,703,153,47,47,0,0,0,0,0,0,0,0,0,0,0,0,0,0],"split_type":[0,0,0,0,0,0,0,0,0,0,0,0,0,0,0,0,0,0,0,0,0,0,0,0,0,0,0,0,0,0,0,0,0],"sum_hessian":[3.76E2,2.16E2,1.6E2,7.6E1,1.4E2,1.55E2,5E0,7.3E1,3E0,3.1E1,1.09E2,5.7E1,1.6E1,2E0,1E0,5E0,2.6E1,9.4E1,1.5E1,4.4E1,1.3E1,1.5E1,1E0,1E0,1E0,1E0,4E0,1.2E1,1.4E1,8E1,1.4E1,1.3E1,2E0],"tree_param":{"num_deleted":"0","num_feature":"705","num_nodes":"33","size_leaf_vector":"1"}},{"base_weights":[-1.2445208E-2,-4.7913942E-1,6.068448E-1,-1.0709671E0,-1.6640007E-1,3.1259518E-2,2.6589632E-3,-8.908261E-1,-1.3248645E0,-1.9432473E-1,3.6799383E-1,-9.810898E-1,-1.5564138E-1,-6.652374E-1,-1.410659E0,-9.415954E-2,-3.5930505E-1,-2.4560452E-3,2.7233196E-2,-5.170199E-2,-1.2963411E-2,1.6761942E-2,-3.7913393E-2,-3.9540503E-2,-4.0736734E-3,-2.655525E-2,-7.3456764E-2,-9.988568E-3,3.2755663E-3,-3.8619082E-2,-6.43149E-3],"categories":[],"categories_nodes":[],"categories_segments":[],"categories_sizes":[],"default_left":[0,0,0,0,0,0,0,0,0,0,0,0,0,0,0,0,0,0,0,0,0,0,0,0,0,0,0,0,0,0,0],"id":26,"left_children":[1,3,5,7,9,-1,-1,11,13,15,17,19,21,23,25,27,29,-1,-1,-1,-1,-1,-1,-1,-1,-1,-1,-1,-1,-1,-1],"loss_changes":[1.02892525E2,3.739461E1,1.5208244E0,2.0213852E0,2.0711613E0,0E0,0E0,2.7671585E0,5.895691E-1,2.0814047E0,5.425962E-1,1.2224998E0,2.0291052E0,3.0209374E-1,4.026947E-1,1.3790008E0,4.4744024E0,0E0,0E0,0E0,0E0,0E0,0E0,0E0,0E0,0E0,0E0,0E0,0E0,0E0,0E0],"parents":[2147483647,0,0,1,1,2,2,3,3,4,4,7,7,8,8,9,9,10,10,11,11,12,12,13,13,14,14,15,15,16,16],"right_children":[2,4,6,8,10,-1,-1,12,14,16,18,20,22,24,26,28,30,-1,-1,-1,-1,-1,-1,-1,-1,-1,-1,-1,-1,-1,-1],"split_conditions":[2.00001E0,1E0,2.00001E0,1E0,1E0,3.1259518E-2,2.6589632E-3,1E0,1E0,1E0,1E0,1E0,1E0,1E0,1E0,1E0,1E0,-2.4560452E-3,2.7233196E-2,-5.170199E-2,-1.2963411E-2,1.6761942E-2,-3.7913393E-2,-3.9540503E-2,-4.0736734E-3,-2.655525E-2,-7.3456764E-2,-9.988568E-3,3.2755663E-3,-3.8619082E-2,-6.43149E-3],"split_indices":[704,704,702,74,73,0,0,249,418,181,617,340,181,129,151,660,604,0,0,0,0,0,0,0,0,0,0,0,0,0,0],"split_type":[0,0,0,0,0,0,0,0,0,0,0,0,0,0,0,0,0,0,0,0,0,0,0,0,0,0,0,0,0,0,0],"sum_hessian":[3.54E2,2.02E2,1.52E2,6.9E1,1.33E2,1.47E2,5E0,4.3E1,2.6E1,1.27E2,6E0,3.8E1,5E0,4E0,2.2E1,8E1,4.7E1,2E0,4E0,3.5E1,3E0,3E0,2E0,3E0,1E0,2E0,2E1,4.8E1,3.2E1,1.6E1,3.1E1],"tree_param":{"num_deleted":"0","num_feature":"705","num_nodes":"31","size_leaf_vector":"1"}},{"base_weights":[-9.0652384E-4,-4.50226E-1,2.8240422E-2,-1.0353521E0,-1.4810961E-1,-1.0511894E0,1.8315256E-3,-1.1997161E-1,-4.3910705E-2,-1.0641323E0,-3.9532483E-3,-9.6350886E-2,-4.347312E-2,-5.386841E-2,-4.102278E-3,-1.146034E-2,3.1021077E-3],"categories":[],"categories_nodes":[],"categories_segments":[],"categories_sizes":[],"default_left":[0,0,0,0,0,0,0,0,0,0,0,0,0,0,0,0,0],"id":27,"left_children":[1,3,-1,5,7,9,-1,11,-1,13,-1,15,-1,-1,-1,-1,-1],"loss_changes":[9.532013E1,3.6792877E1,0E0,1.2439041E0,2.7502124E0,7.96608E-1,0E0,2.3062007E0,0E0,8.085327E-1,0E0,2.7919557E0,0E0,0E0,0E0,0E0,0E0],"parents":[2147483647,0,0,1,1,3,3,4,4,5,5,7,7,9,9,11,11],"right_children":[2,4,-1,6,8,10,-1,12,-1,14,-1,16,-1,-1,-1,-1,-1],"split_conditions":[2.00001E0,1E0,2.8240422E-2,1E0,1E0,1E0,1.8315256E-3,1E0,-4.3910705E-2,1E0,-3.9532483E-3,1E0,-4.347312E-2,-5.386841E-2,-4.102278E-3,-1.146034E-2,3.1021077E-3],"split_indices":[703,704,0,340,340,317,0,127,0,132,0,660,0,0,0,0,0],"split_type":[0,0,0,0,0,0,0,0,0,0,0,0,0,0,0,0,0],"sum_hessian":[3.73E2,2.08E2,1.65E2,7E1,1.38E2,6.9E1,1E0,1.34E2,4E0,6.8E1,1E0,1.31E2,3E0,6.7E1,1E0,7.1E1,6E1],"tree_param":{"num_deleted":"0","num_feature":"705","num_nodes":"17","size_leaf_vector":"1"}},{"base_weights":[3.387187E-2,-3.9390025E-1,5.284404E-1,-9.5212734E-1,-1.2669429E-1,2.7191466E-2,1.3715029E-3,-9.963896E-1,-6.1226815E-2,-1.4118287E-1,4.3920495E-2,-1.0318978E0,-2.5017858E-1,2.5695234E-3,-5.7948036E-3,-1.19203165E-1,-4.0187143E-2,-5.357058E-2,-1.25182485E-2,-1.3791204E-3,-2.2949178E-2,-7.7204867E-3,1.1553034E-2],"categories":[],"categories_nodes":[],"categories_segments":[],"categories_sizes":[],"default_left":[0,0,0,0,0,0,0,0,0,0,0,0,0,0,0,0,0,0,0,0,0,0,0],"id":28,"left_children":[1,3,5,7,9,-1,-1,11,13,15,-1,17,19,-1,-1,21,-1,-1,-1,-1,-1,-1,-1],"loss_changes":[7.5736015E1,2.8518394E1,1.264946E0,2.3838615E0,2.0317068E0,0E0,0E0,1.3051338E0,3.0582761E-2,1.7973647E0,0E0,1.461113E0,1.732569E-1,0E0,0E0,1.60179E0,0E0,0E0,0E0,0E0,0E0,0E0,0E0],"parents":[2147483647,0,0,1,1,2,2,3,3,4,4,7,7,8,8,9,9,11,11,12,12,15,15],"right_children":[2,4,6,8,10,-1,-1,12,14,16,-1,18,20,-1,-1,22,-1,-1,-1,-1,-1,-1,-1],"split_conditions":[2.00001E0,1E0,2.00001E0,1E0,1E0,2.7191466E-2,1.3715029E-3,1E0,1E0,1E0,4.3920495E-2,1E0,1E0,2.5695234E-3,-5.7948036E-3,1E0,-4.0187143E-2,-5.357058E-2,-1.25182485E-2,-1.3791204E-3,-2.2949178E-2,-7.7204867E-3,1.1553034E-2],"split_indices":[703,704,702,2,60,0,0,637,29,340,0,184,233,0,0,342,0,0,0,0,0,0,0],"split_type":[0,0,0,0,0,0,0,0,0,0,0,0,0,0,0,0,0,0,0,0,0,0,0],"sum_hessian":[3.56E2,1.91E2,1.65E2,6.1E1,1.3E2,1.6E2,5E0,5.8E1,3E0,1.29E2,1E0,5.5E1,3E0,1E0,2E0,1.26E2,3E0,5.2E1,3E0,2E0,1E0,1.15E2,1.1E1],"tree_param":{"num_deleted":"0","num_feature":"705","num_nodes":"23","size_leaf_vector":"1"}},{"base_weights":[-3.044888E-2,-4.5308074E-1,5.127536E-1,-9.6179163E-1,-1.7332427E-1,5.247091E-1,1.2617874E-3,-9.9091476E-1,6.74688E-2,-1.9925933E-1,4.304568E-1,2.7107954E-2,2.1521935E-2,-1.0056887E0,1.8202126E-3,3.5641897E-2,-3.0581737E-2,-9.659241E-2,-3.9133388E-1,2.6525635E-2,-1.7455698E-3,-5.095417E-2,-1.3665736E-3,-7.1686953E-3,1.413203E-2,-5.265828E-2,-8.911856E-3],"categories":[],"categories_nodes":[],"categories_segments":[],"categories_sizes":[],"default_left":[0,0,0,0,0,0,0,0,0,0,0,0,0,0,0,0,0,0,0,0,0,0,0,0,0,0,0],"id":29,"left_children":[1,3,5,7,9,11,-1,13,15,17,19,-1,-1,21,-1,-1,-1,23,25,-1,-1,-1,-1,-1,-1,-1,-1],"loss_changes":[8.65524E1,3.0004112E1,9.4846725E-1,2.3150024E0,2.2467275E0,3.147888E-2,0E0,1.1445694E0,1.7508138E0,2.58492E0,2.9789793E-1,0E0,0E0,9.156952E-1,0E0,0E0,0E0,1.6017389E0,6.2998595E0,0E0,0E0,0E0,0E0,0E0,0E0,0E0,0E0],"parents":[2147483647,0,0,1,1,2,2,3,3,4,4,5,5,7,7,8,8,9,9,10,10,13,13,17,17,18,18],"right_children":[2,4,6,8,10,12,-1,14,16,18,20,-1,-1,22,-1,-1,-1,24,26,-1,-1,-1,-1,-1,-1,-1,-1],"split_conditions":[2.00001E0,1E0,2.00001E0,1E0,1E0,1E0,1.2617874E-3,1E0,1E0,1E0,1E0,2.7107954E-2,2.1521935E-2,1E0,1.8202126E-3,3.5641897E-2,-3.0581737E-2,1E0,1E0,2.6525635E-2,-1.7455698E-3,-5.095417E-2,-1.3665736E-3,-7.1686953E-3,1.413203E-2,-5.265828E-2,-8.911856E-3],"split_indices":[704,704,702,617,73,702,0,483,13,181,32,0,0,612,0,0,0,47,37,0,0,0,0,0,0,0,0],"split_type":[0,0,0,0,0,0,0,0,0,0,0,0,0,0,0,0,0,0,0,0,0,0,0,0,0,0,0],"sum_hessian":[3.75E2,2.11E2,1.64E2,7.4E1,1.37E2,1.6E2,4E0,7.2E1,2E0,1.32E2,5E0,1.31E2,2.9E1,7.1E1,1E0,1E0,1E0,8.7E1,4.5E1,4E0,1E0,7E1,1E0,7.8E1,9E0,1E1,3.5E1],"tree_param":{"num_deleted":"0","num_feature":"705","num_nodes":"27","size_leaf_vector":"1"}},{"base_weights":[-3.7648575E-3,-8.2049596E-1,2.0524299E-1,-6.2729174E-1,-1.1119894E0,-8.800179E-2,4.7446078E-1,-6.702135E-1,3.475085E-2,-1.1837711E0,-9.529086E-2,-3.840153E-2,-3.911233E-1,4.862271E-1,1.211319E-3,-6.9807655E-1,-2.8864304E-2,-2.0390296E-2,-1.229536E0,8.392346E-3,-1.5539161E-2,-1.4498991E-1,9.361632E-2,-4.7598916E-1,1.2422323E-2,2.39115E-2,4.2144775E-2,-3.6431428E-2,-1.0138032E-2,1.7747044E-3,-3.9395276E-3,-1.7600542E-2,-6.257163E-2,-3.3183459E-3,-3.680972E-2,2.2124134E-2,1.3126772E-3,-3.331996E-2,-1.2851062E-2],"categories":[],"categories_nodes":[],"categories_segments":[],"categories_sizes":[],"default_left":[0,0,0,0,0,0,0,0,0,0,0,0,0,0,0,0,0,0,0,0,0,0,0,0,0,0,0,0,0,0,0,0,0,0,0,0,0,0,0],"id":30,"left_children":[1,3,5,7,9,11,13,15,-1,17,19,21,23,25,-1,27,29,-1,31,-1,-1,33,35,37,-1,-1,-1,-1,-1,-1,-1,-1,-1,-1,-1,-1,-1,-1,-1],"loss_changes":[6.3669994E1,3.5826073E0,2.3488926E1,3.190094E0,2.0036278E0,2.1349714E0,8.0934525E-1,8.197346E-1,0E0,4.5741272E-1,2.2227654E-1,1.7584479E0,1.2038107E0,2.7599335E-2,0E0,5.332451E-1,1.2436116E-2,0E0,3.9848328E-2,0E0,0E0,3.1584172E0,1.3044174E0,5.792079E-1,0E0,0E0,0E0,0E0,0E0,0E0,0E0,0E0,0E0,0E0,0E0,0E0,0E0,0E0,0E0],"parents":[2147483647,0,0,1,1,2,2,3,3,4,4,5,5,6,6,7,7,9,9,10,10,11,11,12,12,13,13,15,15,16,16,18,18,21,21,22,22,23,23],"right_children":[2,4,6,8,10,12,14,16,-1,18,20,22,24,26,-1,28,30,-1,32,-1,-1,34,36,38,-1,-1,-1,-1,-1,-1,-1,-1,-1,-1,-1,-1,-1,-1,-1],"split_conditions":[1E0,1E0,2.00001E0,1E0,1E0,1E0,2.00001E0,1E0,3.475085E-2,1E0,1E0,1E0,1E0,1E0,1.211319E-3,1E0,1E0,-2.0390296E-2,1E0,8.392346E-3,-1.5539161E-2,1E0,1E0,1E0,1.2422323E-2,2.39115E-2,4.2144775E-2,-3.6431428E-2,-1.0138032E-2,1.7747044E-3,-3.9395276E-3,-1.7600542E-2,-6.257163E-2,-3.3183459E-3,-3.680972E-2,2.2124134E-2,1.3126772E-3,-3.331996E-2,-1.2851062E-2],"split_indices":[704,74,704,617,331,404,702,340,0,151,112,514,47,29,0,184,181,0,543,0,0,249,418,350,0,0,0,0,0,0,0,0,0,0,0,0,0,0,0],"split_type":[0,0,0,0,0,0,0,0,0,0,0,0,0,0,0,0,0,0,0,0,0,0,0,0,0,0,0,0,0,0,0,0,0,0,0,0,0,0,0],"sum_hessian":[3.71E2,7.5E1,2.96E2,4.7E1,2.8E1,1.42E2,1.54E2,4.6E1,1E0,2.6E1,2E0,1.23E2,1.9E1,1.5E2,4E0,4.4E1,2E0,2E0,2.4E1,1E0,1E0,6.8E1,5.5E1,1.7E1,2E0,1.49E2,1E0,4.1E1,3E0,1E0,1E0,1E0,2.3E1,6.1E1,7E0,8E0,4.7E1,8E0,9E0],"tree_param":{"num_deleted":"0","num_feature":"705","num_nodes":"39","size_leaf_vector":"1"}},{"base_weights":[1.426858E-2,-8.274086E-1,2.1834888E-1,-5.82423E-1,-9.0282166E-1,-7.677491E-2,4.5882168E-1,-2.80579E-1,-1.0001166E0,-9.753392E-1,-2.7658415E-1,-4.9505696E-2,-3.906636E-2,4.749373E-1,1.2459346E-3,-7.359319E-2,-2.9851884E-2,-1.1216328E0,-3.737575E-3,-9.975637E-1,1.7303348E-3,8.528451E-3,-4.9681496E-2,-5.3848447E-3,-4.5296696E-1,2.456939E-2,1.9184096E-2,2.091951E-3,-2.4926273E-2,-1.6818602E-2,-5.982238E-2,-5.5014115E-2,-3.0313889E-2,6.2770867E-3,-1.4413449E-2,-2.6162196E-2,1.0840357E-3,-3.8779985E-2,2.6352247E-3],"categories":[],"categories_nodes":[],"categories_segments":[],"categories_sizes":[],"default_left":[0,0,0,0,0,0,0,0,0,0,0,0,0,0,0,0,0,0,0,0,0,0,0,0,0,0,0,0,0,0,0,0,0,0,0,0,0,0,0],"id":31,"left_children":[1,3,5,7,9,11,13,15,17,19,21,23,-1,25,-1,27,-1,29,-1,31,-1,33,-1,35,37,-1,-1,-1,-1,-1,-1,-1,-1,-1,-1,-1,-1,-1,-1],"loss_changes":[6.425077E1,8.228569E-1,2.1396969E1,2.240954E0,2.1825485E0,2.5742316E0,1.1489372E0,8.0759394E-1,8.1573105E-1,1.1119118E0,1.4395456E0,2.3472996E0,0E0,5.1654816E-2,0E0,4.6231568E-1,0E0,8.792877E-3,0E0,1.221962E0,0E0,2.4456523E-1,0E0,1.6932817E0,2.1617773E0,0E0,0E0,0E0,0E0,0E0,0E0,0E0,0E0,0E0,0E0,0E0,0E0,0E0,0E0],"parents":[2147483647,0,0,1,1,2,2,3,3,4,4,5,5,6,6,7,7,8,8,9,9,10,10,11,11,13,13,15,15,17,17,19,19,21,21,23,23,24,24],"right_children":[2,4,6,8,10,12,14,16,18,20,22,24,-1,26,-1,28,-1,30,-1,32,-1,34,-1,36,38,-1,-1,-1,-1,-1,-1,-1,-1,-1,-1,-1,-1,-1,-1],"split_conditions":[1E0,1E0,2.00001E0,1E0,1E0,1E0,2.00001E0,1E0,1E0,1E0,1E0,1E0,-3.906636E-2,1E0,1.2459346E-3,1E0,-2.9851884E-2,1E0,-3.737575E-3,1E0,1.7303348E-3,1E2,-4.9681496E-2,1E0,1E0,2.456939E-2,1.9184096E-2,2.091951E-3,-2.4926273E-2,-1.6818602E-2,-5.982238E-2,-5.5014115E-2,-3.0313889E-2,6.2770867E-3,-1.4413449E-2,-2.6162196E-2,1.0840357E-3,-3.8779985E-2,2.6352247E-3],"split_indices":[704,418,704,47,47,483,702,702,2,483,56,166,0,702,0,342,0,370,0,249,0,700,0,371,604,0,0,0,0,0,0,0,0,0,0,0,0,0,0],"split_type":[0,0,0,0,0,0,0,0,0,0,0,0,0,0,0,0,0,0,0,0,0,0,0,0,0,0,0,0,0,0,0,0,0,0,0,0,0,0,0],"sum_hessian":[3.72E2,7.2E1,3E2,1.9E1,5.3E1,1.35E2,1.65E2,1.2E1,7E0,4.7E1,6E0,1.31E2,4E0,1.59E2,6E0,8E0,4E0,6E0,1E0,4.6E1,1E0,5E0,1E0,1.19E2,1.2E1,1.31E2,2.8E1,7E0,1E0,1E0,5E0,3.5E1,1.1E1,4E0,1E0,5E0,1.14E2,7E0,5E0],"tree_param":{"num_deleted":"0","num_feature":"705","num_nodes":"39","size_leaf_vector":"1"}},{"base_weights":[-6.0799713E-3,-3.4063375E-1,4.4145107E-1,-7.9952365E-1,-1.1040024E-1,4.5226482E-1,1.1130333E-3,-6.7611384E-1,-9.9461675E-1,-8.624863E-2,-3.750371E-2,2.2229422E-2,4.047692E-2,-7.2192967E-1,3.4639925E-2,-1.9767302E-1,-1.0943058E0,-1.2398689E-1,2.5416517E-1,-3.6993545E-2,1.6870737E-3,2.1756292E-4,-2.0093648E-2,-5.970332E-2,-3.223296E-3,-5.022017E-3,-4.026369E-2,1.6902432E-2,-2.0907998E-2],"categories":[],"categories_nodes":[],"categories_segments":[],"categories_sizes":[],"default_left":[0,0,0,0,0,0,0,0,0,0,0,0,0,0,0,0,0,0,0,0,0,0,0,0,0,0,0,0,0],"id":32,"left_children":[1,3,5,7,9,11,-1,13,15,17,-1,-1,-1,19,-1,21,23,25,27,-1,-1,-1,-1,-1,-1,-1,-1,-1,-1],"loss_changes":[5.4949062E1,2.2098618E1,7.016163E-1,1.0128708E0,2.1136374E0,5.9703827E-2,0E0,3.38517E0,1.7698498E0,1.7915008E0,0E0,0E0,0E0,6.3505936E-1,0E0,1.6676202E-1,2.1832504E0,1.9083219E0,9.309159E-1,0E0,0E0,0E0,0E0,0E0,0E0,0E0,0E0,0E0,0E0],"parents":[2147483647,0,0,1,1,2,2,3,3,4,4,5,5,7,7,8,8,9,9,13,13,15,15,16,16,17,17,18,18],"right_children":[2,4,6,8,10,12,-1,14,16,18,-1,-1,-1,20,-1,22,24,26,28,-1,-1,-1,-1,-1,-1,-1,-1,-1,-1],"split_conditions":[2.00001E0,1E0,2.00001E0,1E0,1E0,1E0,1.1130333E-3,1E0,1E0,1E0,-3.750371E-2,2.2229422E-2,4.047692E-2,1E0,3.4639925E-2,1E0,1E0,1E0,1E0,-3.6993545E-2,1.6870737E-3,2.1756292E-4,-2.0093648E-2,-5.970332E-2,-3.223296E-3,-5.022017E-3,-4.026369E-2,1.6902432E-2,-2.0907998E-2],"split_indices":[704,704,702,74,483,13,0,617,153,342,0,0,0,483,0,32,331,16,166,0,0,0,0,0,0,0,0,0,0],"split_type":[0,0,0,0,0,0,0,0,0,0,0,0,0,0,0,0,0,0,0,0,0,0,0,0,0,0,0,0,0],"sum_hessian":[3.65E2,2.09E2,1.56E2,6.9E1,1.4E2,1.52E2,4E0,4.5E1,2.4E1,1.36E2,4E0,1.51E2,1E0,4.4E1,1E0,3E0,2.1E1,1.23E2,1.3E1,4.3E1,1E0,2E0,1E0,1.9E1,2E0,1.2E2,3E0,1.2E1,1E0],"tree_param":{"num_deleted":"0","num_feature":"705","num_nodes":"29","size_leaf_vector":"1"}},{"base_weights":[-1.8771442E-2,-7.8218323E-1,1.7872737E-1,-6.370886E-1,-1.0029818E0,-1.1541009E-1,2.0592233E-2,-6.730654E-1,1.2691951E-1,-3.4509096E-1,-1.068125E0,-1.3646507E-1,2.8833723E-2,-5.98298E-1,-5.8324922E-2,-2.4254967E-2,3.377393E-2,-2.3206163E-2,3.0014812E-4,-1.5886705E-2,-1.1195619E0,-1.8696494E-1,1.9832614E-1,-2.0783478E-2,-3.8056638E-2,-5.7359558E-2,-1.2792933E-2,-1.1362413E-2,1.4517659E-2,1.5711328E-2,-6.067685E-4],"categories":[],"categories_nodes":[],"categories_segments":[],"categories_sizes":[],"default_left":[0,0,0,0,0,0,0,0,0,0,0,0,0,0,0,0,0,0,0,0,0,0,0,0,0,0,0,0,0,0,0],"id":33,"left_children":[1,3,5,7,9,11,-1,13,15,17,19,21,-1,23,-1,-1,-1,-1,-1,-1,25,27,29,-1,-1,-1,-1,-1,-1,-1,-1],"loss_changes":[5.502114E1,1.7637596E0,1.9932405E1,1.4047832E0,8.314018E-1,1.9584621E0,0E0,9.9915123E-1,1.3348597E0,1.6995215E-1,6.092186E-1,2.1673508E0,0E0,9.326267E-1,0E0,0E0,0E0,0E0,0E0,0E0,2.5534248E-1,2.1810575E0,4.1848695E-1,0E0,0E0,0E0,0E0,0E0,0E0,0E0,0E0],"parents":[2147483647,0,0,1,1,2,2,3,3,4,4,5,5,7,7,8,8,9,9,10,10,11,11,13,13,20,20,21,21,22,22],"right_children":[2,4,6,8,10,12,-1,14,16,18,20,22,-1,24,-1,-1,-1,-1,-1,-1,26,28,30,-1,-1,-1,-1,-1,-1,-1,-1],"split_conditions":[1E0,1E0,2.00001E0,1E0,1E0,1E0,2.0592233E-2,1E0,1E0,1E0,1E0,1E0,2.8833723E-2,1E2,-5.8324922E-2,-2.4254967E-2,3.377393E-2,-2.3206163E-2,3.0014812E-4,-1.5886705E-2,1E0,1E0,1E2,-2.0783478E-2,-3.8056638E-2,-5.7359558E-2,-1.2792933E-2,-1.1362413E-2,1.4517659E-2,1.5711328E-2,-6.067685E-4],"split_indices":[704,74,703,617,418,125,0,81,29,4,151,47,0,701,0,0,0,0,0,0,178,294,700,0,0,0,0,0,0,0,0],"split_type":[0,0,0,0,0,0,0,0,0,0,0,0,0,0,0,0,0,0,0,0,0,0,0,0,0,0,0,0,0,0,0],"sum_hessian":[3.63E2,7.4E1,2.89E2,4.7E1,2.7E1,1.28E2,1.61E2,4.5E1,2E0,3E0,2.4E1,1.25E2,3E0,4.1E1,4E0,1E0,1E0,2E0,1E0,2E0,2.2E1,1.09E2,1.6E1,2.1E1,2E1,2.1E1,1E0,1.01E2,8E0,1E1,6E0],"tree_param":{"num_deleted":"0","num_feature":"705","num_nodes":"31","size_leaf_vector":"1"}},{"base_weights":[1.2913918E-2,-3.2266393E-1,1.9098679E-2,-6.7926913E-1,-1.3600749E-1,-7.3054713E-1,-3.2931334E-1,-3.0005717E-1,-5.1355742E-2,-2.4677004E-1,-8.3256936E-1,-4.1295674E-2,1.3940565E-1,-9.69415E-2,-6.2406135E-1,8.530837E-2,-1.5784971E-1,-5.5976696E-3,-2.8448168E-2,-4.350689E-2,-8.2827016E-4,8.503463E-3,-3.47811E-4,-3.132264E-2,1.1192255E-3,-9.294949E-3,-4.7209945E-2,7.0677274E-3,-1.5082903E-2,-4.1934848E-2,-2.8413746E-3],"categories":[],"categories_nodes":[],"categories_segments":[],"categories_sizes":[],"default_left":[0,0,0,0,0,0,0,0,0,0,0,0,0,0,0,0,0,0,0,0,0,0,0,0,0,0,0,0,0,0,0],"id":34,"left_children":[1,3,-1,5,7,9,11,13,15,17,19,-1,21,23,25,27,29,-1,-1,-1,-1,-1,-1,-1,-1,-1,-1,-1,-1,-1,-1],"loss_changes":[4.4213226E1,1.235483E1,0E0,9.079037E-1,1.7065897E0,2.5091286E0,2.4427958E0,2.7035356E0,1.2214398E0,4.1410983E-1,1.3651047E0,0E0,2.8110936E-2,1.7200037E0,2.0688295E0,8.4509635E-1,3.1850324E0,0E0,0E0,0E0,0E0,0E0,0E0,0E0,0E0,0E0,0E0,0E0,0E0,0E0,0E0],"parents":[2147483647,0,0,1,1,3,3,4,4,5,5,6,6,7,7,8,8,9,9,10,10,12,12,13,13,14,14,15,15,16,16],"right_children":[2,4,-1,6,8,10,12,14,16,18,20,-1,22,24,26,28,30,-1,-1,-1,-1,-1,-1,-1,-1,-1,-1,-1,-1,-1,-1],"split_conditions":[2.00001E0,1E0,1.9098679E-2,1E0,1E0,1E0,1E0,1E0,1E0,1E0,1E0,-4.1295674E-2,1E0,1E0,1E0,1E2,1E0,-5.5976696E-3,-2.8448168E-2,-4.350689E-2,-8.2827016E-4,8.503463E-3,-3.47811E-4,-3.132264E-2,1.1192255E-3,-9.294949E-3,-4.7209945E-2,7.0677274E-3,-1.5082903E-2,-4.1934848E-2,-2.8413746E-3],"split_indices":[703,704,0,47,418,418,418,181,353,342,340,0,317,371,376,698,129,0,0,0,0,0,0,0,0,0,0,0,0,0,0],"split_type":[0,0,0,0,0,0,0,0,0,0,0,0,0,0,0,0,0,0,0,0,0,0,0,0,0,0,0,0,0,0,0],"sum_hessian":[3.55E2,1.86E2,1.69E2,6.3E1,1.23E2,5.4E1,9E0,4.1E1,8.2E1,1E1,4.4E1,4E0,5E0,2.6E1,1.5E1,3.6E1,4.6E1,8E0,2E0,4.2E1,2E0,4E0,1E0,4E0,2.2E1,7E0,8E0,3.2E1,4E0,5E0,4.1E1],"tree_param":{"num_deleted":"0","num_feature":"705","num_nodes":"31","size_leaf_vector":"1"}},{"base_weights":[-5.07589E-3,-6.406608E-1,1.613023E-1,-7.1023905E-1,-3.4921885E-1,3.5444173E-1,-1.0154247E-1,-7.4515307E-1,-1.6318877E-1,-5.0784767E-1,5.603315E-1,3.6318982E-1,-5.191231E-4,-3.6140874E-2,-5.87465E-1,-7.7408534E-1,-1.6104642E-1,2.4614334E-2,-1.482978E-2,-5.47656E-1,1.2367219E-3,3.4017254E-2,8.007613E-3,3.7904066E-1,1.617563E-1,-5.6323917E-3,-3.4699883E-2,-6.594588E-1,1.05112195E-2,-2.1432249E-2,-4.1617658E-2,5.2380385E-3,-2.3961699E-2,2.1851899E-3,-3.3911466E-4,-1.5319032E-2,-3.7258133E-2,1.9601488E-2,1.5592585E-2,-3.0525763E-2,2.6585823E-2,1.0241357E-3,-2.7646154E-2,-3.5178807E-2,-2.148342E-3],"categories":[],"categories_nodes":[],"categories_segments":[],"categories_sizes":[],"default_left":[0,0,0,0,0,0,0,0,0,0,0,1,0,0,0,0,0,0,0,0,0,0,0,0,0,0,0,0,0,0,0,0,0,0,0,0,0,0,0,0,0,0,0,0,0],"id":35,"left_children":[1,3,5,7,9,11,13,15,17,19,21,23,-1,25,27,29,31,33,-1,35,-1,-1,-1,37,39,41,-1,43,-1,-1,-1,-1,-1,-1,-1,-1,-1,-1,-1,-1,-1,-1,-1,-1,-1],"loss_changes":[3.975864E1,1.3336563E0,1.51641655E1,1.062582E0,2.737338E0,5.527115E-1,4.014842E0,8.555069E-1,1.3257158E-1,3.3156395E-1,3.5121977E-2,4.7509384E-1,0E0,2.264025E0,1.0000648E0,7.502594E-1,3.8851106E-1,2.0944462E-3,0E0,4.3884563E-1,0E0,0E0,0E0,1.3019562E-2,4.3245564E0,1.5692137E0,0E0,3.505411E-1,0E0,0E0,0E0,0E0,0E0,0E0,0E0,0E0,0E0,0E0,0E0,0E0,0E0,0E0,0E0,0E0,0E0],"parents":[2147483647,0,0,1,1,2,2,3,3,4,4,5,5,6,6,7,7,8,8,9,9,10,10,11,11,13,13,14,14,15,15,16,16,17,17,19,19,23,23,24,24,25,25,27,27],"right_children":[2,4,6,8,10,12,14,16,18,20,22,24,-1,26,28,30,32,34,-1,36,-1,-1,-1,38,40,42,-1,44,-1,-1,-1,-1,-1,-1,-1,-1,-1,-1,-1,-1,-1,-1,-1,-1,-1],"split_conditions":[1E0,1E0,1E0,1E0,1E0,2.00001E0,1E2,1E0,1E2,1E0,1E0,1E0,-5.191231E-4,1E0,1E0,1E0,1E0,1E0,-1.482978E-2,1E0,1.2367219E-3,3.4017254E-2,8.007613E-3,1E0,1E0,1E0,-3.4699883E-2,1E0,1.05112195E-2,-2.1432249E-2,-4.1617658E-2,5.2380385E-3,-2.3961699E-2,2.1851899E-3,-3.3911466E-4,-1.5319032E-2,-3.7258133E-2,1.9601488E-2,1.5592585E-2,-3.0525763E-2,2.6585823E-2,1.0241357E-3,-2.7646154E-2,-3.5178807E-2,-2.148342E-3],"split_indices":[704,702,469,342,129,702,698,567,701,571,12,703,0,483,157,153,12,181,0,74,0,0,0,702,371,16,0,74,0,0,0,0,0,0,0,0,0,0,0,0,0,0,0,0,0],"split_type":[0,0,0,0,0,0,0,0,0,0,0,0,0,0,0,0,0,0,0,0,0,0,0,0,0,0,0,0,0,0,0,0,0,0,0,0,0,0,0,0,0,0,0,0,0],"sum_hessian":[3.74E2,7.7E1,2.97E2,6.1E1,1.6E1,1.71E2,1.26E2,5.7E1,4E0,1.4E1,2E0,1.67E2,4E0,1.12E2,1.4E1,5.4E1,3E0,2E0,2E0,1.3E1,1E0,1E0,1E0,1.54E2,1.3E1,1.08E2,4E0,1.3E1,1E0,9E0,4.5E1,2E0,1E0,1E0,1E0,7E0,6E0,1.25E2,2.9E1,4E0,9E0,1.04E2,4E0,1.2E1,1E0],"tree_param":{"num_deleted":"0","num_feature":"705","num_nodes":"45","size_leaf_vector":"1"}},{"base_weights":[-2.80609E-2,-7.172644E-1,1.425829E-1,-7.3156387E-1,7.807422E-3,3.3185852E-1,-1.2111057E-1,-6.4938533E-1,-1.0883414E0,3.4005654E-1,-4.9835205E-4,-1.8259749E-1,2.282959E-1,-6.9489306E-1,-7.199526E-4,-5.954014E-2,9.683937E-4,1.7733516E-2,1.5397151E-1,-3.7218994E-1,-1.9276302E-2,1.0016546E-1,1.7976679E-2,-3.1764936E-2,-5.477807E-2,9.563676E-3,-9.623673E-3,-2.9304733E-2,2.5430372E-2,-1.4714382E-2,-5.8750954E-2,2.5024565E-3,-2.0113789E-2,1.4119141E-2,-8.748598E-3],"categories":[],"categories_nodes":[],"categories_segments":[],"categories_sizes":[],"default_left":[0,0,0,0,0,0,0,0,0,1,0,0,0,0,0,0,0,0,0,0,0,0,0,0,0,0,0,0,0,0,0,0,0,0,0],"id":36,"left_children":[1,3,5,7,-1,9,11,13,15,17,-1,19,21,23,25,-1,-1,-1,27,29,31,33,-1,-1,-1,-1,-1,-1,-1,-1,-1,-1,-1,-1,-1],"loss_changes":[4.3264515E1,1.0259514E0,1.4763861E1,1.4042473E0,0E0,4.85384E-1,2.705693E0,1.8001747E0,1.3850355E0,4.022503E-1,0E0,3.2750592E0,2.834825E-1,6.6501236E-1,2.2089218E-1,0E0,0E0,0E0,3.9724488E0,2.7187767E0,1.5601267E0,6.0089207E-1,0E0,0E0,0E0,0E0,0E0,0E0,0E0,0E0,0E0,0E0,0E0,0E0,0E0],"parents":[2147483647,0,0,1,1,2,2,3,3,5,5,6,6,7,7,8,8,9,9,11,11,12,12,13,13,14,14,18,18,19,19,20,20,21,21],"right_children":[2,4,6,8,-1,10,12,14,16,18,-1,20,22,24,26,-1,-1,-1,28,30,32,34,-1,-1,-1,-1,-1,-1,-1,-1,-1,-1,-1,-1,-1],"split_conditions":[1E0,1E0,1E0,1E0,7.807422E-3,2.00001E0,1E0,1E0,1E0,1E0,-4.9835205E-4,1E0,1E0,1E0,1E0,-5.954014E-2,9.683937E-4,1.7733516E-2,1E0,1E0,1E0,1E2,1.7976679E-2,-3.1764936E-2,-5.477807E-2,9.563676E-3,-9.623673E-3,-2.9304733E-2,2.5430372E-2,-1.4714382E-2,-5.8750954E-2,2.5024565E-3,-2.0113789E-2,1.4119141E-2,-8.748598E-3],"split_indices":[704,238,469,129,0,702,47,353,2,703,0,129,347,81,181,0,0,0,371,249,404,701,0,0,0,0,0,0,0,0,0,0,0,0,0],"split_type":[0,0,0,0,0,0,0,0,0,0,0,0,0,0,0,0,0,0,0,0,0,0,0,0,0,0,0,0,0,0,0,0,0,0,0],"sum_hessian":[3.66E2,7.2E1,2.94E2,7.1E1,1E0,1.71E2,1.23E2,6E1,1.1E1,1.67E2,4E0,1.05E2,1.8E1,5.6E1,4E0,1E1,1E0,1.54E2,1.3E1,4.8E1,5.7E1,1E1,8E0,5.1E1,5E0,2E0,2E0,4E0,9E0,4.5E1,3E0,4.9E1,8E0,6E0,4E0],"tree_param":{"num_deleted":"0","num_feature":"705","num_nodes":"35","size_leaf_vector":"1"}},{"base_weights":[-1.4803137E-2,3.0439723E-1,-3.0536556E-1,1.5600689E-2,6.5469295E-3,-4.4288284E-1,-7.889429E-2,-5.69012E-1,-1.6237381E-1,5.635732E-2,-3.2555518E-1,-6.869436E-1,-1.4802752E-1,-1.1858789E-2,-3.230245E-2,6.8894653E-3,5.9878135E-1,-4.4652942E-1,6.6593446E-2,-3.5496783E-2,4.7706763E-4,-1.7074887E-2,1.1621053E-2,2.4274227E-3,-2.8585339E-2,-2.347501E-3,1.8233556E-2,3.583723E-2,6.122291E-3,-7.544196E-4,-2.7672334E-2,-2.7715524E-3,1.996851E-2],"categories":[],"categories_nodes":[],"categories_segments":[],"categories_sizes":[],"default_left":[0,0,0,0,0,0,0,0,0,0,0,0,0,0,0,0,0,0,0,0,0,0,0,0,0,0,0,0,0,0,0,0,0],"id":37,"left_children":[1,3,5,-1,-1,7,9,11,13,15,17,19,21,23,-1,25,27,29,31,-1,-1,-1,-1,-1,-1,-1,-1,-1,-1,-1,-1,-1,-1],"loss_changes":[3.3667595E1,1.87706E-1,5.8823643E0,0E0,0E0,4.082493E0,2.453721E0,3.9197483E0,2.7587533E0,1.2838372E0,1.2631726E0,1.0156288E0,1.477875E0,1.0423217E0,0E0,8.8394636E-1,1.3699782E-1,9.142189E-1,3.0638587E-1,0E0,0E0,0E0,0E0,0E0,0E0,0E0,0E0,0E0,0E0,0E0,0E0,0E0,0E0],"parents":[2147483647,0,0,1,1,2,2,5,5,6,6,7,7,8,8,9,9,10,10,11,11,12,12,13,13,15,15,16,16,17,17,18,18],"right_children":[2,4,6,-1,-1,8,10,12,14,16,18,20,22,24,-1,26,28,30,32,-1,-1,-1,-1,-1,-1,-1,-1,-1,-1,-1,-1,-1,-1],"split_conditions":[1E0,1E0,1E0,1.5600689E-2,6.5469295E-3,1E0,1E2,1E0,1E2,1E0,1E0,1E0,1E0,1E0,-3.230245E-2,1E0,1E0,1E0,1E0,-3.5496783E-2,4.7706763E-4,-1.7074887E-2,1.1621053E-2,2.4274227E-3,-2.8585339E-2,-2.347501E-3,1.8233556E-2,3.583723E-2,6.122291E-3,-7.544196E-4,-2.7672334E-2,-2.7715524E-3,1.996851E-2],"split_indices":[469,440,37,0,0,617,699,612,698,342,166,340,47,340,0,2,32,543,211,0,0,0,0,0,0,0,0,0,0,0,0,0,0],"split_type":[0,0,0,0,0,0,0,0,0,0,0,0,0,0,0,0,0,0,0,0,0,0,0,0,0,0,0,0,0,0,0,0,0],"sum_hessian":[3.61E2,1.72E2,1.89E2,1.64E2,8E0,1.17E2,7.2E1,8E1,3.7E1,4.7E1,2.5E1,6.2E1,1.8E1,2.9E1,8E0,4.4E1,3E0,1.9E1,6E0,6E1,2E0,1.2E1,6E0,2.7E1,2E0,3.9E1,5E0,2E0,1E0,4E0,1.5E1,5E0,1E0],"tree_param":{"num_deleted":"0","num_feature":"705","num_nodes":"33","size_leaf_vector":"1"}},{"base_weights":[-1.2267271E-2,-6.374512E-1,1.5105316E-1,-5.3380364E-1,-7.960683E-1,-7.547407E-2,3.3190185E-1,-4.1081324E-1,-7.063773E-1,-1.0458939E0,-4.7153595E-1,-1.2118807E-1,2.3551829E-1,1.6216962E-2,3.8736988E-2,-5.301276E-1,1.7468451E-1,-9.10279E-1,-4.7533253E-1,-5.7335027E-2,-1.3021718E-2,2.6005486E-3,-5.63128E-1,1.9289699E-1,-1.744356E-1,-3.507614E-2,2.9600826E-1,-2.9579816E-2,-2.207528E-3,1.232786E-2,1.0313034E-3,-1.0767505E-2,-4.851132E-2,-2.9483026E-2,1.3047834E-3,-3.226147E-2,8.499659E-3,-2.2051118E-2,2.4689097E-2,-5.205579E-3,-3.348742E-2,-6.3279234E-3,5.9842705E-3,3.8573027E-3,1.8791927E-2],"categories":[],"categories_nodes":[],"categories_segments":[],"categories_sizes":[],"default_left":[0,0,0,0,0,0,0,0,0,0,0,0,0,0,0,0,0,0,0,0,0,0,0,0,0,0,0,0,0,0,0,0,0,0,0,0,0,0,0,0,0,0,0,0,0],"id":38,"left_children":[1,3,5,7,9,11,13,15,17,19,21,23,25,-1,-1,27,29,31,33,-1,-1,-1,35,37,39,41,43,-1,-1,-1,-1,-1,-1,-1,-1,-1,-1,-1,-1,-1,-1,-1,-1,-1,-1],"loss_changes":[3.7466835E1,8.245144E-1,1.1946492E1,7.498312E-1,1.7769661E0,1.8767135E0,2.9125977E-1,2.2582116E0,4.6241188E-1,8.8905144E-1,7.006273E-1,1.9402131E0,2.8864288E-1,0E0,0E0,7.5056267E-1,6.1350062E-2,1.6599464E-1,6.45988E-1,0E0,0E0,0E0,8.319669E-1,3.4602942E0,3.3438451E0,7.177899E-2,2.1561122E-1,0E0,0E0,0E0,0E0,0E0,0E0,0E0,0E0,0E0,0E0,0E0,0E0,0E0,0E0,0E0,0E0,0E0,0E0],"parents":[2147483647,0,0,1,1,2,2,3,3,4,4,5,5,6,6,7,7,8,8,9,9,10,10,11,11,12,12,15,15,16,16,17,17,18,18,22,22,23,23,24,24,25,25,26,26],"right_children":[2,4,6,8,10,12,14,16,18,20,22,24,26,-1,-1,28,30,32,34,-1,-1,-1,36,38,40,42,44,-1,-1,-1,-1,-1,-1,-1,-1,-1,-1,-1,-1,-1,-1,-1,-1,-1,-1],"split_conditions":[1E0,1E0,2.00001E0,1E2,1E0,1E0,1E0,1E0,1E2,1E2,1E0,1E0,1E0,1.6216962E-2,3.8736988E-2,1E0,1E0,1E0,1E0,-5.7335027E-2,-1.3021718E-2,2.6005486E-3,1E0,1E0,1E2,1E0,1E0,-2.9579816E-2,-2.207528E-3,1.232786E-2,1.0313034E-3,-1.0767505E-2,-4.851132E-2,-2.9483026E-2,1.3047834E-3,-3.226147E-2,8.499659E-3,-2.2051118E-2,2.4689097E-2,-5.205579E-3,-3.348742E-2,-6.3279234E-3,5.9842705E-3,3.8573027E-3,1.8791927E-2],"split_indices":[704,74,704,699,329,47,29,47,700,699,153,381,376,0,0,184,29,371,660,0,0,0,12,371,698,294,618,0,0,0,0,0,0,0,0,0,0,0,0,0,0,0,0,0,0],"split_type":[0,0,0,0,0,0,0,0,0,0,0,0,0,0,0,0,0,0,0,0,0,0,0,0,0,0,0,0,0,0,0,0,0,0,0,0,0,0,0,0,0,0,0,0,0],"sum_hessian":[3.65E2,7.5E1,2.9E2,4.8E1,2.7E1,1.29E2,1.61E2,3E1,1.8E1,1.4E1,1.3E1,1.13E2,1.6E1,1.6E2,1E0,2.5E1,5E0,8E0,1E1,1.2E1,2E0,2E0,1.1E1,1.6E1,9.7E1,3E0,1.3E1,2.2E1,3E0,3E0,2E0,1E0,7E0,8E0,2E0,1E1,1E0,5E0,1.1E1,8.6E1,1.1E1,2E0,1E0,4E0,9E0],"tree_param":{"num_deleted":"0","num_feature":"705","num_nodes":"45","size_leaf_vector":"1"}},{"base_weights":[-1.2183342E-2,-2.4496135E-1,3.1252193E-1,-5.434632E-1,-9.283299E-2,3.1994486E-1,-1.6416729E-3,-6.108251E-1,-8.4945224E-2,-7.3679976E-2,-7.112505E-1,1.6735781E-2,1.2491464E-2,-6.8856287E-1,-2.4249385E-1,-1.9320197E-2,9.945194E-2,-1.1455942E-1,2.5826752E-1,-1.0366601E-2,-4.0505633E-2,-3.8331967E-2,-9.629552E-3,-1.967303E-2,3.5453506E-2,1.7560711E-2,-1.7665125E-2,-1.4243805E-3,-1.4977182E-2,-1.2933987E-3,2.252827E-2],"categories":[],"categories_nodes":[],"categories_segments":[],"categories_sizes":[],"default_left":[0,0,0,0,0,0,0,0,0,0,0,0,0,0,0,0,0,0,0,0,0,0,0,0,0,0,0,0,0,0,0],"id":39,"left_children":[1,3,5,7,9,11,-1,13,15,17,19,-1,-1,21,23,-1,25,27,29,-1,-1,-1,-1,-1,-1,-1,-1,-1,-1,-1,-1],"loss_changes":[2.6606628E1,9.258719E0,3.873453E-1,2.0792942E0,1.5702991E0,6.551266E-2,0E0,1.5510197E0,5.943099E-1,1.8479438E0,3.1311512E-2,0E0,0E0,1.7498169E0,2.0028448E0,0E0,9.2199033E-1,1.9020977E0,8.3123493E-1,0E0,0E0,0E0,0E0,0E0,0E0,0E0,0E0,0E0,0E0,0E0,0E0],"parents":[2147483647,0,0,1,1,2,2,3,3,4,4,5,5,7,7,8,8,9,9,10,10,13,13,14,14,16,16,17,17,18,18],"right_children":[2,4,6,8,10,12,-1,14,16,18,20,-1,-1,22,24,-1,26,28,30,-1,-1,-1,-1,-1,-1,-1,-1,-1,-1,-1,-1],"split_conditions":[2.00001E0,1E0,2.00001E0,1E2,1E0,1E0,-1.6416729E-3,1E0,1E0,1E0,1E0,1.6735781E-2,1.2491464E-2,1E0,1E0,-1.9320197E-2,1E0,1E0,1E0,-1.0366601E-2,-4.0505633E-2,-3.8331967E-2,-9.629552E-3,-1.967303E-2,3.5453506E-2,1.7560711E-2,-1.7665125E-2,-1.4243805E-3,-1.4977182E-2,-1.2933987E-3,2.252827E-2],"split_indices":[703,704,702,698,127,702,0,249,65,2,2,0,0,47,81,0,181,181,489,0,0,0,0,0,0,0,0,0,0,0,0],"split_type":[0,0,0,0,0,0,0,0,0,0,0,0,0,0,0,0,0,0,0,0,0,0,0,0,0,0,0,0,0,0,0],"sum_hessian":[3.5E2,2.04E2,1.46E2,6.8E1,1.36E2,1.43E2,3E0,5.9E1,9E0,1.33E2,3E0,1.15E2,2.8E1,4.8E1,1.1E1,3E0,6E0,1.19E2,1.4E1,1E0,2E0,4.1E1,7E0,1E1,1E0,4E0,2E0,8.2E1,3.7E1,6E0,8E0],"tree_param":{"num_deleted":"0","num_feature":"705","num_nodes":"31","size_leaf_vector":"1"}},{"base_weights":[1.214875E-2,2.705418E-1,-2.3788445E-1,1.4311572E-2,1.0511459E-1,-3.4416255E-1,5.382415E-2,-1.6461825E-2,1.2197289E-2,-5.7248455E-1,-8.946988E-2,-1.3751595E-1,2.8441975E-1,-4.788122E-3,1.7431093E-2,-4.6278626E-1,-7.957769E-1,-1.2760552E-2,-5.653545E-1,-2.844561E-1,1.3269573E-2,4.063072E-1,-2.3563652E-1,-2.0123223E-2,-4.625948E-2,-4.794539E-2,-1.5461181E-2,-2.91474E-2,1.485593E-3,-3.4424778E-2,1.0494339E-2,-2.0106537E-2,1.5809685E-2,2.2345297E-2,-8.111752E-3,-3.548497E-3,-2.2357572E-2],"categories":[],"categories_nodes":[],"categories_segments":[],"categories_sizes":[],"default_left":[0,1,0,0,0,0,0,0,0,0,0,0,0,0,0,0,0,0,0,0,0,0,0,0,0,0,0,0,0,0,0,0,0,0,0,0,0],"id":40,"left_children":[1,3,5,-1,7,9,11,13,-1,15,17,19,21,-1,-1,23,25,27,29,31,-1,33,35,-1,-1,-1,-1,-1,-1,-1,-1,-1,-1,-1,-1,-1,-1],"loss_changes":[2.3387428E1,4.3191147E-1,5.7229366E0,0E0,2.9095197E-1,7.7992907E0,2.2452216E0,3.2289845E-1,0E0,1.3708553E0,2.3655972E0,1.7331841E0,1.5536726E0,0E0,0E0,1.022294E0,1.4496651E0,1.3977029E0,1.0036824E0,1.6114571E0,0E0,5.1106334E-1,1.4241287E-1,0E0,0E0,0E0,0E0,0E0,0E0,0E0,0E0,0E0,0E0,0E0,0E0,0E0,0E0],"parents":[2147483647,0,0,1,1,2,2,4,4,5,5,6,6,7,7,9,9,10,10,11,11,12,12,15,15,16,16,17,17,18,18,19,19,21,21,22,22],"right_children":[2,4,6,-1,8,10,12,14,-1,16,18,20,22,-1,-1,24,26,28,30,32,-1,34,36,-1,-1,-1,-1,-1,-1,-1,-1,-1,-1,-1,-1,-1,-1],"split_conditions":[1E0,1E0,1E0,1.4311572E-2,1E0,1E0,1E0,1E0,1.2197289E-2,1E0,1E2,1E0,1E0,-4.788122E-3,1.7431093E-2,1E0,1E0,1E0,1E0,1E0,1.3269573E-2,1E0,1E0,-2.0123223E-2,-4.625948E-2,-4.794539E-2,-1.5461181E-2,-2.91474E-2,1.485593E-3,-3.4424778E-2,1.0494339E-2,-2.0106537E-2,1.5809685E-2,2.2345297E-2,-8.111752E-3,-3.548497E-3,-2.2357572E-2],"split_indices":[469,703,618,0,440,617,29,69,0,74,698,294,166,0,0,81,4,268,157,582,0,184,192,0,0,0,0,0,0,0,0,0,0,0,0,0,0],"split_type":[0,0,0,0,0,0,0,0,0,0,0,0,0,0,0,0,0,0,0,0,0,0,0,0,0,0,0,0,0,0,0,0,0,0,0,0,0],"sum_hessian":[3.6E2,1.77E2,1.83E2,1.61E2,1.6E1,1.34E2,4.9E1,9E0,7E0,7E1,6.4E1,2.7E1,2.2E1,8E0,1E0,4.9E1,2.1E1,5.6E1,8E0,2E1,7E0,1.8E1,4E0,4.5E1,4E0,1.5E1,6E0,3E0,5.3E1,7E0,1E0,1.7E1,3E0,1.7E1,1E0,3E0,1E0],"tree_param":{"num_deleted":"0","num_feature":"705","num_nodes":"37","size_leaf_vector":"1"}},{"base_weights":[-1.5492266E-2,-2.4020675E-1,2.7549085E-1,-5.128251E-1,-9.227948E-2,1.3399749E-2,3.724555E-2,-5.4026395E-1,1.0242075E-1,-1.3859147E-1,1.8789081E-1,-4.5005015E-1,-7.336277E-1,8.696809E-3,2.0603538E-2,-2.5640127E-1,-1.47682E-3,9.6435785E-2,3.4395933E-1,-2.3889786E-2,7.6571847E-3,-3.8955282E-2,4.3982565E-3,-2.815485E-4,1.8268138E-3,1.8969644E-3,-2.0051567E-2,3.287776E-3,-1.5866056E-2,1.27786845E-2,-2.7432174E-3,1.8349743E-2,5.1436545E-3],"categories":[],"categories_nodes":[],"categories_segments":[],"categories_sizes":[],"default_left":[0,0,0,0,0,0,0,0,0,0,0,0,0,0,0,0,0,0,0,0,0,0,0,0,0,0,0,0,0,0,0,0,0],"id":41,"left_children":[1,3,5,7,9,-1,-1,11,13,15,17,19,21,-1,23,25,27,29,31,-1,-1,-1,-1,-1,-1,-1,-1,-1,-1,-1,-1,-1,-1],"loss_changes":[2.4455944E1,8.461818E0,3.7391853E-1,1.304575E0,1.8166233E0,0E0,0E0,9.083595E-1,1.9821074E-2,1.9218824E0,2.5229502E-1,9.2670536E-1,8.531847E-1,0E0,1.4596973E-3,2.739726E0,1.2100226E0,3.5110807E-1,1.1209846E-3,0E0,0E0,0E0,0E0,0E0,0E0,0E0,0E0,0E0,0E0,0E0,0E0,0E0,0E0],"parents":[2147483647,0,0,1,1,2,2,3,3,4,4,7,7,8,8,9,9,10,10,11,11,12,12,14,14,15,15,16,16,17,17,18,18],"right_children":[2,4,6,8,10,-1,-1,12,14,16,18,20,22,-1,24,26,28,30,32,-1,-1,-1,-1,-1,-1,-1,-1,-1,-1,-1,-1,-1,-1],"split_conditions":[2.00001E0,1E0,1E0,1E0,1E0,1.3399749E-2,3.724555E-2,1E2,1E0,1E0,1E0,1E0,1E0,8.696809E-3,1E0,1E0,1E0,1E2,1E0,-2.3889786E-2,7.6571847E-3,-3.8955282E-2,4.3982565E-3,-2.815485E-4,1.8268138E-3,1.8969644E-3,-2.0051567E-2,3.287776E-3,-1.5866056E-2,1.27786845E-2,-2.7432174E-3,1.8349743E-2,5.1436545E-3],"split_indices":[704,704,13,2,47,0,0,701,29,514,582,331,247,0,4,489,404,701,289,0,0,0,0,0,0,0,0,0,0,0,0,0,0],"split_type":[0,0,0,0,0,0,0,0,0,0,0,0,0,0,0,0,0,0,0,0,0,0,0,0,0,0,0,0,0,0,0,0,0],"sum_hessian":[3.72E2,2.1E2,1.62E2,7.3E1,1.37E2,1.61E2,1E0,7E1,3E0,1.18E2,1.9E1,5E1,2E1,1E0,2E0,6.3E1,5.5E1,1.3E1,6E0,4.8E1,2E0,1.9E1,1E0,1E0,1E0,2.1E1,4.2E1,4.6E1,9E0,6E0,7E0,5E0,1E0],"tree_param":{"num_deleted":"0","num_feature":"705","num_nodes":"33","size_leaf_vector":"1"}},{"base_weights":[-1.1213064E-2,-5.135135E-1,1.16471246E-1,-5.7394344E-1,-2.835518E-1,-6.931507E-2,2.7860203E-1,-6.011881E-1,-1.5401423E-1,-3.8288373E-1,3.512727E-2,-4.9384367E-2,-3.0276967E-2,2.9200393E-1,-2.993468E-3,-6.368033E-1,2.1010488E-2,8.949636E-3,-2.1784155E-2,-7.872671E-1,-9.0741225E-2,-6.422444E-2,4.6381402E-1,1.4225818E-2,3.6314406E-2,-3.2639362E-2,4.8589557E-3,-4.186943E-3,4.1919947E-3,-4.423167E-2,-5.0767274E-3,2.96897E-3,-3.979869E-2,-5.082988E-3,8.483929E-3,6.5950872E-3,2.652421E-2],"categories":[],"categories_nodes":[],"categories_segments":[],"categories_sizes":[],"default_left":[0,0,0,0,0,0,0,0,0,0,0,0,0,0,0,0,0,0,0,0,0,0,0,0,0,0,0,0,0,0,0,0,0,0,0,0,0],"id":42,"left_children":[1,3,5,7,9,11,13,15,17,19,-1,21,-1,23,-1,25,27,-1,-1,29,31,33,35,-1,-1,-1,-1,-1,-1,-1,-1,-1,-1,-1,-1,-1,-1],"loss_changes":[2.436731E1,9.072952E-1,9.14618E0,5.938606E-1,2.03211E0,1.4876958E0,7.523403E-1,1.254322E0,5.469725E-1,1.9369016E0,0E0,1.0807823E0,0E0,3.0062866E-1,0E0,6.8523026E-1,3.3346016E-2,0E0,0E0,3.7754965E-1,1.2118338E0,1.199341E0,1.8542767E-2,0E0,0E0,0E0,0E0,0E0,0E0,0E0,0E0,0E0,0E0,0E0,0E0,0E0,0E0],"parents":[2147483647,0,0,1,1,2,2,3,3,4,4,5,5,6,6,7,7,8,8,9,9,11,11,13,13,15,15,16,16,19,19,20,20,21,21,22,22],"right_children":[2,4,6,8,10,12,14,16,18,20,-1,22,-1,24,-1,26,28,-1,-1,30,32,34,36,-1,-1,-1,-1,-1,-1,-1,-1,-1,-1,-1,-1,-1,-1],"split_conditions":[1E0,1E0,2.00001E0,1E0,1E0,1E0,2.00001E0,1E0,1E0,1E0,3.512727E-2,1E0,-3.0276967E-2,1E0,-2.993468E-3,1E0,1E0,8.949636E-3,-2.1784155E-2,1E0,1E0,1E0,1E0,1.4225818E-2,3.6314406E-2,-3.2639362E-2,4.8589557E-3,-4.186943E-3,4.1919947E-3,-4.423167E-2,-5.0767274E-3,2.96897E-3,-3.979869E-2,-5.082988E-3,8.483929E-3,6.5950872E-3,2.652421E-2],"split_indices":[704,353,704,567,81,340,702,391,181,660,0,14,0,29,0,132,340,0,0,178,56,47,12,0,0,0,0,0,0,0,0,0,0,0,0,0,0],"split_type":[0,0,0,0,0,0,0,0,0,0,0,0,0,0,0,0,0,0,0,0,0,0,0,0,0,0,0,0,0,0,0,0,0,0,0,0,0],"sum_hessian":[3.78E2,7.6E1,3.02E2,5.9E1,1.7E1,1.41E2,1.61E2,5.5E1,4E0,1.6E1,1E0,1.37E2,4E0,1.55E2,6E0,5.2E1,3E0,2E0,2E0,6E0,1E1,1.34E2,3E0,1.54E2,1E0,5.1E1,1E0,1E0,2E0,5E0,1E0,9E0,1E0,1.16E2,1.8E1,1E0,2E0],"tree_param":{"num_deleted":"0","num_feature":"705","num_nodes":"37","size_leaf_vector":"1"}},{"base_weights":[4.744918E-3,-4.800697E-1,1.2048008E-1,-9.956523E-2,-5.283397E-1,2.288436E-1,-5.7937298E-2,-5.2959156E-1,2.0371322E-1,-4.1780484E-1,-6.813391E-1,2.4305108E-1,9.684622E-3,3.726625E-2,-2.1906683E-1,-3.1176714E-2,-6.194091E-3,1.9286126E-2,1.627794E-2,-3.4299383E-1,-4.214793E-2,-7.278122E-1,9.688541E-3,2.1571843E-1,4.90937E-1,2.6009798E-1,-1.0268627E-1,7.5417794E-2,-4.1996207E-2,-5.0806266E-1,-1.3786984E-2,-4.8166066E-3,4.296267E-3,-9.577081E-3,-3.211269E-2,-4.4420045E-3,-3.922181E-2,-2.7498579E-2,1.1990166E-2,2.688227E-2,-5.242217E-3,2.144928E-2,-6.164122E-3,-7.540299E-3,7.056785E-3,1.871525E-2,5.5855303E-4,-2.8348375E-2,1.0860348E-2,-2.0435603E-2,4.0449663E-3],"categories":[],"categories_nodes":[],"categories_segments":[],"categories_sizes":[],"default_left":[0,0,0,0,0,0,0,0,0,0,0,0,0,0,0,0,0,0,0,0,0,0,0,0,0,0,0,0,0,0,0,0,0,0,0,0,0,0,0,0,0,0,0,0,0,0,0,0,0,0,0],"id":43,"left_children":[1,3,5,7,9,11,13,15,17,19,21,23,25,27,29,-1,-1,-1,31,33,-1,35,-1,37,39,41,43,45,-1,47,49,-1,-1,-1,-1,-1,-1,-1,-1,-1,-1,-1,-1,-1,-1,-1,-1,-1,-1,-1,-1],"loss_changes":[2.0089144E1,1.2147179E0,5.600766E0,1.2816443E0,7.4695015E-1,5.581112E-1,1.6955755E0,7.520926E-2,1.98411E-1,9.195056E-1,1.1170855E0,1.039135E0,3.6437857E-1,2.405977E0,2.4253213E0,0E0,0E0,0E0,3.9649367E-2,1.4179835E0,0E0,7.624779E-1,0E0,2.9718833E0,5.016165E-1,3.1187922E-1,1.2687787E-1,1.3015904E0,0E0,8.4942055E-1,9.6791434E-1,0E0,0E0,0E0,0E0,0E0,0E0,0E0,0E0,0E0,0E0,0E0,0E0,0E0,0E0,0E0,0E0,0E0,0E0,0E0,0E0],"parents":[2147483647,0,0,1,1,2,2,3,3,4,4,5,5,6,6,7,7,8,8,9,9,10,10,11,11,12,12,13,13,14,14,18,18,19,19,21,21,23,23,24,24,25,25,26,26,27,27,29,29,30,30],"right_children":[2,4,6,8,10,12,14,16,18,20,22,24,26,28,30,-1,-1,-1,32,34,-1,36,-1,38,40,42,44,46,-1,48,50,-1,-1,-1,-1,-1,-1,-1,-1,-1,-1,-1,-1,-1,-1,-1,-1,-1,-1,-1,-1],"split_conditions":[1E0,1E0,1E0,1E0,1E0,1E0,1E2,1E0,1E0,1E0,1E0,1E0,1E0,1E0,1E0,-3.1176714E-2,-6.194091E-3,1.9286126E-2,1E0,1E2,-4.214793E-2,1E0,9.688541E-3,2.00001E0,1E0,1E0,1E0,1E0,-4.1996207E-2,1E0,1E0,-4.8166066E-3,4.296267E-3,-9.577081E-3,-3.211269E-2,-4.4420045E-3,-3.922181E-2,-2.7498579E-2,1.1990166E-2,2.688227E-2,-5.242217E-3,2.144928E-2,-6.164122E-3,-7.540299E-3,7.056785E-3,1.871525E-2,5.5855303E-4,-2.8348375E-2,1.0860348E-2,-2.0435603E-2,4.0449663E-3],"split_indices":[704,153,543,543,74,418,701,42,181,81,12,371,376,16,612,0,0,0,13,699,0,151,0,703,4,47,273,418,0,157,703,0,0,0,0,0,0,0,0,0,0,0,0,0,0,0,0,0,0,0,0],"split_type":[0,0,0,0,0,0,0,0,0,0,0,0,0,0,0,0,0,0,0,0,0,0,0,0,0,0,0,0,0,0,0,0,0,0,0,0,0,0,0,0,0,0,0,0,0,0,0,0,0,0,0],"sum_hessian":[3.56E2,6.8E1,2.88E2,8E0,6E1,1.79E2,1.09E2,3E0,5E0,3.7E1,2.3E1,1.68E2,1.1E1,6.9E1,4E1,2E0,1E0,2E0,3E0,3.3E1,4E0,2.2E1,1E0,1.53E2,1.5E1,3E0,8E0,6.7E1,2E0,1.6E1,2.4E1,1E0,2E0,2.3E1,1E1,2E0,2E1,4E0,1.49E2,1.4E1,1E0,2E0,1E0,7E0,1E0,1.1E1,5.6E1,1.5E1,1E0,4E0,2E1],"tree_param":{"num_deleted":"0","num_feature":"705","num_nodes":"51","size_leaf_vector":"1"}},{"base_weights":[1.0806909E-2,2.0131221E-1,-2.0285544E-1,2.0633332E-1,-1.806436E-2,-3.0785248E-1,-6.9577284E-2,2.1594605E-1,-3.3790318E-3,-4.154857E-1,-3.3347074E-2,-3.732706E-2,-4.1019518E-2,2.3120499E-1,2.0683901E-2,-2.7061328E-1,-7.130403E-1,-2.5330323E-1,2.2301365E-1,-1.4679636E-1,1.0409695E-1,1.1085394E-2,3.35073E-2,-7.0133186E-3,6.2842937E-3,-1.7772363E-2,3.5166913E-3,-2.421916E-2,-5.1203012E-2,-1.9014014E-2,9.547687E-3,1.589198E-2,-2.2872437E-2,-2.094031E-3,-2.1456143E-2,1.3741793E-2,-3.136092E-3],"categories":[],"categories_nodes":[],"categories_segments":[],"categories_sizes":[],"default_left":[0,0,0,0,0,0,0,0,0,0,0,0,0,0,0,0,0,0,0,0,0,0,0,0,0,0,0,0,0,0,0,0,0,0,0,0,0],"id":44,"left_children":[1,3,5,7,-1,9,11,13,-1,15,17,19,-1,21,23,25,27,29,31,33,35,-1,-1,-1,-1,-1,-1,-1,-1,-1,-1,-1,-1,-1,-1,-1,-1],"loss_changes":[1.4246468E1,5.9714794E-1,2.2875595E0,4.9907684E-1,0E0,2.7043686E0,1.7612052E0,5.2556705E-1,0E0,2.652133E0,1.5789694E0,1.1299553E0,0E0,5.3925323E-1,2.542309E-1,1.3554997E0,9.9741745E-1,9.187725E-1,9.842264E-1,1.1964681E0,9.2867684E-1,0E0,0E0,0E0,0E0,0E0,0E0,0E0,0E0,0E0,0E0,0E0,0E0,0E0,0E0,0E0,0E0],"parents":[2147483647,0,0,1,1,2,2,3,3,5,5,6,6,7,7,9,9,10,10,11,11,13,13,14,14,15,15,16,16,17,17,18,18,19,19,20,20],"right_children":[2,4,6,8,-1,10,12,14,-1,16,18,20,-1,22,24,26,28,30,32,34,36,-1,-1,-1,-1,-1,-1,-1,-1,-1,-1,-1,-1,-1,-1,-1,-1],"split_conditions":[1E0,1E0,1E0,2.00001E0,-1.806436E-2,1E0,1E0,1E0,-3.3790318E-3,1E0,1E0,1E0,-4.1019518E-2,1E0,1E0,1E0,1E0,1E0,1E0,1E2,1E0,1.1085394E-2,3.35073E-2,-7.0133186E-3,6.2842937E-3,-1.7772363E-2,3.5166913E-3,-2.421916E-2,-5.1203012E-2,-1.9014014E-2,9.547687E-3,1.589198E-2,-2.2872437E-2,-2.094031E-3,-2.1456143E-2,1.3741793E-2,-3.136092E-3],"split_indices":[543,693,604,702,0,617,577,418,0,74,129,626,0,353,129,342,181,603,314,701,129,0,0,0,0,0,0,0,0,0,0,0,0,0,0,0,0],"split_type":[0,0,0,0,0,0,0,0,0,0,0,0,0,0,0,0,0,0,0,0,0,0,0,0,0,0,0,0,0,0,0,0,0,0,0,0,0],"sum_hessian":[3.48E2,1.84E2,1.64E2,1.83E2,1E0,9.1E1,7.3E1,1.77E2,6E0,6.5E1,2.6E1,7.1E1,2E0,1.64E2,1.3E1,4.5E1,2E1,1.4E1,1.2E1,4E1,3.1E1,1.62E2,2E0,5E0,8E0,3.6E1,9E0,1.3E1,7E0,1.1E1,3E0,1.1E1,1E0,3E1,1E1,1.5E1,1.6E1],"tree_param":{"num_deleted":"0","num_feature":"705","num_nodes":"37","size_leaf_vector":"1"}},{"base_weights":[-7.1661845E-3,2.0388086E-1,-1.9276167E-1,2.1244976E-1,-3.1443834E-3,-4.1091782E-1,-6.8814225E-2,7.738521E-2,2.286827E-1,-4.663239E-1,-1.0887847E-1,-1.6420808E-1,5.2112874E-2,-2.6842061E-2,2.7696833E-1,1.2043602E-2,8.457307E-3,-7.169945E-2,-5.104787E-1,-2.4734066E-1,3.535514E-2,-6.8144983E-1,-9.48187E-2,-9.93127E-3,3.7033087E-1,-6.2376796E-3,1.7418407E-2,-1.656036E-2,1.9235665E-2,-2.6647491E-2,1.7099858E-3,8.146842E-3,-3.861305E-2,-1.3351202E-2,-8.956076E-2,6.1259454E-4,-1.8948076E-2,-1.4493192E-2,8.690764E-3,1.235691E-2,3.3896804E-2],"categories":[],"categories_nodes":[],"categories_segments":[],"categories_sizes":[],"default_left":[0,0,0,0,0,0,0,0,0,0,0,0,0,0,0,0,0,0,0,0,0,0,0,0,0,0,0,0,0,0,0,0,0,0,0,0,0,0,0,0,0],"id":45,"left_children":[1,3,5,7,-1,9,11,13,15,17,19,21,23,-1,25,-1,-1,27,29,31,-1,33,35,37,39,-1,-1,-1,-1,-1,-1,-1,-1,-1,-1,-1,-1,-1,-1,-1,-1],"loss_changes":[1.4061938E1,3.973937E-1,5.1363425E0,3.396802E-1,0E0,1.1039295E0,1.4274487E0,2.477883E0,6.448555E-2,9.7402287E-1,1.5306858E0,2.4118705E0,1.0895737E0,0E0,4.7370315E-1,0E0,0E0,9.565183E-1,6.546831E-1,2.494823E0,0E0,3.2010257E0,1.89089E0,2.467905E0,1.735084E-1,0E0,0E0,0E0,0E0,0E0,0E0,0E0,0E0,0E0,0E0,0E0,0E0,0E0,0E0,0E0,0E0],"parents":[2147483647,0,0,1,1,2,2,3,3,5,5,6,6,7,7,8,8,9,9,10,10,11,11,12,12,14,14,17,17,18,18,19,19,21,21,22,22,23,23,24,24],"right_children":[2,4,6,8,-1,10,12,14,16,18,20,22,24,-1,26,-1,-1,28,30,32,-1,34,36,38,40,-1,-1,-1,-1,-1,-1,-1,-1,-1,-1,-1,-1,-1,-1,-1,-1],"split_conditions":[1E0,2.00001E0,1E0,2.00001E0,-3.1443834E-3,1E0,1E0,1E0,1E0,1E0,1E0,1E0,1E0,-2.6842061E-2,1E0,1.2043602E-2,8.457307E-3,1E2,1E0,1E0,3.535514E-2,1E0,1E2,1E0,1E0,-6.2376796E-3,1.7418407E-2,-1.656036E-2,1.9235665E-2,-2.6647491E-2,1.7099858E-3,8.146842E-3,-3.861305E-2,-1.3351202E-2,-8.956076E-2,6.1259454E-4,-1.8948076E-2,-1.4493192E-2,8.690764E-3,1.235691E-2,3.3896804E-2],"split_indices":[469,702,704,703,0,249,612,371,702,153,702,617,428,0,704,0,0,698,32,29,0,13,701,604,29,0,0,0,0,0,0,0,0,0,0,0,0,0,0,0,0],"split_type":[0,0,0,0,0,0,0,0,0,0,0,0,0,0,0,0,0,0,0,0,0,0,0,0,0,0,0,0,0,0,0,0,0,0,0,0,0,0,0,0,0],"sum_hessian":[3.57E2,1.67E2,1.9E2,1.62E2,5E0,6.8E1,1.22E2,1.8E1,1.44E2,5.7E1,1.1E1,6.8E1,5.4E1,4E0,1.4E1,1.17E2,2.7E1,6E0,5.1E1,1E1,1E0,7E0,6.1E1,4.6E1,8E0,2E0,1.2E1,4E0,2E0,4.9E1,2E0,6E0,4E0,6E0,1E0,4.5E1,1.6E1,1.8E1,2.8E1,7E0,1E0],"tree_param":{"num_deleted":"0","num_feature":"705","num_nodes":"41","size_leaf_vector":"1"}},{"base_weights":[4.468062E-3,1.5243508E-1,-2.3333044E-1,1.7489766E-1,-2.4115445E-1,-1.8494412E-1,-5.8677197E-1,1.8312913E-1,-2.4214972E-2,-3.8574997E-2,-7.459164E-2,-3.288089E-1,-7.3574245E-2,-6.7910707E-1,7.049426E-2,1.8761188E-1,-1.985274E-2,-1.7204662E-1,2.2498954E-2,-4.13003E-1,-7.114478E-2,-1.13201596E-1,2.675016E-1,-3.459636E-1,-7.687989E-1,1.0825723E-2,-5.5386545E-3,9.768043E-3,-9.0783145E-3,-1.6473873E-2,-4.575211E-3,-2.466116E-2,-5.2072556E-4,-8.735794E-3,3.4471262E-2,-1.0385948E-2,4.4785584E-3,-4.950921E-3,2.03089E-2,-2.4366332E-2,-4.463968E-3,-4.2880848E-2,-1.2303917E-2],"categories":[],"categories_nodes":[],"categories_segments":[],"categories_sizes":[],"default_left":[0,0,0,0,0,0,0,0,0,0,0,0,0,0,0,0,0,0,0,0,0,0,0,0,0,0,0,0,0,0,0,0,0,0,0,0,0,0,0,0,0,0,0],"id":46,"left_children":[1,3,5,7,9,11,13,15,-1,-1,17,19,21,23,25,27,-1,29,-1,31,33,35,37,39,41,-1,-1,-1,-1,-1,-1,-1,-1,-1,-1,-1,-1,-1,-1,-1,-1,-1,-1],"loss_changes":[1.33008175E1,2.1021385E0,2.3712325E0,1.2878718E0,1.0908184E0,2.0426717E0,1.0795813E0,6.440711E-1,0E0,0E0,6.397596E-1,1.1854706E0,1.0304606E0,1.8222713E-1,1.0339007E-1,6.591134E-1,0E0,9.6650034E-2,0E0,1.3512831E0,1.3020495E0,1.3026975E0,4.4684052E-1,1.3792008E-1,2.9965687E-1,0E0,0E0,0E0,0E0,0E0,0E0,0E0,0E0,0E0,0E0,0E0,0E0,0E0,0E0,0E0,0E0,0E0,0E0],"parents":[2147483647,0,0,1,1,2,2,3,3,4,4,5,5,6,6,7,7,10,10,11,11,12,12,13,13,14,14,15,15,17,17,19,19,20,20,21,21,22,22,23,23,24,24],"right_children":[2,4,6,8,10,12,14,16,-1,-1,18,20,22,24,26,28,-1,30,-1,32,34,36,38,40,42,-1,-1,-1,-1,-1,-1,-1,-1,-1,-1,-1,-1,-1,-1,-1,-1,-1,-1],"split_conditions":[1E0,1E0,1E2,1E0,1E0,1E0,1E0,1E0,-2.4214972E-2,-3.8574997E-2,1E0,1E0,1E0,1E2,1E0,1E0,-1.985274E-2,1E0,2.2498954E-2,1E0,1E0,1E0,1E0,1E2,1E0,1.0825723E-2,-5.5386545E-3,9.768043E-3,-9.0783145E-3,-1.6473873E-2,-4.575211E-3,-2.466116E-2,-5.2072556E-4,-8.735794E-3,3.4471262E-2,-1.0385948E-2,4.4785584E-3,-4.950921E-3,2.03089E-2,-2.4366332E-2,-4.463968E-3,-4.2880848E-2,-1.2303917E-2],"split_indices":[153,404,698,314,233,704,241,192,0,0,22,353,73,699,2,16,0,29,0,47,81,612,703,700,32,0,0,0,0,0,0,0,0,0,0,0,0,0,0,0,0,0,0],"split_type":[0,0,0,0,0,0,0,0,0,0,0,0,0,0,0,0,0,0,0,0,0,0,0,0,0,0,0,0,0,0,0,0,0,0,0,0,0,0,0,0,0,0,0],"sum_hessian":[3.76E2,2.32E2,1.44E2,2.2E2,1.2E1,1.28E2,1.6E1,2.18E2,2E0,2E0,1E1,5.5E1,7.3E1,1.4E1,2E0,2.17E2,1E0,9E0,1E0,4.1E1,1.4E1,6.6E1,7E0,4E0,1E1,1E0,1E0,2.13E2,4E0,2E0,7E0,3.4E1,7E0,1.3E1,1E0,4.5E1,2.1E1,2E0,5E0,2E0,2E0,8E0,2E0],"tree_param":{"num_deleted":"0","num_feature":"705","num_nodes":"43","size_leaf_vector":"1"}},{"base_weights":[-2.5269068E-3,-3.7705734E-1,9.080303E-2,-3.953416E-1,4.6323717E-2,-4.6895444E-2,2.092412E-1,-3.381014E-1,-5.3721684E-1,1.3456874E-2,-1.5552938E-2,-3.0205175E-2,-6.068134E-1,1.0111454E-2,1.7892588E-2,-3.6417356E-1,2.2651677E-1,-5.827287E-1,7.0498944E-3,-5.373144E-1,-1.0913812E-2,-6.6530886E-3,-3.6018834E-2,-1.0536853E-2,-2.7423725E-2,-2.4769187E-3,1.9465676E-2,-3.255042E-2,-9.049872E-3,6.8840026E-3,-3.702415E-2,1.7459406E-2,-2.4756126E-3],"categories":[],"categories_nodes":[],"categories_segments":[],"categories_sizes":[],"default_left":[0,0,0,0,0,0,0,0,0,0,0,0,0,0,0,0,0,0,0,0,0,0,0,0,0,0,0,0,0,0,0,0,0],"id":47,"left_children":[1,3,5,7,9,11,13,15,17,-1,-1,19,21,-1,-1,23,25,27,-1,29,31,-1,-1,-1,-1,-1,-1,-1,-1,-1,-1,-1,-1],"loss_changes":[1.3142325E1,5.989046E-1,4.918748E0,4.0307713E-1,4.022365E-1,1.2899965E0,9.6447945E-2,8.7741566E-1,6.6863203E-1,0E0,0E0,1.3343835E0,1.19348526E-1,0E0,0E0,1.3548975E0,1.5410861E-1,3.7591076E-1,0E0,7.876384E-1,1.8659056E0,0E0,0E0,0E0,0E0,0E0,0E0,0E0,0E0,0E0,0E0,0E0,0E0],"parents":[2147483647,0,0,1,1,2,2,3,3,4,4,5,5,6,6,7,7,8,8,11,11,12,12,15,15,16,16,17,17,19,19,20,20],"right_children":[2,4,6,8,10,12,14,16,18,-1,-1,20,22,-1,-1,24,26,28,-1,30,32,-1,-1,-1,-1,-1,-1,-1,-1,-1,-1,-1,-1],"split_conditions":[1E0,1E0,2.00001E0,1E2,1E0,1E0,1E0,1E0,1E0,1.3456874E-2,-1.5552938E-2,1E0,1E0,1.0111454E-2,1.7892588E-2,1E0,1E0,1E0,7.0498944E-3,1E0,1E0,-6.6530886E-3,-3.6018834E-2,-1.0536853E-2,-2.7423725E-2,-2.4769187E-3,1.9465676E-2,-3.255042E-2,-9.049872E-3,6.8840026E-3,-3.702415E-2,1.7459406E-2,-2.4756126E-3],"split_indices":[704,184,703,701,12,127,371,331,247,0,0,371,2,0,0,74,13,342,0,703,469,0,0,0,0,0,0,0,0,0,0,0,0],"split_type":[0,0,0,0,0,0,0,0,0,0,0,0,0,0,0,0,0,0,0,0,0,0,0,0,0,0,0,0,0,0,0,0,0],"sum_hessian":[3.74E2,7.4E1,3E2,7.1E1,3E0,1.39E2,1.61E2,5.3E1,1.8E1,2E0,1E0,1.36E2,3E0,1.56E2,5E0,5.1E1,2E0,1.7E1,1E0,4E0,1.32E2,1E0,2E0,2.9E1,2.2E1,1E0,1E0,1.4E1,3E0,1E0,3E0,1.2E1,1.2E2],"tree_param":{"num_deleted":"0","num_feature":"705","num_nodes":"33","size_leaf_vector":"1"}},{"base_weights":[-1.5976448E-2,-4.093904E-1,8.073071E-2,-4.2674878E-1,6.3157952E-3,-5.07378E-2,1.9630854E-1,-4.3700424E-1,6.7655505E-3,-6.673411E-2,2.4691207E-2,2.040021E-1,-3.6880113E-3,-2.7286768E-1,-4.8226035E-1,-7.923326E-2,2.5065327E-2,1.0874725E-2,7.372611E-3,-3.5672102E-3,-2.7528316E-2,-2.5445038E-2,-1.7675087E-3,-7.6535232E-3,8.169462E-4],"categories":[],"categories_nodes":[],"categories_segments":[],"categories_sizes":[],"default_left":[0,0,0,0,0,0,0,0,0,0,0,0,0,0,0,0,0,0,0,0,0,0,0,0,0],"id":48,"left_children":[1,3,5,7,-1,9,11,13,-1,15,-1,17,-1,19,21,23,-1,-1,-1,-1,-1,-1,-1,-1,-1],"loss_changes":[1.3691545E1,7.141323E-1,4.4012704E0,4.5686054E-1,0E0,1.2176487E0,3.350277E-1,3.7352276E-1,0E0,9.84023E-1,0E0,8.237839E-2,0E0,9.120877E-1,6.011152E-1,9.2693955E-1,0E0,0E0,0E0,0E0,0E0,0E0,0E0,0E0,0E0],"parents":[2147483647,0,0,1,1,2,2,3,3,5,5,6,6,7,7,9,9,11,11,13,13,14,14,15,15],"right_children":[2,4,6,8,-1,10,12,14,-1,16,-1,18,-1,20,22,24,-1,-1,-1,-1,-1,-1,-1,-1,-1],"split_conditions":[1E0,1E0,2.00001E0,1E0,6.3157952E-3,1E0,2.00001E0,1E0,6.7655505E-3,1E0,2.4691207E-2,1E0,-3.6880113E-3,1E0,1E0,1E0,2.5065327E-2,1.0874725E-2,7.372611E-3,-3.5672102E-3,-2.7528316E-2,-2.5445038E-2,-1.7675087E-3,-7.6535232E-3,8.169462E-4],"split_indices":[704,340,704,132,0,149,702,418,0,14,0,702,0,47,342,129,0,0,0,0,0,0,0,0,0],"split_type":[0,0,0,0,0,0,0,0,0,0,0,0,0,0,0,0,0,0,0,0,0,0,0,0,0],"sum_hessian":[3.58E2,7E1,2.88E2,6.8E1,2E0,1.35E2,1.53E2,6.7E1,1E0,1.32E2,3E0,1.49E2,4E0,1.6E1,5.1E1,1.3E2,2E0,1.18E2,3.1E1,1E1,6E0,4.8E1,3E0,7.3E1,5.7E1],"tree_param":{"num_deleted":"0","num_feature":"705","num_nodes":"25","size_leaf_vector":"1"}},{"base_weights":[1.7080774E-3,-1.4911006E-1,1.886401E-1,-3.4077305E-1,-5.2895285E-2,1.9719419E-1,-3.6880176E-3,-2.2198765E-1,-5.409558E-1,-3.456248E-2,-2.68651E-2,1.0371242E-2,1.4727032E-1,-2.5164726E-1,1.3856478E-2,-5.8134234E-1,1.0708043E-2,-4.9751196E-2,2.376529E-2,6.7853704E-3,1.2353945E-2,-1.4142752E-2,1.2937053E-2,-6.6978075E-3,-3.320609E-2,-4.0601767E-3,1.0049529E-2],"categories":[],"categories_nodes":[],"categories_segments":[],"categories_sizes":[],"default_left":[0,0,0,0,0,0,0,0,0,0,0,0,0,0,0,0,0,0,0,0,0,0,0,0,0,0,0],"id":49,"left_children":[1,3,5,7,9,11,-1,13,15,17,-1,-1,19,21,-1,23,-1,25,-1,-1,-1,-1,-1,-1,-1,-1,-1],"loss_changes":[1.0544021E1,3.799223E0,3.8939285E-1,1.5206499E0,1.2158239E0,5.2194595E-2,0E0,7.3590255E-1,8.869152E-1,1.06912E0,0E0,0E0,2.2460222E-3,7.5809336E-1,0E0,7.9986286E-1,0E0,1.0573279E0,0E0,0E0,0E0,0E0,0E0,0E0,0E0,0E0,0E0],"parents":[2147483647,0,0,1,1,2,2,3,3,4,4,5,5,7,7,8,8,9,9,12,12,13,13,15,15,17,17],"right_children":[2,4,6,8,10,12,-1,14,16,18,-1,-1,20,22,-1,24,-1,26,-1,-1,-1,-1,-1,-1,-1,-1,-1],"split_conditions":[2.00001E0,1E0,2.00001E0,1E0,1E0,1E0,-3.6880176E-3,1E0,1E0,1E0,-2.68651E-2,1.0371242E-2,1E0,1E0,1.3856478E-2,1E0,1.0708043E-2,1E0,2.376529E-2,6.7853704E-3,1.2353945E-2,-1.4142752E-2,1.2937053E-2,-6.6978075E-3,-3.320609E-2,-4.0601767E-3,1.0049529E-2],"split_indices":[703,704,702,74,340,702,0,184,12,149,0,0,120,617,0,376,0,342,0,0,0,0,0,0,0,0,0],"split_type":[0,0,0,0,0,0,0,0,0,0,0,0,0,0,0,0,0,0,0,0,0,0,0,0,0,0,0],"sum_hessian":[3.72E2,2.06E2,1.66E2,6.8E1,1.38E2,1.61E2,5E0,4.4E1,2.4E1,1.34E2,4E0,1.31E2,3E1,4.2E1,2E0,2.3E1,1E0,1.31E2,3E0,2.9E1,1E0,4E1,2E0,4E0,1.9E1,1.17E2,1.4E1],"tree_param":{"num_deleted":"0","num_feature":"705","num_nodes":"27","size_leaf_vector":"1"}},{"base_weights":[-9.673833E-3,-1.452925E-1,1.6694717E-1,-1.6138023E-1,3.3741114E-1,8.026804E-3,1.661511E-2,-2.0778649E-1,3.0599603E-2,5.2752495E-3,2.3460522E-2,5.4932937E-2,-2.4946335E-1,-1.3437173E-1,2.0228952E-1,-5.5913924E-4,9.54783E-4,-1.7839732E-2,9.456182E-3,-1.8679725E-2,-4.8110103E-3,-1.4555128E-2,2.1269374E-2,1.6290275E-2,-3.6820478E-3],"categories":[],"categories_nodes":[],"categories_segments":[],"categories_sizes":[],"default_left":[0,0,0,0,0,0,0,0,0,0,0,0,0,0,0,0,0,0,0,0,0,0,0,0,0],"id":50,"left_children":[1,3,5,7,9,-1,-1,11,13,15,-1,17,19,21,23,-1,-1,-1,-1,-1,-1,-1,-1,-1,-1],"loss_changes":[8.76714E0,1.6619315E0,1.1521101E-1,1.7970805E0,3.0395168E-1,0E0,0E0,1.7874942E0,1.1601386E0,8.959129E-4,0E0,1.3382285E0,2.6271677E0,1.9661936E0,7.056292E-1,0E0,0E0,0E0,0E0,0E0,0E0,0E0,0E0,0E0,0E0],"parents":[2147483647,0,0,1,1,2,2,3,3,4,4,7,7,8,8,9,9,11,11,12,12,13,13,14,14],"right_children":[2,4,6,8,10,-1,-1,12,14,16,-1,18,20,22,24,-1,-1,-1,-1,-1,-1,-1,-1,-1,-1],"split_conditions":[2.00001E0,1E0,1E0,1E0,1E0,8.026804E-3,1.661511E-2,1E0,1E0,1E0,2.3460522E-2,1E0,1E0,1E0,1E0,-5.5913924E-4,9.54783E-4,-1.7839732E-2,9.456182E-3,-1.8679725E-2,-4.8110103E-3,-1.4555128E-2,2.1269374E-2,1.6290275E-2,-3.6820478E-3],"split_indices":[703,73,371,618,617,0,0,268,604,32,0,371,617,428,74,0,0,0,0,0,0,0,0,0,0],"split_type":[0,0,0,0,0,0,0,0,0,0,0,0,0,0,0,0,0,0,0,0,0,0,0,0,0],"sum_hessian":[3.64E2,2.06E2,1.58E2,2E2,6E0,1.54E2,4E0,1.61E2,3.9E1,2E0,4E0,2.2E1,1.39E2,2E1,1.9E1,1E0,1E0,5E0,1.7E1,7.6E1,6.3E1,1.6E1,4E0,1.3E1,6E0],"tree_param":{"num_deleted":"0","num_feature":"705","num_nodes":"25","size_leaf_vector":"1"}},{"base_weights":[1.2397728E-2,-2.963215E-1,9.056527E-2,-3.149598E-1,2.6219675E-1,1.630499E-1,-3.9806023E-2,-2.228943E-1,-4.669666E-1,-1.2475491E-3,2.0912305E-2,1.5727158E-1,3.181224E-2,7.417372E-2,-2.2787471E-1,-4.676558E-1,-1.5441969E-1,-5.5159616E-1,-7.883056E-2,1.7184158E-1,-9.8093055E-2,1.1019023E-1,-3.71457E-2,-4.70588E-1,-3.6344975E-2,-3.488719E-2,-4.900956E-3,-9.729741E-3,3.4305878E-2,-3.4301244E-2,-1.6083961E-2,-7.3408145E-3,6.527451E-3,7.398466E-3,1.9741945E-2,-6.5072956E-3,5.560887E-3,8.117389E-3,-9.906342E-3,-2.6281685E-2,1.1629725E-2,-7.208849E-3,9.867057E-3],"categories":[],"categories_nodes":[],"categories_segments":[],"categories_sizes":[],"default_left":[0,0,0,0,0,0,0,0,0,0,0,0,0,0,0,0,0,0,0,0,0,0,0,0,0,0,0,0,0,0,0,0,0,0,0,0,0,0,0,0,0,0,0],"id":51,"left_children":[1,3,5,7,9,11,13,15,17,-1,-1,19,-1,21,23,25,27,29,31,33,35,37,-1,39,41,-1,-1,-1,-1,-1,-1,-1,-1,-1,-1,-1,-1,-1,-1,-1,-1,-1,-1],"loss_changes":[9.076271E0,8.737283E-1,2.8414657E0,9.3151426E-1,1.4486332E-1,4.2765188E-1,2.3319926E0,7.3226213E-1,8.4340715E-1,0E0,0E0,7.312236E-1,0E0,2.0830097E0,1.8888557E0,7.820971E-1,1.4504938E0,4.5928383E-1,1.0457564E-1,9.1044426E-1,8.827361E-2,1.0935158E0,0E0,8.1898856E-1,6.3322425E-1,0E0,0E0,0E0,0E0,0E0,0E0,0E0,0E0,0E0,0E0,0E0,0E0,0E0,0E0,0E0,0E0,0E0,0E0],"parents":[2147483647,0,0,1,1,2,2,3,3,4,4,5,5,6,6,7,7,8,8,11,11,13,13,14,14,15,15,16,16,17,17,18,18,19,19,20,20,21,21,23,23,24,24],"right_children":[2,4,6,8,10,12,14,16,18,-1,-1,20,-1,22,24,26,28,30,32,34,36,38,-1,40,42,-1,-1,-1,-1,-1,-1,-1,-1,-1,-1,-1,-1,-1,-1,-1,-1,-1,-1],"split_conditions":[1E0,1E0,1E0,1E0,1E0,1E0,1E2,1E0,1E2,-1.2475491E-3,2.0912305E-2,1E0,3.181224E-2,1E0,1E0,1E2,1E0,1E0,1E0,1E0,1E0,1E0,-3.71457E-2,1E0,1E0,-3.488719E-2,-4.900956E-3,-9.729741E-3,3.4305878E-2,-3.4301244E-2,-1.6083961E-2,-7.3408145E-3,6.527451E-3,7.398466E-3,1.9741945E-2,-6.5072956E-3,5.560887E-3,8.117389E-3,-9.906342E-3,-2.6281685E-2,1.1629725E-2,-7.208849E-3,9.867057E-3],"split_indices":[704,331,543,74,13,60,701,376,699,0,0,376,0,16,612,698,617,329,47,371,273,81,0,157,347,0,0,0,0,0,0,0,0,0,0,0,0,0,0,0,0,0,0],"split_type":[0,0,0,0,0,0,0,0,0,0,0,0,0,0,0,0,0,0,0,0,0,0,0,0,0,0,0,0,0,0,0,0,0,0,0,0,0,0,0,0,0,0,0],"sum_hessian":[3.74E2,7.5E1,2.99E2,7.3E1,2E0,1.92E2,1.07E2,4.7E1,2.6E1,1E0,1E0,1.91E2,1E0,6.7E1,4E1,9E0,3.8E1,2.1E1,5E0,1.81E2,1E1,6.5E1,2E0,1.7E1,2.3E1,5E0,4E0,3.7E1,1E0,1.2E1,9E0,4E0,1E0,1.65E2,1.6E1,9E0,1E0,5.6E1,9E0,1.6E1,1E0,1.6E1,7E0],"tree_param":{"num_deleted":"0","num_feature":"705","num_nodes":"43","size_leaf_vector":"1"}},{"base_weights":[8.421011E-3,-1.1564443E-1,1.7194411E-1,-1.7468566E-1,2.207973E-2,1.8275976E-1,-4.2964187E-3,-2.2995494E-1,9.980507E-2,9.28944E-2,-2.866238E-1,8.785348E-3,3.1016935E-2,-2.5048304E-1,2.0524745E-1,1.5838256E-1,-3.2651376E-2,7.821423E-3,3.758192E-1,-4.2232615E-1,1.3062931E-2,-1.6682325E-2,-5.076969E-3,1.3782921E-2,-3.6701858E-3,-2.5343785E-2,1.0467245E-2,-1.2715636E-3,3.344823E-2,2.1256195E-2,-4.163313E-3,-2.6668329E-2,7.2785415E-4],"categories":[],"categories_nodes":[],"categories_segments":[],"categories_sizes":[],"default_left":[0,0,0,0,0,0,0,0,0,0,0,0,0,0,0,0,0,0,0,0,0,0,0,0,0,0,0,0,0,0,0,0,0],"id":52,"left_children":[1,3,5,7,9,11,-1,13,15,17,19,-1,-1,21,23,25,-1,27,29,31,-1,-1,-1,-1,-1,-1,-1,-1,-1,-1,-1,-1,-1],"loss_changes":[7.3842707E0,1.6870575E0,4.5358658E-1,2.222732E0,1.4038522E0,3.5701084E-1,0E0,1.1324096E0,1.2059045E0,1.2486618E0,1.0025234E0,0E0,0E0,1.4029751E0,1.3795498E-1,9.1978675E-1,0E0,9.1838914E-1,3.0701935E-1,4.9288118E-1,0E0,0E0,0E0,0E0,0E0,0E0,0E0,0E0,0E0,0E0,0E0,0E0,0E0],"parents":[2147483647,0,0,1,1,2,2,3,3,4,4,5,5,7,7,8,8,9,9,10,10,13,13,14,14,15,15,17,17,18,18,19,19],"right_children":[2,4,6,8,10,12,-1,14,16,18,20,-1,-1,22,24,26,-1,28,30,32,-1,-1,-1,-1,-1,-1,-1,-1,-1,-1,-1,-1,-1],"split_conditions":[2.00001E0,1E0,2.00001E0,1E0,1E0,1E0,-4.2964187E-3,1E0,1E0,1E0,1E0,8.785348E-3,3.1016935E-2,1E0,1E0,1E0,-3.2651376E-2,1E0,1E0,1E0,1.3062931E-2,-1.6682325E-2,-5.076969E-3,1.3782921E-2,-3.6701858E-3,-2.5343785E-2,1.0467245E-2,-1.2715636E-3,3.344823E-2,2.1256195E-2,-4.163313E-3,-2.6668329E-2,7.2785415E-4],"split_indices":[704,702,702,47,241,37,0,294,4,2,342,0,0,37,37,543,0,81,159,47,0,