{"learner":{"attributes":{"scikit_learn":"{\"_estimator_type\": \"regressor\"}"},"feature_names":[],"feature_types":[],"gradient_booster":{"model":{"cats":{"enc":[],"feature_segments":[],"sorted_idx":[]},"gbtree_model_param":{"num_parallel_tree":"1","num_trees":"300"},"iteration_indptr":[0,1,2,3,4,5,6,7,8,9,10,11,12,13,14,15,16,17,18,19,20,21,22,23,24,25,26,27,28,29,30,31,32,33,34,35,36,37,38,39,40,41,42,43,44,45,46,47,48,49,50,51,52,53,54,55,56,57,58,59,60,61,62,63,64,65,66,67,68,69,70,71,72,73,74,75,76,77,78,79,80,81,82,83,84,85,86,87,88,89,90,91,92,93,94,95,96,97,98,99,100,101,102,103,104,105,106,107,108,109,110,111,112,113,114,115,116,117,118,119,120,121,122,123,124,125,126,127,128,129,130,131,132,133,134,135,136,137,138,139,140,141,142,143,144,145,146,147,148,149,150,151,152,153,154,155,156,157,158,159,160,161,162,163,164,165,166,167,168,169,170,171,172,173,174,175,176,177,178,179,180,181,182,183,184,185,186,187,188,189,190,191,192,193,194,195,196,197,198,199,200,201,202,203,204,205,206,207,208,209,210,211,212,213,214,215,216,217,218,219,220,221,222,223,224,225,226,227,228,229,230,231,232,233,234,235,236,237,238,239,240,241,242,243,244,245,246,247,248,249,250,251,252,253,254,255,256,257,258,259,260,261,262,263,264,265,266,267,268,269,270,271,272,273,274,275,276,277,278,279,280,281,282,283,284,285,286,287,288,289,290,291,292,293,294,295,296,297,298,299,300],"tree_info":[0,0,0,0,0,0,0,0,0,0,0,0,0,0,0,0,0,0,0,0,0,0,0,0,0,0,0,0,0,0,0,0,0,0,0,0,0,0,0,0,0,0,0,0,0,0,0,0,0,0,0,0,0,0,0,0,0,0,0,0,0,0,0,0,0,0,0,0,0,0,0,0,0,0,0,0,0,0,0,0,0,0,0,0,0,0,0,0,0,0,0,0,0,0,0,0,0,0,0,0,0,0,0,0,0,0,0,0,0,0,0,0,0,0,0,0,0,0,0,0,0,0,0,0,0,0,0,0,0,0,0,0,0,0,0,0,0,0,0,0,0,0,0,0,0,0,0,0,0,0,0,0,0,0,0,0,0,0,0,0,0,0,0,0,0,0,0,0,0,0,0,0,0,0,0,0,0,0,0,0,0,0,0,0,0,0,0,0,0,0,0,0,0,0,0,0,0,0,0,0,0,0,0,0,0,0,0,0,0,0,0,0,0,0,0,0,0,0,0,0,0,0,0,0,0,0,0,0,0,0,0,0,0,0,0,0,0,0,0,0,0,0,0,0,0,0,0,0,0,0,0,0,0,0,0,0,0,0,0,0,0,0,0,0,0,0,0,0,0,0,0,0,0,0,0,0,0,0,0,0,0,0,0,0,0,0,0,0,0,0,0,0,0,0,0,0,0,0,0,0],"trees":[{"base_weights":[-2.6895509E-3,1.445649E0,-1.9877445E0,8.8989085E-1,2.6800141E0,-3.8137243E0,-1.2368528E0,4.178207E-1,2.1311486E0,2.711005E0,2.6677603E-1,-4.5743856E0,3.6414537E0,-1.2703526E0,1.0741956E0,-7.800452E-1,1.0321606E0,1.7044579E0,2.7407477E0,2.7293198E0,1.0167761E0,9.222587E-2,-4.3698844E-2,1.9649484E0,-2.5692448E-1,2.106446E-1,5.0838806E-2,-6.3893564E-2,-5.9247106E-1,1.2296783E-1,-1.1661197E-2,-4.3412812E-2,1.5630117E-1,7.584727E-2,-6.402389E-2,6.9069676E-2,1.2834029E-1,1.3981168E-1,-7.774131E-3,1.3692759E-1,1.7225869E-2,8.963449E-2,-3.277413E-2,3.6672916E-2,1.5370978E-1,-1.1661197E-2,-4.3698844E-2],"categories":[],"categories_nodes":[],"categories_segments":[],"categories_sizes":[],"default_left":[0,0,0,0,0,1,0,0,0,0,0,0,0,0,0,0,0,0,0,0,0,0,0,0,0,0,0,0,0,0,0,0,0,0,0,0,0,0,0,0,0,0,0,0,0,0,0],"id":0,"left_children":[1,3,5,7,9,11,13,15,17,19,21,23,25,27,29,31,33,35,37,39,41,-1,-1,43,-1,-1,-1,-1,45,-1,-1,-1,-1,-1,-1,-1,-1,-1,-1,-1,-1,-1,-1,-1,-1,-1,-1],"loss_changes":[3.6599136E3,5.0251733E2,7.315708E2,2.9736356E2,1.632837E1,9.0131274E2,3.0938904E1,2.7308698E2,3.1743958E1,4.206665E0,8.811317E0,5.339155E2,1.821405E1,1.1644287E0,1.1439499E1,4.61285E1,2.7661966E2,2.0134705E1,9.433899E0,3.9442139E0,6.3651905E0,0E0,0E0,1.4137527E1,0E0,0E0,0E0,0E0,4.0294862E-1,0E0,0E0,0E0,0E0,0E0,0E0,0E0,0E0,0E0,0E0,0E0,0E0,0E0,0E0,0E0,0E0,0E0,0E0],"parents":[2147483647,0,0,1,1,2,2,3,3,4,4,5,5,6,6,7,7,8,8,9,9,10,10,11,11,12,12,13,13,14,14,15,15,16,16,17,17,18,18,19,19,20,20,23,23,28,28],"right_children":[2,4,6,8,10,12,14,16,18,20,22,24,26,28,30,32,34,36,38,40,42,-1,-1,44,-1,-1,-1,-1,46,-1,-1,-1,-1,-1,-1,-1,-1,-1,-1,-1,-1,-1,-1,-1,-1,-1,-1],"split_conditions":[1E2,1E0,1E0,1E0,1E0,1E0,1E0,1E0,1E0,1E0,1E0,2.00001E0,1E0,1E0,1E2,1E0,1E2,1E0,1E0,1E0,1E0,9.222587E-2,-4.3698844E-2,1E0,-2.5692448E-1,2.106446E-1,5.0838806E-2,-6.3893564E-2,1E0,1.2296783E-1,-1.1661197E-2,-4.3412812E-2,1.5630117E-1,7.584727E-2,-6.402389E-2,6.9069676E-2,1.2834029E-1,1.3981168E-1,-7.774131E-3,1.3692759E-1,1.7225869E-2,8.963449E-2,-3.277413E-2,3.6672916E-2,1.5370978E-1,-1.1661197E-2,-4.3698844E-2],"split_indices":[700,74,272,514,149,702,32,489,660,582,153,703,440,567,698,91,698,350,347,216,129,0,0,371,0,0,0,0,4,0,0,0,0,0,0,0,0,0,0,0,0,0,0,0,0,0,0],"split_type":[0,0,0,0,0,0,0,0,0,0,0,0,0,0,0,0,0,0,0,0,0,0,0,0,0,0,0,0,0,0,0,0,0,0,0,0,0,0,0,0,0,0,0,0,0,0,0],"sum_hessian":[1.271E3,7.35E2,5.36E2,5.08E2,2.27E2,1.55E2,3.81E2,3.69E2,1.39E2,2.24E2,3E0,1.41E2,1.4E1,3.76E2,5E0,1.25E2,2.44E2,8.4E1,5.5E1,2.21E2,3E0,1E0,2E0,1.1E1,1.3E2,1.1E1,3E0,3.71E2,5E0,2E0,3E0,1.23E2,2E0,2.02E2,4.2E1,6.3E1,2.1E1,5.4E1,1E0,2.2E2,1E0,2E0,1E0,6E0,5E0,3E0,2E0],"tree_param":{"num_deleted":"0","num_feature":"705","num_nodes":"47","size_leaf_vector":"1"}},{"base_weights":[4.653741E-2,1.4959389E0,-1.40525E0,1.8500338E-1,1.9665672E0,-3.4398127E0,-7.582389E-1,-6.3995844E-1,1.21789396E-1,1.5142092E0,2.6296673E0,2.1115556E0,-4.25487E0,-8.925891E-1,1.2733315E0,-8.2041335E-1,2.056633E0,1.1576768E0,2.5132568E0,2.6507318E0,-3.168166E-2,-4.492127E-2,1.2479552E-1,-2.3697762E-1,7.537519E-2,-9.8328304E-1,1.0974262E0,2.4203582E0,-4.1280794E-1,-4.5716412E-2,1.5109111E-1,3.8075913E-2,1.18070915E-1,1.1343658E-1,3.98232E-2,1.2846449E-1,1.8403571E-2,1.3360126E-1,-3.168166E-2,-5.2535176E-2,6.274982E-2,9.1544546E-2,-4.5957E-2,1.3186388E-1,-3.168166E-2,2.8024992E-2,-5.4559387E-2],"categories":[],"categories_nodes":[],"categories_segments":[],"categories_sizes":[],"default_left":[0,0,0,0,0,0,0,0,0,0,0,0,1,0,0,0,0,0,0,0,0,0,0,0,0,0,0,0,0,0,0,0,0,0,0,0,0,0,0,0,0,0,0,0,0,0,0],"id":1,"left_children":[1,3,5,7,9,11,13,15,-1,17,19,21,23,25,27,29,31,33,35,37,-1,-1,-1,-1,-1,39,41,43,45,-1,-1,-1,-1,-1,-1,-1,-1,-1,-1,-1,-1,-1,-1,-1,-1,-1,-1],"loss_changes":[2.6407974E3,3.8708923E2,8.2276465E2,3.1164627E2,1.3459912E2,6.922117E2,1.313298E2,6.154072E1,0E0,9.575586E1,1.4465088E1,2.5380402E1,3.7581055E2,8.193518E1,5.9020546E1,4.4620728E1,1.3595924E0,8.0866455E1,7.7088013E0,1.46311035E1,0E0,0E0,0E0,0E0,0E0,6.605731E1,3.1264446E1,1.3595512E1,9.195151E0,0E0,0E0,0E0,0E0,0E0,0E0,0E0,0E0,0E0,0E0,0E0,0E0,0E0,0E0,0E0,0E0,0E0,0E0],"parents":[2147483647,0,0,1,1,2,2,3,3,4,4,5,5,6,6,7,7,9,9,10,10,11,11,12,12,13,13,14,14,15,15,16,16,17,17,18,18,19,19,25,25,26,26,27,27,28,28],"right_children":[2,4,6,8,10,12,14,16,-1,18,20,22,24,26,28,30,32,34,36,38,-1,-1,-1,-1,-1,40,42,44,46,-1,-1,-1,-1,-1,-1,-1,-1,-1,-1,-1,-1,-1,-1,-1,-1,-1,-1],"split_conditions":[1E2,1E0,1E0,1E0,1E0,2.00001E0,1E0,1E0,1.21789396E-1,1E0,1E0,1E0,1E0,1E0,1E0,1E0,1E0,2.00001E0,1E0,1E0,-3.168166E-2,-4.492127E-2,1.2479552E-1,-2.3697762E-1,7.537519E-2,1E0,2.00001E0,1E0,2.00001E0,-4.5716412E-2,1.5109111E-1,3.8075913E-2,1.18070915E-1,1.1343658E-1,3.98232E-2,1.2846449E-1,1.8403571E-2,1.3360126E-1,-3.168166E-2,-5.2535176E-2,6.274982E-2,9.1544546E-2,-4.5957E-2,1.3186388E-1,-3.168166E-2,2.8024992E-2,-5.4559387E-2],"split_indices":[701,489,272,129,660,704,74,702,0,74,7,0,702,404,166,91,704,703,2,118,0,0,0,0,0,391,703,13,703,0,0,0,0,0,0,0,0,0,0,0,0,0,0,0,0,0,0],"split_type":[0,0,0,0,0,0,0,0,0,0,0,0,0,0,0,0,0,0,0,0,0,0,0,0,0,0,0,0,0,0,0,0,0,0,0,0,0,0,0,0,0,0,0,0,0,0,0],"sum_hessian":[1.253E3,6.27E2,6.26E2,1.66E2,4.61E2,1.5E2,4.76E2,1.22E2,4.4E1,2.76E2,1.85E2,1.9E1,1.31E2,4.47E2,2.9E1,1.15E2,7E0,2.05E2,7.1E1,1.84E2,1E0,2E0,1.7E1,1.21E2,1E1,4.28E2,1.9E1,1.7E1,1.2E1,1.13E2,2E0,2E0,5E0,4.9E1,1.56E2,6.9E1,2E0,1.83E2,1E0,4.16E2,1.2E1,1.4E1,5E0,1.6E1,1E0,5E0,7E0],"tree_param":{"num_deleted":"0","num_feature":"705","num_nodes":"47","size_leaf_vector":"1"}},{"base_weights":[-2.1875344E-2,1.2929528E0,-1.8809032E0,6.6351014E-1,2.226296E0,-3.7227232E0,-1.1390918E0,-5.463044E-1,1.1376482E0,1.2313034E-1,1.8315718E0,1.7714578E0,-4.4970827E0,-1.1588935E0,-5.061622E-1,-7.403326E-1,1.17982306E-1,1.5795374E0,-5.9037473E-2,1.1148602E0,2.374083E0,1.3459148E-1,2.3464394E0,-2.285635E-1,-1.2702334E-1,-1.1610448E0,-9.771216E-3,1.1546506E-1,-9.33226E-1,-4.2127464E-2,8.589152E-2,8.610614E-2,-6.584473E-2,2.6586154E-2,1.17862E-1,-3.6088854E-2,1.2690856E-1,-3.681084E-2,2.2799825E-2,1.4920387E-1,6.412523E-2,-5.816042E-2,-9.771216E-3,-5.375414E-2,-7.4647255E-3],"categories":[],"categories_nodes":[],"categories_segments":[],"categories_sizes":[],"default_left":[0,0,0,0,0,0,0,0,0,0,0,0,1,0,0,0,0,0,0,0,0,0,0,0,0,0,0,0,0,0,0,0,0,0,0,0,0,0,0,0,0,0,0,0,0],"id":2,"left_children":[1,3,5,7,9,11,13,15,17,-1,19,21,23,25,27,29,-1,31,-1,33,35,37,39,-1,-1,41,-1,-1,43,-1,-1,-1,-1,-1,-1,-1,-1,-1,-1,-1,-1,-1,-1,-1,-1],"loss_changes":[3.0504766E3,4.279751E2,7.021278E2,2.5186671E2,2.2913086E1,6.376282E2,4.0506287E0,7.166263E1,3.2457465E2,0E0,4.16792E1,1.7566372E1,7.25708E0,5.1516724E-1,1.778607E1,3.084539E1,0E0,1.1170978E2,0E0,3.5694965E1,3.4343567E1,2.015005E0,5.6705856E0,0E0,0E0,5.1849365E-1,0E0,0E0,1.1739693E0,0E0,0E0,0E0,0E0,0E0,0E0,0E0,0E0,0E0,0E0,0E0,0E0,0E0,0E0,0E0,0E0],"parents":[2147483647,0,0,1,1,2,2,3,3,4,4,5,5,6,6,7,7,8,8,10,10,11,11,12,12,13,13,14,14,15,15,17,17,19,19,20,20,21,21,22,22,25,25,28,28],"right_children":[2,4,6,8,10,12,14,16,18,-1,20,22,24,26,28,30,-1,32,-1,34,36,38,40,-1,-1,42,-1,-1,44,-1,-1,-1,-1,-1,-1,-1,-1,-1,-1,-1,-1,-1,-1,-1,-1],"split_conditions":[1E2,1E0,1E0,1E0,1E0,2.00001E0,1E0,1E0,1E2,1.2313034E-1,1E0,1E0,1E0,1E0,1E0,1E0,1.17982306E-1,1E0,-5.9037473E-2,1E0,1E0,1E0,1E0,-2.285635E-1,-1.2702334E-1,1E0,-9.771216E-3,1.1546506E-1,1E0,-4.2127464E-2,8.589152E-2,8.610614E-2,-6.584473E-2,2.6586154E-2,1.17862E-1,-3.6088854E-2,1.2690856E-1,-3.681084E-2,2.2799825E-2,1.4920387E-1,6.412523E-2,-5.816042E-2,-9.771216E-3,-5.375414E-2,-7.4647255E-3],"split_indices":[700,129,459,489,181,703,47,702,698,0,660,371,702,13,489,391,0,577,0,350,703,703,440,0,0,178,0,0,241,0,0,0,0,0,0,0,0,0,0,0,0,0,0,0,0],"split_type":[0,0,0,0,0,0,0,0,0,0,0,0,0,0,0,0,0,0,0,0,0,0,0,0,0,0,0,0,0,0,0,0,0,0,0,0,0,0,0,0,0,0,0,0,0],"sum_hessian":[1.246E3,7.3E2,5.16E2,4.37E2,2.93E2,1.47E2,3.69E2,1.23E2,3.14E2,1.8E2,1.13E2,1.8E1,1.29E2,3.57E2,1.2E1,1.16E2,7E0,2.64E2,5E1,5E1,6.3E1,5E0,1.3E1,1.23E2,6E0,3.56E2,1E0,1E0,1.1E1,1.12E2,4E0,2.52E2,1.2E1,3.5E1,1.5E1,3E0,6E1,1E0,4E0,7E0,6E0,3.55E2,1E0,9E0,2E0],"tree_param":{"num_deleted":"0","num_feature":"705","num_nodes":"45","size_leaf_vector":"1"}},{"base_weights":[-1.7352326E-2,1.2070655E0,-1.735194E0,6.4274395E-1,2.0952587E0,-3.324276E0,-1.065271E0,-5.944038E-1,1.1311173E0,2.3444426E0,1.6559373E0,1.831789E0,-4.090357E0,-1.0961065E0,1.0137917E0,-7.6084656E-1,2.0389535E0,1.6546617E0,-1.1449338E-1,1.18417025E-1,1.2487147E0,1.4640278E-1,1.466422E0,7.265764E-2,2.5305977E0,-2.1728718E-1,2.8548762E-2,-1.1039091E0,4.4576596E-2,1.699129E0,-1.1896094E-2,-4.2327136E-2,1.47459E-1,1.19493246E-1,3.287397E-2,9.027171E-2,-6.2369585E-2,-6.0791004E-2,2.7229834E-2,-1.2949974E-3,1.2659813E-1,3.3037912E-2,9.389741E-2,-4.4669654E-2,3.1887826E-2,1.6195269E-1,8.4919944E-2,-5.5326916E-2,-3.4094022E-3,1.1726367E-1,-5.982605E-3],"categories":[],"categories_nodes":[],"categories_segments":[],"categories_sizes":[],"default_left":[0,0,0,0,0,0,0,0,0,0,0,0,1,0,0,0,0,0,0,0,0,0,0,0,0,0,0,0,0,0,0,0,0,0,0,0,0,0,0,0,0,0,0,0,0,0,0,0,0,0,0],"id":3,"left_children":[1,3,5,7,9,11,13,15,17,19,21,23,25,27,29,31,33,35,37,-1,39,-1,41,43,45,-1,-1,47,-1,49,-1,-1,-1,-1,-1,-1,-1,-1,-1,-1,-1,-1,-1,-1,-1,-1,-1,-1,-1,-1,-1],"loss_changes":[2.6838733E3,3.7206714E2,5.6174146E2,2.7678717E2,2.7755005E1,6.276367E2,2.515207E1,5.853074E1,2.1408893E2,1.8084106E0,2.17435E1,2.5631355E1,1.6557227E2,6.722412E0,5.551336E0,4.1602608E1,2.3069115E0,1.0332611E2,7.179773E1,0E0,9.879458E0,0E0,3.058812E1,4.3911667E0,3.3424377E0,0E0,0E0,9.293518E-1,0E0,4.9813976E0,0E0,0E0,0E0,0E0,0E0,0E0,0E0,0E0,0E0,0E0,0E0,0E0,0E0,0E0,0E0,0E0,0E0,0E0,0E0,0E0,0E0],"parents":[2147483647,0,0,1,1,2,2,3,3,4,4,5,5,6,6,7,7,8,8,9,9,10,10,11,11,12,12,13,13,14,14,15,15,16,16,17,17,18,18,20,20,22,22,23,23,24,24,27,27,29,29],"right_children":[2,4,6,8,10,12,14,16,18,20,22,24,26,28,30,32,34,36,38,-1,40,-1,42,44,46,-1,-1,48,-1,50,-1,-1,-1,-1,-1,-1,-1,-1,-1,-1,-1,-1,-1,-1,-1,-1,-1,-1,-1,-1,-1],"split_conditions":[1E2,1E0,1E0,1E0,1E0,2.00001E0,1E0,1E0,1E2,1E0,1E0,1E0,1E0,1E0,1E0,1E0,1E0,1E0,1E2,1.18417025E-1,1E0,1.4640278E-1,1E0,1E0,1E0,-2.1728718E-1,2.8548762E-2,1E0,4.4576596E-2,1E0,-1.1896094E-2,-4.2327136E-2,1.47459E-1,1.19493246E-1,3.287397E-2,9.027171E-2,-6.2369585E-2,-6.0791004E-2,2.7229834E-2,-1.2949974E-3,1.2659813E-1,3.3037912E-2,9.389741E-2,-4.4669654E-2,3.1887826E-2,1.6195269E-1,8.4919944E-2,-5.5326916E-2,-3.4094022E-3,1.1726367E-1,-5.982605E-3],"split_indices":[700,514,272,489,181,704,32,702,701,112,418,371,702,182,617,91,241,577,699,0,13,0,353,703,440,0,0,112,0,2,0,0,0,0,0,0,0,0,0,0,0,0,0,0,0,0,0,0,0,0,0],"split_type":[0,0,0,0,0,0,0,0,0,0,0,0,0,0,0,0,0,0,0,0,0,0,0,0,0,0,0,0,0,0,0,0,0,0,0,0,0,0,0,0,0,0,0,0,0,0,0,0,0,0,0],"sum_hessian":[1.274E3,7.44E2,5.3E2,4.56E2,2.88E2,1.56E2,3.74E2,1.29E2,3.27E2,1.81E2,1.07E2,2E1,1.36E2,3.69E2,5E0,1.22E2,7E0,2.3E2,9.7E1,1.76E2,5E0,1.2E1,9.5E1,6E0,1.4E1,1.29E2,7E0,3.68E2,1E0,3E0,2E0,1.2E2,2E0,5E0,2E0,2.19E2,1.1E1,3.6E1,6.1E1,3E0,2E0,3.3E1,6.2E1,2E0,4E0,6E0,8E0,3.67E2,1E0,2E0,1E0],"tree_param":{"num_deleted":"0","num_feature":"705","num_nodes":"51","size_leaf_vector":"1"}},{"base_weights":[-6.2568984E-3,9.897657E-1,-1.7699426E0,5.436762E-1,2.1074638E0,-3.0924401E0,-1.0494996E0,3.0709687E-1,1.9205734E0,2.2223923E0,4.242127E-1,1.496011E0,-3.8294325E0,-1.0561274E0,2.2973772E-2,1.3302183E-1,2.2925785E0,1.3832817E0,1.15295865E-1,2.2384617E0,-3.0813346E-2,1.5933975E0,-4.720734E-2,-2.6049408E-1,9.992005E-2,-2.0880437E-1,8.209079E-2,-1.067227E0,-3.3992544E-1,-4.227666E-3,7.492629E-2,1.1971765E-1,-4.1915674E-2,1.1050266E-1,1.7093299E-2,1.1280843E-1,3.7019204E-2,8.631331E-2,1.3261199E-2,-4.6183407E-2,3.5528474E-2,-5.3489607E-2,-8.019804E-3,-6.2485584E-3,-2.5661131E-2],"categories":[],"categories_nodes":[],"categories_segments":[],"categories_sizes":[],"default_left":[0,0,0,0,0,0,0,0,0,0,0,0,1,0,0,0,0,0,0,0,0,0,0,0,0,0,0,0,0,0,0,0,0,0,0,0,0,0,0,0,0,0,0,0,0],"id":4,"left_children":[1,3,5,7,9,11,13,15,17,19,21,23,25,27,-1,29,31,33,-1,35,-1,37,-1,39,-1,-1,-1,41,43,-1,-1,-1,-1,-1,-1,-1,-1,-1,-1,-1,-1,-1,-1,-1,-1],"loss_changes":[2.2292107E3,4.032135E2,4.3312952E2,1.8866827E2,4.3744995E1,5.5017505E2,3.4656372E0,1.7146951E2,1.4408844E1,1.1232422E1,2.7102243E1,2.0816936E1,2.7048853E2,1.99823E0,0E0,1.361984E2,1.4753021E1,3.1962944E1,0E0,4.032593E0,0E0,1.1304073E0,0E0,4.520235E0,0E0,0E0,0E0,5.076294E-1,1.593678E-1,0E0,0E0,0E0,0E0,0E0,0E0,0E0,0E0,0E0,0E0,0E0,0E0,0E0,0E0,0E0,0E0],"parents":[2147483647,0,0,1,1,2,2,3,3,4,4,5,5,6,6,7,7,8,8,9,9,10,10,11,11,12,12,13,13,15,15,16,16,17,17,19,19,21,21,23,23,27,27,28,28],"right_children":[2,4,6,8,10,12,14,16,18,20,22,24,26,28,-1,30,32,34,-1,36,-1,38,-1,40,-1,-1,-1,42,44,-1,-1,-1,-1,-1,-1,-1,-1,-1,-1,-1,-1,-1,-1,-1,-1],"split_conditions":[1E2,1E0,1E0,1E0,1E0,2.00001E0,1E0,1E0,1E0,1E0,2.00001E0,1E0,1E0,1E0,2.2973772E-2,1E0,1E0,2.00001E0,1.15295865E-1,1E0,-3.0813346E-2,1E0,-4.720734E-2,1E0,9.992005E-2,-2.0880437E-1,8.209079E-2,1E0,1E0,-4.227666E-3,7.492629E-2,1.1971765E-1,-4.1915674E-2,1.1050266E-1,1.7093299E-2,1.1280843E-1,3.7019204E-2,8.631331E-2,1.3261199E-2,-4.6183407E-2,3.5528474E-2,-5.3489607E-2,-8.019804E-3,-6.2485584E-3,-2.5661131E-2],"split_indices":[698,74,272,702,166,704,515,81,660,118,703,0,702,605,0,233,181,703,0,582,0,216,0,704,0,0,0,192,13,0,0,0,0,0,0,0,0,0,0,0,0,0,0,0,0],"split_type":[0,0,0,0,0,0,0,0,0,0,0,0,0,0,0,0,0,0,0,0,0,0,0,0,0,0,0,0,0,0,0,0,0,0,0,0,0,0,0,0,0,0,0,0,0],"sum_hessian":[1.267E3,8.1E2,4.57E2,5.8E2,2.3E2,1.6E2,2.97E2,4.96E2,8.4E1,2.15E2,1.5E1,2.2E1,1.38E2,2.96E2,1E0,4.57E2,3.9E1,3.7E1,4.7E1,2.14E2,1E0,8E0,7E0,5E0,1.7E1,1.3E2,8E0,2.91E2,5E0,3.95E2,6.2E1,3.8E1,1E0,2E1,1.7E1,2.11E2,3E0,7E0,1E0,3E0,2E0,2.9E2,1E0,3E0,2E0],"tree_param":{"num_deleted":"0","num_feature":"705","num_nodes":"45","size_leaf_vector":"1"}},{"base_weights":[-2.71883E-2,9.1783327E-1,-1.6471682E0,4.6893334E-1,2.0060484E0,-2.7051363E0,-7.652972E-1,4.817793E-2,1.2421446E0,2.0905302E0,5.050183E-1,-9.57114E-1,-3.5544639E0,1.34136E-1,-9.864475E-1,-1.6636272E-1,1.6707656E0,8.287256E-1,2.075125E0,2.1052277E0,-3.0043012E-2,-3.1238696E-1,1.3133141E-1,-1.1063091E-1,-5.1619537E-2,-1.9777068E-1,1.1269506E-1,-1.0257211E0,-2.6236224E-1,-1.4103725E-2,1.1527657E-1,9.094748E-2,-4.8036564E-2,2.5441725E-2,1.1271399E-1,1.0650913E-1,-3.8966767E-2,1.0628962E-1,2.2136604E-2,-4.4220753E-2,2.7546486E-2,-4.303452E-2,1.8076548E-2,-5.16509E-2,-1.7486144E-2,-1.7573265E-2,2.2399427E-2],"categories":[],"categories_nodes":[],"categories_segments":[],"categories_sizes":[],"default_left":[0,0,0,0,0,0,0,0,0,0,0,0,1,0,1,0,0,0,0,0,0,0,0,0,0,0,0,0,0,0,0,0,0,0,0,0,0,0,0,0,0,0,0,0,0,0,0],"id":5,"left_children":[1,3,5,7,9,11,13,15,17,19,21,23,25,-1,27,29,31,33,35,37,-1,39,-1,41,-1,-1,-1,43,45,-1,-1,-1,-1,-1,-1,-1,-1,-1,-1,-1,-1,-1,-1,-1,-1,-1,-1],"loss_changes":[1.9779241E3,3.9767505E2,4.420337E2,1.8830788E2,2.9124939E1,3.1728088E2,2.0166675E2,1.311677E2,6.853174E1,1.0165222E1,2.5099537E1,4.473671E0,3.4660022E2,0E0,6.726486E0,9.589737E1,1.8905136E1,6.178401E1,1.2189819E1,6.717102E0,0E0,5.919506E0,0E0,2.7902126E0,0E0,0E0,0E0,7.880554E-1,1.043574E0,0E0,0E0,0E0,0E0,0E0,0E0,0E0,0E0,0E0,0E0,0E0,0E0,0E0,0E0,0E0,0E0,0E0,0E0],"parents":[2147483647,0,0,1,1,2,2,3,3,4,4,5,5,6,6,7,7,8,8,9,9,10,10,11,11,12,12,14,14,15,15,16,16,17,17,18,18,19,19,21,21,23,23,27,27,28,28],"right_children":[2,4,6,8,10,12,14,16,18,20,22,24,26,-1,28,30,32,34,36,38,-1,40,-1,42,-1,-1,-1,44,46,-1,-1,-1,-1,-1,-1,-1,-1,-1,-1,-1,-1,-1,-1,-1,-1,-1,-1],"split_conditions":[1E2,1E0,1E0,1E0,1E0,2.00001E0,1E0,1E0,1E0,1E0,1E0,1E0,1E0,1.34136E-1,1E0,1E0,1E0,1E0,1E0,1E0,-3.0043012E-2,1E0,1.3133141E-1,1E0,-5.1619537E-2,-1.9777068E-1,1.1269506E-1,1E0,1E0,-1.4103725E-2,1.1527657E-1,9.094748E-2,-4.8036564E-2,2.5441725E-2,1.1271399E-1,1.0650913E-1,-3.8966767E-2,1.0628962E-1,2.2136604E-2,-4.4220753E-2,2.7546486E-2,-4.303452E-2,1.8076548E-2,-5.16509E-2,-1.7486144E-2,-1.7573265E-2,2.2399427E-2],"split_indices":[698,74,371,29,166,703,120,617,660,118,249,484,702,0,704,391,166,350,273,184,0,153,0,703,0,0,0,567,515,0,0,0,0,0,0,0,0,0,0,0,0,0,0,0,0,0,0],"split_type":[0,0,0,0,0,0,0,0,0,0,0,0,0,0,0,0,0,0,0,0,0,0,0,0,0,0,0,0,0,0,0,0,0,0,0,0,0,0,0,0,0,0,0,0,0,0,0],"sum_hessian":[1.29E3,8.15E2,4.75E2,5.78E2,2.37E2,2.15E2,2.6E2,3.75E2,2.03E2,2.24E2,1.3E1,7.1E1,1.44E2,1.5E1,2.45E2,3.32E2,4.3E1,1.37E2,6.6E1,2.23E2,1E0,1E1,3E0,6E0,6.5E1,1.35E2,9E0,2.32E2,1.3E1,3.18E2,1.4E1,4.1E1,2E0,1.13E2,2.4E1,6.5E1,1E0,2.2E2,3E0,6E0,4E0,2E0,4E0,2.29E2,3E0,1.2E1,1E0],"tree_param":{"num_deleted":"0","num_feature":"705","num_nodes":"47","size_leaf_vector":"1"}},{"base_weights":[-1.9726915E-2,1.0782845E0,-1.55441E0,1.2506175E0,-5.0129116E-2,-3.0066967E0,-9.5385915E-1,1.5788577E-1,1.6245887E0,1.6749657E0,-3.6386445E0,-9.784941E-1,1.5756549E0,-5.037464E-1,1.918949E0,1.6888775E0,-5.8670796E-2,3.1753856E-1,1.2201684E-1,-1.977214E-1,6.28398E-2,-9.834862E-1,2.1839442E-2,-7.3799775E-3,1.0996365E-1,-3.2751348E-2,9.236697E-2,9.8317E-2,-7.710688E-3,7.0196174E-2,1.0542687E-1,-4.249871E-2,4.2418595E-2,-4.94857E-2,-1.6483618E-2],"categories":[],"categories_nodes":[],"categories_segments":[],"categories_sizes":[],"default_left":[0,0,0,0,0,0,0,0,0,0,1,0,0,0,0,0,0,0,0,0,0,0,0,0,0,0,0,0,0,0,0,0,0,0,0],"id":6,"left_children":[1,3,5,7,-1,9,11,13,15,17,19,21,23,25,27,29,-1,31,-1,-1,-1,33,-1,-1,-1,-1,-1,-1,-1,-1,-1,-1,-1,-1,-1],"loss_changes":[2.133327E3,2.6590228E2,4.576388E2,2.78443E2,0E0,4.6171375E2,2.4909698E1,2.0487248E2,9.336072E1,1.896487E1,2.152124E2,3.0578308E0,4.6232224E0,4.6736256E1,5.019211E0,5.6473022E1,0E0,5.679132E0,0E0,0E0,0E0,1.1843872E0,0E0,0E0,0E0,0E0,0E0,0E0,0E0,0E0,0E0,0E0,0E0,0E0,0E0],"parents":[2147483647,0,0,1,1,2,2,3,3,5,5,6,6,7,7,8,8,9,9,10,10,11,11,12,12,13,13,14,14,15,15,17,17,21,21],"right_children":[2,4,6,8,-1,10,12,14,16,18,20,22,24,26,28,30,-1,32,-1,-1,-1,34,-1,-1,-1,-1,-1,-1,-1,-1,-1,-1,-1,-1,-1],"split_conditions":[1E2,1E2,1E0,1E0,-5.0129116E-2,2.00001E0,1E0,1E0,1E0,1E0,1E0,1E0,1E0,1E0,1E0,1E0,-5.8670796E-2,1E0,1.2201684E-1,-1.977214E-1,6.28398E-2,1E0,2.1839442E-2,-7.3799775E-3,1.0996365E-1,-3.2751348E-2,9.236697E-2,9.8317E-2,-7.710688E-3,7.0196174E-2,1.0542687E-1,-4.249871E-2,4.2418595E-2,-4.94857E-2,-1.6483618E-2],"split_indices":[700,698,272,489,0,704,32,129,577,371,702,515,181,702,32,660,0,703,0,0,0,567,0,0,0,0,0,0,0,0,0,0,0,0,0],"split_type":[0,0,0,0,0,0,0,0,0,0,0,0,0,0,0,0,0,0,0,0,0,0,0,0,0,0,0,0,0,0,0,0,0,0,0],"sum_hessian":[1.264E3,7.37E2,5.27E2,6.81E2,5.6E1,1.53E2,3.74E2,1.74E2,5.07E2,1.8E1,1.35E2,3.71E2,3E0,1.27E2,4.7E1,4.96E2,1.1E1,7E0,1.1E1,1.27E2,8E0,3.7E2,1E0,1E0,2E0,1.2E2,7E0,4.6E1,1E0,2.98E2,1.98E2,2E0,5E0,3.66E2,4E0],"tree_param":{"num_deleted":"0","num_feature":"705","num_nodes":"35","size_leaf_vector":"1"}},{"base_weights":[-8.8985525E-3,1.0394711E0,-1.4305643E0,5.391982E-1,1.7966002E0,-2.7969735E0,-8.9571834E-1,-4.946515E-1,9.595381E-1,9.823751E-2,1.5207108E0,1.7730583E0,-3.3476613E0,-9.024917E-1,4.364701E-2,-6.632701E-1,1.8272936E0,1.2637286E0,-4.7481667E-2,1.0051703E0,1.9158263E0,1.9500985E0,-2.6489628E-2,-1.7696543E-1,-1.2502479E-2,-9.163506E-1,-1.261856E-1,-3.735734E-2,1.4424644E-1,1.0682165E-1,2.484354E-2,6.9903046E-2,-5.6999564E-2,1.9166911E-2,1.0325094E-1,1.00962415E-1,-4.3008517E-2,4.9217384E-2,1.0486225E-1,-4.647239E-2,-2.3604441E-2,-2.2955343E-2,5.510658E-2],"categories":[],"categories_nodes":[],"categories_segments":[],"categories_sizes":[],"default_left":[0,0,0,0,0,0,0,0,0,0,0,0,1,0,0,0,0,0,0,0,0,0,0,0,0,0,0,0,0,0,0,0,0,0,0,0,0,0,0,0,0,0,0],"id":7,"left_children":[1,3,5,7,9,11,13,15,17,-1,19,21,23,25,-1,27,29,31,-1,33,35,37,-1,-1,-1,39,41,-1,-1,-1,-1,-1,-1,-1,-1,-1,-1,-1,-1,-1,-1,-1,-1],"loss_changes":[1.9032773E3,2.7742804E2,3.9359814E2,1.9342294E2,1.055835E1,3.8846814E2,5.4718933E0,5.171848E1,1.8471765E2,0E0,2.1499512E1,7.963997E0,7.98512E1,4.0802917E0,0E0,3.8166424E1,2.6400414E0,8.974472E1,0E0,3.3478897E1,2.0111237E1,2.0929718E-1,0E0,0E0,0E0,1.7897034E0,3.7774594E0,0E0,0E0,0E0,0E0,0E0,0E0,0E0,0E0,0E0,0E0,0E0,0E0,0E0,0E0,0E0,0E0],"parents":[2147483647,0,0,1,1,2,2,3,3,4,4,5,5,6,6,7,7,8,8,10,10,11,11,12,12,13,13,15,15,16,16,17,17,19,19,20,20,21,21,25,25,26,26],"right_children":[2,4,6,8,10,12,14,16,18,-1,20,22,24,26,-1,28,30,32,-1,34,36,38,-1,-1,-1,40,42,-1,-1,-1,-1,-1,-1,-1,-1,-1,-1,-1,-1,-1,-1,-1,-1],"split_conditions":[1E2,1E0,1E0,1E0,1E0,2.00001E0,1E0,1E0,1E2,9.823751E-2,1E0,1E0,1E0,1E0,4.364701E-2,1E0,1E0,1E0,-4.7481667E-2,1E0,1E0,1E0,-2.6489628E-2,-1.7696543E-1,-1.2502479E-2,1E0,1E0,-3.735734E-2,1.4424644E-1,1.0682165E-1,2.484354E-2,6.9903046E-2,-5.6999564E-2,1.9166911E-2,1.0325094E-1,1.00962415E-1,-4.3008517E-2,4.9217384E-2,1.0486225E-1,-4.647239E-2,-2.3604441E-2,-2.2955343E-2,5.510658E-2],"split_indices":[700,514,252,489,181,704,182,702,698,0,660,456,702,567,0,91,241,577,0,350,149,371,0,0,0,47,350,0,0,0,0,0,0,0,0,0,0,0,0,0,0,0,0],"split_type":[0,0,0,0,0,0,0,0,0,0,0,0,0,0,0,0,0,0,0,0,0,0,0,0,0,0,0,0,0,0,0,0,0,0,0,0,0,0,0,0,0,0,0],"sum_hessian":[1.275E3,7.34E2,5.41E2,4.43E2,2.91E2,1.51E2,3.9E2,1.28E2,3.15E2,1.77E2,1.14E2,1.6E1,1.35E2,3.89E2,1E0,1.2E2,8E0,2.72E2,4.3E1,5.1E1,6.3E1,1.5E1,1E0,1.27E2,8E0,3.82E2,7E0,1.18E2,2E0,6E0,2E0,2.58E2,1.4E1,3.3E1,1.8E1,6.1E1,2E0,3E0,1.2E1,3.7E2,1.2E1,6E0,1E0],"tree_param":{"num_deleted":"0","num_feature":"705","num_nodes":"43","size_leaf_vector":"1"}},{"base_weights":[4.1371826E-2,1.0420188E0,-1.3550892E0,6.762798E-1,1.8315634E0,-2.5830457E0,-8.6034054E-1,3.8172242E-1,1.6465818E0,1.8448335E0,-3.150995E-2,-3.027257E0,2.0118403E0,-8.726802E-1,2.3966932E-1,-4.4824958E-1,7.826872E-1,7.3701984E-1,1.8590333E0,1.8581048E0,-3.0852396E-2,1.1252056E0,-1.6616952E-1,1.1116137E-1,9.2756516E-1,-8.795466E-1,4.2555835E-2,-1.1885128E-2,5.372892E-2,-2.778062E-2,9.13698E-2,5.2752376E-2,-4.5839753E-2,1.034024E-1,-6.666122E-2,9.48422E-2,-4.2379163E-2,9.4669186E-2,3.867985E-2,6.825084E-2,-2.5827391E-2,7.258551E-2,1.344734E-2,-4.4214997E-2,2.2455266E-2],"categories":[],"categories_nodes":[],"categories_segments":[],"categories_sizes":[],"default_left":[0,0,0,0,0,1,0,0,0,0,0,0,0,0,0,0,0,0,0,0,0,0,0,0,0,0,0,0,0,0,0,0,0,0,0,0,0,0,0,0,0,0,0,0,0],"id":8,"left_children":[1,3,5,7,9,11,13,15,17,19,-1,21,23,25,27,29,31,33,35,37,-1,39,-1,-1,41,43,-1,-1,-1,-1,-1,-1,-1,-1,-1,-1,-1,-1,-1,-1,-1,-1,-1,-1,-1],"loss_changes":[1.7774622E3,2.1273792E2,3.2037604E2,1.4456271E2,8.806946E0,3.163376E2,5.367157E0,1.3047156E2,2.1431915E1,8.759155E0,0E0,1.7466553E2,1.1466446E0,5.199066E0,2.2482407E0,3.228824E1,1.23165344E2,6.889044E1,1.1329926E1,7.411682E0,0E0,4.642207E0,0E0,0E0,9.9041295E-1,2.7654724E0,0E0,0E0,0E0,0E0,0E0,0E0,0E0,0E0,0E0,0E0,0E0,0E0,0E0,0E0,0E0,0E0,0E0,0E0,0E0],"parents":[2147483647,0,0,1,1,2,2,3,3,4,4,5,5,6,6,7,7,8,8,9,9,11,11,12,12,13,13,14,14,15,15,16,16,17,17,18,18,19,19,21,21,24,24,25,25],"right_children":[2,4,6,8,10,12,14,16,18,20,-1,22,24,26,28,30,32,34,36,38,-1,40,-1,-1,42,44,-1,-1,-1,-1,-1,-1,-1,-1,-1,-1,-1,-1,-1,-1,-1,-1,-1,-1,-1],"split_conditions":[1E2,1E0,1E0,1E0,1E0,1E0,1E0,1E0,1E0,1E0,-3.150995E-2,2.00001E0,1E0,1E0,1E0,1E0,1E2,1E0,1E0,1E0,-3.0852396E-2,1E0,-1.6616952E-1,1.1116137E-1,1E0,1E0,4.2555835E-2,-1.1885128E-2,5.372892E-2,-2.778062E-2,9.13698E-2,5.2752376E-2,-4.5839753E-2,1.034024E-1,-6.666122E-2,9.48422E-2,-4.2379163E-2,9.4669186E-2,3.867985E-2,6.825084E-2,-2.5827391E-2,7.258551E-2,1.344734E-2,-4.4214997E-2,2.2455266E-2],"split_indices":[700,74,272,353,56,702,32,489,29,118,0,703,440,182,4,702,698,604,166,112,0,456,0,0,704,515,0,0,0,0,0,0,0,0,0,0,0,0,0,0,0,0,0,0,0],"split_type":[0,0,0,0,0,0,0,0,0,0,0,0,0,0,0,0,0,0,0,0,0,0,0,0,0,0,0,0,0,0,0,0,0,0,0,0,0,0,0,0,0,0,0,0,0],"sum_hessian":[1.27E3,7.4E2,5.3E2,5.07E2,2.33E2,1.51E2,3.79E2,3.9E2,1.17E2,2.32E2,1E0,1.38E2,1.3E1,3.75E2,4E0,1.27E2,2.63E2,2.3E1,9.4E1,2.31E2,1E0,9E0,1.29E2,1E1,3E0,3.74E2,1E0,3E0,1E0,1.22E2,5E0,2.27E2,3.6E1,1.4E1,9E0,9.3E1,1E0,2.23E2,8E0,8E0,1E0,1E0,2E0,3.73E2,1E0],"tree_param":{"num_deleted":"0","num_feature":"705","num_nodes":"45","size_leaf_vector":"1"}},{"base_weights":[1.9343447E-2,7.762662E-1,-1.3769158E0,1.0684186E0,-8.706804E-2,-2.23083E0,-6.284403E-1,2.1337312E-1,1.3554572E0,-3.2018724E-1,2.0040498E0,-2.4336014E0,1.0035634E-1,1.9479694E0,-7.981622E-1,-4.5908374E-1,1.7683609E0,1.4306126E0,-5.651156E-2,-6.3339233E-1,-7.7168494E-2,9.703934E-4,2.3378425E0,-8.245667E-1,-1.5979712E-1,1.3308516E-1,5.8820117E-2,-8.3320075E-1,-1.6536763E-1,-2.9698187E-2,7.955813E-2,9.05047E-2,4.3360315E-2,5.6985248E-2,9.0930805E-2,-3.5821885E-2,8.961404E-2,-1.7989818E-2,3.1366598E-2,-3.5944473E-2,5.4013748E-2,1.4062409E-1,7.7535264E-2,-1.9364005E-2,-4.2344622E-2,-4.2044472E-2,-8.630951E-4,-1.26063945E-2,2.1893883E-2],"categories":[],"categories_nodes":[],"categories_segments":[],"categories_sizes":[],"default_left":[0,0,0,0,0,1,0,0,0,0,0,0,0,0,1,0,0,0,0,0,0,0,0,0,0,0,0,0,0,0,0,0,0,0,0,0,0,0,0,0,0,0,0,0,0,0,0,0,0],"id":9,"left_children":[1,3,5,7,9,11,13,15,17,19,21,23,-1,25,27,29,31,33,-1,35,37,39,41,43,-1,-1,-1,45,47,-1,-1,-1,-1,-1,-1,-1,-1,-1,-1,-1,-1,-1,-1,-1,-1,-1,-1,-1,-1],"loss_changes":[1.3348268E3,2.0666544E2,2.8237347E2,1.4991461E2,1.0203746E2,1.8276721E2,1.05625824E2,1.6288947E2,8.717731E1,1.4260689E1,1.4038605E1,2.4023804E2,0E0,5.1291695E0,4.828766E0,3.1087648E1,1.9786072E-1,4.8155823E1,0E0,1.7802204E1,2.1530634E1,3.8843904E0,2.3635788E0,3.0659485E-1,0E0,0E0,0E0,1.3154755E0,7.907914E-1,0E0,0E0,0E0,0E0,0E0,0E0,0E0,0E0,0E0,0E0,0E0,0E0,0E0,0E0,0E0,0E0,0E0,0E0,0E0,0E0],"parents":[2147483647,0,0,1,1,2,2,3,3,4,4,5,5,6,6,7,7,8,8,9,9,10,10,11,11,13,13,14,14,15,15,16,16,17,17,19,19,20,20,21,21,22,22,23,23,27,27,28,28],"right_children":[2,4,6,8,10,12,14,16,18,20,22,24,-1,26,28,30,32,34,-1,36,38,40,42,44,-1,-1,-1,46,48,-1,-1,-1,-1,-1,-1,-1,-1,-1,-1,-1,-1,-1,-1,-1,-1,-1,-1,-1,-1],"split_conditions":[1E2,1E2,1E0,1E0,1E0,1E0,1E0,1E0,1E0,1E0,1E0,2.00001E0,1.0035634E-1,1E0,1E0,1E0,1E0,1E0,-5.651156E-2,1E0,1E0,1E0,1E0,1E0,-1.5979712E-1,1.3308516E-1,5.8820117E-2,1E0,1E0,-2.9698187E-2,7.955813E-2,9.05047E-2,4.3360315E-2,5.6985248E-2,9.0930805E-2,-3.5821885E-2,8.961404E-2,-1.7989818E-2,3.1366598E-2,-3.5944473E-2,5.4013748E-2,1.4062409E-1,7.7535264E-2,-1.9364005E-2,-4.2344622E-2,-4.2044472E-2,-8.630951E-4,-1.26063945E-2,2.1893883E-2],"split_indices":[698,701,371,489,331,702,65,129,577,376,489,703,0,440,704,702,241,660,0,582,29,16,404,483,0,0,0,567,515,0,0,0,0,0,0,0,0,0,0,0,0,0,0,0,0,0,0,0,0],"split_type":[0,0,0,0,0,0,0,0,0,0,0,0,0,0,0,0,0,0,0,0,0,0,0,0,0,0,0,0,0,0,0,0,0,0,0,0,0,0,0,0,0,0,0,0,0,0,0,0,0],"sum_hessian":[1.261E3,8.18E2,4.43E2,6.11E2,2.07E2,2.06E2,2.37E2,1.54E2,4.57E2,1.87E2,2E1,1.97E2,9E0,1.4E1,2.23E2,1.08E2,4.6E1,4.44E2,1.3E1,8.1E1,1.06E2,3E0,1.7E1,6.4E1,1.33E2,6E0,8E0,2.11E2,1.2E1,1.02E2,6E0,4.3E1,3E0,2.56E2,1.88E2,7.9E1,2E0,7.6E1,3E1,2E0,1E0,9E0,8E0,4E0,6E1,2.09E2,2E0,1.1E1,1E0],"tree_param":{"num_deleted":"0","num_feature":"705","num_nodes":"49","size_leaf_vector":"1"}},{"base_weights":[1.6685396E-2,7.3629576E-1,-1.314227E0,3.6030445E-1,1.591701E0,-2.1164622E0,-5.6856936E-1,1.2116578E-1,1.1278223E0,1.6540345E0,6.364039E-1,-7.5528777E-1,-2.8013163E0,1.9249899E0,-7.6218945E-1,-8.802978E-3,1.8890344E0,1.5797541E0,2.6636887E-1,1.6666336E0,-3.2354355E-2,1.6970398E0,-3.8447075E-2,-1.6400422E-1,-4.0289536E-2,-1.525784E-1,6.179563E-2,1.2559871E-1,5.6205887E-2,-7.928792E-1,-1.743902E-1,-1.4099698E-2,3.7284296E-2,9.745064E-2,3.4977872E-2,8.0644175E-2,-3.339044E-2,1.02428876E-1,-3.0290207E-2,8.494007E-2,2.7277172E-2,1.1125826E-1,3.6194075E-2,-4.0282946E-2,1.2689471E-2,-2.2532457E-2,-4.0224466E-2,-1.3393382E-2,2.1346537E-2],"categories":[],"categories_nodes":[],"categories_segments":[],"categories_sizes":[],"default_left":[0,0,0,0,0,0,0,0,0,0,0,0,1,0,1,0,0,0,0,0,0,0,0,0,0,0,0,0,0,0,0,0,0,0,0,0,0,0,0,0,0,0,0,0,0,0,0,0,0],"id":10,"left_children":[1,3,5,7,9,11,13,15,17,19,21,23,25,27,29,31,33,35,37,39,-1,41,-1,43,-1,-1,-1,-1,-1,45,47,-1,-1,-1,-1,-1,-1,-1,-1,-1,-1,-1,-1,-1,-1,-1,-1,-1,-1],"loss_changes":[1.2144221E3,2.6412393E2,2.6499243E2,1.05033585E2,1.3893677E1,1.9737622E2,1.1347755E2,1.0065487E2,5.2526505E1,7.8916016E0,2.664444E1,2.047741E0,1.4723743E2,5.1679306E0,3.758255E0,8.4513176E1,7.7684784E-1,7.7040253E0,7.585197E1,7.511902E0,0E0,3.52874E0,0E0,2.0810225E0,0E0,0E0,0E0,0E0,0E0,4.519806E-1,7.888801E-1,0E0,0E0,0E0,0E0,0E0,0E0,0E0,0E0,0E0,0E0,0E0,0E0,0E0,0E0,0E0,0E0,0E0,0E0],"parents":[2147483647,0,0,1,1,2,2,3,3,4,4,5,5,6,6,7,7,8,8,9,9,10,10,11,11,12,12,13,13,14,14,15,15,16,16,17,17,18,18,19,19,21,21,23,23,29,29,30,30],"right_children":[2,4,6,8,10,12,14,16,18,20,22,24,26,28,30,32,34,36,38,40,-1,42,-1,44,-1,-1,-1,-1,-1,46,48,-1,-1,-1,-1,-1,-1,-1,-1,-1,-1,-1,-1,-1,-1,-1,-1,-1,-1],"split_conditions":[1E2,1E0,1E0,1E0,1E0,2.00001E0,1E0,1E0,1E2,1E0,2.00001E0,1E0,1E0,1E0,1E0,1E0,1E2,1E0,1E0,1E0,-3.2354355E-2,1E2,-3.8447075E-2,1E0,-4.0289536E-2,-1.525784E-1,6.179563E-2,1.2559871E-1,5.6205887E-2,1E0,1E0,-1.4099698E-2,3.7284296E-2,9.745064E-2,3.4977872E-2,8.0644175E-2,-3.339044E-2,1.02428876E-1,-3.0290207E-2,8.494007E-2,2.7277172E-2,1.1125826E-1,3.6194075E-2,-4.0282946E-2,1.2689471E-2,-2.2532457E-2,-4.0224466E-2,-1.3393382E-2,2.1346537E-2],"split_indices":[698,74,371,603,166,703,65,350,701,118,703,484,702,440,704,660,701,7,153,112,0,701,0,703,0,0,0,0,0,703,515,0,0,0,0,0,0,0,0,0,0,0,0,0,0,0,0,0,0],"split_type":[0,0,0,0,0,0,0,0,0,0,0,0,0,0,0,0,0,0,0,0,0,0,0,0,0,0,0,0,0,0,0,0,0,0,0,0,0,0,0,0,0,0,0,0,0,0,0,0,0],"sum_hessian":[1.266E3,8.22E2,4.44E2,5.72E2,2.5E2,2.13E2,2.31E2,4.37E2,1.35E2,2.34E2,1.6E1,7.2E1,1.41E2,1.6E1,2.15E2,4.08E2,2.9E1,8.8E1,4.7E1,2.33E2,1E0,9E0,7E0,6E0,6.6E1,1.33E2,8E0,8E0,8E0,2.04E2,1.1E1,3E2,1.08E2,2.7E1,2E0,8.7E1,1E0,1.5E1,3.2E1,2.26E2,7E0,5E0,4E0,2E0,4E0,8E0,1.96E2,1E1,1E0],"tree_param":{"num_deleted":"0","num_feature":"705","num_nodes":"49","size_leaf_vector":"1"}},{"base_weights":[3.6330957E-2,8.6418414E-1,-1.1293302E0,1.0108738E0,-7.900215E-1,-1.8379276E0,-5.911874E-1,2.2050662E-1,1.2390509E0,-4.0121075E-2,-2.8281364E-1,-7.2141206E-1,-2.6958466E0,1.8394347E0,-7.3409754E-1,-4.5034474E-1,1.5841936E0,1.3039025E0,-5.3506166E-2,-2.308473E-2,1.8737077E-3,7.2391975E-1,-4.025512E-2,-3.0401125E0,8.352507E-2,1.2001655E-1,5.370785E-2,-1.5124051E-1,-3.9725404E-2,-3.0547151E-2,5.601866E-2,8.052389E-2,6.7495215E-3,8.845379E-2,5.4841906E-2,-3.657903E-2,5.8066797E-2,-1.5393893E-1,-8.993835E-2,5.107292E-2,-1.40367495E-2],"categories":[],"categories_nodes":[],"categories_segments":[],"categories_sizes":[],"default_left":[0,0,0,0,1,0,0,0,0,0,0,0,1,0,0,0,0,0,0,0,0,0,0,0,0,0,0,0,0,0,0,0,0,0,0,0,0,0,0,0,0],"id":11,"left_children":[1,3,5,7,9,11,13,15,17,-1,19,21,23,25,27,29,31,33,-1,-1,-1,35,-1,37,-1,-1,-1,39,-1,-1,-1,-1,-1,-1,-1,-1,-1,-1,-1,-1,-1],"loss_changes":[1.2245912E3,1.8084851E2,1.9987256E2,1.2272119E2,1.567154E-1,2.1549384E2,1.0590584E2,1.4159744E2,8.061493E1,0E0,1.8918179E-1,1.2678856E1,1.974862E2,4.718773E0,9.914871E0,2.6918957E1,1.7252502E0,4.7664795E1,0E0,0E0,0E0,4.6695676E0,0E0,1.7370605E-1,0E0,0E0,0E0,4.5387836E0,0E0,0E0,0E0,0E0,0E0,0E0,0E0,0E0,0E0,0E0,0E0,0E0,0E0],"parents":[2147483647,0,0,1,1,2,2,3,3,4,4,5,5,6,6,7,7,8,8,10,10,11,11,12,12,13,13,14,14,15,15,16,16,17,17,21,21,23,23,27,27],"right_children":[2,4,6,8,10,12,14,16,18,-1,20,22,24,26,28,30,32,34,-1,-1,-1,36,-1,38,-1,-1,-1,40,-1,-1,-1,-1,-1,-1,-1,-1,-1,-1,-1,-1,-1],"split_conditions":[1E2,1E2,1E0,1E0,1E0,2.00001E0,1E0,1E0,1E0,-4.0121075E-2,1E0,1E0,1E0,1E0,2.00001E0,1E0,1E0,2.00001E0,-5.3506166E-2,-2.308473E-2,1.8737077E-3,1E0,-4.025512E-2,1E0,8.352507E-2,1.2001655E-1,5.370785E-2,1E0,-3.9725404E-2,-3.0547151E-2,5.601866E-2,8.052389E-2,6.7495215E-3,8.845379E-2,5.4841906E-2,-3.657903E-2,5.8066797E-2,-1.5393893E-1,-8.993835E-2,5.107292E-2,-1.40367495E-2],"split_indices":[700,698,371,489,704,703,65,514,577,0,65,272,702,440,703,637,331,703,0,0,0,703,0,702,0,0,0,489,0,0,0,0,0,0,0,0,0,0,0,0,0],"split_type":[0,0,0,0,0,0,0,0,0,0,0,0,0,0,0,0,0,0,0,0,0,0,0,0,0,0,0,0,0,0,0,0,0,0,0,0,0,0,0,0,0],"sum_hessian":[1.267E3,7.41E2,5.26E2,6.81E2,6E1,2.26E2,3E2,1.53E2,5.28E2,5.8E1,2E0,9.9E1,1.27E2,1.6E1,2.84E2,1.03E2,5E1,5.14E2,1.4E1,1E0,1E0,5E0,9.4E1,1.18E2,9E0,8E0,8E0,2.7E1,2.57E2,9.4E1,9E0,4.9E1,1E0,1.56E2,3.58E2,1E0,4E0,1.13E2,5E0,2E0,2.5E1],"tree_param":{"num_deleted":"0","num_feature":"705","num_nodes":"41","size_leaf_vector":"1"}},{"base_weights":[-4.141637E-2,7.7915245E-1,-1.1339207E0,4.6625644E-1,1.5261511E0,-2.1635094E0,-7.095452E-1,2.06537E-1,1.3488654E0,1.5397191E0,-3.375684E-2,1.4229426E0,-2.6347885E0,-7.2559893E-1,6.588698E-1,-2.2484269E-2,1.4406593E0,6.2085617E-1,1.5032585E0,1.5523442E0,-2.8104752E-2,2.2686101E-1,1.0508759E-1,-1.4033242E-1,5.1574912E-2,-7.31719E-1,4.0153842E-2,-9.938065E-3,1.02234855E-1,-8.519275E-3,9.5058426E-2,-1.949775E-2,8.4036835E-2,7.874618E-2,-6.228136E-2,7.683568E-2,-4.103793E-2,7.845802E-2,-6.831487E-3,-3.8882367E-2,3.456525E-2,-3.6793616E-2,2.1163793E-2],"categories":[],"categories_nodes":[],"categories_segments":[],"categories_sizes":[],"default_left":[0,0,0,0,0,0,0,0,0,0,0,0,1,0,0,0,0,0,0,0,0,0,0,0,0,0,0,0,0,0,0,0,0,0,0,0,0,0,0,0,0,0,0],"id":12,"left_children":[1,3,5,7,9,11,13,15,17,19,-1,21,23,25,27,29,31,33,35,37,-1,39,-1,-1,-1,41,-1,-1,-1,-1,-1,-1,-1,-1,-1,-1,-1,-1,-1,-1,-1,-1,-1],"loss_changes":[1.1349242E3,1.6827731E2,2.3571906E2,1.168583E2,7.4012146E0,2.708039E2,8.957779E0,1.1195793E2,1.2105057E1,6.4981384E0,0E0,1.4949509E1,9.110724E1,4.161499E0,6.349049E0,9.563497E1,2.7903748E1,4.1138287E1,8.647522E0,6.207306E0,0E0,4.269894E0,0E0,0E0,0E0,2.1391602E0,0E0,0E0,0E0,0E0,0E0,0E0,0E0,0E0,0E0,0E0,0E0,0E0,0E0,0E0,0E0,0E0,0E0],"parents":[2147483647,0,0,1,1,2,2,3,3,4,4,5,5,6,6,7,7,8,8,9,9,11,11,12,12,13,13,14,14,15,15,16,16,17,17,18,18,19,19,21,21,25,25],"right_children":[2,4,6,8,10,12,14,16,18,20,-1,22,24,26,28,30,32,34,36,38,-1,40,-1,-1,-1,42,-1,-1,-1,-1,-1,-1,-1,-1,-1,-1,-1,-1,-1,-1,-1,-1,-1],"split_conditions":[1E2,1E0,1E0,1E0,1E0,2.00001E0,1E0,1E0,1E0,1E0,-3.375684E-2,1E0,1E0,1E0,1E0,1E0,1E0,1E0,1E0,1E0,-2.8104752E-2,1E0,1.0508759E-1,-1.4033242E-1,5.1574912E-2,1E0,4.0153842E-2,-9.938065E-3,1.02234855E-1,-8.519275E-3,9.5058426E-2,-1.949775E-2,8.4036835E-2,7.874618E-2,-6.228136E-2,7.683568E-2,-4.103793E-2,7.845802E-2,-6.831487E-3,-3.8882367E-2,3.456525E-2,-3.6793616E-2,2.1163793E-2],"split_indices":[700,74,272,353,118,704,32,233,29,56,0,371,702,182,418,81,489,604,166,582,0,704,0,0,0,515,0,0,0,0,0,0,0,0,0,0,0,0,0,0,0,0,0],"split_type":[0,0,0,0,0,0,0,0,0,0,0,0,0,0,0,0,0,0,0,0,0,0,0,0,0,0,0,0,0,0,0,0,0,0,0,0,0,0,0,0,0,0,0],"sum_hessian":[1.264E3,7.22E2,5.42E2,5.1E2,2.12E2,1.57E2,3.85E2,3.95E2,1.15E2,2.11E2,1E0,1.8E1,1.39E2,3.81E2,4E0,3.34E2,6.1E1,2.1E1,9.4E1,2.1E2,1E0,7E0,1.1E1,1.33E2,6E0,3.8E2,1E0,3E0,1E0,3.11E2,2.3E1,7E0,5.4E1,1.4E1,7E0,9.3E1,1E0,2.08E2,2E0,2E0,5E0,3.79E2,1E0],"tree_param":{"num_deleted":"0","num_feature":"705","num_nodes":"43","size_leaf_vector":"1"}},{"base_weights":[-1.19537E-2,8.1633395E-1,-8.248367E-1,5.4182697E-2,1.0887645E0,-2.0207257E0,-4.3998072E-1,-4.2616087E-1,1.4175637E0,7.960272E-1,1.5076098E0,-2.4849958E0,9.7442545E-2,-5.07385E-1,6.4901143E-1,-5.0249034E-1,1.4227001E-1,7.506083E-2,2.0573166E-1,8.7379485E-1,-4.9707867E-2,1.5224737E0,-3.291292E-2,7.0704126E-1,-1.3937053E-1,-5.8552915E-1,5.609743E-1,1.2305579E0,-5.7898265E-1,-2.8981E-2,9.68511E-2,4.1008126E-2,-1.3623307E-2,3.0537957E-2,6.4536355E-2,7.6857515E-2,-3.128492E-2,4.914765E-2,-2.7015775E-2,-2.9983832E-2,8.163691E-2,6.03606E-2,-1.780661E-2,7.330397E-2,-2.9637843E-2,-3.133266E-2,-3.7486868E-3],"categories":[],"categories_nodes":[],"categories_segments":[],"categories_sizes":[],"default_left":[0,0,0,0,0,1,0,0,0,0,0,0,0,0,0,0,0,0,0,0,0,0,0,0,0,0,0,0,0,0,0,0,0,0,0,0,0,0,0,0,0,0,0,0,0,0,0],"id":13,"left_children":[1,3,5,7,9,11,13,15,17,19,21,23,-1,25,27,29,-1,-1,31,33,-1,35,-1,37,-1,39,41,43,45,-1,-1,-1,-1,-1,-1,-1,-1,-1,-1,-1,-1,-1,-1,-1,-1,-1,-1],"loss_changes":[8.618252E2,1.3158054E2,2.9642917E2,1.10625854E2,5.605957E1,2.9418695E2,3.629666E1,3.2644344E1,4.1515656E0,3.9432175E1,7.151062E0,1.3808069E2,0E0,3.8898994E1,2.1422401E1,2.4266264E1,0E0,0E0,1.3987445E0,2.8383392E1,0E0,6.9520264E0,0E0,5.005189E0,0E0,1.4505157E1,1.9395329E1,9.457624E0,1.9328165E-1,0E0,0E0,0E0,0E0,0E0,0E0,0E0,0E0,0E0,0E0,0E0,0E0,0E0,0E0,0E0,0E0,0E0,0E0],"parents":[2147483647,0,0,1,1,2,2,3,3,4,4,5,5,6,6,7,7,8,8,9,9,10,10,11,11,13,13,14,14,15,15,18,18,19,19,21,21,23,23,25,25,26,26,27,27,28,28],"right_children":[2,4,6,8,10,12,14,16,18,20,22,24,-1,26,28,30,-1,-1,32,34,-1,36,-1,38,-1,40,42,44,46,-1,-1,-1,-1,-1,-1,-1,-1,-1,-1,-1,-1,-1,-1,-1,-1,-1,-1],"split_conditions":[1E2,1E0,1E0,1E0,1E0,1E0,1E0,1E0,1E0,1E0,1E0,2.00001E0,9.7442545E-2,1E0,1E0,1E0,1.4227001E-1,7.506083E-2,1E0,1E0,-4.9707867E-2,1E0,-3.291292E-2,1E0,-1.3937053E-1,1E0,2.00001E0,1E0,1E0,-2.8981E-2,9.68511E-2,4.1008126E-2,-1.3623307E-2,3.0537957E-2,6.4536355E-2,7.6857515E-2,-3.128492E-2,4.914765E-2,-2.7015775E-2,-2.9983832E-2,8.163691E-2,6.03606E-2,-1.780661E-2,7.330397E-2,-2.9637843E-2,-3.133266E-2,-3.7486868E-3],"split_indices":[701,489,406,129,660,702,74,91,241,577,118,703,0,331,181,353,0,0,2,603,0,7,0,459,0,346,703,418,418,0,0,0,0,0,0,0,0,0,0,0,0,0,0,0,0,0,0],"split_type":[0,0,0,0,0,0,0,0,0,0,0,0,0,0,0,0,0,0,0,0,0,0,0,0,0,0,0,0,0,0,0,0,0,0,0,0,0,0,0,0,0,0,0,0,0,0,0],"sum_hessian":[1.278E3,6.33E2,6.45E2,1.67E2,4.66E2,1.56E2,4.89E2,1.24E2,4.3E1,2.76E2,1.9E2,1.4E2,1.6E1,4.61E2,2.8E1,1.22E2,2E0,4E1,3E0,2.65E2,1.1E1,1.89E2,1E0,1.2E1,1.28E2,4.3E2,3.1E1,1.9E1,9E0,1.19E2,3E0,1E0,2E0,1.64E2,1.01E2,1.88E2,1E0,1E1,2E0,4.28E2,2E0,1.8E1,1.3E1,1.7E1,2E0,8E0,1E0],"tree_param":{"num_deleted":"0","num_feature":"705","num_nodes":"47","size_leaf_vector":"1"}},{"base_weights":[-1.3998417E-2,7.150489E-1,-1.0037836E0,3.4770498E-1,1.2585839E0,-1.8720617E0,-6.628862E-1,1.5779212E-1,1.423398E0,1.0486526E0,1.4398947E0,1.1285905E0,-2.315886E0,-6.684997E-1,3.7317395E-2,-2.1658743E-2,1.1435777E0,4.5999905E-1,7.480073E-2,1.5791392E0,9.1261905E-1,1.2953957E0,1.9304696E0,-9.614249E-3,1.508633E0,-1.2080642E-1,-3.4429308E-2,-6.722426E-1,1.9125683E-2,-8.190363E-3,8.919755E-2,-4.286979E-2,6.762337E-2,-4.1665234E-2,4.4266038E-2,8.8162445E-2,-2.4074338E-2,-3.6771752E-2,6.060614E-2,6.687284E-2,-4.0942445E-2,1.0974725E-1,7.0737846E-2,-3.7757378E-2,1.4526096E-2,1.15112E-1,5.0537705E-2,-2.472049E-2,-3.4965273E-2],"categories":[],"categories_nodes":[],"categories_segments":[],"categories_sizes":[],"default_left":[0,0,0,0,0,0,0,0,0,0,1,0,1,0,0,0,0,0,0,0,0,0,0,0,1,0,0,0,0,0,0,0,0,0,0,0,0,0,0,0,0,0,0,0,0,0,0,0,0],"id":14,"left_children":[1,3,5,7,9,11,13,15,17,19,21,23,25,27,-1,29,31,33,-1,35,37,39,41,43,45,-1,-1,47,-1,-1,-1,-1,-1,-1,-1,-1,-1,-1,-1,-1,-1,-1,-1,-1,-1,-1,-1,-1,-1],"loss_changes":[9.0849084E2,1.4431897E2,1.568197E2,8.843636E1,9.604401E0,2.0237799E2,3.5445557E0,6.54778E1,3.8591614E0,8.58963E0,8.415955E0,8.665825E0,1.9705566E1,1.7677307E0,0E0,8.088495E1,2.498462E1,4.038162E0,0E0,1.109227E1,5.6668053E1,1.1944336E1,1.3956604E0,1.5619562E0,3.5998077E0,0E0,0E0,1.4974976E0,0E0,0E0,0E0,0E0,0E0,0E0,0E0,0E0,0E0,0E0,0E0,0E0,0E0,0E0,0E0,0E0,0E0,0E0,0E0,0E0,0E0],"parents":[2147483647,0,0,1,1,2,2,3,3,4,4,5,5,6,6,7,7,8,8,9,9,10,10,11,11,12,12,13,13,15,15,16,16,17,17,19,19,20,20,21,21,22,22,23,23,24,24,27,27],"right_children":[2,4,6,8,10,12,14,16,18,20,22,24,26,28,-1,30,32,34,-1,36,38,40,42,44,46,-1,-1,48,-1,-1,-1,-1,-1,-1,-1,-1,-1,-1,-1,-1,-1,-1,-1,-1,-1,-1,-1,-1,-1],"split_conditions":[1E2,1E0,1E0,1E0,1E0,2.00001E0,1E0,1E0,1E0,1E0,1E0,1E0,1E0,1E0,3.7317395E-2,1E0,1E0,1E0,7.480073E-2,1E0,1E0,1E0,1E0,1E0,1E0,-1.2080642E-1,-3.4429308E-2,1E0,1.9125683E-2,-8.190363E-3,8.919755E-2,-4.286979E-2,6.762337E-2,-4.1665234E-2,4.4266038E-2,8.8162445E-2,-2.4074338E-2,-3.6771752E-2,6.060614E-2,6.687284E-2,-4.0942445E-2,1.0974725E-1,7.0737846E-2,-3.7757378E-2,1.4526096E-2,1.15112E-1,5.0537705E-2,-2.472049E-2,-3.4965273E-2],"split_indices":[700,514,459,74,660,704,184,233,543,376,703,371,702,515,0,81,224,704,0,2,617,149,702,703,703,0,0,703,0,0,0,0,0,0,0,0,0,0,0,0,0,0,0,0,0,0,0,0,0],"split_type":[0,0,0,0,0,0,0,0,0,0,0,0,0,0,0,0,0,0,0,0,0,0,0,0,0,0,0,0,0,0,0,0,0,0,0,0,0,0,0,0,0,0,0,0,0,0,0,0,0],"sum_hessian":[1.257E3,7.24E2,5.33E2,4.33E2,2.91E2,1.49E2,3.84E2,3.69E2,6.4E1,1.38E2,1.53E2,1.9E1,1.3E2,3.83E2,1E0,3.13E2,5.6E1,5E0,5.9E1,2.6E1,1.12E2,1.21E2,3.2E1,5E0,1.4E1,1.22E2,8E0,3.82E2,1E0,2.91E2,2.2E1,5E0,5.1E1,1E0,4E0,2.4E1,2E0,1.7E1,9.5E1,1.19E2,2E0,1.9E1,1.3E1,1E0,4E0,4E0,1E1,5.3E1,3.29E2],"tree_param":{"num_deleted":"0","num_feature":"705","num_nodes":"49","size_leaf_vector":"1"}},{"base_weights":[3.0928321E-2,7.147328E-1,-9.4358426E-1,8.3025026E-1,-7.0630807E-1,-1.7053834E0,-6.2448925E-1,5.964635E-1,1.3127704E0,-3.593065E-2,-2.4528284E-1,1.1935669E0,-2.1436987E0,-6.460453E-1,1.5255691E0,3.801135E-1,1.2534271E0,1.3241278E0,-3.1066537E-2,-2.1365345E-2,2.9691309E-3,1.3267293E0,-3.674196E-2,-2.349947E0,5.024413E-2,-7.329316E-1,-5.9649646E-1,-3.1195686E-3,1.0378432E-1,6.1250417E-3,4.961552E-2,8.30598E-2,4.9523916E-2,6.690539E-2,1.0860572E-2,7.192638E-2,-1.9935906E-2,-1.1889464E-1,-6.9503024E-2,-3.6886588E-2,-2.8428303E-3,-3.000362E-2,6.543034E-3],"categories":[],"categories_nodes":[],"categories_segments":[],"categories_sizes":[],"default_left":[0,0,0,0,1,0,0,0,0,0,0,0,1,0,0,0,0,0,0,0,0,0,0,0,0,0,0,0,0,0,0,0,0,0,0,0,0,0,0,0,0,0,0],"id":15,"left_children":[1,3,5,7,9,11,13,15,17,-1,19,21,23,25,27,29,31,33,-1,-1,-1,35,-1,37,-1,39,41,-1,-1,-1,-1,-1,-1,-1,-1,-1,-1,-1,-1,-1,-1,-1,-1],"loss_changes":[8.516367E2,1.2386682E2,1.2704147E2,7.7617676E1,1.470871E-1,1.9951004E2,1.827295E1,6.632657E1,5.78714E0,0E0,1.9174394E-1,6.367544E0,9.002899E1,1.1557007E0,3.623763E0,5.586537E1,1.0792404E1,3.1911316E0,0E0,0E0,0E0,4.4316025E0,0E0,1.0131836E-1,0E0,3.7993622E-1,7.053604E-1,0E0,0E0,0E0,0E0,0E0,0E0,0E0,0E0,0E0,0E0,0E0,0E0,0E0,0E0,0E0,0E0],"parents":[2147483647,0,0,1,1,2,2,3,3,4,4,5,5,6,6,7,7,8,8,10,10,11,11,12,12,13,13,14,14,15,15,16,16,17,17,21,21,23,23,25,25,26,26],"right_children":[2,4,6,8,10,12,14,16,18,-1,20,22,24,26,28,30,32,34,-1,-1,-1,36,-1,38,-1,40,42,-1,-1,-1,-1,-1,-1,-1,-1,-1,-1,-1,-1,-1,-1,-1,-1],"split_conditions":[1E2,1E2,1E0,1E0,1E0,2.00001E0,1E0,1E0,1E0,-3.593065E-2,1E0,1E0,1E0,1E2,1E0,1E0,1E0,1E0,-3.1066537E-2,-2.1365345E-2,2.9691309E-3,1E0,-3.674196E-2,1E0,5.024413E-2,1E0,1E0,-3.1195686E-3,1.0378432E-1,6.1250417E-3,4.961552E-2,8.30598E-2,4.9523916E-2,6.690539E-2,1.0860572E-2,7.192638E-2,-1.9935906E-2,-1.1889464E-1,-6.9503024E-2,-3.6886588E-2,-2.8428303E-3,-3.000362E-2,6.543034E-3],"split_indices":[700,698,272,74,704,704,32,603,118,0,0,252,702,698,181,660,604,582,0,0,0,459,0,702,0,286,166,0,0,0,0,0,0,0,0,0,0,0,0,0,0,0,0],"split_type":[0,0,0,0,0,0,0,0,0,0,0,0,0,0,0,0,0,0,0,0,0,0,0,0,0,0,0,0,0,0,0,0,0,0,0,0,0,0,0,0,0,0,0],"sum_hessian":[1.276E3,7.5E2,5.26E2,6.94E2,5.6E1,1.54E2,3.72E2,4.69E2,2.25E2,5.4E1,2E0,2E1,1.34E2,3.69E2,3E0,3.54E2,1.15E2,2.24E2,1E0,1E0,1E0,1.9E1,1E0,1.26E2,8E0,1.29E2,2.4E2,1E0,2E0,2.5E2,1.04E2,4.3E1,7.2E1,2.21E2,3E0,1.8E1,1E0,1.21E2,5E0,1.28E2,1E0,2.39E2,1E0],"tree_param":{"num_deleted":"0","num_feature":"705","num_nodes":"43","size_leaf_vector":"1"}},{"base_weights":[5.1094014E-2,6.9596213E-1,-8.240936E-1,8.1817174E-1,-3.4974746E-2,-1.3041108E0,-4.606032E-1,5.577786E-1,1.1770102E0,-5.7821184E-1,-1.8986764E0,1.7009332E0,-5.7006365E-1,4.1781494E-1,1.5673479E0,1.0570813E0,1.4442596E0,5.0069875E-1,-3.2432895E-2,-1.0600527E-1,8.1620604E-2,1.1014167E0,9.891157E-2,-5.9719646E-1,1.1067998E0,-4.073586E-2,2.5863707E-2,9.8965816E-2,5.792383E-2,4.7742374E-2,8.2001716E-2,1.7563957E-1,6.754844E-2,-2.3147656E-2,4.8937507E-2,7.311652E-2,2.3257447E-2,-1.40333595E-2,-3.1376828E-2,-8.0915205E-3,1.0032485E-1],"categories":[],"categories_nodes":[],"categories_segments":[],"categories_sizes":[],"default_left":[0,0,0,0,0,0,0,0,0,0,1,0,0,0,0,0,0,0,0,0,0,0,0,0,0,0,0,0,0,0,0,0,0,0,0,0,0,0,0,0,0],"id":16,"left_children":[1,3,5,7,-1,9,11,13,15,17,19,21,23,25,27,29,31,33,-1,-1,-1,35,-1,37,39,-1,-1,-1,-1,-1,-1,-1,-1,-1,-1,-1,-1,-1,-1,-1,-1],"loss_changes":[7.11693E2,1.2438306E2,9.274698E1,6.1760773E1,0E0,9.8168915E1,7.337007E1,5.4312027E1,7.447571E0,8.3053055E0,1.0197836E2,3.1481934E-1,1.39464035E1,4.2468647E1,5.6237717E0,1.0174728E1,1.1464233E1,3.6778412E0,0E0,0E0,0E0,9.272623E-1,0E0,2.5896835E0,6.0316257E0,0E0,0E0,0E0,0E0,0E0,0E0,0E0,0E0,0E0,0E0,0E0,0E0,0E0,0E0,0E0,0E0],"parents":[2147483647,0,0,1,1,2,2,3,3,5,5,6,6,7,7,8,8,9,9,10,10,11,11,12,12,13,13,14,14,15,15,16,16,17,17,21,21,23,23,24,24],"right_children":[2,4,6,8,-1,10,12,14,16,18,20,22,24,26,28,30,32,34,-1,-1,-1,36,-1,38,40,-1,-1,-1,-1,-1,-1,-1,-1,-1,-1,-1,-1,-1,-1,-1,-1],"split_conditions":[1E2,1E2,1E0,1E0,-3.4974746E-2,2.00001E0,1E0,1E0,1E2,1E0,1E0,1E0,1E0,1E0,1E0,1E0,1E0,1E0,-3.2432895E-2,-1.0600527E-1,8.1620604E-2,1E0,9.891157E-2,2.00001E0,1E0,-4.073586E-2,2.5863707E-2,9.8965816E-2,5.792383E-2,4.7742374E-2,8.2001716E-2,1.7563957E-1,6.754844E-2,-2.3147656E-2,4.8937507E-2,7.311652E-2,2.3257447E-2,-1.40333595E-2,-3.1376828E-2,-8.0915205E-3,1.0032485E-1],"split_indices":[700,698,371,514,0,703,65,329,699,252,702,702,32,371,702,350,704,0,0,0,0,440,0,703,660,0,0,0,0,0,0,0,0,0,0,0,0,0,0,0,0],"split_type":[0,0,0,0,0,0,0,0,0,0,0,0,0,0,0,0,0,0,0,0,0,0,0,0,0,0,0,0,0,0,0,0,0,0,0,0,0,0,0,0,0],"sum_hessian":[1.259E3,7.25E2,5.34E2,6.67E2,5.8E1,2.29E2,3.05E2,3.88E2,2.79E2,1.04E2,1.25E2,1.4E1,2.91E2,3.42E2,4.6E1,1.96E2,8.3E1,6E0,9.8E1,1.18E2,7E0,6E0,8E0,2.87E2,4E0,2.5E1,3.17E2,2.1E1,2.5E1,1.69E2,2.7E1,2E0,8.1E1,2E0,4E0,3E0,3E0,2.6E1,2.61E2,2E0,2E0],"tree_param":{"num_deleted":"0","num_feature":"705","num_nodes":"41","size_leaf_vector":"1"}},{"base_weights":[-1.1311001E-2,6.207586E-1,-8.7566864E-1,3.1281087E-1,1.1009678E0,-1.6512902E0,-5.5866075E-1,-4.271632E-1,6.2660044E-1,1.1106676E0,-4.1587334E-2,7.179317E-1,-2.0076041E0,-5.789594E-1,8.098795E-1,-5.0999004E-1,1.1961027E-1,8.710959E-1,-3.1336706E-2,9.971151E-1,1.3272767E0,8.2385343E-1,-3.5012584E-2,-1.07818596E-1,3.381591E-3,-5.8450526E-1,3.765746E-2,9.698068E-2,-2.3989096E-1,3.9228193E-2,-3.296296E-2,4.814937E-2,-4.885965E-2,2.4596406E-2,5.6596E-2,9.277355E-2,5.7133865E-2,5.2716147E-2,1.226106E-2,-3.4371756E-2,-2.6525332E-2,-2.8392912E-3,-1.4099871E-2],"categories":[],"categories_nodes":[],"categories_segments":[],"categories_sizes":[],"default_left":[0,0,0,0,0,0,0,0,0,0,0,0,1,0,0,0,0,0,0,0,0,0,0,0,0,0,0,0,0,0,0,0,0,0,0,0,0,0,0,0,0,0,0],"id":17,"left_children":[1,3,5,7,9,11,13,15,17,19,-1,21,23,25,27,29,-1,31,-1,33,35,37,-1,-1,-1,39,-1,-1,41,-1,-1,-1,-1,-1,-1,-1,-1,-1,-1,-1,-1,-1,-1],"loss_changes":[6.932953E2,1.0805115E2,1.308682E2,1.04291534E2,6.2854614E0,1.3229025E2,1.1080643E1,3.251159E1,9.707284E1,5.686554E0,0E0,3.73145E0,4.1824158E1,3.2254028E0,7.581065E0,2.583128E1,0E0,4.5779312E1,0E0,1.2450577E1,7.1427E0,2.408599E0,0E0,0E0,0E0,1.7251434E0,0E0,0E0,1.4826164E-2,0E0,0E0,0E0,0E0,0E0,0E0,0E0,0E0,0E0,0E0,0E0,0E0,0E0,0E0],"parents":[2147483647,0,0,1,1,2,2,3,3,4,4,5,5,6,6,7,7,8,8,9,9,11,11,12,12,13,13,14,14,15,15,17,17,19,19,20,20,21,21,25,25,28,28],"right_children":[2,4,6,8,10,12,14,16,18,20,-1,22,24,26,28,30,-1,32,-1,34,36,38,-1,-1,-1,40,-1,-1,42,-1,-1,-1,-1,-1,-1,-1,-1,-1,-1,-1,-1,-1,-1],"split_conditions":[1E2,1E0,1E0,1E0,1E0,2.00001E0,1E0,1E0,1E2,1E2,-4.1587334E-2,1E0,1E0,1E0,1E2,9.6E1,1.1961027E-1,1E0,-3.1336706E-2,1E0,1E0,1E0,-3.5012584E-2,-1.07818596E-1,3.381591E-3,1E2,3.765746E-2,9.698068E-2,1E0,3.9228193E-2,-3.296296E-2,4.814937E-2,-4.885965E-2,2.4596406E-2,5.6596E-2,9.277355E-2,5.7133865E-2,5.2716147E-2,1.226106E-2,-3.4371756E-2,-2.6525332E-2,-2.8392912E-3,-1.4099871E-2],"split_indices":[700,514,272,489,225,703,32,391,698,699,0,252,702,182,698,698,0,577,0,353,612,440,0,0,0,698,0,0,29,0,0,0,0,0,0,0,0,0,0,0,0,0,0],"split_type":[0,0,0,0,0,0,0,0,0,0,0,0,0,0,0,0,0,0,0,0,0,0,0,0,0,0,0,0,0,0,0,0,0,0,0,0,0,0,0,0,0,0,0],"sum_hessian":[1.267E3,7.32E2,5.35E2,4.47E2,2.85E2,1.54E2,3.81E2,1.33E2,3.14E2,2.84E2,1E0,2E1,1.34E2,3.76E2,5E0,1.3E2,3E0,2.63E2,5.1E1,1.9E2,9.4E1,1.9E1,1E0,1.25E2,9E0,3.75E2,1E0,2E0,3E0,1.3E1,1.17E2,2.51E2,1.2E1,4.1E1,1.49E2,2.2E1,7.2E1,1.3E1,6E0,1.25E2,2.5E2,1E0,2E0],"tree_param":{"num_deleted":"0","num_feature":"705","num_nodes":"43","size_leaf_vector":"1"}},{"base_weights":[1.2626525E-2,5.914549E-1,-7.95593E-1,3.4902367E-1,1.1348808E0,-1.4667042E0,-5.2542174E-1,1.3990632E-1,1.0806271E0,1.1447196E0,-2.7955724E-2,-1.8433113E0,1.8732016E0,-5.44796E-1,7.827258E-1,-4.709097E-2,1.1721671E0,4.1512728E-1,1.2248863E0,1.1579645E0,-2.390457E-1,1.1323572E0,-1.02984704E-1,1.1638638E-1,3.638519E-2,-5.501366E-1,3.6716025E-2,9.3747996E-2,-2.321312E-1,-8.750096E-3,7.934681E-2,6.357943E-2,-6.0349293E-2,7.37869E-2,-6.404184E-2,6.277485E-2,-4.054765E-2,5.6631006E-2,9.513558E-2,-5.8639955E-2,4.071153E-2,6.653443E-2,-1.6315619E-2,-2.7688561E-2,2.0411598E-2,-2.7683096E-3,-1.3629873E-2],"categories":[],"categories_nodes":[],"categories_segments":[],"categories_sizes":[],"default_left":[0,0,0,0,0,1,0,0,0,0,0,0,0,0,0,0,0,0,0,0,0,0,0,0,0,0,0,0,0,0,0,0,0,0,0,0,0,0,0,0,0,0,0,0,0,0,0],"id":18,"left_children":[1,3,5,7,9,11,13,15,17,19,-1,21,23,25,27,29,31,33,35,37,39,41,-1,-1,-1,43,-1,-1,45,-1,-1,-1,-1,-1,-1,-1,-1,-1,-1,-1,-1,-1,-1,-1,-1,-1,-1],"loss_changes":[5.9974854E2,9.8016205E1,9.623288E1,7.909814E1,4.4734497E0,1.9590125E2,1.0133316E1,7.803931E1,1.0532028E1,4.4738464E0,0E0,9.118817E1,6.6366386E0,2.9862366E0,7.086006E0,7.196814E1,1.6200203E1,4.146284E1,6.8760834E0,2.1296082E0,3.90543E0,3.32722E0,0E0,0E0,0E0,1.5392456E0,0E0,0E0,1.3519406E-2,0E0,0E0,0E0,0E0,0E0,0E0,0E0,0E0,0E0,0E0,0E0,0E0,0E0,0E0,0E0,0E0,0E0,0E0],"parents":[2147483647,0,0,1,1,2,2,3,3,4,4,5,5,6,6,7,7,8,8,9,9,11,11,12,12,13,13,14,14,15,15,16,16,17,17,18,18,19,19,20,20,21,21,25,25,28,28],"right_children":[2,4,6,8,10,12,14,16,18,20,-1,22,24,26,28,30,32,34,36,38,40,42,-1,-1,-1,44,-1,-1,46,-1,-1,-1,-1,-1,-1,-1,-1,-1,-1,-1,-1,-1,-1,-1,-1,-1,-1],"split_conditions":[1E2,1E0,1E0,1E0,1E0,1E0,1E0,1E0,1E0,1E0,-2.7955724E-2,2.00001E0,1E0,1E0,1E2,1E0,1E0,1E0,1E0,1E0,1E0,1E0,-1.02984704E-1,1.1638638E-1,3.638519E-2,1E0,3.6716025E-2,9.3747996E-2,1E0,-8.750096E-3,7.934681E-2,6.357943E-2,-6.0349293E-2,7.37869E-2,-6.404184E-2,6.277485E-2,-4.054765E-2,5.6631006E-2,9.513558E-2,-5.8639955E-2,4.071153E-2,6.653443E-2,-1.6315619E-2,-2.7688561E-2,2.0411598E-2,-2.7683096E-3,-1.3629873E-2],"split_indices":[700,74,459,353,539,702,32,233,29,582,0,703,440,182,698,81,630,604,166,428,4,260,0,0,0,515,0,0,29,0,0,0,0,0,0,0,0,0,0,0,0,0,0,0,0,0,0],"split_type":[0,0,0,0,0,0,0,0,0,0,0,0,0,0,0,0,0,0,0,0,0,0,0,0,0,0,0,0,0,0,0,0,0,0,0,0,0,0,0,0,0,0,0,0,0,0,0],"sum_hessian":[1.28E3,7.46E2,5.34E2,5.17E2,2.29E2,1.52E2,3.82E2,4.03E2,1.14E2,2.28E2,1E0,1.37E2,1.5E1,3.77E2,5E0,3.42E2,6.1E1,2.1E1,9.3E1,2.26E2,2E0,9E0,1.28E2,1E1,5E0,3.76E2,1E0,2E0,3E0,3.18E2,2.4E1,5.9E1,2E0,1.3E1,8E0,9.2E1,1E0,2.21E2,5E0,1E0,1E0,8E0,1E0,3.75E2,1E0,1E0,2E0],"tree_param":{"num_deleted":"0","num_feature":"705","num_nodes":"47","size_leaf_vector":"1"}},{"base_weights":[8.16688E-3,5.685771E-1,-7.562312E-1,6.6948545E-1,-3.0545635E-2,-1.3992648E0,-5.101267E-1,6.3903876E-2,8.649753E-1,-1.8152895E0,1.5646578E0,-5.150558E-1,3.579812E-2,-3.449695E-1,1.0357444E0,1.3695601E0,6.4713603E-1,-2.0226917E0,6.500173E-1,8.604907E-2,7.863569E-3,-5.221275E-1,3.04967E-1,-2.600391E-2,7.1077965E-2,5.4833572E-2,-1.4216773E-2,-5.9161253E-2,7.053317E-2,1.9566145E-2,5.6553688E-2,-1.0164835E-1,-1.9484509E-2,4.322537E-2,-1.0506264E-2,-2.6275372E-2,1.9901307E-2,-9.5081655E-3,4.4758946E-2],"categories":[],"categories_nodes":[],"categories_segments":[],"categories_sizes":[],"default_left":[0,0,0,0,0,0,0,0,0,1,0,0,0,0,0,0,0,0,0,0,0,0,0,0,0,0,0,0,0,0,0,0,0,0,0,0,0,0,0],"id":19,"left_children":[1,3,5,7,-1,9,11,13,15,17,19,21,-1,23,25,27,29,31,33,-1,-1,35,37,-1,-1,-1,-1,-1,-1,-1,-1,-1,-1,-1,-1,-1,-1,-1,-1],"loss_changes":[5.508938E2,8.872211E1,8.537607E1,8.0920105E1,0E0,1.8780005E2,2.7559357E0,6.711373E1,5.5941498E1,6.880777E1,3.9094887E0,2.4440231E0,0E0,3.755013E1,4.3332443E0,1.7932922E1,4.449594E1,1.2548523E0,2.2110672E0,0E0,0E0,1.4252014E0,1.3391575E0,0E0,0E0,0E0,0E0,0E0,0E0,0E0,0E0,0E0,0E0,0E0,0E0,0E0,0E0,0E0,0E0],"parents":[2147483647,0,0,1,1,2,2,3,3,5,5,6,6,7,7,8,8,9,9,10,10,11,11,13,13,14,14,15,15,16,16,17,17,18,18,21,21,22,22],"right_children":[2,4,6,8,-1,10,12,14,16,18,20,22,-1,24,26,28,30,32,34,-1,-1,36,38,-1,-1,-1,-1,-1,-1,-1,-1,-1,-1,-1,-1,-1,-1,-1,-1],"split_conditions":[1E2,1E2,1E0,1E0,-3.0545635E-2,1E0,1E0,1E0,2.00001E0,1E0,2.00001E0,1E0,3.579812E-2,1E0,1E2,1E0,1E2,1E0,1E0,8.604907E-2,7.863569E-3,1E0,1E0,-2.600391E-2,7.1077965E-2,5.4833572E-2,-1.4216773E-2,-5.9161253E-2,7.053317E-2,1.9566145E-2,5.6553688E-2,-1.0164835E-1,-1.9484509E-2,4.322537E-2,-1.0506264E-2,-2.6275372E-2,1.9901307E-2,-9.5081655E-3,4.4758946E-2],"split_indices":[700,698,272,489,0,702,182,129,703,704,702,32,0,637,701,477,699,456,440,0,0,515,4,0,0,0,0,0,0,0,0,0,0,0,0,0,0,0,0],"split_type":[0,0,0,0,0,0,0,0,0,0,0,0,0,0,0,0,0,0,0,0,0,0,0,0,0,0,0,0,0,0,0,0,0,0,0,0,0,0,0],"sum_hessian":[1.284E3,7.41E2,5.43E2,6.83E2,5.8E1,1.49E2,3.94E2,1.67E2,5.16E2,1.31E2,1.8E1,3.93E2,1E0,1.18E2,4.9E1,1.54E2,3.62E2,1.21E2,1E1,1.6E1,2E0,3.9E2,3E0,1.08E2,1E1,4.7E1,2E0,2E0,1.52E2,2.38E2,1.24E2,1.2E2,1E0,8E0,2E0,3.89E2,1E0,2E0,1E0],"tree_param":{"num_deleted":"0","num_feature":"705","num_nodes":"39","size_leaf_vector":"1"}},{"base_weights":[6.7618024E-3,5.412572E-1,-7.492935E-1,3.2592383E-1,1.027824E0,-1.2094344E0,-3.8021693E-1,4.3243596E-1,-2.8182892E-2,1.0582422E0,2.43677E-1,-4.84651E-1,-1.7547877E0,1.233799E0,-4.6949425E-1,-2.4714218E-2,6.574837E-1,1.0694691E0,-3.613393E-2,7.18089E-2,-7.906866E-1,1.37406E-1,-5.241382E-1,-9.902913E-2,6.4414285E-2,9.0004854E-2,5.933341E-1,-4.7729388E-1,4.3639973E-2,-1.822547E-2,5.435879E-2,7.31312E-2,2.1169236E-2,5.3953003E-2,-2.6493186E-2,-5.817098E-2,2.682445E-2,-3.3259425E-2,1.9101826E-2,-2.9601812E-2,-2.3662433E-2,5.258749E-2,2.022817E-2,-7.371064E-3,-2.5568807E-2],"categories":[],"categories_nodes":[],"categories_segments":[],"categories_sizes":[],"default_left":[0,0,0,0,0,0,0,0,0,0,0,0,1,0,0,0,0,0,0,0,0,0,0,0,0,0,0,0,0,0,0,0,0,0,0,0,0,0,0,0,0,0,0,0,0],"id":20,"left_children":[1,3,5,7,9,11,13,15,-1,17,19,21,23,25,27,29,31,33,-1,-1,35,37,39,-1,-1,-1,41,43,-1,-1,-1,-1,-1,-1,-1,-1,-1,-1,-1,-1,-1,-1,-1,-1,-1],"loss_changes":[5.2493787E2,7.939809E1,9.090723E1,5.036714E1,5.299698E0,9.361737E1,4.3807766E1,4.867878E1,0E0,5.251587E0,1.3470363E1,2.626604E0,9.5998535E1,4.7350445E0,3.4003563E0,5.9713226E1,5.912973E1,3.9924011E0,0E0,0E0,3.5922546E0,1.6284999E0,5.8439255E-2,0E0,0E0,0E0,3.533194E-1,3.1175766E0,0E0,0E0,0E0,0E0,0E0,0E0,0E0,0E0,0E0,0E0,0E0,0E0,0E0,0E0,0E0,0E0,0E0],"parents":[2147483647,0,0,1,1,2,2,3,3,4,4,5,5,6,6,7,7,9,9,10,10,11,11,12,12,13,13,14,14,15,15,16,16,17,17,20,20,21,21,22,22,26,26,27,27],"right_children":[2,4,6,8,10,12,14,16,-1,18,20,22,24,26,28,30,32,34,-1,-1,36,38,40,-1,-1,-1,42,44,-1,-1,-1,-1,-1,-1,-1,-1,-1,-1,-1,-1,-1,-1,-1,-1,-1],"split_conditions":[1E2,1E0,1E0,1E2,1E0,2.00001E0,1E0,1E0,-2.8182892E-2,1E0,1E0,1E0,1E0,1E0,1E0,1E0,2.00001E0,1E0,-3.613393E-2,7.18089E-2,1E0,1E0,1E2,-9.902913E-2,6.4414285E-2,9.0004854E-2,1E0,2.00001E0,4.3639973E-2,-1.822547E-2,5.435879E-2,7.31312E-2,2.1169236E-2,5.3953003E-2,-2.6493186E-2,-5.817098E-2,2.682445E-2,-3.3259425E-2,1.9101826E-2,-2.9601812E-2,-2.3662433E-2,5.258749E-2,2.022817E-2,-7.371064E-3,-2.5568807E-2],"split_indices":[700,74,371,698,112,704,65,489,0,118,543,483,702,440,91,129,704,56,0,0,4,0,698,0,0,0,704,704,0,0,0,0,0,0,0,0,0,0,0,0,0,0,0,0,0],"split_type":[0,0,0,0,0,0,0,0,0,0,0,0,0,0,0,0,0,0,0,0,0,0,0,0,0,0,0,0,0,0,0,0,0,0,0,0,0,0,0,0,0,0,0,0,0],"sum_hessian":[1.297E3,7.6E2,5.37E2,5.28E2,2.32E2,2.38E2,2.99E2,4.72E2,5.6E1,2.23E2,9E0,1.03E2,1.35E2,1.5E1,2.84E2,1.56E2,3.16E2,2.22E2,1E0,4E0,5E0,6E0,9.7E1,1.26E2,9E0,7E0,8E0,2.83E2,1E0,1.2E2,3.6E1,7E1,2.46E2,2.21E2,1E0,4E0,1E0,1E0,5E0,3.7E1,6E1,1E0,7E0,2.7E1,2.56E2],"tree_param":{"num_deleted":"0","num_feature":"705","num_nodes":"45","size_leaf_vector":"1"}},{"base_weights":[3.2878872E-2,5.288358E-1,-6.878862E-1,6.193078E-1,-2.7829582E-2,-1.1012245E0,-3.545675E-1,4.8592348E-2,8.0158794E-1,-5.008936E-1,-1.5813295E0,7.665222E-2,-4.4124988E-1,-3.2685953E-1,1.0174974E0,1.210476E0,6.1607677E-1,-2.7638152E-1,-5.1410997E-1,-8.2183994E-2,-2.1640992E-2,-4.6579096E-1,7.530008E-1,-2.4753021E-2,5.7369936E-2,5.4884315E-2,-6.9501414E-3,-5.962692E-2,6.236385E-2,1.7966148E-2,5.2318733E-2,-3.7440907E-2,7.842203E-3,-3.965032E-2,-2.452943E-2,-2.351836E-2,1.9588051E-2,8.943107E-2,-1.0598238E-2],"categories":[],"categories_nodes":[],"categories_segments":[],"categories_sizes":[],"default_left":[0,0,0,0,0,0,0,0,0,0,1,0,0,0,0,0,0,0,0,0,0,0,0,0,0,0,0,0,0,0,0,0,0,0,0,0,0,0,0],"id":21,"left_children":[1,3,5,7,-1,9,11,13,15,17,19,-1,21,23,25,27,29,31,33,-1,-1,35,37,-1,-1,-1,-1,-1,-1,-1,-1,-1,-1,-1,-1,-1,-1,-1,-1],"loss_changes":[4.5863824E2,7.4977325E1,7.166504E1,7.2990204E1,0E0,6.636359E1,4.8290657E1,6.2538483E1,3.9608215E1,1.6946983E-1,8.526276E0,0E0,8.527729E0,3.1316502E1,4.6040306E0,1.6078918E1,4.0280884E1,1.7548206E0,2.538414E-1,0E0,0E0,1.2595406E0,6.3751526E0,0E0,0E0,0E0,0E0,0E0,0E0,0E0,0E0,0E0,0E0,0E0,0E0,0E0,0E0,0E0,0E0],"parents":[2147483647,0,0,1,1,2,2,3,3,5,5,6,6,7,7,8,8,9,9,10,10,12,12,13,13,14,14,15,15,16,16,17,17,18,18,21,21,22,22],"right_children":[2,4,6,8,-1,10,12,14,16,18,20,-1,22,24,26,28,30,32,34,-1,-1,36,38,-1,-1,-1,-1,-1,-1,-1,-1,-1,-1,-1,-1,-1,-1,-1,-1],"split_conditions":[1E2,1E2,1E0,1E0,-2.7829582E-2,2.00001E0,1E0,1E0,2.00001E0,1E0,1E0,7.665222E-2,1E0,1E0,1E0,1E0,1E2,1E0,1E0,-8.2183994E-2,-2.1640992E-2,1E0,1E2,-2.4753021E-2,5.7369936E-2,5.4884315E-2,-6.9501414E-3,-5.962692E-2,6.236385E-2,1.7966148E-2,5.2318733E-2,-3.7440907E-2,7.842203E-3,-3.965032E-2,-2.452943E-2,-2.351836E-2,1.9588051E-2,8.943107E-2,-1.0598238E-2],"split_indices":[700,698,371,489,0,703,65,353,703,439,702,0,32,637,241,477,699,703,344,0,0,515,698,0,0,0,0,0,0,0,0,0,0,0,0,0,0,0,0],"split_type":[0,0,0,0,0,0,0,0,0,0,0,0,0,0,0,0,0,0,0,0,0,0,0,0,0,0,0,0,0,0,0,0,0,0,0,0,0,0,0],"sum_hessian":[1.281E3,7.59E2,5.22E2,7.01E2,5.8E1,2.32E2,2.9E2,1.7E2,5.31E2,1.04E2,1.28E2,1.2E1,2.78E2,1.23E2,4.7E1,1.64E2,3.67E2,7E0,9.7E1,1.21E2,7E0,2.73E2,5E0,1.11E2,1.2E1,4.4E1,3E0,2E0,1.62E2,2.31E2,1.36E2,3E0,4E0,5E0,9.2E1,2.72E2,1E0,2E0,3E0],"tree_param":{"num_deleted":"0","num_feature":"705","num_nodes":"39","size_leaf_vector":"1"}},{"base_weights":[-1.0910799E-2,3.721713E-1,-7.052227E-1,2.2835046E-1,1.0981578E0,-1.1019864E0,-3.5986152E-1,6.6485755E-2,6.1568403E-1,1.3825915E0,9.233273E-1,-3.8911158E-1,-7.3038496E-2,8.425569E-1,-4.2654964E-1,-9.615889E-3,1.1322092E0,7.6635534E-1,-4.2999644E-2,8.861319E-2,5.6997728E-2,5.060095E-1,4.7142033E-2,2.3463574E-1,-4.5029804E-1,6.0433235E-2,1.780419E-2,-4.4470254E-1,6.659868E-2,-5.0607906E-3,5.220252E-2,6.135408E-2,-4.5220777E-2,4.7520824E-2,2.192474E-3,-1.9453552E-2,5.2540876E-2,-4.3438464E-2,2.8166575E-2,-3.0507851E-2,-2.1184977E-2,-2.2492228E-2,-2.6643486E-3,1.0786106E-2,-1.5177778E-2],"categories":[],"categories_nodes":[],"categories_segments":[],"categories_sizes":[],"default_left":[0,0,0,0,0,0,0,0,0,0,0,0,0,0,1,0,0,0,0,0,0,0,0,0,0,0,0,0,0,0,0,0,0,0,0,0,0,0,0,0,0,0,0,0,0],"id":22,"left_children":[1,3,5,7,9,11,13,15,17,19,21,23,-1,25,27,29,31,33,-1,-1,-1,35,-1,37,39,-1,-1,41,43,-1,-1,-1,-1,-1,-1,-1,-1,-1,-1,-1,-1,-1,-1,-1,-1],"loss_changes":[3.351294E2,8.453176E1,6.099141E1,4.2529404E1,5.386917E0,5.26313E1,1.9684465E1,3.8940475E1,4.512748E1,2.6125946E0,2.2323608E-1,2.815364E0,0E0,1.8849344E0,2.0796356E0,4.3441242E1,7.2928085E0,2.4161644E1,0E0,0E0,0E0,3.334725E0,0E0,3.0281966E0,1.7856598E-2,0E0,0E0,4.2082977E-1,5.6227165E-1,0E0,0E0,0E0,0E0,0E0,0E0,0E0,0E0,0E0,0E0,0E0,0E0,0E0,0E0,0E0,0E0],"parents":[2147483647,0,0,1,1,2,2,3,3,4,4,5,5,6,6,7,7,8,8,9,9,10,10,11,11,13,13,14,14,15,15,16,16,17,17,21,21,23,23,24,24,27,27,28,28],"right_children":[2,4,6,8,10,12,14,16,18,20,22,24,-1,26,28,30,32,34,-1,-1,-1,36,-1,38,40,-1,-1,42,44,-1,-1,-1,-1,-1,-1,-1,-1,-1,-1,-1,-1,-1,-1,-1,-1],"split_conditions":[1E2,1E0,1E0,1E0,1E0,2.00001E0,1E0,1E0,1E0,1E0,1E0,1E0,-7.3038496E-2,1E0,1E0,1E0,1E0,1E2,-4.2999644E-2,8.861319E-2,5.6997728E-2,1E0,4.7142033E-2,1E0,1E2,6.0433235E-2,1.780419E-2,1E0,1E0,-5.0607906E-3,5.220252E-2,6.135408E-2,-4.5220777E-2,4.7520824E-2,2.192474E-3,-1.9453552E-2,5.2540876E-2,-4.3438464E-2,2.8166575E-2,-3.0507851E-2,-2.1184977E-2,-2.2492228E-2,-2.6643486E-3,1.0786106E-2,-1.5177778E-2],"split_indices":[698,136,371,660,353,703,120,233,73,74,704,693,0,440,704,81,630,701,0,0,0,514,0,703,701,0,0,567,47,0,0,0,0,0,0,0,0,0,0,0,0,0,0,0,0],"split_type":[0,0,0,0,0,0,0,0,0,0,0,0,0,0,0,0,0,0,0,0,0,0,0,0,0,0,0,0,0,0,0,0,0,0,0,0,0,0,0,0,0,0,0,0,0],"sum_hessian":[1.258E3,8.11E2,4.47E2,6.78E2,1.33E2,2.07E2,2.4E2,4.79E2,1.99E2,4.8E1,8.5E1,7E1,1.37E2,1.2E1,2.28E2,4.48E2,3.1E1,1.81E2,1.8E1,1.6E1,3.2E1,5E0,8E1,6E0,6.4E1,6E0,6E0,2.2E2,8E0,4.13E2,3.5E1,3E1,1E0,1.44E2,3.7E1,2E0,3E0,1E0,5E0,6E0,5.8E1,2.17E2,3E0,6E0,2E0],"tree_param":{"num_deleted":"0","num_feature":"705","num_nodes":"45","size_leaf_vector":"1"}},{"base_weights":[8.963653E-3,4.9137425E-1,-6.6250426E-1,5.778804E-1,-2.5870157E-2,-1.2664992E0,-4.1668636E-1,1.1572071E-2,7.461635E-1,-1.4970511E0,1.0004925E0,-4.3270254E-1,8.9028615E-1,-3.441837E-1,9.007099E-1,7.910115E-1,-4.8966207E-2,4.6175885E-1,-8.4070824E-2,6.279806E-2,1.1918134E-2,-4.3757793E-1,3.5620596E-2,8.637695E-2,-1.2186434E-2,-2.4511743E-2,7.1522236E-2,4.895795E-2,2.0284107E-2,-7.2956175E-2,4.0560197E-2,3.0368745E-2,-3.2140847E-2,-2.6553467E-2,-1.9114928E-2],"categories":[],"categories_nodes":[],"categories_segments":[],"categories_sizes":[],"default_left":[0,0,0,0,0,1,0,0,0,0,0,0,0,0,1,0,0,0,0,0,0,0,0,0,0,0,0,0,0,0,0,0,0,0,0],"id":23,"left_children":[1,3,5,7,-1,9,11,13,15,17,19,21,23,25,27,29,-1,31,-1,-1,-1,33,-1,-1,-1,-1,-1,-1,-1,-1,-1,-1,-1,-1,-1],"loss_changes":[4.1915833E2,6.600987E1,7.979602E1,6.6129654E1,0E0,8.303264E1,8.465248E0,5.092056E1,4.2175476E1,5.205777E1,2.621131E0,2.444397E0,5.168336E0,3.0507704E1,1.3891602E0,2.4901062E1,0E0,2.4814022E0,0E0,0E0,0E0,1.766037E0,0E0,0E0,0E0,0E0,0E0,0E0,0E0,0E0,0E0,0E0,0E0,0E0,0E0],"parents":[2147483647,0,0,1,1,2,2,3,3,5,5,6,6,7,7,8,8,9,9,10,10,11,11,12,12,13,13,14,14,15,15,17,17,21,21],"right_children":[2,4,6,8,-1,10,12,14,16,18,20,22,24,26,28,30,-1,32,-1,-1,-1,34,-1,-1,-1,-1,-1,-1,-1,-1,-1,-1,-1,-1,-1],"split_conditions":[1E2,1E2,1E0,1E0,-2.5870157E-2,1E0,1E0,1E0,1E0,2.00001E0,1E0,1E0,1E2,1E0,1E0,1E0,-4.8966207E-2,1E0,-8.4070824E-2,6.279806E-2,1.1918134E-2,1E2,3.5620596E-2,8.637695E-2,-1.2186434E-2,-2.4511743E-2,7.1522236E-2,4.895795E-2,2.0284107E-2,-7.2956175E-2,4.0560197E-2,3.0368745E-2,-3.2140847E-2,-2.6553467E-2,-1.9114928E-2],"split_indices":[700,698,459,489,0,702,32,129,577,703,440,182,698,637,703,477,0,252,0,0,0,698,0,0,0,0,0,0,0,0,0,0,0,0,0],"split_type":[0,0,0,0,0,0,0,0,0,0,0,0,0,0,0,0,0,0,0,0,0,0,0,0,0,0,0,0,0,0,0,0,0,0,0],"sum_hessian":[1.292E3,7.52E2,5.4E2,6.93E2,5.9E1,1.55E2,3.85E2,1.59E2,5.34E2,1.41E2,1.4E1,3.81E2,4E0,1.14E2,4.5E1,5.21E2,1.3E1,1.2E1,1.29E2,1E1,4E0,3.8E2,1E0,2E0,2E0,1.06E2,8E0,3.8E1,7E0,4E0,5.17E2,1.1E1,1E0,1.38E2,2.42E2],"tree_param":{"num_deleted":"0","num_feature":"705","num_nodes":"35","size_leaf_vector":"1"}},{"base_weights":[5.9435954E-3,3.708622E-1,-6.5748507E-1,2.437919E-1,1.0053679E0,-1.0696595E0,-3.105382E-1,7.724026E-2,6.231004E-1,1.281107E0,8.535733E-1,-3.9565122E-1,-1.3871268E0,9.252845E-1,-3.8253388E-1,2.1733543E-2,1.2947099E0,7.5166255E-1,-3.9856523E-2,1.5864638E0,9.734546E-1,8.2254857E-1,9.192058E-2,-1.2595695E-1,-4.150562E-1,-7.352881E-2,-7.344155E-3,7.689125E-2,2.73651E-1,-4.0194687E-1,-1.8607635E-2,-2.1687974E-3,4.6418235E-2,6.855417E-2,-5.819025E-3,4.461203E-2,1.1862747E-2,8.155321E-2,1.6246408E-2,3.9862372E-2,6.088537E-2,3.0895254E-2,4.306056E-2,-2.9756276E-2,1.2870434E-2,-2.9029194E-2,-1.9538825E-2,4.861344E-2,1.7476466E-3,-2.0336716E-2,-1.8476248E-3,1.0827414E-2,-1.2555266E-2],"categories":[],"categories_nodes":[],"categories_segments":[],"categories_sizes":[],"default_left":[0,0,0,0,0,0,0,0,0,0,0,0,1,0,1,0,0,0,0,0,1,0,0,0,0,0,0,0,0,0,0,0,0,0,0,0,0,0,0,0,0,0,0,0,0,0,0,0,0,0,0,0,0],"id":24,"left_children":[1,3,5,7,9,11,13,15,17,19,21,23,25,27,29,31,33,35,-1,37,39,41,-1,43,45,-1,-1,-1,47,49,51,-1,-1,-1,-1,-1,-1,-1,-1,-1,-1,-1,-1,-1,-1,-1,-1,-1,-1,-1,-1,-1,-1],"loss_changes":[3.1109695E2,6.6594536E1,6.4877014E1,4.3668594E1,4.6825867E0,4.39581E1,2.2508455E1,3.254433E1,3.912523E1,2.8710022E0,1.2988205E0,3.0359268E-1,1.4377167E1,5.1672993E0,1.6598358E0,2.7312263E1,2.4227333E0,1.38173065E1,0E0,7.078438E-1,1.482029E-1,1.8785095E-1,0E0,1.2323691E0,2.6316643E-2,0E0,0E0,0E0,1.3000863E0,3.7638855E-1,7.651281E-1,0E0,0E0,0E0,0E0,0E0,0E0,0E0,0E0,0E0,0E0,0E0,0E0,0E0,0E0,0E0,0E0,0E0,0E0,0E0,0E0,0E0,0E0],"parents":[2147483647,0,0,1,1,2,2,3,3,4,4,5,5,6,6,7,7,8,8,9,9,10,10,11,11,12,12,13,13,14,14,15,15,16,16,17,17,19,19,20,20,21,21,23,23,24,24,28,28,29,29,30,30],"right_children":[2,4,6,8,10,12,14,16,18,20,22,24,26,28,30,32,34,36,-1,38,40,42,-1,44,46,-1,-1,-1,48,50,52,-1,-1,-1,-1,-1,-1,-1,-1,-1,-1,-1,-1,-1,-1,-1,-1,-1,-1,-1,-1,-1,-1],"split_conditions":[1E2,1E0,1E0,1E0,1E0,2.00001E0,1E0,1E0,1E0,1E0,1E0,1E0,1E0,1E0,1E0,1E0,1E0,1E2,-3.9856523E-2,1E0,1E0,1E0,9.192058E-2,1E0,1E2,-7.352881E-2,-7.344155E-3,7.689125E-2,1E0,1E0,1E0,-2.1687974E-3,4.6418235E-2,6.855417E-2,-5.819025E-3,4.461203E-2,1.1862747E-2,8.155321E-2,1.6246408E-2,3.9862372E-2,6.088537E-2,3.0895254E-2,4.306056E-2,-2.9756276E-2,1.2870434E-2,-2.9029194E-2,-1.9538825E-2,4.861344E-2,1.7476466E-3,-2.0336716E-2,-1.8476248E-3,1.0827414E-2,-1.2555266E-2],"split_indices":[698,136,371,660,353,703,65,331,73,702,60,483,702,440,704,350,2,701,0,241,704,543,0,704,701,0,0,0,704,567,29,0,0,0,0,0,0,0,0,0,0,0,0,0,0,0,0,0,0,0,0,0,0],"split_type":[0,0,0,0,0,0,0,0,0,0,0,0,0,0,0,0,0,0,0,0,0,0,0,0,0,0,0,0,0,0,0,0,0,0,0,0,0,0,0,0,0,0,0,0,0,0,0,0,0,0,0,0,0],"sum_hessian":[1.283E3,8.28E2,4.55E2,6.91E2,1.37E2,2.07E2,2.48E2,4.81E2,2.1E2,4.6E1,9.1E1,6.7E1,1.4E2,1.3E1,2.35E2,4.61E2,2E1,1.93E2,1.7E1,2.1E1,2.5E1,9E1,1E0,5E0,6.2E1,1.31E2,9E0,6E0,7E0,2.23E2,1.2E1,4.31E2,3E1,1.9E1,1E0,1.51E2,4.2E1,2E1,1E0,1.7E1,8E0,1.7E1,7.3E1,2E0,3E0,5E0,5.7E1,1E0,6E0,2.2E2,3E0,6E0,6E0],"tree_param":{"num_deleted":"0","num_feature":"705","num_nodes":"53","size_leaf_vector":"1"}},{"base_weights":[-1.2071492E-2,4.0773293E-1,-6.457761E-1,2.0525576E-1,7.176247E-1,-1.1983727E0,-4.0480062E-1,-3.1259075E-1,4.163599E-1,7.000969E-1,1.1418911E-1,5.655955E-1,-1.4581189E0,-5.091192E-1,-3.442243E-1,-3.7807444E-1,1.391014E-1,6.550856E-1,-1.39301E-1,9.330577E-1,5.9071994E-1,9.615153E-3,8.428989E-1,-7.504725E-2,-5.034408E-2,-3.7657216E-2,-4.8514062E-1,-3.4906998E-1,1.962045E-2,-2.4753071E-2,4.408976E-2,3.7696596E-2,-4.3234587E-2,2.8712744E-2,-3.0073378E-2,3.6166895E-2,6.886604E-2,-9.406336E-3,3.724604E-2,-3.9233994E-2,2.0258006E-2,5.468747E-2,2.590212E-2,-2.4466228E-2,6.324351E-4,-1.7798308E-2,1.8294204E-3],"categories":[],"categories_nodes":[],"categories_segments":[],"categories_sizes":[],"default_left":[0,0,0,0,0,0,0,0,0,0,0,0,0,0,0,0,0,0,0,0,0,0,0,0,0,0,0,0,0,0,0,0,0,0,0,0,0,0,0,0,0,0,0,0,0,0,0],"id":25,"left_children":[1,3,5,7,9,11,13,15,17,19,-1,21,23,25,27,29,-1,31,33,35,37,39,41,-1,-1,-1,43,45,-1,-1,-1,-1,-1,-1,-1,-1,-1,-1,-1,-1,-1,-1,-1,-1,-1,-1,-1],"loss_changes":[3.484992E2,4.9296555E1,6.902559E1,5.2384888E1,6.938507E0,7.321774E1,2.1312675E0,2.9219753E1,4.5192436E1,7.3223114E0,0E0,3.2295766E0,1.1555481E0,4.070015E-1,9.7223854E-1,2.0628748E1,0E0,3.640532E1,3.431291E1,8.041306E0,2.5721199E1,2.8313558E0,5.742569E-1,0E0,0E0,0E0,2.6236343E-1,6.327019E-1,0E0,0E0,0E0,0E0,0E0,0E0,0E0,0E0,0E0,0E0,0E0,0E0,0E0,0E0,0E0,0E0,0E0,0E0,0E0],"parents":[2147483647,0,0,1,1,2,2,3,3,4,4,5,5,6,6,7,7,8,8,9,9,11,11,12,12,13,13,14,14,15,15,17,17,18,18,19,19,20,20,21,21,22,22,26,26,27,27],"right_children":[2,4,6,8,10,12,14,16,18,20,-1,22,24,26,28,30,-1,32,34,36,38,40,42,-1,-1,-1,44,46,-1,-1,-1,-1,-1,-1,-1,-1,-1,-1,-1,-1,-1,-1,-1,-1,-1,-1,-1],"split_conditions":[1E2,1E0,1E0,1E0,1E0,2.00001E0,1E2,1E0,1E2,1E0,1.1418911E-1,1E0,1E0,1E2,1E0,1E0,1.391014E-1,1E0,1E0,1E0,1E0,1E0,1E0,-7.504725E-2,-5.034408E-2,-3.7657216E-2,1E0,1E0,1.962045E-2,-2.4753071E-2,4.408976E-2,3.7696596E-2,-4.3234587E-2,2.8712744E-2,-3.0073378E-2,3.6166895E-2,6.886604E-2,-9.406336E-3,3.724604E-2,-3.9233994E-2,2.0258006E-2,5.468747E-2,2.590212E-2,-2.4466228E-2,6.324351E-4,-1.7798308E-2,1.8294204E-3],"split_indices":[700,514,272,489,178,703,698,91,701,376,0,371,702,701,515,637,0,357,153,181,353,703,440,0,0,0,286,567,0,0,0,0,0,0,0,0,0,0,0,0,0,0,0,0,0,0,0],"split_type":[0,0,0,0,0,0,0,0,0,0,0,0,0,0,0,0,0,0,0,0,0,0,0,0,0,0,0,0,0,0,0,0,0,0,0,0,0,0,0,0,0,0,0,0,0,0,0],"sum_hessian":[1.308E3,7.87E2,5.21E2,4.77E2,3.1E2,1.57E2,3.64E2,1.38E2,3.39E2,3.08E2,2E0,2E1,1.37E2,1.31E2,2.33E2,1.36E2,2E0,2.37E2,1.02E2,9.6E1,2.12E2,7E0,1.3E1,1.23E2,1.4E1,9E0,1.22E2,2.32E2,1E0,1.25E2,1.1E1,2.23E2,1.4E1,4E1,6.2E1,6.7E1,2.9E1,3.5E1,1.77E2,2E0,5E0,6E0,7E0,1.21E2,1E0,2.28E2,4E0],"tree_param":{"num_deleted":"0","num_feature":"705","num_nodes":"47","size_leaf_vector":"1"}},{"base_weights":[1.7869093E-2,4.146807E-1,-5.284344E-1,2.3327233E-1,8.014107E-1,-9.71876E-1,-3.4966713E-1,1.6993536E-1,1.5988088E0,8.3067006E-1,6.586051E-2,3.676088E-1,-1.1894088E0,-3.6573628E-1,7.129321E-1,9.748686E-3,7.320079E-1,1.7766786E0,-5.3411443E-2,8.415469E-1,-3.9871845E-2,1.2219988E0,-9.085648E-1,3.4223523E-2,-2.9571706E-2,-6.302407E-2,-2.994819E-1,-3.7046233E-1,3.5045166E-2,8.391783E-2,-1.8936925E-1,-3.8528615E-3,6.3763104E-2,3.0396158E-2,6.959948E-2,1.01794876E-1,2.6999919E-2,5.1678576E-2,3.8143065E-2,3.202922E-2,8.869141E-2,-6.26717E-2,2.0394523E-2,-1.7722314E-2,-5.734134E-3,-2.341443E-2,-1.59436E-2,-1.802884E-3,-1.1422694E-2],"categories":[],"categories_nodes":[],"categories_segments":[],"categories_sizes":[],"default_left":[0,0,0,0,0,0,0,0,0,0,0,0,0,0,0,0,0,0,0,0,0,0,0,0,0,0,0,0,0,0,0,0,0,0,0,0,0,0,0,0,0,0,0,0,0,0,0,0,0],"id":26,"left_children":[1,3,5,7,9,11,13,15,17,19,21,23,25,27,29,31,33,35,-1,37,-1,39,41,-1,-1,-1,43,45,-1,-1,47,-1,-1,-1,-1,-1,-1,-1,-1,-1,-1,-1,-1,-1,-1,-1,-1,-1,-1],"loss_changes":[2.7357816E2,5.1097145E1,4.1754044E1,4.288629E1,4.959854E0,4.4727264E1,6.749264E0,4.3030323E1,1.2334373E1,4.6378174E0,1.2375968E1,7.090266E0,7.908188E0,2.1500359E0,5.5444527E0,4.1073826E1,7.834511E0,5.632622E0,0E0,2.5809631E0,0E0,4.6792173E-1,3.235293E0,0E0,0E0,0E0,7.1082294E-2,1.7382088E0,0E0,0E0,1.5730992E-2,0E0,0E0,0E0,0E0,0E0,0E0,0E0,0E0,0E0,0E0,0E0,0E0,0E0,0E0,0E0,0E0,0E0,0E0],"parents":[2147483647,0,0,1,1,2,2,3,3,4,4,5,5,6,6,7,7,8,8,9,9,10,10,11,11,12,12,13,13,14,14,15,15,16,16,17,17,19,19,21,21,22,22,26,26,27,27,30,30],"right_children":[2,4,6,8,10,12,14,16,18,20,22,24,26,28,30,32,34,36,-1,38,-1,40,42,-1,-1,-1,44,46,-1,-1,48,-1,-1,-1,-1,-1,-1,-1,-1,-1,-1,-1,-1,-1,-1,-1,-1,-1,-1],"split_conditions":[1E2,1E0,1E0,1E0,1E0,2.00001E0,1E0,1E0,1E0,1E0,1E0,1E0,1E0,1E0,1E2,1E0,1E2,2.00001E0,-5.3411443E-2,2.00001E0,-3.9871845E-2,1E0,1E0,3.4223523E-2,-2.9571706E-2,-6.302407E-2,2.00001E0,1E2,3.5045166E-2,8.391783E-2,1E0,-3.8528615E-3,6.3763104E-2,3.0396158E-2,6.959948E-2,1.01794876E-1,2.6999919E-2,5.1678576E-2,3.8143065E-2,3.202922E-2,8.869141E-2,-6.26717E-2,2.0394523E-2,-1.7722314E-2,-5.734134E-3,-2.341443E-2,-1.59436E-2,-1.802884E-3,-1.1422694E-2],"split_indices":[700,74,344,391,112,703,32,353,343,118,543,260,702,182,698,350,699,703,0,704,0,60,4,0,0,0,702,698,0,0,29,0,0,0,0,0,0,0,0,0,0,0,0,0,0,0,0,0,0],"split_type":[0,0,0,0,0,0,0,0,0,0,0,0,0,0,0,0,0,0,0,0,0,0,0,0,0,0,0,0,0,0,0,0,0,0,0,0,0,0,0,0,0,0,0,0,0,0,0,0,0],"sum_hessian":[1.26E3,7.3E2,5.3E2,4.98E2,2.32E2,1.51E2,3.79E2,4.77E2,2.1E1,2.23E2,9E0,2.1E1,1.3E2,3.74E2,5E0,3.72E2,1.05E2,2E1,1E0,2.22E2,1E0,4E0,5E0,1.6E1,5E0,1.2E2,1E1,3.73E2,1E0,2E0,3E0,3.49E2,2.3E1,9E1,1.5E1,1.6E1,4E0,6.1E1,1.61E2,3E0,1E0,4E0,1E0,7E0,3E0,1.26E2,2.47E2,1E0,2E0],"tree_param":{"num_deleted":"0","num_feature":"705","num_nodes":"49","size_leaf_vector":"1"}},{"base_weights":[2.3831533E-2,3.80407E-1,-4.769911E-1,1.9044669E-1,7.0994216E-1,-7.419519E-1,-2.5740126E-1,1.20176174E-1,1.1836542E0,8.108647E-1,-2.2371566E-1,-3.505101E-1,-5.2541625E-2,1.1427313E0,-3.250392E-1,-1.7232876E-2,6.934302E-1,-1.5150542E-2,1.2413857E0,1.1723261E0,6.264054E-1,-3.6666203E-2,3.152634E-2,3.31801E-1,-3.9306456E-1,4.4705313E-2,1.09371446E-1,-3.4520084E-1,8.770844E-1,-7.285869E-3,5.0553173E-2,3.8031865E-2,-4.5403894E-2,6.310794E-2,1.545485E-2,6.1254468E-2,-3.303231E-2,-4.248534E-2,3.3366986E-2,-1.8569406E-2,3.4367714E-2,-3.4804087E-2,-1.8536476E-2,-1.7564662E-2,3.4169037E-2,8.112057E-2,-8.030202E-3],"categories":[],"categories_nodes":[],"categories_segments":[],"categories_sizes":[],"default_left":[0,0,0,0,0,0,0,0,0,0,0,0,0,0,0,0,0,0,0,0,0,0,0,0,0,0,0,0,0,0,0,0,0,0,0,0,0,0,0,0,0,0,0,0,0,0,0],"id":27,"left_children":[1,3,5,7,9,11,13,15,17,19,21,23,-1,25,27,29,31,-1,33,35,37,-1,-1,39,41,-1,-1,43,45,-1,-1,-1,-1,-1,-1,-1,-1,-1,-1,-1,-1,-1,-1,-1,-1,-1,-1],"loss_changes":[2.335869E2,4.7690147E1,3.1460411E1,3.3777252E1,2.6470764E1,2.9375229E1,2.8687363E1,3.5852436E1,3.122631E0,1.6067719E1,1.2651594E1,3.3243132E0,0E0,1.6805382E0,7.2344856E0,4.8767544E1,1.0162392E1,0E0,2.1022797E-1,8.933296E0,1.0778633E1,0E0,0E0,2.0054235E0,4.458046E-1,0E0,0E0,2.007225E0,4.127652E0,0E0,0E0,0E0,0E0,0E0,0E0,0E0,0E0,0E0,0E0,0E0,0E0,0E0,0E0,0E0,0E0,0E0,0E0],"parents":[2147483647,0,0,1,1,2,2,3,3,4,4,5,5,6,6,7,7,8,8,9,9,10,10,11,11,13,13,14,14,15,15,16,16,18,18,19,19,20,20,23,23,24,24,27,27,28,28],"right_children":[2,4,6,8,10,12,14,16,18,20,22,24,-1,26,28,30,32,-1,34,36,38,-1,-1,40,42,-1,-1,44,46,-1,-1,-1,-1,-1,-1,-1,-1,-1,-1,-1,-1,-1,-1,-1,-1,-1,-1],"split_conditions":[1E2,1E0,1E0,1E0,1E0,2.00001E0,1E0,1E0,1E0,2.00001E0,1E0,1E0,-5.2541625E-2,2.00001E0,1E0,1E0,1E0,-1.5150542E-2,1E0,1E0,1E0,-3.6666203E-2,3.152634E-2,1E0,1E0,4.4705313E-2,1.09371446E-1,1E0,1E0,-7.285869E-3,5.0553173E-2,3.8031865E-2,-4.5403894E-2,6.310794E-2,1.545485E-2,6.1254468E-2,-3.303231E-2,-4.248534E-2,3.3366986E-2,-1.8569406E-2,3.4367714E-2,-3.4804087E-2,-1.8536476E-2,-1.7564662E-2,3.4169037E-2,8.112057E-2,-8.030202E-3],"split_indices":[700,660,371,350,73,703,65,74,543,703,4,252,0,703,32,81,112,0,81,539,224,0,0,0,344,0,0,182,617,0,0,0,0,0,0,0,0,0,0,0,0,0,0,0,0,0,0],"split_type":[0,0,0,0,0,0,0,0,0,0,0,0,0,0,0,0,0,0,0,0,0,0,0,0,0,0,0,0,0,0,0,0,0,0,0,0,0,0,0,0,0,0,0,0,0,0,0],"sum_hessian":[1.306E3,7.63E2,5.43E2,4.85E2,2.78E2,2.45E2,2.98E2,4.54E2,3.1E1,2.51E2,2.7E1,1.09E2,1.36E2,1.3E1,2.85E2,3.67E2,8.7E1,1E0,3E1,8.3E1,1.68E2,1.7E1,1E1,6E0,1.03E2,1.2E1,1E0,2.81E2,4E0,3.27E2,4E1,8.4E1,3E0,2.9E1,1E0,8.1E1,2E0,4E0,1.64E2,2E0,4E0,5E0,9.8E1,2.8E2,1E0,2E0,2E0],"tree_param":{"num_deleted":"0","num_feature":"705","num_nodes":"47","size_leaf_vector":"1"}},{"base_weights":[1.6158543E-3,2.856597E-1,-5.104224E-1,1.2912692E-1,6.9668055E-1,-5.7971287E-1,6.934752E-1,5.2760422E-2,1.1778473E0,7.2338545E-1,5.2857757E-2,-1.0988727E0,-3.1992123E-1,1.3527591E0,-2.6859152E-1,-1.20874934E-1,4.816028E-1,1.2559459E0,-4.670004E-2,9.3639386E-1,6.3873017E-1,1.1471943E0,-8.67899E-1,8.6581424E-2,-6.1460406E-2,-3.3546096E-1,-2.2165567E-1,3.4340554E-1,9.937527E-2,-1.8766062E-2,1.9967644E-2,-1.0907169E-2,5.7743978E-2,3.1289153E-2,-1.400016E-2,7.438003E-2,4.1498367E-2,6.981033E-2,3.5851806E-2,3.785224E-2,2.363721E-2,2.922826E-2,8.4942766E-2,-6.0481843E-2,2.1019755E-2,-7.0379763E-3,2.2552637E-2,-1.6906084E-2,7.843971E-3,-1.4301553E-2,7.054145E-3,4.477733E-2,5.1062126E-3],"categories":[],"categories_nodes":[],"categories_segments":[],"categories_sizes":[],"default_left":[0,0,1,0,0,0,0,0,0,0,0,0,1,0,0,0,0,0,0,0,0,0,0,0,0,0,0,0,0,0,0,0,0,0,0,0,0,0,0,0,0,0,0,0,0,0,0,0,0,0,0,0,0],"id":28,"left_children":[1,3,5,7,9,11,13,15,17,19,21,23,25,27,29,31,33,35,-1,37,39,41,43,45,-1,47,49,51,-1,-1,-1,-1,-1,-1,-1,-1,-1,-1,-1,-1,-1,-1,-1,-1,-1,-1,-1,-1,-1,-1,-1,-1,-1],"loss_changes":[1.838382E2,5.2217026E1,3.8023804E1,4.718924E1,3.813034E0,5.7239365E1,1.6220219E1,4.1086884E1,7.770359E0,3.278839E0,1.1071826E1,2.2046371E1,3.6237335E-1,8.927729E0,9.340703E-1,4.901956E1,1.7634777E1,2.6138573E0,0E0,4.949814E0,2.7253723E0,5.588112E-1,3.1500783E0,1.3063788E0,0E0,3.7399292E-1,1.0211143E0,8.410921E-1,0E0,0E0,0E0,0E0,0E0,0E0,0E0,0E0,0E0,0E0,0E0,0E0,0E0,0E0,0E0,0E0,0E0,0E0,0E0,0E0,0E0,0E0,0E0,0E0,0E0],"parents":[2147483647,0,0,1,1,2,2,3,3,4,4,5,5,6,6,7,7,8,8,9,9,10,10,11,11,12,12,13,13,14,14,15,15,16,16,17,17,19,19,20,20,21,21,22,22,23,23,25,25,26,26,27,27],"right_children":[2,4,6,8,10,12,14,16,18,20,22,24,26,28,30,32,34,36,-1,38,40,42,44,46,-1,48,50,52,-1,-1,-1,-1,-1,-1,-1,-1,-1,-1,-1,-1,-1,-1,-1,-1,-1,-1,-1,-1,-1,-1,-1,-1,-1],"split_conditions":[1E2,1E0,1E0,1E0,1E0,1E0,1E0,1E0,1E0,2.00001E0,1E0,2.00001E0,1E0,2.00001E0,1E0,1E0,1E0,1E0,-4.670004E-2,1E0,1E0,1E0,1E0,1E0,-6.1460406E-2,1E0,1E0,1E0,9.937527E-2,-1.8766062E-2,1.9967644E-2,-1.0907169E-2,5.7743978E-2,3.1289153E-2,-1.400016E-2,7.438003E-2,4.1498367E-2,6.981033E-2,3.5851806E-2,3.785224E-2,2.363721E-2,2.922826E-2,8.4942766E-2,-6.0481843E-2,2.1019755E-2,-7.0379763E-3,2.2552637E-2,-1.6906084E-2,7.843971E-3,-1.4301553E-2,7.054145E-3,4.477733E-2,5.1062126E-3],"split_indices":[698,74,702,81,112,272,65,660,2,704,543,703,704,703,515,233,73,29,0,153,350,60,13,371,0,567,617,704,0,0,0,0,0,0,0,0,0,0,0,0,0,0,0,0,0,0,0,0,0,0,0,0,0],"split_type":[0,0,0,0,0,0,0,0,0,0,0,0,0,0,0,0,0,0,0,0,0,0,0,0,0,0,0,0,0,0,0,0,0,0,0,0,0,0,0,0,0,0,0,0,0,0,0,0,0,0,0,0,0],"sum_hessian":[1.262E3,8.12E2,4.5E2,5.89E2,2.23E2,4.26E2,2.4E1,5.5E2,3.9E1,2.14E2,9E0,1.41E2,2.85E2,1.4E1,1E1,3.92E2,1.58E2,3.8E1,1E0,5.8E1,1.56E2,4E0,5E0,1.4E1,1.27E2,2.44E2,4.1E1,6E0,8E0,9E0,1E0,3.65E2,2.7E1,1.33E2,2.5E1,2.3E1,1.5E1,1.7E1,4.1E1,8.9E1,6.7E1,3E0,1E0,4E0,1E0,9E0,5E0,2.43E2,1E0,3.5E1,6E0,1E0,5E0],"tree_param":{"num_deleted":"0","num_feature":"705","num_nodes":"53","size_leaf_vector":"1"}},{"base_weights":[-6.279574E-3,2.816937E-1,-5.2714926E-1,1.758816E-1,8.102427E-1,-8.645257E-1,-2.4456267E-1,1.2334598E-1,1.1510209E0,1.0796568E0,6.479592E-1,-2.8139263E-1,-1.1119248E0,7.1147186E-1,-3.002403E-1,8.8196784E-2,1.3584316E0,-1.9378742E-2,1.2225415E0,1.396155E0,7.811171E-1,1.2649298E-3,6.8690145E-1,8.332172E-2,-3.284698E-1,-1.24045E0,2.832574E-2,1.3248713E0,-9.1195E-2,2.3541987E-2,-3.238951E-1,2.98412E-4,3.2183405E-2,9.932906E-2,5.1853087E-2,-2.2271944E-2,2.0818537E-2,6.967451E-2,2.570703E-2,1.0887394E-2,7.199106E-2,3.4367613E-2,8.281919E-2,2.2874765E-2,-5.6997176E-2,6.1698355E-2,3.2548096E-2,-3.3260986E-2,3.3274528E-2,-2.5791323E-2,-1.5406608E-2,-6.322204E-2,-1.818994E-2,4.5948993E-2,1.0415279E-1,4.36579E-2,-1.9872343E-2,1.1035199E-2,-1.8735284E-2,-2.1008901E-2,-1.574002E-2],"categories":[],"categories_nodes":[],"categories_segments":[],"categories_sizes":[],"default_left":[0,0,0,0,0,0,0,0,0,0,0,0,1,0,0,0,0,0,0,0,0,0,0,0,0,0,0,0,0,0,0,0,0,0,0,0,0,0,0,0,0,0,0,0,0,0,0,0,0,0,0,0,0,0,0,0,0,0,0,0,0],"id":29,"left_children":[1,3,5,7,9,11,13,15,17,19,21,23,25,27,29,31,33,35,37,39,41,43,45,47,49,51,-1,53,55,57,59,-1,-1,-1,-1,-1,-1,-1,-1,-1,-1,-1,-1,-1,-1,-1,-1,-1,-1,-1,-1,-1,-1,-1,-1,-1,-1,-1,-1,-1,-1],"loss_changes":[1.9169409E2,4.5885315E1,4.316738E1,3.5052723E1,5.290268E0,2.9550278E1,1.3467817E1,2.82284E1,2.9534569E0,3.6338081E0,2.2153015E0,1.1090608E0,3.1982422E1,7.013798E0,1.8151512E0,2.9045834E1,1.5734253E0,7.424342E-1,3.2798538E0,8.699837E-1,1.15942E0,3.6454425E0,8.286171E-1,3.9289174E0,5.444002E-2,2.3792572E0,0E0,5.4763794E-1,2.414378E0,1.4175272E0,6.0375214E-2,0E0,0E0,0E0,0E0,0E0,0E0,0E0,0E0,0E0,0E0,0E0,0E0,0E0,0E0,0E0,0E0,0E0,0E0,0E0,0E0,0E0,0E0,0E0,0E0,0E0,0E0,0E0,0E0,0E0,0E0],"parents":[2147483647,0,0,1,1,2,2,3,3,4,4,5,5,6,6,7,7,8,8,9,9,10,10,11,11,12,12,13,13,14,14,15,15,16,16,17,17,18,18,19,19,20,20,21,21,22,22,23,23,24,24,25,25,27,27,28,28,29,29,30,30],"right_children":[2,4,6,8,10,12,14,16,18,20,22,24,26,28,30,32,34,36,38,40,42,44,46,48,50,52,-1,54,56,58,60,-1,-1,-1,-1,-1,-1,-1,-1,-1,-1,-1,-1,-1,-1,-1,-1,-1,-1,-1,-1,-1,-1,-1,-1,-1,-1,-1,-1,-1,-1],"split_conditions":[1E2,1E0,1E0,1E0,1E0,2.00001E0,1E0,1E0,1E0,1E0,1E0,1E0,1E0,1E0,2.00001E0,1E0,1E2,1E0,1E0,1E0,1E0,1E0,1E0,1E0,1E2,1E0,2.832574E-2,2.00001E0,1E0,1E0,1E2,2.98412E-4,3.2183405E-2,9.932906E-2,5.1853087E-2,-2.2271944E-2,2.0818537E-2,6.967451E-2,2.570703E-2,1.0887394E-2,7.199106E-2,3.4367613E-2,8.281919E-2,2.2874765E-2,-5.6997176E-2,6.1698355E-2,3.2548096E-2,-3.3260986E-2,3.3274528E-2,-2.5791323E-2,-1.5406608E-2,-6.322204E-2,-1.818994E-2,4.5948993E-2,1.0415279E-1,4.36579E-2,-1.9872343E-2,1.1035199E-2,-1.8735284E-2,-2.1008901E-2,-1.574002E-2],"split_indices":[698,136,371,331,702,703,65,637,704,353,704,483,702,440,703,350,699,74,404,151,60,249,4,703,701,702,0,703,704,47,701,0,0,0,0,0,0,0,0,0,0,0,0,0,0,0,0,0,0,0,0,0,0,0,0,0,0,0,0,0,0],"split_type":[0,0,0,0,0,0,0,0,0,0,0,0,0,0,0,0,0,0,0,0,0,0,0,0,0,0,0,0,0,0,0,0,0,0,0,0,0,0,0,0,0,0,0,0,0,0,0,0,0,0,0,0,0,0,0,0,0,0,0,0,0],"sum_hessian":[1.276E3,8.22E2,4.54E2,6.86E2,1.36E2,2.06E2,2.48E2,6.52E2,3.4E1,4.9E1,8.7E1,6.2E1,1.44E2,1.3E1,2.35E2,6.35E2,1.7E1,2E0,3.2E1,2.2E1,2.7E1,5E0,8.2E1,7E0,5.5E1,1.34E2,1E1,7E0,6E0,1.6E1,2.19E2,5.54E2,8.1E1,4E0,1.3E1,1E0,1E0,2.5E1,7E0,1E0,2.1E1,2.6E1,1E0,4E0,1E0,3E0,7.9E1,3E0,4E0,3E0,5.2E1,1.3E2,4E0,6E0,1E0,1E0,5E0,1.1E1,5E0,1.5E1,2.04E2],"tree_param":{"num_deleted":"0","num_feature":"705","num_nodes":"61","size_leaf_vector":"1"}},{"base_weights":[1.692542E-2,3.6051235E-1,-4.5284367E-1,-9.818122E-2,4.962071E-1,-8.124608E-1,-3.0540136E-1,-3.661105E-1,6.773915E-1,5.730644E-1,-2.0830585E-2,-1.01328E0,1.1561804E0,-3.1906062E-1,1.0788243E0,-4.9301362E-1,1.3525094E0,7.427499E-1,-1.6187972E-1,9.837606E-1,4.3228877E-1,-4.9466357E-2,-1.1429259E0,9.486248E-1,1.0154896E-1,-4.1991806E-1,-2.6496443E-1,7.683221E-2,-7.365896E-3,-2.8491138E-2,1.33344E-1,8.120626E-2,1.3395123E-2,3.887638E-2,-1.6208967E-2,3.188976E-2,-3.205182E-2,5.304832E-2,-4.2006236E-2,2.3693783E-2,-4.672575E-2,8.640296E-3,-3.309677E-2,-5.8083117E-2,-2.8729305E-2,6.46818E-2,1.3650196E-2,-2.1638041E-2,3.156209E-2,-1.3457106E-2,-2.379322E-4],"categories":[],"categories_nodes":[],"categories_segments":[],"categories_sizes":[],"default_left":[0,0,0,0,0,1,0,0,0,0,0,0,0,0,0,0,0,0,0,0,0,0,0,1,0,0,0,0,0,0,0,0,0,0,0,0,0,0,0,0,0,0,0,0,0,0,0,0,0,0,0],"id":30,"left_children":[1,3,5,7,9,11,13,15,17,19,-1,21,23,25,27,29,31,33,35,37,39,41,43,45,-1,47,49,-1,-1,-1,-1,-1,-1,-1,-1,-1,-1,-1,-1,-1,-1,-1,-1,-1,-1,-1,-1,-1,-1,-1,-1],"loss_changes":[2.0708643E2,4.6170258E1,2.8490211E1,3.5573772E1,4.0368423E1,6.3240097E1,7.6425095E0,2.8365274E1,2.5337868E0,3.0101578E1,0E0,1.7811935E1,7.969036E-1,1.9783859E0,2.4717846E0,3.0401978E1,2.216259E0,1.7733765E0,1.9415282E0,1.9760498E1,2.2895073E1,2.5648143E0,6.7427063E-1,2.9101868E0,0E0,2.055149E0,2.726574E-1,0E0,0E0,0E0,0E0,0E0,0E0,0E0,0E0,0E0,0E0,0E0,0E0,0E0,0E0,0E0,0E0,0E0,0E0,0E0,0E0,0E0,0E0,0E0,0E0],"parents":[2147483647,0,0,1,1,2,2,3,3,4,4,5,5,6,6,7,7,8,8,9,9,11,11,12,12,13,13,14,14,15,15,16,16,17,17,18,18,19,19,20,20,21,21,22,22,23,23,25,25,26,26],"right_children":[2,4,6,8,10,12,14,16,18,20,-1,22,24,26,28,30,32,34,36,38,40,42,44,46,-1,48,50,-1,-1,-1,-1,-1,-1,-1,-1,-1,-1,-1,-1,-1,-1,-1,-1,-1,-1,-1,-1,-1,-1,-1,-1],"split_conditions":[1E2,1E0,1E0,1E0,1E2,1E0,1E0,1E0,1E0,2.00001E0,-2.0830585E-2,2.00001E0,1E0,1E2,1E0,1E0,1E0,1E0,1E0,1E0,1E0,1E0,1E0,1E0,1.0154896E-1,1E0,1E0,7.683221E-2,-7.365896E-3,-2.8491138E-2,1.33344E-1,8.120626E-2,1.3395123E-2,3.887638E-2,-1.6208967E-2,3.188976E-2,-3.205182E-2,5.304832E-2,-4.2006236E-2,2.3693783E-2,-4.672575E-2,8.640296E-3,-3.309677E-2,-5.8083117E-2,-2.8729305E-2,6.46818E-2,1.3650196E-2,-2.1638041E-2,3.156209E-2,-1.3457106E-2,-2.379322E-4],"split_indices":[700,489,344,129,698,702,32,702,241,704,0,704,463,698,2,91,241,32,2,112,577,252,702,704,0,182,567,0,0,0,0,0,0,0,0,0,0,0,0,0,0,0,0,0,0,0,0,0,0,0,0],"split_type":[0,0,0,0,0,0,0,0,0,0,0,0,0,0,0,0,0,0,0,0,0,0,0,0,0,0,0,0,0,0,0,0,0,0,0,0,0,0,0,0,0,0,0,0,0,0,0,0,0,0,0],"sum_hessian":[1.281E3,7.4E2,5.41E2,1.69E2,5.71E2,1.56E2,3.85E2,1.26E2,4.3E1,5.27E2,4.4E1,1.42E2,1.4E1,3.82E2,3E0,1.18E2,8E0,4E1,3E0,1.33E2,3.94E2,1.7E1,1.25E2,1.3E1,1E0,1.31E2,2.51E2,2E0,1E0,1.16E2,2E0,6E0,2E0,3.9E1,1E0,1E0,2E0,1.28E2,5E0,3.83E2,1.1E1,1.3E1,4E0,1.2E2,5E0,8E0,5E0,1.3E2,1E0,2.47E2,4E0],"tree_param":{"num_deleted":"0","num_feature":"705","num_nodes":"51","size_leaf_vector":"1"}},{"base_weights":[1.89273E-3,3.5343996E-1,-4.8036143E-1,-1.2641689E-2,4.6507224E-1,-8.927645E-1,-3.1012315E-1,-2.3221207E-1,6.9342124E-1,9.0240633E-1,3.2191744E-1,4.7161484E-1,-1.081299E0,-4.9083024E-1,-2.9685995E-1,-2.93854E-1,1.288992E-1,7.326324E-1,-6.05343E-2,9.7006744E-1,-1.1319891E0,4.6307588E-1,-2.3835409E-1,5.2065945E-1,-1.1505822E-2,-1.159007E0,2.8036332E-2,-1.8188399E-1,-2.6234591E-2,-2.9897115E-1,1.1737603E-2,-1.9928167E-2,6.960249E-2,3.815521E-2,-1.1394134E-2,1.8697498E-2,-2.323757E-2,3.6624633E-3,5.357744E-2,-8.142344E-2,2.1348229E-2,2.4631845E-2,-4.2557605E-2,-4.298822E-2,1.3689198E-2,3.3069633E-2,9.245898E-3,-5.872286E-2,-3.554587E-2,-1.8723544E-2,9.896916E-3,-1.3543683E-2,-1.8183177E-2],"categories":[],"categories_nodes":[],"categories_segments":[],"categories_sizes":[],"default_left":[0,0,0,0,0,0,0,0,0,0,0,0,1,0,0,0,0,0,0,0,0,0,0,0,0,0,0,0,0,0,0,0,0,0,0,0,0,0,0,0,0,0,0,0,0,0,0,0,0,0,0,0,0],"id":31,"left_children":[1,3,5,7,9,11,13,15,17,19,21,23,25,27,29,31,-1,33,35,37,39,41,43,45,-1,47,-1,49,-1,51,-1,-1,-1,-1,-1,-1,-1,-1,-1,-1,-1,-1,-1,-1,-1,-1,-1,-1,-1,-1,-1,-1,-1],"loss_changes":[2.195482E2,3.0614914E1,3.8056053E1,2.7446388E1,3.5645615E1,4.1409927E1,7.842293E-1,2.4143044E1,1.2860165E0,2.0506683E1,3.443415E1,8.0813503E-1,1.8513672E1,1.6610193E-1,4.787178E-1,2.403329E1,0E0,1.3446407E0,7.006716E-1,1.2389923E1,4.565242E0,1.390023E1,2.8241196E1,7.7544594E-1,0E0,9.275818E-2,0E0,3.667173E-1,0E0,5.613098E-1,0E0,0E0,0E0,0E0,0E0,0E0,0E0,0E0,0E0,0E0,0E0,0E0,0E0,0E0,0E0,0E0,0E0,0E0,0E0,0E0,0E0,0E0,0E0],"parents":[2147483647,0,0,1,1,2,2,3,3,4,4,5,5,6,6,7,7,8,8,9,9,10,10,11,11,12,12,13,13,14,14,15,15,17,17,18,18,19,19,20,20,21,21,22,22,23,23,25,25,27,27,29,29],"right_children":[2,4,6,8,10,12,14,16,18,20,22,24,26,28,30,32,-1,34,36,38,40,42,44,46,-1,48,-1,50,-1,52,-1,-1,-1,-1,-1,-1,-1,-1,-1,-1,-1,-1,-1,-1,-1,-1,-1,-1,-1,-1,-1,-1,-1],"split_conditions":[1E2,1E0,1E0,1E0,2.00001E0,2.00001E0,1E2,1E0,1E0,1E0,1E2,1E0,1E0,1E0,1E0,1E0,1.288992E-1,1E0,1E0,1E0,1E0,1E0,1E2,1E0,-1.1505822E-2,1E0,2.8036332E-2,1E0,-2.6234591E-2,1E0,1.1737603E-2,-1.9928167E-2,6.960249E-2,3.815521E-2,-1.1394134E-2,1.8697498E-2,-2.323757E-2,3.6624633E-3,5.357744E-2,-8.142344E-2,2.1348229E-2,2.4631845E-2,-4.2557605E-2,-4.298822E-2,1.3689198E-2,3.3069633E-2,9.245898E-3,-5.872286E-2,-3.554587E-2,-1.8723544E-2,9.896916E-3,-1.3543683E-2,-1.8183177E-2],"split_indices":[700,489,406,353,704,704,701,91,241,112,701,260,702,704,112,702,0,73,29,152,241,577,699,440,0,702,0,65,0,418,0,0,0,0,0,0,0,0,0,0,0,0,0,0,0,0,0,0,0,0,0,0,0],"split_type":[0,0,0,0,0,0,0,0,0,0,0,0,0,0,0,0,0,0,0,0,0,0,0,0,0,0,0,0,0,0,0,0,0,0,0,0,0,0,0,0,0,0,0,0,0,0,0,0,0,0,0,0,0],"sum_hessian":[1.293E3,7.48E2,5.45E2,1.75E2,5.73E2,1.58E2,3.87E2,1.34E2,4.1E1,1.4E2,4.33E2,1.9E1,1.39E2,2.4E1,3.63E2,1.32E2,2E0,3.9E1,2E0,1.36E2,4E0,3.46E2,8.7E1,1.8E1,1E0,1.33E2,6E0,3E0,2.1E1,3.62E2,1E0,1.25E2,7E0,3.8E1,1E0,1E0,1E0,1.4E1,1.22E2,3E0,1E0,3.39E2,7E0,3.9E1,4.8E1,1.2E1,6E0,1.27E2,6E0,2E0,1E0,2.56E2,1.06E2],"tree_param":{"num_deleted":"0","num_feature":"705","num_nodes":"53","size_leaf_vector":"1"}},{"base_weights":[2.0953434E-2,3.1562254E-1,-3.835011E-1,3.7053937E-1,-3.5882187E-1,-6.018365E-1,-2.141788E-1,2.7736593E-2,4.8430642E-1,-4.0115994E-1,-1.1904784E-2,-2.9596695E-1,-8.162407E-1,7.232108E-1,-2.619259E-1,-1.8766463E-1,6.5372795E-1,3.377649E-1,7.621484E-1,-2.0802213E-2,-1.6319004E-1,-1.6569482E-2,-3.2061818E-1,-9.200489E-1,2.2823742E-2,1.2109857E0,1.4503464E-1,-2.7862915E-1,7.458843E-1,-1.624403E-2,5.8291472E-2,7.9634026E-2,2.7308911E-2,2.0198988E-2,-9.339294E-2,-6.54288E-2,4.3427173E-2,-1.7060602E-2,9.271899E-3,-3.4098912E-2,2.1489896E-2,-3.139167E-2,-1.4951435E-2,-4.6606585E-2,-2.6051167E-2,4.114675E-2,9.8183505E-2,4.071826E-2,-3.3460949E-3,-2.1312414E-3,-1.5153368E-2,7.479992E-2,-1.2642895E-2],"categories":[],"categories_nodes":[],"categories_segments":[],"categories_sizes":[],"default_left":[0,0,0,0,0,0,0,0,0,1,0,0,1,0,0,0,0,0,0,0,0,0,0,0,0,0,0,0,0,0,0,0,0,0,0,0,0,0,0,0,0,0,0,0,0,0,0,0,0,0,0,0,0],"id":32,"left_children":[1,3,5,7,9,11,13,15,17,19,-1,21,23,25,27,29,31,33,35,-1,37,39,41,43,-1,45,47,49,51,-1,-1,-1,-1,-1,-1,-1,-1,-1,-1,-1,-1,-1,-1,-1,-1,-1,-1,-1,-1,-1,-1,-1,-1],"loss_changes":[1.5183752E2,2.7430206E1,1.9723488E1,2.6584343E1,1.9071865E-1,1.5104073E1,1.3795754E1,2.3180202E1,2.0588852E1,7.3786736E-2,0E0,6.696625E-1,1.8520172E1,4.054662E0,5.089596E0,2.4151037E1,3.573412E0,4.9971756E1,3.9911972E1,0E0,3.1152746E-1,2.9662635E0,4.09194E-1,1.2665558E-1,0E0,7.20664E-1,1.1894507E0,1.6365929E0,4.124128E0,0E0,0E0,0E0,0E0,0E0,0E0,0E0,0E0,0E0,0E0,0E0,0E0,0E0,0E0,0E0,0E0,0E0,0E0,0E0,0E0,0E0,0E0,0E0,0E0],"parents":[2147483647,0,0,1,1,2,2,3,3,4,4,5,5,6,6,7,7,8,8,9,9,11,11,12,12,13,13,14,14,15,15,16,16,17,17,18,18,20,20,21,21,22,22,23,23,25,25,26,26,27,27,28,28],"right_children":[2,4,6,8,10,12,14,16,18,20,-1,22,24,26,28,30,32,34,36,-1,38,40,42,44,-1,46,48,50,52,-1,-1,-1,-1,-1,-1,-1,-1,-1,-1,-1,-1,-1,-1,-1,-1,-1,-1,-1,-1,-1,-1,-1,-1],"split_conditions":[1E2,1E2,1E0,1E0,1E0,2.00001E0,1E0,1E0,1E2,1E0,-1.1904784E-2,1E0,1E0,1E0,1E0,1E0,1E0,1E0,1E0,-2.0802213E-2,1E0,1E0,1E0,1E0,2.2823742E-2,2.00001E0,1E0,2.00001E0,1E2,-1.624403E-2,5.8291472E-2,7.9634026E-2,2.7308911E-2,2.0198988E-2,-9.339294E-2,-6.54288E-2,4.3427173E-2,-1.7060602E-2,9.271899E-3,-3.4098912E-2,2.1489896E-2,-3.139167E-2,-1.4951435E-2,-4.6606585E-2,-2.6051167E-2,4.114675E-2,9.8183505E-2,4.071826E-2,-3.3460949E-3,-2.1312414E-3,-1.5153368E-2,7.479992E-2,-1.2642895E-2],"split_indices":[700,698,371,489,358,703,120,353,699,704,0,252,702,440,32,637,129,357,543,0,120,703,344,702,0,703,704,703,698,0,0,0,0,0,0,0,0,0,0,0,0,0,0,0,0,0,0,0,0,0,0,0,0],"split_type":[0,0,0,0,0,0,0,0,0,0,0,0,0,0,0,0,0,0,0,0,0,0,0,0,0,0,0,0,0,0,0,0,0,0,0,0,0,0,0,0,0,0,0,0,0,0,0,0,0,0,0,0,0],"sum_hessian":[1.272E3,7.36E2,5.36E2,6.81E2,5.5E1,2.33E2,3.03E2,1.7E2,5.11E2,3.9E1,1.6E1,9.7E1,1.36E2,1.4E1,2.89E2,1.27E2,4.3E1,3.36E2,1.75E2,3.6E1,3E0,8E0,8.9E1,1.26E2,1E1,7E0,7E0,2.85E2,4E0,1.16E2,1.1E1,3E0,4E1,3.27E2,9E0,8E0,1.67E2,2E0,1E0,3E0,5E0,4E0,8.5E1,1.21E2,5E0,6E0,1E0,1E0,6E0,2.7E1,2.58E2,2E0,2E0],"tree_param":{"num_deleted":"0","num_feature":"705","num_nodes":"53","size_leaf_vector":"1"}},{"base_weights":[2.4255656E-2,3.0660206E-1,-3.6090115E-1,3.6667675E-1,-3.581956E-1,-5.3286827E-1,-2.1394286E-1,6.6262215E-1,2.4224491E-1,-4.0994796E-1,-1.1450912E-2,-2.7471873E-1,-3.7019517E-2,7.7571046E-1,-2.6600996E-1,4.716627E-1,1.0549117E0,2.8948706E-1,-1.6282597E0,-2.1249816E-2,-1.5697768E-1,2.0125775E-1,-2.9861817E-1,7.567321E-2,4.6515006E-1,1.0424733E-1,-2.8291455E-1,-1.2467872E-2,2.9493619E-2,6.1470743E-2,3.6326516E-2,3.0959064E-2,6.2645464E-3,7.0235315E-3,-9.009117E-2,-1.6491914E-2,9.040102E-3,-4.3350216E-2,2.9415552E-2,-1.8938392E-2,-1.2093746E-2,3.7842926E-2,1.6556127E-2,-2.558407E-2,1.3137544E-2,-1.4416787E-2,2.9249063E-2],"categories":[],"categories_nodes":[],"categories_segments":[],"categories_sizes":[],"default_left":[0,0,0,0,0,0,0,0,0,1,0,0,0,1,0,0,0,0,0,0,0,0,0,0,0,0,0,0,0,0,0,0,0,0,0,0,0,0,0,0,0,0,0,0,0,0,0],"id":33,"left_children":[1,3,5,7,9,11,13,15,17,19,-1,21,-1,23,25,27,29,31,33,-1,35,37,39,-1,41,43,45,-1,-1,-1,-1,-1,-1,-1,-1,-1,-1,-1,-1,-1,-1,-1,-1,-1,-1,-1,-1],"loss_changes":[1.3985138E2,2.9764969E1,1.3633972E1,2.4917336E1,3.2060003E-1,1.3189522E1,1.5407221E1,1.4559631E1,4.2975723E1,9.69758E-2,0E0,1.3455391E0,0E0,2.732768E0,1.7882843E0,1.1823811E1,2.8315277E0,2.5365643E1,3.9369526E0,0E0,2.9319066E-1,2.9909139E0,3.995638E-1,0E0,2.1855068E-1,1.4035941E0,1.4343243E0,0E0,0E0,0E0,0E0,0E0,0E0,0E0,0E0,0E0,0E0,0E0,0E0,0E0,0E0,0E0,0E0,0E0,0E0,0E0,0E0],"parents":[2147483647,0,0,1,1,2,2,3,3,4,4,5,5,6,6,7,7,8,8,9,9,11,11,13,13,14,14,15,15,16,16,17,17,18,18,20,20,21,21,22,22,24,24,25,25,26,26],"right_children":[2,4,6,8,10,12,14,16,18,20,-1,22,-1,24,26,28,30,32,34,-1,36,38,40,-1,42,44,46,-1,-1,-1,-1,-1,-1,-1,-1,-1,-1,-1,-1,-1,-1,-1,-1,-1,-1,-1,-1],"split_conditions":[1E2,1E2,1E0,1E0,1E0,2.00001E0,1E0,1E0,1E0,1E0,-1.1450912E-2,1E0,-3.7019517E-2,1E0,1E0,1E2,1E0,2.00001E0,1E0,-2.1249816E-2,1E0,1E0,1E2,7.567321E-2,1E0,1E2,1E0,-1.2467872E-2,2.9493619E-2,6.1470743E-2,3.6326516E-2,3.0959064E-2,6.2645464E-3,7.0235315E-3,-9.009117E-2,-1.6491914E-2,9.040102E-3,-4.3350216E-2,2.9415552E-2,-1.8938392E-2,-1.2093746E-2,3.7842926E-2,1.6556127E-2,-2.558407E-2,1.3137544E-2,-1.4416787E-2,2.9249063E-2],"split_indices":[700,698,371,418,73,703,65,181,357,704,0,272,0,703,703,699,233,703,489,0,65,703,698,0,704,698,91,0,0,0,0,0,0,0,0,0,0,0,0,0,0,0,0,0,0,0,0],"split_type":[0,0,0,0,0,0,0,0,0,0,0,0,0,0,0,0,0,0,0,0,0,0,0,0,0,0,0,0,0,0,0,0,0,0,0,0,0,0,0,0,0,0,0,0,0,0,0],"sum_hessian":[1.284E3,7.41E2,5.43E2,6.8E2,6.1E1,2.49E2,2.94E2,2E2,4.8E2,4.2E1,1.9E1,1.12E2,1.37E2,1.4E1,2.8E2,1.36E2,6.4E1,4.69E2,1.1E1,3.9E1,3E0,5E0,1.07E2,3E0,1.1E1,1.2E1,2.68E2,1.9E1,1.17E2,4E1,2.4E1,1.55E2,3.14E2,1E0,1E1,2E0,1E0,1E0,4E0,4.2E1,6.5E1,2E0,9E0,2E0,1E1,2.67E2,1E0],"tree_param":{"num_deleted":"0","num_feature":"705","num_nodes":"47","size_leaf_vector":"1"}},{"base_weights":[1.5116056E-3,2.843936E-1,-3.8509658E-1,3.407057E-1,-3.5761163E-1,-6.696361E-1,-2.6137954E-1,-4.4011775E-2,4.662757E-1,-2.0410629E-2,-1.0843211E-2,-7.728456E-1,4.9337737E-2,-2.6541772E-1,3.1525332E-2,-2.5414157E-1,5.727409E-1,8.16012E-1,3.2047203E-1,-8.0109304E-1,-2.287387E-1,-3.5408387E-1,-2.18959E-1,-1.5914744E-2,1.2411206E-1,3.3485375E-2,3.239934E-3,4.1828807E-2,-5.6201108E-2,5.5319234E-3,3.349477E-2,-7.5306743E-3,-4.0227022E-2,9.097964E-3,-2.9684445E-2,-1.8292695E-2,2.8517837E-2,-6.638498E-3,-1.1527651E-2],"categories":[],"categories_nodes":[],"categories_segments":[],"categories_sizes":[],"default_left":[0,0,0,0,0,0,0,0,0,0,0,1,0,0,0,0,1,0,0,0,0,0,0,0,0,0,0,0,0,0,0,0,0,0,0,0,0,0,0],"id":34,"left_children":[1,3,5,7,9,11,13,15,17,-1,-1,19,-1,21,-1,23,25,27,29,31,33,35,37,-1,-1,-1,-1,-1,-1,-1,-1,-1,-1,-1,-1,-1,-1,-1,-1],"loss_changes":[1.3976799E2,2.6802505E1,1.8834259E1,3.282231E1,3.3878994E-1,2.8628326E1,1.5287495E0,2.191804E1,2.5846832E1,0E0,0E0,2.1836777E0,0E0,1.4754524E0,0E0,2.2909122E1,2.0745E0,6.9245987E0,2.6541313E1,2.0623016E-1,1.4569862E0,1.6014004E0,2.1920872E-1,0E0,0E0,0E0,0E0,0E0,0E0,0E0,0E0,0E0,0E0,0E0,0E0,0E0,0E0,0E0,0E0],"parents":[2147483647,0,0,1,1,2,2,3,3,4,4,5,5,6,6,7,7,8,8,11,11,13,13,15,15,16,16,17,17,18,18,19,19,20,20,21,21,22,22],"right_children":[2,4,6,8,10,12,14,16,18,-1,-1,20,-1,22,-1,24,26,28,30,32,34,36,38,-1,-1,-1,-1,-1,-1,-1,-1,-1,-1,-1,-1,-1,-1,-1,-1],"split_conditions":[1E2,1E2,1E0,1E0,1E0,1E0,1E0,1E0,2.00001E0,-2.0410629E-2,-1.0843211E-2,1E0,4.9337737E-2,1E2,3.1525332E-2,1E0,1E0,1E0,1E2,9.5E1,1E0,1E0,1E0,-1.5914744E-2,1.2411206E-1,3.3485375E-2,3.239934E-3,4.1828807E-2,-5.6201108E-2,5.5319234E-3,3.349477E-2,-7.5306743E-3,-4.0227022E-2,9.097964E-3,-2.9684445E-2,-1.8292695E-2,2.8517837E-2,-6.638498E-3,-1.1527651E-2],"split_indices":[700,698,344,489,73,371,182,129,703,0,0,703,0,698,0,91,704,343,699,699,252,32,703,0,0,0,0,0,0,0,0,0,0,0,0,0,0,0,0],"split_type":[0,0,0,0,0,0,0,0,0,0,0,0,0,0,0,0,0,0,0,0,0,0,0,0,0,0,0,0,0,0,0,0,0,0,0,0,0,0,0],"sum_hessian":[1.276E3,7.37E2,5.39E2,6.78E2,5.9E1,1.62E2,3.77E2,1.67E2,5.11E2,4.2E1,1.7E1,1.53E2,9E0,3.76E2,1E0,1.25E2,4.2E1,1.49E2,3.62E2,1.45E2,8E0,1.27E2,2.49E2,1.23E2,2E0,3.5E1,7E0,1.48E2,1E0,2.27E2,1.35E2,1E0,1.44E2,4E0,4E0,1.26E2,1E0,3.1E1,2.18E2],"tree_param":{"num_deleted":"0","num_feature":"705","num_nodes":"39","size_leaf_vector":"1"}},{"base_weights":[1.3161349E-2,-5.630969E-1,1.6985533E-1,-2.679393E-1,-8.8709223E-1,6.392111E-1,5.061067E-2,-2.9990265E-1,1.11565925E-1,-5.0272703E-2,2.919261E-1,5.944766E-1,1.6944488E0,2.354077E-1,-2.2618069E-1,-3.3247593E-1,4.779271E-2,2.706101E-2,-1.0759425E-2,5.506827E-1,7.965586E-2,1.9228954E0,2.3830503E-3,1.9092758E-1,5.7189174E-2,-5.224859E-1,-1.2531394E-1,-1.1440965E-2,-2.9061673E-2,2.8536845E-2,-4.6485808E-2,1.0336756E-1,2.6404038E-2,-1.6380129E-4,2.0802107E-2,-3.5924174E-2,-1.1378063E-2,-9.306975E-3,3.5786267E-2],"categories":[],"categories_nodes":[],"categories_segments":[],"categories_sizes":[],"default_left":[0,0,0,0,0,0,0,0,0,0,0,0,0,0,0,0,0,0,0,0,0,0,0,0,0,0,0,0,0,0,0,0,0,0,0,0,0,0,0],"id":35,"left_children":[1,3,5,7,9,11,13,15,-1,-1,17,19,21,23,25,27,-1,-1,-1,29,-1,31,-1,33,-1,35,37,-1,-1,-1,-1,-1,-1,-1,-1,-1,-1,-1,-1],"loss_changes":[1.19106026E2,2.6729881E1,5.8006645E1,1.2571992E1,1.8993324E1,8.905861E0,4.2405624E1,6.371607E0,0E0,0E0,1.7599331E0,8.000771E0,2.9179783E0,1.9862734E1,9.857124E0,3.6058807E0,0E0,0E0,0E0,6.3495064E0,0E0,3.1869507E-1,0E0,2.0767439E1,0E0,4.6920776E0,1.2871239E1,0E0,0E0,0E0,0E0,0E0,0E0,0E0,0E0,0E0,0E0,0E0,0E0],"parents":[2147483647,0,0,1,1,2,2,3,3,4,4,5,5,6,6,7,7,10,10,11,11,12,12,13,13,14,14,15,15,19,19,21,21,23,23,25,25,26,26],"right_children":[2,4,6,8,10,12,14,16,-1,-1,18,20,22,24,26,28,-1,-1,-1,30,-1,32,-1,34,-1,36,38,-1,-1,-1,-1,-1,-1,-1,-1,-1,-1,-1,-1],"split_conditions":[1E0,2.00001E0,2.00001E0,1E0,1E0,1E0,1E2,1E0,1.11565925E-1,-5.0272703E-2,2.00001E0,1E0,1E0,1E0,1E2,1E0,4.779271E-2,2.706101E-2,-1.0759425E-2,1E0,7.965586E-2,1E0,2.3830503E-3,1E0,5.7189174E-2,1E2,1E0,-1.1440965E-2,-2.9061673E-2,2.8536845E-2,-4.6485808E-2,1.0336756E-1,2.6404038E-2,-1.6380129E-4,2.0802107E-2,-3.5924174E-2,-1.1378063E-2,-9.306975E-3,3.5786267E-2],"split_indices":[371,703,704,253,702,178,701,702,0,0,702,125,166,81,699,376,0,0,0,118,0,55,0,129,0,698,249,0,0,0,0,0,0,0,0,0,0,0,0],"split_type":[0,0,0,0,0,0,0,0,0,0,0,0,0,0,0,0,0,0,0,0,0,0,0,0,0,0,0,0,0,0,0,0,0,0,0,0,0,0,0],"sum_hessian":[1.317E3,2.81E2,1.036E3,1.48E2,1.33E2,2.09E2,8.27E2,1.47E2,1E0,1.21E2,1.2E1,2.02E2,7E0,4.96E2,3.31E2,1.44E2,3E0,8E0,4E0,1.95E2,7E0,6E0,1E0,4.74E2,2.2E1,8.3E1,2.48E2,1.03E2,4.1E1,1.93E2,2E0,5E0,1E0,2.55E2,2.19E2,4.9E1,3.4E1,2.32E2,1.6E1],"tree_param":{"num_deleted":"0","num_feature":"705","num_nodes":"39","size_leaf_vector":"1"}},{"base_weights":[2.5258668E-2,2.8650993E-1,-2.4779372E-1,1.8844187E-1,6.391923E-1,-3.1263325E-1,8.163341E-1,7.987438E-2,5.6916237E-1,8.8731587E-1,4.7967106E-1,-7.437787E-1,-1.5621816E-1,1.4662039E0,-1.9123046E-1,1.2046382E-2,1.0498732E0,1.1391412E0,4.4917545E-1,1.2150918E0,5.145365E-1,2.9067233E-2,5.1825327E-1,-8.183844E-1,2.1968849E-1,-1.8435018E-1,1.3578224E0,2.0574827E0,5.50921E-1,2.5793886E-1,-4.4160903E-1,1.768877E-2,-9.977615E-3,6.0599256E-2,-7.5073116E-2,7.7727936E-2,4.3986898E-2,2.0894509E-2,6.34647E-2,5.013007E-2,1.3258223E-1,2.9521136E-2,-1.4468016E-2,-6.1275978E-2,1.9168407E-2,4.1327503E-2,2.3896024E-2,-3.9733738E-2,-6.6166006E-2,2.3860062E-2,-2.0731864E-2,-9.772687E-3,7.213514E-2,-4.2280413E-2,8.966997E-2,1.1611169E-1,2.0045096E-2,3.4238372E-2,-1.6342416E-2,2.0820491E-2,-1.3360399E-2,-1.4149946E-2,-4.6727497E-2],"categories":[],"categories_nodes":[],"categories_segments":[],"categories_sizes":[],"default_left":[0,0,1,0,0,0,0,0,0,0,0,1,0,1,0,0,0,0,0,0,0,0,0,0,0,0,0,0,0,0,0,0,0,0,0,0,0,0,0,0,0,0,0,0,0,0,0,0,0,0,0,0,0,0,0,0,0,0,0,0,0,0,0],"id":36,"left_children":[1,3,5,7,9,11,13,15,17,19,21,23,25,27,29,31,33,35,37,39,41,43,45,47,49,51,53,55,57,59,61,-1,-1,-1,-1,-1,-1,-1,-1,-1,-1,-1,-1,-1,-1,-1,-1,-1,-1,-1,-1,-1,-1,-1,-1,-1,-1,-1,-1,-1,-1,