{"learner":{"attributes":{"scikit_learn":"{\"_estimator_type\": \"classifier\"}"},"feature_names":[],"feature_types":[],"gradient_booster":{"model":{"cats":{"enc":[],"feature_segments":[],"sorted_idx":[]},"gbtree_model_param":{"num_parallel_tree":"1","num_trees":"300"},"iteration_indptr":[0,1,2,3,4,5,6,7,8,9,10,11,12,13,14,15,16,17,18,19,20,21,22,23,24,25,26,27,28,29,30,31,32,33,34,35,36,37,38,39,40,41,42,43,44,45,46,47,48,49,50,51,52,53,54,55,56,57,58,59,60,61,62,63,64,65,66,67,68,69,70,71,72,73,74,75,76,77,78,79,80,81,82,83,84,85,86,87,88,89,90,91,92,93,94,95,96,97,98,99,100,101,102,103,104,105,106,107,108,109,110,111,112,113,114,115,116,117,118,119,120,121,122,123,124,125,126,127,128,129,130,131,132,133,134,135,136,137,138,139,140,141,142,143,144,145,146,147,148,149,150,151,152,153,154,155,156,157,158,159,160,161,162,163,164,165,166,167,168,169,170,171,172,173,174,175,176,177,178,179,180,181,182,183,184,185,186,187,188,189,190,191,192,193,194,195,196,197,198,199,200,201,202,203,204,205,206,207,208,209,210,211,212,213,214,215,216,217,218,219,220,221,222,223,224,225,226,227,228,229,230,231,232,233,234,235,236,237,238,239,240,241,242,243,244,245,246,247,248,249,250,251,252,253,254,255,256,257,258,259,260,261,262,263,264,265,266,267,268,269,270,271,272,273,274,275,276,277,278,279,280,281,282,283,284,285,286,287,288,289,290,291,292,293,294,295,296,297,298,299,300],"tree_info":[0,0,0,0,0,0,0,0,0,0,0,0,0,0,0,0,0,0,0,0,0,0,0,0,0,0,0,0,0,0,0,0,0,0,0,0,0,0,0,0,0,0,0,0,0,0,0,0,0,0,0,0,0,0,0,0,0,0,0,0,0,0,0,0,0,0,0,0,0,0,0,0,0,0,0,0,0,0,0,0,0,0,0,0,0,0,0,0,0,0,0,0,0,0,0,0,0,0,0,0,0,0,0,0,0,0,0,0,0,0,0,0,0,0,0,0,0,0,0,0,0,0,0,0,0,0,0,0,0,0,0,0,0,0,0,0,0,0,0,0,0,0,0,0,0,0,0,0,0,0,0,0,0,0,0,0,0,0,0,0,0,0,0,0,0,0,0,0,0,0,0,0,0,0,0,0,0,0,0,0,0,0,0,0,0,0,0,0,0,0,0,0,0,0,0,0,0,0,0,0,0,0,0,0,0,0,0,0,0,0,0,0,0,0,0,0,0,0,0,0,0,0,0,0,0,0,0,0,0,0,0,0,0,0,0,0,0,0,0,0,0,0,0,0,0,0,0,0,0,0,0,0,0,0,0,0,0,0,0,0,0,0,0,0,0,0,0,0,0,0,0,0,0,0,0,0,0,0,0,0,0,0,0,0,0,0,0,0,0,0,0,0,0,0,0,0,0,0,0,0],"trees":[{"base_weights":[-7.7787465E-9,-3.780008E-1,1.9283586E0,-8.034738E-1,9.835016E-2,9.836499E-2,1.4865026E0,-9.647905E-1,1.4276286E0,-3.8825673E-1,9.5899306E-2,-3.247521E-1,-1.242919E0,1.5767848E0,-6.139544E-1,-8.3333336E-2,7.625684E-2,-4.7859043E-1,1.6621374E0,-1.2839017E0,9.206961E-2,-7.248493E-1,1.6804632E0,-8.461539E-2,8.4875304E-1,-6.666667E-2,-2.3662275E-2,8.683924E-2,1.6802326E-2,-6.553072E-2,9.183079E-2,-8.0000006E-2,6.16251E-2,8.743466E-2,-1.7511806E-2,-5E-2,7.625684E-2],"categories":[],"categories_nodes":[],"categories_segments":[],"categories_sizes":[],"default_left":[0,0,0,0,0,0,0,0,0,0,0,0,0,0,0,0,0,0,0,0,0,0,0,0,0,0,0,0,0,0,0,0,0,0,0,0,0],"id":0,"left_children":[1,3,5,7,-1,-1,9,11,13,15,-1,17,19,21,23,-1,-1,25,27,29,-1,31,33,-1,35,-1,-1,-1,-1,-1,-1,-1,-1,-1,-1,-1,-1],"loss_changes":[2.2348718E3,2.559274E3,5.722046E0,7.8257874E2,0E0,0E0,3.6977234E1,3.6003052E2,4.565799E1,2.5074745E1,0E0,1.8868123E2,1.8072876E2,3.3921387E1,1.8332144E1,0E0,0E0,1.9789734E0,3.8111649E0,1.1853711E2,0E0,1.328771E1,1.8824127E1,0E0,8.042244E0,0E0,0E0,0E0,0E0,0E0,0E0,0E0,0E0,0E0,0E0,0E0,0E0],"parents":[2147483647,0,0,1,1,2,2,3,3,6,6,7,7,8,8,9,9,11,11,12,12,13,13,14,14,17,17,18,18,19,19,21,21,22,22,24,24],"right_children":[2,4,6,8,-1,-1,10,12,14,16,-1,18,20,22,24,-1,-1,26,28,30,-1,32,34,-1,36,-1,-1,-1,-1,-1,-1,-1,-1,-1,-1,-1,-1],"split_conditions":[1E0,1E0,1E0,1E0,9.835016E-2,9.836499E-2,1E0,1E0,1E0,1E0,9.5899306E-2,1E0,1E0,1E0,1E0,-8.3333336E-2,7.625684E-2,1E0,1E0,1E0,9.206961E-2,1E0,1E0,-8.461539E-2,1E0,-6.666667E-2,-2.3662275E-2,8.683924E-2,1.6802326E-2,-6.553072E-2,9.183079E-2,-8.0000006E-2,6.16251E-2,8.743466E-2,-1.7511806E-2,-5E-2,7.625684E-2],"split_indices":[2,4,329,404,0,0,181,632,314,166,0,371,7,543,502,0,0,0,442,5,0,7,567,0,607,0,0,0,0,0,0,0,0,0,0,0,0],"split_type":[0,0,0,0,0,0,0,0,0,0,0,0,0,0,0,0,0,0,0,0,0,0,0,0,0,0,0,0,0,0,0,0,0,0,0,0,0],"sum_hessian":[3.064E3,2.5624978E3,5.015021E2,2.1695215E3,3.929764E2,4.577112E2,4.379088E1,2.0237637E3,1.4575786E2,8.2117405E0,3.557914E1,6.136892E2,1.4100745E3,1.3604613E2,9.7117405E0,5E0,3.21174E0,5.702925E2,4.339675E1,1.3921599E3,1.791457E1,5.6058702E0,1.3044025E2,5.5E0,4.21174E0,2E0,5.682925E2,4.079088E1,2.60587E0,1.3809187E3,1.124109E1,4E0,1.60587E0,1.2633438E2,4.1058702E0,1E0,3.21174E0],"tree_param":{"num_deleted":"0","num_feature":"702","num_nodes":"37","size_leaf_vector":"1"}},{"base_weights":[1.4973027E-4,-3.594188E-1,1.836778E0,-7.6394475E-1,9.367467E-2,9.368718E-2,1.4172224E0,-9.1727114E-1,1.3586953E0,-3.7016132E-1,9.144317E-2,-3.0857003E-1,-1.1820031E0,1.5011034E0,-5.89553E-1,-7.99787E-2,7.343202E-2,-4.548853E-1,1.5841621E0,-1.2210295E0,8.788875E-2,-6.92239E-1,1.5999646E0,-8.116042E-2,8.121983E-1,-6.5014884E-2,-2.2481633E-2,1.4408444E-2,8.290491E-2,-6.232453E-2,8.778703E-2,-7.690003E-2,5.9761822E-2,8.325769E-2,-1.6808767E-2,1.5811233E-2,5.9329666E-2],"categories":[],"categories_nodes":[],"categories_segments":[],"categories_sizes":[],"default_left":[0,0,0,0,0,0,0,0,0,0,0,0,0,0,0,0,0,0,0,0,0,0,0,0,0,0,0,0,0,0,0,0,0,0,0,0,0],"id":1,"left_children":[1,3,5,7,-1,-1,9,11,13,15,-1,17,19,21,23,-1,-1,25,27,29,-1,31,33,-1,35,-1,-1,-1,-1,-1,-1,-1,-1,-1,-1,-1,-1],"loss_changes":[2.0220491E3,2.314331E3,5.1192627E0,7.070172E2,0E0,0E0,3.356243E1,3.2563696E2,4.1529022E1,2.3143536E1,0E0,1.7090604E2,1.6386023E2,3.077008E1,1.6816994E1,0E0,0E0,1.9518814E0,3.7689362E0,1.0766431E2,0E0,1.2370945E1,1.711911E1,0E0,5.915563E-1,0E0,0E0,0E0,0E0,0E0,0E0,0E0,0E0,0E0,0E0,0E0,0E0],"parents":[2147483647,0,0,1,1,2,2,3,3,6,6,7,7,8,8,9,9,11,11,12,12,13,13,14,14,17,17,18,18,19,19,21,21,22,22,24,24],"right_children":[2,4,6,8,-1,-1,10,12,14,16,-1,18,20,22,24,-1,-1,26,28,30,-1,32,34,-1,36,-1,-1,-1,-1,-1,-1,-1,-1,-1,-1,-1,-1],"split_conditions":[1E0,1E0,1E0,1E0,9.367467E-2,9.368718E-2,1E0,1E0,1E0,1E0,9.144317E-2,1E0,1E0,1E0,1E0,-7.99787E-2,7.343202E-2,9.3E1,9.7E1,1E0,8.788875E-2,1E0,1E0,-8.116042E-2,1E0,-6.5014884E-2,-2.2481633E-2,1.4408444E-2,8.290491E-2,-6.232453E-2,8.778703E-2,-7.690003E-2,5.9761822E-2,8.325769E-2,-1.6808767E-2,1.5811233E-2,5.9329666E-2],"split_indices":[2,4,329,404,0,0,181,632,314,166,0,371,7,543,502,0,0,700,701,5,0,7,567,0,3,0,0,0,0,0,0,0,0,0,0,0,0],"split_type":[0,0,0,0,0,0,0,0,0,0,0,0,0,0,0,0,0,0,0,0,0,0,0,0,0,0,0,0,0,0,0,0,0,0,0,0,0],"sum_hessian":[3.0598845E3,2.5595828E3,5.003017E2,2.1675552E3,3.9202765E2,4.5660583E2,4.3695866E1,2.0220618E3,1.4549336E2,8.198405E0,3.5497463E1,6.1353046E2,1.4085314E3,1.3579675E2,9.696617E0,4.9913297E0,3.2070754E0,5.702107E2,4.331976E1,1.3906547E3,1.787666E1,5.5979533E0,1.3019879E2,5.4901667E0,4.2064505E0,1.9985071E0,5.682122E2,2.6023226E0,4.0717438E1,1.3794373E3,1.1217424E1,3.9936068E0,1.6043464E0,1.2609324E2,4.105555E0,2.602913E0,1.6035377E0],"tree_param":{"num_deleted":"0","num_feature":"702","num_nodes":"37","size_leaf_vector":"1"}},{"base_weights":[3.4220034E-4,-3.4242308E-1,1.7573351E0,-7.275499E-1,8.962163E-2,8.96323E-2,1.3565474E0,-8.734529E-1,1.2976983E0,-3.5386628E-1,8.755771E-2,-2.9332697E-1,-1.1263516E0,5.7282317E-1,1.6689944E0,-7.696953E-2,7.086165E-2,-4.3247157E-1,1.5145584E0,-1.1635636E0,8.4212616E-2,-8.0913824E-1,1.2728888E0,1.7437707E0,-6.1948795E-2,-6.296383E-2,-2.1368107E-2,1.3893482E-2,7.92679E-2,-5.93273E-2,9.673827E-2,-7.001706E-2,7.1511984E-2,1.970017E-2,8.7912194E-2,8.845286E-2,2.6713753E-2],"categories":[],"categories_nodes":[],"categories_segments":[],"categories_sizes":[],"default_left":[0,0,0,0,0,0,0,0,0,0,0,0,0,0,0,0,0,0,0,0,0,0,0,0,0,0,0,0,0,0,0,0,0,0,0,0,0],"id":2,"left_children":[1,3,5,7,-1,-1,9,11,13,15,-1,17,19,21,23,-1,-1,25,27,29,-1,31,33,35,-1,-1,-1,-1,-1,-1,-1,-1,-1,-1,-1,-1,-1],"loss_changes":[1.8370519E3,2.099895E3,4.6152344E0,6.4029663E2,0E0,0E0,3.0606903E1,2.9578088E2,3.827478E1,2.1416069E1,0E0,1.5513397E2,1.4892871E2,5.0269154E1,2.300644E1,0E0,0E0,1.8739395E0,3.4214401E0,1.0109119E2,0E0,2.546873E1,1.3883472E1,1.9259949E0,0E0,0E0,0E0,0E0,0E0,0E0,0E0,0E0,0E0,0E0,0E0,0E0,0E0],"parents":[2147483647,0,0,1,1,2,2,3,3,6,6,7,7,8,8,9,9,11,11,12,12,13,13,14,14,17,17,18,18,19,19,21,21,22,22,23,23],"right_children":[2,4,6,8,-1,-1,10,12,14,16,-1,18,20,22,24,-1,-1,26,28,30,-1,32,34,36,-1,-1,-1,-1,-1,-1,-1,-1,-1,-1,-1,-1,-1],"split_conditions":[1E0,1E0,1E0,1E0,8.962163E-2,8.96323E-2,1E0,1E0,1E0,1E0,8.755771E-2,1E0,1E0,1E2,1E0,-7.696953E-2,7.086165E-2,9.3E1,9.7E1,1E0,8.4212616E-2,1E0,1E0,1E0,-6.1948795E-2,-6.296383E-2,-2.1368107E-2,1.3893482E-2,7.92679E-2,-5.93273E-2,9.673827E-2,-7.001706E-2,7.1511984E-2,1.970017E-2,8.7912194E-2,8.845286E-2,2.6713753E-2],"split_indices":[2,4,329,404,0,0,181,632,603,166,0,371,7,700,314,0,0,700,701,571,0,5,289,567,0,0,0,0,0,0,0,0,0,0,0,0,0],"split_type":[0,0,0,0,0,0,0,0,0,0,0,0,0,0,0,0,0,0,0,0,0,0,0,0,0,0,0,0,0,0,0,0,0,0,0,0,0],"sum_hessian":[3.0483855E3,2.5514397E3,4.9694586E2,2.1620637E3,3.8937595E2,4.5351645E2,4.34294E1,2.0173019E3,1.4476181E2,8.160625E0,3.5268776E1,6.1309015E2,1.4042118E3,4.989514E1,9.486666E1,4.9668093E0,3.1938157E0,5.6998206E2,4.3108097E1,1.3864414E3,1.7770308E1,1.6724472E1,3.317067E1,9.287871E1,1.9879587E0,1.9931242E0,5.6798895E2,2.6009393E0,4.0507156E1,1.3768455E3,9.595949E0,1.352777E1,3.196701E0,1.2445687E1,2.0724983E1,9.052353E1,2.3551764E0],"tree_param":{"num_deleted":"0","num_feature":"702","num_nodes":"37","size_leaf_vector":"1"}},{"base_weights":[5.975203E-4,-3.2670966E-1,1.687795E0,-6.937345E-1,8.6076096E-2,8.608528E-2,1.3029633E0,-8.327317E-1,1.2438008E0,-3.3910313E-1,8.414052E-2,-2.7914748E-1,-1.0754533E0,5.4931825E-1,1.6008213E0,-7.425411E-2,6.851173E-2,-4.0704784E-1,1.477133E0,-1.1109973E0,8.0953926E-2,-7.708185E-1,1.2202113E0,1.673313E0,-6.0115278E-2,-2.0716064E-2,6.773942E-2,7.6548226E-2,2.369537E-2,-5.6776144E-2,8.660125E-2,-6.6906475E-2,6.910844E-2,1.881484E-2,8.4491156E-2,8.488562E-2,2.5770932E-2],"categories":[],"categories_nodes":[],"categories_segments":[],"categories_sizes":[],"default_left":[0,0,0,0,0,0,0,0,0,0,0,0,0,0,0,0,0,0,0,0,0,0,0,0,0,0,0,0,0,0,0,0,0,0,0,0,0],"id":3,"left_children":[1,3,5,7,-1,-1,9,11,13,15,-1,17,19,21,23,-1,-1,25,27,29,-1,31,33,35,-1,-1,-1,-1,-1,-1,-1,-1,-1,-1,-1,-1,-1],"loss_changes":[1.6748512E3,1.9107278E3,4.187256E0,5.8135596E2,0E0,0E0,2.802546E1,2.6993677E2,3.4983063E1,1.9863558E1,0E0,1.3860863E2,1.3567322E2,4.5783993E1,2.131752E1,0E0,0E0,7.9099426E0,1.538414E0,9.820325E1,0E0,2.3436493E1,1.2822262E1,1.7532349E0,0E0,0E0,0E0,0E0,0E0,0E0,0E0,0E0,0E0,0E0,0E0,0E0,0E0],"parents":[2147483647,0,0,1,1,2,2,3,3,6,6,7,7,8,8,9,9,11,11,12,12,13,13,14,14,17,17,18,18,19,19,21,21,22,22,23,23],"right_children":[2,4,6,8,-1,-1,10,12,14,16,-1,18,20,22,24,-1,-1,26,28,30,-1,32,34,36,-1,-1,-1,-1,-1,-1,-1,-1,-1,-1,-1,-1,-1],"split_conditions":[1E0,1E0,1E0,1E0,8.6076096E-2,8.608528E-2,1E0,1E0,1E0,1E0,8.414052E-2,1E0,1E0,1E2,1E0,-7.425411E-2,6.851173E-2,1E0,1E0,1E0,8.0953926E-2,1E0,1E0,1E0,-6.0115278E-2,-2.0716064E-2,6.773942E-2,7.6548226E-2,2.369537E-2,-5.6776144E-2,8.660125E-2,-6.6906475E-2,6.910844E-2,1.881484E-2,8.4491156E-2,8.488562E-2,2.5770932E-2],"split_indices":[2,4,329,404,0,0,181,344,603,166,0,371,7,700,314,0,0,234,338,5,0,5,289,567,0,0,0,0,0,0,0,0,0,0,0,0,0],"split_type":[0,0,0,0,0,0,0,0,0,0,0,0,0,0,0,0,0,0,0,0,0,0,0,0,0,0,0,0,0,0,0,0,0,0,0,0,0],"sum_hessian":[3.0308784E3,2.5391108E3,4.917674E2,2.1538257E3,3.8528513E2,4.4875052E2,4.3016853E1,2.0101869E3,1.4363895E2,8.101518E0,3.4915333E1,6.1337933E2,1.3968075E3,4.9632183E1,9.400677E1,4.9285197E0,3.1729977E0,5.724585E2,4.092081E1,1.3792019E3,1.7605621E1,1.6673765E1,3.295842E1,9.202984E1,1.9769298E0,5.7086664E2,1.5918854E0,3.833763E1,2.583177E0,1.3680013E3,1.1200523E1,1.3496043E1,3.1777225E0,1.2427288E1,2.0531132E1,8.9674E1,2.355836E0],"tree_param":{"num_deleted":"0","num_feature":"702","num_nodes":"37","size_leaf_vector":"1"}},{"base_weights":[9.072725E-4,-3.1213936E-1,1.6264397E0,-6.6227305E-1,8.2949735E-2,8.2957715E-2,1.2552888E0,-7.9477835E-1,1.1955203E0,-3.256527E-1,8.111217E-2,-2.6439127E-1,-1.0278915E0,5.279137E-1,1.5403208E0,-7.179028E-2,6.6353895E-2,-3.908568E-1,1.4041092E0,-1.0618231E0,7.804416E-2,-7.3580194E-1,1.1721184E0,1.6108747E0,-5.8404725E-2,-6.066044E-2,-1.9292768E-2,7.346133E-2,1.3809516E-2,-5.42035E-2,9.474171E-2,-6.406556E-2,6.690369E-2,1.7971298E-2,8.146049E-2,8.17307E-2,2.486755E-2],"categories":[],"categories_nodes":[],"categories_segments":[],"categories_sizes":[],"default_left":[0,0,0,0,0,0,0,0,0,0,0,0,0,0,0,0,0,0,0,0,0,0,0,0,0,0,0,0,0,0,0,0,0,0,0,0,0],"id":4,"left_children":[1,3,5,7,-1,-1,9,11,13,15,-1,17,19,21,23,-1,-1,25,27,29,-1,31,33,35,-1,-1,-1,-1,-1,-1,-1,-1,-1,-1,-1,-1,-1],"loss_changes":[1.5316753E3,1.7430044E3,3.8189697E0,5.287155E2,0E0,0E0,2.5752869E1,2.4723059E2,3.213469E1,1.8462362E1,0E0,1.2979909E2,1.23779785E2,4.1785866E1,1.9818008E1,0E0,0E0,1.8769302E0,2.7799454E0,9.2355835E1,0E0,2.1611534E1,1.1926178E1,1.6163635E0,0E0,0E0,0E0,0E0,0E0,0E0,0E0,0E0,0E0,0E0,0E0,0E0,0E0],"parents":[2147483647,0,0,1,1,2,2,3,3,6,6,7,7,8,8,9,9,11,11,12,12,13,13,14,14,17,17,18,18,19,19,21,21,22,22,23,23],"right_children":[2,4,6,8,-1,-1,10,12,14,16,-1,18,20,22,24,-1,-1,26,28,30,-1,32,34,36,-1,-1,-1,-1,-1,-1,-1,-1,-1,-1,-1,-1,-1],"split_conditions":[1E0,1E0,1E0,1E0,8.2949735E-2,8.2957715E-2,1E0,1E0,1E0,1E0,8.111217E-2,1E0,1E0,1E2,1E0,-7.179028E-2,6.6353895E-2,1E0,1E0,1E0,7.804416E-2,1E0,1E0,1E0,-5.8404725E-2,-6.066044E-2,-1.9292768E-2,7.346133E-2,1.3809516E-2,-5.42035E-2,9.474171E-2,-6.406556E-2,6.690369E-2,1.7971298E-2,8.146049E-2,8.17307E-2,2.486755E-2],"split_indices":[2,4,329,404,0,0,181,632,603,166,0,371,7,700,314,0,0,0,442,571,0,5,289,567,0,0,0,0,0,0,0,0,0,0,0,0,0],"split_type":[0,0,0,0,0,0,0,0,0,0,0,0,0,0,0,0,0,0,0,0,0,0,0,0,0,0,0,0,0,0,0,0,0,0,0,0,0],"sum_hessian":[3.0079712E3,2.5229138E3,4.8505728E2,2.1429282E3,3.799856E2,4.4257666E2,4.2480625E1,2.0007957E3,1.4213258E2,8.023918E0,3.4456707E1,6.115379E2,1.3892578E3,4.926881E1,9.286377E1,4.878345E0,3.1455727E0,5.691634E2,4.2374516E1,1.3718662E3,1.7391527E1,1.6587488E1,3.2681324E1,9.090104E1,1.9627273E0,1.9803314E0,5.6718304E2,3.977558E1,2.5989335E0,1.3622496E3,9.616634E0,1.3435578E1,3.1519089E0,1.2407519E1,2.0273804E1,8.8545364E1,2.3556757E0],"tree_param":{"num_deleted":"0","num_feature":"702","num_nodes":"37","size_leaf_vector":"1"}},{"base_weights":[1.1772102E-3,-2.9862738E-1,1.571925E0,-6.329126E-1,1.6034715E0,8.018053E-2,1.2125884E0,-7.5928605E-1,1.1519581E0,8.0426976E-2,4.1709613E-2,-3.1333432E-1,7.841011E-2,-2.5174966E-1,-9.8409253E-1,5.0830203E-1,1.4862356E0,-6.954333E-2,6.436422E-2,-3.677164E-1,1.3734846E0,-1.0165575E0,7.542876E-2,-7.03611E-1,1.1279366E0,1.5551391E0,-5.6804307E-2,-1.8742833E-2,6.727315E-2,7.096473E-2,2.484846E-2,-5.2017003E-2,8.528836E-2,-6.145509E-2,6.4872764E-2,1.7167162E-2,7.875784E-2,7.892023E-2,2.400126E-2],"categories":[],"categories_nodes":[],"categories_segments":[],"categories_sizes":[],"default_left":[0,0,0,0,0,0,0,0,0,0,0,0,0,0,0,0,0,0,0,0,0,0,0,0,0,0,0,0,0,0,0,0,0,0,0,0,0,0,0],"id":5,"left_children":[1,3,5,7,9,-1,11,13,15,-1,-1,17,-1,19,21,23,25,-1,-1,27,29,31,-1,33,35,37,-1,-1,-1,-1,-1,-1,-1,-1,-1,-1,-1,-1,-1],"loss_changes":[1.4046497E3,1.5936294E3,3.4986572E0,4.8155444E2,1.1895752E-1,0E0,2.3738293E1,2.2689111E2,2.9647552E1,0E0,0E0,1.7192858E1,0E0,1.1593357E2,1.1315283E2,3.8205986E1,1.8477417E1,0E0,0E0,7.506729E0,9.409485E-1,8.996643E1,0E0,1.9965885E1,1.1161156E1,1.5069733E0,0E0,0E0,0E0,0E0,0E0,0E0,0E0,0E0,0E0,0E0,0E0,0E0,0E0],"parents":[2147483647,0,0,1,1,2,2,3,3,4,4,6,6,7,7,8,8,11,11,13,13,14,14,15,15,16,16,19,19,20,20,21,21,23,23,24,24,25,25],"right_children":[2,4,6,8,10,-1,12,14,16,-1,-1,18,-1,20,22,24,26,-1,-1,28,30,32,-1,34,36,38,-1,-1,-1,-1,-1,-1,-1,-1,-1,-1,-1,-1,-1],"split_conditions":[1E0,1E0,1E0,1E0,1E0,8.018053E-2,1E0,1E0,1E0,8.0426976E-2,4.1709613E-2,1E0,7.841011E-2,1E0,1E0,1E2,1E0,-6.954333E-2,6.436422E-2,1E0,1E0,1E0,7.542876E-2,1E0,1E0,1E0,-5.6804307E-2,-1.8742833E-2,6.727315E-2,7.096473E-2,2.484846E-2,-5.2017003E-2,8.528836E-2,-6.145509E-2,6.4872764E-2,1.7167162E-2,7.875784E-2,7.892023E-2,2.400126E-2],"split_indices":[2,4,329,404,149,0,181,344,603,0,0,166,0,371,7,700,314,0,0,234,338,5,0,5,289,567,0,0,0,0,0,0,0,0,0,0,0,0,0],"split_type":[0,0,0,0,0,0,0,0,0,0,0,0,0,0,0,0,0,0,0,0,0,0,0,0,0,0,0,0,0,0,0,0,0,0,0,0,0,0,0],"sum_hessian":[2.9807974E3,2.5037273E3,4.770701E2,2.1300483E3,3.7367902E2,4.3522964E2,4.184046E1,1.9897439E3,1.4030441E2,3.7014954E2,3.5294724E0,7.930395E0,3.3910065E1,6.1144025E2,1.3783036E3,4.882049E1,9.1483925E1,4.8179846E0,3.1124105E0,5.714396E2,4.0000675E1,1.3611677E3,1.7135912E1,1.6470709E1,3.2349785E1,8.95382E1,1.9457228E0,5.6984576E2,1.593825E0,3.7425438E1,2.5752397E0,1.3499918E3,1.1175826E1,1.3350556E1,3.1201513E0,1.2386646E1,1.9963137E1,8.7183426E1,2.3547797E0],"tree_param":{"num_deleted":"0","num_feature":"702","num_nodes":"39","size_leaf_vector":"1"}},{"base_weights":[1.5094111E-3,-2.8594923E-1,1.5231847E0,-6.05361E-1,1.5539309E0,7.769899E-2,1.1741109E0,-7.259435E-1,1.1123915E0,7.794375E-2,4.0394712E-2,-3.0199835E-1,7.598438E-2,-2.3850669E-1,-9.427501E-1,4.9023145E-1,1.4375635E0,-6.748448E-2,6.252245E-2,-3.5346925E-1,1.3129014E0,-9.7378653E-1,7.306375E-2,-6.738538E-1,1.0871136E0,1.5050576E0,-5.5302817E-2,-5.817005E-2,-1.743093E-2,6.8569675E-2,1.51765E-2,-4.984475E-2,9.2601515E-2,-5.904294E-2,6.299457E-2,1.640025E-2,7.633324E-2,7.6400235E-2,2.3169909E-2],"categories":[],"categories_nodes":[],"categories_segments":[],"categories_sizes":[],"default_left":[0,0,0,0,0,0,0,0,0,0,0,0,0,0,0,0,0,0,0,0,0,0,0,0,0,0,0,0,0,0,0,0,0,0,0,0,0,0,0],"id":6,"left_children":[1,3,5,7,9,-1,11,13,15,-1,-1,17,-1,19,21,23,25,-1,-1,27,29,31,-1,33,35,37,-1,-1,-1,-1,-1,-1,-1,-1,-1,-1,-1,-1,-1],"loss_changes":[1.2911964E3,1.4600488E3,3.2174072E0,4.3915454E2,9.625244E-2,0E0,2.1941566E1,2.0881653E2,2.745845E1,0E0,0E0,1.6038645E1,0E0,1.0931383E2,1.0355005E2,3.4987907E1,1.7271652E1,0E0,0E0,1.8297806E0,2.0821304E0,9.012695E1,0E0,1.8476398E1,1.0501236E1,1.4188538E0,0E0,0E0,0E0,0E0,0E0,0E0,0E0,0E0,0E0,0E0,0E0,0E0,0E0],"parents":[2147483647,0,0,1,1,2,2,3,3,4,4,6,6,7,7,8,8,11,11,13,13,14,14,15,15,16,16,19,19,20,20,21,21,23,23,24,24,25,25],"right_children":[2,4,6,8,10,-1,12,14,16,-1,-1,18,-1,20,22,24,26,-1,-1,28,30,32,-1,34,36,38,-1,-1,-1,-1,-1,-1,-1,-1,-1,-1,-1,-1,-1],"split_conditions":[1E0,1E0,1E0,1E0,1E0,7.769899E-2,1E0,1E0,1E0,7.794375E-2,4.0394712E-2,1E0,7.598438E-2,1E0,1E0,1E2,1E0,-6.748448E-2,6.252245E-2,1E0,1E0,1E0,7.306375E-2,1E0,1E0,1E0,-5.5302817E-2,-5.817005E-2,-1.743093E-2,6.8569675E-2,1.51765E-2,-4.984475E-2,9.2601515E-2,-5.904294E-2,6.299457E-2,1.640025E-2,7.633324E-2,7.6400235E-2,2.3169909E-2],"split_indices":[2,4,329,404,149,0,181,632,603,0,0,166,0,371,7,700,314,0,0,0,442,12,0,5,289,567,0,0,0,0,0,0,0,0,0,0,0,0,0],"split_type":[0,0,0,0,0,0,0,0,0,0,0,0,0,0,0,0,0,0,0,0,0,0,0,0,0,0,0,0,0,0,0,0,0,0,0,0,0,0,0],"sum_hessian":[2.9498591E3,2.4818303E3,4.680288E2,2.115279E3,3.665513E2,4.26915E2,4.1113792E1,1.9770703E3,1.3820871E2,3.6305576E2,3.495559E0,7.823273E0,3.329052E1,6.093023E2,1.3677681E3,4.8300922E1,8.990778E1,4.7489686E0,3.0743046E0,5.6798553E2,4.1316746E1,1.3509222E3,1.684574E1,1.632795E1,3.1972971E1,8.798153E1,1.9262599E0,1.9594724E0,5.6602606E2,3.871461E1,2.6021345E0,1.3406066E3,1.0315733E1,1.324469E1,3.0832596E0,1.2364902E1,1.960807E1,8.56283E1,2.3532255E0],"tree_param":{"num_deleted":"0","num_feature":"702","num_nodes":"39","size_leaf_vector":"1"}},{"base_weights":[1.7938482E-3,-2.7407148E-1,1.479361E0,-5.794081E-1,1.509417E0,7.557039E-2,1.1582454E0,-6.944833E-1,1.0762341E0,7.5713865E-2,3.913885E-2,-2.9151946E-1,1.4579914E0,-2.2719546E-1,-9.0422386E-1,4.734942E-1,1.3934966E0,-6.558964E-2,6.081133E-2,7.5406946E-2,1.6934393E-2,-3.3234376E-1,1.2869624E0,-9.3394816E-1,7.0913285E-2,-6.462062E-1,1.0491943E0,1.4597857E0,-5.3890485E-2,-1.6967705E-2,6.6678494E-2,6.6313185E-2,2.580059E-2,-4.7794253E-2,9.509215E-2,-5.680261E-2,6.1251152E-2,5.8603264E-2,-5.64017E-2,7.412731E-2,2.2371529E-2],"categories":[],"categories_nodes":[],"categories_segments":[],"categories_sizes":[],"default_left":[0,0,0,0,0,0,0,0,0,0,0,0,0,0,0,0,0,0,0,0,0,0,0,0,0,0,0,0,0,0,0,0,0,0,0,0,0,0,0,0,0],"id":7,"left_children":[1,3,5,7,9,-1,11,13,15,-1,-1,17,19,21,23,25,27,-1,-1,-1,-1,29,31,33,-1,35,37,39,-1,-1,-1,-1,-1,-1,-1,-1,-1,-1,-1,-1,-1],"loss_changes":[1.189517E3,1.3400413E3,2.9741821E0,4.0092352E2,8.520508E-2,0E0,2.0389572E1,1.923349E2,2.5517822E1,0E0,0E0,1.4985903E1,1.6354675E0,9.753589E1,9.490613E1,3.2084896E1,1.6181396E1,0E0,0E0,0E0,0E0,7.1224556E0,5.218735E-1,8.5118286E1,0E0,1.7123764E1,1.0032242E1,1.3474274E0,0E0,0E0,0E0,0E0,0E0,0E0,0E0,0E0,0E0,0E0,0E0,0E0,0E0],"parents":[2147483647,0,0,1,1,2,2,3,3,4,4,6,6,7,7,8,8,11,11,12,12,13,13,14,14,15,15,16,16,21,21,22,22,23,23,25,25,26,26,27,27],"right_children":[2,4,6,8,10,-1,12,14,16,-1,-1,18,20,22,24,26,28,-1,-1,-1,-1,30,32,34,-1,36,38,40,-1,-1,-1,-1,-1,-1,-1,-1,-1,-1,-1,-1,-1],"split_conditions":[1E0,1E0,1E0,1E0,1E0,7.557039E-2,1E0,1E0,1E0,7.5713865E-2,3.913885E-2,1E0,1E0,1E0,1E0,1E2,1E0,-6.558964E-2,6.081133E-2,7.5406946E-2,1.6934393E-2,1E0,1E0,1E0,7.0913285E-2,1E0,1E0,1E0,-5.3890485E-2,-1.6967705E-2,6.6678494E-2,6.6313185E-2,2.580059E-2,-4.7794253E-2,9.509215E-2,-5.680261E-2,6.1251152E-2,5.8603264E-2,-5.64017E-2,7.412731E-2,2.2371529E-2],"split_indices":[2,4,13,404,149,0,181,344,603,0,0,166,350,371,7,700,314,0,0,0,0,234,338,571,0,5,567,567,0,0,0,0,0,0,0,0,0,0,0,0,0],"split_type":[0,0,0,0,0,0,0,0,0,0,0,0,0,0,0,0,0,0,0,0,0,0,0,0,0,0,0,0,0,0,0,0,0,0,0,0,0,0,0,0,0],"sum_hessian":[2.9162808E3,2.4581523E3,4.5812842E2,2.0994053E3,3.58747E2,4.1318655E2,4.4941837E1,1.9635122E3,1.358931E2,3.5528668E2,3.4603226E0,7.7046437E0,3.723719E1,6.089333E2,1.3545789E3,4.7722206E1,8.817088E1,4.67267E0,3.031974E0,3.5307922E1,1.9292711E0,5.7012256E2,3.8810757E1,1.3380518E3,1.652714E1,1.6163244E1,3.155896E1,8.626623E1,1.9046558E0,5.685264E2,1.5961123E0,3.624288E1,2.567874E0,1.3284382E3,9.613507E0,1.3121272E1,3.0419717E0,3.0310095E1,1.2488658E0,8.3915146E1,2.3510842E0],"tree_param":{"num_deleted":"0","num_feature":"702","num_nodes":"41","size_leaf_vector":"1"}},{"base_weights":[2.1015708E-3,-2.6287448E-1,1.4397845E0,-5.54912E-1,1.469216E0,1.4711233E0,1.1260319E0,-6.6472846E-1,1.0421438E0,1.4740264E0,3.7937183E-2,1.4734683E0,2.8051836E-2,-2.81792E-1,1.418601E0,-2.1525274E-1,-8.675464E-1,4.5580074E-1,1.3533753E0,7.383849E-2,2.803712E-2,7.379163E-2,2.8051836E-2,-6.3838474E-2,5.921606E-2,7.341421E-2,1.6431753E-2,-3.197928E-1,1.2359196E0,-8.959848E-1,6.89478E-2,-6.203984E-1,1.0102226E0,1.4186342E0,-5.255872E-2,-5.6035947E-2,-1.5753677E-2,1.5098477E-2,6.4561985E-2,-4.5974486E-2,8.57843E-2,-5.4712046E-2,5.9627134E-2,1.359838E-2,7.2568476E-2,7.2066076E-2,2.1604342E-2],"categories":[],"categories_nodes":[],"categories_segments":[],"categories_sizes":[],"default_left":[0,0,0,0,0,0,0,0,0,0,0,0,0,0,0,0,0,0,0,0,0,0,0,0,0,0,0,0,0,0,0,0,0,0,0,0,0,0,0,0,0,0,0,0,0,0,0],"id":8,"left_children":[1,3,5,7,9,11,13,15,17,19,-1,21,-1,23,25,27,29,31,33,-1,-1,-1,-1,-1,-1,-1,-1,35,37,39,-1,41,43,45,-1,-1,-1,-1,-1,-1,-1,-1,-1,-1,-1,-1,-1],"loss_changes":[1.0979844E3,1.2318553E3,2.7538452E0,3.6606415E2,8.258057E-2,3.668213E-2,1.8933235E1,1.775653E2,2.3913773E1,4.3762207E-2,0E0,4.1137695E-2,0E0,1.4022907E1,1.5438843E0,9.2571434E1,8.7052124E1,2.9337593E1,1.5190872E1,0E0,0E0,0E0,0E0,0E0,0E0,0E0,0E0,1.7921638E0,1.7301979E0,8.304224E1,0E0,1.5891725E1,1.0072079E1,1.2891846E0,0E0,0E0,0E0,0E0,0E0,0E0,0E0,0E0,0E0,0E0,0E0,0E0,0E0],"parents":[2147483647,0,0,1,1,2,2,3,3,4,4,5,5,6,6,7,7,8,8,9,9,11,11,13,13,14,14,15,15,16,16,17,17,18,18,27,27,28,28,29,29,31,31,32,32,33,33],"right_children":[2,4,6,8,10,12,14,16,18,20,-1,22,-1,24,26,28,30,32,34,-1,-1,-1,-1,-1,-1,-1,-1,36,38,40,-1,42,44,46,-1,-1,-1,-1,-1,-1,-1,-1,-1,-1,-1,-1,-1],"split_conditions":[1E0,1E0,1E0,1E0,1E0,1E0,1E0,1E0,1E0,1E0,3.7937183E-2,1E0,2.8051836E-2,1E0,1E0,1E0,1E0,1E2,1E0,7.383849E-2,2.803712E-2,7.379163E-2,2.8051836E-2,-6.3838474E-2,5.921606E-2,7.341421E-2,1.6431753E-2,9.3E1,9.7E1,1E0,6.89478E-2,1E0,1E0,1E0,-5.255872E-2,-5.6035947E-2,-1.5753677E-2,1.5098477E-2,6.4561985E-2,-4.5974486E-2,8.57843E-2,-5.4712046E-2,5.9627134E-2,1.359838E-2,7.2568476E-2,7.2066076E-2,2.1604342E-2],"split_indices":[2,4,13,404,149,4,181,632,603,201,0,358,0,166,350,371,7,700,314,0,0,0,0,0,0,0,0,700,701,5,0,5,289,567,0,0,0,0,0,0,0,0,0,0,0,0,0],"split_type":[0,0,0,0,0,0,0,0,0,0,0,0,0,0,0,0,0,0,0,0,0,0,0,0,0,0,0,0,0,0,0,0,0,0,0,0,0,0,0,0,0,0,0,0,0,0,0],"sum_hessian":[2.8802217E3,2.4326775E3,4.475441E2,2.0822769E3,3.5040073E2,4.0354742E2,4.399666E1,1.9488539E3,1.3342297E2,3.4697668E2,3.424035E0,4.0189285E2,1.6545724E0,7.576389E0,3.642027E1,6.065989E2,1.342255E3,4.711861E1,8.630437E1,3.4532245E2,1.6542566E0,4.0023828E2,1.6545724E0,4.5903177E0,2.986071E0,3.450056E1,1.9197075E0,5.6656415E2,4.0034725E1,1.3260695E3,1.6185522E1,1.5980176E1,3.1138435E1,8.4423164E1,1.8812015E0,1.933577E0,5.646306E2,2.599909E0,3.7434814E1,1.3148835E3,1.1185924E1,1.2983222E1,2.9969544E0,1.2251751E1,1.8886684E1,8.2074745E1,2.3484218E0],"tree_param":{"num_deleted":"0","num_feature":"702","num_nodes":"47","size_leaf_vector":"1"}},{"base_weights":[2.4180696E-3,-2.523264E-1,1.4039253E0,-5.3181165E-1,1.4327822E0,1.4346529E0,1.0965629E0,-6.366898E-1,1.0114231E0,1.4375728E0,7.357084E-1,1.4369656E0,2.7341357E-2,-2.7272668E-1,1.3826808E0,-2.0513174E-1,-8.334624E-1,4.4124988E-1,1.3166552E0,7.201395E-2,2.7327104E-2,4.5869038E-2,1.6529461E-2,7.196488E-2,2.7341357E-2,-6.221375E-2,5.772391E-2,7.160619E-2,1.594462E-2,-3.0047816E-1,1.2130452E0,-8.558972E-1,1.8534365E0,-5.962038E-1,9.7698295E-1,1.3810346E0,-5.129995E-2,-1.5368032E-2,6.598037E-2,4.871809E-2,6.929655E-2,-4.4182707E-2,6.714272E-2,1.021046E-1,3.8528714E-2,-5.275276E-2,5.8109302E-2,1.2993335E-2,7.072786E-2,7.0187405E-2,2.0866683E-2],"categories":[],"categories_nodes":[],"categories_segments":[],"categories_sizes":[],"default_left":[0,0,0,0,0,0,0,0,0,0,0,0,0,0,0,0,0,0,0,0,0,0,0,0,0,0,0,0,0,0,0,0,0,0,0,0,0,0,0,0,0,0,0,0,0,0,0,0,0,0,0],"id":9,"left_children":[1,3,5,7,9,11,13,15,17,19,21,23,-1,25,27,29,31,33,35,-1,-1,-1,-1,-1,-1,-1,-1,-1,-1,37,39,41,43,45,47,49,-1,-1,-1,-1,-1,-1,-1,-1,-1,-1,-1,-1,-1,-1,-1],"loss_changes":[1.01540137E3,1.1341926E3,2.5582275E0,3.3486487E2,8.660889E-2,2.4108887E-2,1.7615467E1,1.6407825E2,2.2355515E1,3.0883789E-2,1.9598007E-2,2.8259277E-2,0E0,1.3139649E1,1.4662552E0,8.244891E1,8.164667E1,2.695884E1,1.4287125E1,0E0,0E0,0E0,0E0,0E0,0E0,0E0,0E0,0E0,0E0,6.756893E0,2.3585129E-1,8.161438E1,7.3765564E-1,1.4766499E1,9.571684E0,1.2414398E0,0E0,0E0,0E0,0E0,0E0,0E0,0E0,0E0,0E0,0E0,0E0,0E0,0E0,0E0,0E0],"parents":[2147483647,0,0,1,1,2,2,3,3,4,4,5,5,6,6,7,7,8,8,9,9,10,10,11,11,13,13,14,14,15,15,16,16,17,17,18,18,29,29,30,30,31,31,32,32,33,33,34,34,35,35],"right_children":[2,4,6,8,10,12,14,16,18,20,22,24,-1,26,28,30,32,34,36,-1,-1,-1,-1,-1,-1,-1,-1,-1,-1,38,40,42,44,46,48,50,-1,-1,-1,-1,-1,-1,-1,-1,-1,-1,-1,-1,-1,-1,-1],"split_conditions":[1E0,1E0,1E0,1E0,1E0,1E0,1E0,1E0,1E0,1E0,1E0,1E0,2.7341357E-2,1E0,1E0,1E0,1E0,1E2,1E0,7.201395E-2,2.7327104E-2,4.5869038E-2,1.6529461E-2,7.196488E-2,2.7341357E-2,-6.221375E-2,5.772391E-2,7.160619E-2,1.594462E-2,1E0,1E0,1E0,1E0,1E0,1E0,1E0,-5.129995E-2,-1.5368032E-2,6.598037E-2,4.871809E-2,6.929655E-2,-4.4182707E-2,6.714272E-2,1.021046E-1,3.8528714E-2,-5.275276E-2,5.8109302E-2,1.2993335E-2,7.072786E-2,7.0187405E-2,2.0866683E-2],"split_indices":[2,4,13,404,149,4,181,344,603,201,181,358,0,166,350,371,12,700,314,0,0,0,0,0,0,0,0,0,0,234,342,7,238,5,289,567,0,0,0,0,0,0,0,0,0,0,0,0,0,0,0],"split_type":[0,0,0,0,0,0,0,0,0,0,0,0,0,0,0,0,0,0,0,0,0,0,0,0,0,0,0,0,0,0,0,0,0,0,0,0,0,0,0,0,0,0,0,0,0,0,0,0,0,0,0],"sum_hessian":[2.8420608E3,2.4056235E3,4.3643732E2,2.063984E3,3.4163956E2,3.9343698E2,4.3000324E1,1.9331917E3,1.3079218E2,3.3825262E2,3.38694E0,3.917979E2,1.6390702E0,7.4401946E0,3.5560127E1,6.06052E2,1.3271396E3,4.6456715E1,8.433545E1,3.3661386E2,1.6387539E0,1.4653466E0,1.9215935E0,3.9015884E2,1.6390702E0,4.503011E0,2.9371836E0,3.3649895E1,1.9102346E0,5.6861145E2,3.7440575E1,1.316826E3,1.03136425E1,1.5781933E1,3.0674782E1,8.247929E1,1.8561633E0,5.6701294E2,1.5985199E0,1.8514963E1,1.8925613E1,1.3010004E3,1.5825637E1,8.029007E0,2.2846353E0,1.2833121E1,2.948812E0,1.2228329E1,1.8446453E1,8.0133995E1,2.345298E0],"tree_param":{"num_deleted":"0","num_feature":"702","num_nodes":"51","size_leaf_vector":"1"}},{"base_weights":[2.8121115E-3,-2.4218334E-1,1.371238E0,-5.096783E-1,1.3996297E0,1.401433E0,1.0694839E0,-6.098203E-1,9.8290145E-1,1.4024018E0,2.5106782E-2,1.4037262E0,2.6652962E-2,-2.6424688E-1,1.3497785E0,-1.9414501E-1,-8.0051816E-1,4.2759788E-1,1.2828836E0,7.0253104E-2,2.6639149E-2,7.030196E-2,2.6652962E-2,-6.0700756E-2,5.6323856E-2,6.995898E-2,1.5472426E-2,-2.893989E-1,1.1708665E0,-8.202518E-1,1.11403935E-1,-5.734311E-1,9.457062E-1,1.3465147E0,-5.010749E-2,-5.435687E-2,-1.4238695E-2,6.108586E-2,1.6136942E-2,-4.2092685E-2,9.484901E-2,-5.0909173E-2,5.6686234E-2,1.2415275E-2,6.9046184E-2,6.8822585E-2,2.6397679E-2],"categories":[],"categories_nodes":[],"categories_segments":[],"categories_sizes":[],"default_left":[0,0,0,0,0,0,0,0,0,0,0,0,0,0,0,0,0,0,0,0,0,0,0,0,0,0,0,0,0,0,0,0,0,0,0,0,0,0,0,0,0,0,0,0,0,0,0],"id":10,"left_children":[1,3,5,7,9,11,13,15,17,19,-1,21,-1,23,25,27,29,31,33,-1,-1,-1,-1,-1,-1,-1,-1,35,37,39,-1,41,43,45,-1,-1,-1,-1,-1,-1,-1,-1,-1,-1,-1,-1,-1],"loss_changes":[9.4036395E2,1.0455085E3,2.381836E0,3.064779E2,1.2567139E-1,1.6357422E-2,1.6418415E1,1.5191077E2,2.0948936E1,1.940918E-2,0E0,2.0446777E-2,0E0,1.2327532E1,1.4000626E0,7.895409E1,8.040369E1,2.4795658E1,1.3459412E1,0E0,0E0,0E0,0E0,0E0,0E0,0E0,0E0,1.778656E0,1.3152275E0,7.831207E1,0E0,1.373632E1,9.124504E0,1.2694397E0,0E0,0E0,0E0,0E0,0E0,0E0,0E0,0E0,0E0,0E0,0E0,0E0,0E0],"parents":[2147483647,0,0,1,1,2,2,3,3,4,4,5,5,6,6,7,7,8,8,9,9,11,11,13,13,14,14,15,15,16,16,17,17,18,18,27,27,28,28,29,29,31,31,32,32,33,33],"right_children":[2,4,6,8,10,12,14,16,18,20,-1,22,-1,24,26,28,30,32,34,-1,-1,-1,-1,-1,-1,-1,-1,36,38,40,-1,42,44,46,-1,-1,-1,-1,-1,-1,-1,-1,-1,-1,-1,-1,-1],"split_conditions":[1E0,1E0,1E0,1E0,1E0,1E0,1E0,1E0,1E0,1E0,2.5106782E-2,1E0,2.6652962E-2,1E0,1E0,1E0,1E0,1E2,1E0,7.0253104E-2,2.6639149E-2,7.030196E-2,2.6652962E-2,-6.0700756E-2,5.6323856E-2,6.995898E-2,1.5472426E-2,1E0,1E0,1E0,1.11403935E-1,1E0,1E0,1E0,-5.010749E-2,-5.435687E-2,-1.4238695E-2,6.108586E-2,1.6136942E-2,-4.2092685E-2,9.484901E-2,-5.0909173E-2,5.6686234E-2,1.2415275E-2,6.9046184E-2,6.8822585E-2,2.6397679E-2],"split_indices":[2,4,13,404,577,4,181,632,603,201,0,358,0,166,350,371,22,700,314,0,0,0,0,0,0,0,0,0,442,571,0,5,289,502,0,0,0,0,0,0,0,0,0,0,0,0,0],"split_type":[0,0,0,0,0,0,0,0,0,0,0,0,0,0,0,0,0,0,0,0,0,0,0,0,0,0,0,0,0,0,0,0,0,0,0,0,0,0,0,0,0,0,0,0,0,0,0],"sum_hessian":[2.8029045E3,2.377986E3,4.2491852E2,2.045422E3,3.32564E2,3.8295407E2,4.1964466E1,1.9173708E3,1.280512E2,3.3097913E2,1.5848825E0,3.813305E2,1.6235572E0,7.2975683E0,3.4666897E1,6.036272E2,1.3137437E3,4.5763252E1,8.228794E1,3.2935587E2,1.6232412E0,3.7970694E2,1.6235572E0,4.411727E0,2.8858416E0,3.2766033E1,1.9008646E0,5.649889E2,3.8638344E1,1.3059634E3,7.7802124E0,1.5571337E1,3.0191914E1,8.045815E1,1.8297848E0,1.9075724E0,5.630813E2,3.603719E1,2.6011539E0,1.2963477E3,9.615702E0,1.267325E1,2.8980868E0,1.2204968E1,1.7986946E1,7.696191E1,3.4962466E0],"tree_param":{"num_deleted":"0","num_feature":"702","num_nodes":"47","size_leaf_vector":"1"}},{"base_weights":[3.1268387E-3,-2.3254241E-1,1.3413228E0,-4.8850974E-1,1.3692105E0,1.3710532E0,1.0444964E0,-5.84104E-1,9.561388E-1,1.3741683E0,6.7824054E-1,1.3733388E0,2.5985597E-2,-2.5628734E-1,1.3195142E0,-1.8516947E-1,-7.6901275E-1,4.1474003E-1,1.2513382E0,6.884223E-2,2.5972186E-2,4.3427333E-2,1.4121159E-2,6.878222E-2,2.5985597E-2,-5.928687E-2,5.5006344E-2,6.845256E-2,1.5014629E-2,-2.7169695E-1,1.1481636E0,-7.9191536E-1,8.580413E-2,-5.5191785E-1,9.1616094E-1,1.3143067E0,-4.8975434E-2,-1.3922586E-2,6.518592E-2,4.5659337E-2,6.605109E-2,-4.095566E-2,6.651115E-2,-5.4248657E-2,4.1129455E-2,5.202194E-2,-5.591305E-2,6.6911556E-2,1.8289825E-2],"categories":[],"categories_nodes":[],"categories_segments":[],"categories_sizes":[],"default_left":[0,0,0,0,0,0,0,0,0,0,0,0,0,0,0,0,0,0,0,0,0,0,0,0,0,0,0,0,0,0,0,0,0,0,0,0,0,0,0,0,0,0,0,0,0,0,0,0,0],"id":11,"left_children":[1,3,5,7,9,11,13,15,17,19,21,23,-1,25,27,29,31,33,35,-1,-1,-1,-1,-1,-1,-1,-1,-1,-1,37,39,41,-1,43,45,47,-1,-1,-1,-1,-1,-1,-1,-1,-1,-1,-1,-1,-1],"loss_changes":[8.7215576E2,9.647327E2,2.222229E0,2.8064536E2,1.7877197E-1,1.2512207E-2,1.5327156E1,1.4022699E2,1.9659126E1,1.9042969E-2,7.744253E-2,1.6357422E-2,0E0,1.157914E1,1.3433533E0,6.999313E1,7.534363E1,2.2824064E1,1.2695091E1,0E0,0E0,0E0,0E0,0E0,0E0,0E0,0E0,0E0,0E0,6.4072304E0,2.9645157E-1,7.54715E1,0E0,1.2872589E1,8.924139E0,1.3124084E0,0E0,0E0,0E0,0E0,0E0,0E0,0E0,0E0,0E0,0E0,0E0,0E0,0E0],"parents":[2147483647,0,0,1,1,2,2,3,3,4,4,5,5,6,6,7,7,8,8,9,9,10,10,11,11,13,13,14,14,15,15,16,16,17,17,18,18,29,29,30,30,31,31,33,33,34,34,35,35],"right_children":[2,4,6,8,10,12,14,16,18,20,22,24,-1,26,28,30,32,34,36,-1,-1,-1,-1,-1,-1,-1,-1,-1,-1,38,40,42,-1,44,46,48,-1,-1,-1,-1,-1,-1,-1,-1,-1,-1,-1,-1,-1],"split_conditions":[1E0,1E0,1E0,1E0,1E0,1E0,1E0,1E0,1E0,1E0,1E0,1E0,2.5985597E-2,1E0,1E0,1E0,1E0,1E2,1E0,6.884223E-2,2.5972186E-2,4.3427333E-2,1.4121159E-2,6.878222E-2,2.5985597E-2,-5.928687E-2,5.5006344E-2,6.845256E-2,1.5014629E-2,1E0,1E0,1E0,8.580413E-2,1E0,1E0,1E0,-4.8975434E-2,-1.3922586E-2,6.518592E-2,4.5659337E-2,6.605109E-2,-4.095566E-2,6.651115E-2,-5.4248657E-2,4.1129455E-2,5.202194E-2,-5.591305E-2,6.6911556E-2,1.8289825E-2],"split_indices":[2,4,13,404,149,4,181,344,603,201,181,358,0,166,350,371,5,700,314,0,0,0,0,0,0,0,0,0,0,234,342,7,0,241,567,567,0,0,0,0,0,0,0,0,0,0,0,0,0],"split_type":[0,0,0,0,0,0,0,0,0,0,0,0,0,0,0,0,0,0,0,0,0,0,0,0,0,0,0,0,0,0,0,0,0,0,0,0,0,0,0,0,0,0,0,0,0,0,0,0,0],"sum_hessian":[2.7634968E3,2.3503958E3,4.131012E2,2.0271439E3,3.232517E2,3.7220193E2,4.0899258E1,1.9018892E3,1.2525477E2,3.1996716E2,3.2845516E0,3.7059384E2,1.6080704E0,7.1498547E0,3.3749405E1,6.029804E2,1.2989088E3,4.504561E1,8.020917E1,3.183594E2,1.6077547E0,1.4115684E0,1.8729832E0,3.6898578E2,1.6080704E0,4.317335E0,2.8325198E0,3.1857796E1,1.8916085E0,5.6698193E2,3.599842E1,1.2877224E3,1.1186308E1,1.5350887E1,2.9694721E1,7.8406876E1,1.8022867E0,5.653811E2,1.6008779E0,1.792065E1,1.807777E1,1.2720338E3,1.5688675E1,1.1212969E1,4.137919E0,2.844563E1,1.2490915E0,7.60771E1,2.3297775E0],"tree_param":{"num_deleted":"0","num_feature":"702","num_nodes":"49","size_leaf_vector":"1"}},{"base_weights":[3.4486167E-3,-2.2343312E-1,1.3138424E0,-4.6856606E-1,1.3413647E0,1.3431684E0,1.0213468E0,-5.598596E-1,9.293261E-1,1.3529735E0,9.3873596E-1,1.3454567E0,2.5338216E-2,-2.4879208E-1,1.2915657E0,-1.7509097E-1,-7.394534E-1,3.9904156E-1,1.2223616E0,6.7787915E-2,2.5325213E-2,6.203854E-2,-1.624569E-2,6.738826E-2,2.5338216E-2,-5.7961177E-2,5.3763002E-2,6.706999E-2,1.4570722E-2,-2.6192906E-1,1.1137272E0,-7.616753E-1,1.8203417E0,-5.2938706E-1,8.843814E-1,1.2847964E0,-4.7898527E-2,-5.2518725E-2,-1.28716845E-2,1.5894746E-2,5.8147043E-2,-3.9148744E-2,9.226359E-2,1.0096587E-1,3.6201973E-2,-4.8095513E-2,5.548125E-2,1.0061469E-2,6.640163E-2,6.577616E-2,2.3771742E-2],"categories":[],"categories_nodes":[],"categories_segments":[],"categories_sizes":[],"default_left":[0,0,0,0,0,0,0,0,0,0,0,0,0,0,0,0,0,0,0,0,0,0,0,0,0,0,0,0,0,0,0,0,0,0,0,0,0,0,0,0,0,0,0,0,0,0,0,0,0,0,0],"id":12,"left_children":[1,3,5,7,9,11,13,15,17,19,21,23,-1,25,27,29,31,33,35,-1,-1,-1,-1,-1,-1,-1,-1,-1,-1,37,39,41,43,45,47,49,-1,-1,-1,-1,-1,-1,-1,-1,-1,-1,-1,-1,-1,-1,-1],"loss_changes":[8.0997266E2,8.91431E2,2.0770874E0,2.5684573E2,2.0123291E-1,1.15356445E-2,1.4329182E1,1.3019843E2,1.8704323E1,2.9174805E-2,5.0166817E0,1.5380859E-2,0E0,1.0888023E1,1.2945061E0,6.760936E1,7.451227E1,2.0945108E1,1.1993675E1,0E0,0E0,0E0,0E0,0E0,0E0,0E0,0E0,0E0,0E0,1.7297821E0,1.1248474E0,7.225134E1,1.0157204E0,1.2570168E1,8.891062E0,1.2966995E0,0E0,0E0,0E0,0E0,0E0,0E0,0E0,0E0,0E0,0E0,0E0,0E0,0E0,0E0,0E0],"parents":[2147483647,0,0,1,1,2,2,3,3,4,4,5,5,6,6,7,7,8,8,9,9,10,10,11,11,13,13,14,14,15,15,16,16,17,17,18,18,29,29,30,30,31,31,32,32,33,33,34,34,35,35],"right_children":[2,4,6,8,10,12,14,16,18,20,22,24,-1,26,28,30,32,34,36,-1,-1,-1,-1,-1,-1,-1,-1,-1,-1,38,40,42,44,46,48,50,-1,-1,-1,-1,-1,-1,-1,-1,-1,-1,-1,-1,-1,-1,-1],"split_conditions":[1E0,1E0,1E0,1E0,1E2,1E0,1E0,1E0,1E0,1E0,1E0,1E0,2.5338216E-2,1E0,1E0,1E0,1E0,1E2,1E0,6.7787915E-2,2.5325213E-2,6.203854E-2,-1.624569E-2,6.738826E-2,2.5338216E-2,-5.7961177E-2,5.3763002E-2,6.706999E-2,1.4570722E-2,1E0,9.7E1,1E0,1E0,1E0,1E0,1E0,-4.7898527E-2,-5.2518725E-2,-1.28716845E-2,1.5894746E-2,5.8147043E-2,-3.9148744E-2,9.226359E-2,1.0096587E-1,3.6201973E-2,-4.8095513E-2,5.548125E-2,1.0061469E-2,6.640163E-2,6.577616E-2,2.3771742E-2],"split_indices":[2,4,13,404,698,4,181,632,603,201,376,358,0,166,350,371,12,700,314,0,0,0,0,0,0,0,0,0,0,0,701,571,238,5,289,502,0,0,0,0,0,0,0,0,0,0,0,0,0,0,0],"split_type":[0,0,0,0,0,0,0,0,0,0,0,0,0,0,0,0,0,0,0,0,0,0,0,0,0,0,0,0,0,0,0,0,0,0,0,0,0,0,0,0,0,0,0,0,0,0,0,0,0,0,0],"sum_hessian":[2.7224006E3,2.3213171E3,4.0108365E2,2.0075288E3,3.1378827E2,3.6127008E2,3.9813576E1,1.8850214E3,1.22507454E2,3.0270038E2,1.1087884E1,3.5967743E2,1.5926411E0,6.9982476E0,3.281533E1,6.00488E2,1.2845334E3,4.4443348E1,7.80641E1,3.0110806E2,1.5923272E0,8.963542E0,2.1243415E0,3.5808478E2,1.5926411E0,4.2206054E0,2.7776425E0,3.0932854E1,1.8824757E0,5.633287E2,3.7159245E1,1.2741746E3,1.03588295E1,1.522603E1,2.921732E1,7.629023E1,1.7738707E0,1.8746681E0,5.6145404E2,2.5985022E0,3.456074E1,1.2645425E3,9.632067E0,8.054946E0,2.3038833E0,1.2373793E1,2.852237E0,1.2075914E1,1.7141405E1,7.2897354E1,3.3928757E0],"tree_param":{"num_deleted":"0","num_feature":"702","num_nodes":"51","size_leaf_vector":"1"}},{"base_weights":[3.7688105E-3,-2.1464254E-1,1.28851E0,-4.493171E-1,1.3156688E0,1.3174846E0,9.998187E-1,-5.364834E-1,9.056972E-1,1.3208176E0,6.3001925E-1,1.319785E0,2.4709925E-2,-2.4171183E-1,1.2656583E0,-1.671423E-1,-7.107645E-1,3.875614E-1,1.1950314E0,6.617567E-2,2.4697302E-2,4.121504E-2,1.2306535E-2,6.610532E-2,2.4709925E-2,-5.6714233E-2,5.2586533E-2,6.5796874E-2,1.414022E-2,-2.4568109E-1,1.0905044E0,-7.303957E-1,1.0844921E-1,-5.098783E-1,8.577453E-1,1.256993E0,-4.6872094E-2,-1.26154665E-2,6.433323E-2,4.2872358E-2,6.325716E-2,-3.7659995E-2,8.395879E-2,-5.1491465E-2,4.038052E-2,9.613185E-3,6.506538E-2,6.411797E-2,1.5928395E-2],"categories":[],"categories_nodes":[],"categories_segments":[],"categories_sizes":[],"default_left":[0,0,0,0,0,0,0,0,0,0,0,0,0,0,0,0,0,0,0,0,0,0,0,0,0,0,0,0,0,0,0,0,0,0,0,0,0,0,0,0,0,0,0,0,0,0,0,0,0],"id":13,"left_children":[1,3,5,7,9,11,13,15,17,19,21,23,-1,25,27,29,31,33,35,-1,-1,-1,-1,-1,-1,-1,-1,-1,-1,37,39,41,-1,43,45,47,-1,-1,-1,-1,-1,-1,-1,-1,-1,-1,-1,-1,-1],"loss_changes":[7.5305945E2,8.24349E2,1.9445801E0,2.3547488E2,2.4542236E-1,1.2939453E-2,1.3413834E1,1.2024701E2,1.7619781E1,1.953125E-2,1.0939348E-1,1.6723633E-2,0E0,1.0248571E1,1.2522507E0,5.961062E1,7.338867E1,1.9299606E1,1.1341965E1,0E0,0E0,0E0,0E0,0E0,0E0,0E0,0E0,0E0,0E0,6.0763474E0,3.5998535E-1,7.062512E1,0E0,1.17889805E1,8.518505E0,1.3809891E0,0E0,0E0,0E0,0E0,0E0,0E0,0E0,0E0,0E0,0E0,0E0,0E0,0E0],"parents":[2147483647,0,0,1,1,2,2,3,3,4,4,5,5,6,6,7,7,8,8,9,9,10,10,11,11,13,13,14,14,15,15,16,16,17,17,18,18,29,29,30,30,31,31,33,33,34,34,35,35],"right_children":[2,4,6,8,10,12,14,16,18,20,22,24,-1,26,28,30,32,34,36,-1,-1,-1,-1,-1,-1,-1,-1,-1,-1,38,40,42,-1,44,46,48,-1,-1,-1,-1,-1,-1,-1,-1,-1,-1,-1,-1,-1],"split_conditions":[1E0,1E0,1E0,1E0,1E0,1E0,1E0,1E0,1E0,1E0,1E0,1E0,2.4709925E-2,1E0,1E0,1E0,1E0,1E2,1E0,6.617567E-2,2.4697302E-2,4.121504E-2,1.2306535E-2,6.610532E-2,2.4709925E-2,-5.6714233E-2,5.2586533E-2,6.5796874E-2,1.414022E-2,1E0,1E0,1E0,1.0844921E-1,1E0,1E0,1E0,-4.6872094E-2,-1.26154665E-2,6.433323E-2,4.2872358E-2,6.325716E-2,-3.7659995E-2,8.395879E-2,-5.1491465E-2,4.038052E-2,9.613185E-3,6.506538E-2,6.411797E-2,1.5928395E-2],"split_indices":[2,4,13,404,149,4,181,344,603,201,181,358,0,166,350,371,22,700,314,0,0,0,0,0,0,0,0,0,0,234,342,5,0,241,289,567,0,0,0,0,0,0,0,0,0,0,0,0,0],"split_type":[0,0,0,0,0,0,0,0,0,0,0,0,0,0,0,0,0,0,0,0,0,0,0,0,0,0,0,0,0,0,0,0,0,0,0,0,0,0,0,0,0,0,0,0,0,0,0,0,0],"sum_hessian":[2.6817417E3,2.2927905E3,3.8895102E2,1.988551E3,3.042396E2,3.5023584E2,3.871516E1,1.8689293E3,1.196217E2,3.0105255E2,3.1870356E0,3.4865857E2,1.5772989E0,6.843807E0,3.1871353E1,5.997925E2,1.2691368E3,4.3701363E1,7.5920334E1,2.994756E2,1.5769869E0,1.3543668E0,1.8326688E0,3.4708127E2,1.5772989E0,4.1222167E0,2.7215903E0,2.9997879E1,1.8734747E0,5.6529504E2,3.449746E1,1.261285E3,7.851782E0,1.499534E1,2.8706022E1,7.417562E1,1.7447181E0,5.6369214E2,1.6029326E0,1.7308674E1,1.7188786E1,1.2501411E3,1.1143904E1,1.0908576E1,4.0867643E0,1.2054288E1,1.6651733E1,7.186651E1,2.3091063E0],"tree_param":{"num_deleted":"0","num_feature":"702","num_nodes":"49","size_leaf_vector":"1"}},{"base_weights":[4.1163536E-3,-2.0618112E-1,1.2650795E0,-4.308531E-1,1.2919512E0,1.2937498E0,9.797257E-1,-5.1407903E-1,8.826005E-1,1.3040204E0,8.8109255E-1,1.296071E0,2.409986E-2,-2.350046E-1,1.241556E0,-1.5786566E-1,-6.832822E-1,3.7535498E-1,1.1697481E0,6.534251E-2,2.4087599E-2,5.9610166E-2,-1.77576E-2,6.49207E-2,2.409986E-2,-5.553779E-2,5.1470507E-2,6.462087E-2,1.3722666E-2,-2.370754E-1,1.0626844E0,-7.0011276E-1,1.2801424E-1,-4.8948798E-1,8.323441E-1,1.2313437E0,-4.5891974E-2,-5.107237E-2,-1.1633919E-2,3.829487E-2,6.162352E-2,-3.635722E-2,6.6769265E-2,-4.5561247E-2,5.4373544E-2,9.18463E-3,6.382741E-2,6.285349E-2,1.5397782E-2],"categories":[],"categories_nodes":[],"categories_segments":[],"categories_sizes":[],"default_left":[0,0,0,0,0,0,0,0,0,0,0,0,0,0,0,0,0,0,0,0,0,0,0,0,0,0,0,0,0,0,0,0,0,0,0,0,0,0,0,0,0,0,0,0,0,0,0,0,0],"id":14,"left_children":[1,3,5,7,9,11,13,15,17,19,21,23,-1,25,27,29,31,33,35,-1,-1,-1,-1,-1,-1,-1,-1,-1,-1,37,39,41,-1,43,45,47,-1,-1,-1,-1,-1,-1,-1,-1,-1,-1,-1,-1,-1],"loss_changes":[7.008548E2,7.6299835E2,1.8230591E0,2.15861E2,3.1713867E-1,1.6296387E-2,1.2572033E1,1.1162268E2,1.6717537E1,3.3843994E-2,4.854314E0,2.0019531E-2,0E0,9.655854E0,1.2155304E0,5.809311E1,7.038495E1,1.7816944E1,1.0740746E1,0E0,0E0,0E0,0E0,0E0,0E0,0E0,0E0,0E0,0E0,1.7028065E0,9.024811E-1,6.979248E1,0E0,1.1537982E1,8.17642E0,1.3475952E0,0E0,0E0,0E0,0E0,0E0,0E0,0E0,0E0,0E0,0E0,0E0,0E0,0E0],"parents":[2147483647,0,0,1,1,2,2,3,3,4,4,5,5,6,6,7,7,8,8,9,9,10,10,11,11,13,13,14,14,15,15,16,16,17,17,18,18,29,29,30,30,31,31,33,33,34,34,35,35],"right_children":[2,4,6,8,10,12,14,16,18,20,22,24,-1,26,28,30,32,34,36,-1,-1,-1,-1,-1,-1,-1,-1,-1,-1,38,40,42,-1,44,46,48,-1,-1,-1,-1,-1,-1,-1,-1,-1,-1,-1,-1,-1],"split_conditions":[1E0,1E0,1E0,1E0,1E2,1E0,1E0,1E0,1E0,1E0,1E0,1E0,2.409986E-2,1E0,1E0,1E0,1E0,1E2,1E0,6.534251E-2,2.4087599E-2,5.9610166E-2,-1.77576E-2,6.49207E-2,2.409986E-2,-5.553779E-2,5.1470507E-2,6.462087E-2,1.3722666E-2,9.3E1,1E0,1E0,1.2801424E-1,1E0,1E0,1E0,-4.5891974E-2,-5.107237E-2,-1.1633919E-2,3.829487E-2,6.162352E-2,-3.635722E-2,6.6769265E-2,-4.5561247E-2,5.4373544E-2,9.18463E-3,6.382741E-2,6.285349E-2,1.5397782E-2],"split_indices":[2,4,13,404,698,4,181,632,603,201,376,358,0,166,350,371,85,700,314,0,0,0,0,0,0,0,0,0,0,700,528,7,0,5,289,567,0,0,0,0,0,0,0,0,0,0,0,0,0],"split_type":[0,0,0,0,0,0,0,0,0,0,0,0,0,0,0,0,0,0,0,0,0,0,0,0,0,0,0,0,0,0,0,0,0,0,0,0,0,0,0,0,0,0,0,0,0,0,0,0,0],"sum_hessian":[2.6409822E3,2.2642053E3,3.7677695E2,1.9695483E3,2.946569E2,3.3916623E2,3.7610718E1,1.8527584E3,1.16789925E2,2.8413635E2,1.0520533E1,3.3760416E2,1.5620689E0,6.6874685E0,3.092325E1,5.9727795E2,1.2554805E3,4.3049774E1,7.374015E1,2.8257462E2,1.5617595E0,8.43374E0,2.0867927E0,3.3604208E2,1.5620689E0,4.022769E0,2.6646996E0,2.9058638E1,1.8646123E0,5.6163544E2,3.564255E1,1.2497797E3,5.700822E0,1.4858755E1,2.8191017E1,7.202516E1,1.7149926E0,1.8414469E0,5.5979395E2,1.4975767E1,2.0666784E1,1.2340343E3,1.574536E1,1.2056552E1,2.8022032E0,1.2033119E1,1.6157898E1,6.972132E1,2.3038397E0],"tree_param":{"num_deleted":"0","num_feature":"702","num_nodes":"49","size_leaf_vector":"1"}},{"base_weights":[4.4143368E-3,-1.9816035E-1,1.2433397E0,-4.1333252E-1,1.2699349E0,1.2717476E0,9.6090645E-1,-4.9281177E-1,8.615597E-1,1.2821432E0,8.589851E-1,1.274098E0,2.3507228E-2,-2.2863342E-1,1.2190546E0,-1.5059619E-1,-6.57277E-1,3.649774E-1,1.1460012E0,6.425052E-2,2.3495307E-2,5.855542E-2,-1.7065307E-2,1.2764707E0,2.3507228E-2,-5.4424662E-2,5.0409276E-2,6.3531294E-2,1.3317622E-2,-2.2216074E-1,1.0408465E0,-6.793494E-1,1.7813553E0,-4.716484E-1,8.080502E-1,1.2073019E0,-4.4954434E-2,6.4248756E-2,8.6586547E-1,-1.1433147E-2,6.343224E-2,4.073909E-2,6.06982E-2,-3.503212E-2,9.141651E-2,9.938722E-2,3.3896394E-2,-3.9885513E-2,7.612645E-2,4.6766136E-2,-5.516237E-2,6.2005874E-2,1.9705072E-2,4.9036264E-2,2.0658458E-2],"categories":[],"categories_nodes":[],"categories_segments":[],"categories_sizes":[],"default_left":[0,0,0,0,0,0,0,0,0,0,0,0,0,0,0,0,0,0,0,0,0,0,0,0,0,0,0,0,0,0,0,0,0,0,0,0,0,0,0,0,0,0,0,0,0,0,0,0,0,0,0,0,0,0,0],"id":15,"left_children":[1,3,5,7,9,11,13,15,17,19,21,23,-1,25,27,29,31,33,35,-1,-1,-1,-1,37,-1,-1,-1,-1,-1,39,41,43,45,47,49,51,-1,-1,53,-1,-1,-1,-1,-1,-1,-1,-1,-1,-1,-1,-1,-1,-1,-1,-1],"loss_changes":[6.5297394E2,7.0690765E2,1.7114258E0,1.9811972E2,3.3395386E-1,2.1118164E-2,1.1795982E1,1.0330295E2,1.5805328E1,3.8513184E-2,4.6270666E0,2.4780273E-2,0E0,9.105548E0,1.1834793E0,5.1188866E1,6.7984985E1,1.6430954E1,1.0182083E1,0E0,0E0,0E0,0E0,2.5817871E-2,0E0,0E0,0E0,0E0,0E0,5.763035E0,3.4303665E-1,6.6966064E1,1.2495079E0,1.13726635E1,8.007286E0,1.4026337E0,0E0,0E0,9.819937E-2,0E0,0E0,0E0,0E0,0E0,0E0,0E0,0E0,0E0,0E0,0E0,0E0,0E0,0E0,0E0,0E0],"parents":[2147483647,0,0,1,1,2,2,3,3,4,4,5,5,6,6,7,7,8,8,9,9,10,10,11,11,13,13,14,14,15,15,16,16,17,17,18,18,23,23,29,29,30,30,31,31,32,32,33,33,34,34,35,35,38,38],"right_children":[2,4,6,8,10,12,14,16,18,20,22,24,-1,26,28,30,32,34,36,-1,-1,-1,-1,38,-1,-1,-1,-1,-1,40,42,44,46,48,50,52,-1,-1,54,-1,-1,-1,-1,-1,-1,-1,-1,-1,-1,-1,-1,-1,-1,-1,-1],"split_conditions":[1E0,1E0,1E0,1E0,1E2,1E0,1E0,1E0,1E0,1E0,1E0,1E0,2.3507228E-2,1E0,1E0,1E0,1E0,1E2,1E0,6.425052E-2,2.3495307E-2,5.855542E-2,-1.7065307E-2,1E0,2.3507228E-2,-5.4424662E-2,5.0409276E-2,6.3531294E-2,1.3317622E-2,1E0,1E0,1E0,1E0,1E0,1E0,1E0,-4.4954434E-2,6.4248756E-2,1E0,-1.1433147E-2,6.343224E-2,4.073909E-2,6.06982E-2,-3.503212E-2,9.141651E-2,9.938722E-2,3.3896394E-2,-3.9885513E-2,7.612645E-2,4.6766136E-2,-5.516237E-2,6.2005874E-2,1.9705072E-2,4.9036264E-2,2.0658458E-2],"split_indices":[2,4,13,404,698,4,181,344,603,201,376,358,0,166,350,371,12,700,314,0,0,0,0,146,0,0,0,0,0,234,342,571,238,3,567,502,0,0,331,0,0,0,0,0,0,0,0,0,0,0,0,0,0,0,0],"split_type":[0,0,0,0,0,0,0,0,0,0,0,0,0,0,0,0,0,0,0,0,0,0,0,0,0,0,0,0,0,0,0,0,0,0,0,0,0,0,0,0,0,0,0,0,0,0,0,0,0,0,0,0,0,0,0],"sum_hessian":[2.5997683E3,2.2351436E3,3.646247E2,1.9500518E3,2.8509195E2,3.2811865E2,3.6506054E1,1.8361934E3,1.1385839E2,2.7480814E2,1.0283827E1,3.265717E2,1.5469735E0,6.530056E0,2.9975998E1,5.966378E2,1.2395554E3,4.229765E1,7.1560745E1,2.7326144E2,1.5466667E0,8.180806E0,2.103021E0,3.250247E2,1.5469735E0,3.9227865E0,2.6072698E0,2.8120104E1,1.8558948E0,5.635986E2,3.3039272E1,1.2291516E3,1.0403817E1,1.4622477E1,2.7675173E1,6.98759E1,1.6848421E0,3.163432E2,8.681497E0,5.61994E2,1.6045381E0,1.6803295E1,1.623598E1,1.2195172E3,9.634445E0,8.089331E0,2.3144865E0,1.3083255E1,1.5392225E0,2.6426105E1,1.2490678E0,6.666091E1,3.2149897E0,5.994213E0,2.6872835E0],"tree_param":{"num_deleted":"0","num_feature":"702","num_nodes":"55","size_leaf_vector":"1"}},{"base_weights":[4.767376E-3,-1.9035865E-1,1.2231747E0,-3.9635476E-1,1.2494754E0,1.2513628E0,9.432211E-1,-4.7224018E-1,8.395086E-1,1.255093E0,5.5595106E-1,1.25375E0,2.2931298E-2,-2.225662E-1,1.1979771E0,-1.4222373E-1,-6.3191915E-1,3.5219687E-1,1.1232755E0,6.2894695E-2,2.2919713E-2,3.8026165E-2,9.352256E-3,1.2561603E0,2.2931298E-2,-5.3368516E-2,4.9397808E-2,6.251898E-2,1.2924673E-2,-2.1457161E-1,1.015375E0,-6.514435E-1,1.0535877E-1,-1.3787991E-1,1.0783336E0,1.1843143E0,-4.405614E-2,6.323794E-2,8.462941E-1,-4.968325E-2,-1.0513682E-2,5.9438247E-2,3.588364E-2,-3.371055E-2,8.347488E-2,-3.3003654E-2,6.9313504E-2,-3.6235146E-2,6.1871093E-2,6.059031E-2,1.3285427E-2,4.8026245E-2,2.0068746E-2],"categories":[],"categories_nodes":[],"categories_segments":[],"categories_sizes":[],"default_left":[0,0,0,0,0,0,0,0,0,0,0,0,0,0,0,0,0,0,0,0,0,0,0,0,0,0,0,0,0,0,0,0,0,0,0,0,0,0,0,0,0,0,0,0,0,0,0,0,0,0,0,0,0],"id":16,"left_children":[1,3,5,7,9,11,13,15,17,19,21,23,-1,25,27,29,31,33,35,-1,-1,-1,-1,37,-1,-1,-1,-1,-1,39,41,43,-1,45,47,49,-1,-1,51,-1,-1,-1,-1,-1,-1,-1,-1,-1,-1,-1,-1,-1,-1],"loss_changes":[6.089665E2,6.5535406E2,1.6099243E0,1.8161517E2,3.7979126E-1,2.7130127E-2,1.1078941E1,9.587897E1,1.5112068E1,3.387451E-2,1.6094565E-1,3.0822754E-2,0E0,8.5938225E0,1.1553841E0,5.0059826E1,6.6992676E1,1.5353779E1,9.658783E0,0E0,0E0,0E0,0E0,4.0130615E-2,0E0,0E0,0E0,0E0,0E0,1.6694031E0,9.628563E-1,6.5545654E1,0E0,2.1924364E1,5.86788E0,1.414566E0,0E0,0E0,9.715605E-2,0E0,0E0,0E0,0E0,0E0,0E0,0E0,0E0,0E0,0E0,0E0,0E0,0E0,0E0],"parents":[2147483647,0,0,1,1,2,2,3,3,4,4,5,5,6,6,7,7,8,8,9,9,10,10,11,11,13,13,14,14,15,15,16,16,17,17,18,18,23,23,29,29,30,30,31,31,33,33,34,34,35,35,38,38],"right_children":[2,4,6,8,10,12,14,16,18,20,22,24,-1,26,28,30,32,34,36,-1,-1,-1,-1,38,-1,-1,-1,-1,-1,40,42,44,-1,46,48,50,-1,-1,52,-1,-1,-1,-1,-1,-1,-1,-1,-1,-1,-1,-1,-1,-1],"split_conditions":[1E0,1E0,1E0,1E0,1E0,1E0,1E0,1E0,1E0,1E0,1E0,1E0,2.2931298E-2,1E0,1E0,1E0,1E0,1E0,1E0,6.2894695E-2,2.2919713E-2,3.8026165E-2,9.352256E-3,1E0,2.2931298E-2,-5.3368516E-2,4.9397808E-2,6.251898E-2,1.2924673E-2,1E0,9.9E1,1E0,1.0535877E-1,1E0,1E2,1E0,-4.405614E-2,6.323794E-2,1E0,-4.968325E-2,-1.0513682E-2,5.9438247E-2,3.588364E-2,-3.371055E-2,8.347488E-2,-3.3003654E-2,6.9313504E-2,-3.6235146E-2,6.1871093E-2,6.059031E-2,1.3285427E-2,4.8026245E-2,2.0068746E-2],"split_indices":[2,4,13,404,149,4,181,632,603,201,181,358,0,166,350,371,22,289,314,0,0,0,0,146,0,0,0,0,0,0,698,5,0,7,700,567,0,0,331,0,0,0,0,0,0,0,0,0,0,0,0,0,0],"split_type":[0,0,0,0,0,0,0,0,0,0,0,0,0,0,0,0,0,0,0,0,0,0,0,0,0,0,0,0,0,0,0,0,0,0,0,0,0,0,0,0,0,0,0,0,0,0,0,0,0,0,0,0,0],"sum_hessian":[2.5594692E3,2.206884E3,3.525853E2,1.9312991E3,2.75585E2,3.1717914E2,3.5406155E1,1.8201545E3,1.111446E2,2.725674E2,3.017573E0,3.156471E2,1.5320324E0,6.372294E0,2.9033863E1,5.941292E2,1.2260253E3,4.172742E1,6.9417175E1,2.7103568E2,1.5317292E0,1.2582579E0,1.7593154E0,3.1411505E2,1.5320324E0,3.822729E0,2.5495648E0,2.7186535E1,1.8473269E0,5.5994806E2,3.418112E1,1.2181049E3,7.9205008E0,2.5396915E1,1.6330507E1,6.776278E1,1.6543987E0,3.0561774E2,8.497316E0,1.8091494E0,5.581389E2,1.9708956E1,1.4472167E1,1.2069744E3,1.1130452E1,1.9338293E1,6.058622E0,1.0358044E0,1.5294703E1,6.548381E1,2.2789676E0,5.839245E0,2.6580713E0],"tree_param":{"num_deleted":"0","num_feature":"702","num_nodes":"53","size_leaf_vector":"1"}},{"base_weights":[5.0671394E-3,-1.8292521E-1,1.204357E0,-3.8016975E-1,1.2303854E0,1.2323595E0,9.2654693E-1,-4.526243E-1,8.196976E-1,1.2432377E0,8.072264E-1,1.2347907E0,2.2371383E-2,-2.1677409E-1,1.1781682E0,-1.3560769E-1,-6.077983E-1,3.4182632E-1,1.1020749E0,6.2310427E-2,2.2360124E-2,5.653405E-2,-1.8421995E-2,1.2433991E0,8.2733476E-1,-5.2363794E-2,4.8431713E-2,6.157581E-2,1.25434175E-2,-2.008572E-1,9.9553514E-1,-6.246715E-1,1.234436E-1,-1.3032469E-1,1.0577164E0,1.1629381E0,-4.3194097E-2,6.2298384E-2,2.2371383E-2,4.705245E-2,1.9495187E-2,-1.0361667E-2,6.2491942E-2,3.7202705E-2,5.722907E-2,-3.2587886E-2,6.681897E-2,-3.1528484E-2,6.737587E-2,-3.558999E-2,6.085071E-2,5.9863694E-2,1.7516803E-2],"categories":[],"categories_nodes":[],"categories_segments":[],"categories_sizes":[],"default_left":[0,0,0,0,0,0,0,0,0,0,0,0,0,0,0,0,0,0,0,0,0,0,0,0,0,0,0,0,0,0,0,0,0,0,0,0,0,0,0,0,0,0,0,0,0,0,0,0,0,0,0,0,0],"id":17,"left_children":[1,3,5,7,9,11,13,15,17,19,21,23,-1,25,27,29,31,33,35,-1,-1,-1,-1,37,39,-1,-1,-1,-1,41,43,45,-1,47,49,51,-1,-1,-1,-1,-1,-1,-1,-1,-1,-1,-1,-1,-1,-1,-1,-1,-1],"loss_changes":[5.684491E2,6.080903E2,1.5161438E0,1.667221E2,4.4952393E-1,3.4057617E-2,1.0415041E1,8.871878E1,1.4375298E1,5.154419E-2,4.495821E0,4.4006348E-2,0E0,8.117294E0,1.1306458E0,4.4078842E1,6.4443634E1,1.4352828E1,9.173187E0,0E0,0E0,0E0,0E0,5.0811768E-2,9.6493244E-2,0E0,0E0,0E0,0E0,5.4659214E0,3.6998367E-1,6.492236E1,0E0,2.0242506E1,5.60841E0,1.4400024E0,0E0,0E0,0E0,0E0,0E0,0E0,0E0,0E0,0E0,0E0,0E0,0E0,0E0,0E0,0E0,0E0,0E0],"parents":[2147483647,0,0,1,1,2,2,3,3,4,4,5,5,6,6,7,7,8,8,9,9,10,10,11,11,13,13,14,14,15,15,16,16,17,17,18,18,23,23,24,24,29,29,30,30,31,31,33,33,34,34,35,35],"right_children":[2,4,6,8,10,12,14,16,18,20,22,24,-1,26,28,30,32,34,36,-1,-1,-1,-1,38,40,-1,-1,-1,-1,42,44,46,-1,48,50,52,-1,-1,-1,-1,-1,-1,-1,-1,-1,-1,-1,-1,-1,-1,-1,-1,-1],"split_conditions":[1E0,1E0,1E0,1E0,1E2,1E0,1E0,1E0,1E0,1E0,1E0,1E0,2.2371383E-2,1E0,1E0,1E0,1E0,1E0,1E0,6.2310427E-2,2.2360124E-2,5.653405E-2,-1.8421995E-2,1E0,1E0,-5.2363794E-2,4.8431713E-2,6.157581E-2,1.25434175E-2,1E0,1E0,1E0,1.234436E-1,1E0,1E2,1E0,-4.3194097E-2,6.2298384E-2,2.2371383E-2,4.705245E-2,1.9495187E-2,-1.0361667E-2,6.2491942E-2,3.7202705E-2,5.722907E-2,-3.2587886E-2,6.681897E-2,-3.1528484E-2,6.737587E-2,-3.558999E-2,6.085071E-2,5.9863694E-2,1.7516803E-2],"split_indices":[2,4,13,404,698,4,181,344,603,201,376,146,0,166,350,371,85,289,314,0,0,0,0,358,331,0,0,0,0,234,528,7,0,7,700,502,0,0,0,0,0,0,0,0,0,0,0,0,0,0,0,0,0],"split_type":[0,0,0,0,0,0,0,0,0,0,0,0,0,0,0,0,0,0,0,0,0,0,0,0,0,0,0,0,0,0,0,0,0,0,0,0,0,0,0,0,0,0,0,0,0,0,0,0,0,0,0,0,0],"sum_hessian":[2.5193389E3,2.1786729E3,3.4066614E2,1.9124924E3,2.6618036E2,3.0635083E2,3.4315308E1,1.8041696E3,1.08322845E2,2.5645328E2,9.727075E0,3.0483356E2,1.5172632E0,6.2148128E0,2.8100492E1,5.935124E2,1.2106572E3,4.105514E1,6.726771E1,2.5493633E2,1.5169636E0,7.658342E0,2.068733E0,2.9651727E2,8.316285E0,3.7229948E0,2.491818E0,2.626158E1,1.8389127E0,5.6192065E2,3.1591732E1,1.2048464E3,5.810731E0,2.52319E1,1.5823241E1,6.564392E1,1.6237804E0,2.95E2,1.5172632E0,5.6866736E0,2.6296117E0,5.6031506E2,1.6055577E0,1.3985887E1,1.7605844E1,1.1890903E3,1.5756161E1,1.9279251E1,5.9526496E0,1.0203707E0,1.4802871E1,6.2528458E1,3.115466E0],"tree_param":{"num_deleted":"0","num_feature":"702","num_nodes":"53","size_leaf_vector":"1"}},{"base_weights":[5.4028467E-3,-1.7574553E-1,1.1867462E0,-3.6462998E-1,1.2125436E0,1.2145944E0,9.107764E-1,-4.1272822E-1,6.602115E-2,1.2256157E0,7.877962E-1,1.2232333E0,8.0893743E-1,-2.1123293E-1,1.1594919E0,-4.5146224E-1,1.4218836E0,6.143257E-2,2.1815902E-2,5.5645473E-2,-1.7701035E-2,1.225831E0,2.1826852E-2,4.6111494E-2,1.8937286E-2,-5.140559E-2,4.7507018E-2,6.069479E-2,1.2173491E-2,-1.582909E-1,-6.2880397E-1,1.0094609E-1,5.986556E-2,6.1422803E-2,2.1826852E-2,-1.0455504E-2,7.639071E-2,-3.4873147E-2,3.632633E-2],"categories":[],"categories_nodes":[],"categories_segments":[],"categories_sizes":[],"default_left":[0,0,0,0,0,0,0,0,0,0,0,0,0,0,0,0,0,0,0,0,0,0,0,0,0,0,0,0,0,0,0,0,0,0,0,0,0,0,0],"id":18,"left_children":[1,3,5,7,9,11,13,15,-1,17,19,21,23,25,27,29,31,-1,-1,-1,-1,33,-1,-1,-1,-1,-1,-1,-1,35,37,-1,-1,-1,-1,-1,-1,-1,-1],"loss_changes":[5.3100806E2,5.6461755E2,1.4292297E0,1.5409763E2,4.6636963E-1,5.0109863E-2,9.799175E0,1.3159277E2,0E0,5.908203E-2,4.2915845E0,5.4534912E-2,9.6107006E-2,7.6729383E0,1.108757E0,9.3767395E1,2.723671E0,0E0,0E0,0E0,0E0,5.847168E-2,0E0,0E0,0E0,0E0,0E0,0E0,0E0,5.8742493E1,1.0515756E2,0E0,0E0,0E0,0E0,0E0,0E0,0E0,0E0],"parents":[2147483647,0,0,1,1,2,2,3,3,4,4,5,5,6,6,7,7,9,9,10,10,11,11,12,12,13,13,14,14,15,15,16,16,21,21,29,29,30,30],"right_children":[2,4,6,8,10,12,14,16,-1,18,20,22,24,26,28,30,32,-1,-1,-1,-1,34,-1,-1,-1,-1,-1,-1,-1,36,38,-1,-1,-1,-1,-1,-1,-1,-1],"split_conditions":[1E0,1E0,1E0,1E0,1E2,1E0,1E0,1E0,6.602115E-2,1E0,1E0,1E0,1E0,1E0,1E0,1E0,1E0,6.143257E-2,2.1815902E-2,5.5645473E-2,-1.7701035E-2,1E0,2.1826852E-2,4.6111494E-2,1.8937286E-2,-5.140559E-2,4.7507018E-2,6.069479E-2,1.2173491E-2,1E0,1E0,1.0094609E-1,5.986556E-2,6.1422803E-2,2.1826852E-2,-1.0455504E-2,7.639071E-2,-3.4873147E-2,3.632633E-2],"split_indices":[2,4,13,7,698,146,181,22,0,201,376,4,331,166,350,268,404,0,0,0,0,358,0,0,0,0,0,0,0,151,342,0,0,0,0,0,0,0,0],"split_type":[0,0,0,0,0,0,0,0,0,0,0,0,0,0,0,0,0,0,0,0,0,0,0,0,0,0,0,0,0,0,0,0,0,0,0,0,0,0,0],"sum_hessian":[2.4793894E3,2.1504834E3,3.2890604E2,1.8935876E3,2.5689575E2,2.9566888E2,3.3237137E1,1.8417711E3,5.1816544E1,2.4739635E2,9.499414E0,2.8753018E2,8.13871E0,6.058162E0,2.7178974E1,1.8044282E3,3.7342842E1,2.4589397E2,1.5023848E0,7.413781E0,2.0856333E0,2.860275E2,1.5026802E0,5.5368075E0,2.6019025E0,3.6239312E0,2.4342313E0,2.5348318E1,1.8306559E0,6.808228E2,1.1236055E3,8.023049E0,2.9319794E1,2.845248E2,1.5026802E0,6.6175354E2,1.9069265E1,1.0698917E3,5.3713673E1],"tree_param":{"num_deleted":"0","num_feature":"702","num_nodes":"39","size_leaf_vector":"1"}},{"base_weights":[5.660787E-3,-1.688161E-1,1.1702188E0,-3.4958085E-1,1.1958241E0,1.197941E0,8.958147E-1,-3.9551467E-1,6.484454E-2,1.2020203E0,4.8890862E-1,1.2067466E0,7.91058E-1,-2.0592032E-1,1.1418283E0,-4.325979E-1,1.3879716E0,6.025022E-2,2.1286456E-2,3.520479E-2,6.6861296E-3,1.2094069E0,2.1297114E-2,4.520039E-2,1.8394548E-2,-5.0489545E-2,4.6620242E-2,5.9869688E-2,1.1814506E-2,-1.5047058E-1,-6.0525393E-1,9.5262535E-2,5.897349E-2,6.0604792E-2,2.1297114E-2,-9.94883E-3,7.194614E-2,-3.359411E-2,3.4451813E-2],"categories":[],"categories_nodes":[],"categories_segments":[],"categories_sizes":[],"default_left":[0,0,0,0,0,0,0,0,0,0,0,0,0,0,0,0,0,0,0,0,0,0,0,0,0,0,0,0,0,0,0,0,0,0,0,0,0,0,0],"id":19,"left_children":[1,3,5,7,9,11,13,15,-1,17,19,21,23,25,27,29,31,-1,-1,-1,-1,33,-1,-1,-1,-1,-1,-1,-1,35,37,-1,-1,-1,-1,-1,-1,-1,-1],"loss_changes":[4.9641183E2,5.245612E2,1.3484497E0,1.4247092E2,5.019226E-1,7.067871E-2,9.226866E0,1.21424225E2,0E0,5.6640625E-2,1.9988286E-1,6.274414E-2,9.591246E-2,7.2580686E0,1.0893021E0,8.712152E1,1.7918243E0,0E0,0E0,0E0,0E0,6.665039E-2,0E0,0E0,0E0,0E0,0E0,0E0,0E0,5.279197E1,9.621631E1,0E0,0E0,0E0,0E0,0E0,0E0,0E0,0E0],"parents":[2147483647,0,0,1,1,2,2,3,3,4,4,5,5,6,6,7,7,9,9,10,10,11,11,12,12,13,13,14,14,15,15,16,16,21,21,29,29,30,30],"right_children":[2,4,6,8,10,12,14,16,-1,18,20,22,24,26,28,30,32,-1,-1,-1,-1,34,-1,-1,-1,-1,-1,-1,-1,36,38,-1,-1,-1,-1,-1,-1,-1,-1],"split_conditions":[1E0,1E0,1E0,1E0,1E0,1E0,1E0,1E0,6.484454E-2,1E0,1E0,1E0,1E0,1E0,1E0,1E0,1E0,6.025022E-2,2.1286456E-2,3.520479E-2,6.6861296E-3,1E0,2.1297114E-2,4.520039E-2,1.8394548E-2,-5.0489545E-2,4.6620242E-2,5.9869688E-2,1.1814506E-2,1E0,1E0,9.5262535E-2,5.897349E-2,6.0604792E-2,2.1297114E-2,-9.94883E-3,7.194614E-2,-3.359411E-2,3.4451813E-2],"split_indices":[2,4,13,7,149,146,181,22,0,201,181,4,331,166,350,268,404,0,0,0,0,358,0,0,0,0,0,0,0,151,342,0,0,0,0,0,0,0,0],"split_type":[0,0,0,0,0,0,0,0,0,0,0,0,0,0,0,0,0,0,0,0,0,0,0,0,0,0,0,0,0,0,0,0,0,0,0,0,0,0,0],"sum_hessian":[2.4411377E3,2.1238E3,3.173378E2,1.8760376E3,2.4776231E2,2.851631E2,3.2174736E1,1.825859E3,5.0178646E1,2.4491525E2,2.8470612E0,2.7719824E2,7.964836E0,5.902818E0,2.6271915E1,1.78941E3,3.6448963E1,2.4342725E2,1.4880056E0,1.1612161E0,1.685845E0,2.7570993E2,1.488297E0,5.3898993E0,2.5749366E0,3.5258343E0,2.376984E0,2.4449358E1,1.8225588E0,6.8005023E2,1.1093599E3,8.13321E0,2.8315752E1,2.7422165E2,1.488297E0,6.607596E2,1.9290634E1,1.0555048E3,5.3855026E1],"tree_param":{"num_deleted":"0","num_feature":"702","num_nodes":"39","size_leaf_vector":"1"}},{"base_weights":[5.9084157E-3,-1.6215E-1,1.1546658E0,-3.3515137E-1,1.1800561E0,1.1822882E0,8.815776E-1,-3.790161E-1,6.374993E-2,1.1939416E0,7.401015E-1,1.1912844E0,7.7365714E-1,-2.0081691E-1,1.1250707E0,-4.1451243E-1,1.3566502E0,5.9856642E-2,2.0771233E-2,5.391419E-2,-1.8929087E-2,1.1940144E0,2.0781595E-2,4.431643E-2,1.786655E-2,-4.96118E-2,4.5768254E-2,5.968652E-2,1.5442707E-2,-1.0859512E-1,-5.668835E-1,9.032868E-2,5.8131367E-2,5.983874E-2,2.0781595E-2,-8.558582E-3,4.9222115E-2,-2.982217E-2,8.453237E-2],"categories":[],"categories_nodes":[],"categories_segments":[],"categories_sizes":[],"default_left":[0,0,0,0,0,0,0,0,0,0,0,0,0,0,0,0,0,0,0,0,0,0,0,0,0,0,0,0,0,0,0,0,0,0,0,0,0,0,0],"id":20,"left_children":[1,3,5,7,9,11,13,15,-1,17,19,21,23,25,27,29,31,-1,-1,-1,-1,33,-1,-1,-1,-1,-1,-1,-1,35,37,-1,-1,-1,-1,-1,-1,-1,-1],"loss_changes":[4.643831E2,4.8766165E2,1.273468E0,1.3182658E2,5.814209E-1,9.2437744E-2,8.694151E0,1.1214282E2,0E0,7.620239E-2,4.1793127E0,7.13501E-2,9.583664E-2,6.870273E0,1.1097641E0,8.270218E1,1.0885773E0,0E0,0E0,0E0,0E0,7.537842E-2,0E0,0E0,0E0,0E0,0E0,0E0,0E0,4.0630993E1,8.008511E1,0E0,0E0,0E0,0E0,0E0,0E0,0E0,0E0],"parents":[2147483647,0,0,1,1,2,2,3,3,4,4,5,5,6,6,7,7,9,9,10,10,11,11,12,12,13,13,14,14,15,15,16,16,21,21,29,29,30,30],"right_children":[2,4,6,8,10,12,14,16,-1,18,20,22,24,26,28,30,32,-1,-1,-1,-1,34,-1,-1,-1,-1,-1,-1,-1,36,38,-1,-1,-1,-1,-1,-1,-1,-1],"split_conditions":[1E0,1E0,1E0,1E0,1E2,1E0,1E0,1E0,6.374993E-2,1E0,1E0,1E0,1E0,1E0,1E0,1E0,1E0,5.9856642E-2,2.0771233E-2,5.391419E-2,-1.8929087E-2,1E0,2.0781595E-2,4.431643E-2,1.786655E-2,-4.96118E-2,4.5768254E-2,5.968652E-2,1.5442707E-2,1E0,1E0,9.032868E-2,5.8131367E-2,5.983874E-2,2.0781595E-2,-8.558582E-3,4.9222115E-2,-2.982217E-2,8.453237E-2],"split_indices":[2,4,13,7,698,146,181,22,0,201,376,4,331,166,166,344,404,0,0,0,0,358,0,0,0,0,0,0,0,371,313,0,0,0,0,0,0,0,0],"split_type":[0,0,0,0,0,0,0,0,0,0,0,0,0,0,0,0,0,0,0,0,0,0,0,0,0,0,0,0,0,0,0,0,0,0,0,0,0,0,0],"sum_hessian":[2.4034329E3,2.0974443E3,3.059885E2,1.8586298E3,2.3881464E2,2.7485782E2,3.113067E1,1.810083E3,4.854681E1,2.298466E2,8.968034E0,2.6706296E2,7.7948594E0,5.7491884E0,2.5381483E1,1.7745525E3,3.5530426E1,2.2837277E2,1.473837E0,6.9140143E0,2.0540197E0,2.6558884E2,1.4741236E0,5.246151E0,2.5487082E0,3.4289594E0,2.320229E0,2.2985441E1,2.3960412E0,5.905701E2,1.1839824E3,8.201252E0,2.7329174E1,2.6411472E2,1.4741236E0,5.593885E2,3.118165E1,1.1694061E3,1.4576303E1],"tree_param":{"num_deleted":"0","num_feature":"702","num_nodes":"39","size_leaf_vector":"1"}},{"base_weights":[6.1865468E-3,-1.557686E-1,1.1399293E0,-3.214352E-1,1.1652364E0,1.1675363E0,8.675832E-1,-3.633491E-1,6.272877E-2,1.1794151E0,7.226906E-1,1.1767464E0,7.567008E-1,-1.9590564E-1,1.1084468E0,-3.9734364E-1,1.3276162E0,5.913482E-2,2.0269698E-2,5.3145643E-2,-1.8186307E-2,1.179553E0,2.02798E-2,4.0764865E-2,1.0191627E-2,-4.876892E-2,4.4948246E-2,5.8405247E-2,1.0017444E-2,-1.0262835E-1,-5.451939E-1,1.1017579E0,8.208032E-2,5.911959E-2,2.02798E-2,-8.301051E-3,4.7996078E-2,-2.876955E-2,8.178121E-2,1.6095918E-2,5.6478452E-2],"categories":[],"categories_nodes":[],"categories_segments":[],"categories_sizes":[],"default_left":[0,0,0,0,0,0,0,0,0,0,0,0,0,0,0,0,0,0,0,0,0,0,0,0,0,0,0,0,0,0,0,0,0,0,0,0,0,0,0,0,0],"id":21,"left_children":[1,3,5,7,9,11,13,15,-1,17,19,21,23,25,27,29,31,-1,-1,-1,-1,33,-1,-1,-1,-1,-1,-1,-1,35,37,39,-1,-1,-1,-1,-1,-1,-1,-1,-1],"loss_changes":[4.346737E2,4.537012E2,1.2118225E0,1.2209218E2,5.973816E-1,1.1517334E-1,8.190313E0,1.0367972E2,0E0,8.514404E-2,3.992289E0,8.029175E-2,1.1335945E-1,6.5073843E0,1.1489944E0,7.662811E1,7.1562576E-1,0E0,0E0,0E0,0E0,8.43811E-2,0E0,0E0,0E0,0E0,0E0,0E0,0E0,3.9843994E1,7.810318E1,1.5133095E-1,0E0,0E0,0E0,0E0,0E0,0E0,0E0,0E0,0E0],"parents":[2147483647,0,0,1,1,2,2,3,3,4,4,5,5,6,6,7,7,9,9,10,10,11,11,12,12,13,13,14,14,15,15,16,16,21,21,29,29,30,30,31,31],"right_children":[2,4,6,8,10,12,14,16,-1,18,20,22,24,26,28,30,32,-1,-1,-1,-1,34,-1,-1,-1,-1,-1,-1,-1,36,38,40,-1,-1,-1,-1,-1,-1,-1,-1,-1],"split_conditions":[1E0,1E0,1E0,1E0,1E2,1E0,1E0,1E0,6.272877E-2,1E0,1E0,1E0,1E0,1E0,1E0,1E0,1E0,5.913482E-2,2.0269698E-2,5.3145643E-2,-1.8186307E-2,1E0,2.02798E-2,4.0764865E-2,1.0191627E-2,-4.876892E-2,4.4948246E-2,5.8405247E-2,1.0017444E-2,1E0,1E0,1E0,8.208032E-2,5.911959E-2,2.02798E-2,-8.301051E-3,4.7996078E-2,-2.876955E-2,8.178121E-2,1.6095918E-2,5.6478452E-2],"split_indices":[2,4,13,7,698,146,181,22,0,201,376,4,241,166,350,632,418,0,0,0,0,358,0,0,0,0,0,0,0,371,5,233,0,0,0,0,0,0,0,0,0],"split_type":[0,0,0,0,0,0,0,0,0,0,0,0,0,0,0,0,0,0,0,0,0,0,0,0,0,0,0,0,0,0,0,0,0,0,0,0,0,0,0,0,0],"sum_hessian":[2.365337E3,2.0704375E3,2.9489938E2,1.8403916E3,2.3004596E2,2.6477316E2,3.0126234E1,1.793464E3,4.692761E1,2.2129095E2,8.755015E0,2.5714423E2,7.6289353E0,5.597621E0,2.4528614E1,1.7588694E3,3.4594627E1,2.1983105E2,1.4598877E0,6.6836104E0,2.0714052E0,2.5568405E2,1.4601701E0,6.468676E0,1.1602591E0,3.3335211E0,2.2640998E0,2.2747858E1,1.7807546E0,5.88161E2,1.1707084E3,2.274364E1,1.18509865E1,2.5422389E2,1.4601701E0,5.558427E2,3.2318314E1,1.1554454E3,1.5262912E1,1.2161901E0,2.152745E1],"tree_param":{"num_deleted":"0","num_feature":"702","num_nodes":"41","size_leaf_vector":"1"}},{"base_weights":[6.4496496E-3,-1.4960748E-1,1.1260191E0,-3.082384E-1,1.1512389E0,1.1535741E0,8.54547E-1,-3.48283E-1,1.2354715E0,1.1657321E0,7.058563E-1,1.1630436E0,7.3929536E-1,-1.9117112E-1,1.093187E0,-3.8083476E-1,1.3018742E0,6.2598564E-2,2.2643242E-2,5.8455575E-2,1.9781379E-2,5.2408326E-2,-1.747634E-2,1.1659338E0,1.9791216E-2,4.2788066E-2,1.6237462E-2,-4.7957838E-2,4.415775E-2,5.8280475E-2,1.3569447E-2,-9.77141E-2,-5.245554E-1,1.3283784E0,1.45866675E-2,5.844291E-2,1.9791216E-2,-7.732728E-3,4.701994E-2,-2.7674764E-2,8.303409E-2,8.737997E-2,5.6421507E-2],"categories":[],"categories_nodes":[],"categories_segments":[],"categories_sizes":[],"default_left":[0,0,0,0,0,0,0,0,0,0,0,0,0,0,0,0,0,0,0,0,0,0,0,0,0,0,0,0,0,0,0,0,0,0,0,0,0,0,0,0,0,0,0],"id":22,"left_children":[1,3,5,7,9,11,13,15,17,19,21,23,25,27,29,31,33,-1,-1,-1,-1,-1,-1,35,-1,-1,-1,-1,-1,-1,-1,37,39,41,-1,-1,-1,-1,-1,-1,-1,-1,-1],"loss_changes":[4.0709097E2,4.2234845E2,1.1464539E0,1.13154755E2,6.1328125E-1,1.4416504E-1,7.72653E0,9.601196E1,3.124237E-2,9.420776E-2,3.815216E0,8.947754E-2,1.307292E-1,6.1674557E0,1.1523018E0,7.093535E1,5.3949356E-1,0E0,0E0,0E0,0E0,0E0,0E0,9.359741E-2,0E0,0E0,0E0,0E0,0E0,0E0,0E0,3.4940033E1,7.408386E1,8.325157E-1,0E0,0E0,0E0,0E0,0E0,0E0,0E0,0E0,0E0],"parents":[2147483647,0,0,1,1,2,2,3,3,4,4,5,5,6,6,7,7,8,8,9,9,10,10,11,11,12,12,13,13,14,14,15,15,16,16,23,23,31,31,32,32,33,33],"right_children":[2,4,6,8,10,12,14,16,18,20,22,24,26,28,30,32,34,-1,-1,-1,-1,-1,-1,36,-1,-1,-1,-1,-1,-1,-1,38,40,42,-1,-1,-1,-1,-1,-1,-1,-1,-1],"split_conditions":[1E0,1E0,1E0,1E0,1E2,1E0,1E0,1E0,1E0,1E0,1E0,1E0,1E0,1E0,1E0,1E0,1E0,6.2598564E-2,2.2643242E-2,5.8455575E-2,1.9781379E-2,5.2408326E-2,-1.747634E-2,1E0,1.9791216E-2,4.2788066E-2,1.6237462E-2,-4.7957838E-2,4.415775E-2,5.8280475E-2,1.3569447E-2,1E0,1E0,1E0,1.45866675E-2,5.844291E-2,1.9791216E-2,-7.732728E-3,4.701994E-2,-2.7674764E-2,8.303409E-2,8.737997E-2,5.6421507E-2],"split_indices":[2,4,13,7,698,146,181,22,32,201,376,4,331,166,166,344,146,0,0,0,0,0,0,358,0,0,0,0,0,0,0,371,313,404,0,0,0,0,0,0,0,0,0],"split_type":[0,0,0,0,0,0,0,0,0,0,0,0,0,0,0,0,0,0,0,0,0,0,0,0,0,0,0,0,0,0,0,0,0,0,0,0,0,0,0,0,0,0,0],"sum_hessian":[2.3280405E3,2.0439939E3,2.8404657E2,1.8225118E3,2.2148203E2,2.5492216E2,2.9124392E1,1.7771852E3,4.5326675E1,2.129355E2,8.546512E0,2.4745836E2,7.4638157E0,5.448412E0,2.367598E1,1.74356E3,3.362507E1,4.380342E1,1.5232515E0,2.1148935E2,1.446166E0,6.458542E0,2.0879698E0,2.460119E2,1.4464438E0,4.995896E0,2.4679203E0,3.2397017E0,2.2087102E0,2.137399E1,2.301989E0,5.876352E2,1.1559249E3,3.2458374E1,1.166692E0,2.4456546E2,1.4464438E0,5.5788617E2,2.9749023E1,1.1415536E3,1.4371334E1,7.9822226E0,2.4476152E1],"tree_param":{"num_deleted":"0","num_feature":"702","num_nodes":"43","size_leaf_vector":"1"}},{"base_weights":[6.721878E-3,-1.4364259E-1,1.1127813E0,-2.9552212E-1,1.1379837E0,1.1403661E0,8.4164226E-1,-3.337901E-1,1.2179422E0,1.1451576E0,4.025092E-1,1.1500958E0,7.2310835E-1,-1.8659994E-1,1.077918E0,-3.6496753E-1,1.2762055E0,6.1740007E-2,2.20913E-2,5.7424795E-2,1.9305823E-2,3.1738672E-2,3.1891295E-3,1.1530764E0,1.9315405E-2,4.196837E-2,1.576787E-2,-4.717583E-2,4.3394502E-2,5.7103045E-2,8.321579E-3,-1.1894806E-1,-5.2126354E-1,1.3027202E0,1.4251888E-2,5.780467E-2,1.9315405E-2,-7.692557E-3,1.0310991E-1,-2.9272905E-2,3.4422815E-2,8.37836E-2,5.5698227E-2],"categories":[],"categories_nodes":[],"categories_segments":[],"categories_sizes":[],"default_left":[0,0,0,0,0,0,0,0,0,0,0,0,0,0,0,0,0,0,0,0,0,0,0,0,0,0,0,0,0,0,0,0,0,0,0,0,0,0,0,0,0,0,0],"id":23,"left_children":[1,3,5,7,9,11,13,15,17,19,21,23,25,27,29,31,33,-1,-1,-1,-1,-1,-1,35,-1,-1,-1,-1,-1,-1,-1,37,39,41,-1,-1,-1,-1,-1,-1,-1,-1,-1],"loss_changes":[3.8145233E2,3.9336838E2,1.0932007E0,1.0500557E2,6.689148E-1,1.6833496E-1,7.286581E0,8.892323E1,3.9985657E-2,9.25293E-2,2.4356651E-1,9.8724365E-2,1.2906551E-1,5.8487253E0,1.2050571E0,6.644267E1,5.143242E-1,0E0,0E0,0E0,0E0,0E0,0E0,1.0296631E-1,0E0,0E0,0E0,0E0,0E0,0E0,0E0,5.1568115E1,8.251364E1,4.242096E-1,0E0,0E0,0E0,0E0,0E0,0E0,0E0,0E0,0E0],"parents":[2147483647,0,0,1,1,2,2,3,3,4,4,5,5,6,6,7,7,8,8,9,9,10,10,11,11,12,12,13,13,14,14,15,15,16,16,23,23,31,31,32,32,33,33],"right_children":[2,4,6,8,10,12,14,16,18,20,22,24,26,28,30,32,34,-1,-1,-1,-1,-1,-1,36,-1,-1,-1,-1,-1,-1,-1,38,40,42,-1,-1,-1,-1,-1,-1,-1,-1,-1],"split_conditions":[1E0,1E0,1E0,1E0,1E0,1E0,1E0,1E0,1E0,1E0,1E0,1E0,1E0,1E0,1E0,1E0,1E0,6.1740007E-2,2.20913E-2,5.7424795E-2,1.9305823E-2,3.1738672E-2,3.1891295E-3,1E0,1.9315405E-2,4.196837E-2,1.576787E-2,-4.717583E-2,4.3394502E-2,5.7103045E-2,8.321579E-3,1E0,1E0,1E0,1.4251888E-2,5.780467E-2,1.9315405E-2,-7.692557E-3,1.0310991E-1,-2.9272905E-2,3.4422815E-2,8.37836E-2,5.5698227E-2],"split_indices":[2,4,13,7,149,146,181,22,32,201,181,4,331,166,350,268,146,0,0,0,0,0,0,358,0,0,0,0,0,0,0,233,342,404,0,0,0,0,0,0,0,0,0],"split_type":[0,0,0,0,0,0,0,0,0,0,0,0,0,0,0,0,0,0,0,0,0,0,0,0,0,0,0,0,0,0,0,0,0,0,0,0,0,0,0,0,0,0,0],"sum_hessian":[2.291633E3,2.0181443E3,2.7348874E2,1.8050104E3,2.1313393E2,2.4532437E2,2.8164356E1,1.7612565E3,4.375393E1,2.105234E2,2.6105154E0,2.380179E2,7.3064775E0,5.301808E0,2.2862549E1,1.7285564E3,3.2700058E1,4.2245327E1,1.5086021E0,2.0909073E2,1.4326785E0,1.0301466E0,1.5803689E0,2.3658495E2,1.4329515E0,4.861752E0,2.4447255E0,3.1476517E0,2.1541562E0,2.1123114E1,1.7394353E0,6.72213E2,1.0563434E3,3.1541956E1,1.1581028E0,2.35152E2,1.4329515E0,6.6254034E2,9.672622E0,1.0036026E3,5.2740784E1,7.9521894E0,2.3589767E1],"tree_param":{"num_deleted":"0","num_feature":"702","num_nodes":"43","size_leaf_vector":"1"}},{"base_weights":[6.9513135E-3,-1.3783963E-1,1.1002427E0,-2.831546E-1,1.125284E0,1.1278201E0,8.2957095E-1,-3.196967E-1,1.2014769E0,1.1408118E0,6.618135E-1,1.1378316E0,7.072885E-1,-1.8218E-1,1.0638566E0,-3.4953174E-1,1.2522346E0,6.0936846E-2,2.1554438E-2,5.722058E-2,1.8842582E-2,5.094086E-2,-1.8590307E-2,1.1409096E0,1.8851915E-2,3.8446702E-2,8.148354E-3,-4.6420444E-2,4.2656507E-2,5.7026055E-2,1.1782419E-2,-3.679534E-1,8.061678E-2,1.2788304E0,1.3925013E-2,5.7201304E-2,1.8851915E-2,-5.649384E-3,-2.6710285E-2,8.0583006E-2,5.5007167E-2],"categories":[],"categories_nodes":[],"categories_segments":[],"categories_sizes":[],"default_left":[0,0,0,0,0,0,0,0,0,0,0,0,0,0,0,0,0,0,0,0,0,0,0,0,0,0,0,0,0,0,0,0,0,0,0,0,0,0,0,0,0],"id":24,"left_children":[1,3,5,7,9,11,13,15,17,19,21,23,25,27,29,31,33,-1,-1,-1,-1,-1,-1,35,-1,-1,-1,-1,-1,-1,-1,37,-1,39,-1,-1,-1,-1,-1,-1,-1],"loss_changes":[3.5761334E2,3.6649338E2,1.036499E0,9.749007E1,7.2772217E-1,1.9293213E-1,6.8807316E0,8.240306E1,4.9144745E-2,1.1315918E-1,3.7221994E0,1.08062744E-1,1.4827633E-1,5.5496006E0,1.1949215E0,6.260887E1,4.9254227E-1,0E0,0E0,0E0,0E0,0E0,0E0,1.1242676E-1,0E0,0E0,0E0,0E0,0E0,0E0,0E0,7.203395E1,0E0,1.0757828E-1,0E0,0E0,0E0,0E0,0E0,0E0,0E0],"parents":[2147483647,0,0,1,1,2,2,3,3,4,4,5,5,6,6,7,7,8,8,9,9,10,10,11,11,12,12,13,13,14,14,15,15,16,16,23,23,31,31,33,33],"right_children":[2,4,6,8,10,12,14,16,18,20,22,24,26,28,30,32,34,-1,-1,-1,-1,-1,-1,36,-1,-1,-1,-1,-1,-1,-1,38,-1,40,-1,-1,-1,-1,-1,-1,-1],"split_conditions":[1E0,1E0,1E0,1E0,1E2,1E0,1E0,1E0,1E0,1E0,1E0,1E0,1E0,1E0,1E0,1E0,1E0,6.0936846E-2,2.1554438E-2,5.722058E-2,1.8842582E-2,5.094086E-2,-1.8590307E-2,1E0,1.8851915E-2,3.8446702E-2,8.148354E-3,-4.6420444E-2,4.2656507E-2,5.7026055E-2,1.1782419E-2,1E0,8.061678E-2,1E0,1.3925013E-2,5.7201304E-2,1.8851915E-2,-5.649384E-3,-2.6710285E-2,8.0583006E-2,5.5007167E-2],"split_indices":[2,4,13,7,698,146,181,22,32,201,376,4,241,166,166,5,146,0,0,0,0,0,0,358,0,0,0,0,0,0,0,268,0,404,0,0,0,0,0,0,0],"split_type":[0,0,0,0,0,0,0,0,0,0,0,0,0,0,0,0,0,0,0,0,0,0,0,0,0,0,0,0,0,0,0,0,0,0,0,0,0,0,0,0,0],"sum_hessian":[2.2571467E3,1.9939503E3,2.6319653E2,1.7889213E3,2.050291E2,2.3598628E2,2.7210236E1,1.746713E3,4.220818E1,1.9696855E2,8.060551E0,2.2883287E2,7.1534157E0,5.1580133E0,2.2052223E1,1.7149413E3,3.177171E1,4.0714035E1,1.4941459E0,1.9554912E2,1.4194295E0,6.0018744E0,2.0586767E0,2.2741318E2,1.4196976E0,6.055025E0,1.0983905E0,3.057494E0,2.1005194E0,1.9838722E1,2.2135E0,1.699793E3,1.51483755E1,3.0621996E1,1.1497138E0,2.2599347E2,1.4196976E0,6.715612E2,1.0282317E3,7.8957024E0,2.2726294E1],"tree_param":{"num_deleted":"0","num_feature":"702","num_nodes":"41","size_leaf_vector":"1"}},{"base_weights":[7.1601663E-3,-1.3223438E-1,1.0882008E0,-2.7124184E-1,1.113286E0,1.1158453E0,8.1754166E-1,-3.0612928E-1,1.185973E0,1.1291982E0,6.4646524E-1,1.1261857E0,6.9089043E-1,-1.7790073E-1,1.0496697E0,-3.346722E-1,1.2297785E0,6.018391E-2,2.1032063E-2,5.6646027E-2,1.839125E-2,5.0282788E-2,-1.786328E-2,1.129368E0,1.840034E-2,4.0554E-2,1.425453E-2,-4.5689497E-2,4.194193E-2,5.593455E-2,6.7187073E-3,-7.996145E-2,-4.6795565E-1,6.282605E-2,1.3605823E-2,5.6629557E-2,1.840034E-2,-6.723827E-3,4.6324685E-2,-2.483972E-2,7.8010775E-2],"categories":[],"categories_nodes":[],"categories_segments":[],"categories_sizes":[],"default_left":[0,0,0,0,0,0,0,0,0,0,0,0,0,0,0,0,0,0,0,0,0,0,0,0,0,0,0,0,0,0,0,0,0,0,0,0,0,0,0,0,0],"id":25,"left_children":[1,3,5,7,9,11,13,15,17,19,21,23,25,27,29,31,33,-1,-1,-1,-1,-1,-1,35,-1,-1,-1,-1,-1,-1,-1,37,39,-1,-1,-1,-1,-1,-1,-1,-1],"loss_changes":[3.353909E2,3.41644E2,9.898071E-1,9.0569916E1,7.4180603E-1,2.2341919E-1,6.4947147E0,7.641528E1,5.8631897E-2,1.2251282E-1,3.557319E0,1.17370605E-1,1.5900779E-1,5.268632E0,1.2573261E0,5.7771942E1,4.73629E-1,0E0,0E0,0E0,0E0,0E0,0E0,1.2188721E-1,0E0,0E0,0E0,0E0,0E0,0E0,0E0,3.228573E1,6.6147964E1,0E0,0E0,0E0,0E0,0E0,0E0,0E0,0E0],"parents":[2147483647,0,0,1,1,2,2,3,3,4,4,5,5,6,6,7,7,8,8,9,9,10,10,11,11,12,12,13,13,14,14,15,15,16,16,23,23,31,31,32,32],"right_children":[2,4,6,8,10,12,14,16,18,20,22,24,26,28,30,32,34,-1,-1,-1,-1,-1,-1,36,-1,-1,-1,-1,-1,-1,-1,38,40,-1,-1,-1,-1,-1,-1,-1,-1],"split_conditions":[1E0,1E0,1E0,1E0,1E2,1E0,1E0,1E0,1E0,1E0,1E0,1E0,1E0,1E0,1E0,1E0,1E0,6.018391E-2,2.1032063E-2,5.6646027E-2,1.839125E-2,5.0282788E-2,-1.786328E-2,1E0,1.840034E-2,4.0554E-2,1.425453E-2,-4.5689497E-2,4.194193E-2,5.593455E-2,6.7187073E-3,1E0,1E0,6.282605E-2,1.3605823E-2,5.6629557E-2,1.840034E-2,-6.723827E-3,4.6324685E-2,-2.483972E-2,7.8010775E-2],"split_indices":[2,4,13,7,698,146,181,22,32,201,376,4,331,166,350,344,146,0,0,0,0,0,0,358,0,0,0,0,0,0,0,371,5,0,0,0,0,0,0,0,0],"split_type":[0,0,0,0,0,0,0,0,0,0,0,0,0,0,0,0,0,0,0,0,0,0,0,0,0,0,0,0,0,0,0,0,0,0,0,0,0,0,0,0,0],"sum_hessian":[2.2237288E3,1.9705184E3,2.532104E2,1.7733809E3,1.971376E2,2.2691142E2,2.6298979E1,1.7326882E3,4.0692673E1,1.8926726E2,7.8703494E0,2.1991028E2,7.0011454E0,5.0171943E0,2.1281784E1,1.7018436E3,3.0844543E1,3.9212776E1,1.4798942E0,1.8786082E2,1.4064236E0,5.7947493E0,2.0756001E0,2.1850359E2,1.4066863E0,4.630861E0,2.3702846E0,2.9693274E0,2.0478668E0,1.958285E1,1.6989348E0,5.8516547E2,1.1166782E3,2.9703022E1,1.1415204E0,2.170969E2,1.4066863E0,5.5592017E2,2.9245275E1,1.1017671E3,1.4911059E1],"tree_param":{"num_deleted":"0","num_feature":"702","num_nodes":"41","size_leaf_vector":"1"}},{"base_weights":[7.362846E-3,-1.2690397E-1,1.0767593E0,-2.599668E-1,1.1018356E0,1.1044334E0,8.062444E-1,-2.933E-1,1.1713401E0,1.1098385E0,1.7351003E-2,1.1150994E0,6.757158E-1,-1.7375232E-1,1.0365633E0,-3.2056946E-1,1.2107636E0,5.9476625E-2,2.0523658E-2,5.567607E-2,1.795144E-2,1.1183928E0,1.79603E-2,3.693312E-2,7.1015568E-3,-4.4981036E-2,4.124918E-2,5.5371083E-2,6.5196687E-3,-3.3795255E-1,1.6262381E0,6.1894417E-2,1.3294137E-2,5.6086507E-2,1.79603E-2,-5.0398055E-3,-2.4775138E-2,1.02641754E-1,5.465979E-2],"categories":[],"categories_nodes":[],"categories_segments":[],"categories_sizes":[],"default_left":[0,0,0,0,0,0,0,0,0,0,0,0,0,0,0,0,0,0,0,0,0,0,0,0,0,0,0,0,0,0,0,0,0,0,0,0,0,0,0],"id":26,"left_children":[1,3,5,7,9,11,13,15,17,19,-1,21,23,25,27,29,31,-1,-1,-1,-1,33,-1,-1,-1,-1,-1,-1,-1,35,37,-1,-1,-1,-1,-1,-1,-1,-1],"loss_changes":[3.147296E2,3.187E2,9.4003296E-1,8.4218185E1,7.655029E-1,2.484436E-1,6.137966E0,7.088457E1,6.83136E-2,1.2011719E-1,0E0,1.2667847E-1,1.5902662E-1,5.0045094E0,1.2371597E0,5.770729E1,4.6069336E-1,0E0,0E0,0E0,0E0,1.3131714E-1,0E0,0E0,0E0,0E0,0E0,0E0,0E0,6.2529617E1,1.1939468E0,0E0,0E0,0E0,0E0,0E0,0E0,0E0,0E0],"parents":[2147483647,0,0,1,1,2,2,3,3,4,4,5,5,6,6,7,7,8,8,9,9,11,11,12,12,13,13,14,14,15,15,16,16,21,21,29,29,30,30],"right_children":[2,4,6,8,10,12,14,16,18,20,-1,22,24,26,28,30,32,-1,-1,-1,-1,34,-1,-1,-1,-1,-1,-1,-1,36,38,-1,-1,-1,-1,-1,-1,-1,-1],"split_conditions":[1E0,1E0,1E0,1E0,1E0,1E0,1E0,1E0,1E0,1E0,1.7351003E-2,1E0,1E0,1E0,1E0,1E0,1E0,5.9476625E-2,2.0523658E-2,5.567607E-2,1.795144E-2,1E0,1.79603E-2,3.693312E-2,7.1015568E-3,-4.4981036E-2,4.124918E-2,5.5371083E-2,6.5196687E-3,1E0,1E0,6.1894417E-2,1.3294137E-2,5.6086507E-2,1.79603E-2,-5.0398055E-3,-2.4775138E-2,1.02641754E-1,5.465979E-2],"split_indices":[2,4,13,7,149,146,181,22,32,201,0,4,241,166,350,313,146,0,0,0,0,358,0,0,0,0,0,0,0,268,29,0,0,0,0,0,0,0,0],"split_type":[0,0,0,0,0,0,0,0,0,0,0,0,0,0,0,0,0,0,0,0,0,0,0,0,0,0,0,0,0,0,0,0,0,0,0,0,0,0,0],"sum_hessian":[2.1899963E3,1.9464886E3,2.4350775E2,1.757007E3,1.8948161E2,2.1811188E2,2.5395872E1,1.7177969E3,3.9210102E1,1.8702832E2,2.45329E0,2.1125504E2,6.8568406E0,4.8794847E0,2.0516388E1,1.6879799E3,2.981708E1,3.7744244E1,1.4658574E0,1.8563466E2,1.3936628E0,2.0986111E2,1.3939207E0,5.7898626E0,1.0669781E0,2.8832304E0,1.9962542E0,1.8822466E1,1.6939213E0,1.6738602E3,1.4119538E1,2.868356E1,1.1335194E0,2.084672E2,1.3939207E0,6.687888E2,1.0050715E3,6.2591424E0,7.860396E0],"tree_param":{"num_deleted":"0","num_feature":"702","num_nodes":"39","size_leaf_vector":"1"}},{"base_weights":[7.5433636E-3,-1.2168051E-1,1.0657648E0,-2.4893624E-1,1.0906851E0,1.0934805E0,7.952927E-1,-2.8075597E-1,1.1574963E0,1.1078296E0,6.035463E-1,1.1045198E0,6.599278E-1,-1.6972622E-1,1.0238799E0,-3.0678478E-1,1.19257E0,5.8810897E-2,2.0028703E-2,5.5591043E-2,1.7522793E-2,4.8952136E-2,-1.9024879E-2,1.1079314E0,1.7531438E-2,3.9202865E-2,1.2819621E-2,-4.42933E-2,4.0576775E-2,5.5414535E-2,8.730264E-3,-3.1779253E-1,1.2775227E-1,6.100588E-2,1.2989769E-2,5.5569496E-2,1.7531438E-2,-3.5490764E-3,-2.2505272E-2],"categories":[],"categories_nodes":[],"categories_segments":[],"categories_sizes":[],"default_left":[0,0,0,0,0,0,0,0,0,0,0,0,0,0,0,0,0,0,0,0,0,0,0,0,0,0,0,0,0,0,0,0,0,0,0,0,0,0,0],"id":27,"left_children":[1,3,5,7,9,11,13,15,17,19,21,23,25,27,29,31,33,-1,-1,-1,-1,-1,-1,35,-1,-1,-1,-1,-1,-1,-1,37,-1,-1,-1,-1,-1,-1,-1],"loss_changes":[2.9542633E2,2.973119E2,8.9279175E-1,7.833932E1,8.604126E-1,2.7896118E-1,5.803091E0,6.5769424E1,7.8128815E-2,1.4134216E-1,3.4841766E0,1.3586426E-1,1.8533301E-1,4.7560306E0,1.2957458E0,5.3631027E1,4.4905853E-1,0E0,0E0,0E0,0E0,0E0,0E0,1.40625E-1,0E0,0E0,0E0,0E0,0E0,0E0,0E0,5.4541214E1,0E0,0E0,0E0,0E0,0E0,0E0,0E0],"parents":[2147483647,0,0,1,1,2,2,3,3,4,4,5,5,6,6,7,7,8,8,9,9,10,10,11,11,12,12,13,13,14,14,15,15,16,16,23,23,31,31],"right_children":[2,4,6,8,10,12,14,16,18,20,22,24,26,28,30,32,34,-1,-1,-1,-1,-1,-1,36,-1,-1,-1,-1,-1,-1,-1,38,-1,-1,-1,-1,-1,-1,-1],"split_conditions":[1E0,1E0,1E0,1E0,1E2,1E0,1E0,1E0,1E0,1E0,1E0,1E0,1E0,1E0,1E0,1E0,1E0,5.8810897E-2,2.0028703E-2,5.5591043E-2,1.7522793E-2,4.8952136E-2,-1.9024879E-2,1E0,1.7531438E-2,3.9202865E-2,1.2819621E-2,-4.42933E-2,4.0576775E-2,5.5414535E-2,8.730264E-3,1E0,1.2775227E-1,6.100588E-2,1.2989769E-2,5.5569496E-2,1.7531438E-2,-3.5490764E-3,-2.2505272E-2],"split_indices":[2,4,13,7,698,146,181,22,32,201,376,4,331,166,166,229,146,0,0,0,0,0,0,358,0,0,0,0,0,0,0,344,0,0,0,0,0,0,0],"split_type":[0,0,0,0,0,0,0,0,0,0,0,0,0,0,0,0,0,0,0,0,0,0,0,0,0,0,0,0,0,0,0,0,0,0,0,0,0,0,0],"sum_hessian":[2.1584302E3,1.9243275E3,2.3410274E2,1.7422476E3,1.8208E2,2.095835E2,2.4519228E1,1.7044849E3,3.776261E1,1.7465886E2,7.4211416E0,2.028703E2,6.713204E0,4.7449856E0,1.9774242E1,1.675673E3,2.8811867E1,3.631057E1,1.4520438E0,1.7327771E2,1.3811498E0,5.375148E0,2.0459933E0,2.0148889E2,1.3814029E0,4.412826E0,2.3003778E0,2.7992601E0,1.9457254E0,1.7709122E1,2.065122E0,1.670138E3,5.535064E0,2.7686161E1,1.1257071E0,2.001075E2,1.3814029E0,5.8340845E2,1.0867295E3],"tree_param":{"num_deleted":"0","num_feature":"702","num_nodes":"39","size_leaf_vector":"1"}},{"base_weights":[7.7088075E-3,-1.166041E-1,1.0551515E0,-2.382501E-1,1.0801556E0,1.0829895E0,7.842353E-1,-2.6860946E-1,1.1443686E0,1.0977556E0,5.894531E-1,1.0943981E0,6.453387E-1,-1.6581555E-1,1.0108773E0,-2.9344106E-1,1.1751225E0,5.8183044E-2,1.9546727E-2,5.50947E-2,1.7104952E-2,4.8352286E-2,-1.8279204E-2,1.0979348E0,1.7113386E-2,3.8460862E-2,1.2443123E-2,-4.362471E-2,3.9923366E-2,5.4360997E-2,5.029347E-3,-3.1083724E-1,7.706452E-2,6.015661E-2,1.2692529E-2,5.507609E-2,1.7113386E-2,-1.6403286E-2,7.926843E-2],"categories":[],"categories_nodes":[],"categories_segments":[],"categories_sizes":[],"default_left":[0,0,0,0,0,0,0,0,0,0,0,0,0,0,0,0,0,0,0,0,0,0,0,0,0,0,0,0,0,0,0,0,0,0,0,0,0,0,0],"id":28,"left_children":[1,3,5,7,9,11,13,15,17,19,21,23,25,27,29,31,33,-1,-1,-1,-1,-1,-1,35,-1,-1,-1,-1,-1,-1,-1,37,-1,-1,-1,-1,-1,-1,-1],"loss_changes":[2.7740643E2,2.7751328E2,8.5528564E-1,7.290712E1,8.7205505E-1,3.039856E-1,5.482972E0,6.1047127E1,8.8012695E-2,1.505127E-1,3.328701E0,1.449585E-1,1.8074179E-1,4.522097E0,1.2855186E0,5.3634064E1,4.3853378E-1,0E0,0E0,0E0,0E0,0E0,0E0,1.4987183E-1,0E0,0E0,0E0,0E0,0E0,0E0,0E0,5.4442566E1,0E0,0E0,0E0,0E0,0E0,0E0,0E0],"parents":[2147483647,0,0,1,1,2,2,3,3,4,4,5,5,6,6,7,7,8,8,9,9,10,10,11,11,12,12,13,13,14,14,15,15,16,16,23,23,31,31],"right_children":[2,4,6,8,10,12,14,16,18,20,22,24,26,28,30,32,34,-1,-1,-1,-1,-1,-1,36,-1,-1,-1,-1,-1,-1,-1,38,-1,-1,-1,-1,-1,-1,-1],"split_conditions":[1E0,1E0,1E0,1E0,1E2,1E0,1E0,1E0,1E0,1E0,1E0,1E0,1E0,1E0,1E0,1E0,1E0,5.8183044E-2,1.9546727E-2,5.50947E-2,1.7104952E-2,4.8352286E-2,-1.8279204E-2,1E0,1.7113386E-2,3.8460862E-2,1.2443123E-2,-4.362471E-2,3.9923366E-2,5.4360997E-2,5.029347E-3,1E0,7.706452E-2,6.015661E-2,1.2692529E-2,5.507609E-2,1.7113386E-2,-1.6403286E-2,7.926843E-2],"split_indices":[2,4,13,7,698,146,181,22,32,201,376,4,331,166,350,5,146,0,0,0,0,0,0,358,0,0,0,0,0,0,0,313,0,0,0,0,0,0,0],"split_type":[0,0,0,0,0,0,0,0,0,0,0,0,0,0,0,0,0,0,0,0,0,0,0,0,0,0,0,0,0,0,0,0,0,0,0,0,0,0,0],"sum_hessian":[2.1284988E3,1.9034784E3,2.2502052E2,1.7285762E3,1.7490218E2,2.0133485E2,2.3685677E1,1.6922242E3,3.6351933E1,1.6765193E2,7.2502522E0,1.947573E2,6.577566E0,4.613773E0,1.9071903E1,1.6643942E3,2.7830114E1,3.491347E1,1.4384601E0,1.6628304E2,1.3688858E0,5.186926E0,2.0633264E0,1.9338815E2,1.3691338E0,4.295354E0,2.282212E0,2.7174597E0,1.896313E0,1.741685E1,1.6550545E0,1.649584E3,1.4810125E1,2.6712034E1,1.1180797E0,1.9201901E2,1.3691338E0,1.6355508E3,1.4033222E1],"tree_param":{"num_deleted":"0","num_feature":"702","num_nodes":"39","size_leaf_vector":"1"}},{"base_weights":[7.912227E-3,-1.1161133E-1,1.0449784E0,-2.2783497E-1,1.0700271E0,1.0728903E0,7.738355E-1,-2.5678682E-1,1.1318904E0,1.088103E0,5.757391E-1,1.0846891E0,6.3103926E-1,-1.6201235E-1,9.988627E-1,-2.8046438E-1,1.1583536E0,5.758974E-2,1.9077288E-2,5.4619867E-2,1.6697599E-2,4.7767576E-2,-1.7566433E-2,1.0883582E0,1.6705817E-2,3.486206E-2,5.3107766E-3,-4.2973857E-2,3.9287824E-2,5.443253E-2,7.1514593E-3,-2.966564E-1,1.5464697E0,5.9343155E-2,1.2402239E-2,5.4604053E-2,1.6705817E-2,-3.7540977E-3,-2.2383045E-2,9.4117455E-2,5.3130474E-2],"categories":[],"categories_nodes":[],"categories_segments":[],"categories_sizes":[],"default_left":[0,0,0,0,0,0,0,0,0,0,0,0,0,0,0,0,0,0,0,0,0,0,0,0,0,0,0,0,0,0,0,0,0,0,0,0,0,0,0,0,0],"id":29,"left_children":[1,3,5,7,9,11,13,15,17,19,21,23,25,27,29,31,33,-1,-1,-1,-1,-1,-1,35,-1,-1,-1,-1,-1,-1,-1,37,39,-1,-1,-1,-1,-1,-1,-1,-1],"loss_changes":[2.605522E2,2.5909772E2,8.1373596E-1,6.787839E1,8.831787E-1,3.2881165E-1,5.18694E0,5.668049E1,9.790039E-2,1.5945435E-1,3.1808286E0,1.5386963E-1,1.8465352E-1,4.3017144E0,1.3332119E0,4.941742E1,4.2897034E-1,0E0,0E0,0E0,0E0,0E0,0E0,1.5892029E-1,0E0,0E0,0E0,0E0,0E0,0E0,0E0,5.488318E1,3.889084E-1,0E0,0E0,0E0,0E0,0E0,0E0,0E0,0E0],"parents":[2147483647,0,0,1,1,2,2,3,3,4,4,5,5,6,6,7,7,8,8,9,9,10,10,11,11,12,12,13,13,14,14,15,15,16,16,23,23,31,31,32,32],"right_children":[2,4,6,8,10,12,14,16,18,20,22,24,26,28,30,32,34,-1,-1,-1,-1,-1,-1,36,-1,-1,-1,-1,-1,-1,-1,38,40,-1,-1,-1,-1,-1,-1,-1,-1],"split_conditions":[1E0,1E0,1E0,1E0,1E2,1E0,1E0,1E0,1E0,1E0,1E0,1E0,1E0,1E0,1E0,1E0,1E0,5.758974E-2,1.9077288E-2,5.4619867E-2,1.6697599E-2,4.7767576E-2,-1.7566433E-2,1E0,1.6705817E-2,3.486206E-2,5.3107766E-3,-4.2973857E-2,3.9287824E-2,5.443253E-2,7.1514593E-3,1E0,1E0,5.9343155E-2,1.2402239E-2,5.4604053E-2,1.6705817E-2,-3.7540977E-3,-2.2383045E-2,9.4117455E-2,5.3130474E-2],"split_indices":[2,4,13,7,698,146,181,22,32,201,376,4,241,166,166,313,146,0,0,0,0,0,0,358,0,0,0,0,0,0,0,268,29,0,0,0,0,0,0,0,0],"split_type":[0,0,0,0,0,0,0,0,0,0,0,0,0,0,0,0,0,0,0,0,0,0,0,0,0,0,0,0,0,0,0,0,0,0,0,0,0,0,0,0,0],"sum_hessian":[2.1000688E3,1.8838451E3,2.1622382E2,1.7158815E3,1.6796355E2,1.933619E2,2.2861933E1,1.6809022E3,3.497934E1,1.6087894E2,7.084605E0,1.8691576E2,6.4461317E0,4.485901E0,1.8376032E1,1.6540294E3,2.6872738E1,3.3554226E1,1.4251125E0,1.5952206E2,1.356871E0,5.004763E0,2.0798419E0,1.8555864E2,1.3571138E0,5.4323616E0,1.0137701E0,2.6378558E0,1.8480453E0,1.6384998E1,1.991033E0,1.6403289E3,1.3700518E1,2.5762104E1,1.1106328E0,1.8420154E2,1.3571138E0,6.6542444E2,9.749045E2,6.3808646E0,7.3196535E0],"tree_param":{"num_deleted":"0","num_feature":"702","num_nodes":"41","size_leaf_vector":"1"}},{"base_weights":[8.064016E-3,-1.0691035E-1,1.0350531E0,-2.1803392E-1,1.0602589E0,1.063113E0,7.632786E-1,-2.4566726E-1,1.120002E0,1.0696294E0,1.3481202E-2,1.0753528E0,6.16025E-1,-1.5831141E-1,9.864591E-1,-2.6826438E-1,1.1422025E0,5.7028003E-2,1.8619964E-2,5.369392E-2,1.6300408E-2,1.0791614E0,1.6308418E-2,3.7191417E-2,1.1110418E-2,-4.2339474E-2,3.8669016E-2,5.343402E-2,3.6182862E-3,-2.85135E-1,7.544174E-2,5.8562424E-2,1.2118745E-2,5.4151386E-2,1.6308418E-2,-3.5691967E-3,-2.1623965E-2],"categories":[],"categories_nodes":[],"categories_segments":[],"categories_sizes":[],"default_left":[0,0,0,0,0,0,0,0,0,0,0,0,0,0,0,0,0,0,0,0,0,0,0,0,0,0,0,0,0,0,0,0,0,0,0,0,0],"id":30,"left_children":[1,3,5,7,9,11,13,15,17,19,-1,21,23,25,27,29,31,-1,-1,-1,-1,33,-1,-1,-1,-1,-1,-1,-1,35,-1,-1,-1,-1,-1,-1,-1],"loss_changes":[2.4480789E2,2.4207059E2,7.803955E-1,6.325522E1,9.1374207E-1,3.5897827E-1,4.9033823E0,5.2671234E1,1.07738495E-1,1.555481E-1,0E0,1.6261292E-1,2.0289087E-1,4.0939565E0,1.3295517E0,4.971125E1,4.202423E-1,0E0,0E0,0E0,0E0,1.678772E-1,0E0,0E0,0E0,0E0,0E0,0E0,0E0,5.127887E1,0E0,0E0,0E0,0E0,0E0,0E0,0E0],"parents":[2147483647,0,0,1,1,2,2,3,3,4,4,5,5,6,6,7,7,8,8,9,9,11,11,12,12,13,13,14,14,15,15,16,16,21,21,29,29],"right_children":[2,4,6,8,10,12,14,16,18,20,-1,22,24,26,28,30,32,-1,-1,-1,-1,34,-1,-1,-1,-1,-1,-1,-1,36,-1,-1,-1,-1,-1,-1,-1],"split_conditions":[1E0,1E0,1E0,1E0,1E0,1E0,1E0,1E0,1E0,1E0,1.3481202E-2,1E0,1E0,1E0,1E0,1E0,1E0,5.7028003E-2,1.8619964E-2,5.369392E-2,1.6300408E-2,1E0,1.6308418E-2,3.7191417E-2,1.1110418E-2,-4.2339474E-2,3.8669016E-2,5.343402E-2,3.6182862E-3,1E0,7.544174E-2,5.8562424E-2,1.2118745E-2,5.4151386E-2,1.6308418E-2,-3.5691967E-3,-2.1623965E-2],"split_indices":[2,4,13,7,149,146,181,22,32,201,0,4,331,166,350,5,146,0,0,0,0,358,0,0,0,0,0,0,0,268,0,0,0,0,0,0,0],"split_type":[0,0,0,0,0,0,0,0,0,0,0,0,0,0,0,0,0,0,0,0,0,0,0,0,0,0,0,0,0,0,0,0,0,0,0,0,0],"sum_hessian":[2.0713457E3,1.8636056E3,2.0774005E2,1.7023425E3,1.6126303E2,1.8565956E2,2.2080488E1,1.6686968E3,3.3645805E1,1.590254E2,2.2376277E0,1.793445E2,6.3150706E0,4.3614E0,1.7719088E1,1.6427563E3,2.5940458E1,3.22338E1,1.4120052E0,1.576803E2,1.3451053E0,1.7799915E2,1.3453429E0,4.096791E0,2.2182796E0,2.5604618E0,1.8009385E0,1.6101654E1,1.6174345E0,1.6281394E3,1.4616927E1,2.4837093E1,1.1033635E0,1.7665381E2,1.3453429E0,6.64965E2,9.631743E2],"tree_param":{"num_deleted":"0","num_feature":"702","num_nodes":"37","size_leaf_vector":"1"}},{"base_weights":[8.166774E-3,-1.0242099E-1,1.0255178E0,-2.0865586E-1,1.0505563E0,1.0536777E0,7.5331575E-1,-2.3503198E-1,1.108649E0,1.0701061E0,5.346357E-1,1.0663509E0,6.022464E-1,-1.5470694E-1,9.7496325E-1,-2.4878773E-1,1.910763E0,5.649511E-2,1.8174363E-2,1.0747367E0,1.5913082E-2,4.6561517E-2,-1.8641455E-2,1.0703065E0,1.5920898E-2,3.6485728E-2,1.07811615E-2,-4.1720416E-2,3.8065996E-2,5.3528477E-2,5.646157E-3,-2.6242998E-1,9.427529E-2,1.11681044E-1,1.4665094E-2,5.4651167E-2,7.5569123E-1,5.3716194E-2,1.5920898E-2,-1.3660619E-2,1.20487645E-1,1.3730754E-2,4.371765E-2],"categories":[],"categories_nodes":[],"categories_segments":[],"categories_sizes":[],"default_left":[0,0,0,0,0,0,0,0,0,0,0,0,0,0,0,0,0,0,0,0,0,0,0,0,0,0,0,0,0,0,0,0,0,0,0,0,0,0,0,0,0,0,0],"id":31,"left_children":[1,3,5,7,9,11,13,15,17,19,21,23,25,27,29,31,33,-1,-1,35,-1,-1,-1,37,-1,-1,-1,-1,-1,-1,-1,39,-1,-1,-1,-1,41,-1,-1,-1,-1,-1,-1],"loss_changes":[2.3012502E2,2.2620174E2,7.4342346E-1,5.8985214E1,9.994812E-1,3.832245E-1,4.640854E0,4.9408432E1,1.1748886E-1,1.7715454E-1,3.1138086E0,1.7114258E-1,1.9709301E-1,3.8979838E0,1.3683033E0,4.8482246E1,4.919407E0,0E0,0E0,3.630066E-2,0E0,0E0,0E0,1.765747E-1,0E0,0E0,0E0,0E0,0E0,0E0,0E0,4.786847E1,0E0,0E0,0E0,0E0,4.022255E-1,0E0,0E0,0E0,0E0,0E0,0E0],"parents":[2147483647,0,0,1,1,2,2,3,3,4,4,5,5,6,6,7,7,8,8,9,9,10,10,11,11,12,12,13,13,14,14,15,15,16,16,19,19,23,23,31,31,36,36],"right_children":[2,4,6,8,10,12,14,16,18,20,22,24,26,28,30,32,34,-1,-1,36,-1,-1,-1,38,-1,-1,-1,-1,-1,-1,-1,40,-1,-1,-1,-1,42,-1,-1,-1,-1,-1,-1],"split_conditions":[1E0,1E0,1E0,1E0,1E2,1E0,1E0,1E0,1E0,1E0,1E0,1E0,1E0,1E0,1E0,1E0,1E0,5.649511E-2,1.8174363E-2,1E0,1.5913082E-2,4.6561517E-2,-1.8641455E-2,1E0,1.5920898E-2,3.6485728E-2,1.07811615E-2,-4.1720416E-2,3.8065996E-2,5.3528477E-2,5.646157E-3,1E0,9.427529E-2,1.11681044E-1,1.4665094E-2,5.4651167E-2,1E0,5.3716194E-2,1.5920898E-2,-1.3660619E-2,1.20487645E-1,1.3730754E-2,4.371765E-2],"split_indices":[2,4,13,7,698,146,181,12,32,201,376,4,331,166,166,571,238,0,0,32,0,0,0,358,0,0,0,0,0,0,0,229,0,0,0,0,404,0,0,0,0,0,0],"split_type":[0,0,0,0,0,0,0,0,0,0,0,0,0,0,0,0,0,0,0,0,0,0,0,0,0,0,0,0,0,0,0,0,0,0,0,0,0,0,0,0,0,0,0],"sum_hessian":[2.0435024E3,1.8439602E3,1.9954224E2,1.6891423E3,1.5481789E2,1.782328E2,2.130944E1,1.6567904E3,3.2351974E1,1.481306E2,6.687279E0,1.7204082E2,6.191981E0,4.2402864E0,1.7069153E1,1.6471155E3,9.674882E0,3.0952835E1,1.3991417E0,1.4679701E2,1.3335876E0,4.6352987E0,2.0519803E0,1.70707E2,1.3338206E0,3.9893136E0,2.202667E0,2.4852822E0,1.7550043E0,1.5147308E1,1.9218454E0,1.6375255E3,9.589898E0,7.747481E0,1.9274008E0,1.3654478E2,1.025222E1,1.6937318E2,1.3338206E0,1.6318387E3,5.6868E0,2.6842103E0,7.56801E0],"tree_param":{"num_deleted":"0","num_feature":"702","num_nodes":"43","size_leaf_vector":"1"}},{"base_weights":[8.381475E-3,-9.772267E-2,1.0161861E0,-1.99047E-1,1.0414493E0,1.044521E0,7.4315387E-1,-2.2415073E-1,1.0977814E0,1.0615442E0,5.220142E-1,1.0576489E0,5.8872974E-1,-1.5119421E-1,9.630205E-1,-2.4586977E-1,1.1297114E0,5.5988587E-2,1.7740091E-2,1.0663558E0,1.553534E-2,-2.76307E-2,8.341396E-1,1.0617586E0,1.5542953E-2,3.5791893E-2,1.0461101E-2,-4.1115668E-2,3.747787E-2,5.2575685E-2,2.2823382E-3,-2.617456E-1,1.5182807E0,5.794996E-2,1.2153989E-2,5.4261535E-2,7.4230295E-1,1.4051321E-2,4.726404E-2,5.3296752E-2,1.5542953E-2,-1.5135776E-3,-1.9589944E-2,9.1258235E-2,5.2893657E-2,1.3337284E-2,4.3106895E-2],"categories":[],"categories_nodes":[],"categories_segments":[],"categories_sizes":[],"default_left":[0,0,0,0,0,0,0,0,0,0,0,0,0,0,0,0,0,0,0,0,0,0,0,0,0,0,0,0,0,0,0,0,0,0,0,0,0,0,0,0,0,0,0,0,0,0,0],"id":32,"left_children":[1,3,5,7,9,11,13,15,17,19,21,23,25,27,29,31,33,-1,-1,35,-1,-1,37,39,-1,-1,-1,-1,-1,-1,-1,41,43,-1,-1,-1,45,-1,-1,-1,-1,-1,-1,-1,-1,-1,-1],"loss_changes":[2.162746E2,2.1143147E2,7.1417236E-1,5.4981987E1,1.0077057E0,4.069519E-1,4.388934E0,4.880195E1,1.2713242E-1,1.8563843E-1,2.990215E0,1.7945862E-1,1.9141746E-1,3.7130167E0,1.3691769E0,4.5909134E1,3.9950943E-1,0E0,0E0,6.1553955E-2,0E0,0E0,1.18062496E-1,1.8507385E-1,0E0,0E0,0E0,0E0,0E0,0E0,0E0,4.849617E1,1.3774109E-1,0E0,0E0,0E0,3.950553E-1,0E0,0E0,0E0,0E0,0E0,0E0,0E0,0E0,0E0,0E0],"parents":[2147483647,0,0,1,1,2,2,3,3,4,4,5,5,6,6,7,7,8,8,9,9,10,10,11,11,12,12,13,13,14,14,15,15,16,16,19,19,22,22,23,23,31,31,32,32,36,36],"right_children":[2,4,6,8,10,12,14,16,18,20,22,24,26,28,30,32,34,-1,-1,36,-1,-1,38,40,-1,-1,-1,-1,-1,-1,-1,42,44,-1,-1,-1,46,-1,-1,-1,-1,-1,-1,-1,-1,-1,-1],"split_conditions":[1E0,1E0,1E0,1E0,1E2,1E0,1E0,1E0,1E0,1E0,1E2,1E0,1E0,1E0,1E0,1E0,1E0,5.5988587E-2,1.7740091E-2,1E0,1.553534E-2,-2.76307E-2,1E0,1E0,1.5542953E-2,3.5791893E-2,1.0461101E-2,-4.1115668E-2,3.747787E-2,5.2575685E-2,2.2823382E-3,1E0,1E0,5.794996E-2,1.2153989E-2,5.4261535E-2,1E0,1.4051321E-2,4.726404E-2,5.3296752E-2,1.5542953E-2,-1.5135776E-3,-1.9589944E-2,9.1258235E-2,5.2893657E-2,1.3337284E-2,4.3106895E-2],"split_indices":[2,4,13,7,698,146,181,22,32,201,700,4,331,166,350,313,146,0,0,32,0,0,603,358,0,0,0,0,0,0,0,344,29,0,0,0,404,0,0,0,0,0,0,0,0,0,0],"split_type":[0,0,0,0,0,0,0,0,0,0,0,0,0,0,0,0,0,0,0,0,0,0,0,0,0,0,0,0,0,0,0,0,0,0,0,0,0,0,0,0,0,0,0,0,0,0,0],"sum_hessian":[2.0206097E3,1.8289558E3,1.9165392E2,1.6803237E3,1.4863211E2,1.7107443E2,2.0579485E1,1.6492255E3,3.1098213E1,1.4209152E2,6.540597E0,1.6500154E2,6.0729036E0,4.1225576E0,1.6456926E1,1.6239913E3,2.5234138E1,2.9711689E1,1.386524E0,1.407692E2,1.3223172E0,1.2987152E0,5.2418814E0,1.6367899E2,1.3225448E0,3.8853576E0,2.1875458E0,2.4123094E0,1.7102482E0,1.4875739E1,1.5811881E0,1.6103512E3,1.3640142E1,2.4129871E1,1.104267E0,1.3080157E2,9.967631E0,1.4674447E0,3.774437E0,1.6235645E2,1.3225448E0,5.7973975E2,1.0306115E3,6.4059978E0,7.234144E0,2.655478E0,7.3121533E0],"tree_param":{"num_deleted":"0","num_feature":"702","num_nodes":"47","size_leaf_vector":"1"}},{"base_weights":[8.534201E-3,-9.3474045E-2,1.0071533E0,-1.903674E-1,1.0324588E0,1.0356107E0,7.335326E-1,-2.143286E-1,1.0873543E0,1.0532634E0,5.086868E-1,1.0492141E0,5.754667E-1,-1.4776865E-1,9.519177E-1,-2.3087564E-1,7.35424E-2,5.550618E-2,1.7316813E-2,1.058265E0,1.5166893E-2,4.570595E-2,-1.8733338E-2,1.0534858E0,1.5174324E-2,3.510931E-2,1.0149967E-2,-4.0524315E-2,3.6903854E-2,5.2688677E-2,4.212286E-3,-2.4441072E-1,1.8158091E0,5.388825E-2,7.2905034E-1,5.2891452E-2,1.5174324E-2,-1.2893558E-2,9.078572E-2,1.0567893E-1,1.3345636E-2,1.2953541E-2,4.250225E-2],"categories":[],"categories_nodes":[],"categories_segments":[],"categories_sizes":[],"default_left":[0,0,0,0,0,0,0,0,0,0,0,0,0,0,0,0,0,0,0,0,0,0,0,0,0,0,0,0,0,0,0,0,0,0,0,0,0,0,0,0,0,0,0],"id":33,"left_children":[1,3,5,7,9,11,13,15,17,19,21,23,25,27,29,31,-1,-1,-1,33,-1,-1,-1,35,-1,-1,-1,-1,-1,-1,-1,37,39,-1,41,-1,-1,-1,-1,-1,-1,-1,-1],"loss_changes":[2.0337979E2,1.9782841E2,6.8118286E-1,5.132623E1,1.0300751E0,4.3016052E-1,4.1554565E0,4.6041702E1,1.366272E-1,1.9389343E-1,3.001266E0,1.8748474E-1,1.8585539E-1,3.538343E0,1.400548E0,4.5429E1,0E0,0E0,0E0,8.709717E-2,0E0,0E0,0E0,1.9335938E-1,0E0,0E0,0E0,0E0,0E0,0E0,0E0,4.5227707E1,4.4110603E0,0E0,3.8787174E-1,0E0,0E0,0E0,0E0,0E0,0E0,0E0,0E0],"parents":[2147483647,0,0,1,1,2,2,3,3,4,4,5,5,6,6,7,7,8,8,9,9,10,10,11,11,12,12,13,13,14,14,15,15,19,19,23,23,31,31,32,32,34,34],"right_children":[2,4,6,8,10,12,14,16,18,20,22,24,26,28,30,32,-1,-1,-1,34,-1,-1,-1,36,-1,-1,-1,-1,-1,-1,-1,38,40,-1,42,-1,-1,-1,-1,-1,-1,-1,-1],"split_conditions":[1E0,1E0,1E0,1E0,1E2,1E0,1E0,1E0,1E0,1E0,1E0,1E0,1E0,1E0,1E0,1E0,7.35424E-2,5.550618E-2,1.7316813E-2,1E0,1.5166893E-2,4.570595E-2,-1.8733338E-2,1E0,1.5174324E-2,3.510931E-2,1.0149967E-2,-4.0524315E-2,3.6903854E-2,5.2688677E-2,4.212286E-3,1E0,1E0,5.388825E-2,1E0,5.2891452E-2,1.5174324E-2,-1.2893558E-2,9.078572E-2,1.0567893E-1,1.3345636E-2,1.2953541E-2,4.250225E-2],"split_indices":[2,4,13,7,698,146,181,5,32,201,376,4,331,166,166,12,0,0,0,32,0,0,0,358,0,0,0,0,0,0,0,571,238,0,404,0,0,0,0,0,0,0,0],"split_type":[0,0,0,0,0,0,0,0,0,0,0,0,0,0,0,0,0,0,0,0,0,0,0,0,0,0,0,0,0,0,0,0,0,0,0,0,0,0,0,0,0,0,0],"sum_hessian":[1.9945911E3,1.8105509E3,1.8404013E2,1.667853E3,1.4269795E2,1.6418005E2,1.9860073E1,1.6379683E3,2.9884672E1,1.3627411E2,6.4238453E0,1.5822229E2,5.957762E0,4.0081987E0,1.5851875E1,1.6228958E3,1.5072504E1,2.8510517E1,1.3741542E0,1.3496281E2,1.311292E0,4.3791304E0,2.0447147E0,1.5691078E2,1.3115147E0,3.784861E0,2.1729007E0,2.3415284E0,1.6666704E0,1.3994573E1,1.8573029E0,1.6131086E3,9.787179E0,1.2526917E2,9.693638E0,1.5559926E2,1.3115147E0,1.6035065E3,9.602145E0,7.9032407E0,1.8839382E0,2.6277695E0,7.065869E0],"tree_param":{"num_deleted":"0","num_feature":"702","num_nodes":"43","size_leaf_vector":"1"}},{"base_weights":[8.708462E-3,-8.9174956E-2,9.9826306E-1,-1.8163079E-1,1.0238343E0,1.0269169E0,7.236797E-1,-2.1861233E-1,6.0402876E-1,1.0347618E0,9.927603E-3,1.0410168E0,5.624502E-1,-1.4442609E-1,9.403212E-1,-2.2929212E-1,1.14777744E-1,-7.010284E-1,6.809787E-1,1.0396973E0,1.4807497E-2,1.045458E0,1.4814748E-2,3.935575E-2,2.895624E-1,-3.9945524E-2,3.634322E-2,5.1773798E-2,1.0180185E-3,-1.594442E-2,-3.5244435E-1,-4.4935945E-2,-1.6543873E-3,4.3304855E-1,1.1206437E0,1.045876E0,1.9890292E-2,5.2498806E-2,1.4814748E-2,-1.4115166E-3,2.3789505E-2,-3.4370776E-3,4.6931364E-2,-1.874218E-2,8.5667975E-2,4.7246233E-2,-2.4413168E-3,5.8255997E-2,2.1637125E-2,5.326527E-2,3.579628E-2],"categories":[],"categories_nodes":[],"categories_segments":[],"categories_sizes":[],"default_left":[0,0,0,0,0,0,0,0,0,0,0,0,0,0,0,0,0,0,0,0,0,0,0,0,0,0,0,0,0,0,0,0,0,0,0,0,0,0,0,0,0,0,0,0,0,0,0,0,0,0,0],"id":34,"left_children":[1,3,5,7,9,11,13,15,17,19,-1,21,23,25,27,29,-1,31,33,35,-1,37,-1,-1,39,-1,-1,-1,-1,41,43,-1,-1,45,47,49,-1,-1,-1,-1,-1,-1,-1,-1,-1,-1,-1,-1,-1,-1,-1],"loss_changes":[1.9124706E2,1.8508473E2,6.551819E-1,4.8358665E1,1.0386963E0,4.527588E-1,3.9310675E0,4.3110657E1,7.99749E0,1.8760681E-1,0E0,1.9528198E-1,1.9182658E-1,3.3732998E0,1.4043198E0,4.1511925E1,0E0,5.858917E-1,7.2782593E0,1.1784363E-1,0E0,2.0133972E-1,0E0,0E0,2.9001367E-1,0E0,0E0,0E0,0E0,2.9263222E1,4.699833E1,0E0,0E0,1.1681196E1,2.6223946E-1,8.816528E-2,0E0,0E0,0E0,0E0,0E0,0E0,0E0,0E0,0E0,0E0,0E0,0E0,0E0,0E0,0E0],"parents":[2147483647,0,0,1,1,2,2,3,3,4,4,5,5,6,6,7,7,8,8,9,9,11,11,12,12,13,13,14,14,15,15,17,17,18,18,19,19,21,21,24,24,29,29,30,30,33,33,34,34,35,35],"right_children":[2,4,6,8,10,12,14,16,18,20,-1,22,24,26,28,30,-1,32,34,36,-1,38,-1,-1,40,-1,-1,-1,-1,42,44,-1,-1,46,48,50,-1,-1,-1,-1,-1,-1,-1,-1,-1,-1,-1,-1,-1,-1,-1],"split_conditions":[1E0,1E0,1E0,1E0,1E0,1E0,1E0,1E0,1E0,1E0,9.927603E-3,1E0,1E2,1E0,1E0,1E0,1.14777744E-1,1E0,1E0,1E0,1.4807497E-2,1E0,1.4814748E-2,3.935575E-2,1E0,-3.9945524E-2,3.634322E-2,5.1773798E-2,1.0180185E-3,1E0,1E0,-4.4935945E-2,-1.6543873E-3,1E2,1E0,1E0,1.9890292E-2,5.2498806E-2,1.4814748E-2,-1.4115166E-3,2.3789505E-2,-3.4370776E-3,4.6931364E-2,-1.874218E-2,8.5667975E-2,4.7246233E-2,-2.4413168E-3,5.8255997E-2,2.1637125E-2,5.326527E-2,3.579628E-2],"split_indices":[2,4,13,404,149,146,181,229,543,201,0,4,699,166,350,344,0,376,47,156,0,358,0,0,29,0,0,0,0,371,12,0,0,701,660,32,0,0,0,0,0,0,0,0,0,0,0,0,0,0,0],"split_type":[0,0,0,0,0,0,0,0,0,0,0,0,0,0,0,0,0,0,0,0,0,0,0,0,0,0,0,0,0,0,0,0,0,0,0,0,0,0,0,0,0,0,0,0,0,0,0,0,0,0,0],"sum_hessian":[1.9725299E3,1.7958048E3,1.7672511E2,1.6588442E3,1.3696062E2,1.5754482E2,1.9180286E1,1.5849608E3,7.388348E1,1.3492033E2,2.0402884E0,1.5169835E2,5.8464746E0,3.8971853E0,1.5283101E1,1.5791615E3,5.799234E0,3.6622446E0,7.022123E1,1.3361981E2,1.3005102E0,1.5039761E2,1.300728E0,2.173045E0,3.6734295E0,2.2729177E0,1.6242677E0,1.37367E1,1.5464013E0,5.783548E2,1.00080676E3,2.55927E0,1.1029745E0,4.6170383E1,2.4050848E1,1.3172252E2,1.8972945E0,1.490969E2,1.300728E0,1.6707488E0,2.0026808E0,5.4892206E2,2.9432758E1,9.908813E2,9.925459E0,2.192229E1,2.4248093E1,2.1938675E1,2.1121733E0,1.2229256E2,9.429964E0],"tree_param":{"num_deleted":"0","num_feature":"702","num_nodes":"51","size_leaf_vector":"1"}},{"base_weights":[8.842385E-3,-8.523689E-2,9.8962706E-1,-1.7362371E-1,1.0151119E0,1.0184208E0,7.143225E-1,-1.9597498E-1,1.0746735E0,1.0376052E0,4.7074375E-1,1.0330291E0,5.509728E-1,-1.4116375E-1,9.295073E-1,-2.163568E-1,1.1151402E0,5.4926265E-2,1.700986E-2,1.0430124E0,1.445689E-2,4.461752E-2,-1.9594163E-2,1.0376475E0,1.4463958E-2,3.400492E-2,9.192108E-3,-3.9378572E-2,3.57953E-2,5.1901605E-2,2.8481921E-3,-2.3183388E-1,7.4528985E-2,5.727287E-2,1.1487941E-2,5.319521E-2,7.0205307E-1,5.2117437E-2,1.4463958E-2,-1.2397225E-2,7.25783E-2,1.1538191E-2,4.1395362E-2],"categories":[],"categories_nodes":[],"categories_segments":[],"categories_sizes":[],"default_left":[0,0,0,0,0,0,0,0,0,0,0,0,0,0,0,0,0,0,0,0,0,0,