{"learner":{"attributes":{"scikit_learn":"{\"_estimator_type\": \"classifier\"}"},"feature_names":[],"feature_types":[],"gradient_booster":{"model":{"cats":{"enc":[],"feature_segments":[],"sorted_idx":[]},"gbtree_model_param":{"num_parallel_tree":"1","num_trees":"300"},"iteration_indptr":[0,1,2,3,4,5,6,7,8,9,10,11,12,13,14,15,16,17,18,19,20,21,22,23,24,25,26,27,28,29,30,31,32,33,34,35,36,37,38,39,40,41,42,43,44,45,46,47,48,49,50,51,52,53,54,55,56,57,58,59,60,61,62,63,64,65,66,67,68,69,70,71,72,73,74,75,76,77,78,79,80,81,82,83,84,85,86,87,88,89,90,91,92,93,94,95,96,97,98,99,100,101,102,103,104,105,106,107,108,109,110,111,112,113,114,115,116,117,118,119,120,121,122,123,124,125,126,127,128,129,130,131,132,133,134,135,136,137,138,139,140,141,142,143,144,145,146,147,148,149,150,151,152,153,154,155,156,157,158,159,160,161,162,163,164,165,166,167,168,169,170,171,172,173,174,175,176,177,178,179,180,181,182,183,184,185,186,187,188,189,190,191,192,193,194,195,196,197,198,199,200,201,202,203,204,205,206,207,208,209,210,211,212,213,214,215,216,217,218,219,220,221,222,223,224,225,226,227,228,229,230,231,232,233,234,235,236,237,238,239,240,241,242,243,244,245,246,247,248,249,250,251,252,253,254,255,256,257,258,259,260,261,262,263,264,265,266,267,268,269,270,271,272,273,274,275,276,277,278,279,280,281,282,283,284,285,286,287,288,289,290,291,292,293,294,295,296,297,298,299,300],"tree_info":[0,0,0,0,0,0,0,0,0,0,0,0,0,0,0,0,0,0,0,0,0,0,0,0,0,0,0,0,0,0,0,0,0,0,0,0,0,0,0,0,0,0,0,0,0,0,0,0,0,0,0,0,0,0,0,0,0,0,0,0,0,0,0,0,0,0,0,0,0,0,0,0,0,0,0,0,0,0,0,0,0,0,0,0,0,0,0,0,0,0,0,0,0,0,0,0,0,0,0,0,0,0,0,0,0,0,0,0,0,0,0,0,0,0,0,0,0,0,0,0,0,0,0,0,0,0,0,0,0,0,0,0,0,0,0,0,0,0,0,0,0,0,0,0,0,0,0,0,0,0,0,0,0,0,0,0,0,0,0,0,0,0,0,0,0,0,0,0,0,0,0,0,0,0,0,0,0,0,0,0,0,0,0,0,0,0,0,0,0,0,0,0,0,0,0,0,0,0,0,0,0,0,0,0,0,0,0,0,0,0,0,0,0,0,0,0,0,0,0,0,0,0,0,0,0,0,0,0,0,0,0,0,0,0,0,0,0,0,0,0,0,0,0,0,0,0,0,0,0,0,0,0,0,0,0,0,0,0,0,0,0,0,0,0,0,0,0,0,0,0,0,0,0,0,0,0,0,0,0,0,0,0,0,0,0,0,0,0,0,0,0,0,0,0,0,0,0,0,0,0],"trees":[{"base_weights":[3.6637505E-8,-4.7902837E-1,1.5724083E0,-6.155134E-1,1.6953113E0,1.8086396E0,-1.1060697E0,-7.6721036E-1,4.241542E-1,1.8354548E0,-4.8987776E-2,9.637626E-2,1.6609515E0,-1.4490511E0,2.1128689E-1,-8.2014996E-1,1.4759876E0,1.0976979E0,-1.1485968E0,1.8521016E0,9.508522E-3,5.7160187E-1,-9.146983E-1,1.4736955E0,1.8161736E0,-1.5713564E0,3.151402E-2,1.0221511E0,-7.5E-2,-3.368237E-1,-1.0677075E0,1.5936835E0,-5.555556E-2,-5.9973735E-1,1.3945136E0,-1.4134222E0,3.1810883E-1,1.2488725E0,1.9074078E0,6.0402036E-2,-5.555556E-2,9.508522E-3,-6.923077E-2,1.1399958E0,1.5724032E0,1.8507882E0,-1.8237138E-2,9.508522E-3,-1.6348121E0,1.4429919E0,-5E-2,-1.9829644E-2,7.208764E-2,-5.6823846E-2,9.0073474E-2,8.337184E-2,3.8024362E-2,4.4910543E-2,-4.044109E-2,7.401019E-2,-3.7756544E-2,-7.679334E-2,6.80558E-2,4.6244133E-2,-1.754641E-2,1.9507911E-2,8.6470716E-2,9.7259656E-2,5.6965E-2,-4.9928837E-2,8.786648E-2,7.944383E-2,9.508522E-3,9.3187876E-2,3.151402E-2,-4.0758498E-2,-9.156986E-2,8.325259E-2,9.508522E-3],"categories":[],"categories_nodes":[],"categories_segments":[],"categories_sizes":[],"default_left":[0,0,0,0,0,0,0,0,0,0,0,0,0,0,0,0,0,0,0,0,0,0,0,0,0,0,0,0,0,0,0,0,0,0,0,0,0,0,0,0,0,0,0,0,0,0,0,0,0,0,0,0,0,0,0,0,0,0,0,0,0,0,0,0,0,0,0,0,0,0,0,0,0,0,0,0,0,0,0],"id":0,"left_children":[1,3,5,7,9,11,13,15,17,19,21,-1,23,25,27,29,31,33,35,37,-1,39,41,43,45,47,-1,49,-1,51,53,55,-1,57,59,61,63,65,67,-1,-1,-1,-1,69,71,73,-1,-1,75,77,-1,-1,-1,-1,-1,-1,-1,-1,-1,-1,-1,-1,-1,-1,-1,-1,-1,-1,-1,-1,-1,-1,-1,-1,-1,-1,-1,-1,-1],"loss_changes":[1.9614066E3,5.93369E2,3.8674243E2,2.9663782E2,2.8972809E1,6.616089E0,2.2853462E1,1.9595721E2,2.5536026E2,2.6438599E0,5.766906E0,0E0,4.7818604E0,1.1091988E1,1.704853E1,1.9141113E2,1.3392281E1,8.570981E1,2.8576431E1,1.2271118E0,0E0,8.090033E0,2.5790093E0,2.2128906E0,1.0941742E1,4.536232E0,0E0,8.405241E0,0E0,5.843614E1,2.1108374E2,1.0005264E0,0E0,8.798169E0,2.7585236E1,2.2991142E1,5.1519203E0,4.269602E0,6.0491943E-1,0E0,0E0,0E0,0E0,4.320317E1,1.7746124E0,9.47052E-1,0E0,0E0,4.4029236E0,1.681181E0,0E0,0E0,0E0,0E0,0E0,0E0,0E0,0E0,0E0,0E0,0E0,0E0,0E0,0E0,0E0,0E0,0E0,0E0,0E0,0E0,0E0,0E0,0E0,0E0,0E0,0E0,0E0,0E0,0E0],"parents":[2147483647,0,0,1,1,2,2,3,3,4,4,5,5,6,6,7,7,8,8,9,9,10,10,12,12,13,13,14,14,15,15,16,16,17,17,18,18,19,19,21,21,22,22,23,23,24,24,25,25,27,27,29,29,30,30,31,31,33,33,34,34,35,35,36,36,37,37,38,38,43,43,44,44,45,45,48,48,49,49],"right_children":[2,4,6,8,10,12,14,16,18,20,22,-1,24,26,28,30,32,34,36,38,-1,40,42,44,46,48,-1,50,-1,52,54,56,-1,58,60,62,64,66,68,-1,-1,-1,-1,70,72,74,-1,-1,76,78,-1,-1,-1,-1,-1,-1,-1,-1,-1,-1,-1,-1,-1,-1,-1,-1,-1,-1,-1,-1,-1,-1,-1,-1,-1,-1,-1,-1,-1],"split_conditions":[1E0,1E0,1E2,1E0,1E2,1E0,1E0,1E0,1E2,1E0,1E0,9.637626E-2,1E0,1E0,1E0,1E0,1E2,1E0,1E0,1E0,9.508522E-3,1E2,1E0,1E0,1E0,1E0,3.151402E-2,1E0,-7.5E-2,1E0,1E0,1E0,-5.555556E-2,1E0,1E2,1E0,1E2,1E0,1E0,6.0402036E-2,-5.555556E-2,9.508522E-3,-6.923077E-2,1E0,1E0,1E0,-1.8237138E-2,9.508522E-3,1E2,1E0,-5E-2,-1.9829644E-2,7.208764E-2,-5.6823846E-2,9.0073474E-2,8.337184E-2,3.8024362E-2,4.4910543E-2,-4.044109E-2,7.401019E-2,-3.7756544E-2,-7.679334E-2,6.80558E-2,4.6244133E-2,-1.754641E-2,1.9507911E-2,8.6470716E-2,9.7259656E-2,5.6965E-2,-4.9928837E-2,8.786648E-2,7.944383E-2,9.508522E-3,9.3187876E-2,3.151402E-2,-4.0758498E-2,-9.156986E-2,8.325259E-2,9.508522E-3],"split_indices":[129,74,700,617,700,181,166,2,700,156,350,0,660,164,178,632,700,489,166,489,0,698,376,603,347,121,0,502,0,371,81,603,0,543,698,157,698,13,166,0,0,0,0,350,166,149,0,0,701,29,0,0,0,0,0,0,0,0,0,0,0,0,0,0,0,0,0,0,0,0,0,0,0,0,0,0,0,0,0],"split_type":[0,0,0,0,0,0,0,0,0,0,0,0,0,0,0,0,0,0,0,0,0,0,0,0,0,0,0,0,0,0,0,0,0,0,0,0,0,0,0,0,0,0,0,0,0,0,0,0,0,0,0,0,0,0,0,0,0,0,0,0,0,0,0,0,0,0,0,0,0,0,0,0,0,0,0,0,0,0,0],"sum_hessian":[2.602E3,1.9949432E3,6.0705676E2,1.8777899E3,1.1715339E2,5.581545E2,4.8902294E1,1.6389187E3,2.3887119E2,1.0839247E2,8.760918E0,3.0255405E2,2.5560045E2,3.872107E1,1.0181223E1,1.6017517E3,3.716703E1,1.6745798E2,7.141321E1,1.0718232E2,1.2101529E0,5.300764E0,3.4601529E0,1.2060262E2,1.3499782E2,3.6800766E1,1.9203057E0,7.181223E0,3E0,5.433286E2,1.0584231E3,3.591703E1,1.25E0,2.4771835E1,1.4268614E2,6.0521835E1,1.0891376E1,1.0981987E1,9.620033E1,4.050764E0,1.25E0,1.2101529E0,2.25E0,3.0395197E1,9.020743E1,1.3303767E2,1.9601529E0,1.2101529E0,3.559061E1,6.181223E0,1E0,5.264154E2,1.691321E1,1.034238E3,2.4185045E1,3.207642E1,3.8406115E0,2.6304586E0,2.2141376E1,1.3751584E2,5.1703057E0,5.8391376E1,2.1304586E0,5.510917E0,5.380459E0,4.5906115E0,6.3913755E0,9.022926E1,5.9710703E0,6.6703057E0,2.3724892E1,8.899728E1,1.2101529E0,1.3111736E2,1.9203057E0,7.880459E0,2.7710154E1,4.9710703E0,1.2101529E0],"tree_param":{"num_deleted":"0","num_feature":"702","num_nodes":"79","size_leaf_vector":"1"}},{"base_weights":[2.5571516E-4,-4.552169E-1,1.4972665E0,-5.850374E-1,1.615676E0,1.7224869E0,-1.0548664E0,-6.567873E-1,1.5475755E0,1.7498986E0,-5.2200466E-2,9.1789156E-2,1.5817957E0,-1.3810909E0,1.9808894E-1,-7.197645E-1,1.2916324E0,1.6801122E0,-6.715528E-2,1.7657278E0,9.248325E-3,5.44202E-1,-8.829062E-1,1.40329E0,1.7298363E0,-1.498516E0,3.0482952E-2,9.7740406E-1,-7.226496E-2,-7.689591E-1,8.874025E-2,1.5419104E0,-8.3852005E-1,1.724135E0,-1.822648E-3,1.1965379E0,1.8177707E0,5.802303E-2,-5.40359E-2,-6.718764E-2,9.694788E-3,1.0859706E0,1.4971019E0,1.76299E0,-1.7634312E-2,9.248325E-3,-1.5593491E0,6.618165E-2,-1.0447327E-2,-4.124105E-2,6.5514416E-2,7.918751E-2,2.0156281E-2,1.1479429E-2,-7.503342E-2,9.007639E-2,4.8098214E-2,1.8708477E-2,8.286823E-2,5.3245466E-2,9.276787E-2,-4.7784194E-2,8.380858E-2,7.5635724E-2,9.248325E-3,8.875805E-2,3.0482952E-2,-3.896466E-2,-8.733036E-2],"categories":[],"categories_nodes":[],"categories_segments":[],"categories_sizes":[],"default_left":[0,0,0,0,0,0,0,0,0,0,0,0,0,0,0,0,0,0,0,0,0,0,0,0,0,0,0,0,0,0,0,0,0,0,0,0,0,0,0,0,0,0,0,0,0,0,0,0,0,0,0,0,0,0,0,0,0,0,0,0,0,0,0,0,0,0,0,0,0],"id":1,"left_children":[1,3,5,7,9,11,13,15,17,19,21,-1,23,25,27,29,31,33,-1,35,-1,37,39,41,43,45,-1,47,-1,49,-1,51,53,55,-1,57,59,-1,-1,-1,-1,61,63,65,-1,-1,67,-1,-1,-1,-1,-1,-1,-1,-1,-1,-1,-1,-1,-1,-1,-1,-1,-1,-1,-1,-1,-1,-1],"loss_changes":[1.7736237E3,5.3712775E2,3.5060388E2,2.8829895E2,2.6488739E1,5.98999E0,2.0640125E1,2.2389545E2,2.5783386E1,2.3775635E0,5.312724E0,0E0,4.3409424E0,1.0184486E1,1.5715373E1,2.1745215E2,3.1815025E1,4.533478E0,0E0,1.0227356E0,0E0,7.558869E0,2.4725056E0,1.9884338E0,9.991913E0,4.1533813E0,0E0,3.633195E0,0E0,2.0172748E2,0E0,1.8193283E0,5.0598006E0,1.6706238E0,0E0,3.9159813E0,7.685547E-1,0E0,0E0,0E0,0E0,3.9372555E1,1.5857544E0,7.9525757E-1,0E0,0E0,3.9747849E0,0E0,0E0,0E0,0E0,0E0,0E0,0E0,0E0,0E0,0E0,0E0,0E0,0E0,0E0,0E0,0E0,0E0,0E0,0E0,0E0,0E0,0E0],"parents":[2147483647,0,0,1,1,2,2,3,3,4,4,5,5,6,6,7,7,8,8,9,9,10,10,12,12,13,13,14,14,15,15,16,16,17,17,19,19,21,21,22,22,23,23,24,24,25,25,27,27,29,29,31,31,32,32,33,33,35,35,36,36,41,41,42,42,43,43,46,46],"right_children":[2,4,6,8,10,12,14,16,18,20,22,-1,24,26,28,30,32,34,-1,36,-1,38,40,42,44,46,-1,48,-1,50,-1,52,54,56,-1,58,60,-1,-1,-1,-1,62,64,66,-1,-1,68,-1,-1,-1,-1,-1,-1,-1,-1,-1,-1,-1,-1,-1,-1,-1,-1,-1,-1,-1,-1,-1,-1],"split_conditions":[1E0,1E0,1E2,1E0,1E2,1E0,1E0,1E0,1E2,1E0,1E0,9.1789156E-2,1E0,1E0,1E0,1E0,1E2,1E0,-6.715528E-2,1E0,9.248325E-3,1E2,1E2,1E0,1E0,1E0,3.0482952E-2,1E0,-7.226496E-2,1E0,8.874025E-2,1E0,1E2,1E2,-1.822648E-3,1E0,1E0,5.802303E-2,-5.40359E-2,-6.718764E-2,9.694788E-3,1E0,1E0,1E0,-1.7634312E-2,9.248325E-3,1E2,6.618165E-2,-1.0447327E-2,-4.124105E-2,6.5514416E-2,7.918751E-2,2.0156281E-2,1.1479429E-2,-7.503342E-2,9.007639E-2,4.8098214E-2,1.8708477E-2,8.286823E-2,5.3245466E-2,9.276787E-2,-4.7784194E-2,8.380858E-2,7.5635724E-2,9.248325E-3,8.875805E-2,3.0482952E-2,-3.896466E-2,-8.733036E-2],"split_indices":[129,74,700,391,700,181,166,2,698,156,350,0,660,164,178,81,700,497,0,489,0,698,698,603,347,121,0,29,0,567,0,249,698,700,0,13,543,0,0,0,0,350,166,149,0,0,701,0,0,0,0,0,0,0,0,0,0,0,0,0,0,0,0,0,0,0,0,0,0],"split_type":[0,0,0,0,0,0,0,0,0,0,0,0,0,0,0,0,0,0,0,0,0,0,0,0,0,0,0,0,0,0,0,0,0,0,0,0,0,0,0,0,0,0,0,0,0,0,0,0,0,0,0,0,0,0,0,0,0,0,0,0,0,0,0,0,0,0,0,0,0],"sum_hessian":[2.5992034E3,1.9933983E3,6.05805E2,1.8764825E3,1.1691573E2,5.569779E2,4.882704E1,1.8160743E3,6.0408207E1,1.0816219E2,8.753539E0,3.0185257E2,2.5512537E2,3.8659286E1,1.0167752E1,1.7598236E3,5.625074E1,5.8160355E1,2.2478516E0,1.06952065E2,1.2101256E0,5.296108E0,3.4574316E0,1.2041243E2,1.3471294E2,3.673946E1,1.919829E0,7.171967E0,2.9957852E0,1.7264681E3,3.3355415E1,5.0583664E1,5.667076E0,5.670178E1,1.4585762E0,1.0969618E1,9.598245E1,4.047072E0,1.249036E0,2.2475996E0,1.2098318E0,3.0345308E1,9.006712E1,1.3275294E2,1.9599899E0,1.2101256E0,3.552933E1,5.462154E0,1.7098131E0,1.6818853E3,4.4582912E1,4.8414154E1,2.1695096E0,2.4187186E0,3.2483575E0,5.023692E1,6.4648585E0,4.5901747E0,6.379443E0,5.958848E0,9.0023605E1,6.6661506E0,2.3679157E1,8.8857E1,1.2101256E0,1.3083311E2,1.919829E0,7.877186E0,2.7652147E1],"tree_param":{"num_deleted":"0","num_feature":"702","num_nodes":"69","size_leaf_vector":"1"}},{"base_weights":[5.3868897E-4,-4.3297324E-1,1.4311967E0,-5.5648315E-1,1.5455077E0,1.6468699E0,-1.0084496E0,-6.247698E-1,1.4742322E0,1.6748322E0,-5.5191807E-2,8.7796584E-2,1.511614E0,-1.3201485E0,1.8723695E-1,-6.846468E-1,1.2328176E0,1.6014968E0,-6.497746E-2,1.6900126E0,8.99546E-3,5.187501E-1,-8.5305977E-1,1.3401484E0,1.6540364E0,-1.4333911E0,2.949493E-2,9.3758833E-1,-6.977021E-2,-7.3143715E-1,8.491681E-2,1.4732627E0,-8.0733496E-1,1.643568E0,-1.7685738E-3,1.7266736E0,1.0101719E0,5.581525E-2,-5.2601963E-2,-6.50077E-2,9.429353E-3,1.5894979E0,1.2163347E0,1.6860056E0,-1.7053226E-2,8.99546E-3,-1.492033E0,1.2714708E0,-1.0118175E-2,-3.9229695E-2,6.2448096E-2,7.5656354E-2,1.9471815E-2,1.1074672E-2,-7.232527E-2,8.585465E-2,4.6002604E-2,5.8429714E-2,8.876536E-2,1.5822152E-2,7.279027E-2,8.178577E-2,6.056448E-3,-3.6122207E-2,7.045838E-2,8.487757E-2,2.949493E-2,-3.7275583E-2,-8.360156E-2,7.2521366E-2,2.7823916E-2],"categories":[],"categories_nodes":[],"categories_segments":[],"categories_sizes":[],"default_left":[0,0,0,0,0,0,0,0,0,0,0,0,0,0,0,0,0,0,0,0,0,0,0,0,0,0,0,0,0,0,0,0,0,0,0,0,0,0,0,0,0,0,0,0,0,0,0,0,0,0,0,0,0,0,0,0,0,0,0,0,0,0,0,0,0,0,0,0,0,0,0],"id":2,"left_children":[1,3,5,7,9,11,13,15,17,19,21,-1,23,25,27,29,31,33,-1,35,-1,37,39,41,43,45,-1,47,-1,49,-1,51,53,55,-1,57,59,-1,-1,-1,-1,61,63,65,-1,-1,67,69,-1,-1,-1,-1,-1,-1,-1,-1,-1,-1,-1,-1,-1,-1,-1,-1,-1,-1,-1,-1,-1,-1,-1],"loss_changes":[1.6090231E3,4.8738992E2,3.1910266E2,2.6089642E2,2.4365204E1,5.527954E0,1.8741371E1,2.0266254E2,2.3716599E1,2.1586914E0,4.899651E0,0E0,4.005615E0,9.38633E0,1.4533769E1,1.9731177E2,2.9159302E1,4.124527E0,0E0,9.3032837E-1,0E0,7.071686E0,2.317788E0,1.7985382E0,9.180206E0,3.822586E0,0E0,3.360445E0,0E0,1.8260425E2,0E0,1.6298218E0,4.69831E0,1.4837646E0,0E0,6.506653E-1,1.9817877E0,0E0,0E0,0E0,0E0,2.3025208E0,3.2808136E1,6.812744E-1,0E0,0E0,3.638939E0,1.731491E-2,0E0,0E0,0E0,0E0,0E0,0E0,0E0,0E0,0E0,0E0,0E0,0E0,0E0,0E0,0E0,0E0,0E0,0E0,0E0,0E0,0E0,0E0,0E0],"parents":[2147483647,0,0,1,1,2,2,3,3,4,4,5,5,6,6,7,7,8,8,9,9,10,10,12,12,13,13,14,14,15,15,16,16,17,17,19,19,21,21,22,22,23,23,24,24,25,25,27,27,29,29,31,31,32,32,33,33,35,35,36,36,41,41,42,42,43,43,46,46,47,47],"right_children":[2,4,6,8,10,12,14,16,18,20,22,-1,24,26,28,30,32,34,-1,36,-1,38,40,42,44,46,-1,48,-1,50,-1,52,54,56,-1,58,60,-1,-1,-1,-1,62,64,66,-1,-1,68,70,-1,-1,-1,-1,-1,-1,-1,-1,-1,-1,-1,-1,-1,-1,-1,-1,-1,-1,-1,-1,-1,-1,-1],"split_conditions":[1E0,1E0,1E2,1E0,1E2,1E0,1E0,1E0,1E2,1E0,1E0,8.7796584E-2,1E0,1E0,1E0,1E0,1E2,1E0,-6.497746E-2,1E0,8.99546E-3,1E2,1E2,1E0,1E0,1E0,2.949493E-2,1E0,-6.977021E-2,1E0,8.491681E-2,1E0,1E2,1E2,-1.7685738E-3,1E0,1E0,5.581525E-2,-5.2601963E-2,-6.50077E-2,9.429353E-3,1E0,1E0,1E0,-1.7053226E-2,8.99546E-3,1E2,1E0,-1.0118175E-2,-3.9229695E-2,6.2448096E-2,7.5656354E-2,1.9471815E-2,1.1074672E-2,-7.232527E-2,8.585465E-2,4.6002604E-2,5.8429714E-2,8.876536E-2,1.5822152E-2,7.279027E-2,8.178577E-2,6.056448E-3,-3.6122207E-2,7.045838E-2,8.487757E-2,2.949493E-2,-3.7275583E-2,-8.360156E-2,7.2521366E-2,2.7823916E-2],"split_indices":[129,74,700,391,700,181,166,2,698,156,350,0,660,164,178,81,700,497,0,166,0,698,698,376,347,121,0,29,0,567,0,249,698,700,0,489,660,0,0,0,0,81,603,149,0,0,701,376,0,0,0,0,0,0,0,0,0,0,0,0,0,0,0,0,0,0,0,0,0,0,0],"split_type":[0,0,0,0,0,0,0,0,0,0,0,0,0,0,0,0,0,0,0,0,0,0,0,0,0,0,0,0,0,0,0,0,0,0,0,0,0,0,0,0,0,0,0,0,0,0,0,0,0,0,0,0,0,0,0,0,0,0,0,0,0,0,0,0,0,0,0,0,0,0,0],"sum_hessian":[2.592332E3,1.9900214E3,6.0231055E2,1.8737672E3,1.16254234E2,5.5368756E2,4.8622948E1,1.8134779E3,6.028929E1,1.0752103E2,8.733208E0,2.998917E2,2.5379588E2,3.848607E1,1.0136878E1,1.7574598E3,5.601807E1,5.804858E1,2.2407115E0,1.06310974E2,1.2100464E0,5.2828493E0,3.4503589E0,1.19879715E2,1.3391617E2,3.6567608E1,1.9184617E0,7.1530848E0,2.9837933E0,1.7242959E3,3.3163868E1,5.036062E1,5.657453E0,5.6589996E1,1.4585841E0,9.9410355E1,6.9006195E0,4.036595E0,1.2462543E0,2.240516E0,1.2098429E0,3.584777E1,8.4031944E1,1.3195665E2,1.9595225E0,1.2100464E0,3.5357563E1,5.4433885E0,1.7096962E0,1.6798113E3,4.4484676E1,4.8191963E1,2.1686559E0,2.4183192E0,3.2391336E0,5.0123135E1,6.466862E0,9.974908E0,8.943545E1,3.3678696E0,3.5327501E0,3.464339E1,1.2043811E0,7.353366E0,7.667858E1,1.3003818E2,1.9184617E0,7.8679495E0,2.7489613E1,3.5310152E0,1.9123733E0],"tree_param":{"num_deleted":"0","num_feature":"702","num_nodes":"71","size_leaf_vector":"1"}},{"base_weights":[8.4531825E-4,-4.1224712E-1,1.3725547E0,-5.2981895E-1,1.4830586E0,1.5798141E0,-9.6558696E-1,-6.769873E-1,3.3713284E-1,1.6082828E0,-5.8009177E-2,8.428963E-2,1.448681E0,-1.265072E0,1.8047947E-1,-7.248722E-1,7.858861E-2,7.0660645E-1,-1.4685694E0,1.6229466E0,8.749715E-3,4.9501863E-1,-8.251339E-1,1.2827642E0,1.5868864E0,-1.3746995E0,2.8547231E-2,9.0490234E-1,-6.748436E-2,-2.722531E-1,-1.0032935E0,-6.2382E-1,1.1964265E0,-1.6862067E0,-1.7255814E-1,1.6579967E0,9.741817E-1,5.3758122E-2,-5.1246453E-2,9.584557E-3,-6.325647E-2,1.5241969E0,1.1631248E0,1.6178925E0,-1.6492903E-2,8.749715E-3,-1.4314991E0,1.2287576E0,-9.79972E-3,-1.4359213E-2,6.563065E-2,-5.4752912E-2,6.397673E-2,-4.097163E-2,7.118525E-2,7.390784E-2,-1.678629E-2,-9.122327E-2,8.762894E-3,-2.9271195E-2,3.61326E-2,5.6002963E-2,8.5258074E-2,1.5223565E-2,7.031552E-2,7.843696E-2,5.8922903E-3,-3.4558028E-2,6.743102E-2,8.1447475E-2,2.8547231E-2,-3.568134E-2,-8.029402E-2,7.006978E-2,2.6942719E-2],"categories":[],"categories_nodes":[],"categories_segments":[],"categories_sizes":[],"default_left":[0,0,0,0,0,0,0,0,0,0,0,0,0,0,0,0,0,0,0,0,0,0,0,0,0,0,0,0,0,0,0,0,0,0,0,0,0,0,0,0,0,0,0,0,0,0,0,0,0,0,0,0,0,0,0,0,0,0,0,0,0,0,0,0,0,0,0,0,0,0,0,0,0,0,0],"id":3,"left_children":[1,3,5,7,9,11,13,15,17,19,21,-1,23,25,27,29,-1,31,33,35,-1,37,39,41,43,45,-1,47,-1,49,51,53,55,57,59,61,63,-1,-1,-1,-1,65,67,69,-1,-1,71,73,-1,-1,-1,-1,-1,-1,-1,-1,-1,-1,-1,-1,-1,-1,-1,-1,-1,-1,-1,-1,-1,-1,-1,-1,-1,-1,-1],"loss_changes":[1.46392E3,4.4323447E2,2.9129333E2,2.38857E2,2.2524994E1,5.196411E0,1.7152554E1,1.7334631E2,1.8256201E2,1.9761658E0,4.5238943E0,0E0,3.7606812E0,8.678589E0,1.3515346E1,1.9714355E2,0E0,1.4837842E2,1.2836418E1,8.026428E-1,0E0,6.6237144E0,2.2283866E0,1.6959381E0,8.478729E0,3.5338745E0,0E0,3.137949E0,0E0,1.4528198E1,2.0450677E2,2.5846508E1,7.211836E1,1.0546158E1,3.3081024E0,6.1343384E-1,1.8507528E0,0E0,0E0,0E0,0E0,2.1059341E0,3.0003624E1,5.9484863E-1,0E0,0E0,3.3721008E0,9.062767E-3,0E0,0E0,0E0,0E0,0E0,0E0,0E0,0E0,0E0,0E0,0E0,0E0,0E0,0E0,0E0,0E0,0E0,0E0,0E0,0E0,0E0,0E0,0E0,0E0,0E0,0E0,0E0],"parents":[2147483647,0,0,1,1,2,2,3,3,4,4,5,5,6,6,7,7,8,8,9,9,10,10,12,12,13,13,14,14,15,15,17,17,18,18,19,19,21,21,22,22,23,23,24,24,25,25,27,27,29,29,30,30,31,31,32,32,33,33,34,34,35,35,36,36,41,41,42,42,43,43,46,46,47,47],"right_children":[2,4,6,8,10,12,14,16,18,20,22,-1,24,26,28,30,-1,32,34,36,-1,38,40,42,44,46,-1,48,-1,50,52,54,56,58,60,62,64,-1,-1,-1,-1,66,68,70,-1,-1,72,74,-1,-1,-1,-1,-1,-1,-1,-1,-1,-1,-1,-1,-1,-1,-1,-1,-1,-1,-1,-1,-1,-1,-1,-1,-1,-1,-1],"split_conditions":[1E0,1E0,1E2,1E0,1E2,1E0,1E0,1E0,1E2,1E0,1E0,8.428963E-2,1E0,1E0,1E0,1E0,7.858861E-2,1E0,1E0,1E0,8.749715E-3,1E2,1E0,1E0,1E0,1E0,2.8547231E-2,1E0,-6.748436E-2,1E0,1E0,1E0,1E2,1E0,1E0,1E0,1E0,5.3758122E-2,-5.1246453E-2,9.584557E-3,-6.325647E-2,1E0,1E0,1E0,-1.6492903E-2,8.749715E-3,1E2,1E0,-9.79972E-3,-1.4359213E-2,6.563065E-2,-5.4752912E-2,6.397673E-2,-4.097163E-2,7.118525E-2,7.390784E-2,-1.678629E-2,-9.122327E-2,8.762894E-3,-2.9271195E-2,3.61326E-2,5.6002963E-2,8.5258074E-2,1.5223565E-2,7.031552E-2,7.843696E-2,5.8922903E-3,-3.4558028E-2,6.743102E-2,8.1447475E-2,2.8547231E-2,-3.568134E-2,-8.029402E-2,7.006978E-2,2.6942719E-2],"split_indices":[129,74,700,660,700,181,166,81,698,156,350,0,660,164,178,492,0,489,347,166,0,698,376,376,347,121,0,29,0,440,391,353,700,404,32,489,660,0,0,0,0,81,603,149,0,0,701,376,0,0,0,0,0,0,0,0,0,0,0,0,0,0,0,0,0,0,0,0,0,0,0,0,0,0,0],"split_type":[0,0,0,0,0,0,0,0,0,0,0,0,0,0,0,0,0,0,0,0,0,0,0,0,0,0,0,0,0,0,0,0,0,0,0,0,0,0,0,0,0,0,0,0,0,0,0,0,0,0,0,0,0,0,0,0,0,0,0,0,0,0,0,0,0,0,0,0,0,0,0,0,0,0,0],"sum_hessian":[2.5814988E3,1.9845482E3,5.969504E2,1.8693096E3,1.1523875E2,5.486416E2,4.8308784E1,1.5982241E3,2.7108542E2,1.0653804E2,8.7007E0,2.9686612E2,2.5177548E2,3.821799E1,1.00907955E1,1.5655648E3,3.2659348E1,2.2554436E2,4.5541054E1,1.05328125E2,1.2099199E0,5.261989E0,3.438711E0,1.19089355E2,1.3268613E2,3.6301697E1,1.9162927E0,7.125849E0,2.9649472E0,5.970085E2,9.685563E2,6.0619343E1,1.6492502E2,3.873523E1,6.8058243E0,9.845347E1,6.874655E0,4.020174E0,1.2418151E0,1.2090178E0,2.2296934E0,3.5569695E1,8.351966E1,1.3072734E2,1.9587809E0,1.2099199E0,3.5091778E1,5.4163547E0,1.7094939E0,5.922477E2,4.7608337E0,9.316272E2,3.6929077E1,5.5880527E1,4.7388144E0,1.3933882E2,2.5586199E1,3.607562E1,2.6596093E0,4.89454E0,1.9112846E0,9.931188E0,8.852228E1,3.3646793E0,3.5099754E0,3.4365788E1,1.2039087E0,7.347287E0,7.617237E1,1.2881105E2,1.9162927E0,7.8535514E0,2.7238226E1,3.5073895E0,1.9089652E0],"tree_param":{"num_deleted":"0","num_feature":"702","num_nodes":"75","size_leaf_vector":"1"}},{"base_weights":[1.1126614E-3,-3.9284334E-1,1.3200893E0,-5.047926E-1,1.4271482E0,1.5199361E0,-9.264367E-1,-6.3709855E-1,4.046108E-1,1.5489448E0,-6.0654126E-2,1.4051176E0,8.181207E-2,-1.2149432E0,1.742095E-1,-2.6483935E-1,-8.982414E-1,1.0106583E0,-1.0081927E0,1.5632018E0,8.510862E-3,4.72814E-1,-7.987947E-1,8.334669E-2,1.3155321E0,-1.3214219E0,2.7637357E-2,8.743487E-1,-6.538106E-2,-3.3563244E-1,1.3442055E0,-1.045905E0,2.9953408E-1,-4.62016E-1,1.2690871E0,-1.2567687E0,3.5711226E-1,1.0599992E0,1.6098078E0,5.1834196E-2,-4.9962826E-2,-6.1368197E-2,9.323814E-3,1.3696233E0,9.938928E-2,8.510862E-3,-1.3766644E0,1.1891446E0,-9.491577E-3,-1.1325699E-2,-4.464642E-2,7.734632E-2,5.5208066E-3,-5.604679E-2,7.7989556E-2,-2.9700337E-2,5.7893574E-2,4.8202E-2,-3.333999E-2,6.731926E-2,-3.3039838E-2,-6.8597876E-2,6.578328E-2,4.4388887E-2,-1.2103785E-2,1.4022301E-2,7.5581685E-2,4.5075677E-2,8.23181E-2,5.0361373E-2,7.3856845E-2,5.6051012E-2,-6.2333625E-2,-3.4173306E-2,-7.733777E-2,6.782564E-2,2.6095388E-2],"categories":[],"categories_nodes":[],"categories_segments":[],"categories_sizes":[],"default_left":[0,0,0,0,0,0,0,0,0,0,0,0,0,0,0,0,0,0,0,0,0,0,0,0,0,0,0,0,0,0,0,0,0,0,0,0,0,0,0,0,0,0,0,0,0,0,0,0,0,0,0,0,0,0,0,0,0,0,0,0,0,0,0,0,0,0,0,0,0,0,0,0,0,0,0,0,0],"id":4,"left_children":[1,3,5,7,9,11,13,15,17,19,21,23,-1,25,27,29,31,33,35,37,-1,39,41,-1,43,45,-1,47,-1,49,51,53,55,57,59,61,63,65,67,-1,-1,-1,-1,69,71,-1,73,75,-1,-1,-1,-1,-1,-1,-1,-1,-1,-1,-1,-1,-1,-1,-1,-1,-1,-1,-1,-1,-1,-1,-1,-1,-1,-1,-1,-1,-1],"loss_changes":[1.3352399E3,4.038663E2,2.667406E2,2.2462305E2,2.0918137E1,4.953369E0,1.5739559E1,1.5805322E2,2.0432996E2,1.8226166E0,4.1807647E0,4.3832397E0,0E0,8.046513E0,1.2587232E1,7.708266E1,1.694967E2,6.401726E1,2.4810265E1,7.572632E-1,0E0,6.210853E0,2.0967612E0,0E0,1.3917603E1,3.279602E0,0E0,2.935989E0,0E0,3.9032585E1,6.9702263E0,1.6828058E2,8.1801605E1,8.123048E0,2.2080765E1,1.9864563E1,3.9780097E0,3.7420816E0,9.5513916E-1,0E0,0E0,0E0,0E0,6.478546E0,1.5391025E1,0E0,3.1575928E0,4.630089E-3,0E0,0E0,0E0,0E0,0E0,0E0,0E0,0E0,0E0,0E0,0E0,0E0,0E0,0E0,0E0,0E0,0E0,0E0,0E0,0E0,0E0,0E0,0E0,0E0,0E0,0E0,0E0,0E0,0E0],"parents":[2147483647,0,0,1,1,2,2,3,3,4,4,5,5,6,6,7,7,8,8,9,9,10,10,11,11,13,13,14,14,15,15,16,16,17,17,18,18,19,19,21,21,22,22,24,24,25,25,27,27,29,29,30,30,31,31,32,32,33,33,34,34,35,35,36,36,37,37,38,38,43,43,44,44,46,46,47,47],"right_children":[2,4,6,8,10,12,14,16,18,20,22,24,-1,26,28,30,32,34,36,38,-1,40,42,-1,44,46,-1,48,-1,50,52,54,56,58,60,62,64,66,68,-1,-1,-1,-1,70,72,-1,74,76,-1,-1,-1,-1,-1,-1,-1,-1,-1,-1,-1,-1,-1,-1,-1,-1,-1,-1,-1,-1,-1,-1,-1,-1,-1,-1,-1,-1,-1],"split_conditions":[1E0,1E0,1E2,1E0,1E2,1E0,1E0,1E0,1E2,1E0,1E0,1E0,8.181207E-2,1E0,1E0,1E0,1E0,1E0,1E0,1E0,8.510862E-3,1E2,1E2,8.334669E-2,1E0,1E0,2.7637357E-2,1E0,-6.538106E-2,1E0,1E2,1E0,1E2,1E0,1E2,1E0,1E2,1E0,1E0,5.1834196E-2,-4.9962826E-2,-6.1368197E-2,9.323814E-3,1E0,1E0,8.510862E-3,1E2,1E0,-9.491577E-3,-1.1325699E-2,-4.464642E-2,7.734632E-2,5.5208066E-3,-5.604679E-2,7.7989556E-2,-2.9700337E-2,5.7893574E-2,4.8202E-2,-3.333999E-2,6.731926E-2,-3.3039838E-2,-6.8597876E-2,6.578328E-2,4.4388887E-2,-1.2103785E-2,1.4022301E-2,7.5581685E-2,4.5075677E-2,8.23181E-2,5.0361373E-2,7.3856845E-2,5.6051012E-2,-6.2333625E-2,-3.4173306E-2,-7.733777E-2,6.782564E-2,2.6095388E-2],"split_indices":[129,74,700,617,700,74,166,543,700,156,350,418,0,164,178,660,618,489,166,489,0,698,698,0,331,121,0,29,0,632,701,81,699,543,698,157,698,13,543,0,0,0,0,353,376,0,701,376,0,0,0,0,0,0,0,0,0,0,0,0,0,0,0,0,0,0,0,0,0,0,0,0,0,0,0,0,0],"split_type":[0,0,0,0,0,0,0,0,0,0,0,0,0,0,0,0,0,0,0,0,0,0,0,0,0,0,0,0,0,0,0,0,0,0,0,0,0,0,0,0,0,0,0,0,0,0,0,0,0,0,0,0,0,0,0,0,0,0,0,0,0,0,0,0,0,0,0,0,0,0,0,0,0,0,0,0,0],"sum_hessian":[2.567655E3,1.9776627E3,5.899922E2,1.8637449E3,1.1391788E2,5.420921E2,4.7900063E1,1.6272947E3,2.364502E2,1.0525985E2,8.658025E0,2.793725E2,2.6271964E2,3.786965E1,1.0030411E1,6.7174133E2,9.5555334E2,1.656684E2,7.078179E1,1.040501E2,1.2097498E0,5.234445E0,3.4235797E0,6.673382E1,2.1263869E2,3.5956245E1,1.9134047E0,7.0903144E0,2.9400964E0,6.441903E2,2.755102E1,8.5079315E2,1.0476025E2,2.4614313E1,1.410541E2,5.9946964E1,1.0834827E1,1.08328085E1,9.321729E1,3.9985743E0,1.2358708E0,2.2145789E0,1.2090008E0,2.0346292E2,9.175756E0,1.2097498E0,3.4746494E1,5.3810997E0,1.7092149E0,5.3988696E2,1.04303345E2,2.3445026E1,4.1059923E0,8.275341E2,2.3258993E1,5.1478447E1,5.32818E1,2.6252456E0,2.1989067E1,1.359127E2,5.141385E0,5.7824368E1,2.1225958E0,5.490543E0,5.3442845E0,4.5683937E0,6.2644143E0,5.834127E0,8.738317E1,4.8923794E1,1.5453914E2,5.311575E0,3.8641818E0,7.834711E0,2.6911785E1,3.4761262E0,1.9049733E0],"tree_param":{"num_deleted":"0","num_feature":"702","num_nodes":"77","size_leaf_vector":"1"}},{"base_weights":[1.3709688E-3,-3.7471232E-1,1.2723607E0,-4.813744E-1,1.3767408E0,1.4655181E0,-8.9046055E-1,-5.4253536E-1,1.3488644E0,1.4956594E0,-6.316543E-2,7.848279E-2,1.3376138E0,-1.1690216E0,1.6836876E-1,-5.981286E-1,1.1848599E0,1.4707713E0,-6.3120596E-2,1.5096003E0,8.278701E-3,5.4223236E-2,-3.9223173E-1,1.1753302E0,1.4740877E0,-1.2727381E0,2.6763042E-2,8.456946E-1,-6.3438036E-2,-6.387598E-1,7.615577E-2,1.4117333E0,-7.3844E-1,1.5120181E0,-4.1190046E-3,1.5438162E0,8.900184E-1,5.153553E-1,-6.927988E-2,1.4193316E0,1.0557907E0,1.5047386E0,-1.7666731E-2,8.278701E-3,-1.3266591E0,6.931276E-2,1.3206114E-1,-1.3480929E-2,-4.4186696E-2,7.2315335E-2,2.1777498E-2,1.1446896E-2,-6.7498825E-2,7.888989E-2,4.3253507E-2,5.1726993E-2,7.9464346E-2,1.2504158E-2,6.5777846E-2,-1.854615E-2,5.937619E-2,7.317964E-2,3.734934E-3,-3.5398398E-2,6.1819263E-2,7.5791135E-2,2.5158305E-2,-3.274407E-2,-7.467722E-2,-2.8582934E-2,5.0763845E-2],"categories":[],"categories_nodes":[],"categories_segments":[],"categories_sizes":[],"default_left":[0,0,0,0,0,0,0,0,0,0,0,0,0,0,0,0,0,0,0,0,0,0,0,0,0,0,0,0,0,0,0,0,0,0,0,0,0,0,0,0,0,0,0,0,0,0,0,0,0,0,0,0,0,0,0,0,0,0,0,0,0,0,0,0,0,0,0,0,0,0,0],"id":5,"left_children":[1,3,5,7,9,11,13,15,17,19,21,-1,23,25,27,29,31,33,-1,35,-1,-1,37,39,41,43,-1,45,-1,47,-1,49,51,53,-1,55,57,59,-1,61,63,65,-1,-1,67,-1,69,-1,-1,-1,-1,-1,-1,-1,-1,-1,-1,-1,-1,-1,-1,-1,-1,-1,-1,-1,-1,-1,-1,-1,-1],"loss_changes":[1.2202466E3,3.6867297E2,2.4481915E2,2.0866907E2,1.9501816E1,5.032959E0,1.4475742E1,1.7339624E2,2.1069542E1,1.6921082E0,4.0529833E0,0E0,3.739746E0,7.4784546E0,1.1739166E1,1.5118542E2,2.5654213E1,3.8481522E0,0E0,8.2066345E-1,0E0,0E0,8.106635E0,1.9375458E0,7.8289795E0,3.0538406E0,0E0,2.921381E0,0E0,1.544679E2,0E0,1.0844269E0,4.218267E0,1.0468597E0,0E0,5.9614563E-1,1.7894015E0,3.427308E0,0E0,2.0232162E0,2.730384E1,6.618347E-1,0E0,0E0,2.9832497E0,0E0,3.4231882E0,0E0,0E0,0E0,0E0,0E0,0E0,0E0,0E0,0E0,0E0,0E0,0E0,0E0,0E0,0E0,0E0,0E0,0E0,0E0,0E0,0E0,0E0,0E0,0E0],"parents":[2147483647,0,0,1,1,2,2,3,3,4,4,5,5,6,6,7,7,8,8,9,9,10,10,12,12,13,13,14,14,15,15,16,16,17,17,19,19,22,22,23,23,24,24,25,25,27,27,29,29,31,31,32,32,33,33,35,35,36,36,37,37,39,39,40,40,41,41,44,44,46,46],"right_children":[2,4,6,8,10,12,14,16,18,20,22,-1,24,26,28,30,32,34,-1,36,-1,-1,38,40,42,44,-1,46,-1,48,-1,50,52,54,-1,56,58,60,-1,62,64,66,-1,-1,68,-1,70,-1,-1,-1,-1,-1,-1,-1,-1,-1,-1,-1,-1,-1,-1,-1,-1,-1,-1,-1,-1,-1,-1,-1,-1],"split_conditions":[1E0,1E0,1E2,1E0,1E2,1E0,1E0,1E0,1E2,1E0,1E2,7.848279E-2,1E0,1E0,1E0,1E0,1E2,1E0,-6.3120596E-2,1E0,8.278701E-3,5.4223236E-2,1E0,1E0,1E0,1E0,2.6763042E-2,1E0,-6.3438036E-2,1E0,7.615577E-2,1E0,1E2,1E2,-4.1190046E-3,1E0,1E0,1E0,-6.927988E-2,1E0,1E0,1E0,-1.7666731E-2,8.278701E-3,1E2,6.931276E-2,1E0,-1.3480929E-2,-4.4186696E-2,7.2315335E-2,2.1777498E-2,1.1446896E-2,-6.7498825E-2,7.888989E-2,4.3253507E-2,5.1726993E-2,7.9464346E-2,1.2504158E-2,6.5777846E-2,-1.854615E-2,5.937619E-2,7.317964E-2,3.734934E-3,-3.5398398E-2,6.1819263E-2,7.5791135E-2,2.5158305E-2,-3.274407E-2,-7.467722E-2,-2.8582934E-2,5.0763845E-2],"split_indices":[129,74,700,391,700,181,166,2,698,156,701,0,660,164,178,81,700,497,0,166,0,0,181,376,347,121,0,112,0,543,0,249,698,700,0,489,660,617,0,81,603,149,0,0,701,0,660,0,0,0,0,0,0,0,0,0,0,0,0,0,0,0,0,0,0,0,0,0,0,0,0],"split_type":[0,0,0,0,0,0,0,0,0,0,0,0,0,0,0,0,0,0,0,0,0,0,0,0,0,0,0,0,0,0,0,0,0,0,0,0,0,0,0,0,0,0,0,0,0,0,0,0,0,0,0,0,0,0,0,0,0,0,0,0,0,0,0,0,0,0,0,0,0,0,0],"sum_hessian":[2.55083E3,1.9689323E3,5.818979E2,1.8565924E3,1.1233983E2,5.344864E2,4.7411537E1,1.7972378E3,5.935457E1,1.0373396E2,8.60587E0,2.8840186E2,2.460845E2,3.7453938E1,9.9576E0,1.7418336E3,5.5404205E1,5.7124485E1,2.2300835E0,1.0252442E2,1.2095401E0,1.4061818E0,7.1996884E0,1.16803505E2,1.29281E2,3.5544064E1,1.909874E0,7.0475807E0,2.910019E0,1.7097826E3,3.2051014E1,4.9796204E1,5.608E0,5.567249E1,1.4519979E0,9.5745255E1,6.7791677E0,4.0137424E0,3.1859462E0,3.483196E1,8.197154E1,1.27322044E2,1.958959E0,1.2095401E0,3.4334522E1,3.4737592E0,3.5738215E0,6.8287994E2,1.0269027E3,4.762778E1,2.1684213E0,2.414377E0,3.1936226E0,4.9228275E1,6.4442115E0,9.794762E0,8.595049E1,3.3416295E0,3.4375381E0,1.9244524E0,2.08929E0,3.3636284E1,1.195676E0,7.3424096E0,7.4629135E1,1.25420616E2,1.9014293E0,7.8120723E0,2.6522451E1,2.1853518E0,1.3884697E0],"tree_param":{"num_deleted":"0","num_feature":"702","num_nodes":"71","size_leaf_vector":"1"}},{"base_weights":[1.6650524E-3,-3.5744742E-1,1.2293819E0,-4.590911E-1,1.3315334E0,1.4166412E0,-8.568969E-1,-5.961044E-1,3.4919405E-1,1.4474337E0,-5.7662677E-2,7.5989924E-2,1.2904747E0,-1.1267028E0,1.6369557E-1,-6.375674E-1,7.059912E-2,6.9067734E-1,-1.3326548E0,1.4611328E0,8.053026E-3,5.2799802E-2,-3.782686E-1,7.819277E-2,1.205348E0,-1.22798E0,2.5922224E-2,8.192712E-1,-6.1636355E-2,-2.3129606E-1,-8.904417E-1,-5.268715E-1,1.1387408E0,-1.5455962E0,-8.804731E-2,1.4945647E0,8.610555E-1,4.9974132E-1,-6.709037E-2,7.9707485E-1,1.3484904E0,8.053026E-3,-1.2807753E0,6.714675E-2,1.3061205E-1,-1.2280442E-2,6.395684E-2,-4.8667137E-2,5.8892727E-2,-3.5846006E-2,7.137962E-2,6.9688655E-2,-1.2304333E-2,-8.4080175E-2,1.175633E-2,-2.5033513E-2,3.867043E-2,4.975102E-2,7.698872E-2,1.2035145E-2,6.387231E-2,-1.7936647E-2,5.773152E-2,7.200818E-2,-2.7046404E-3,5.814153E-2,7.478944E-2,-3.13871E-2,-7.2267644E-2,-2.7576653E-2,4.9524635E-2],"categories":[],"categories_nodes":[],"categories_segments":[],"categories_sizes":[],"default_left":[0,0,0,0,0,0,0,0,0,0,0,0,0,0,0,0,0,0,0,0,0,0,0,0,0,0,0,0,0,0,0,0,0,0,0,0,0,0,0,0,0,0,0,0,0,0,0,0,0,0,0,0,0,0,0,0,0,0,0,0,0,0,0,0,0,0,0,0,0,0,0],"id":6,"left_children":[1,3,5,7,9,11,13,15,17,19,21,-1,23,25,27,29,-1,31,33,35,-1,-1,37,-1,39,41,-1,43,-1,45,47,49,51,53,55,57,59,61,-1,63,65,-1,67,-1,69,-1,-1,-1,-1,-1,-1,-1,-1,-1,-1,-1,-1,-1,-1,-1,-1,-1,-1,-1,-1,-1,-1,-1,-1,-1,-1],"loss_changes":[1.1173644E3,3.372314E2,2.2528314E2,2.0511526E2,1.8045609E1,4.8935547E0,1.3364048E1,1.3265625E2,1.5530359E2,1.5798645E0,3.8100996E0,0E0,3.7828064E0,6.9650726E0,1.0970753E1,1.5914862E2,0E0,1.2285523E2,1.1978088E1,7.553711E-1,0E0,0E0,7.5683036E0,0E0,1.0033539E1,2.8519363E0,0E0,2.7114897E0,0E0,1.32078495E1,1.6501349E2,2.3669754E1,5.831021E1,9.833733E0,3.137846E0,6.148987E-1,1.6895938E0,3.2222328E0,0E0,2.8425423E1,2.0698547E0,0E0,2.8400307E0,0E0,3.2243052E0,0E0,0E0,0E0,0E0,0E0,0E0,0E0,0E0,0E0,0E0,0E0,0E0,0E0,0E0,0E0,0E0,0E0,0E0,0E0,0E0,0E0,0E0,0E0,0E0,0E0,0E0],"parents":[2147483647,0,0,1,1,2,2,3,3,4,4,5,5,6,6,7,7,8,8,9,9,10,10,12,12,13,13,14,14,15,15,17,17,18,18,19,19,22,22,24,24,25,25,27,27,29,29,30,30,31,31,32,32,33,33,34,34,35,35,36,36,37,37,39,39,40,40,42,42,44,44],"right_children":[2,4,6,8,10,12,14,16,18,20,22,-1,24,26,28,30,-1,32,34,36,-1,-1,38,-1,40,42,-1,44,-1,46,48,50,52,54,56,58,60,62,-1,64,66,-1,68,-1,70,-1,-1,-1,-1,-1,-1,-1,-1,-1,-1,-1,-1,-1,-1,-1,-1,-1,-1,-1,-1,-1,-1,-1,-1,-1,-1],"split_conditions":[1E0,1E0,1E2,1E0,1E2,1E0,1E0,1E0,1E2,1E0,1E2,7.5989924E-2,1E0,1E0,1E0,1E0,7.059912E-2,1E0,1E0,1E0,8.053026E-3,5.2799802E-2,1E0,7.819277E-2,1E0,1E0,2.5922224E-2,1E0,-6.1636355E-2,1E0,1E0,1E0,1E2,1E0,1E0,1E0,1E0,1E0,-6.709037E-2,1E0,1E0,8.053026E-3,1E2,6.714675E-2,1E0,-1.2280442E-2,6.395684E-2,-4.8667137E-2,5.8892727E-2,-3.5846006E-2,7.137962E-2,6.9688655E-2,-1.2304333E-2,-8.4080175E-2,1.175633E-2,-2.5033513E-2,3.867043E-2,4.975102E-2,7.698872E-2,1.2035145E-2,6.387231E-2,-1.7936647E-2,5.773152E-2,7.200818E-2,-2.7046404E-3,5.814153E-2,7.478944E-2,-3.13871E-2,-7.2267644E-2,-2.7576653E-2,4.9524635E-2],"split_indices":[129,74,700,660,700,181,166,81,698,156,701,0,418,164,178,492,0,489,347,166,0,0,181,0,353,121,0,112,0,440,391,353,700,404,523,489,660,617,0,376,660,0,701,0,660,0,0,0,0,0,0,0,0,0,0,0,0,0,0,0,0,0,0,0,0,0,0,0,0,0,0],"split_type":[0,0,0,0,0,0,0,0,0,0,0,0,0,0,0,0,0,0,0,0,0,0,0,0,0,0,0,0,0,0,0,0,0,0,0,0,0,0,0,0,0,0,0,0,0,0,0,0,0,0,0,0,0,0,0,0,0,0,0,0,0,0,0,0,0,0,0,0,0,0,0],"sum_hessian":[2.5323508E3,1.9598075E3,5.7254333E2,1.8492472E3,1.10560394E2,5.256805E2,4.6862854E1,1.5814384E3,2.678088E2,1.0200797E2,8.55242E0,2.8313547E2,2.4254501E2,3.6982193E1,9.880659E0,1.550114E3,3.1324308E1,2.2309985E2,4.470895E1,1.0079868E2,1.2092941E0,1.3990209E0,7.153399E0,5.3467045E1,1.8907797E2,3.5076424E1,1.9057711E0,7.005234E0,2.8754256E0,5.954195E2,9.546946E2,5.996839E1,1.6313145E2,3.7970665E1,6.738285E0,9.406733E1,6.7313557E0,3.9946675E0,3.1587315E0,5.0788006E1,1.3828996E2,1.2092941E0,3.386713E1,3.4396303E0,3.5656037E0,5.9065985E2,4.759665E0,9.1841235E2,3.6282207E1,5.5231014E1,4.737377E0,1.3775568E2,2.5375788E1,3.532806E1,2.642607E0,4.839199E0,1.899086E0,9.716296E0,8.435103E1,3.337342E0,3.394014E0,1.9243366E0,2.070331E0,2.8536013E1,2.2251995E1,6.5113335E1,7.317663E1,7.786212E0,2.6080917E1,2.1882522E0,1.3773515E0],"tree_param":{"num_deleted":"0","num_feature":"702","num_nodes":"71","size_leaf_vector":"1"}},{"base_weights":[1.9920734E-3,-3.4132805E-1,1.1900488E0,-4.3827778E-1,1.2903407E0,1.3719442E0,-8.2576126E-1,-5.609599E-1,4.0826756E-1,1.40359E0,-5.248554E-2,1.3797209E0,1.0428334E-1,-1.0874894E0,1.5938354E-1,-6.4447945E-1,4.4563147E-1,9.687067E-1,-9.0122116E-1,1.4171114E0,7.833643E-3,5.1455017E-2,-3.652244E-1,1.4818274E0,1.254182E0,-2.9715374E-2,4.6220824E-2,-1.1920049E0,2.2407359E-2,7.9466856E-1,-5.9959825E-2,-1.9063966E-1,-9.036433E-1,7.4557936E-1,-1.3499756E0,-3.6415198E-1,1.2032629E0,-1.1395526E0,3.893664E-1,1.0075049E0,1.4724631E0,4.8498377E-1,-6.507128E-2,1.4850605E0,2.7158732E-2,7.670513E-2,1.1668267E0,-3.9288545E-1,-1.3070141E0,1.0976174E0,-9.962278E-3,-1.2336591E-2,7.323054E-2,-4.7397994E-2,1.0006856E-1,1.254449E-3,8.185055E-2,-8.14136E-2,-2.1780167E-2,4.8684426E-2,-2.8084261E-2,6.4911455E-2,-1.2125147E-2,-6.2687956E-2,6.6668116E-2,4.2928334E-2,-7.7070096E-3,1.3348783E-2,6.796579E-2,1.4536013E-2,7.496446E-2,-1.734898E-2,5.6190994E-2,7.441648E-2,2.7158732E-2,3.899261E-2,6.523722E-2,5.21437E-2,-5.9847724E-2,-6.9555186E-2,7.0728282E-3,6.3240595E-2,2.3107959E-2],"categories":[],"categories_nodes":[],"categories_segments":[],"categories_sizes":[],"default_left":[0,0,0,0,0,0,0,0,0,0,0,0,0,0,0,0,0,0,0,0,0,0,0,0,0,0,0,0,0,0,0,0,0,0,0,0,0,0,0,0,0,0,0,0,0,0,0,0,0,0,0,0,0,0,0,0,0,0,0,0,0,0,0,0,0,0,0,0,0,0,0,0,0,0,0,0,0,0,0,0,0,0,0],"id":7,"left_children":[1,3,5,7,9,11,13,15,17,19,21,23,25,27,29,31,33,35,37,39,-1,-1,41,43,45,-1,-1,47,-1,49,-1,51,53,55,57,59,61,63,65,67,69,71,-1,73,-1,-1,75,77,79,81,-1,-1,-1,-1,-1,-1,-1,-1,-1,-1,-1,-1,-1,-1,-1,-1,-1,-1,-1,-1,-1,-1,-1,-1,-1,-1,-1,-1,-1,-1,-1,-1,-1],"loss_changes":[1.0250591E3,3.089889E2,2.0771869E2,1.9143826E2,1.674141E1,4.954468E0,1.2357815E1,1.3551218E2,1.7232419E2,1.4827881E0,3.5853882E0,4.729187E0,2.9758065E0,6.5471573E0,1.0267006E1,1.7456885E2,6.769777E1,5.173564E1,2.2139927E1,7.815857E-1,0E0,0E0,7.0772038E0,3.668213E-2,4.0057373E0,0E0,0E0,2.7353935E0,0E0,2.613865E0,0E0,5.0616966E1,1.2360547E2,6.851867E1,3.891388E0,7.2386937E0,1.9503891E1,1.8559479E1,3.1263916E0,3.560687E0,2.285553E0,3.0328326E0,0E0,4.2663574E-2,0E0,0E0,8.846664E0,8.033339E0,3.9084358E0,7.949114E-2,0E0,0E0,0E0,0E0,0E0,0E0,0E0,0E0,0E0,0E0,0E0,0E0,0E0,0E0,0E0,0E0,0E0,0E0,0E0,0E0,0E0,0E0,0E0,0E0,0E0,0E0,0E0,0E0,0E0,0E0,0E0,0E0,0E0],"parents":[2147483647,0,0,1,1,2,2,3,3,4,4,5,5,6,6,7,7,8,8,9,9,10,10,11,11,12,12,13,13,14,14,15,15,16,16,17,17,18,18,19,19,22,22,23,23,24,24,27,27,29,29,31,31,32,32,33,33,34,34,35,35,36,36,37,37,38,38,39,39,40,40,41,41,43,43,46,46,47,47,48,48,49,49],"right_children":[2,4,6,8,10,12,14,16,18,20,22,24,26,28,30,32,34,36,38,40,-1,-1,42,44,46,-1,-1,48,-1,50,-1,52,54,56,58,60,62,64,66,68,70,72,-1,74,-1,-1,76,78,80,82,-1,-1,-1,-1,-1,-1,-1,-1,-1,-1,-1,-1,-1,-1,-1,-1,-1,-1,-1,-1,-1,-1,-1,-1,-1,-1,-1,-1,-1,-1,-1,-1,-1],"split_conditions":[1E0,1E0,1E2,1E0,1E2,1E2,1E0,1E0,1E2,1E0,1E2,1E0,1E0,1E0,1E0,1E0,1E2,1E0,1E0,1E0,7.833643E-3,5.1455017E-2,1E0,1E0,1E0,-2.9715374E-2,4.6220824E-2,1E0,2.2407359E-2,1E0,-5.9959825E-2,1E0,1E0,1E2,1E0,1E0,1E0,1E0,1E2,1E0,1E0,1E0,-6.507128E-2,1E0,2.7158732E-2,7.670513E-2,1E0,1E2,1E0,1E0,-9.962278E-3,-1.2336591E-2,7.323054E-2,-4.7397994E-2,1.0006856E-1,1.254449E-3,8.185055E-2,-8.14136E-2,-2.1780167E-2,4.8684426E-2,-2.8084261E-2,6.4911455E-2,-1.2125147E-2,-6.2687956E-2,6.6668116E-2,4.2928334E-2,-7.7070096E-3,1.3348783E-2,6.796579E-2,1.4536013E-2,7.496446E-2,-1.734898E-2,5.6190994E-2,7.441648E-2,2.7158732E-2,3.899261E-2,6.523722E-2,5.21437E-2,-5.9847724E-2,-6.9555186E-2,7.0728282E-3,6.3240595E-2,2.3107959E-2],"split_indices":[129,74,700,617,700,698,166,618,700,156,701,181,81,136,178,632,698,489,166,543,0,0,181,201,418,0,0,181,0,29,0,371,329,699,181,543,357,157,698,13,489,617,0,297,0,0,353,701,350,376,0,0,0,0,0,0,0,0,0,0,0,0,0,0,0,0,0,0,0,0,0,0,0,0,0,0,0,0,0,0,0,0,0],"split_type":[0,0,0,0,0,0,0,0,0,0,0,0,0,0,0,0,0,0,0,0,0,0,0,0,0,0,0,0,0,0,0,0,0,0,0,0,0,0,0,0,0,0,0,0,0,0,0,0,0,0,0,0,0,0,0,0,0,0,0,0,0,0,0,0,0,0,0,0,0,0,0,0,0,0,0,0,0,0,0,0,0,0,0],"sum_hessian":[2.5111199E3,1.9487036E3,5.6241626E2,1.8401007E3,1.08602844E2,5.161603E2,4.6255974E1,1.6074806E3,2.3262013E2,1.001143E2,8.48854E0,5.1292523E2,3.2350497E0,3.646441E1,9.791563E0,1.4846547E3,1.2282598E2,1.6308342E2,6.953672E1,9.890529E1,1.2090151E0,1.3901603E0,7.098379E0,2.7690344E2,2.3602179E2,1.8956686E0,1.3393812E0,3.4350296E1,2.114113E0,6.9545994E0,2.8369634E0,5.402759E2,9.443787E2,1.0574632E2,1.7079662E1,2.4321985E1,1.3876143E2,5.8795956E1,1.0740762E1,1.4060251E1,8.484504E1,3.9726217E0,3.1257577E0,2.7537283E2,1.5306225E0,5.219776E1,1.8382404E2,4.877316E0,2.9472982E1,5.250032E0,1.7045677E0,5.233905E2,1.6885408E1,9.3085205E2,1.3526639E1,5.904885E1,4.669747E1,1.2495734E1,4.5839276E0,2.6236248E0,2.169836E1,1.3030435E2,8.457083E0,5.667169E1,2.124264E0,5.4533195E0,5.287442E0,5.094874E0,8.965377E0,2.1460247E0,8.269901E1,1.923927E0,2.0486946E0,2.738422E2,1.5306225E0,5.0048977E1,1.3377505E2,1.644275E0,3.2330408E0,2.7893269E1,1.5797126E0,3.3723447E0,1.8776871E0],"tree_param":{"num_deleted":"0","num_feature":"702","num_nodes":"83","size_leaf_vector":"1"}},{"base_weights":[2.295061E-3,-3.2594547E-1,1.1535513E0,-4.1837558E-1,1.2524395E0,1.330612E0,-7.9565585E-1,-5.4593307E-1,3.3634502E-1,1.3633419E0,-4.7599174E-2,1.2165976E0,1.4479302E0,-1.0490074E0,1.5437165E-1,-5.855015E-1,6.889759E-2,6.550846E-1,-1.2494136E0,8.5331726E-1,1.4156265E0,5.0182056E-2,-3.5299724E-1,7.3817514E-2,1.1293061E0,1.4516534E0,2.5247619E-2,-1.1475298E0,2.5169874E-2,7.7017164E-1,-5.8394518E-2,-2.0758155E-1,-8.2344E-1,-4.749161E-1,1.072275E0,-1.4600588E0,-4.292838E-2,1.8985377E-1,6.2115043E-2,7.405431E-1,1.4520153E0,4.710107E-1,-6.320206E-2,1.1841906E0,-6.517644E-2,7.290898E-2,7.128342E-1,9.733395E-3,-1.2012666E0,6.413225E-2,1.0702326E-1,-1.1031034E-2,5.8637805E-2,-4.509294E-2,5.6605745E-2,-3.2828987E-2,6.834145E-2,6.543505E-2,-1.022172E-2,-7.9680964E-2,1.2164317E-2,-2.2358906E-2,3.897992E-2,3.6725875E-2,-2.717243E-2,5.15731E-3,5.025467E-2,7.481276E-2,4.958371E-2,-1.6782172E-2,5.4744076E-2,4.2429518E-2,6.431424E-2,4.7705676E-2,-6.6244625E-2,4.957357E-2,6.7702675E-4,-2.845408E-2,-6.8298936E-2,-2.739319E-2,4.7375586E-2],"categories":[],"categories_nodes":[],"categories_segments":[],"categories_sizes":[],"default_left":[0,0,0,0,0,0,0,0,0,0,0,0,0,0,0,0,0,0,0,0,0,0,0,0,0,0,0,0,0,0,0,0,0,0,0,0,0,0,0,0,0,0,0,0,0,0,0,0,0,0,0,0,0,0,0,0,0,0,0,0,0,0,0,0,0,0,0,0,0,0,0,0,0,0,0,0,0,0,0,0,0],"id":8,"left_children":[1,3,5,7,9,11,13,15,17,19,21,23,25,27,29,31,-1,33,35,37,39,-1,41,-1,43,45,-1,47,-1,49,-1,51,53,55,57,59,61,63,-1,65,67,69,-1,71,73,-1,75,-1,77,-1,79,-1,-1,-1,-1,-1,-1,-1,-1,-1,-1,-1,-1,-1,-1,-1,-1,-1,-1,-1,-1,-1,-1,-1,-1,-1,-1,-1,-1,-1,-1],"loss_changes":[9.414488E2,2.8334927E2,1.9181995E2,1.7656229E2,1.5563293E1,5.021057E0,1.1390886E1,1.20142E2,1.3501486E2,1.4341431E0,3.3771257E0,4.305481E0,1.2591553E-1,6.230446E0,9.606834E0,1.3801434E2,0E0,1.0503521E2,1.1317413E1,2.79142E0,1.0950623E0,0E0,6.6279173E0,0E0,1.3281616E1,1.329956E-1,0E0,2.7624588E0,0E0,2.5470037E0,0E0,1.0968796E1,1.4558197E2,2.1132488E1,4.9240417E1,9.053719E0,2.9043617E0,2.6022193E0,0E0,1.002425E0,2.0225525E-1,2.857554E0,0E0,5.5081177E0,1.3842224E1,0E0,7.826321E-1,0E0,2.7472343E0,0E0,3.0148056E0,0E0,0E0,0E0,0E0,0E0,0E0,0E0,0E0,0E0,0E0,0E0,0E0,0E0,0E0,0E0,0E0,0E0,0E0,0E0,0E0,0E0,0E0,0E0,0E0,0E0,0E0,0E0,0E0,0E0,0E0],"parents":[2147483647,0,0,1,1,2,2,3,3,4,4,5,5,6,6,7,7,8,8,9,9,10,10,11,11,12,12,13,13,14,14,15,15,17,17,18,18,19,19,20,20,22,22,24,24,25,25,27,27,29,29,31,31,32,32,33,33,34,34,35,35,36,36,37,37,39,39,40,40,41,41,43,43,44,44,46,46,48,48,50,50],"right_children":[2,4,6,8,10,12,14,16,18,20,22,24,26,28,30,32,-1,34,36,38,40,-1,42,-1,44,46,-1,48,-1,50,-1,52,54,56,58,60,62,64,-1,66,68,70,-1,72,74,-1,76,-1,78,-1,80,-1,-1,-1,-1,-1,-1,-1,-1,-1,-1,-1,-1,-1,-1,-1,-1,-1,-1,-1,-1,-1,-1,-1,-1,-1,-1,-1,-1,-1,-1],"split_conditions":[1E0,1E0,1E2,1E0,1E2,1E0,1E0,1E0,1E2,1E0,1E2,1E0,1E0,1E0,1E0,1E0,6.889759E-2,1E0,1E0,1E0,1E0,5.0182056E-2,1E0,7.3817514E-2,1E0,1E0,2.5247619E-2,1E0,2.5169874E-2,1E0,-5.8394518E-2,1E0,1E0,1E0,1E2,1E0,1E0,1E0,6.2115043E-2,1E0,1E0,1E0,-6.320206E-2,1E0,1E0,7.290898E-2,1E0,9.733395E-3,1E2,6.413225E-2,1E0,-1.1031034E-2,5.8637805E-2,-4.509294E-2,5.6605745E-2,-3.2828987E-2,6.834145E-2,6.543505E-2,-1.022172E-2,-7.9680964E-2,1.2164317E-2,-2.2358906E-2,3.897992E-2,3.6725875E-2,-2.717243E-2,5.15731E-3,5.025467E-2,7.481276E-2,4.958371E-2,-1.6782172E-2,5.4744076E-2,4.2429518E-2,6.431424E-2,4.7705676E-2,-6.6244625E-2,4.957357E-2,6.7702675E-4,-2.845408E-2,-6.8298936E-2,-2.739319E-2,4.7375586E-2],"split_indices":[129,74,700,660,700,74,166,81,698,489,701,418,81,164,178,492,0,489,347,13,543,0,181,0,331,149,0,121,0,112,0,440,391,353,700,404,523,181,0,660,233,617,0,353,376,0,181,0,701,0,660,0,0,0,0,0,0,0,0,0,0,0,0,0,0,0,0,0,0,0,0,0,0,0,0,0,0,0,0,0,0],"split_type":[0,0,0,0,0,0,0,0,0,0,0,0,0,0,0,0,0,0,0,0,0,0,0,0,0,0,0,0,0,0,0,0,0,0,0,0,0,0,0,0,0,0,0,0,0,0,0,0,0,0,0,0,0,0,0,0,0,0,0,0,0,0,0,0,0,0,0,0,0,0,0,0,0,0,0,0,0,0,0,0,0],"sum_hessian":[2.489342E3,1.9376156E3,5.517265E2,1.8311202E3,1.0649536E2,5.0607355E2,4.565296E1,1.5666183E3,2.6450195E2,9.807977E1,8.4155855E0,2.6241672E2,2.4365681E2,3.5959232E1,9.69373E0,1.5357286E3,3.0889597E1,2.207232E2,4.377876E1,1.0730153E1,8.734962E1,1.3797784E0,7.035807E0,6.200276E1,2.0041397E2,2.4216124E2,1.4955767E0,3.4058537E1,1.9006968E0,6.8985105E0,2.7952194E0,5.940561E2,9.4167255E2,5.9479324E1,1.6124388E2,3.709246E1,6.686299E0,4.515848E0,6.214305E0,5.559565E0,8.1790054E1,3.947987E0,3.08782E0,1.9161804E2,8.795926E0,2.3907574E2,3.0855024E0,1.2101325E0,3.2848404E1,3.364381E0,3.5341294E0,5.893293E2,4.7268333E0,9.058849E2,3.578766E1,5.472494E1,4.754385E0,1.3602853E2,2.5215347E1,3.4455223E1,2.637238E0,4.7889805E0,1.8973185E0,2.5902622E0,1.925586E0,2.0383463E0,3.5212188E0,7.256597E1,9.224087E0,1.9232528E0,2.0247343E0,4.686776E1,1.4475029E2,4.9960256E0,3.7999005E0,1.9075935E0,1.177909E0,7.7103086E0,2.5138094E1,2.1820738E0,1.3520557E0],"tree_param":{"num_deleted":"0","num_feature":"702","num_nodes":"81","size_leaf_vector":"1"}},{"base_weights":[2.613361E-3,-3.1289303E-1,1.115281E0,-4.0230295E-1,1.227531E0,1.296157E0,-7.9999214E-1,-5.184554E-1,3.9973074E-1,1.336751E0,-4.2973552E-2,1.4075546E0,1.1606684E0,-1.0434545E0,1.5059368E-1,-5.6226665E-1,1.301349E0,9.261183E-1,-8.3628637E-1,1.3508378E0,5.8015627E-3,4.8974853E-2,-3.4149924E-1,1.4108506E0,2.4092255E-2,9.9601305E-1,1.3045692E0,-1.1419939E0,2.1793634E-2,7.4829364E-1,-5.6928433E-2,-1.7383651E-1,-7.6865834E-1,6.994323E-2,-4.5413654E-2,-3.0790278E-1,1.1437331E0,-1.0669346E0,3.9498883E-1,6.929722E-2,7.514507E-1,4.5775834E-1,-6.1465215E-2,1.4141173E0,2.4668254E-2,1.2569109E0,8.717979E-1,1.3367656E0,-2.1250537E-2,1.1317041E-2,-1.1959033E0,1.043443E0,-1.0001651E-2,-1.1191258E-2,6.814257E-2,-2.8854026E-2,-7.52086E-2,-2.3001594E-2,6.631466E-2,6.070258E-2,-2.9099986E-2,-5.8991056E-2,6.596161E-2,4.151187E-2,-5.7637035E-3,8.119807E-3,5.854986E-2,-1.6235294E-2,5.338152E-2,7.087104E-2,2.4668254E-2,6.524633E-2,-2.9397735E-3,-3.8643748E-2,5.2532304E-2,6.87831E-2,4.3504093E-2,-3.012758E-2,-6.744055E-2,6.0503047E-2,2.1426136E-2],"categories":[],"categories_nodes":[],"categories_segments":[],"categories_sizes":[],"default_left":[0,0,0,0,0,0,0,0,0,0,0,0,0,0,0,0,0,0,0,0,0,0,0,0,0,0,0,0,0,0,0,0,0,0,0,0,0,0,0,0,0,0,0,0,0,0,0,0,0,0,0,0,0,0,0,0,0,0,0,0,0,0,0,0,0,0,0,0,0,0,0,0,0,0,0,0,0,0,0,0,0],"id":9,"left_children":[1,3,5,7,9,11,13,15,17,19,21,23,25,27,29,31,33,35,37,39,-1,-1,41,43,-1,45,47,49,-1,51,-1,53,55,-1,-1,57,59,61,63,-1,65,67,-1,69,-1,71,73,75,-1,-1,77,79,-1,-1,-1,-1,-1,-1,-1,-1,-1,-1,-1,-1,-1,-1,-1,-1,-1,-1,-1,-1,-1,-1,-1,-1,-1,-1,-1,-1,-1],"loss_changes":[8.660341E2,2.6520557E2,1.89836E2,1.6950266E2,1.4722504E1,5.8879395E0,1.1183779E1,1.27326355E2,1.5071445E2,1.5172577E0,3.1837924E0,1.4025879E-1,4.163513E0,6.045372E0,9.010841E0,1.2422449E2,9.378704E0,4.3882324E1,2.0118217E1,9.816437E-1,0E0,0E0,6.215813E0,1.03515625E-1,0E0,2.525879E0,7.23967E0,2.9230385E0,0E0,2.4025288E0,0E0,4.1750107E1,1.4182605E2,0E0,0E0,6.84726E0,1.7454239E1,1.7364128E1,2.6880183E0,0E0,1.6643305E0,2.695037E0,0E0,1.09191895E-1,0E0,2.2108536E0,2.4041393E1,9.424286E-1,0E0,0E0,2.3403015E0,1.1037779E-1,0E0,0E0,0E0,0E0,0E0,0E0,0E0,0E0,0E0,0E0,0E0,0E0,0E0,0E0,0E0,0E0,0E0,0E0,0E0,0E0,0E0,0E0,0E0,0E0,0E0,0E0,0E0,0E0,0E0],"parents":[2147483647,0,0,1,1,2,2,3,3,4,4,5,5,6,6,7,7,8,8,9,9,10,10,11,11,12,12,13,13,14,14,15,15,16,16,17,17,18,18,19,19,22,22,23,23,25,25,26,26,27,27,29,29,31,31,32,32,35,35,36,36,37,37,38,38,40,40,41,41,43,43,45,45,46,46,47,47,50,50,51,51],"right_children":[2,4,6,8,10,12,14,16,18,20,22,24,26,28,30,32,34,36,38,40,-1,-1,42,44,-1,46,48,50,-1,52,-1,54,56,-1,-1,58,60,62,64,-1,66,68,-1,70,-1,72,74,76,-1,-1,78,80,-1,-1,-1,-1,-1,-1,-1,-1,-1,-1,-1,-1,-1,-1,-1,-1,-1,-1,-1,-1,-1,-1,-1,-1,-1,-1,-1,-1,-1],"split_conditions":[1E0,1E0,1E2,1E0,1E2,1E0,1E0,1E0,1E2,1E0,1E2,1E0,1E0,1E0,1E0,1E0,1E2,1E0,1E0,1E0,5.8015627E-3,4.8974853E-2,1E0,1E0,2.4092255E-2,1E0,1E0,1E0,2.1793634E-2,1E0,-5.6928433E-2,1E0,1E2,6.994323E-2,-4.5413654E-2,1E0,1E2,1E0,1E2,6.929722E-2,1E0,1E0,-6.1465215E-2,1E0,2.4668254E-2,1E0,1E0,1E0,-2.1250537E-2,1.1317041E-2,1E2,1E0,-1.0001651E-2,-1.1191258E-2,6.814257E-2,-2.8854026E-2,-7.52086E-2,-2.3001594E-2,6.631466E-2,6.070258E-2,-2.9099986E-2,-5.8991056E-2,6.596161E-2,4.151187E-2,-5.7637035E-3,8.119807E-3,5.854986E-2,-1.6235294E-2,5.338152E-2,7.087104E-2,2.4668254E-2,6.524633E-2,-2.9397735E-3,-3.8643748E-2,5.2532304E-2,6.87831E-2,4.3504093E-2,-3.012758E-2,-6.744055E-2,6.0503047E-2,2.1426136E-2],"split_indices":[514,74,700,617,700,181,166,2,700,156,701,186,660,136,178,632,700,489,166,166,0,0,181,201,0,376,347,344,0,29,0,371,698,0,0,91,698,157,698,0,660,617,0,297,0,73,603,350,0,0,701,376,0,0,0,0,0,0,0,0,0,0,0,0,0,0,0,0,0,0,0,0,0,0,0,0,0,0,0,0,0],"split_type":[0,0,0,0,0,0,0,0,0,0,0,0,0,0,0,0,0,0,0,0,0,0,0,0,0,0,0,0,0,0,0,0,0,0,0,0,0,0,0,0,0,0,0,0,0,0,0,0,0,0,0,0,0,0,0,0,0,0,0,0,0,0,0,0,0,0,0,0,0,0,0,0,0,0,0,0,0,0,0,0,0],"sum_hessian":[2.4649622E3,1.9209728E3,5.4398944E2,1.8162898E3,1.0468299E2,4.9734412E2,4.6645325E1,1.5868341E3,2.294556E2,9.634819E1,8.334798E0,2.6778488E2,2.2955922E2,3.705673E1,9.588598E0,1.5502045E3,3.662967E1,1.610986E2,6.835699E1,9.514366E1,1.2045308E0,1.3680432E0,6.966755E0,2.6631262E2,1.4722795E0,1.1075357E2,1.1880565E2,3.4956287E1,2.100441E0,6.8378754E0,2.7507234E0,5.385302E2,1.01167426E3,3.543286E1,1.1968094E0,2.4088106E1,1.370105E2,5.7684696E1,1.0672292E1,8.86397E1,6.5039554E0,3.9211152E0,3.0456395E0,2.648284E2,1.4842224E0,3.2781483E1,7.7972084E1,1.16857445E2,1.9482037E0,1.2037592E0,3.3752525E1,5.1383567E0,1.6995188E0,5.223911E2,1.6139101E1,8.0403375E2,2.0764052E2,2.2693993E1,1.3941125E0,1.3193121E2,5.0792956E0,5.55617E1,2.1229968E0,5.4210873E0,5.2512045E0,3.2824218E0,3.2215335E0,1.9223408E0,1.9987745E0,2.6334418E2,1.4842224E0,3.1635176E1,1.1463066E0,7.3216267E0,7.065046E1,1.06069244E2,1.0788195E1,7.92818E0,2.5824347E1,3.2813993E0,1.8569573E0],"tree_param":{"num_deleted":"0","num_feature":"702","num_nodes":"81","size_leaf_vector":"1"}},{"base_weights":[2.8339108E-3,-2.9915065E-1,1.0842949E0,-3.8444397E-1,1.1946707E0,1.2609481E0,-7.7331156E-1,-5.0703716E-1,3.392311E-1,1.3020093E0,-3.858306E-2,1.3729053E0,1.1256187E0,-1.0100112E0,1.4602578E-1,-5.4485065E-1,6.6975005E-2,6.33168E-1,-1.1592035E0,1.316053E0,5.6443424E-3,4.7827955E-2,-3.3065477E-1,1.3761609E0,2.3495108E-2,9.626064E-1,1.269058E0,-1.103105E0,2.4145627E-2,7.260607E-1,-5.555115E-2,-1.9184412E-1,-7.703866E-1,-4.3015558E-1,1.025042E0,-1.3714975E0,1.9859497E-2,1.3509303E0,7.291571E-1,4.4516918E-1,-5.9845787E-2,1.3793883E0,2.4054153E-2,1.219933E0,8.40719E-1,1.301057E0,-2.0536913E-2,1.1005928E-2,-1.1559181E0,6.1494846E-2,8.561807E-2,-1.0189354E-2,5.409202E-2,-5.1376518E-2,-8.622921E-3,-3.0318363E-2,6.663918E-2,6.2301666E-2,-8.359718E-3,-7.525573E-2,1.3229365E-2,4.0801138E-2,-1.926386E-2,4.6261404E-2,6.94026E-2,7.816515E-3,5.713759E-2,-1.5707506E-2,5.2095212E-2,6.913263E-2,2.4054153E-2,6.339458E-2,-3.1967831E-3,-3.693986E-2,5.075953E-2,6.698458E-2,4.209208E-2,-2.6155753E-2,-6.5871336E-2,-2.7177036E-2,4.5432072E-2],"categories":[],"categories_nodes":[],"categories_segments":[],"categories_sizes":[],"default_left":[0,0,0,0,0,0,0,0,0,0,0,0,0,0,0,0,0,0,0,0,0,0,0,0,0,0,0,0,0,0,0,0,0,0,0,0,0,0,0,0,0,0,0,0,0,0,0,0,0,0,0,0,0,0,0,0,0,0,0,0,0,0,0,0,0,0,0,0,0,0,0,0,0,0,0,0,0,0,0,0,0],"id":10,"left_children":[1,3,5,7,9,11,13,15,17,19,21,23,25,27,29,31,-1,33,35,37,-1,-1,39,41,-1,43,45,47,-1,49,-1,51,53,55,57,59,61,63,65,67,-1,69,-1,71,73,75,-1,-1,77,-1,79,-1,-1,-1,-1,-1,-1,-1,-1,-1,-1,-1,-1,-1,-1,-1,-1,-1,-1,-1,-1,-1,-1,-1,-1,-1,-1,-1,-1,-1,-1],"loss_changes":[7.9760016E2,2.437098E2,1.759143E2,1.6046588E2,1.3733002E1,5.8360596E0,1.0356312E1,1.0863934E2,1.1627869E2,1.4398499E0,3.0040462E0,1.23809814E-1,4.065674E0,5.7354507E0,8.44753E0,1.2048184E2,0E0,9.209648E1,1.0884254E1,9.372711E-1,0E0,0E0,5.8369055E0,8.9263916E-2,0E0,2.423935E0,6.8309784E0,2.7382317E0,0E0,2.4036622E0,0E0,9.2255535E0,1.4191553E2,1.942806E1,4.2633682E1,8.436653E0,2.7670543E0,9.802246E-2,1.5841482E0,2.5440884E0,0E0,9.466553E-2,0E0,2.1211739E0,2.2203476E1,9.1586304E-1,0E0,0E0,2.820263E0,0E0,2.8232198E0,0E0,0E0,0E0,0E0,0E0,0E0,0E0,0E0,0E0,0E0,0E0,0E0,0E0,0E0,0E0,0E0,0E0,0E0,0E0,0E0,0E0,0E0,0E0,0E0,0E0,0E0,0E0,0E0,0E0,0E0],"parents":[2147483647,0,0,1,1,2,2,3,3,4,4,5,5,6,6,7,7,8,8,9,9,10,10,11,11,12,12,13,13,14,14,15,15,17,17,18,18,19,19,22,22,23,23,25,25,26,26,27,27,29,29,31,31,32,32,33,33,34,34,35,35,36,36,37,37,38,38,39,39,41,41,43,43,44,44,45,45,48,48,50,50],"right_children":[2,4,6,8,10,12,14,16,18,20,22,24,26,28,30,32,-1,34,36,38,-1,-1,40,42,-1,44,46,48,-1,50,-1,52,54,56,58,60,62,64,66,68,-1,70,-1,72,74,76,-1,-1,78,-1,80,-1,-1,-1,-1,-1,-1,-1,-1,-1,-1,-1,-1,-1,-1,-1,-1,-1,-1,-1,-1,-1,-1,-1,-1,-1,-1,-1,-1,-1,-1],"split_conditions":[1E0,1E0,1E2,1E0,1E2,1E0,1E0,1E0,1E2,1E0,1E2,1E0,1E0,1E0,1E0,1E0,6.6975005E-2,1E0,1E0,1E0,5.6443424E-3,4.7827955E-2,1E0,1E0,2.3495108E-2,1E0,1E0,1E0,2.4145627E-2,1E0,-5.555115E-2,1E0,1E0,1E0,1E2,1E0,1E0,1E0,1E0,1E0,-5.9845787E-2,1E0,2.4054153E-2,1E0,1E0,1E0,-2.0536913E-2,1.1005928E-2,1E2,6.1494846E-2,1E0,-1.0189354E-2,5.409202E-2,-5.1376518E-2,-8.622921E-3,-3.0318363E-2,6.663918E-2,6.2301666E-2,-8.359718E-3,-7.525573E-2,1.3229365E-2,4.0801138E-2,-1.926386E-2,4.6261404E-2,6.94026E-2,7.816515E-3,5.713759E-2,-1.5707506E-2,5.2095212E-2,6.913263E-2,2.4054153E-2,6.339458E-2,-3.1967831E-3,-3.693986E-2,5.075953E-2,6.698458E-2,4.209208E-2,-2.6155753E-2,-6.5871336E-2,-2.7177036E-2,4.5432072E-2],"split_indices":[514,74,700,660,700,181,166,81,698,156,701,186,660,164,178,492,0,489,347,166,0,0,181,201,0,376,347,344,0,112,0,440,181,353,700,404,489,489,660,617,0,297,0,81,603,350,0,0,701,0,660,0,0,0,0,0,0,0,0,0,0,0,0,0,0,0,0,0,0,0,0,0,0,0,0,0,0,0,0,0,0],"split_type":[0,0,0,0,0,0,0,0,0,0,0,0,0,0,0,0,0,0,0,0,0,0,0,0,0,0,0,0,0,0,0,0,0,0,0,0,0,0,0,0,0,0,0,0,0,0,0,0,0,0,0,0,0,0,0,0,0,0,0,0,0,0,0,0,0,0,0,0,0,0,0,0,0,0,0,0,0,0,0,0,0],"sum_hessian":[2.440254E3,1.90815E3,5.321039E2,1.805787E3,1.02363106E2,4.8618976E2,4.59141E1,1.5444508E3,2.613362E2,9.41158E1,8.247305E0,2.6106628E2,2.2512349E2,3.643471E1,9.47939E0,1.5141489E3,3.0301882E1,2.1896156E2,4.237463E1,9.291175E1,1.2040459E0,1.3551105E0,6.8921947E0,2.5960632E2,1.459945E0,1.0898161E2,1.16141884E2,3.4541904E1,1.8928075E0,6.7754364E0,2.7039537E0,5.9098926E2,9.231596E2,5.8938446E1,1.6002312E2,3.577078E1,6.6038504E0,8.647123E1,6.440525E0,3.8923266E0,2.999868E0,2.5813446E2,1.471854E0,3.2133396E1,7.684821E1,1.1419207E2,1.9498107E0,1.2041538E0,3.333775E1,3.2770195E0,3.498417E0,5.863314E2,4.6578584E0,6.450376E2,2.7812204E2,5.417911E1,4.759336E0,1.349617E2,2.5061428E1,3.3143997E1,2.6267788E0,1.8851044E0,4.7187457E0,9.014885E0,7.7456345E1,3.278205E0,3.1623201E0,1.9212157E0,1.971111E0,2.5666263E2,1.471854E0,3.0988281E1,1.1451148E0,7.322458E0,6.952576E1,1.0356188E2,1.063019E1,7.6405234E0,2.5697226E1,2.1751826E0,1.3232341E0],"tree_param":{"num_deleted":"0","num_feature":"702","num_nodes":"81","size_leaf_vector":"1"}},{"base_weights":[3.0764053E-3,-2.8486714E-1,1.0602701E0,-3.6520636E-1,1.1545519E0,1.2249947E0,-7.168146E-1,-4.1690898E-1,1.2077945E0,1.2597653E0,-3.4405366E-2,1.1084677E0,1.3467501E0,-9.498545E-1,1.4268701E-1,-4.662548E-1,1.121415E0,1.3250597E0,-5.9841312E-2,7.4892116E-1,1.3149903E0,4.6736483E-2,-3.2039782E-1,6.916647E-2,1.0175263E0,1.3535755E0,6.147996E-1,-1.3346642E-1,-1.1466757E0,7.064624E-1,-5.425359E-2,-5.0553125E-1,1.1565844E0,1.3267249E0,-6.19099E-1,1.3681825E0,-9.406246E-3,1.0762139E-1,5.7285983E-2,6.351229E-1,1.3535677E0,4.331924E-1,-5.8330864E-2,1.0736701E0,-1.6800699E-1,6.787808E-2,2.116763E-2,4.555516E-2,-2.724653E-3,6.726151E-1,-7.076293E-1,-1.2269378E0,-1.2040242E-1,5.9910256E-2,8.575442E-2,-2.7053038E-2,6.8637334E-2,7.313116E-2,-2.405766E-3,6.7852624E-2,2.2752294E-2,-6.3004605E-2,1.2558169E-2,7.1260504E-2,4.078997E-2,3.2746077E-2,-2.9824728E-2,1.43841E-3,4.524089E-2,6.9997214E-2,4.4306096E-2,-1.5197997E-2,5.087803E-2,3.7088092E-2,5.884487E-2,4.2500723E-2,-6.778427E-2,2.9887503E-3,5.0755568E-2,-5.4463476E-2,1.0623164E-2,-3.4392085E-2,-6.842226E-2,-4.0407665E-2,3.257049E-2,-2.6233662E-2,4.4450093E-2],"categories":[],"categories_nodes":[],"categories_segments":[],"categories_sizes":[],"default_left":[0,0,0,0,0,0,0,0,0,0,0,0,0,0,0,0,0,0,0,0,0,0,0,0,0,0,0,0,0,0,0,0,0,0,0,0,0,0,0,0,0,0,0,0,0,0,0,0,0,0,0,0,0,0,0,0,0,0,0,0,0,0,0,0,0,0,0,0,0,0,0,0,0,0,0,0,0,0,0,0,0,0,0,0,0,0,0],"id":11,"left_children":[1,3,5,7,9,11,13,15,17,19,21,23,25,27,29,31,33,35,-1,37,39,-1,41,-1,43,45,47,49,51,53,-1,55,57,59,61,63,-1,65,-1,67,69,71,-1,73,75,-1,-1,-1,-1,77,79,81,83,-1,85,-1,-1,-1,-1,-1,-1,-1,-1,-1,-1,-1,-1,-1,-1,-1,-1,-1,-1,-1,-1,-1,-1,-1,-1,-1,-1,-1,-1,-1,-1,-1,-1],"loss_changes":[7.355166E2,2.200232E2,1.5228204E2,1.4684187E2,1.2631134E1,5.2280273E0,9.050085E0,1.3282138E2,1.780442E1,1.6239471E0,2.8366938E0,4.7840576E0,3.019104E-1,5.493946E0,7.939382E0,1.0826428E2,2.0283165E1,3.8670044E0,0E0,2.7634954E0,1.2943115E0,0E0,5.4877462E0,0E0,1.282048E1,2.5610352E-1,8.289077E-1,4.159373E0,2.1739082E0,2.249739E0,0E0,1.1086438E2,1.4900616E1,6.787338E-1,3.9024053E0,5.353775E-1,0E0,2.4870114E0,0E0,1.0032222E0,4.2514038E-1,2.4036565E0,0E0,5.3439484E0,1.2579893E1,0E0,0E0,0E0,0E0,7.4182475E-1,2.03464E0,1.0446053E0,2.200208E0,0E0,2.665045E0,0E0,0E0,0E0,0E0,0E0,0E0,0E0,0E0,0E0,0E0,0E0,0E0,0E0,0E0,0E0,0E0,0E0,0E0,0E0,0E0,0E0,0E0,0E0,0E0,0E0,0E0,0E0,0E0,0E0,0E0,0E0,0E0],"parents":[2147483647,0,0,1,1,2,2,3,3,4,4,5,5,6,6,7,7,8,8,9,9,10,10,11,11,12,12,13,13,14,14,15,15,16,16,17,17,19,19,20,20,22,22,24,24,25,25,26,26,27,27,28,28,29,29,31,31,32,32,33,33,34,34,35,35,37,37,39,39,40,40,41,41,43,43,44,44,49,49,50,50,51,51,52,52,54,54],"right_children":[2,4,6,8,10,12,14,16,18,20,22,24,26,28,30,32,34,36,-1,38,40,-1,42,-1,44,46,48,50,52,54,-1,56,58,60,62,64,-1,66,-1,68,70,72,-1,74,76,-1,-1,-1,-1,78,80,82,84,-1,86,-1,-1,-1,-1,-1,-1,-1,-1,-1,-1,-1,-1,-1,-1,-1,-1,-1,-1,-1,-1,-1,-1,-1,-1,-1,-1,-1,-1,-1,-1,-1,-1],"split_conditions":[1E0,1E0,1E2,1E0,1E2,1E0,1E0,1E0,1E2,1E0,1E2,1E0,1E0,1E0,1E0,1E0,1E2,1E0,-5.9841312E-2,1E0,1E0,4.6736483E-2,1E0,6.916647E-2,1E0,1E0,1E0,1E2,1E0,1E0,-5.425359E-2,1E0,1E2,1E0,1E0,1E2,-9.406246E-3,1E0,5.7285983E-2,1E0,1E0,1E0,-5.8330864E-2,1E0,1E0,6.787808E-2,2.116763E-2,4.555516E-2,-2.724653E-3,1E0,1E2,1E2,1E0,5.9910256E-2,1E0,-2.7053038E-2,6.8637334E-2,7.313116E-2,-2.405766E-3,6.7852624E-2,2.2752294E-2,-6.3004605E-2,1.2558169E-2,7.1260504E-2,4.078997E-2,3.2746077E-2,-2.9824728E-2,1.43841E-3,4.524089E-2,6.9997214E-2,4.4306096E-2,-1.5197997E-2,5.087803E-2,3.7088092E-2,5.884487E-2,4.2500723E-2,-6.778427E-2,2.9887503E-3,5.0755568E-2,-5.4463476E-2,1.0623164E-2,-3.4392085E-2,-6.842226E-2,-4.0407665E-2,3.257049E-2,-2.6233662E-2,4.4450093E-2],"split_indices":[129,74,700,391,700,74,166,2,698,489,701,418,149,418,178,502,700,497,0,13,543,0,181,0,331,81,181,701,350,112,0,81,700,249,241,700,0,181,0,660,233,617,0,353,376,0,0,0,0,136,698,701,618,0,660,0,0,0,0,0,0,0,0,0,0,0,0,0,0,0,0,0,0,0,0,0,0,0,0,0,0,0,0,0,0,0,0],"split_type":[0,0,0,0,0,0,0,0,0,0,0,0,0,0,0,0,0,0,0,0,0,0,0,0,0,0,0,0,0,0,0,0,0,0,0,0,0,0,0,0,0,0,0,0,0,0,0,0,0,0,0,0,0,0,0,0,0,0,0,0,0,0,0,0,0,0,0,0,0,0,0,0,0,0,0,0,0,0,0,0,0,0,0,0,0,0,0],"sum_hessian":[2.414195E3,1.8979805E3,5.1621466E2,1.798354E3,9.962642E1,4.7270825E2,4.350641E1,1.7418369E3,5.6517097E1,9.147228E1,8.154134E0,2.4670319E2,2.2600507E2,3.414376E1,9.362648E0,1.6883748E3,5.3462193E1,5.431719E1,2.1999097E0,1.0344505E1,8.112778E1,1.3411257E0,6.813008E0,5.7799232E1,1.8890396E2,2.2307564E2,2.9294243E0,6.9585876E0,2.7185175E1,6.707307E0,2.655341E0,1.64915E3,3.9224716E1,4.8033882E1,5.4283075E0,5.290531E1,1.411876E0,4.4399495E0,5.904556E0,5.2939377E0,7.583384E1,3.8619137E0,2.9510942E0,1.8045255E2,8.451419E0,2.2166638E2,1.4092602E0,1.7800729E0,1.1493514E0,2.8233483E0,4.1352396E0,2.5031965E1,2.1532097E0,3.2233176E0,3.4839895E0,1.6192325E3,2.9917494E1,3.1108017E1,8.116698E0,4.5880768E1,2.1531146E0,2.8679614E0,2.560346E0,4.652228E1,6.3830314E0,2.5374725E0,1.9024773E0,1.9704487E0,3.3234892E0,6.717439E1,8.659448E0,1.9199004E0,1.9420134E0,4.475067E1,1.3570187E2,4.7038274E0,3.747591E0,1.4332724E0,1.3900759E0,2.792913E0,1.3423265E0,6.4230585E0,1.8608906E1,1.1137116E0,1.0394981E0,2.1766527E0,1.3073366E0],"tree_param":{"num_deleted":"0","num_feature":"702","num_nodes":"87","size_leaf_vector":"1"}},{"base_weights":[3.3917152E-3,-2.7358326E-1,1.0285388E0,-3.370177E-1,1.4923319E0,1.1979139E0,-7.2646046E-1,-4.6061078E-1,4.4121057E-1,9.26882E-2,1.3003826E0,1.3139071E0,1.0595703E0,-9.516818E-1,1.3957472E-1,-5.028523E-1,1.195928E0,9.1541064E-1,-7.164371E-1,1.3260721E0,2.2707878E-2,1.3172252E0,2.1580601E-2,8.945525E-1,1.2069504E0,-1.0467225E0,2.0811815E-2,6.8801045E-1,-5.302781E-2,-1.2904385E-1,-7.042603E-1,6.4089805E-2,-4.3251242E-2,-2.7700883E-1,1.1041591E0,-9.4336563E-1,2.0254956E-1,2.073893E-2,6.7286745E-2,1.3205562E0,2.182289E-2,1.1585829E0,7.707845E-1,1.2396814E0,-2.1209186E-2,1.1076442E-2,-1.0998664E0,9.7624016E-1,-1.0339931E-2,-8.5969325E-3,6.69515E-2,-2.6117465E-2,-7.060345E-2,5.035415E-2,-2.3576431E-2,5.910317E-2,-1.1053298E-2,-5.2518416E-2,6.5247215E-2,3.4355827E-2,-4.117308E-2,6.619631E-2,2.182289E-2,6.0452342E-2,-6.3142725E-3,-3.7160452E-2,4.7221266E-2,6.396054E-2,3.8933624E-2,-5.8387395E-2,-3.796431E-3,5.7307642E-2,1.9007597E-2],"categories":[],"categories_nodes":[],"categories_segments":[],"categories_sizes":[],"default_left":[0,0,0,0,0,0,0,0,0,0,0,0,0,0,0,0,0,0,0,0,0,0,0,0,0,0,0,0,0,0,0,0,0,0,0,0,0,0,0,0,0,0,0,0,0,0,0,0,0,0,0,0,0,0,0,0,0,0,0,0,0,0,0,0,0,0,0,0,0,0,0,0,0],"id":12,"left_children":[1,3,5,7,9,11,13,15,17,-1,19,21,23,25,27,29,31,33,35,37,-1,39,-1,41,43,45,-1,47,-1,49,51,-1,-1,53,55,57,59,-1,-1,61,-1,63,65,67,-1,-1,69,71,-1,-1,-1,-1,-1,-1,-1,-1,-1,-1,-1,-1,-1,-1,-1,-1,-1,-1,-1,-1,-1,-1,-1,-1,-1],"loss_changes":[6.789636E2,2.113907E2,1.5206409E2,1.7507742E2,2.1311493E0,6.057556E0,8.986233E0,1.10423004E2,1.3772049E2,0E0,4.0009308E-1,1.5853882E-1,4.1951904E0,5.1355247E0,7.4696636E0,1.1518445E2,8.067532E0,4.0270126E1,1.5439072E1,2.3431396E-1,0E0,1.4807129E-1,0E0,2.5769958E0,6.4895935E0,2.541069E0,0E0,2.1709921E0,0E0,3.4067795E1,1.2734946E2,0E0,0E0,6.7357206E0,1.610884E1,1.5519783E1,8.173854E0,0E0,0E0,1.5362549E-1,0E0,2.221218E0,2.0493382E1,1.0041656E0,0E0,0E0,2.1969223E0,1.6687393E-1,0E0,0E0,0E0,0E0,0E0,0E0,0E0,0E0,0E0,0E0,0E0,0E0,0E0,0E0,0E0,0E0,0E0,0E0,0E0,0E0,0E0,0E0,0E0,0E0,0E0],"parents":[2147483647,0,0,1,1,2,2,3,3,4,4,5,5,6,6,7,7,8,8,10,10,11,11,12,12,13,13,14,14,15,15,16,16,17,17,18,18,19,19,21,21,23,23,24,24,25,25,27,27,29,29,30,30,33,33,34,34,35,35,36,36,39,39,41,41,42,42,43,43,46,46,47,47],"right_children":[2,4,6,8,10,12,14,16,18,-1,20,22,24,26,28,30,32,34,36,38,-1,40,-1,42,44,46,-1,48,-1,50,52,-1,-1,54,56,58,60,-1,-1,62,-1,64,66,68,-1,-1,70,72,-1,-1,-1,-1,-1,-1,-1,-1,-1,-1,-1,-1,-1,-1,-1,-1,-1,-1,-1,-1,-1,-1,-1,-1,-1],"split_conditions":[1E0,1E0,1E2,1E0,1E0,1E0,1E0,1E0,1E2,9.26882E-2,1E0,1E0,1E0,1E0,1E0,1E0,1E2,1E0,1E0,1E0,2.2707878E-2,1E0,2.1580601E-2,1E0,1E0,1E0,2.0811815E-2,1E0,-5.302781E-2,1E0,1E2,6.4089805E-2,-4.3251242E-2,1E0,1E0,1E0,1E0,2.073893E-2,6.7286745E-2,1E0,2.182289E-2,1E0,1E0,1E0,-2.1209186E-2,1.1076442E-2,1E0,1E0,-1.0339931E-2,-8.5969325E-3,6.69515E-2,-2.6117465E-2,-7.060345E-2,5.035415E-2,-2.3576431E-2,5.910317E-2,-1.1053298E-2,-5.2518416E-2,6.5247215E-2,3.4355827E-2,-4.117308E-2,6.619631E-2,2.182289E-2,6.0452342E-2,-6.3142725E-3,-3.7160452E-2,4.7221266E-2,6.396054E-2,3.8933624E-2,-5.8387395E-2,-3.796431E-3,5.7307642E-2,1.9007597E-2],"split_indices":[514,329,700,617,74,181,166,2,700,0,156,186,660,136,178,344,700,489,166,13,0,201,0,376,347,344,0,29,0,371,698,0,0,543,357,157,350,0,0,297,0,73,603,350,0,0,350,376,0,0,0,0,0,0,0,0,0,0,0,0,0,0,0,0,0,0,0,0,0,0,0,0,0],"split_type":[0,0,0,0,0,0,0,0,0,0,0,0,0,0,0,0,0,0,0,0,0,0,0,0,0,0,0,0,0,0,0,0,0,0,0,0,0,0,0,0,0,0,0,0,0,0,0,0,0,0,0,0,0,0,0,0,0,0,0,0,0,0,0,0,0,0,0,0,0,0,0,0,0],"sum_hessian":[2.3892305E3,1.8815934E3,5.076371E2,1.8171284E3,6.446495E1,4.6324658E2,4.4390514E1,1.5684463E3,2.4868216E2,1.9357681E1,4.5107265E1,2.4735548E2,2.1589108E2,3.51504E1,9.240117E0,1.5301246E3,3.8321552E1,1.7656584E2,7.2116325E1,4.3227917E1,1.8793507E0,2.459376E2,1.4178782E0,1.0518629E2,1.10704796E2,3.308641E1,2.0639856E0,6.6348457E0,2.6052709E0,5.3633685E2,9.9378784E2,3.7151707E1,1.1698439E0,2.406534E1,1.525005E2,5.781367E1,1.4302657E1,1.3796782E0,4.1848236E1,2.4451357E2,1.4240528E0,3.0902357E1,7.428393E1,1.0876232E2,1.9424746E0,1.2032392E0,3.1883173E1,4.949533E0,1.6853131E0,5.219686E2,1.43682165E1,7.919818E2,2.01806E2,2.616388E0,2.1448952E1,1.4413542E2,8.365068E0,5.569579E1,2.1178827E0,9.938963E0,4.3636937E0,2.4308951E2,1.4240528E0,2.97913E1,1.111058E0,7.305585E0,6.697834E1,9.853831E1,1.0224017E1,2.976919E1,2.1139817E0,3.133539E0,1.8159938E0],"tree_param":{"num_deleted":"0","num_feature":"702","num_nodes":"73","size_leaf_vector":"1"}},{"base_weights":[3.5866175E-3,-2.616697E-1,1.003053E0,-4.055089E-1,4.8290613E-1,1.1691223E0,-7.0246184E-1,-4.5038193E-1,9.919521E-1,7.298077E-1,-1.0732651E0,1.2864646E0,1.0302008E0,-9.214334E-1,1.3547659E-1,-4.846357E-1,6.33344E-2,1.2128172E0,-3.3196154E-1,-3.265202E-1,1.0529268E0,-1.2880929E0,4.5503624E-2,9.716771E-1,1.3052008E0,6.65786E-2,9.4077486E-1,-2.659578E-1,-1.1534454E0,6.6841596E-1,-5.1866878E-2,-1.4791995E-1,-7.038649E-1,6.279351E-2,1.264786E-2,4.3118787E-1,-9.073532E-1,-5.2723676E-1,1.3411897E0,1.2143049E0,2.885861E-5,-7.112589E-2,1.4042673E-2,-3.61185E-1,4.293181E-2,5.9325825E-2,2.92363E-1,7.630953E-1,1.3170618E0,5.6242263E-1,1.0809216E0,4.3947678E-2,-6.108801E-1,1.0362553E-2,-1.2281816E0,5.7728846E-2,6.6882975E-2,-7.940641E-3,5.091695E-2,-4.7391634E-2,-7.1911695E-3,-1.0581489E-2,4.8903458E-2,-6.1615272E-3,-5.920579E-2,-3.07699E-2,5.9431892E-2,3.2016944E-2,7.859088E-2,4.850082E-2,7.314905E-2,-3.0263541E-2,7.669047E-2,-5.6397866E-2,2.366854E-2,-3.2168265E-2,5.3732533E-2,2.344672E-3,5.4389186E-2,6.604614E-2,2.1054635E-2,6.0954403E-2,-1.1928423E-2,4.3925773E-2,6.2691204E-2,-5.2081235E-2,4.9017373E-2,-6.6635184E-2,-3.6712054E-3,-2.6005862E-2,4.2758435E-2],"categories":[],"categories_nodes":[],"categories_segments":[],"categories_sizes":[],"default_left":[0,0,0,0,0,0,0,0,0,0,0,0,0,0,0,0,0,0,0,0,0,0,0,0,0,0,0,0,0,0,0,0,0,0,0,0,0,0,0,0,0,0,0,0,0,0,0,0,0,0,0,0,0,0,0,0,0,0,0,0,0,0,0,0,0,0,0,0,0,0,0,0,0,0,0,0,0,0,0,0,0,0,0,0,0,0,0,0,0,0,0],"id":13,"left_children":[1,3,5,7,9,11,13,15,17,19,21,23,25,27,29,31,-1,33,35,37,39,41,43,45,47,-1,49,51,53,55,-1,57,59,-1,-1,61,63,65,67,69,71,-1,-1,73,-1,-1,75,77,79,81,83,-1,85,-1,87,-1,89,-1,-1,-1,-1,-1,-1,-1,-1,-1,-1,-1,-1,-1,-1,-1,-1,-1,-1,-1,-1,-1,-1,-1,-1,-1,-1,-1,-1,-1,-1,-1,-1,-1,-1],"loss_changes":[6.270857E2,2.0039142E2,1.4133142E2,9.872043E1,1.1724022E2,6.050232E0,8.316311E0,8.996066E1,1.4750591E1,8.9834274E1,1.0131176E1,1.5466309E-1,4.4660187E0,5.0954742E0,7.019511E0,1.09891815E2,0E0,1.4290276E0,3.8166065E0,2.152043E1,3.4154785E1,7.8217506E0,2.8620722E0,2.2021847E0,4.4030762E-1,0E0,8.249603E0,4.717496E0,2.892109E0,2.1357162E0,0E0,7.6426125E0,1.23137665E2,0E0,0E0,1.6241074E0,8.891573E-1,9.235539E0,1.1876202E-1,9.169189E0,2.665852E1,0E0,0E0,4.2761917E0,0E0,0E0,4.7347164E0,1.6210752E0,1.9995117E-1,2.5136147E1,3.126419E0,0E0,7.001588E0,0E0,2.887062E0,0E0,2.5010035E0,0E0,0E0,0E0,0E0,0E0,0E0,0E0,0E0,0E0,0E0,0E0,0E0,0E0,0E0,0E0,0E0,0E0,0E0,0E0,0E0,0E0,0E0,0E0,0E0,0E0,0E0,0E0,0E0,0E0,0E0,0E0,0E0,0E0,0E0],"parents":[2147483647,0,0,1,1,2,2,3,3,4,4,5,5,6,6,7,7,8,8,9,9,10,10,11,11,12,12,13,13,14,14,15,15,17,17,18,18,19,19,20,20,21,21,22,22,23,23,24,24,26,26,27,27,28,28,29,29,31,31,32,32,35,35,36,36,37,37,38,38,39,39,40,40,43,43,46,46,47,47,48,48,49,49,50,50,52,52,54,54,56,56],"right_children":[2,4,6,8,10,12,14,16,18,20,22,24,26,28,30,32,-1,34,36,38,40,42,44,46,48,-1,50,52,54,56,-1,58,60,-1,-1,62,64,66,68,70,72,-1,-1,74,-1,-1,76,78,80,82,84,-1,86,-1,88,-1,90,-1,-1,-1,-1,-1,-1,-1,-1,-1,-1,-1,-1,-1,-1,-1,-1,-1,-1,-1,-1,-1,-1,-1,-1,-1,-1,-1,-1,-1,-1,-1,-1,-1,-1],"split_conditions":[1E0,1E0,1E2,1E0,1E2,1E0,1E0,1E0,1E0,1E0,1E0,1E0,1E0,1E2,1E0,1E0,6.33344E-2,1E2,1E0,1E0,1E2,1E0,1E0,1E0,1E0,6.65786E-2,1E0,1E0,1E0,1E0,-5.1866878E-2,1E0,1E0,6.279351E-2,1.264786E-2,1E0,1E0,1E0,1E0,1E2,1E0,-7.112589E-2,1.4042673E-2,1E0,4.293181E-2,5.9325825E-2,1E0,1E0,1E0,1E0,1E0,4.3947678E-2,1E0,1.0362553E-2,1E0,5.7728846E-2,1E0,-7.940641E-3,5.091695E-2,-4.7391634E-2,-7.1911695E-3,-1.0581489E-2,4.8903458E-2,-6.1615272E-3,-5.920579E-2,-3.07699E-2,5.9431892E-2,3.2016944E-2,7.859088E-2,4.850082E-2,7.314905E-2,-3.0263541E-2,7.669047E-2,-5.6397866E-2,2.366854E-2,-3.2168265E-2,5.3732533E-2,2.344672E-3,5.4389186E-2,6.604614E-2,2.1054635E-2,6.0954403E-2,-1.1928423E-2,4.3925773E-2,6.2691204E-2,-5.2081235E-2,4.9017373E-2,-6.6635184E-2,-3.6712054E-3,-2.6005862E-2,4.2758435E-2],"split_indices":[514,660,700,74,698,181,166,81,166,489,347,489,418,701,178,492,0,700,604,353,700,404,523,543,543,0,353,181,456,112,0,440,181,0,0,350,376,2,29,699,347,0,0,418,0,0,612,4,186,376,660,0,618,0,350,0,660,0,0,0,0,0,0,0,0,0,0,0,0,0,0,0,0,0,0,0,0,0,0,0,0,0,0,0,0,0,0,0,0,0,0],"split_type":[0,0,0,0,0,0,0,0,0,0,0,0,0,0,0,0,0,0,0,0,0,0,0,0,0,0,0,0,0,0,0,0,0,0,0,0,0,0,0,0,0,0,0,0,0,0,0,0,0,0,0,0,0,0,0,0,0,0,0,0,0,0,0,0,0,0,0,0,0,0,0,0,0,0,0,0,0,0,0,0,0,0,0,0,0,0,0,0,0,0,0],"sum_hessian":[2.3633464E3,1.8682539E3,4.9509256E2,1.5661552E3,3.020988E2,4.514486E2,4.3643948E1,1.5180865E3,4.8068653E1,2.6118958E2,4.0909214E1,2.4025406E2,2.1119455E2,3.452276E1,9.121192E0,1.4890983E3,2.8988218E1,4.1267944E1,6.8007073E0,6.117809E1,2.0001147E2,3.4192223E1,6.716992E0,1.6466213E1,2.2378784E2,4.51491E1,1.6604544E2,9.586233E0,2.4936523E1,6.567104E0,2.5540876E0,5.8786566E2,9.0123267E2,3.920125E1,2.0666974E0,3.0311167E0,3.7695904E0,5.5216396E1,5.961692E0,1.7329688E2,2.6714603E1,3.1579842E1,2.612382E0,4.848048E0,1.8689433E0,1.1942612E1,4.5236015E0,6.1904507E0,2.175974E2,4.623595E1,1.19809494E2,1.8609285E0,7.725304E0,1.206011E0,2.3730513E1,3.123384E0,3.44372E0,5.832816E2,4.584023E0,6.272812E2,2.7395145E2,1.6751403E0,1.3559766E0,1.3604437E0,2.4091468E0,5.312804E1,2.0883546E0,2.4111114E0,3.5505805E0,8.989177E1,8.3405106E1,1.958919E1,7.1254134E0,2.3434083E0,2.50464E0,2.1406553E0,2.3829463E0,2.287993E0,3.9024577E0,2.1619148E2,1.4059194E0,2.5120108E1,2.1115845E1,5.799701E1,6.1812485E1,6.351383E0,1.373921E0,2.161954E1,2.1109736E0,2.168861E0,1.2748591E0],"tree_param":{"num_deleted":"0","num_feature":"702","num_nodes":"91","size_leaf_vector":"1"}},{"base_weights":[3.9077965E-3,-2.504208E-1,9.79297E-1,-3.0971354E-1,1.4379861E0,1.1420392E0,-6.806086E-1,-4.2447048E-1,4.1952696E-1,8.8507496E-2,1.2520013E0,1.2611092E0,1.0022157E0,-8.945297E-1,1.3269925E-1,-4.6415925E-1,1.1444409E0,8.709383E-1,-6.7315084E-1,1.2788914E0,2.1032149E-2,1.2645392E0,1.9688165E-2,6.521821E-2,9.133477E-1,-2.5074467E-1,-1.126682E0,6.517269E-1,-5.076465E-2,-1.1500063E-1,-6.552142E-1,1.227954E0,-4.195625E-2,-2.4724029E-1,1.0513695E0,-8.9711046E-1,2.209814E-1,1.872789E-2,6.4965926E-2,9.4704646E-1,1.2837926E0,5.423613E-1,1.0522183E0,6.577212E-1,-6.6416466E-1,1.0078571E-2,-1.2015516E0,9.346451E-1,-1.0320401E-2,-8.006028E-3,6.377154E-2,-2.4127565E-2,-6.72735E-2,2.1095056E-2,6.2375274E-2,-1.986911E-2,6.646179E-2,5.5531442E-2,-2.7124375E-2,-5.0128844E-2,6.389889E-2,3.3894E-2,-3.8483586E-2,2.1218408E-2,6.240307E-2,3.718665E-2,6.479381E-2,5.9493173E-2,-1.13308495E-2,4.2504396E-2,6.1347026E-2,4.7862804E-3,4.786567E-2,1.8449401E-2,-4.5341972E-2,-6.533685E-2,-3.5500624E-3,5.529532E-2,1.763217E-2],"categories":[],"categories_nodes":[],"categories_segments":[],"categories_sizes":[],"default_left":[0,0,0,0,0,0,0,0,0,0,0,0,0,0,0,0,0,0,0,0,0,0,0,0,0,0,0,0,0,0,0,0,0,0,0,0,0,0,0,0,0,0,0,0,0,0,0,0,0,0,0,0,0,0,0,0,0,0,0,0,0,0,0,0,0,0,0,0,0,0,0,0,0,0,0,0,0,0,0],"id":14,"left_children":[1,3,5,7,9,11,13,15,17,-1,19,21,23,25,27,29,31,33,35,37,-1,39,-1,-1,41,43,45,47,-1,49,51,53,-1,55,57,59,61,-1,-1,63,65,67,69,71,73,-1,75,77,-1,-1,-1,-1,-1,-1,-1,-1,-1,-1,-1,-1,-1,-1,-1,-1,-1,-1,-1,-1,-1,-1,-1,-1,-1,-1,-1,-1,-1,-1,-1],"loss_changes":[5.7998096E2,1.8609528E2,1.3139828E2,1.5017262E2,1.6814117E0,6.0737915E0,7.7393723E0,9.699417E1,1.2104088E2,0E0,4.4258118E-1,1.9866943E-1,4.382309E0,4.919857E0,6.6155744E0,1.0076413E2,7.409836E0,3.5213852E1,1.4607719E1,2.8914642E-1,0E0,2.0721436E-1,0E0,0E0,7.8647156E0,4.3847966E0,2.7578697E0,2.0114324E0,0E0,3.38201E1,1.1576895E2,6.2461853E-2,0E0,6.417485E0,1.471048E1,1.4527138E1,7.40886E0,0E0,0E0,2.1642237E0,4.5010376E-1,2.3502428E1,3.1269531E0,5.4647624E-1,2.270605E0,0E0,2.7720337E0,1.8951893E-1,0E0,0E0,0E0,0E0,0E0,0E0,0E0,0E0,0E0,0E0,0E0,0E0,0E0,0E0,0E0,0E0,0E0,0E0,0E0,0E0,0E0,0E0,0E0,0E0,0E0,0E0,0E0,0E0,0E0,0E0,0E0],"parents":[2147483647,0,0,1,1,2,2,3,3,4,4,5,5,6,6,7,7,8,8,10,10,11,11,12,12,13,13,14,14,15,15,16,16,17,17,18,18,19,19,21,21,24,24,25,25,26,26,27,27,29,29,30,30,31,31,33,33,34,34,35,35,36,36,39,39,40,40,41,41,42,42,43,43,44,44,46,46,47,47],"right_children":[2,4,6,8,10,12,14,16,18,-1,20,22,24,26,28,30,32,34,36,38,-1,40,-1,-1,42,44,46,48,-1,50,52,54,-1,56,58,60,62,-1,-1,64,66,68,70,72,74,-1,76,78,-1,-1,-1,-1,-1,-1,-1,-1,-1,-1,-1,-1,-1,-1,-1,-1,-1,-1,-1,-1,-1,-1,-1,-1,-1,-1,-1,-1,-1,-1,-1],"split_conditions":[1E0,1E0,1E2,1E0,1E0,1E0,1E0,1E0,1E2,8.8507496E-2,1E0,1E0,1E0,1E2,1E0,1E0,1E2,1E0,1E0,1E0,2.1032149E-2,1E0,1.9688165E-2,6.521821E-2,1E0,1E0,1E0,1E0,-5.076465E-2,1E0,1E2,1E0,-4.195625E-2,1E0,1E2,1E0,1E0,1.872789E-2,6.4965926E-2,1E0,1E0,1E0,1E0,1E0,1E0,1.0078571E-2,1E0,1E0,-1.0320401E-2,-8.006028E-3,6.377154E-2,-2.4127565E-2,-6.72735E-2,2.1095056E-2,6.2375274E-2,-1.986911E-2,6.646179E-2,5.5531442E-2,-2.7124375E-2,-5.0128844E-2,6.389889E-2,3.3894E-2,-3.8483586E-2,2.1218408E-2,6.240307E-2,3.718665E-2,6.479381E-2,5.9493173E-2,-1.13308495E-2,4.2504396E-2,6.1347026E-2,4.7862804E-3,4.786567E-2,1.8449401E-2,-4.5341972E-2,-6.533685E-2,-3.5500624E-3,5.529532E-2,1.763217E-2],"split_indices":[514,329,700,617,74,181,166,2,700,0,156,201,418,701,178,632,700,489,166,13,0,489,0,0,353,418,456,29,0,371,698,153,0,91,698,157,350,0,0,612,543,376,660,136,181,0,350,376,0,0,0,0,0,0,0,0,0,0,0,0,0,0,0,0,0,0,0,0,0,0,0,0,0,0,0,0,0,0,0],"split_type":[0,0,0,0,0,0,0,0,0,0,0,0,0,0,0,0,0,0,0,0,0,0,0,0,0,0,0,0,0,0,0,0,0,0,0,0,0,0,0,0,0,0,0,0,0,0,0,0,0,0,0,0,0,0,0,0,0,0,0,0,0,0,0,0,0,0,0,0,0,0,0,0,0,0,0,0,0,0,0],"sum_hessian":[2.3359905E3,1.8534536E3,4.825369E2,1.7913618E3,6.2091717E1,4.3973584E2,4.2801056E1,1.5481544E3,2.432074E2,1.9229916E1,4.28618E1,2.3316191E2,2.0657394E2,3.380864E1,8.992418E0,1.5106438E3,3.751062E1,1.7224982E2,7.095759E1,4.0997433E1,1.8643698E0,2.3178734E2,1.3745747E0,4.3840416E1,1.6273352E2,9.511699E0,2.429694E1,6.4903197E0,2.5020986E0,5.348293E2,9.758146E2,3.636068E1,1.1499403E0,2.3881252E1,1.4836856E2,5.674175E1,1.4215838E1,1.3327185E0,3.9664715E1,1.6121922E1,2.156654E2,4.566013E1,1.17073395E2,2.7899723E0,6.7217264E0,1.2061656E0,2.3090775E1,4.8140264E0,1.6762934E0,5.188764E2,1.5952861E1,7.819212E2,1.9389333E2,1.3957738E0,3.496491E1,2.2487497E1,1.3937553E0,1.433423E2,5.026258E0,5.463181E1,2.1099389E0,9.944887E0,4.2709517E0,6.7723293E0,9.349592E0,6.088671E0,2.0957674E2,2.4490818E1,2.1169312E1,5.699876E1,6.007463E1,1.4289567E0,1.3610156E0,1.1795329E0,5.5421934E0,2.0982718E1,2.108056E0,3.0239997E0,1.7900268E0],"tree_param":{"num_deleted":"0","num_feature":"702","num_nodes":"79","size_leaf_vector":"1"}},{"base_weights":[4.156023E-3,-2.3960656E-1,9.5673007E-1,-3.7431145E-1,4.6772313E-1,1.1164111E0,-6.602793E-1,-4.1288128E-1,1.1179798E0,6.97545E-1,-1.006822E0,1.2373637E0,9.755766E-1,-8.694137E-1,1.2887189E-1,-4.542092E-1,9.5482206E-1,1.2710689E0,-5.3851247E-2,-2.9475465E-1,1.0061275E0,-1.2272145E0,9.600961E-2,1.2408966E0,1.846969E-2,6.39547E-2,8.8714486E-1,-2.3764764E-1,-1.1015084E0,6.336382E-1,-4.971574E-2,-1.09825425E-1,-6.519297E-1,1.1647232E0,-2.4870314E-1,1.3114372E0,-1.0929442E-3,-4.8863816E-1,1.3046119E0,1.1601411E0,2.6044447E-2,-6.820378E-2,1.4457176E-2,4.438369E-2,-3.1285518E-1,9.2323977E-1,1.2603838E0,5.2323145E-1,1.0248284E0,4.182018E-2,-5.7122946E-1,9.8026525E-3,-1.176623E0,5.57737E-2,4.9675025E-2,-7.6871417E-3,6.359839E-2,-3.562816E-2,6.184264E-2,5.984339E-2,3.6217847E-3,2.1106204E-2,-3.991716E-2,6.78133E-2,1.3716427E-2,-2.8564025E-2,5.612132E-2,3.0624742E-2,7.648707E-2,4.591097E-2,7.0402235E-2,-2.8062163E-2,7.451651E-2,-5.6139976E-2,3.316664E-2,5.720521E-2,1.2577416E-2,6.321468E-2,1.8977879E-2,5.811664E-2,-1.0765082E-2,4.113775E-2,6.008501E-2,-4.9128197E-2,4.6770006E-2,-6.413489E-2,-3.4328743E-3,-2.5758093E-2,4.1205388E-2],"categories":[],"categories_nodes":[],"categories_segments":[],"categories_sizes":[],"default_left":[0,0,0,0,0,0,0,0,0,0,0,0,0,0,0,0,0,0,0,0,0,0,0,0,0,0,0,0,0,0,0,0,0,0,0,0,0,0,0,0,0,0,0,0,0,0,0,0,0,0,0,0,0,0,0,0,0,0,0,0,0,0,0,0,0,0,0,0,0,0,0,0,0,0,0,0,0,0,0,0,0,0,0,0,0,0,0,0,0],"id":15,"left_children":[1,3,5,7,9,11,13,15,17,19,21,23,25,27,29,31,33,35,-1,37,39,41,43,45,-1,-1,47,49,51,53,-1,55,57,59,61,63,-1,65,67,69,71,-1,-1,-1,73,75,77,79,81,-1,83,-1,85,-1,87,-1,-1,-1,-1,-1,-1,-1,-1,-1,-1,-1,-1,-1,-1,-1,-1,-1,-1,-1,-1,-1,-1,-1,-1,-1,-1,-1,-1,-1,-1,-1,-1,-1,-1],"loss_changes":[5.367181E2,1.7553656E2,1.2234427E2,8.947972E1,1.0063023E2,6.100769E0,7.201618E0,8.569272E1,1.4553497E1,7.859464E1,9.88163E0,2.3788452E-1,4.312332E0,4.7363796E0,6.2258754E0,9.9668945E1,1.1547405E1,1.9669456E0,0E0,1.9686035E1,2.9445755E1,7.357643E0,2.7436059E0,2.336731E-1,0E0,0E0,7.50148E0,4.2158566E0,2.6335678E0,2.0325425E0,0E0,3.26895E1,1.07427216E2,1.2518005E0,3.080958E0,1.30299E0,0E0,8.032578E0,1.4036655E-1,8.826569E0,2.4521246E1,0E0,0E0,0E0,5.3014145E0,2.202405E0,2.4313354E-1,2.1998112E1,3.1337128E0,0E0,6.2208614E0,0E0,2.667633E0,0E0,2.349827E0,0E0,0E0,0E0,0E0,0E0,0E0,0E0,0E0,0E0,0E0,0E0,0E0,0E0,0E0,0E0,0E0,0E0,0E0,0E0,0E0,0E0,0E0,0E0,0E0,0E0,0E0,0E0,0E0,0E0,0E0,0E0,0E0,0E0,0E0],"parents":[2147483647,0,0,1,1,2,2,3,3,4,4,5,5,6,6,7,7,8,8,9,9,10,10,11,11,12,12,13,13,14,14,15,15,16,16,17,17,19,19,20,20,21,21,22,22,23,23,26,26,27,27,28,28,29,29,31,31,32,32,33,33,34,34,35,35,37,37,38,38,39,39,40,40,44,44,45,45,46,46,47,47,48,48,50,50,52,52,54,54],"right_children":[2,4,6,8,10,12,14,16,18,20,22,24,26,28,30,32,34,36,-1,38,40,42,44,46,-1,-1,48,50,52,54,-1,56,58,60,62,64,-1,66,68,70,72,-1,-1,-1,74,76,78,80,82,-1,84,-1,86,-1,88,-1,-1,-1,-1,-1,-1,-1,-1,-1,-1,-1,-1,-1,-1,-1,-1,-1,-1,-1,-1,-1,-1,-1,-1,-1,-1,-1,-1,-1,-1,-1,-1,-1,-1],"split_conditions":[1E0,1E0,1E2,1E0,1E2,1E0,1E0,1E0,1E2,1E0,1E0,1E0,1E0,1E2,1E0,1E0,1E0,1E0,-5.3851247E-2,1E0,1E2,1E0,1E0,1E0,1.846969E-2,6.39547E-2,1E0,1E0,1E0,1E0,-4.971574E-2,1E0,1E0,1E2,1E0,1E0,-1.0929442E-3,1E0,1E0,1E2,1E0,-6.820378E-2,1.4457176E-2,4.438369E-2,1E0,1E0,1E0,1E0,1E0,4.182018E-2,1E0,9.8026525E-3,1E0,5.57737E-2,1E0,-7.6871417E-3,6.359839E-2,-3.562816E-2,6.184264E-2,5.984339E-2,3.6217847E-3,2.1106204E-2,-3.991716E-2,6.78133E-2,1.3716427E-2,-2.8564025E-2,5.612132E-2,3.0624742E-2,7.648707E-2,4.591097E-2,7.0402235E-2,-2.8062163E-2,7.451651E-2,-5.6139976E-2,3.316664E-2,5.720521E-2,1.2577416E-2,6.321468E-2,1.8977879E-2,5.811664E-2,-1.0765082E-2,4.113775E-2,6.008501E-2,-4.9128197E-2,4.6770006E-2,-6.413489E-2,-3.4328743E-3,-2.5758093E-2,4.1205388E-2],"split_indices":[514,660,700,391,698,181,166,74,698,489,347,297,418,701,178,632,166,231,0,353,700,404,489,489,0,0,353,181,456,112,0,371,81,698,181,608,0,2,29,699,347,0,0,0,418,543,186,376,660,0,618,0,350,0,660,0,0,0,0,0,0,0,0,0,0,0,0,0,0,0,0,0,0,0,0,0,0,0,0,0,0,0,0,0,0,0,0,0,0],"split_type":[0,0,0,0,0,0,0,0,0,0,0,0,0,0,0,0,0,0,0,0,0,0,0,0,0,0,0,0,0,0,0,0,0,0,0,0,0,0,0,0,0,0,0,0,0,0,0,0,0,0,0,0,0,0,0,0,0,0,0,0,0,0,0,0,0,0,0,0,0,0,0,0,0,0,0,0,0,0,0,0,0,0,0,0,0,0,0,0,0],"sum_hessian":[2.309441E3,1.839471E3,4.6997E2,1.5455962E3,2.9387473E2,4.2801294E2,4.1957054E1,1.5073602E3,3.8235996E1,2.5470369E2,3.9171043E1,2.2607101E2,2.0194194E2,3.308692E1,8.870132E0,1.4637965E3,4.3563663E1,3.61366E1,2.0993967E0,6.0428936E1,1.9427475E2,3.2552826E1,6.6182184E0,2.2472667E2,1.3443524E0,4.252439E1,1.5941754E2,9.433283E0,2.365364E1,6.4205556E0,2.4495769E0,5.344546E2,9.293419E2,3.7121685E1,6.4419785E0,3.5028606E1,1.1079935E0,5.4514843E1,5.9140925E0,1.677329E2,2.6541853E1,2.9950066E1,2.6027613E0,1.8551385E0,4.76308E0,1.57856865E1,2.0894098E2,4.5076214E1,1.1434133E2,1.878295E0,7.554988E0,1.2062542E0,2.2447386E1,3.0191975E0,3.4013581E0,5.1885266E2,1.56019125E1,9.010397E2,2.8302305E1,3.5967464E1,1.1542213E0,3.0056403E0,3.4363382E0,3.3282257E1,1.7463498E0,5.2468773E1,2.0460725E0,2.3647523E0,3.5493402E0,8.727134E1,8.046156E1,1.9384096E1,7.1577554E0,2.5211177E0,2.2419622E0,1.1350211E1,4.4354753E0,2.0758424E2,1.3567266E0,2.3857183E1,2.1219032E1,5.600646E1,5.8334873E1,6.207955E0,1.347033E0,2.034216E1,2.1052272E0,2.1604269E0,1.2409313E0],"tree_param":{"num_deleted":"0","num_feature":"702","num_nodes":"89","size_leaf_vector":"1"}},{"base_weights":[4.4814963E-3,-2.2940476E-1,9.353731E-1,-2.8494495E-1,1.3912566E0,1.092099E0,-6.4054316E-1,-3.9200333E-1,4.0394375E-1,1.4136059E0,6.5165884E-3,1.2151214E0,9.501295E-1,-8.515723E-2,-9.318934E-1,-4.2975733E-1,1.1107435E0,8.3414006E-1,-6.2978584E-1,8.910107E-2,1.2037443E0,1.2187238E0,1.769608E-2,6.277709E-2,8.6203384E-1,5.358563E-1,-5.48179E-1,-1.0272503E0,3.5533074E-2,-1.2381206E-1,-6.2478733E-1,1.1914515E0,-4.02791E-2,-2.0400402E-1,1.0049381E0,-7.163393E-1,7.423508E-2,1.238608E0,6.6386245E-4,9.0057987E-1,1.2384562E0,5.049478E-1,9.9860233E-1,8.9938825E-1,-1.4384947E-2,-1.0668727E0,4.994388E-2,-1.1048129E0,-9.921747E-2,-6.5389723E-3,6.563248E-2,-5.2806266E-2,-1.6822351E-2,1.8895851E-2,6.0587574E-2,5.031685E-2,-1.9679677E-2,5.4060776E-2,-1.1169343E-2,-1.2464757E-2,-5.516081E-2,1.6853668E-2,6.299914E-2,1.897033E-2,6.0451627E-2,3.4449793E-2,6.2555306E-2,5.681485E-2,-1.0229199E-2,3.982095E-2,5.889557E-2,1.0528526E-2,5.450171E-2,-6.0798157E-2,-4.527928E-3,-2.9190674E-2,-6.283252E-2,-3.8789745E-2,3.19971E-2],"categories":[],"categories_nodes":[],"categories_segments":[],"categories_sizes":[],"default_left":[0,0,0,0,0,0,0,0,0,0,0,0,0,0,0,0,0,0,0,0,0,0,0,0,0,0,0,0,0,0,0,0,0,0,0,0,0,0,0,0,0,0,0,0,0,0,0,0,0,0,0,0,0,0,0,0,0,0,0,0,0,0,0,0,0,0,0,0,0,0,0,0,0,0,0,0,0,0,0],"id":16,"left_children":[1,3,5,7,9,11,13,15,17,19,-1,21,23,25,27,29,31,33,35,-1,37,39,-1,-1,41,43,45,47,-1,49,51,53,-1,55,57,59,-1,61,-1,63,65,67,69,71,-1,73,-1,75,77,-1,-1,-1,-1,-1,-1,-1,-1,-1,-1,-1,-1,-1,-1,-1,-1,-1,-1,-1,-1,-1,-1,-1,-1,-1,-1,-1,-1,-1,-1],"loss_changes":[4.9704193E2,1.6462488E2,1.1391974E2,1.303218E2,1.5242233E0,6.133972E0,6.7321606E0,8.716902E1,1.0631163E2,2.4526825E0,0E0,2.511902E-1,4.2536163E0,4.775096E0,5.0389423E0,8.89057E1,6.7947845E0,3.0065361E1,1.3961433E1,0E0,1.6838875E0,2.5738525E-1,0E0,0E0,7.1576767E0,2.4031146E0,8.626765E0,1.7913761E0,0E0,5.9946184E0,1.1288339E2,1.46595E-1,0E0,6.046347E0,1.380661E1,1.207996E1,0E0,3.4207153E-1,0E0,2.1834373E0,5.505676E-1,2.0609375E1,3.144928E0,4.548335E-1,0E0,9.874201E-1,0E0,1.1866074E0,2.0646117E0,0E0,0E0,0E0,0E0,0E0,0E0,0E0,0E0,0E0,0E0,0E0,0E0,0E0,0E0,0E0,0E0,0E0,0E0,0E0,0E0,0E0,0E0,0E0,0E0,0E0,0E0,0E0,0E0,0E0,0E0],"parents":[2147483647,0,0,1,1,2,2,3,3,4,4,5,5,6,6,7,7,8,8,9,9,11,11,12,12,13,13,14,14,15,15,16,16,17,17,18,18,20,20,21,21,24,24,25,25,26,26,27,27,29,29,30,30,31,31,33,33,34,34,35,35,37,37,39,39,40,40,41,41,42,42,43,43,45,45,47,47,48,48],"right_children":[2,4,6,8,10,12,14,16,18,20,-1,22,24,26,28,30,32,34,36,-1,38,40,-1,-1,42,44,46,48,-1,50,52,54,-1,56,58,60,-1,62,-1,64,66,68,70,72,-1,74,-1,76,78,-1,-1,-1,-1,-1,-1,-1,-1,-1,-1,-1,-1,-1,-1,-1,-1,-1,-1,-1,-1,-1,-1,-1,-1,-1,-1,-1,-1,-1,-1],"split_conditions":[1E0,1E0,1E2,1E0,1E2,1E0,1E0,1E0,1E2,1E0,6.5165884E-3,1E0,1E0,1E0,1E0,1E0,1E2,1E0,1E0,8.910107E-2,1E0,1E0,1.769608E-2,6.277709E-2,1E0,1E0,1E0,1E0,3.5533074E-2,1E0,1E0,1E0,-4.02791E-2,1E0,1E0,1E2,7.423508E-2,1E0,6.6386245E-4,1E0,1E0,1E0,1E0,1E0,-1.4384947E-2,1E0,4.994388E-2,1E2,1E0,-6.5389723E-3,6.563248E-2,-5.2806266E-2,-1.6822351E-2,1.8895851E-2,6.0587574E-2,5.031685E-2,-1.9679677E-2,5.4060776E-2,-1.1169343E-2,-1.2464757E-2,-5.516081E-2,1.6853668E-2,6.299914E-2,1.897033E-2,6.0451627E-2,3.4449793E-2,6.2555306E-2,5.681485E-2,-1.0229199E-2,3.982095E-2,5.889557E-2,1.0528526E-2,5.450171E-2,-6.0798157E-2,-4.527928E-3,-2.9190674E-2,-6.283252E-2,-3.8789745E-2,3.19971E-2],"split_indices":[514,329,700,617,700,181,418,2,700,74,0,201,418,153,91,264,700,489,569,0,156,489,0,0,353,349,618,350,0,604,489,153,0,543,357,698,0,13,0,612,543,376,660,181,0,74,0,701,618,0,0,0,0,0,0,0,0,0,0,0,0,0,0,0,0,0,0,0,0,0,0,0,0,0,0,0,0,0,0],"split_type":[0,0,0,0,0,0,0,0,0,0,0,0,0,0,0,0,0,0,0,0,0,0,0,0,0,0,0,0,0,0,0,0,0,0,0,0,0,0,0,0,0,0,0,0,0,0,0,0,0,0,0,0,0,0,0,0,0,0,0,0,0,0,0,0,0,0,0,0,0,0,0,0,0,0,0,0,0,0,0],"sum_hessian":[2.2809268E3,1.8235211E3,4.574056E2,1.7638964E3,5.9624676E1,4.1631027E2,4.1095318E1,1.5270176E3,2.3687881E2,5.8467278E1,1.1573968E0,2.1898857E2,1.9732172E2,1.458499E1,2.6510328E1,1.4902905E3,3.6727055E1,1.674048E2,6.9474014E1,1.8499575E1,3.9967705E1,2.1766296E2,1.3256012E0,4.1208176E1,1.5611354E2,6.162468E0,8.422522E0,2.540979E1,1.1005378E0,5.8080743E2,9.0948303E2,3.5605747E1,1.1213102E0,2.3623304E1,1.4378151E2,6.737724E1,2.0967658E0,3.8791233E1,1.1764693E0,1.5435653E1,2.0222731E2,4.4488E1,1.11625534E2,4.2114005E0,1.9510674E0,6.5401425E0,1.8823795E0,2.327411E1,2.135678E0,5.789085E2,1.8989694E0,3.6331903E2,5.46164E2,1.3444072E0,3.4261337E1,2.6158316E0,2.1007471E1,1.3548766E2,8.293843E0,3.127089E1,3.6106358E1,1.2867981E0,3.7504436E1,6.5680532E0,8.8675995E0,5.799253E0,1.9642805E2,2.3222706E1,2.1265295E1,5.5023903E1,5.660163E1,1.369133E0,2.8422675E0,5.460778E0,1.0793641E0,6.345572E0,1.692854E1,1.0891651E0,1.0465131E0],"tree_param":{"num_deleted":"0","num_feature":"702","num_nodes":"79","size_leaf_vector":"1"}},{"base_weights":[4.7096107E-3,-2.194487E-1,9.148544E-1,-3.4551975E-1,4.523351E-1,1.0689429E0,-6.2164956E-1,-3.8204175E-1,1.0795537E0,6.7214185E-1,-9.6374446E-1,1.1941735E0,9.257419E-1,-8.240156E-1,1.3163574E-1,-4.2075595E-1,9.236942E-1,1.2279717E0,-5.195747E-2,-2.4277975E-1,9.5989543E-1,-1.1887845E0,1.295265E-1,1.1978823E0,1.6640488E-2,6.1675817E-2,8.3790064E-1,-2.1235201E-1,-1.0572548E0,6.0903716E-1,-4.7525633E-2,-9.7882085E-2,-6.093951E-1,1.1319716E0,-2.4224882E-1,1.2681044E0,-1.650813E-3,-4.3153146E-1,1.2892817E0,1.109031E0,3.920684E-2,-6.6433154E-2,1.5084651E-2,-2.7840587E-1,4.4973087E-2,8.7846875E-1,1.2179592E0,4.8743725E-1,9.734106E-1,4.0826716E-2,-5.409714E-1,9.372303E-3,-1.1330864E0,8.8353693E-1,-1.0140306E-2,-6.9896835E-3,6.1362524E-2,-2.1884423E-2,-6.354089E-2,5.8872502E-2,1.2202029E-2,2.1025665E-2,-3.9601576E-2,6.5609485E-2,1.3139605E-2,-2.498289E-2,6.2142707E-2,7.1205646E-2,2.1380743E-2,4.3399993E-2,6.7913726E-2,-2.6186362E-2,7.114939E-2,-5.1956136E-2,2.524042E-2,5.5299606E-2,1.0631102E-2,6.1104625E-2,1.702514E-2,5.5579174E-2,-9.721402E-3,3.8549807E-2,5.7770383E-2,-4.6687547E-2,4.463867E-2,-6.2076796E-2,-3.1420735E-3,5.3199023E-2,1.5265174E-2],"categories":[],"categories_nodes":[],"categories_segments":[],"categories_sizes":[],"default_left":[0,0,0,0,0,0,0,0,0,0,0,0,0,0,0,0,0,0,0,0,0,0,0,0,0,0,0,0,0,0,0,0,0,0,0,0,0,0,0,0,0,0,0,0,0,0,0,0,0,0,0,0,0,0,0,0,0,0,0,0,0,0,0,0,0,0,0,0,0,0,0,0,0,0,0,0,0,0,0,0,0,0,0,0,0,0,0,0,0],"id":17,"left_children":[1,3,5,7,9,11,13,15,17,19,21,23,25,27,29,31,33,35,-1,37,39,41,43,45,-1,-1,47,49,51,53,-1,55,57,59,61,63,-1,65,67,69,71,-1,-1,73,-1,75,77,79,81,-1,83,-1,85,87,-1,-1,-1,-1,-1,-1,-1,-1,-1,-1,-1,-1,-1,-1,-1,-1,-1,-1,-1,-1,-1,-1,-1,-1,-1,-1,-1,-1,-1,-1,-1,-1,-1,-1,-1],"loss_changes":[4.604582E2,1.5353152E2,1.06262024E2,7.9803085E1,8.985239E1,6.170532E0,6.401808E0,7.5607834E1,1.334388E1,6.570086E1,9.729084E0,2.817688E-1,4.204071E0,4.437708E0,5.5407586E0,8.800165E1,1.0755356E1,1.8800735E0,0E0,1.7992483E1,2.5959076E1,7.1502E0,2.6202424E0,2.876587E-1,0E0,0E0,6.831352E0,3.9150493E0,2.4217262E0,1.8001783E0,0E0,2.9851156E1,1.03070465E2,1.1985245E0,3.0167484E0,1.2164612E0,0E0,6.8299103E0,1.8853092E-1,8.609634E0,2.2117167E1,0E0,0E0,3.918102E0,0E0,2.2050037E0,2.9684448E-1,1.9324308E1,3.1591034E0,0E0,5.5569744E0,0E0,2.499237E0,2.6181602E-1,0E0,0E0,0E0,0E0,0E0,0E0,0E0,0E0,0E0,0E0,0E0,0E0,0E0,0E0,0E0,0E0,0E0,0E0,0E0,0E0,0E0,0E0,0E0,0E0,0E0,0E0,0E0,0E0,0E0,0E0,0E0,0E0,0E0,0E0,0E0],"parents":[2147483647,0,0,1,1,2,2,3,3,4,4,5,5,6,6,7,7,8,8,9,9,10,10,11,11,12,12,13,13,14,14,15,15,16,16,17,17,19,19,20,20,21,21,22,22,23,23,26,26,27,27,28,28,29,29,31,31,32,32,33,33,34,34,35,35,37,37,38,38,39,39,40,40,43,43,45,45,46,46,47,47,48,48,50,50,52,52,53,53],"right_children":[2,4,6,8,10,12,14,16,18,20,22,24,26,28,30,32,34,36,-1,38,40,42,44,46,-1,-1,48,50,52,54,-1,56,58,60,62,64,-1,66,68,70,72,-1,-1,74,-1,76,78,80,82,-1,84,-1,86,88,-1,-1,-1,-1,-1,-1,-1,-1,-1,-1,-1,-1,-1,-1,-1,-1,-1,-1,-1,-1,-1,-1,-1,-1,-1,-1,-1,-1,-1,-1,-1,-1,-1,-1,-1],"split_conditions":[1E0,1E0,1E2,1E0,1E2,1E0,1E0,1E0,1E2,1E0,1E0,1E0,1E0,1E2,1E0,1E0,1E0,1E0,-5.195747E-2,1E0,1E2,1E0,1E0,1E0,1.6640488E-2,6.1675817E-2,1E0,1E0,1E0,1E0,-4.7525633E-2,1E0,1E2,1E2,1E0,1E0,-1.650813E-3,1E0,1E0,1E2,1E0,-6.6433154E-2,1.5084651E-2,1E0,4.4973087E-2,1E0,1E0,1E0,1E0,4.0826716E-2,1E0,9.372303E-3,1E0,1E0,-1.0140306E-2,-6.9896835E-3,6.1362524E-2,-2.1884423E-2,-6.354089E-2,5.8872502E-2,1.2202029E-2,2.1025665E-2,-3.9601576E-2,6.5609485E-2,1.3139605E-2,-2.498289E-2,6.2142707E-2,7.1205646E-2,2.1380743E-2,4.3399993E-2,6.7913726E-2,-2.6186362E-2,7.114939E-2,-5.1956136E-2,2.524042E-2,5.5299606E-2,1.0631102E-2,6.1104625E-2,1.702514E-2,5.5579174E-2,-9.721402E-3,3.8549807E-2,5.7770383E-2,-4.6687547E-2,4.463867E-2,-6.2076796E-2,-3.1420735E-3,5.3199023E-2,1.5265174E-2],"split_indices":[514,660,700,391,698,181,166,74,698,489,347,297,418,701,178,632,166,231,0,353,700,404,32,489,0,0,353,181,456,29,0,371,698,700,617,608,0,340,136,699,347,0,0,418,0,543,186,376,660,0,618,0,350,376,0,0,0,0,0,0,0,0,0,0,0,0,0,0,0,0,0,0,0,0,0,0,0,0,0,0,0,0,0,0,0,0,0,0,0],"split_type":[0,0,0,0,0,0,0,0,0,0,0,0,0,0,0,0,0,0,0,0,0,0,0,0,0,0,0,0,0,0,0,0,0,0,0,0,0,0,0,0,0,0,0,0,0,0,0,0,0,0,0,0,0,0,0,0,0,0,0,0,0,0,0,0,0,0,0,0,0,0,0,0,0,0,0,0,0,0,0,0,0,0,0,0,0,0,0,0,0],"sum_hessian":[2.2549812E3,1.8099662E3,4.450152E2,1.5243778E3,2.8558835E2,4.04731E2,4.0284206E1,1.4870006E3,3.7377186E1,2.4766988E2,3.7918476E1,2.119979E2,1.9273308E2,3.167972E1,8.604485E0,1.4448398E3,4.2160767E1,3.5323166E1,2.0540195E0,5.9295197E1,1.8837468E2,3.1373217E1,6.54526E0,2.1069998E2,1.2979183E0,3.9897915E1,1.5283516E2,9.272716E0,2.2407005E1,6.2738876E0,2.330597E0,5.333977E2,9.114421E2,3.5795586E1,6.3651805E0,3.422816E1,1.0950047E0,5.3430794E1,5.8644013E0,1.6193883E2,2.6435852E1,2.8780762E1,2.5924542E0,4.6957364E0,1.8495238E0,1.5107142E1,1.9559283E2,4.3898773E1,1.08936386E2,1.8852805E0,7.3874345E0,1.2022007E0,2.1204805E1,4.6225915E0,1.6512964E0,5.179116E2,1.5486117E1,7.2491455E2,1.8652756E2,3.3741344E1,2.0542417E0,2.992661E0,3.3725195E0,3.2497803E1,1.7303584E0,5.2015987E1,1.4148066E0,4.5064964E0,1.357905E0,8.46045E1,7.7334335E1,1.923316E1,7.2026925E0,2.2163289E0,2.4794073E0,1.0766977E1,4.3401647E0,1.9428487E2,1.3079712E0,2.2590406E1,2.1308367E1,5.4054302E1,5.4882088E1,6.072566E0,1.3148686E0,1.9108467E1,2.096338E0,2.8828998E0,1.7396915E0],"tree_param":{"num_deleted":"0","num_feature":"702","num_nodes":"89","size_leaf_vector":"1"}},{"base_weights":[4.9274326E-3,-2.1010475E-1,8.953538E-1,-2.6204053E-1,1.3476677E0,1.0468142E0,-6.036728E-1,-3.6229014E-1,3.9188558E-1,1.3701075E0,6.4095147E-3,1.1744163E0,9.0229785E-1,-7.264578E-2,-8.878878E-1,-3.931502E-1,1.4467936E0,7.986252E-1,-5.8123E-1,1.3991115E0,-4.6257704E-4,1.1782238E0,1.581848E-2,7.360119E-1,1.0595326E0,5.213635E-1,-5.27002E-1,-9.804742E-1,3.4018483E-2,-4.3825004E-1,8.3916724E-1,1.6198407E0,-1.872162E-1,-1.7515051E-1,9.622069E-1,-8.036893E-1,2.7810416E-1,8.558443E-2,1.2025219E0,8.57319E-1,1.1986495E0,6.697304E-1,6.442978E-2,1.0966113E0,-2.494493E-2,8.7175167E-1,-1.3912392E-2,-1.0296384E0,4.783882E-2,-1.0585333E0,-9.13954E-2,-5.5732033E-3,-3.2933224E-2,6.745849E-2,-6.945274E-2,8.493283E-2,4.572176E-3,-4.0818945E-2,3.0069172E-2,-3.1701054E-2,1.6540317E-2,5.1789284E-2,-9.714167E-3,-4.5624E-2,6.491736E-2,3.5278823E-2,-3.4097582E-2,1.50603E-2,6.1250158E-2,1.6855912E-2,5.8719423E-2,3.185692E-2,6.0599517E-2,4.332767E-3,3.7480414E-2,5.703894E-2,3.0566102E-2,1.0104786E-2,5.2942034E-2,-5.8787134E-2,-4.6111713E-3,-2.7116641E-2,-6.084732E-2,-3.7797045E-2,3.1088969E-2],"categories":[],"categories_nodes":[],"categories_segments":[],"categories_sizes":[],"default_left":[0,0,0,0,0,0,0,0,0,0,0,0,0,0,0,0,0,0,0,0,0,0,0,0,0,0,0,0,0,0,0,0,0,0,0,0,0,0,0,0,0,0,0,0,0,0,0,0,0,0,0,0,0,0,0,0,0,0,0,0,0,0,0,0,0,0,0,0,0,0,0,0,0,0,0,0,0,0,0,0,0,0,0,0,0],"id":18,"left_children":[1,3,5,7,9,11,13,15,17,19,-1,21,23,25,27,29,31,33,35,37,-1,39,-1,41,43,45,47,49,-1,51,53,55,57,59,61,63,65,-1,67,69,71,73,-1,75,-1,77,-1,79,-1,81,83,-1,-1,-1,-1,-1,-1,-1,-1,-1,-1,-1,-1,-1,-1,-1,-1,-1,-1,-1,-1,-1,-1,-1,-1,-1,-1,-1,-1,-1,-1,-1,-1,-1,-1],"loss_changes":[4.268983E2,1.456491E2,9.909909E1,1.141303E2,1.4144363E0,6.210724E0,6.0378914E0,8.476846E1,9.213725E1,2.2914429E0,0E0,3.0044556E-1,4.166794E0,4.373105E0,4.47826E0,8.282651E1,7.5163193E0,2.6254326E1,1.338553E1,1.3697052E0,0E0,3.1472778E-1,0E0,2.6247063E0,6.034775E0,2.2272763E0,7.7728853E0,1.651762E0,0E0,1.0306763E2,6.179067E1,2.6357956E0,2.1477387E0,5.8744464E0,1.214505E1,1.3750698E1,6.5966578E0,0E0,3.9308167E-1,2.2046366E0,6.5127563E-1,3.9920921E0,0E0,1.297554E0,0E0,4.33419E-1,0E0,8.886385E-1,0E0,1.2262096E0,1.9524903E0,0E0,0E0,0E0,0E0,0E0,0E0,0E0,0E0,0E0,0E0,0E0,0E0,0E0,0E0,0E0,0E0,0E0,0E0,0E0,0E0,0E0,0E0,0E0,0E0,0E0,0E0,0E0,0E0,0E0,0E0,0E0,0E0,0E0,0E0],"parents":[2147483647,0,0,1,1,2,2,3,3,4,4,5,5,6,6,7,7,8,8,9,9,11,11,12,12,13,13,14,14,15,15,16,16,17,17,18,18,19,19,21,21,23,23,24,24,25,25,26,26,27,27,29,29,30,30,31,31,32,32,33,33,34,34,35,35,36,36,38,38,39,39,40,40,41,41,43,43,45,45,47,47,49,49,50,50],"right_children":[2,4,6,8,10,12,14,16,18,20,-1,22,24,26,28,30,32,34,36,38,-1,40,-1,42,44,46,48,50,-1,52,54,56,58,60,62,64,66,-1,68,70,72,74,-1,76,-1,78,-1,80,-1,82,84,-1,-1,-1,-1,-1,-1,-1,-1,-1,-1,-1,-1,-1,-1,-1,-1,-1,-1,-1,-1,-1,-1,-1,-1,-1,-1,-1,-1,-1,-1,-1,-1,-1,-1],"split_conditions":[1E0,1E0,1E2,1E0,1E2,1E0,1E0,1E0,1E2,1E0,6.4095147E-3,1E0,1E0,1E0,1E0,1E0,1E2,1E0,1E0,1E0,-4.6257704E-4,1E0,1.581848E-2,1E0,1E0,1E0,1E0,1E0,3.4018483E-2,1E0,1E2,1E0,1E0,1E0,1E0,1E0,1E0,8.558443E-2,1E0,1E0,1E0,1E0,6.442978E-2,1E0,-2.494493E-2,1E0,-1.3912392E-2,1E0,4.783882E-2,1E2,1E0,-5.5732033E-3,-3.2933224E-2,6.745849E-2,-6.945274E-2,8.493283E-2,4.572176E-3,-4.0818945E-2,3.0069172E-2,-3.1701054E-2,1.6540317E-2,5.1789284E-2,-9.714167E-3,-4.5624E-2,6.491736E-2,3.5278823E-2,-3.4097582E-2,1.50603E-2,6.1250158E-2,1.6855912E-2,5.8719423E-2,3.185692E-2,6.0599517E-2,4.332767E-3,3.7480414E-2,5.703894E-2,3.0566102E-2,1.0104786E-2,5.2942034E-2,-5.8787134E-2,-4.6111713E-3,-2.7116641E-2,-6.084732E-2,-3.7797045E-2,3.1088969E-2],"split_indices":[514,329,700,617,700,181,418,47,700,156,0,201,660,153,91,353,698,489,166,74,0,489,0,132,347,349,618,350,0,533,700,314,660,604,357,157,350,0,13,612,543,489,0,350,0,181,0,74,0,701,618,0,0,0,0,0,0,0,0,0,0,0,0,0,0,0,0,0,0,0,0,0,0,0,0,0,0,0,0,0,0,0,0,0,0],"split_type":[0,0,0,0,0,0,0,0,0,0,0,0,0,0,0,0,0,0,0,0,0,0,0,0,0,0,0,0,0,0,0,0,0,0,0,0,0,0,0,0,0,0,0,0,0,0,0,0,0,0,0,0,0,0,0,0,0,0,0,0,0,0,0,0,0,0,0,0,0,0,0,0,0,0,0,0,0,0,0,0,0,0,0,0,0],"sum_hessian":[2.2275967E3,1.7949033E3,4.3269345E2,1.7377974E3,5.7105972E1,3.932604E2,3.943305E1,1.5071854E3,2.306119E2,5.595285E1,1.1531214E0,2.050675E2,1.881929E2,1.4185142E1,2.5247906E1,1.482676E3,2.4509405E1,1.6276093E2,6.785096E1,5.478653E1,1.1663227E0,2.0379007E2,1.2774341E0,9.4224915E1,9.396799E1,6.0838513E0,8.101291E0,2.4194328E1,1.0535787E0,1.430951E3,5.1724976E1,2.217018E1,2.3392258E0,2.33991E1,1.3936183E2,5.3949574E1,1.3901388E1,1.817747E1,3.660906E1,1.4766632E1,1.8902344E2,8.610835E1,8.116559E0,9.2073685E1,1.8943036E0,4.1674595E0,1.916392E0,6.2799873E0,1.8213031E0,2.2066355E1,2.1279721E0,5.769991E2,8.5395197E2,4.2412075E1,9.3129E0,2.0977045E1,1.1931349E0,1.28155E0,1.0576757E0,1.2137788E1,1.12613125E1,1.3112378E2,8.238047E0,5.1832874E1,2.1166987E0,9.802027E0,4.0993614E0,1.241292E0,3.5367767E1,6.373373E0,8.393259E0,5.518313E0,1.8350513E2,1.0626224E1,7.548213E1,8.3154816E1,8.918865E0,1.364315E0,2.8031442E0,5.213222E0,1.0667651E0,6.2203665E0,1.5845988E1,1.0705004E0,1.0574718E0],"tree_param":{"num_deleted":"0","num_feature":"702","num_nodes":"85","size_leaf_vector":"1"}},{"base_weights":[5.1062535E-3,-1.9987933E-1,8.80629E-1,-2.4902809E-1,1.3165929E0,1.0220733E0,-5.5370325E-1,-2.9454762E-1,1.0875458E0,1.3392682E0,6.2391786E-3,8.913221E-1,1.1666448E0,-2.9821597E-2,-8.41378E-1,-3.357464E-1,9.464288E-1,1.1896472E0,-5.0923783E-2,1.368604E0,-4.5009973E-4,6.0194768E-2,7.944028E-1,1.1755015E0,3.7263408E-1,6.2362665E-1,-5.121606E-1,-9.3606824E-1,3.3451103E-2,-3.656353E-1,6.5526985E-2,1.0928335E0,-7.161254E-1,1.231056E0,-1.4289059E-2,8.243386E-2,1.1826981E0,8.5845155E-1,-4.473446E-1,1.1805677E0,1.063739E-2,3.664361E-2,-1.1750258E-2,5.2099176E-2,-1.3472827E-2,-1.0062311E0,4.6833236E-2,-1.0157542E0,-8.922544E-2,-3.285966E-2,-8.034493E-3,5.6465972E-2,4.4834474E-3,1.0649381E-2,-5.5601157E-2,6.3463114E-2,2.7995927E-2,1.4704947E-2,6.028837E-2,4.4110578E-2,-1.8732654E-2,3.0869821E-2,-7.353286E-2,5.923608E-2,1.5796345E-2,-5.7625957E-2,-4.489699E-3,-2.3870613E-2,-5.9512354E-2,-3.70997E-2,3.0117331E-2],"categories":[],"categories_nodes":[],"categories_segments":[],"categories_sizes":[],"default_left":[0,0,0,0,0,0,0,0,0,0,0,0,0,0,0,0,0,0,0,0,0,0,0,0,0,0,0,0,0,0,0,0,0,0,0,0,0,0,0,0,0,0,0,0,0,0,0,0,0,0,0,0,0,0,0,0,0,0,0,0,0,0,0,0,0,0,0,0,0,0,0],"id":19,"left_children":[1,3,5,7,9,11,13,15,17,19,-1,21,23,25,27,29,31,33,-1,35,-1,-1,37,39,41,43,45,47,-1,49,-1,51,53,55,-1,-1,57,59,61,63,-1,-1,-1,-1,-1,65,-1,67,69,-1,-1,-1,-1,-1,-1,-1,-1,-1,-1,-1,-1,-1,-1,-1,-1,-1,-1,-1,-1,-1,-1],"loss_changes":[3.9563492E2,1.3346371E2,8.541223E1,1.0563713E2,1.3526001E0,6.162689E0,5.7301474E0,8.5945526E1,1.3516663E1,2.190956E0,0E0,5.2331543E0,8.1166077E-1,4.9126945E0,4.146652E0,8.027786E1,1.394524E1,3.7145386E0,0E0,8.573456E-1,0E0,0E0,1.3021393E1,6.0380554E-1,9.2183435E-1,2.7616074E0,7.3373175E0,1.5005436E0,0E0,9.511755E1,0E0,1.7323227E0,2.0689304E0,6.6695404E-1,0E0,0E0,3.8219833E-1,4.767647E0,1.0116094E1,2.5120544E-1,0E0,0E0,0E0,0E0,0E0,8.542447E-1,0E0,1.4471912E0,1.8573359E0,0E0,0E0,0E0,0E0,0E0,0E0,0E0,0E0,0E0,0E0,0E0,0E0,0E0,0E0,0E0,0E0,0E0,0E0,0E0,0E0,0E0,0E0],"parents":[2147483647,0,0,1,1,2,2,3,3,4,4,5,5,6,6,7,7,8,8,9,9,11,11,12,12,13,13,14,14,15,15,16,16,17,17,19,19,22,22,23,23,24,24,25,25,26,26,27,27,29,29,31,31,32,32,33,33,36,36,37,37,38,38,39,39,45,45,47,47,48,48],"right_children":[2,4,6,8,10,12,14,16,18,20,-1,22,24,26,28,30,32,34,-1,36,-1,-1,38,40,42,44,46,48,-1,50,-1,52,54,56,-1,-1,58,60,62,64,-1,-1,-1,-1,-1,66,-1,68,70,-1,-1,-1,-1,-1,-1,-1,-1,-1,-1,-1,-1,-1,-1,-1,-1,-1,-1,-1,-1,-1,-1],"split_conditions":[1E0,1E0,1E2,1E0,1E2,1E0,1E0,1E0,1E2,1E0,6.2391786E-3,1E0,1E0,1E0,1E0,1E0,1E2,1E0,-5.0923783E-2,1E0,-4.5009973E-4,6.0194768E-2,1E0,1E0,1E0,1E0,1E0,1E0,3.3451103E-2,1E2,6.5526985E-2,1E0,1E0,1E0,-1.4289059E-2,8.243386E-2,1E0,1E0,1E0,1E0,1.063739E-2,3.664361E-2,-1.1750258E-2,5.2099176E-2,-1.3472827E-2,1E0,4.6833236E-2,1E2,1E0,-3.285966E-2,-8.034493E-3,5.6465972E-2,4.4834474E-3,1.0649381E-2,-5.5601157E-2,6.3463114E-2,2.7995927E-2,1.4704947E-2,6.028837E-2,4.4110578E-2,-1.8732654E-2,3.0869821E-2,-7.353286E-2,5.923608E-2,1.5796345E-2,-5.7625957E-2,-4.489699E-3,-2.3870613E-2,-5.9512354E-2,-3.70997E-2,3.0117331E-2],"split_indices":[129,329,700,391,700,74,418,2,698,156,0,418,149,153,91,81,698,497,0,74,0,0,331,81,181,349,618,350,0,699,0,350,181,608,0,0,13,32,376,582,0,0,0,0,0,74,0,701,618,0,0,0,0,0,0,0,0,0,0,0,0,0,0,0,0,0,0,0,0,0,0],"split_type":[0,0,0,0,0,0,0,0,0,0,0,0,0,0,0,0,0,0,0,0,0,0,0,0,0,0,0,0,0,0,0,0,0,0,0,0,0,0,0,0,0,0,0,0,0,0,0,0,0,0,0,0,0,0,0,0,0,0,0,0,0,0,0,0,0,0,0,0,0,0,0],"sum_hessian":[2.2024875E3,1.785274E3,4.172134E2,1.7300394E3,5.5234657E1,3.8002527E2,3.718813E1,1.6738142E3,5.6225254E1,5.408197E1,1.1526859E0,2.033132E2,1.7671207E2,1.3573402E1,2.3614725E1,1.6207373E3,5.307691E1,5.404045E1,2.1848018E0,5.291555E1,1.1664203E0,4.5417187E1,1.5789601E2,1.7428757E2,2.4245014E0,5.639871E0,7.933531E0,2.2579424E1,1.035302E0,1.592601E3,2.8136322E1,4.9096172E1,3.9807377E0,5.2726288E1,1.3141661E0,1.7971914E1,3.4943634E1,1.5044481E2,7.4512014E0,1.7315016E2,1.1374124E0,1.3927274E0,1.031774E0,3.7271805E0,1.9126908E0,6.143868E0,1.7896632E0,2.0455177E1,2.1242456E0,6.564792E2,9.3612177E2,4.7251827E1,1.8443451E0,1.3274419E0,2.6532958E0,4.904317E1,3.6831148E0,1.2321249E0,3.371151E1,1.4787996E2,2.5648577E0,3.8460813E0,3.60512E0,1.7195387E2,1.1962817E0,5.075994E0,1.0678737E0,5.921692E0,1.4533486E1,1.0552733E0,1.0689721E0],"tree_param":{"num_deleted":"0","num_feature":"702","num_nodes":"71","size_leaf_vector":"1"}},{"base_weights":[5.1981155E-3,-1.9216737E-1,8.570414E-1,-3.0793682E-1,4.3688473E-1,1.0037959E0,-5.716981E-1,-3.4451723E-1,8.9996904E-1,6.4627457E-1,-9.160476E-1,1.1394538E0,8.532666E-1,-7.6595765E-1,1.3671222E-1,-3.7463972E-1,5.9717562E-2,1.1140707E0,-3.0136713E-1,-1.9821738E-1,9.172881E-1,-1.1464797E0,1.5995719E-1,8.1401324E-1,1.1604793E0,6.8123716E-1,1.0195143E0,-1.8359254E-1,-1.0009171E0,5.744406E-1,-4.4480946E-2,-9.7803265E-2,-5.6584305E-1,1.1451844E0,3.1015147E-3,4.0980458E-1,-8.565527E-1,-3.7432173E-1,1.2156161E0,1.0607188E0,6.2323164E-2,-6.4480424E-2,1.5332827E-2,-2.4477091E-1,4.5138184E-2,2.920321E-1,5.7150424E-2,5.913916E-1,1.1743468E0,6.1488265E-1,6.206714E-2,1.0577221E0,-2.497696E-2,3.9636E-2,-5.076314E-1,8.816755E-3,-1.078084E0,5.111131E-2,5.0208993E-2,-4.4480055E-3,-6.162277E-2,-3.9921444E-2,-2.3297423E-3,5.9083678E-2,3.707926E-4,-1.0261478E-2,4.714038E-2,-6.390548E-3,-5.5568106E-2,-2.2556325E-2,5.3212132E-2,2.6596686E-2,7.1827956E-2,4.1023117E-2,6.551371E-2,-2.3871714E-2,6.8200484E-2,-5.0170075E-2,2.5696075E-2,4.2014714E-2,-3.6090877E-2,-7.179256E-3,4.83748E-2,5.8955252E-2,1.393739E-2,3.3548214E-2,-1.1384008E-2,5.5177618E-2,2.8313193E-2,-4.3738622E-2,4.1746147E-2,-5.9555154E-2,-2.74488E-3,-2.3123158E-2,3.8248062E-2],"categories":[],"categories_nodes":[],"categories_segments":[],"categories_sizes":[],"default_left":[0,0,0,0,0,0,0,0,0,0,0,0,0,0,0,0,0,0,0,0,0,0,0,0,0,0,0,0,0,0,0,0,0,0,0,0,0,0,0,0,0,0,0,0,0,0,0,0,0,0,0,0,0,0,0,0,0,0,0,0,0,0,0,0,0,0,0,0,0,0,0,0,0,0,0,0,0,0,0,0,0,0,0,0,0,0,0,0,0,0,0,0,0,0,0],"id":20,"left_children":[1,3,5,7,9,11,13,15,17,19,21,23,25,27,29,31,-1,33,35,37,39,41,43,45,